1027 100
car 0.011493326162258689 0.3061696615323967 -0.022371714143659436 0.03827683395514625 -0.0910720181586697 0.22046762014016202 0.023981454265254817 -0.13794357818810035 -0.12487417151657403 0.0819465285478911 -0.06002806210124901 -0.020988291044910467 -0.11449360574124885 0.001514468202503088 -0.32091970764786987 0.20387721989513044 0.11105257310807828 -0.21209306154856197 -0.1168933013627826 -0.2966174412683919 -0.21940481146196295 0.16226829524788763 0.02981086372552217 0.00536922461263558 -0.08315688050044326 -0.054656307582841804 -0.04299761971045456 0.018995122269980833 0.02962801566412638 0.01579899991701287 0.0017393232005097508 0.10315829512667304 0.20419386560187708 0.11773582057100035 0.2081483328267299 0.031772321049380096 -0.02048209591703381 0.0013269786492238645 0.008830105012160624 0.032307471372893824 -0.08695709468685935 0.008040658443609492 -0.15756495889892558 -0.05493830010044042 0.01901281028591748 0.07484761777799248 0.004311926592158216 -0.04574788617690618 -0.0025657773520498155 0.005772782389097455 0.16023467578549025 -0.03049851712961165 0.05170720396003978 -0.09753705553156444 0.08734229737220699 0.04221884776443539 0.05369616892054914 -0.01566744163524339 0.015925897170527434 -0.011675446134026352 -0.02079053196312781 -0.050955164522057575 -0.013205085639535973 0.12551805597842736 0.07809672911375495 0.10588314922067303 0.0017036991789571181 0.028392732738703873 -0.053783591951740206 -0.0013194804594661245 -0.11364805967688699 -0.0725262324069272 0.08376813683202919 -0.04740094914033717 0.05455468473966702 0.042225831706430184 0.05003168110535727 0.0024147542892044007 -0.07110061094008104 -0.15603925083152606 -0.009028067571013446 -0.13074003643295795 -0.03214144935193477 0.1076429470110777 -0.0036161306572316393 -0.11737714666226405 -0.08288467868274156 -0.05741931728370008 0.057845842566080344 0.031880964052888885 -0.036734245400218364 0.07229196437805283 -0.028347150988850732 -0.055376656168932926 -0.05173531503248994 0.032082457968746925 -0.03132561652070333 -0.0508275261845134 -0.06417282070188925 0.06805136169276252
door 0.010951894851770292 0.29643609605705523 -0.022872981614552635 0.05060319158624626 0.04985726981102892 0.2596418379178127 -0.023865432894502867 -0.1458453486563576 0.022553879904055166 0.16470921685347437 -0.1533651712375358 0.17400284782050757 -0.376090606207141 -0.09584685914331838 0.001360048645871726 0.09741956106935444 -0.17324161268638513 0.060182536148315154 -0.018168365138646225 -0.03952567875469737 0.16758967109055695 0.04587898879776935 -0.1223853556447079 -0.1721990365666085 0.011409446317398453 -0.027555294623335193 0.059192763036735166 -0.0555476652727207 -0.16349030646923135 0.034371020054278306 0.009975845609569487 -0.1025554610320738 -0.02591592206306441 0.1546912905575863 -0.14109769328965693 -0.009459481603156307 -0.021567263989492966 -0.012678754423212512 0.013501335111762259 -0.056019528410116086 -0.23584465237681945 0.053747154668849086 -0.010486351598801812 -0.02487434393427377 0.09182046749714841 0.14116655704901876 -0.009702961759929098 0.04379730377715747 -0.10864754573555939 0.028127063999599283 -0.04060446221831292 0.16563473343353893 0.026963873644074262 0.0017179335005040794 -0.03813031480932889 0.08804569499375096 -0.08989689348243853 0.13055578673073034 -0.11975884948758048 0.009268218088286918 0.05659817509266543 -0.02220901836791163 0.030290423027904214 -0.1597388665969854 -0.018272993997414468 -0.13832135140132767 -0.0002990203052205558 0.012557624661055053 -0.07418856369118049 -0.0743753579825068 -0.005583929505553152 0.021607605745994823 -0.11169761723321917 0.06302548472134258 -0.0517940164800573 -0.14702106815147703 0.0490781338537982 0.08885207906116185 0.14058446176286438 -0.08714698275464308 -0.01588553794603986 0.0893634375601874 -0.05310673997552047 0.0022193683463636255 -0.0006028151281802235 0.01598773783016389 0.0214659046385263 0.013932543443065342 -0.017150255550422457 0.11578047472531648 -0.01045956501913434 -0.04295509248736243 -0.028882044234023276 -0.05969953208731425 -0.06919747833194803 0.04241969009076854 -0.022025981312214685 -0.043008304505588804 0.052051213631715394 0.08115496170486419
book 0.00862722327282918 0.23713742891211817 0.016544372748162006 -0.09706169926011224 0.14616973203631345 -0.2947294165440232 0.07436393475710283 0.12798797004126172 -0.17798153260950125 -0.06451191997034254 -0.013033520701627433 0.10424859915039901 -0.07326501544046467 0.2139430503909608 -0.020103242752244302 0.17208613703616862 0.1722432682989001 0.057062318357054914 -0.1009791414272828 0.06903672942775642 0.09507837194708178 0.13010146034338915 -0.016132218975780606 -0.12170713256862092 0.011267816325251295 0.16483323464083463 -0.15162727182517613 0.030171362385448416 -0.030005459315275963 -0.0659366960810145 -0.05839787441589438 0.05288672080660817 -0.04758282567869646 -0.09023138852199984 0.10386194269584241 0.21095159340379765 -0.16311865410565315 -0.05207807311262586 0.25581984748980496 0.03848112889420862 0.03521245955693762 0.017334538006663385 -0.15394103107713134 0.11663368512351427 0.03263328114387308 0.0764077268466095 0.0006030316540696344 -0.09584993069723864 0.1047793759915841 -0.016216346832247926 -0.07694503198532178 0.04462292390754947 -0.009125534732701718 -0.004571148808048972 -0.0611169734417579 -0.07167727593200002 0.1651912429113344 -0.021761290381745544 -0.01314868514507048 -0.018856759652296332 -0.0045648638546802725 -0.01980947179247815 0.08234852212699631 -0.024040046125209623 0.08921318623262516 -0.12825034299705157 -0.008880843661532307 -0.03917108105315787 0.1399312134263637 0.17085607264179353 0.032685943810801324 -0.03533818118028074 -0.07999409842145197 0.048831542057010964 -0.0854180256874711 0.05137267480625718 -0.0730613174441029 -0.00013966068585985342 -0.1619573632663805 0.05525325682403569 -0.001437337454055998 0.09736366637872926 -0.07024901152292022 0.04568962393698747 -0.0033822636743232183 0.2396566072811194 -0.07201297398439335 -0.024034580561822422 0.052489243039281125 0.0019997161230093197 -0.007194285722841751 0.10396794077505091 -0.08608010063725004 0.033514998558447764 0.04102247838061333 -0.05853527199526171 -0.002809054290248667 -0.0570051036691883 -0.04154464485744605 0.0277023529922644
arm 0.012058862055340253 0.2989215532891448 -0.0207519379154611 0.00820298328361389 -0.19499908608088531 0.0714860928506815 0.12719377014580097 0.17535011421114916 0.14572098235462705 0.04797627912595499 -0.0773920239565007 0.028027743651269862 0.12592575039813292 -0.011384286388816714 0.0657045491244628 -0.06413832995271368 0.04362486978288743 0.08769331485471804 -0.0028277572282130476 -0.14609833132463093 0.06590221378607779 0.10167967264563461 0.00516022017379609 -0.06888474806068189 0.08438712036963888 -0.0765942605392241 0.2523641469356583 -0.08305909498559268 -0.21729232959706185 -0.060371210982743576 0.08227985418001027 -0.16339007621425097 0.020167585222553793 -0.013447181443382032 0.2066110490186142 0.09662026513173805 -0.09333899950999171 -0.04295160860789541 -0.06227155718403791 0.14768497073841585 0.01732656574448943 -0.19435538994285803 0.04172415552577409 -0.046098927906053015 -0.15921421981334236 0.11415124488036675 -0.01908618899510619 -0.008522471456713226 -0.017980974381401917 0.015416253424291974 -0.09728964229925448 0.06779704224617841 0.028679329127037505 -0.020114126103090577 -0.11043912212922528 -0.1482458704664001 -0.052965936266003336 -0.13245173419009756 0.07590620000539779 0.011199453311680192 -0.027798722835944718 0.007856252068327579 -0.0028936654756196276 0.15338799600322234 -0.20669176572311762 -0.07502063905164405 0.002045834595546799 -0.16120581348526924 0.11643572557553925 0.04898764248335172 -0.1345820752334148 -0.11090509561475706 0.0430691921912063 -0.03005741858546207 0.07140459503567924 -0.010356596097697844 0.0720833795830273 -0.012264208996221654 0.08391101553704608 0.032883817723933284 0.017352159737682112 -0.043397212434012816 0.24749666835397807 0.1104650288527048 -0.0022588270279978945 -0.16725732057604334 0.04813430817815302 0.03281425176762267 -0.04436576289866699 0.023008177890085288 -0.05376547609564037 -0.030403915542209184 0.056624849040510364 0.044996873259000196 0.04432226715911988 -0.07395917815458614 -0.045956351360340826 0.028188163152813632 -0.02928066852225018 0.06904258016640907
give 0.5725002761028615 -0.025672936547491792 0.0008334555740940524 2.860381588633952e-05 0.0019425689833941133 0.0008245240129991334 -0.00015327696600484669 -0.000417765222758054 -0.0001357619108970638 -0.00022872648959999467 -0.0018249831133238523 -0.0026085712256308175 -0.0031181768810192054 0.0011429738442561969 0.0039059334184923995 0.0022507706256387834 -0.02162907965421099 0.006011834530339893 0.024058320498496974 0.05741191618922532 -0.16665635037088525 -0.017200726453241857 0.11223878140620033 -0.17167955915548513 0.1420643485019728 -0.016421066728570535 -0.012967118226217234 -0.004545901550454421 -0.002398553733604056 0.003440558300097553 0.007115280725726457 -0.04068090476888603 0.012160481142719153 0.03750556710669824 -0.0302203232636195 0.15665094791035997 0.1396159182853781 -0.031112002024173416 -0.009152619566106726 -0.003123011161764148 -0.011175127860097115 0.009951160269530778 -0.008354494434708329 0.013031828088503157 0.016985455562638696 -0.019407900457199048 -0.06179500658600535 0.011598396062228884 -0.0182852837803681 0.002898653465916755 -0.007595129157154553 0.023048853570877326 -0.16026489364190336 -0.08300129686023024 0.005657789952961459 0.0004374547595792903 -0.0010537281886356773 0.0009753215889928077 -0.07562375156101885 0.04648348614540684 -0.1796275460412318 0.015257825007207536 -0.00632985369472592 -0.0009501488806001226 0.005395917726785961 0.0115710075673482 -0.288137015449306 -0.008334121219173036 0.006722423406769439 0.029983505964680992 -0.030770741413868607 0.039335942313549734 -0.12253501759247389 -0.3020970568177435 -0.024275439183453075 -0.010216993539966392 -0.0169764452228166 0.0020174877727961236 0.010923102070618921 0.006553447899331994 0.002805944600409817 0.003247156586517179 0.0026182242133743227 0.010769577373178832 -0.1922687219282439 0.01544084560722203 0.013239450641383349 -0.018358216164515842 0.002795044971481678 0.012343254246029459 -0.021224300901970746 -0.0010005584346116172 0.018745923216938472 -0.3598304557782738 0.2411333458595916 0.0069059315407921235 0.108488904714975 0.08161863480486888 -0.09176303753535532 0.024201004301289134
dumb 0.0012509492428751834 0.05528084478226817 0.8344899415486756 0.0006630193968730381 8.312341375485514e-05 0.007098335822841524 -0.0032721672934280495 -0.0034095528375879046 0.0025699406625607005 -0.0025740040035667233 0.0007736201232256485 -0.004222136267983816 -0.004265008767516739 -0.0019996188929316434 -0.0023893341438804903 -0.0007508609164398766 -0.010316750612644749 -5.386982510525852e-05 -0.002311359351632714 0.0003892536043608009 -0.0025832485456021843 -0.018019838967069206 0.0044238174880321625 0.005032462971260361 -0.004275925249680679 -0.029546167063433004 0.019450994202032165 0.07832887423196104 -0.015160916562138043 0.008164143592224771 0.14501128246965125 0.041359887306256456 -0.019116947650593477 -0.017959202435997357 -0.023281205913049857 0.008402419116711878 -0.005688396026874932 -0.0008926667469566015 0.0027866803694955645 -0.00017375637485177086 -0.004091928025457429 -0.00933414783964473 -0.005198168015873444 -0.0004853654190117261 -0.004142738256641944 -0.0014885353681011785 -0.0006946146391871578 -0.11264377725190323 -0.11611374889302763 -0.09428708707493426 -0.007172922737026848 -0.0019122699536030182 0.003546803094030838 -0.0011457173759009513 0.0027760176991908324 -0.009121573058458973 0.02151574527226916 0.009994987133648851 0.001972450226109609 -0.05610667334634922 -0.013011042463785646 0.0159632009753924 0.01636934533999681 0.01280123989943625 0.012411508645546859 -0.013614535393908148 0.002783212684167969 -0.030568472740728932 -0.1432134006987423 0.058799435184855524 0.028174458062871936 0.05044738745144888 -0.10381909540665338 0.04306630819812141 -0.1831826977609118 0.3432734388204432 0.07276767500848605 0.04561325760736462 0.0867168075309793 -0.040340138914936936 -0.07912554703976699 0.029668474269955693 0.07006733195694513 -0.0053208444473569405 0.0026988395965781924 -0.05001873100147638 0.009923675283970233 0.004115200554440783 0.007461459956862995 -0.01571763277781441 -0.01825635266593049 -0.017102196050789567 -0.0016487116794358801 -0.006718783969101869 0.031973648698298 -0.017128110233810178 0.008865274289381232 0.02168668516602429 -0.03652050012236083 0.014442107095513485
man 0.01007562063265219 0.27344910595094246 -0.013740345083478068 -0.017553719216698453 0.025622692583202298 -0.22004170383496913 0.23375409413430734 0.16002446395551667 0.15830043473710023 -0.09409470647821787 0.06998796928866996 -0.0185744907536204 -0.042912369080027636 -0.09885965895951591 0.25727361101932744 -0.08911983142572677 0.30647848935524213 -0.03566129791919921 -0.10868038284550068 0.2151293492480415 0.008827389982208977 0.10436200324257688 -0.13032684117514795 -0.05263761854446014 0.06608802668764797 -0.016678755337654182 -0.0017281772760433533 0.016090116606333645 -0.0058136775416622495 -0.07227167621013367 -0.003371105499607257 0.10046649269432552 0.09578743482836602 -0.114904136481283 -0.05852903484346098 -0.09899727389839987 0.1130313043091827 0.05366037334490606 0.13957667968459248 -0.09759037745598124 -0.17593342882976473 0.1498445251971047 -0.1896279252529395 -0.026542043317240766 -0.03284298831107742 0.017686621588687598 -0.008553634039990637 -0.020250702167211556 -0.0753583645596136 0.0524529217634616 0.009470466423882015 -0.07172302352325757 -0.091242493055325 0.1138906250444088 0.024017144484265104 0.166465122864499 -0.04638677735902531 -0.007594842288817195 -0.10834114236037717 0.027572825693759448 0.052223790850074545 -0.030830100862257195 -0.09115406533854621 0.023420046298212024 -0.11806283197188187 0.19604622104787592 -0.0007445640925214444 0.12497184078669701 -0.08250390719463337 -0.03915326995642294 -0.034382326287857735 -0.023418190175364752 -0.068696047334195 0.0345672699585396 0.061336677802576456 -0.03230972446934856 0.04307233121067361 0.08512485290411473 -0.024519139931979014 -0.0003350141867307874 0.006140691124593771 -0.0746558149368066 0.11209183780975296 -0.04957286486702597 -0.0039785527443882245 -0.05679899676036227 0.03628332226580686 0.013413694298765962 -0.01115017037993099 -0.018853106059514648 0.0047148807578726495 -0.00038192513714528577 0.19682713920305703 -0.10157132089106588 -0.13594033658002114 -0.006554581405119701 -0.09428546114899249 0.01962115550737747 0.031947139079454095 -0.034332498093774554
bed 0.009135853821578136 0.24555338151422385 -0.019134570042777743 -0.1736914669817562 0.02140053284010574 0.36599419983480247 -0.18107633064588136 0.01667268970155639 -0.1726194117554636 -0.07572171480695013 0.16912559525835444 -0.3086020706725787 0.1446474054577827 0.04149899235578835 -0.0945446691774194 -0.009836112175237773 0.2246987666006165 0.16955603089744736 -0.008375231906477168 0.11289058595277005 0.049003056482390915 -0.01274534798073812 -0.05988707483427253 -0.12767592399338104 -0.05972978386374617 -0.024035543115842984 -0.03291797856196928 0.012618994148391993 0.10259525438983248 -0.02486065427360936 0.007650624928391256 -0.11841921486380255 -0.07359485677988238 -0.14296930327712815 -0.02308295535418199 0.03514063054070084 -0.030190214042730423 -0.012091086741510914 -0.09823639438934538 0.06890115177534979 0.061938157395269 -0.16632345393678877 -0.021459343829806042 -0.001059379800207381 0.001046318702999491 -0.14899604679465175 0.012238698919286592 -0.035945473270595364 0.08694840191263117 -0.01681525652283688 -0.029148208256724213 0.035702625634006016 0.021990401015232922 -0.0340387140477232 -0.1806620171249946 0.0281305367839963 -0.07542128085377907 0.08625318970874603 0.1090871957107719 -0.0437998924057558 -0.07020744114757586 -0.11097942877823892 0.020061218526472458 -0.03628316467158473 0.02173929271771124 -0.062034877531699714 -0.00326009480543822 -0.05323573784715621 0.08967053928161355 0.03090395108341857 0.07279535239232296 0.030805372528428056 -0.08112261320092458 0.03475486132639248 -0.08198080697915162 -0.08506606195516746 0.27300181276825236 -0.10517521329616174 0.10721501797579729 -0.007870910260753147 -0.002819552282683273 -0.13086869576807733 0.019536155109316555 -0.025919270052305512 0.0031279290761238687 0.05598973889687148 -0.02608165133019615 -0.05565942539835655 0.03814593519384596 -0.08830426089678652 0.0023490099963232283 0.05595316279991896 0.02890122045533932 -0.033947737461514575 -0.05525322004013973 0.09114616886040777 -0.019098124824957655 0.1188345168256821 0.0728412323832255 -0.06214110843922105
boy 0.01209028689806413 0.2859446625654756 -0.020477534279881648 -0.13131369397022083 0.03357230525203611 0.051258594872717105 -0.3157821912149029 0.0029447620004281133 -0.10839790387134936 -0.05024002165595411 -0.03549227027054713 0.03143450888923925 0.10219318859144687 0.12807794760978394 -0.11153793822548755 0.022924254230447673 0.012284989585925356 -0.0767268846547493 -0.08277381411785245 0.09923255223447583 0.14130791322997638 -0.18526116546206678 0.009931717706477175 0.04391904976212989 0.2056385259519162 -0.06944977933537556 0.15048021403660383 -0.0792395593018874 -0.035074276162076506 0.011910855766955494 -0.02731365197424243 0.008674598383697864 -0.007534742767815615 0.0011792695662366307 -0.040990051855092025 -0.06625307813219798 0.05249975835687404 0.01470840067443067 -0.01900779374096967 -0.08187289985208498 0.005885272176165521 0.1627768935623263 0.033751871569892816 -0.04865445886953054 -0.045990605836384445 0.021424024251737138 -0.0024757414623604967 0.019538044239929032 0.058553740561739516 -0.037646589734538966 -0.07025157584527533 -0.12424006036883595 -0.06831032396262203 0.14133090533612408 0.16686122511738238 0.06280877128103383 0.17170665242854766 -0.05005700794891281 0.25235157490121213 -0.07557662770620378 -0.12634136043981706 -0.006524623035525578 0.11932719500166643 -0.1846480821508737 0.21900185785383572 0.03728985373319673 -0.0010080325529391743 -0.038150789073264135 0.07352538995350466 0.06493921289141422 0.1342893893614559 0.06237703539239567 0.10557129899367115 -0.04206183520049686 -0.06465024639072564 0.10082905718441651 -0.10455375733543541 -0.09652765102412048 -0.02764376736720463 0.10738518614785625 -0.004327024755727275 -0.08448912171628033 -0.18706360467683472 0.018182804111927846 0.008972993858789892 0.010785137223250243 0.12606304364494123 0.09202962396529864 -0.12195737850362795 0.08093091667192075 -0.026560108638109765 0.08904151084704659 -0.07271859267024558 0.05330107753714345 0.06093792439100816 -0.07347488183909469 0.06266790621518108 0.07806303123720915 -0.018142156258757456 -0.14124402563267288
bone 0.009532281990137068 0.24022299764529165 -0.01421724350271322 -0.04346034680014582 -0.11590156859300246 0.1073762059470295 0.005217169198278743 0.054206446022699285 0.05328229292843985 0.25909660531999285 -0.13723033579574578 -0.13253983266360428 0.08967327980240838 -0.12218679266488224 0.0850001863569011 -0.13045306741837126 0.033710066847486515 0.16791038137288541 0.14835747310960934 -0.06024147079396289 0.22309751206188574 -0.09406137761494851 -0.039644161088305985 -0.1189478010338235 0.16157116924796316 0.2006390700830431 0.10935357002240151 -0.04864657870543414 -0.22690455893907827 -0.21704296602041231 -0.016720001349187406 0.13284038968916442 0.035859951697753134 -0.1252002639467268 -0.09221098245324567 0.008167249810207548 0.011916396773587733 0.017666254823393058 -0.015130029740535728 0.10571236059635147 0.17312477657104516 0.2062147520640527 -0.05726083642004242 0.07973283928182268 0.11086195216214324 -0.09067616067774295 0.010947684102495154 0.0454895805666143 -0.03201350376211588 -0.002450000521737963 -0.02013844687200935 -0.09628584429690723 0.036249719964685186 -0.08415377838735212 -0.08173209544244821 -0.11736659315357245 0.06186660143253386 -0.05401818076249895 0.039270700949571025 -0.016054705195635954 -0.04129412374679431 -0.1622077135303128 0.13020013227993943 -0.001234634371359233 0.08548543070666705 0.14162597097331356 -0.0038310349456948255 0.07034047561689999 -0.033514432125557644 0.0441430846581098 -0.1426890821889892 -0.10646606499146895 -0.028394759936945548 -0.009791389452766945 0.08810087388350976 0.09616871583002368 0.1079827412656516 -0.05266622928896969 -0.17399986253005295 0.003289870775913938 -0.0010707121055618495 0.015788310244394192 -0.12644866062377186 -0.0995878408843054 0.0023445009158412525 -0.023332202847996402 0.04819370540969134 0.0028236935106233175 -0.010935818065880733 0.02259793518335499 0.051385631812373454 -0.12912921284512238 -0.06195960639367549 -0.043860401155440557 -0.05790593704641851 0.07584351364522983 0.012533821109260448 0.04704593797399613 0.00955391070337003 -0.027325041789163666
leave 0.4729192148699422 -0.01990856610628342 0.0006069953835261425 -0.00014876992904986038 -0.001384460212503478 -0.0013870682790769024 -0.0006569984515304145 0.0003511484762770619 -0.0011242223478286032 -0.00023416908252945628 -0.007434559729639752 -0.0064169739957755986 -0.004777381888097906 0.0033498173944568597 0.00816114713373517 0.003796709194227046 -0.02535942171788169 0.006891052716522824 0.02591173743543308 0.05124588593287276 -0.13747570286559746 -0.01314726984281387 0.09116486450377745 -0.13644419105796046 0.10396301764559449 -0.0075753975309624955 -0.008764031426918012 -0.0004924793143043756 0.0019327406000678737 -0.002316496302828663 0.0009607224564456065 0.005195989777384651 -0.0033270180206845345 -0.0218239149857967 0.02487751787300805 -0.26019297872035757 -0.29113076918783615 -0.044101531269885336 -0.008807958804974867 -0.008933177706053638 -0.012110178061976404 0.006872939710123456 -0.006962908334495324 0.008687976824369803 0.001978758973695215 0.003243814610934831 0.1286622160436289 0.0005577596029650764 -0.0011224290316734704 5.0795426395753427e-05 -0.0015476627913534762 -0.020205975561276415 0.16633669206247187 0.1423809821209929 -0.020011473786451794 -0.005902726412014726 0.003792076426215225 0.012165201354382383 -0.13095276437327247 0.05865758020067252 -0.18500752962025094 -0.0035081522412122464 -0.018323864411179405 -0.00737817193405198 0.012484377666791089 0.005891495290602554 0.16935960093139413 0.018860654386660704 0.02180357026080985 0.05454078387727527 -0.11538776148730674 0.13421050045544855 0.21248304790623695 0.4619596318634044 0.030290856572640263 0.013188375565788318 0.024618024852189606 -0.025975476458055556 -0.023737802003554024 0.009949213879567355 0.0015778185060797663 0.017821390915999814 -0.012491933690876655 0.01890789100780081 -0.15448137179719168 -0.02605702444494718 0.0030962482365917794 -0.1597214419340876 -0.12865850672100532 -0.03188346037523222 0.00668508312797237 0.015050961620870617 -0.02353543013030312 0.08523014259190592 -0.000982340711677857 0.004600389468869005 -0.14388374628419273 -0.08398608397567946 0.09000288025820155 -0.0033541567569710237
wife 0.011897104206899807 0.18964034120680445 0.049380485207252335 0.03586788182718502 -0.13862214279282747 -0.2773431985728667 -0.00347712879090743 0.11034734511981426 -0.09625328332132409 -0.20241743392584344 -0.09740005626605557 -0.07497286015601284 -0.06072013491544777 0.06508055403474033 -0.016451634612192137 -0.0142095585382196 -0.15116572285605331 0.05454816823879024 0.14466384338536772 -0.03127084054623816 -0.1660330378670985 0.18307662128932686 -0.11227096729666576 0.053414201806789866 -0.11923887240783736 0.032457004554254036 -0.005417107465943482 -0.03906809475304887 -0.03061817635617371 -0.21804285853676905 -0.008369250729764896 -0.08251681895427052 -0.1938389610041221 -0.02672753299812937 -0.22968244758397707 -0.07297202289938148 0.05202822274452256 0.010536342484695734 -0.004708290305486027 0.026068512417740487 -0.05116394927817859 -0.18568035523596546 -0.06772179659804876 0.0621105994159004 0.05073502371414145 0.17787905234950738 -0.011870084556217719 0.07015603449006626 -0.08526135115802853 -0.04957493498743581 0.030232573856087113 0.03314563411671898 0.04030626347283754 -0.016349730488010354 0.23022870377722351 -0.12890563876957753 0.11464900427342044 0.05903745067556811 0.1260032241272409 -0.05358678611513966 -0.06275079049072746 0.03422653282497235 0.05065890032311803 -0.01376359934703126 0.0435465713364309 -0.16555438407616202 -0.0069537149867976294 0.14994335724160815 -0.16513283895264677 -0.06648931006827834 0.046556056512113926 0.10827208446571875 0.059648316821459324 -0.03652132474405993 -0.12560057433760327 0.007665835813805905 0.15125571192175358 0.028456036736526847 -0.13769393775947644 -0.0011489452804007154 -0.0009418485060868403 -0.14802660661746156 -0.030936203986710587 -0.14472214884880144 6.158681751117219e-05 0.05140043630726496 -0.025027128426078085 -0.008304296824761729 -0.031113070142084285 0.07315923477223508 -0.038609577505790305 0.04940869070818154 -0.07249471832611624 -0.0379911007478613 -0.04641667556214753 0.06725375809124504 -0.045666021412411086 0.12552816828550145 0.14467927404946332 0.00999330977692716
clothes 0.007915861904258093 0.22373877848109022 -0.016351982270105533 -0.23901703415048714 0.19341282784577596 0.2240278471788587 -0.11597621614600184 0.07129626337772764 -0.03564331972335613 0.06254892133031946 -0.024775770199771105 0.14892317483417788 -0.02747637028767411 0.15999242408012132 -0.024689816840237883 0.2988033170669258 0.09234481674262392 0.05969549083979576 0.10116009110687986 0.09619504304606101 0.00745935985732682 0.01834771383227324 0.048346044368480556 0.1586103989798648 0.09945749800336491 -0.08758354359792787 -0.12077879572438315 0.0021323661623312328 0.022780735010898556 -0.0297284111400355 0.03618375310882782 -0.0910179867547592 0.09539681666397054 -0.03875580875311501 0.04685755908821981 -0.07191887599053116 0.06668099810164725 0.020218635762774575 -0.0690855171596659 0.04500586326902546 0.1260666768223305 0.07160293985977478 -0.010260139818085868 0.09347832031483543 0.05562830063384033 0.08543363010904804 -0.01066087795627139 0.08553376481101954 -0.052546151064560655 -0.016139315622349146 -0.11049430874990505 0.04142150234552705 0.012515281371220122 -0.010352322762443175 -0.035856589009054356 0.006717511879639959 0.3299937354463107 0.21057894031552055 0.016089267053049475 -0.11149202590667841 -0.032171173745871834 0.029318582867359867 -0.10015834788937307 -0.022575802991800873 -0.016880307465264397 0.03934652861227716 0.0014974488561918184 0.016283421120852456 -0.0015397911081304564 0.0861332694501227 0.07413591559574229 -0.017678064001410507 0.08533482893331489 -0.020582583173086172 -0.10119109188505857 -0.09023567605242674 0.10507121884147536 0.022316478687352898 0.0017103365069909417 0.01805251533237948 0.007703133405650786 -0.10375133542949647 0.03989071670905057 0.007275557464311404 -0.0060117710165954455 0.03399067722034931 -0.08278715789066729 -0.10400738673706093 0.09272261363416313 0.08609148259476308 0.08716599776997196 -0.14363161825989537 0.2768082145758313 -0.06543644482645562 -0.06215463991207923 0.05248645369432922 -0.16209383835988675 -0.00987362288526535 -0.12433822403807282 0.08421147026339564
go 0.4353004648252316 0.008301116377312795 -0.0010369455659769362 -0.0003915518174080683 -0.02869025591696074 -0.017132760781560466 -0.010253430907546173 0.0002358940828244343 -0.009154385252946949 -0.004667124333048652 -0.054787564681149085 -0.047914414725891474 -0.02926338240961595 0.014646887120447332 0.033984586958109346 0.01849232371556077 -0.09099157934238024 0.023588578715161217 0.07471847505196176 0.12316084349356635 -0.2986186288066538 -0.02662203027883666 0.17361289511295075 -0.2667230163338007 0.1808672751593992 -0.006849169813892024 -0.006564400743062005 0.0011214580492728658 0.0024214244285173294 0.0022789237479261125 -0.00841100767322051 0.04401052324576951 -0.01824882167975253 -0.05158202731345721 0.0521356754600611 -0.10317260302856905 0.06040454603758784 -0.4501389296942235 -0.019134646281092772 -0.0043071113215366755 -0.0018497364892512327 -0.0028058902763573325 0.0006447887184294415 -0.01572897316999808 -0.01017561185937072 0.008373709909302833 -0.03082012948383088 -0.01413025118201024 0.024764078120735836 -0.006009310471354907 0.015290820465530583 -0.023005353294022556 0.23249113640637092 0.12247342225053447 -0.0001570627994458211 -0.0014904102078548876 0.00016988107036902995 -0.005840325144074592 0.12519235010914567 -0.07164666150053656 0.26922804004648887 -0.01921851261186181 0.015290517374377964 0.00835721386363377 -0.014934335250611774 -0.011372188548126256 0.014035356240131917 -0.023157117154547123 -0.03334610841170108 -0.10478502537649892 0.1832140747266453 -0.20910413186268337 -0.0072382082900035016 0.05062634402072288 0.02351037914181325 0.012427125337187237 0.011683550268544212 -0.0017035445649693933 0.0016147438883277044 0.00681576553384801 -0.0024564380329563447 7.485820975972036e-05 0.008914283843922398 -0.0033818621315687947 0.1050045456186823 0.023201205916079826 0.02130937294559005 -0.04673850266586461 -0.026638699340637496 -0.006767614073511553 0.01175458666248797 0.00028893881591536037 0.04113308330046992 0.14886649816199646 -0.1320225238131535 0.02305399042133881 0.03796078773897274 0.061562721939231076 0.01960858450560753 -0.003312998949501029
take 0.4615091799593971 -0.0038676036733649 -0.00031028882415008263 0.0013186482482309188 -0.01715989271231381 -0.012908718696041162 -0.010300410312016187 -0.0019238095910493207 -0.009401934009948243 -0.002872060407821237 -0.032280784038694894 -0.02918907878905063 -0.02201676603455961 0.007877489464922317 0.017373529645570897 0.008236396174897229 -0.0501962233376957 0.012930331552198478 0.043581114238924926 0.06473883862014715 -0.15765620831373744 -0.016230125014258176 0.08513355893648104 -0.12378111610238358 0.08986066292226004 -0.007457468626691513 0.004316539002471149 -0.003431766555516313 -0.0047721775624085866 -0.0012947615954187223 -0.006169127326033063 0.02442780729491624 -0.011834237110817929 -0.0296749659274303 0.01680587327733565 0.022622125913865566 0.13491573119390673 -0.22187488294689592 -0.002924165869756227 -8.578958878274957e-05 0.008913544926705043 -0.010602143081104078 0.012132553151637915 -0.012180144477529934 -0.03368909302941541 0.04595432451984078 0.27851294398407095 -0.020068649081114397 0.03116388438808851 -0.004319817616039287 0.01445247229698163 -0.08376508353215627 0.4771671820543283 0.28981282342397946 -0.027427574790287023 -0.01173757633622647 0.0028309326928460214 0.019370613506627013 -0.08037721585661028 0.02729906511255162 -0.07962691813558477 -0.004713352341597203 -0.011564238744546332 -0.0009499565155777204 -0.004574605437038934 -0.0036581954991762823 -0.08615402072480738 -0.004572802750582923 -0.00687941550469862 -0.009201873922113041 -0.009391472584519537 0.00951897850338737 -0.0029019684550095686 -0.01449126906691751 -0.014421209278796908 -0.009775416280790839 -0.01216854735792266 0.014776410639755799 0.028132394627252852 -0.01710346470482129 -0.005967218583267805 -0.01608561489064738 -0.0039370755090725774 -0.024704579783369606 -0.3108310239936011 0.005099845502647215 -0.025223794453078166 0.2485412541303773 0.18954976839223234 0.01047438747661625 0.0053770321547976065 -0.0027988086178028565 -0.017627521848107078 0.02096372911368229 0.04469922634390627 -0.014200605658746764 -0.11411412079841718 -0.08618461291252982 0.05619913463103184 0.005554477130820076
accept 0.6234621859993593 -0.028472615317113394 0.0009440470178215799 -0.0002443896183365563 0.00475649431975924 0.0029610524713387797 0.0024002244906413416 0.00047973702488823805 0.0018408439068260574 0.0007401054924085369 0.007321615866415784 0.006449886510146085 0.004519684154219258 -0.0013096827551070805 -0.003088258448171359 -0.0015718771469759917 0.009848832735543806 -0.0023225448773587626 -0.008309529956502264 -0.014784462860910098 0.03928959189071749 0.00429264773182871 -0.023256698150841235 0.03535895296729196 -0.029119139749604207 0.00412772137248561 0.0016825727951765078 0.0016342812318273713 0.0017888327911893486 -0.0014504331233867976 -0.0037126767157934413 0.024477187102969766 -0.009199040436233505 -0.03653152621752702 0.03596314626979875 -0.22585260844110105 -0.17710808061196348 -0.2660655356435922 -0.02191701089364657 -0.012978562391372869 -0.025759380364993867 0.016739090835228333 -0.014478126709404042 0.01957766566332039 0.02406165718836696 -0.02728125479191894 -0.10089758268595046 0.01322907463117943 -0.022234781784291644 0.004494560476970268 -0.008750159795844066 0.030355429154632088 -0.2006725218725422 -0.10416638863558475 0.00783597219576776 0.0019836884687688765 0.002448463074687311 -0.006001543637381913 -0.12131850925357224 0.07548891731324331 -0.3117284475112116 0.03618780951475424 0.009337789782928022 0.0015456833837783205 -0.0003331741686730917 -0.007424678697262678 -0.2702425213845611 -0.01924687218653517 -0.002272855897790247 -0.008596571835263783 -0.03715353099634691 0.02383615981051825 0.08336537860021134 0.16730753514911106 0.010650603306854151 0.006311613741885975 0.012128950286419776 0.022610797191852994 -0.01712701334871386 0.006180107293442994 -0.008794008891627215 -0.0038376243652283436 6.14549124713588e-05 0.006185106961141086 0.04655452749318139 -0.039282158512315604 0.007101413930760039 -0.19432172109015886 -0.1383159519755088 -0.048342128536223765 0.021673581398446204 0.0010132945686761306 0.018843268434730776 0.21641995994395885 -0.10362908169773707 0.006470366761957803 0.16441379903782707 0.027589980702566415 -0.04970073685799869 -0.014457404668322474
argue 0.4215464765725403 -0.020985078337986938 0.0007500918466194213 -0.00022941926557521107 0.009124435799427557 0.006321336686504224 0.004657447880260587 0.0005075803116632668 0.004274534478035545 0.0013325688950380401 0.02116022419697503 0.018580444555027685 0.013442423067463079 -0.006365296487898193 -0.015669280609654015 -0.007399575464775952 0.049833863074171224 -0.01299656366573894 -0.04805739591339979 -0.09248643546565358 0.24623949048323263 0.02423583750837721 -0.15760580904132437 0.236922228231577 -0.18261104218248977 0.014985647721602038 0.013388123966120257 0.0026975210714110676 -6.711350117023599e-05 -0.0005834887775773819 -0.0013780861980199836 0.002432629985900189 0.0015381163883680547 0.016336261676373653 -0.02045031558854188 0.18160689090490084 0.16184601564029497 0.2326944274279657 0.021817527495052662 0.014223809076806178 0.027790608621811454 -0.0185875010072892 0.015602666849648452 -0.023857343108456015 -0.02608434555578601 0.030368901222824964 0.14597615045927131 -0.010152963358081883 0.01669806416321335 -0.0029295240886794403 0.008480999818459178 -0.019173742241069703 0.14795374812125864 0.077559762572986 -0.002760993125200846 0.0010338410138186621 0.0013002385408680268 -0.0014994756129614842 -0.03160570504460906 0.02315913836849011 -0.1021992544221134 0.02125945133447475 0.0159014554320996 0.006923024858640686 -0.016269343688709623 -0.01071118906530783 -0.002803394145919697 -0.020395924804987694 -0.0389299558059162 -0.12166933459053082 0.2625044333070044 -0.3017996368289808 -0.05319788561321427 -0.01050976058160893 0.031089514410728453 0.021201211230484636 0.01862302990945722 -0.0041229744990120215 -0.02837197376813529 -0.009744241177078953 0.0019945802697065654 -0.003180176804132309 0.0014065004332198881 -0.005278391386427773 0.2550004184541941 -0.01662971545647047 -0.011083661930611692 0.06532229333366822 0.049471734779109565 0.029777554397390257 -0.0025168334863671215 0.01152798110486725 -0.015484714205264124 0.21092201918215195 -0.2676256942456986 -0.022673460707978006 0.1893833183551228 0.14274223880549175 -0.14426303971199242 0.005527350253905791
easy 0.000721232177089593 0.03751667939609827 0.6213792932688138 -0.0005606191797663412 0.003972348072285378 0.01104767728210163 -0.0019836787831911066 -0.004312853182550493 0.00330817216646258 0.002924347992425717 0.0027402809261082312 -8.931505405885449e-05 -0.0010176285324090056 -0.0009182258901189107 -0.0004800111855972046 0.0005549920341896893 0.001824973975473875 5.7658736391106644e-05 2.213493795733163e-05 -0.0001321886420705607 -0.0005890483862480358 0.01565155989027388 -0.0060648326605868535 -0.0036035928715950627 0.00023773016972088547 0.06468581261476096 -0.0510325457100927 -0.30598189697232553 0.06598473388517503 0.028744310475319848 -0.029348969565497852 -0.01581237744513592 0.013596766287100905 0.02182928289592761 0.02266584409139519 -0.022243298650068778 0.016869853498093033 0.003699500317113312 -0.014602236826750823 0.011627178236789578 0.01907098946381729 0.026732708898715436 0.06680187022664724 -0.02635108628663417 -0.05000354194654444 -0.06831152384268498 0.00137520746895575 -0.2518178207066278 -0.20749188173528432 -0.021777420033767706 -0.011180602649655948 -0.0008860549923700476 0.0022222771336247353 -9.635513805797626e-05 -0.01132866260529007 0.00461077492352729 -0.021224835366811752 -0.0227590174448226 -0.04480515844914127 -0.12214867578420142 -0.011351218980121876 0.007296769921939522 -0.0029323938058573593 0.0015427086131049807 -0.024781708498887306 0.06284457811299403 0.014892529041028467 -0.21628355978181846 -0.1894134124609302 0.0960317009842458 0.010583999557619858 0.010348817958534285 -0.020309768401723296 0.010986433456934256 -0.00029041989911572907 -0.03428416182344459 -0.012295850154944075 -0.0060878504639004394 -0.038052697196127847 0.004638851038399824 0.3073529009904311 -0.010788522989176468 -0.08489364682433234 0.008126975238359715 -0.0003408744714626687 0.08484924100946988 -0.03337083957276902 -0.014607532748382317 0.0040175822514782866 -0.064169920623856 -0.35737249021256257 -0.12964416896130193 0.040090071814383385 0.027122794447533575 -0.015055007280819049 0.013102102232996413 0.0022650460469095584 -0.015480565065989651 0.03958277795527851 -0.020405879145271998
bad 0.0005643655660100357 0.030190149772983448 0.5142228815610596 -0.00042422147001249406 0.004233061284323111 0.013523093563172637 -0.002962468418129984 -0.005501719082636193 0.004656688798748022 0.003640691430504158 0.004189964803032414 -0.0005791265774988929 -0.0020567636051434758 -0.0025279366711826166 -0.0013683072375365733 -0.00037593740413287405 0.00014736474259222367 -0.0010814251639435994 -0.003158648897014052 -0.0009518009090296068 0.000973598468559278 0.00514095666193189 -0.0011613233681065877 -0.0012599931245860841 0.0021963387314129497 0.03568825403653777 -0.027844218241220443 -0.17146263960571648 0.03929358157943342 0.003980117438895861 -0.17913195196626322 -0.060958440266985665 0.02635328075970078 0.03953555426386384 0.03892714930913219 -0.03557180499830854 0.026366714750382866 0.00557529044541973 -0.024092883658260875 0.012906037428616825 0.025015335766153207 0.038381362459919036 0.09890165639336587 -0.034478876980091604 -0.07260755079267606 -0.11012311844312513 0.0032845094234002377 -0.2419271501268112 -0.1552799751128817 0.4240839951400494 -0.008530731765003245 0.025086778102626828 0.015221189039469228 -0.007071164771502944 0.006795549399002731 -0.018171491692465878 0.0115560019208401 -0.006058318256474345 -0.008053733650440948 -0.045636744500681954 -0.007020085201834962 0.004466657166594491 -0.0038342387039858226 -0.006307277837761246 -0.01649582813465193 0.03146593004660614 0.004629744209421519 -0.0762585923630309 0.021088392074732627 -0.0048878792519998545 -0.018496714449123697 -0.040178266438362274 0.0978474775142802 -0.04399383460098406 0.19703744595931244 -0.4141938538090745 -0.08683095884197777 -0.06419140557544052 -0.1442142102158875 0.07680499187710008 -0.0807867286825012 -0.07370024316729361 -0.1482230749753842 -0.009907505134530706 0.003143442322220154 0.11666417092033951 -0.028193208474219363 -0.013958929719429972 -0.005442902727966101 -0.02453265480238764 -0.196107239096234 -0.04074341968102756 0.0067437282810982055 -0.005686252071213775 -0.02708863072111105 0.012459636391270484 -0.0075489065415939045 -0.002893512926523314 0.04446706104881077 0.007167003749750704
word 0.00701823446400462 0.19762265725452355 -0.014493927810860067 -0.15753147450976976 0.3365240758615094 -0.30076690551903806 0.01534478815414384 -0.1964345733191318 0.09508458692952387 0.40909260050028334 0.23781787868091284 -0.11517830447316955 0.0886872350022473 -0.007605296801473294 0.01927708153245972 0.017895396904059082 -0.16110479936950614 0.007577855022517262 -0.11447352504792939 -0.08553352725382556 -0.1850464757834415 0.005908021331345595 -0.009798061522430063 0.02187491921823095 -0.16990347822102028 -0.12741423275319463 0.07622696688384642 -0.021045821898094223 0.11578613905519197 0.047283029946262364 -0.0006659046087251132 -0.0893066148761255 -0.09225683280872508 -0.028338761599968093 0.009619019576180261 0.003468874976270859 -0.004206584649109437 -0.0003045514645967705 0.0012274710813228655 0.10084100916115228 0.09792707516761352 0.11397503084878421 -0.04971643781823901 0.0187678576889389 -0.05429969268804439 0.08619876758130131 -0.009439619373167108 0.023349914673017908 -0.03558463115339679 0.005124555869090924 0.13082792904310467 0.021332890168323584 0.020709856718247065 -0.07518187149389735 -0.02855575638593669 -0.1446746900727797 -0.08296932200345485 0.055034859348535047 -0.06623708027253851 0.02033349793316624 0.02351931973962571 -0.027393498036528935 -0.11943930464558258 0.09254834666887422 -0.0017340909309292182 -0.0005076543403029659 0.0008276177240163009 0.018434341080557276 0.00889414193481633 0.011768470483377534 -0.008947266607361363 -0.01301729499099609 -0.04544412140127548 0.02183966967368598 -0.013435504171143942 0.020444525970685832 -0.06848846977168455 0.006233116695531846 -0.04185564918624145 0.12863572180771596 0.00819965581133708 0.09752171920111921 0.02255342726001505 -0.03289408342672245 0.007993628054335107 -0.0210589996447859 -0.06854092969419723 -0.07990379087420753 0.0772473180021634 0.1168052086937705 -0.0005303938324380586 -0.06751239058289504 -0.0799563025522684 0.12721918160460113 0.11724404120044872 -0.030102172177290793 0.12426947691276667 -0.013040590247198952 0.014193304432442752 -0.11717610294056831
alcohol 0.009014435284106982 0.2459199550396574 -0.018203808656530332 -0.1446945496586231 0.1461790455936578 0.14855035845897957 0.0976632906238131 0.07901654184370752 0.18061804884629443 -0.1002375095483087 -0.25619732075079144 0.21386091285179742 -0.003357758950858668 0.06390306927223467 -0.13283500467370662 -0.08713844036002656 -0.22249329162335496 -0.04402715692209677 -0.1758778979554679 0.024617872881096417 -0.09318649791203523 0.06571489344286328 -0.1654475538572312 -0.009028127053650012 -0.003351650856923771 0.12819387962366333 0.020310984638910314 0.05993815930240843 0.006124088435493987 0.22170695623427644 0.014141377901806211 -0.06886802953793031 0.0779804825156509 0.03101302795145983 0.034562518911467645 0.04712751152208387 -0.04660440628137113 -0.024804379437643707 0.12857931181129773 0.07660150453075666 0.05423606318154314 -0.015682300533384156 0.19709812794065665 0.21319745510607424 0.041397425507277846 -0.07522129138735831 0.009394737365863897 0.02652804476659326 -0.02094206054687335 0.00402164877638107 -0.10334617454752952 -0.1437709172831827 -0.03018679543140198 0.0343610995109012 0.1296387021539843 0.028983975321569343 -0.2618906763711333 0.15595679560845466 0.017211333459134875 0.006436417729593225 -0.013445711861238595 -0.027101012571846505 -0.019295263790719146 -0.06804882403683205 -0.015357790551286658 -0.02047790065805871 -0.00224411458412398 0.10719933867416787 -0.05609107274990439 0.06985892441275851 0.03440436378014055 -0.010447856675468572 0.011583782619532294 -0.0041106684065100605 0.058955284907343225 -0.0010977995853780273 0.09100607021851082 0.0352330515081218 0.05502389559030858 -0.14078186382449476 -0.021329583222219867 0.05413301747012534 -0.03206803598720288 0.03561101259195084 0.008298783753343213 0.16073565750982433 0.16278892488446495 -0.09381023072407747 0.06867365228209937 0.07276355217265444 0.010066064985968466 -0.03700924079397822 -0.01979350362105315 -0.10217454166766647 -0.11389944305423999 -0.06019895123673571 0.12145558056830652 -0.10675506325723627 0.07828737385413723 0.0026907103957656765
gun 0.01690325965615662 0.31377241176220605 -0.02162607417290376 -0.07240113371267715 -0.09122782802668576 -0.008013512006584966 -0.3229808535706254 0.04107109746315652 -0.0887288036156242 -0.036450607157261256 -0.2703896100502439 -0.07615240141721813 -0.13090623284571332 0.015669155832563477 0.07068436860623793 -0.12207535256648051 -0.11132290588310477 -0.02435863271989575 0.057151165748097726 0.1087560616622123 0.03867169093356343 0.03707482225361017 0.14861925342869867 0.19123578895899726 0.03871242070055896 -0.11871485843806674 0.10222986419491652 -0.03493984791604534 0.03065498689811685 0.019127749949944838 0.03774271477946326 -0.13988386652749668 -0.07173154961056645 -0.13321599426501268 0.022036025790526065 -0.15541644141464087 0.1546951793241416 0.06147700201968834 -0.0999455439424066 0.032906206019574426 -0.05285093307185851 -0.09400003467210118 0.13318626816183599 -0.08529391771392385 0.01863898041065959 0.14307795873385556 -0.018293517140012403 -0.1148863952701051 0.13607193820298372 -0.0019950062804305574 0.11884477934105242 -0.11338698083105798 -0.06527046548682457 -0.0195882735977119 -0.01814998661579631 -0.06719267957552852 -0.0236760856882432 0.09828483223774909 0.0007221900965674995 -0.01399736501644719 -0.013653535252675033 0.03020291642646732 -0.11919495159252744 0.013994073588709223 0.07840681276392047 0.09751572732311126 0.001282906519864518 -0.026446875493094664 0.10413131233148479 -0.017308061757058527 0.053111434669730395 0.08904619317463353 -0.2241377836273491 0.0940891934909309 0.02588158826400579 0.022341859673173765 -0.1527449772241661 -0.08390380871041893 -0.010585397635448262 0.1964180051750735 0.023256505981772802 0.053470026191513156 -0.06389894767393563 -0.0837459522149091 0.00026580236879006146 -0.03693949097311124 0.00213729464610707 -0.1257193621043167 0.12004988098924872 -0.13669476250046414 0.02813948626114362 0.010938802083900814 -0.08809659732374006 -0.015214428946120441 0.0004848831822871602 -0.1179192220261153 -0.021452421114621756 -0.013557821625029482 -0.13958692729886932 0.05570996775146249
father 0.0077058100223235506 0.21151262865346282 -0.015251405787003907 0.06530332640990717 -0.08299534405254103 -0.031928168846268916 -0.06910056351205875 0.08895966907454106 0.22290607232772813 -0.12304367303512127 0.25172270352745496 0.05810490397971371 0.04950077505493493 -0.017831195595663273 -0.08895720155708813 0.27262150874548036 -0.09215402253507958 -0.05645645236549663 0.015549730826684765 0.21767702876890124 0.0373184122088253 -0.1718315649213103 0.09124527453647119 0.13635358329810568 -0.003913756415272162 -0.09230399528403985 -0.10110084741790162 -0.08412978798040376 -0.1864017014318403 -0.015071393505221973 -0.08825511211073797 0.13009734508143148 -0.10218841164119603 -0.06940411801954174 -0.03333088660108651 0.09090270695770189 -0.05651731286306224 0.018512740168572663 -0.07745580854477749 -0.0036828501645242476 -0.21726216789878716 0.07450697932847508 -0.06670226331609463 0.12692780610996346 0.05954918830458266 -0.11001982813756066 0.018165631646789786 0.07942619256473617 -0.1181886895186484 0.023909346371344547 0.23749009504515436 0.014902994451049558 0.004203728824480772 0.04740915918198465 -0.019491132476578125 0.21723680839682194 -0.06878052166862812 0.14279825560387388 0.0697407647908497 -0.030445108292182384 -0.01113621079633376 0.185888394038257 0.03942731341748498 0.024900236834203775 -0.03221892258239676 0.19315568438068567 0.000152689521621581 0.034705492334080025 0.024242609444389124 0.07079391939226598 -0.016999298203017314 -0.03298717070756729 0.020091577858402248 -0.011617594499788829 0.08404469740457952 -0.0022251696843225404 0.08508852752796067 0.15233763069487982 -0.05662321864920656 -0.005044561548984995 0.005161476595418984 -0.0011243190385324421 0.13453608817857476 0.053855927097071384 -0.005324884894546613 -0.03626273623810493 -0.11718721881823413 -0.06555239646033177 0.0739449344316443 -0.12979622971095764 -0.006724446149107264 0.03233272918884565 0.04274737688970652 0.005678479406731953 -0.017943446973265758 -0.06368499691582104 -0.09168488829411812 0.0348654895433268 -0.15158966322765172 -0.04315334823624452
apple 0.014213535697540188 0.26765727243900367 -0.016310441821683334 -0.04153009465717513 -0.09558291198458149 -0.0908408605955252 -0.12427022987476735 0.22178881180674448 -0.10539081936845918 0.07878532197212916 -0.21323312435178568 -0.13805659072677096 -0.05637734971773495 -0.14331204236102285 0.08762145914658473 -0.13971303446775604 0.040991269888291534 -0.06571757990858607 0.19062803546801066 0.012986118472834625 -0.02071189412720695 0.01085104518161562 0.0977330881039313 0.15604254122056524 -0.01778141555040595 -0.012635933338255913 -0.17731571537915583 0.035641939219852876 -0.11983892638016173 0.060005110585142005 0.08465541643105341 -0.12908378336460077 0.035919306026705684 0.015111120441286936 0.021854997002232986 -0.11075003155683273 0.09832711293381152 0.038051201599446735 -0.1819026186789223 0.033072233276816236 0.1073912982401098 0.24650161574420543 0.07307577196097231 0.05046901973797846 0.013731483299655428 0.037374069637860156 -0.007851481052220437 0.038934551971643784 -0.032483797677725273 0.00044232698891418117 0.016834830898259663 -0.07237281077052025 -0.060300533127523495 0.07782579503526173 0.04151605022260039 -0.0893627622652299 0.05819701841281383 -0.043784777498603954 -0.06728107881292951 0.01166966357363411 0.024109001460615186 -0.14562060999507948 0.07906537620041089 0.13889222182330568 -0.06977902410894513 0.043975363578849964 0.008358432440802454 -0.013973076995986773 -0.04349842830975839 -0.12649005322928347 -0.0088717073070973 0.011362936350679101 0.2097712390518552 -0.10292915340269401 -0.029604986078271 0.02849162946217927 0.15009932907770454 0.16601997803657154 -0.052258882081388375 -0.012999139163930933 -0.013084699973640689 0.03457657932453673 -0.01177535196813377 0.07503534544255637 0.0026944655510287214 -0.0004278652208908608 -0.25717132356211997 -0.0803771318441653 0.08363846896998853 -0.017345361876078293 0.04187374938663656 -0.0011090278278974993 0.11273603542522247 -0.09307212981382539 -0.13152721210947813 0.13098649412438632 0.11296337487624704 -0.08017442865876617 0.16525135314153797 0.08781432080636781
body 0.01006887371863836 0.2377529659979526 -0.012775188529967828 0.031583188346243345 -0.1709210016752256 0.0015536518741082707 0.09719554396754129 0.08725323173509111 0.09020077572890112 -0.0008547818353763903 0.14440134299349544 0.004941784998502854 0.18301714257501178 -0.16830869574351667 0.04982378281260964 0.07832501990141683 -0.11807809202713933 -0.1852909237925694 0.15686123362628618 0.035510251442559704 0.014428716585673572 -0.015054975627181891 0.007268563911449367 -0.024459560856905174 -0.03638218822653496 0.16351788678651275 -0.028627816666938203 -0.005274258225329769 -0.20049426352489466 -0.13064958426705742 0.004069632953922289 0.13380123651173856 0.16113345113724772 -0.13782845499429894 0.21720817426280853 0.048655525397953786 -0.0019991875485800784 0.034104520082126444 -0.0330278971814823 0.07499108399708732 -0.06238846918616915 0.16915033498722376 -0.12657337448936026 -0.15425785568172493 -0.24457032173817006 -0.013301055763301949 -0.01739913746766518 0.03325301491716904 0.01150797727027307 -0.02042182537466628 0.15344993017495667 0.2400927265610574 -0.045619356137218486 0.08893595277172074 -0.11604005859362979 0.17193803286204676 0.018729101763878476 -0.03660374038623702 0.010431768102542613 0.012616565483402205 0.004182217426172041 0.07450678871278862 -0.07618160617598325 0.037940983820293504 0.041098918588281956 -0.0030834528428515993 -0.010623274888615444 0.11174018767938575 -0.021165361932382106 0.09580407845042821 0.09265615477653699 0.04653748294305764 -0.047630804015549894 0.02775391618868225 0.016878330580190923 0.009569992173322684 -0.021703482063276366 0.2181454415973883 -0.07617495440814886 -0.10608397611712736 -0.011456075846398047 -0.09839630619564584 -0.12774683353129762 -0.03205155085639301 -0.006193172758224375 0.06431712882232121 0.14971822570007845 -0.07500781036046114 0.05168408248753967 0.11282001500524036 -0.03689347955706434 0.08866217846559313 0.06719372575453267 -0.0073145701617469295 0.010914739650880578 -0.12597805350732244 -0.01163328795259346 0.06772792882870424 0.08491942462700854 0.10873685176564328
people 0.014060635738925657 0.21545147758260863 -0.011881255161354793 -0.050045488965461696 -0.06249797868749615 -0.23544647427118592 -0.21821355240506934 -0.018859095882872236 -0.14835818867093112 -0.13370775700930843 -0.24675444385040138 -0.12948979444823036 -0.03839352152869296 0.1335662208931181 -0.011339012862381623 -0.008800836132425448 -0.09001899649761576 -0.1489212273146279 0.06931379375575289 0.05904463952904157 0.15083764236017055 -0.1983198999992624 0.03344144252488887 -0.06810391426877782 0.009892546681006479 -0.024475851412339884 0.11669970952235544 -0.030398423899469472 0.06117418516515053 -0.031211782351743617 -0.03639100735432249 0.10496322709551686 -0.10794873138281362 -0.007002954398053758 0.07209141876731037 -0.007608893474128248 0.01857848741045285 0.004460709302107338 0.12252195767250895 -0.1513625743779431 -0.0103723337081948 0.04535579468370431 0.054583963582514605 -0.18342685153458127 -0.23042740600015296 0.18455603855811992 -0.02191462071296494 0.020878496637187355 -0.01667889919846269 -0.007539766870098845 0.17977843313111544 -0.025491204689125226 0.04851629485407104 -0.06430859992152922 0.22579828509832042 -0.06097043302122395 -0.04949512590723152 0.09770386120539423 0.23383677061338382 -0.07285287728442341 -0.1217006088003699 0.012846281204530843 0.0052908152599378125 -0.0798789933210219 -0.12117419922306018 -0.05296943512178051 0.006139277978383718 -0.14000185447361052 0.10170785862246652 -0.03908736103628825 0.03138039294281688 0.07599625066194231 0.005896162819045615 -0.017556668666996813 -0.0013955197548312455 -0.02390894244650163 -0.02598405872007177 -0.1052121498043587 0.20883395035567007 -0.025413843964574634 -0.0025173619617261363 0.09154131568347082 -0.052907578869172994 0.04602471356932692 0.004474119772409909 -0.012748980668379763 0.08348258272565555 0.03513310471927783 -0.13564030981106232 0.09856733726512444 -0.017325324625622147 -0.01635018627594531 0.09548457119811002 0.03944675438125624 0.019732449139205556 0.07177032059121373 -0.006402508806167955 -0.02340261617140104 -0.11426246071122667 -0.06907336909889307
task 0.00936458497405528 0.22525359449602075 -0.013291000460935978 0.0996377180149438 -0.15129105710797094 -0.20064058042560887 -0.11002047690665993 -0.05874256137266135 -0.11573254794347222 0.09383484726837148 -0.3195814079372398 0.02736761943316086 0.10500448909315528 -0.11838861775732543 0.13359339935446166 -0.0297284453506856 -0.03062818885506229 -0.056507187100516686 0.09188066865295784 -0.009282424029550124 0.04446195914623553 -0.02656474462592994 0.09969432477530356 0.10536629713672206 -0.050569754710999774 -0.0913203145669287 -0.03444665613569404 -0.009512735674152848 0.005720366994326203 0.1569264499140025 0.012051185625288003 -0.22858947043790764 -0.10497305915215718 0.002515700719888161 -0.12644322112663595 0.022430024614150845 -0.02215210300546956 0.004332965197800523 -0.02653756587271431 -0.1813627928672994 -0.16743622270680508 0.09095703621375778 -0.12929136127694932 0.050954830558865245 0.33665652093025333 -0.08649834185676084 0.025593398515998886 -0.0582808685725444 -0.02699498348369265 0.029232987872272954 0.014635595830355369 0.16114882656296123 0.06325252525625842 -0.0350434849877121 -0.23660980768030018 0.027252408468931136 -0.1775800503386853 0.04477110564657384 0.08091588120244614 -0.01424794916131504 -0.033627738785685854 0.03150632942893188 -0.10485555382672038 0.016606244977320054 -0.012510557760034641 -0.11626012025958223 -0.003950196585482159 0.029495441837310482 -0.030517588538343823 0.11211154899083044 0.059172214715589116 -0.015096887866893874 -0.02217444978215004 0.02507930770096542 -0.10049614200692912 -0.15030565864507592 0.032905451312478594 0.04245582193971006 -0.04931956306301221 -0.11682947193354336 -0.00960341702363325 0.007199049990259379 0.010638214284492653 0.04817626773907075 0.00030444463725427687 -0.073145632942518 0.024750250358048915 -0.031016500175001793 0.03558870010238996 -0.04885410966509267 0.005985901213406618 0.03059602648802638 -0.049494073478784845 -0.10656266646183736 -0.09162969007367991 0.042026849824668845 0.08575125352420228 -0.04558495906175988 0.14726295296137826 0.16309590305316754
keep 0.43701331386854403 -0.020379879350900725 0.0006886973885045887 -0.00015398409060768655 0.0046010859851678835 0.002880606436336341 0.0018787532201831126 0.0004900048360591266 0.0017651042455276082 0.00032367770001738816 0.008178815887979295 0.007177862100823261 0.004857290161650704 -0.002322073892581409 -0.005313015671635025 -0.0022970895694822005 0.015070408653978759 -0.0038234163292677954 -0.013994617824179878 -0.025366668758088313 0.06512210146673758 0.006430835406749098 -0.040804957333432236 0.0607022530101825 -0.04657876574199997 0.0033275344978580083 0.0031978921835447635 0.0005485885757214853 -0.00016451642861435147 -0.0009125771113641652 -7.095628036501936e-05 0.0004593165976865251 -0.0007541349756365498 0.002731852803283389 -0.004019327305700074 0.044596351283624734 0.04848315359973008 0.041689215893897125 0.004922625754438298 0.004068944795135939 0.009309770990902862 -0.007762663236861741 0.007017539701081954 -0.012649188708850335 -0.02166848284180418 0.03288008650296854 0.3212234337925422 -0.0022791509040163936 0.005309592877364067 -0.0019850559371425995 0.0037661115206920155 -0.026816146476531882 0.2115691601562716 0.15546157091033605 -0.014465253839755894 -0.00549329382494218 0.0012113451915211054 0.011029337039046933 -0.12432777100231888 0.06285548214803384 -0.22464432863848402 0.011157787537140057 -0.008884355342825695 0.0017069876867876871 -0.002616074437985935 0.00895503588034573 -0.35369730277834555 -0.031600337875411944 -0.036043268147342544 -0.09884786449892644 0.28028913257245963 -0.3181862896210729 -0.16645223434237083 -0.25970000648415675 0.030058081088882034 0.028509739857534494 0.006484052602042226 -0.01722265962144212 -0.0445897687301761 0.010965495125982886 0.009761319677584394 0.018300105853024468 0.0008557840000638985 0.02137953494493576 0.25303039460131466 -0.010955590889548089 0.006874441859165867 -0.14846174024427217 -0.11946353940401022 -0.007643468477243748 -0.025919289788074493 0.014204176327056376 0.012822792890572131 0.007928983969234376 -0.09603914578254817 0.010752090798088589 0.08515499414818352 0.0780567336798671 -0.049603165112325376 0.005787773355143067
forget 0.4495233991072371 -0.02042506760078991 0.0006715113151400339 -0.00011352880985501926 0.004266166268346761 0.003162909184812735 0.0024053763036137555 -0.00031365607668731854 0.0020537391649076255 0.0006638474304894185 0.00837659359673729 0.0065100773919888975 0.004873189913574307 -0.002083351952958162 -0.005351394254103551 -0.0021500288372982078 0.015469196282771814 -0.00393827604366833 -0.015345116876793694 -0.028199610225704694 0.07657315066195403 0.007751869217377927 -0.05014187382065845 0.07412605934395179 -0.057787466934697544 0.005586175595939986 0.00495297167761052 0.001335116066788274 0.0005215163960752387 0.0009568717532933245 -0.003540817696627074 0.015754676539565287 -0.0040558685395770165 -0.016368348580781383 0.015447396991461027 -0.08431679363262926 -0.07142524544491957 -0.06693471888575175 -0.002559754113445616 -0.004442540280126081 -0.007259890384946618 0.004907123288829497 -0.005498301905107345 0.011425666943210464 0.020902229059485553 -0.037074475005203084 -0.4783638717226773 -0.011709128008998943 0.017502254230945348 -0.0024777959895509916 0.0071528384702480245 -0.01522948069421946 0.06035641814048726 0.011905546008984491 0.0030114676521361154 -0.0029226438818989622 -0.002170110754267837 0.002948248275342811 0.16498223972995812 -0.1025976585154162 0.40399184957580764 -0.046976118071265296 -0.01320474187773537 -0.0045931965778751235 0.008694711397058156 0.006549361169045099 -0.11201048661540385 0.0022782173907100567 0.01274004649619171 0.044886719839617825 -0.08675141303855793 0.10362890593982954 0.012109098931158422 -0.0005494664046541177 -0.013127017256920052 -0.006690276279179139 -0.014882345625629949 0.008407557561825327 0.01330072047180505 -0.01317002368493328 0.0003540241151956611 -0.008714480027831043 -0.00562388353173324 -0.01995748516461014 0.17398952201720932 -0.0052880064816806 -0.02105479250295474 0.1363797887452756 0.09379682454841477 -0.025806680184751112 -0.00022831838707611438 0.002091593217398596 -0.024146890858296893 0.28782785122011323 -0.17614246263748048 -0.03294736849360281 -0.24949216089559303 -0.19272575520576365 0.11658315550067087 0.02093505990249585
join 0.41226852162616817 -0.017810594049062836 0.0005526929957303743 -0.0001181491730747536 -0.0007996331408943974 -0.0005402699809824026 -0.00023926331288938533 -0.0003320108542111306 -0.0005608434492060807 -0.0003855116140300442 -0.006447584255692424 -0.006761197431114517 -0.004882120839351663 0.002946075325188433 0.007297470573169406 0.004270838422445438 -0.026964848463046427 0.007493740310022971 0.026287013595903994 0.055383850981777914 -0.14970857271062094 -0.014406969112192528 0.0962287556168285 -0.14805723639746426 0.1140300997828955 -0.009341559203439175 -0.007780059857673956 -0.0015629363026452316 6.2817456299115326e-06 0.003051125830442059 -0.0026815445267533437 0.013177292158081043 -0.00676708509640446 -0.03118947802715103 0.03410994578911776 -0.14663610379713157 -0.03634724603701154 -0.5127032759008016 -0.039358304622387145 -0.02001705896944017 -0.03910664315871885 0.025839950256094858 -0.021668047084596794 0.027661765856702283 0.03787323528895023 -0.04644965234018966 -0.2690715717785397 0.009589625049993042 -0.01559022759716878 0.0016131368340648686 -0.004087498915249814 0.015187281358398768 -0.0778963418147692 -0.01867415516637667 -0.0014845621138111329 -0.001477379020026852 -0.001094712755765121 0.002450110719398408 -0.0017293921254188686 -0.010534707596103709 0.07117640288670322 -0.027237060275022228 -0.021738068862622754 -0.006178186636961327 0.02007999616726326 0.00827880615197061 0.3083631303689135 0.03337340142310195 0.034678248581702396 0.09153436440939332 -0.12760612328883014 0.14446519843810487 -0.10944964253533841 -0.3077185532741396 -0.029049013632930953 -0.01874199590017475 -0.013214506365318278 -0.0034987575065804646 0.009823098174323303 0.02234786857909985 -0.0014048657034329056 0.0035215313317187927 0.017616850318466857 0.01631514359945024 0.23773891642762865 0.03940086943355616 0.033679274877072514 -0.11290171113696634 -0.08067437273122587 0.03940399627125626 0.008206852953226582 -0.012862423803738206 0.04429732557467397 -0.016559002515813794 -0.08748935695756356 0.018373112295238293 0.12791680904328073 0.11787505805939898 -0.04202599076923492 0.001974078341616122
hard 0.000672674653865953 0.03319505046823092 0.5237852809818486 -0.0003438919709498743 0.0008508837783630487 -0.0008120307627278137 0.0008833882234224865 0.0012802956322548226 -0.001699431613239866 -0.0009772757718746992 -0.001983630182243166 0.0011434404138742265 0.00183876690764183 0.0038112589063295003 0.0019906223175926085 0.0014991204841451687 0.006910910593386913 0.0032593328072840315 0.010836276764960668 -0.0007581794694084014 -0.00658252780129025 0.05062904022247988 -0.020055580877856978 -0.008566568423362945 -0.0029202977734906536 0.12842261770644706 -0.09729570371578126 -0.5456126919759572 0.11158460505581325 0.04327969787432868 0.027835102277777753 0.0005386131671028094 0.006632337844322114 0.013185207760714293 0.011775768615221307 -0.014889652908797315 0.011055205283882692 0.0022493349214028724 -0.00469103096864373 0.00834912057217542 0.007700901845539219 0.005770110150756196 0.011070839297797357 -0.004102293764507233 0.0020573331001310646 0.015961512773166563 -0.001751592243209814 0.004384195795336473 -0.020805133935052296 -0.3496368913447648 0.003909628483352712 -0.022899499440637548 -0.014976650468452144 0.008153260317704011 -0.00966221067304012 0.02828043318824399 -0.06596907348148275 -0.04023643999212823 -0.05200203605934588 -0.07706334546341365 0.0008320516466582216 -0.009328174865808333 -0.017095995020312386 -0.0056450752161362255 -0.02816757477562306 0.05239235629850641 0.008229691165054693 -0.16477683792465384 -0.16162655314943677 0.07435001070518422 0.014541615971945967 0.023446763095070173 -0.049996007641793204 0.02374124144152558 -0.08547507659012497 0.16626302543329258 0.03426437525517698 0.026572927948570746 0.058519597387857315 -0.027978292538156504 -0.06187701403568426 0.03285982155627801 0.09695303978875527 0.0055999566411696925 -0.0012631952838436408 -0.08973244445052021 0.030969035185302907 0.01255614379831177 -0.0047388874843214916 0.05610893791028424 0.3097719187459623 0.0999951140787793 -0.018195129792629307 -0.006553873344618213 0.0028015260701080512 0.0012619510406408835 -0.015685627610440716 -0.005015505902260942 -0.03448743916303732 -0.0002720741680377565
happy 0.0006966923423703616 0.036348470100292865 0.6073811168581645 -0.00023728148113973195 0.0033236535105236075 0.011535356266856561 -0.0023554120129528977 -0.004460680863613208 0.0037289360639958715 0.0026690879247828147 0.00270140731856899 -0.0005739341031267058 -0.0009301641227756717 -0.0014912271369557147 -0.0004313550674284428 -0.00036535785923484773 0.001296122157061842 0.00011389400577918734 0.0015996883346625957 -0.0011483545426638686 -0.0021812319410043435 0.021022861156916154 -0.008134288240509324 -0.00342056257691098 7.573801653605245e-05 0.08039004844594864 -0.0630464818170784 -0.3876531476497831 0.08463458442623291 0.041703556173975434 0.0061530109454457135 -0.007528789273185892 0.014237442510786779 0.02206668304920319 0.022683831754388296 -0.02382357312281965 0.018083426815715113 0.004048232758673045 -0.019169150988507907 0.008439613006436556 0.016843044519609295 0.02576261628738987 0.06856627745900178 -0.023627458799542686 -0.04734835857803565 -0.06993022723774327 0.001953043760718114 -0.14204756816110306 -0.0931602787754452 0.219177754444331 -0.0030713580255575757 0.010156825814942285 0.005398297594677926 -0.0018932957171639312 0.0054203887337325495 -0.00306295604286804 -0.023330971112209282 -0.0258928097427909 -0.03472784825043167 -0.09154148361199672 -0.007997782698417659 0.001406198945467328 -0.011106553150514242 -0.004361428487118536 -0.040393186597110435 0.09604778519632613 0.02328066214796842 -0.3525095590420015 -0.35661809099673003 0.17153149243334714 0.027194132590494937 0.0386436770391649 -0.07431656475969232 0.030541268197962084 -0.08287660137224175 0.10670000529825996 0.023792307213670837 0.014523299941487967 -0.005608149704911758 0.004268101730088074 -0.10469839126528138 -0.008607521497352354 0.003219046640588747 -0.009162074533607909 0.000745808128021163 -0.008229059266824143 0.010257237599744156 0.005133575492989409 -0.00047438559959825827 0.02475863923216832 0.1324436065738243 0.057741588260776036 -0.029602100113913083 -0.017275917712303242 0.013676835167687381 -0.013992044312968974 0.011827328040128354 0.015663833930673995 -0.019162875012498266 0.013487302186503573
strange 0.0006288916926544234 0.032528701070608006 0.5351923379962441 -0.00033301452840903665 0.0025187654576041708 0.006105668854927982 -0.0012914226070473947 -0.001695629497556698 0.001510923314716309 0.001428097380775245 0.0017526908605080545 0.00061913983574003 -0.0002919657903525544 0.0002636581710307548 8.447882733333717e-05 -0.0005419821276690903 0.0038222463677775975 0.00023878135558287378 0.0027973438166871297 -0.0023902167673377933 -0.0015062284703441589 0.020168132360592495 -0.005787238301040424 -0.002364143893313788 0.0025925673834244867 0.026733144787914952 -0.014776669613916958 -0.0399975325700999 0.0060159972857620385 -0.05194196809978143 -0.4472666906732896 -0.13791972816384368 0.0385374969866375 0.05775822959237852 0.04976524128923975 -0.04467648549684875 0.031650028177467183 0.0061192690121649055 -0.021008527477920525 0.011085846504201897 0.01850826744289078 0.02555456470625098 0.06725461554136428 -0.019255329924683953 -0.040174207315938106 -0.06370310628804852 0.002790298558828264 -0.03985275503133299 0.016965850299916388 0.47634120506830063 0.0014653606642451758 0.02847477458165144 0.015445020179762346 -0.008920963448105997 0.019288807238047795 -0.027433856243537835 0.04107397610686957 0.020231635693457706 0.03969767198788294 0.0663448232633577 0.0008018365238754059 0.0007140447504494407 0.006948162011699686 -0.002788986122167214 0.02112167928500852 -0.0383786728556819 -0.008845524757943195 0.12563382810132506 0.08209280230293622 -0.03965405650741958 -0.0025107661502730915 0.007889006189863797 -0.016953695746161533 0.01331674266688132 -0.06785267456960825 0.15540459887599736 0.03882515590310026 0.03413855320227208 0.0656341173182352 -0.045245339188110766 0.11033773385995138 0.05557325913824734 0.11331754978110756 0.002559110307935382 -0.0016838671380580103 -0.09219317716180209 0.017390301257794064 0.025835925440377456 0.007146532617206379 0.05328804439070294 0.3323360543120351 0.09987360375873279 -0.02072670751013896 0.006231531011588737 -0.0010650090800556715 0.011945493879189108 0.006903099053307078 0.005074199164448612 0.002974875377005316 -0.002466236175734885
friend 0.007402517760862588 0.20697071786284607 -0.012791174409641797 0.09875680308488871 -0.10045606389107054 -0.12938321684947984 0.05798900633090816 0.08630090804732732 0.12469860986806226 -0.06452137008472549 0.20151420941285134 0.055105820317253154 -0.020653306360182925 0.15983841088090753 -0.156190781016594 0.002076907721926169 0.13198106006801863 0.041900237743025474 0.06970174410610928 -0.10878103008791881 -0.051983044114332876 0.259404517875181 -0.019125070935284604 -0.02656629166273743 0.0341501055052303 -0.034871367194090425 0.11013827982950596 0.03811493065559999 0.015180142542920692 -0.009944869549563761 0.09165901217332963 -0.04851578267176968 0.24427631613295386 0.039767157979362054 0.05013029483341956 -0.05791421677114182 0.04059718337287514 -0.006280169435152202 0.20629229055507178 -0.007691370778255249 -0.13066539708014518 0.10097399825452925 0.1906933253976641 -0.08998880507949458 0.09297761350543185 -0.1108463559827162 0.022659081845857142 -0.17196584739857562 0.1963409129573582 -0.02667781827546737 0.11548230922655359 0.031843917438724986 0.01225988799498358 -0.05674191210085498 0.09957159671025961 0.03409059240609147 -0.027388986746095922 -0.01741840371847289 -0.004084650125971174 -0.015471235721250313 -0.04070002250258993 -0.3007800322194663 -0.07324020982014777 -0.10042423002654796 0.021256196432208555 0.0719880165426496 0.0084597822259205 -0.13482302627720077 0.16296271950022345 -0.0714548510744197 -0.12341025219601351 -0.0965012780864592 -0.05263469008540913 0.0284928476836745 -0.05715692834186784 0.05893553715629135 -0.057381644152048876 -0.040592020230062184 -0.10580194512391669 -0.12983359273536552 -0.005766526720674515 -0.0006165098348878861 0.13896945321942814 0.17167004004981998 -0.006165387999756978 0.1676835380491054 -0.03329349132689363 0.07538039495934958 -0.03961515321618272 -0.04625418445625461 -0.0025133665023901225 0.03889210865435339 -0.00380330052664391 0.008360184840160998 -0.002764284692227257 0.057548043474998076 -0.11992872376566427 0.013791610661031233 0.014085866076413236 -0.1419700398225747
woman 0.010190478710193754 0.22961303605019753 -0.011439495666298158 0.033618436282236465 -0.18449408780271018 -0.2156384139183882 0.0020338521014507133 0.1655575591737259 0.03804564221368094 -0.0940862963676364 -0.006028945278108685 -0.16072047890322746 -0.035818246794008676 -0.004940124409640876 0.08709459325855942 0.12520396419561183 -0.03494836037836419 0.08750967138192425 0.07717826114466099 0.00682528950066964 0.029349928374774202 0.10598879477670806 -0.010099921275133683 0.015726257852244477 -0.041146424155392575 -0.22738095877776643 0.13189303097042246 -0.0730910243633942 -0.06100168703961743 -0.03842419473595022 0.0014617052106041387 -0.05616874036579308 -0.15747989873142362 -0.05573369742450988 -0.21566097085332953 -0.05872847863991693 0.04420920407071942 0.023812516162705192 0.014501502142181545 0.018968116155181194 -0.046503376054833144 -0.06105853963987464 -0.05216772834719517 -0.13896147699389869 0.0815744650292157 0.03944840462331211 -0.022238134163262067 0.05640637467441617 -0.1670112166412674 0.0627094538796841 0.0038975248644752174 0.06374074234897122 -0.1340069778135793 0.217325091209434 0.13124548164704827 0.28316506750038245 -0.09510327025092637 0.004738710673846202 -0.06557344818654286 0.016273395746286213 0.02067768710308452 -0.10030729998874263 -0.12774158769294722 -0.05895082067741235 0.02985362619742791 -0.07819918648437378 -0.0017864915158429674 0.09276123611339336 -0.09610064666579606 0.1086151288559004 0.0008948684113559281 -0.05894197591432227 0.011788582387742991 0.010400548336290887 0.07538869156100557 -0.0710600088643245 0.026619031193361006 0.31319576636691593 -0.0203170148646771 -0.005236275737983944 0.005255039557165017 -0.10764113524129312 0.09101693726310689 -0.12961494155567915 -0.005669717678300444 -0.1647635450024948 0.05055511942714847 -0.04451029131741642 0.001852199682019085 0.07255408306527189 -0.07949403069127692 0.07689960585561412 0.025964439605188565 -0.03425214512316684 -0.03876841000355628 0.03987374917746725 -0.06850119630871443 0.013134158307716425 -0.21887033172710676 0.0909147368516153
cat 0.0072195888398747295 0.19874292721789985 -0.014425559895097822 0.01595157880125508 0.048292365077352885 0.1326275438061795 -0.017889930040203207 -0.15601342560095088 0.01930137568615114 0.11586486918907755 -0.08915231447014146 0.10297711941530809 -0.16038030907027187 -0.02126522474144241 0.05769533239952931 0.04675639012544927 -0.1105817859891086 0.19256218856529705 -0.09739621240195569 -0.2248620583647719 0.23668733485326288 0.23045554440983973 0.16640979850199242 -0.14728240193731512 0.09380775650130069 -0.017905474016571124 -0.06608191290840847 0.04761608641485212 0.25139259760511595 -0.2366235820553759 -0.023687700928655818 0.1558893648810684 -0.04478844121606664 -0.03969144696158856 -0.013746810577913592 0.12386083907596832 -0.09625415233412636 -0.025275999539640288 -0.030675773097895598 0.10436627255910189 0.007665314339203249 0.07327930352281294 0.060901997429397434 -0.044535970730730276 -0.05134851799612994 0.0007239828381493724 -0.009583440868736711 0.12160746839248983 -0.12649734542951163 0.01678019194065507 0.06290113289940184 -0.030982743456517553 0.022742848796735986 -0.04321138855980116 -0.2662448223046866 -0.0150545673176441 -0.033560633793074786 -0.029212670875442392 0.03941729754086886 -0.005131248204550467 -0.014573104173820984 0.035844973031175655 -0.09231152941632416 -0.10754401012437374 -0.05452551229202154 0.0006346477853464491 -0.0002644674643396403 0.039281940610288044 -0.05743743171232004 -0.03715833049882795 -0.00787200525032846 0.001863417743105518 0.14607562517454034 -0.07668178862925022 -0.0016190973782157086 0.054650054868838005 -0.030116082914847516 0.08796594301797139 -0.18003823967391397 0.06296410360080074 0.0031150816549903875 0.2652353743274171 0.13404187438654463 0.02069211346407658 -0.004842611508470445 0.013851264520954866 -0.10721147933391129 0.042440409046625716 -0.07568737143610492 0.020663638588382105 -0.05131362123688361 0.014439581889820138 -0.15323623357689467 -0.04291085056030881 -0.0376326026874937 0.022355706712401988 -0.021676147153483805 0.06987943784776883 0.06088649729004776 -0.04800066142135142
mouse 0.010662140722920191 0.23439663174372985 -0.017406058747939216 0.023292873037825845 -0.09068940178795871 0.033998449436696214 -0.15186756428043974 -0.1430869067565682 0.010379741747790116 -0.026647182078476845 -0.28387242329863144 -0.09548734171748183 -0.2472192285831494 0.04926920411495217 -0.01258670271077772 -0.09463778904815114 -0.16535096592278561 -0.028521143010299066 -0.06808844902502321 -0.14276351398747456 0.13819537849614785 0.05478144880191541 0.25947490546158747 0.010177429130646502 -0.03011568768518069 -0.04631537353865986 -0.14892601625809243 0.05254093012512778 0.2132661457447886 0.070607684228166 -0.04748926951725694 0.09031731790863914 -0.061638248486930274 -0.048979019777398075 0.0038449123061592427 -0.03811830187689989 0.05430903987689691 0.02827461216184258 0.07115141620683542 0.09569154946598703 -0.0872477350994388 -0.062048228409265646 -0.04720942321194364 -0.13724871033042774 -0.14569256461518199 -0.026229861018368814 -0.015952520826209876 0.1386909257441159 -0.15875237592492647 0.03182253687671952 0.19270154716679833 -0.12144862352283779 0.006658687809846177 -0.047576723961910296 -0.1019004626965616 0.19830188084902584 -0.10147453134252166 -0.0727332518509089 0.07736073010388023 0.010727412733497392 -0.02874665741480603 0.063403222306802 -0.06958830308420647 -0.13419537058293712 -0.07504476576908807 0.007777770243888311 -0.007581763134069109 -0.058574619340658454 0.18767670698022715 0.10182123921302827 -0.019320318750782304 -0.05162505864663635 -0.072210943218379 0.042718418116889756 -0.1923872056776475 -0.03518332628471577 -0.003353067732598639 -0.04887401522362034 0.04387998564563946 -0.014246513841465394 -0.007811782452745287 0.04308977377493725 -0.12262875790634234 -0.031091375135754645 -0.0006269068052868058 0.003596485179782351 -0.20125187333345138 -0.02926517836492791 -0.052025413448693304 0.033171473312161096 -0.015300630933893236 0.08058453312656934 0.03304943090121053 -0.026978215207536124 -0.02143743273083833 -0.0803446781954864 -0.014034392450594822 -0.13386663069948596 -0.09068741385354673 -0.06950499493323756
flower 0.007351175313094092 0.20453085200168838 -0.014799150719535576 0.09602513814371506 -0.13235367648797375 0.10600667477555897 0.027781048121193357 0.05329550548642929 -0.18806223664077742 -0.1240668812455157 0.11867750749822088 0.07228464776687164 0.016058979798594667 -0.061835691233663954 0.07203762255780985 -0.08750027835117202 -0.19198519695557958 0.01531221791641032 -0.21113178295893462 -0.027034403234792708 -0.03949343123530576 -0.2205722667472588 -0.27393955841397927 -0.03871014698854733 0.07502100836150456 -0.07691606065406457 0.02844171084387371 -0.009443764350880563 0.2224630774624879 -0.166004680248787 0.05474043618903988 -0.2119448786735176 -0.01828334416535393 0.012439624037448803 -0.11405812658685238 0.06179512234892214 -0.08599409742839777 -0.04290513258068759 -0.14575439755948474 0.13441664873506415 0.041108450190982755 0.10364491929832197 0.0067148480949550445 0.03993036464920616 -0.043866858798468265 -0.1262461818263489 0.01571658902179725 -0.004457785433882982 0.09850811234684263 -0.03764307194981582 -0.054012135231791394 0.011225621226910433 0.055244760347640094 -0.08364701438112919 -0.14700900122567456 -0.11199255044817284 0.07376289219791922 -0.03919385314485218 -0.06217602684319473 0.025106434102596217 0.03840361367079111 0.03129457329934927 0.21892531020300135 0.09445046217411304 0.17867598047009925 0.04858229209316273 -0.003426533492412474 -0.0025125868289615294 0.035531439957359794 0.15571854352666675 -0.07851793645569465 -0.16176968351735704 -0.06700258079524432 0.060390611875329465 -0.01831416116297032 -0.05230225142568686 -0.14428558935893504 0.10989185745378434 0.07391805407471007 -0.23287089959499965 -0.01878074613107171 -0.0530351290882629 -0.06575373193731877 -0.020049665161778037 0.0006661862257498992 -0.08199876367511004 0.07771251451644756 -0.03988638588968672 0.035349952061963716 0.047744011768398174 -0.021886821511589338 0.03496073806699781 0.08069546171115748 0.03204343433528761 0.02162430910794066 0.11263269449149652 0.038705057182515136 -0.06035684882567431 -0.07029567927990726 0.03668451468993228
cloud 0.0068253386831221416 0.1927789798195926 -0.014758621583439628 -0.1080865393401167 0.004260488008667611 0.15522153108986622 -0.1620947100496699 -0.13415364010868647 -0.3119719092934611 -0.11708243758638676 0.2962744779435087 0.014683203091102968 0.13672846968728794 -0.1100731562338717 0.38517674677797653 0.0009171987610509673 -0.1607488734679167 -0.2406840817544618 -0.09798773243421191 -0.11680074496103025 -0.0031192272309828574 -0.11682861295597455 -0.1787062457535022 -0.13902716481342153 -0.0026294289022635174 -0.038925034531712234 -0.087887776348448 -0.018914181424579662 -0.019825892751165457 -0.12902234874529353 0.030205386220139158 -0.06889985871026896 0.07817502032986198 -0.07160480616054363 0.0403160295924435 -0.024395227566945572 0.029775644552107013 0.014004420626725533 -0.014560107423210802 0.02837035950241548 -0.11467598305961475 -0.07479423862428854 0.013587401960364032 0.018596454873935013 0.10393907532393662 0.04011987438857875 0.0005233981929425183 -0.03622153168508296 -2.852621705746225e-05 0.017463065192681905 -0.1421964975364931 -0.07391328108076409 -0.017801353434355526 0.027195014311135236 0.161715584883643 0.10442813693269638 0.038623843199588996 -0.08060289767156674 -0.06062043626061154 0.023665826467787573 0.025412957780599838 -0.06582671016318441 -0.03764561965451196 0.018005695406951603 -0.11533918094112322 0.11049990858448502 0.0053515814191891515 -0.004275350987966053 0.05943686897487657 -0.09426162529589523 -0.06560452104569628 -0.036105870516522906 -0.042384381853698264 0.018133841014114017 -0.09155394269196744 0.0624183124139251 -0.04600894983511579 0.05665805023868464 -0.14224819576316755 0.06842781226185465 -0.0006974045772016568 0.03794723003092699 0.003757439234114154 0.07796336916547725 0.007122176801675174 0.1258214603491212 0.04811861735724271 0.02166230075041335 -0.033081831141947904 -0.05558235362248352 0.014489105363619663 0.010663069751534119 -0.058640305217319236 0.013506685336744694 0.005250868074981907 -0.04563180706731862 0.12589861094280394 -0.0007758889141005025 0.06909704141870905 -0.15219445702942158
god 0.006958991135526761 0.1899921914357791 -0.015008857986961242 0.1931334335306399 -0.03593589879870995 0.010642298061499527 -0.24222873653489507 -0.2555050980319271 0.40095903307856945 -0.08649165270404229 0.20603519380683288 -0.020729444000209655 -0.13672401291230146 0.06748529878788051 0.04576420060162322 -0.15409497375596987 -0.020736890940607502 -0.034926772668189436 0.12357179783034507 -0.03156440224749265 0.09231422186901149 -0.09515374869283552 0.1781894604095851 -0.003233415171438723 -0.0903494496009311 0.05873827318365055 -0.20679657778003108 0.011192521520576655 -0.07685530521244828 0.1341257592985862 -0.0551320733092454 0.06678721065171696 -0.028226441004451132 0.1668061897586786 -0.09272494270611431 0.019921282130070952 -0.034451948189799325 -0.01726521845938955 -0.0037522902469668664 -0.06472577573221396 -0.08187976449909579 -0.006319376980622181 -0.09224060648960297 0.030323160520237997 -0.12609003037270217 -0.036664022643816484 -0.00031150124377450557 0.0669886061940782 -0.03202129417512513 -0.019286951019800817 -0.19562487092361094 -0.06694609834464704 0.02996858767202746 -0.04126473660702152 0.04141117242708032 -0.08038392702617915 0.11341087038737079 -0.08146517446270808 -0.09136437557311039 0.028900535736787542 0.05503499077817339 0.06778472881108641 0.10464225583521987 -0.06312861652753983 0.024601005805953816 -0.11348303840376531 -0.006109268216037654 -0.023605240641806288 0.09563382229780029 0.1754399357376812 -0.041298957168837386 -0.12886688991958695 -0.10158310014139463 0.07932864730929695 -0.15207440095825572 -0.09337721310680432 0.0018452535324080465 0.09906314655487253 0.017601953614954022 -0.020586487801763864 -0.001989456698100246 -0.17583937892341353 0.004512648269410865 -0.025859581779946676 3.040064745535726e-05 0.09546742468877892 0.03135295200503801 -0.013366238012633693 0.03791461830762593 0.018520634201107156 0.00770877663720114 -0.020577031284291235 -0.010935881310128789 0.020005434641606 0.03445703457399442 0.0020224228645930944 -0.007922574795391905 -0.05052237125102238 -0.015264636808781741 0.14208488446538853
stomach 0.015538361131685951 0.24710760610432095 -0.013964189862538402 0.0022440554041193764 -0.08561420449554669 -0.12336285166840648 -0.13509590924441015 0.03549464513168506 -0.038763391039061915 -0.0431251396758955 -0.0405247393870789 -0.09276310894645654 -0.11567480930762096 -0.06281982309130814 0.17135589152706698 -0.08275188744223524 -0.1655653790408276 -0.08677325054731297 0.07225491262477511 -0.020887716216366536 -0.11571936538391102 -0.06813599472377652 0.06188437745402499 -0.03449527962205276 -0.281590832039583 0.04497175492700674 -0.024330171725767805 0.009834757162834088 -0.011364808943245246 -0.11208262015097199 0.05704843308362694 -0.06818380790911131 -0.1850913405348855 -0.009993229364984356 0.05967523941241756 -0.16389329947883938 0.15910809671872952 0.04805941101713158 0.010525719175537135 -0.01814727922374922 0.09121876030365836 0.13549465487006723 0.04393575288431773 -0.0007925767273017911 -0.14717880537395966 0.05215106164917259 -0.0026485498458541914 -0.10171681887674064 0.18763003152372573 -0.04231003567966901 -0.03607527185914615 -0.039869896697517705 0.08726313083261819 -0.16272669344745608 0.1490450505617788 0.03159951622881892 0.042673448623265824 0.040035300516735484 0.11563865710903838 -0.02749804946480544 -0.04675865342448796 0.19858727982428423 -0.17590803335673613 0.04795153610151731 0.11563706194179396 -0.08640475761905493 0.009347571227388593 -0.11363503652901406 0.019520809220135094 -0.16326091289880998 -0.07696583106136445 0.05065786921202196 -0.04039253694429226 -0.01280095937576692 0.03693463584129194 0.027350605830643623 0.12369180949480219 0.031705806670730294 0.014954743351124478 0.1364384609946887 0.010843014089972043 0.03558934822761916 0.05121852202781094 -0.1385409623718546 -0.0026272340381671483 0.1276263624364056 0.06452647208922639 -0.14491803093609645 0.10656348466219503 0.04912482758712163 0.001237839332745691 -0.014767563403827174 -0.02616365354894818 0.004411820951491329 0.002582500036087118 -0.11999249944380737 -0.083860523095198 0.2011313590198307 0.1413042934905914 -0.21819196876250285
intelligence 0.005689337094520526 0.15863493866721498 -0.01184132186936802 0.22688779089974645 0.11935462897626083 0.017583438833234006 0.06240891579185357 0.013520667261947089 -0.03938950885219296 0.101126278692748 0.11375439017332628 0.03104371023127988 -0.15068739272022333 -0.2392651087647802 -0.13693981007870623 -0.1469052411106311 -0.03998499919526716 -0.02170870291023261 0.1872408977467935 0.18440347013691247 0.21597424180561778 0.06415282837925568 0.03258934007507212 -0.15585100124084153 -0.049772650804849744 -0.046120899181115636 -0.0917255860681375 0.008292090696467625 -0.033071931947867554 -0.016007510038617716 0.0278383853380702 -0.043248348135489306 -0.10724602800559381 -0.07306943450239894 0.2253110916413142 0.023044306074908382 0.010997685763297323 0.030477853093953535 -0.14666785284911568 -0.17603652484044383 0.025086218567151916 0.08357468545695591 0.06250022128135294 -0.10374910983346451 -0.12347111540129034 -0.042125946699181877 -0.007884380165562345 0.09710868616470542 -0.03228761137614354 -0.03153777262608659 -0.206989763889346 -0.0740725578502645 0.005810383888942523 -0.023805392033949643 0.21021888066886332 -0.012848075265131183 0.1715343772008328 -0.01065438610920129 -0.15135808402304157 0.02592573788638487 0.08349893911272219 0.13286195964976572 -0.08453684157397695 -0.007323903982040802 0.07472712311658289 -0.09976734446793337 0.0041104708104615474 0.004059614955557668 -0.12641748275602688 -0.13938932128063622 -0.04976330443633543 0.03605596039191732 0.06823489597926778 -0.060557162301022635 0.08857398910484104 0.02106968632365378 0.1858512713385797 -0.08885604731473196 -0.030029686386545296 -0.07090192959420502 0.0012664505169197003 -0.08680647475989875 0.10482008186562809 -0.011759602402053832 -0.0068660721402881274 0.05954534956580885 0.0053658959797499035 -0.022244056680570383 0.011253984612263478 -0.09729915312534397 -0.031052414497741442 0.12274811775895994 -0.08225032752075868 0.007543994774123747 0.03622686217093595 0.006407029550203257 0.12277929749272808 -0.14455482374072742 0.0017837151506688682 0.17666851753539176
belief 0.00748431667397137 0.21403637102390594 -0.01601776929646698 0.27169341115523293 0.08150517202946059 0.07120199384152452 0.08207231369619042 -0.04331513020677731 -0.19929078796710434 0.11771641227197173 0.024294423513177427 0.32260100503206235 -0.23257797678307662 -0.2441879918995796 -0.20773431655354577 -0.0008441848326789249 -0.032223897696369345 0.1667054607311573 0.016055301990824635 0.007838771939371773 0.014095591797654749 0.03390764529650198 0.004599005729884939 -0.0209725033953711 0.0022907573106252625 -0.12561092031010657 0.040593799302154635 -0.03738110226573904 0.0021603886542278044 -0.0013157700110691998 -0.02587699572516031 -0.006757074356853523 -0.285134137298532 -0.08985154792490471 0.09706818185550042 0.09110030247017332 -0.061763801309448245 0.004083295500372656 -0.07061975547213029 -0.0779547252738189 -0.020236780731768805 0.08206239950547198 0.08090971606631231 -0.16168300550662587 0.034170332753664205 -0.11051363589937079 0.007214651069690472 0.024734327489841074 0.023802011758426965 -0.016397220686163054 -0.064844627428025 0.02253484877450088 0.003948096616298587 -0.004585853831066041 0.04852919405479854 0.07143070365882387 0.054421230307518546 0.03821099526042334 -0.14356745188581252 0.034791286576290686 0.0933388364591854 0.1956716550847639 0.05314716014596326 -0.08366092470451858 -0.002374680607674409 0.048401267084242694 0.0031352014824217738 -0.030517159881248836 0.004539960975452037 -0.08155837241678944 -0.010007425271858448 0.03341238706323941 -0.05450062320926405 0.012126044943657486 0.024219030831264046 -0.014890601366559958 -0.0024325409648451707 -0.04451542321061648 -0.043131524434774554 0.0023787280235601917 0.009540587068429708 0.049870347714807195 0.10381794326733422 0.0781185016763023 -0.002007767418320178 -0.15755533693011525 0.1365258188476133 0.1090132093810562 -0.11311360180188622 -0.16156054724796193 0.012963375910928662 -0.033709555038825986 0.1080190935453655 -0.09044322147339073 -0.11226631466474103 0.07494826787931282 0.11672603122615816 -0.09491819749557577 0.08106581832058787 0.14455129852100596
bath 0.0467793442258553 0.22888181690407222 -0.01033271667057134 0.009627506374495928 -0.16413893402716626 -0.20945865502796793 -0.17097516217649675 0.1207610314560169 -0.14195889040536105 -0.08370114020711199 -0.2593361599875269 -0.13771596971726247 -0.1443739991778037 0.031016480439936687 0.08672830355548869 0.05071934022014389 -0.14134237729885973 0.05635578294361933 0.1301893786729997 -0.002859286751264405 -0.09155450195820036 -0.008319727209482661 0.021566609500141644 -0.02017317164612035 -0.09441681878904173 -0.052457053150682525 0.07962004612343447 -0.026877421514869205 -0.042142030432223795 -0.15103848574669707 0.03228721225124319 0.01868514311858524 -0.15285823885126093 -0.12105758001714197 0.06125872092976035 -0.16115908156889475 0.12911921913068009 0.022795012927074434 -0.02812684975911155 0.028733813119028062 0.1449745906478062 -0.08464431629397151 0.026792710118646004 0.010470897758878855 -0.10992527917560659 0.05968031908373111 0.025798723718237205 -0.055558811944402674 0.06751236624571315 -0.011637376996934375 0.0733174608298914 -0.11873066663780778 0.21380405738379968 -0.25011010300981484 0.1405786626490293 -0.07786885816972744 -0.06851462457954946 -0.10807095762564736 0.13434193883752513 0.015959998022618094 -0.05180603384146712 0.11060565914555481 0.196241950725991 0.07705889547581919 -0.12154747756163249 -0.12247289373121412 0.011307857989495839 -0.06831110576048707 -0.03099440263812699 -0.08371161988698474 -0.03371030676435951 0.020719778506351125 0.005499046895744839 0.013825843238462806 -0.014186929756129962 -0.05630673285914716 -0.06865216699555636 0.024082811492312717 0.1209996563274224 -0.007286863039221809 0.0011302624774507525 -0.09991783575607942 0.10943891799463333 -0.0605269725340399 -0.0010817824468314305 0.10351484004336721 -0.02406435425922171 -0.0019668419908658316 -0.01549837037314876 0.03469986277134896 0.07213639692028428 -0.10071453874120209 0.15048389129320686 0.08789477103841484 0.07084179237733214 0.09021781523935098 -0.0059659710904446705 0.12368703323535646 0.12622879650859964 -0.0878414122542141
president 0.01108816462618944 0.21789923626277358 -0.007674752964109032 -0.03796119185014702 -0.0003701624390095899 -0.3568533482974372 -0.135741639497749 0.06306369468337053 -0.13170838274128258 -0.04898467136273722 -0.1107075714628194 -0.06177940451555877 -0.11572293835746236 0.0933660987716147 0.12490258177614716 -0.13243659763193452 -0.06468008220850782 0.013495919664173767 -0.023262908830200324 -0.017327586944252547 -0.08452094402063938 0.025602967443271885 0.061461519021313124 0.040681036928374575 -0.16208660041281378 -0.04091369042403947 0.03997233277368481 -0.03472010529411922 -0.060689134790347044 -0.12622567334627516 0.03624702850704836 -0.11917740410320926 -0.20998371674714783 -0.05821959593749793 0.030686070364533934 -0.03338553676882303 0.04860009671921516 0.02843313543181601 0.029847992234454626 -0.09309566296574061 -0.07282240105019036 0.08137538191431465 -0.10402340316118337 -0.01093381977268967 0.06353017693562721 0.10664311891523616 0.0021093210056064154 -0.14633446920320012 0.1174279097123615 -0.0026237325652183245 0.06465244955810459 0.0704150040169411 0.08702115474824698 -0.153330971316252 -0.009666484522528947 -0.08176078000326205 -0.05974844336365417 0.05385489109851524 0.034936120867542546 0.0030623377592839452 -0.005772960731620097 0.1808496006954158 -0.0034097490818522386 0.035512481766769105 0.07465056642227993 0.09231457608067165 -0.005511763387605394 0.16333452618853225 -0.14420934863755833 0.035741223336519 -0.016438353924322486 0.029082898269871645 -0.18409935886279702 0.07400189457008932 -0.08995679066734527 -0.15141270570899032 -0.018016312027126714 -0.18132882497453534 -0.1739954727503546 0.10648993530341867 0.02451362855907171 0.15637987171932255 0.19518544158806753 -0.07544321462829574 0.008177404563646615 0.16261431118282904 -0.12262316874731286 -0.09585599469926621 0.020986985535839418 0.18229497490908678 0.047042379818532126 -0.10835018580142734 0.05062421680740634 0.015934767911889653 0.01221949807227527 -0.053953448560449986 0.02943520917724714 -0.0747907095328428 -0.10824025893490306 -0.028898761913919043
think 0.37927840053847256 -0.016915724448325616 0.0005534381329834072 -4.874022692226818e-05 0.004285651766515076 0.0028788119923546644 0.002014735713024907 0.00010661826336610274 0.0018703574307088854 0.0007868081631359448 0.010208689654633916 0.009200007920265714 0.006526870552417558 -0.0032312134543249754 -0.007975479539136502 -0.004203099033266088 0.026561260295616455 -0.007125621495582387 -0.02545590759232787 -0.050665262614250625 0.13630541789751918 0.013225691574670797 -0.0872459161541234 0.133066241968108 -0.10239541967710705 0.008815831196850452 0.007118618565370061 0.0016787411379946722 0.0002691858626228383 -0.0015142884250217475 0.0005491652720910546 -0.002529717377271619 0.003294154435085862 0.014305609876406654 -0.016846113251645076 0.05363716248991806 -0.0266897075046811 0.35333991675419457 0.027777896818407238 0.012593179380433967 0.025834831279874876 -0.017256991145508244 0.014380279399205609 -0.016993909227198387 -0.02146913766855357 0.02194645024576036 0.029212594242735434 -0.014098987213552355 0.022121098447260228 -0.002938171957894008 0.007939219831648655 -0.028834244365229203 0.1571898536083881 0.07500478463036163 -0.004828262091672445 -0.0020807367853004975 0.0006902474803785582 0.0028078488753278683 0.09549079159423987 -0.05948808209080012 0.22616308519086195 -0.02114430137831804 -0.003806485016958629 -0.0005274796234281775 0.00011775286557861904 -0.0008600299708557102 -0.3065472523852178 -0.014008223507128392 0.002946245691395115 0.02054966040110633 -0.15293679778382985 0.16943491421544257 0.21152911267227548 0.3963419026380901 0.0003053510838212859 -0.009587677389239607 0.005050865057225986 0.008468495337792849 0.029470320621486405 -0.006706542524896376 -0.0011787639696671077 -0.013943646526181705 0.009183142762422962 -0.022662544935743233 0.28625414726399373 0.016871120954204517 -0.02118759132399996 0.27776966855389906 0.22221938750321832 0.037682190154544055 -0.002707659185158571 -0.004314244566303191 -0.004744036918119478 -0.013014141829205694 -0.021490473581058853 -0.011704543915220744 0.05654827740789123 0.027501666231424762 -0.03951167172165592 0.009496405169797356
make 0.4512488320406451 -0.02148182460420166 0.0007393324580228536 -0.0001329938606503592 0.005208104289546185 0.003170007238306948 0.0018575520826038569 0.000455279129641011 0.0018284262216288945 0.0004440889354605052 0.008288183296841457 0.007382604054604049 0.004628349241089146 -0.0022652701984763133 -0.004523346365911252 -0.0022187380613675188 0.010098253097943679 -0.002543429628518732 -0.007254544330823753 -0.007325338912377577 0.010779582541640806 0.0006947975758636211 -0.0014970265758421284 0.0014804273851452738 0.0038804239382766808 -0.0022754496361750438 -0.003752820433140635 -0.0005479362526488151 9.997172421773669e-05 -0.0003711766868287309 0.005097843682915427 -0.02260441414961029 0.0077871342744822184 0.023974177944445386 -0.01907124281593188 0.0159656472195908 -0.06611522528275059 0.2106189538753893 0.009266720031005385 0.002736665383218057 0.0011445450925311523 0.0015462227330009862 -0.002463764623360969 0.006301434126974911 0.007536273050472894 -0.010121698876235595 -0.025810527829935967 0.012101863980725278 -0.01999498226225638 0.003933677838089033 -0.013034783969649235 0.05079202253458891 -0.37129519814942674 -0.2535135627531453 0.02335008393905024 0.00720223410423457 -0.005129613652492069 -0.015389318349798634 0.1636786855746634 -0.07479282085539855 0.24490120658401782 -0.0032774467218790685 0.01883420769910612 0.006489180522426018 -0.0131839866148716 -0.0062293814729570225 -0.2985940293890896 -0.030828117907251484 -0.030224136239439713 -0.0837701735017597 0.15322373491966582 -0.17517415223264657 0.03954783642891243 0.15559345217146967 0.03190493074720251 0.020073126710151035 0.01375974526967026 -0.0077679747097661065 -0.029402645370884682 -0.0028086439467342036 -0.000558228644474123 0.0035746332502909354 -0.007495062049552869 0.009011061158456953 -0.40946106363704576 -0.021156219657971827 0.008744196673654368 -0.11286598554321105 -0.08877993075515651 -0.0006806287445990919 0.008034528044969735 0.009506996287096132 -0.011300330531681887 0.16248593658966798 -0.14555518404055243 -0.00744198633258777 0.10444403926162266 0.09099288405669141 -0.08920592565306444 -0.0019245435110852045
