1027 100
car 0.01071960385106525 0.30881592271412556 -0.022309612093806802 0.04651817209677162 -0.07371126786664324 0.24844533492165494 0.00048623523783008994 0.14244654321847597 -0.13567145539169076 0.0753200991715913 -0.04010362842350319 -0.005653291743936398 -0.13182694822555002 -0.08288830507674938 0.364791550808542 0.1264891465809184 0.09618284715577843 -0.21995686540609258 -0.15229996869961016 0.12172466039856232 0.3512902235921913 0.10739355899531261 0.05120046267670081 0.031682936898539536 0.07495788609604605 -0.02923158206765145 0.0364012152199132 0.017575860807719945 0.0142996692368966 -0.00711716443385585 -0.040860444042275616 0.10903692115383815 0.21487466071181663 -0.04180047087144975 0.06701659990174633 0.1734272440187965 0.025691537890659064 0.015114854506822798 0.009956865357673919 0.011180140637573154 -0.09121390402335885 0.01566565873834425 -0.16257591677866798 0.05816292575280732 0.015113291685437598 0.023257018644063997 0.059987019790504886 -0.05142453453580325 -0.015079181663033037 0.009006399549660564 0.02441504985906097 0.14052698202730293 -0.08147789406441112 -0.11224005175987885 0.05803084387792831 -0.028646040554324504 -0.0038981251979100734 0.06652454850839508 0.019204833065443246 -0.022933842201812202 -0.0011703280829291202 -0.059295512710989935 0.0007708391955826287 0.12047833002790063 -0.07266472222020125 0.0007260191266196142 0.11770799710754255 0.029130439098979315 -0.02511793408674169 -0.04474135596566948 -0.029103388020184418 -0.013456308429223103 -0.14270189683948817 0.09030093370997698 0.007281033003632112 0.05207539630984825 0.0465532698250317 0.0034257966151388978 -0.04098768725672293 -0.17308754333932674 -0.019606511410765446 -0.10894886917522649 0.03479651794775015 -0.009976862941532183 0.10817047851256216 -0.029990887001033584 -0.0979529636187974 -0.08019643703196068 -0.08027892176103259 -0.008212361655818002 0.04287204688786072 0.07841253284036485 0.010720990932062545 -0.018216114193963885 0.0320471937184634 -0.06799694846597579 -0.03182717112835521 -0.0025316509960311177 -0.08154181285045697 0.05998402210996315
door 0.010199502359943336 0.2989600075862211 -0.02281009506371164 0.05367081761613384 0.07201639860672703 0.28459826152576817 0.04320370460145802 0.12124551261708676 0.006021561568450946 0.18032288744179595 -0.16833070779221543 0.16596175970358373 -0.36648207848677233 0.09550693506967436 0.010098982793016667 0.09459923216249241 -0.14427046340582175 0.08016874534314426 -0.012088940456856259 0.1066359549777857 -0.09556716982832084 0.028188337565911676 -0.1983617880356608 -0.14286111002483232 0.006923693290282496 -0.042236681060863264 -0.03316569667828632 -0.057244227278617714 -0.16182132269360783 -0.057621961441771834 0.0776584029740577 -0.11596719628874441 -0.023584257977411358 0.14281220713888315 -0.13894780796373762 0.04471230413661766 -0.02584833750805443 0.032994435830090346 0.0187240358546644 -0.08745555742794962 -0.22134359469275208 0.04946892642466686 -0.02211683603348413 0.033702863047033675 0.07207781925226027 0.05276710142529654 0.134852434591313 0.0013560537116379385 0.10502592845436527 0.031706761204572394 -0.004657768957460592 -0.015291167488203547 0.1725169826134396 -0.0009300591355753554 -0.028730081614851178 -0.11321210061442785 -0.028437832404450712 -0.10020900901056964 -0.14679130277045116 -0.02894545173936908 -0.015107949029006203 -0.02511023304691463 0.03125326756983363 -0.15770095896464092 0.026014445761158394 0.0006518301574943216 -0.14346645619422171 -0.006061826751809541 -0.07540515705864187 -0.038145352340864996 -0.05623607800425892 -0.004808128061238094 0.02031836178119253 -0.11140658589048122 -0.0049351062942238465 -0.1629589957763747 0.054872382740310865 0.08859353149069905 0.13249039444695174 -0.060250149263957324 -0.015186998630175738 0.09945624404413128 0.06210466979661364 0.004914912019996667 -0.009976812373917666 0.0034074361870778088 0.011492246528529542 0.00941067964503813 0.025812117250915104 0.028191767276406546 0.11436975444818448 -0.042668549372051195 0.027877648681801762 -0.007991898206092862 0.029760923617380804 -0.09557419539435182 -0.045658264231785414 -0.013812903928107597 0.03048753499230457 0.07142450527323596
book 0.008022799086966848 0.23850925616120056 0.01787048003347366 -0.10860687641847062 0.14171185073593015 -0.3101443753918342 -0.07964659773190988 -0.09297091165831943 -0.19445614916106463 -0.0612760580229147 -0.007797076037964067 0.10800695968616411 -0.06863346219282863 -0.23621447916517227 0.0028106040816258675 0.16504447971422476 0.1824741993007921 0.04700903257424369 -0.07012381701153406 -0.015670991121528605 -0.06486585154034778 0.10647980179093892 -0.17640224099191507 -0.007166281395098546 0.04056871965333329 0.20392444507367208 0.11130183878250292 0.037118402641867276 -0.03718595893134257 0.06199440244801744 -0.09603336437245474 0.026070010407599202 -0.049101847590794084 -0.06647498003222635 0.1242473876483248 -0.010964063438278729 0.19881926063549307 0.18611019464131284 0.2379954431267532 0.026243255522155635 0.028387898083516952 0.018115084965526787 -0.14384505027825945 -0.10071261079048796 -0.0008198376595259468 0.01933057140249744 0.07935045603521858 -0.06554584561133082 -0.13936164520869337 -0.013601722849709324 -0.036821983671680845 -0.08250782209976157 0.05648544927738382 0.0012359858461661556 -0.05879150685909051 0.08830561958023327 0.0006936940329080926 0.13708981462517922 -0.0012170974411481554 -0.05569612266269934 -0.005519062490197766 -0.017369329978694878 0.07203257820069202 -0.048372543332697304 -0.11715519875360261 -0.004521001590934646 -0.11263925716501315 -0.041522455179052856 0.1570370595644786 0.04912158411841056 0.14832375471229825 0.035546258343654456 0.016792296872989325 -0.09175961192664923 -0.061146553853839686 0.016004363833181653 -0.07682738844472169 -0.0014193443227518087 -0.1725828351688485 0.054051061430938595 0.004013679662630815 0.07336024137532446 0.09753640019813205 0.0008915742990700875 0.022574339693451177 0.07098455536730491 0.21601633052677313 -0.08253304460480897 -0.017059587432472077 0.019360089511370325 -0.007067490797756781 0.10618742262288787 0.05791487977454224 0.012290537448510433 -0.04554768408423341 0.010598619850296323 0.05025082348787656 -0.04604156740172012 -0.06217343472423381 0.01975084681321249
arm 0.011393183870480939 0.30174931873271865 -0.020641312872464658 0.016213549704010597 -0.20382329108498307 0.0710668669550353 -0.17580361558755858 -0.16285408885841415 0.12420841494926615 0.06872353658997214 -0.0695720148313575 0.019581533623760892 0.13068673925075347 0.024405906057149533 -0.07105306093453401 -0.03926636860454935 0.05228460629307929 0.08367480207629893 -0.003448148744316105 0.1410896228749741 0.0784891009507228 0.038758658010742554 -0.13788928332513165 0.004003652283558426 -0.06644605452536635 -0.11988616839332084 -0.2425206276132991 -0.09019486258512588 -0.21298149546419604 0.05589774341841722 0.1389071415083243 -0.0799591209553009 0.031151730610334234 -0.15592158857512997 0.14880908902992046 0.1031349151269845 0.09357140602953357 0.10473207575586418 -0.06398538121213299 0.1398153627038951 -0.012446541872620495 -0.20126310029124517 0.029924555629355108 0.07632004652353375 -0.13439624307702486 -0.06257936262764419 0.0964260820506215 -0.01604032360740994 0.018489973987715864 0.018412299307246402 -0.007122642761207219 -0.0936056637382617 0.08131677325926084 -0.02963923441260757 -0.12239916902068622 0.12085243079550173 0.018152472414576497 -0.06908484044977416 0.14984608186816092 0.039502289913644496 0.04040977951067745 0.009330603047743236 0.0016995503398386097 0.1592391646161317 0.1768077151252409 0.0005113600373494038 -0.07245110449987607 -0.14758384156978283 0.12276865170843564 0.09482975390928454 0.022189926647657492 -0.007649895318109608 -0.16875092625869872 0.04591451146374485 0.03819917584753055 0.026482217175042306 0.07721370067989713 -0.0005180316109344139 0.08842805934274636 0.027008893758199256 0.018154127784122488 -0.02037713155710531 -0.239732903982322 -0.03269850892761364 0.13501194314033763 -0.02999633656305857 -0.1277922327520068 0.06305955304763017 0.02171429047000976 -0.05087124666058192 0.050738237486417204 -0.025256576405359783 -0.04513043570670439 0.023338819398969906 -0.05639587867524009 0.029563610387169998 0.07402735365138123 0.04164397035579526 -0.011842339082983738 0.07711427834077104
give 0.5712305799136452 -0.02428399595582929 0.0007778521254983159 -0.00018567729240338853 0.0019799907525983734 0.0008831315639453801 0.0003014748060239697 0.00041918000328318016 -0.0002599755107527198 -4.8971949946731915e-05 -0.0026139642380530433 -0.0037754725885119625 -0.003508063846733986 -0.0009450762709333105 -0.005389243247579266 0.005203746389389266 -0.03240160576422434 0.010504855043201306 0.04761046426061817 -0.2050751857965213 0.15551336536764046 -0.03579444858190638 -0.1308143405325647 0.023795723446472603 -0.061948805015275075 -0.013816988101307713 0.015035795364607184 -0.005725478578365513 -0.004482885364934248 -0.006651821833020205 0.034220614975753065 -0.04359215472411793 0.015970619417229364 0.16808162604013183 0.15207235553584306 -0.015129902953113911 -0.012056037452581382 0.00978424021606344 -0.00875461363300464 -0.006482648458849857 -0.012073097910543958 0.01301225082080357 -0.009942977639855907 -0.019938841089817 0.04143055984424036 -0.0505416435704798 -0.009663742133001963 0.010302243663335476 0.033495450724841676 0.0030567516531972406 -0.17511860248242594 0.0014845709182456745 -0.02010191346948191 -0.0073155020603729425 -0.0032534765156912782 0.0033928275851987603 -0.1977644632967296 0.01833729160028494 0.018689763979605492 0.032056253177741065 -0.010855874568957948 -0.0009021307571646792 -0.012812878135121544 -8.285565313209659e-05 -0.005989497286248685 -0.30081615125328254 0.009070344253264421 0.011177392223154422 0.053849460318145165 -0.01813314685404079 0.03836653262581592 -0.3158490743769713 0.012183192662555147 0.006888761541210419 -0.003683639016335439 -0.005277533244833581 -0.009225578082440023 -0.002172716969228508 0.006157833536888176 0.007887039731511716 0.003104833143172538 0.003373016259250628 0.016958733416715947 -0.19394970322622254 -0.004070825034304329 -0.029266689169478638 0.025584661736841815 0.01163298314553011 -0.009739624650785372 -0.01689532222174647 0.03401394762278328 -0.0020285804923661234 -0.03191227661879292 -0.44111919157480295 0.03029360743839084 0.09588610702743215 0.007786404915626921 0.009469523655334816 -0.04546823654513391 0.037209962108925236
dumb 0.0011575641403026372 0.05444482588441054 0.8378103355700017 0.0008365080694098989 -0.00031435015234650046 0.007188726613359757 0.00423194848555493 0.0023246518036642524 0.00297391006723065 -0.0031787165879974635 -0.0005446465001779437 -0.004470193425382812 -0.004736369385274899 0.0023614398353161347 0.002406934392375762 -0.0018554766809468256 -0.010931750947811304 0.0014950382565024807 -0.002653870222935885 -0.0031542189604697197 -0.0012345979481619724 -0.017015709472042843 0.01029387899088203 0.001164895473069639 0.0015907595892094071 -0.037694690692572426 -0.015131275939825335 0.08596895739902982 -0.018522473052954992 -0.005537295707127237 0.10247347569846058 0.10623529022288061 -0.039658078363448014 0.012978930599964512 -0.006703411095078833 -0.025123937328004747 0.010849947986133382 0.009294023482401338 0.003078053570181621 -0.0013150266786899044 -0.005279643964254865 -0.01108061260819593 -0.008693777765170514 0.00037543162930028253 -0.00186097344505796 -0.0010380922838792684 0.0020096730003093814 -0.12358603352158053 0.07173954255526177 -0.11151768644354922 0.0036345519928180493 -0.010459646324383376 0.0018063677690642603 -0.006695237902805743 0.0038404005720613804 0.011990457453572348 0.005291564195050949 0.024116432255481365 0.002162084824603091 -0.004347788036641309 -0.0504053463004529 0.011229300641882692 0.01833588940511672 0.009521535183203065 -0.01712567001828502 0.0013879097981701202 -0.011063084160315975 -0.039890812160477455 -0.02904341425524935 -0.15630389333175923 0.015471478767671899 -0.003919018809911647 0.06793902069791564 -0.1568551346570313 -0.26765249689247234 0.2585717249776306 0.04821195036031034 0.03984531466772878 0.07268074907352988 -0.02523733690203458 -0.0793579377160173 0.03779696469370263 -0.06423232741856436 -0.0032670863879629398 -0.0004869650111589585 -0.005039458143795842 -0.041129672278450026 0.008525422956179205 -0.010762774550975011 -0.03031741378279905 -0.005312997680536197 -0.009806937438649247 0.005287591313093666 -0.025002591019062943 -0.005372889352728845 0.03911130907077232 0.018698712438644512 0.011405377973450358 -0.023405498577662286 0.01726758998265023
man 0.0093352282152536 0.27375511924728835 -0.013284105950293204 -0.017395411216775986 0.023446540950945643 -0.2404805728716033 -0.28335369383824155 -0.12366546920059754 0.12985018624102243 -0.09835838507153008 0.043448084104741366 -0.028186799946193896 -0.03766834805999966 0.1443127260694468 -0.2510235690514422 -0.024934687770484368 0.30020590920824697 -0.06158493017894483 -0.09109240532010854 -0.16185909045906982 -0.11205049787502576 0.17678847704031322 -0.058568717021509335 -0.09254037084972247 -0.04303743417084616 -0.018482007800835743 0.01446583394315834 0.01955114488546513 -0.004800103353668155 0.08038872800745503 -0.047952148480132475 0.10021587276681353 0.08160153510604978 0.007432527236559193 -0.031053798555254676 -0.12502275477294286 -0.08935237644626613 -0.13647119005656955 0.13649318273993497 -0.13235167317074945 -0.15280986902767701 0.15109073156635178 -0.18125099482777407 0.03809951212247562 -0.023060145148205667 -0.014398377281155875 -0.0014780328389824753 -0.042103431750206075 0.07814677724077923 0.04864558729571833 -0.012360677627009688 0.0011243639968471768 -0.06107839617867683 0.1584245509461915 0.06163171896057414 -0.13685379784180113 -0.025147337420424354 -0.05687722872399865 -0.0433597159534181 -0.09038408314655601 0.04610049423913895 -0.019476701774191904 -0.07930184849230075 0.04008383252350429 0.14387058753957246 8.519604875254354e-05 0.16387190790911893 0.1304612218387343 -0.07352256169286929 -0.05921045218694589 -0.015043524431769035 0.004315992744560011 -0.04586684949898091 -0.06823359969804196 0.06293245497422725 -0.022281524703480965 0.06090381082247325 0.08026361114271782 -0.01704298221951406 -0.005145058874609105 0.003311481370252632 -0.07104597762688783 -0.12568296114784036 -0.011139062077315538 -0.0316216797115701 -0.008598747192664893 -0.053202023726249215 0.04051852242508273 -0.0057291856306525175 -0.007322853145313427 -0.024078553224393957 -0.04264362779176348 -0.19086422439788645 -0.006220236307450554 0.06548614247832127 -0.15572008706313348 0.021650229014909254 0.0727665259852632 0.017095817624294497 -0.02748481399535699
bed 0.008494444117736585 0.24605809646049667 -0.018941455809855096 -0.18912014814401132 0.0032820173636216553 0.35201263759854123 0.19750142011253272 -0.06457904470646472 -0.1427889699225013 -0.11942715045047671 0.19684369442187521 -0.3053711520550867 0.14315790417901278 -0.058705241489747505 0.06554571840191925 -0.03181034071782129 0.23673322400918803 0.14664276525407952 0.018870166871320915 -0.07923229162908657 -0.07341020570009912 0.006815078851359494 -0.08314159579037626 -0.08987992916210351 0.11095134990068181 -0.020941912960946392 0.036739564414309936 0.013237995331124849 0.09937188309026626 0.024284099935573462 0.05362178253263244 -0.09581422427074754 -0.08805923323620056 -0.07464678452103278 0.050369181656054085 -0.12703508736429533 0.044634552513464015 0.03560885342979813 -0.10519505021908834 0.06376760889237285 0.040255558283604394 -0.16253423442672654 -0.014778206572762015 -0.004132899965038334 0.01808825560241577 -0.011615909106141492 -0.14866293705601133 -0.00815236369384734 -0.0963189649669366 -0.018257351867988665 -0.006114777628940052 -0.011361253190789919 0.04631532640619779 0.004936375150332276 -0.16043619036550918 -0.06500921315375484 0.024147130305940432 -0.03470163241912598 0.010075024688585264 0.149668341935354 -0.08404945045397595 -0.12411438842565872 0.007711679647044715 -0.02976547912464689 -0.031473607504734706 -0.002625569054914554 -0.06345936944127845 -0.04890883323619276 0.048193819878832006 0.06469976802855454 0.04186252015403738 0.009420285107418934 0.08830925235398077 -0.06051208786756155 -0.07638549751810116 -0.11687050796947157 0.2641188431434664 -0.08830985297346162 0.10413464154138188 -0.00819239738095983 -0.011429819965712674 -0.13472273487956576 -0.027958453020131623 0.002766006561331629 -0.018787089028945318 -0.014004439974459559 0.06559903999994762 -0.03396870256912013 -0.051221739977331406 -0.020980339638219957 -0.08197626485232999 0.054680715982925295 -0.03255742086967678 -0.011409877916886755 0.06612126865699194 -0.017128660017291308 -0.07990615317978073 0.09930781011722116 0.09750858944266147 -0.0573983012398027
boy 0.011424062342948738 0.2883410170203671 -0.020291632446382574 -0.13802440656506146 0.017069417313617167 0.04485689171803627 0.33017482817008004 -0.04833876263829225 -0.06744762923981254 -0.04334605440913828 -0.010825688282299115 0.040721796625600014 0.1109071738137891 -0.14485341185871456 0.0915310008695637 -0.012217513429378392 0.016896052973847716 -0.05894008278833862 -0.07893980266913883 -0.07788922838834582 -0.19142353901582038 -0.15854498414090504 -0.042307423913925946 0.010633795732127608 -0.21639122093109195 -0.08301182879807836 -0.13444423144477816 -0.0778049342379497 -0.028661707050232743 -0.01141960397738854 -0.029826765406482363 -0.00017065561513002295 5.479186109796929e-06 0.021534677490729168 -0.042255824717226796 -0.011196845743401582 -0.07063854256182071 -0.06750319683952855 -0.009336967613835415 -0.0737585926446719 0.03174351467008576 0.1658573912672443 0.041678323718641094 0.047936434560396694 -0.040369338116040605 -0.016983520885892885 0.02273499641731998 0.04413496139048529 -0.05602940599259781 -0.04305465411184285 -0.0013774333959923077 -0.1004367031871134 -0.10307548461268506 0.1154390233779013 0.21628484404002632 0.009741408039601504 0.074099632204985 0.23276403548290064 0.16597279916252922 0.1390906983896542 -0.08058165547871406 -0.028230986608519772 0.08660858908070238 -0.19781603282722246 -0.21229731202221186 -0.004437052124179505 0.055731593493164526 -0.03344008364589555 0.05006890580658447 0.03765607762136724 0.058852491508305745 0.01772133772315168 0.13315488151160787 0.10401691453904374 -0.06866728785062867 0.08065149484240197 -0.12545168853461736 -0.09679125960808285 -0.0251545473308462 0.10005804979324288 -0.005747938224988601 -0.10587519538579226 0.15820673260693643 0.019694502963532427 0.005731383347430773 0.006158445929319006 -0.01650049954051938 0.15130882225643227 0.14575645791379102 0.026789178660122172 0.09494299992523042 0.09518356392002078 0.05116685130408797 0.00944504249654295 -0.009860420819640567 0.10240877819784794 0.07120572308479418 0.024128321726042064 0.029215445524829287 -0.14534679977983575
bone 0.008927547719543676 0.24208955524703787 -0.014088677384955227 -0.040796564759667045 -0.12814929168182573 0.11268866767067447 -0.029272622853095637 -0.05354879869385625 0.04438653216202014 0.2861621887609933 -0.08414224993227525 -0.14797251469930434 0.11724698899686482 0.14650659078533973 -0.09106241707647542 -0.09463092298201853 0.06836853607224434 0.14332022210950648 0.1612828921802669 0.11309941678821316 -0.11709908490193328 -0.12746279524222054 -0.19937842171562947 -0.08306446983856997 -0.14039694089846097 0.19872232792199346 -0.14291439370028025 -0.03361465541722895 -0.1985197410303377 0.2226830918826133 -0.07596910315846858 0.10739940307029038 0.012521457068954321 0.029261068705958303 -0.018905319142240425 -0.13841585134921777 0.01715843215897562 -0.015604273295230302 -0.02676124533384363 0.12450054621407232 0.15125594626899252 0.20216548211817026 -0.0525921399007851 -0.1135642427247377 0.10203187661577322 0.04600604278608614 -0.08026422807810885 0.0343519261328621 0.03699578709188218 -0.0052320977438848 0.030153929471034475 -0.03589055914614337 -0.0857245756535839 -0.06579742090501121 -0.11234048636383859 0.11582660232694147 0.00461331670180283 0.0500361766897301 0.062456841344340895 -0.002888594624191231 0.002866854950845149 -0.1679670372873637 0.11224291388292208 -0.02123574666700288 -0.08228896090932573 -0.003259378098343519 0.15237129411809164 0.0690029840817699 0.004600492673760115 -0.04118931612362574 0.016866029900449712 -0.01076827275548534 -0.17482198545122432 -0.034059161097737725 0.03892342539517529 0.1024885818803987 0.10918135659646656 -0.06407921468119007 -0.1618647067671564 -0.00740997096797445 -0.00044811941968515395 -0.009112755587775067 0.1109479557993088 0.020348541517978234 -0.10942227159292627 -0.013573969583530719 -0.0393309098649915 0.04562285112869826 0.005778052565790643 0.034177702586094524 0.0146948019982426 -0.11876515289700881 0.07766438319687173 -0.016893031961830663 0.06853041051175322 -0.024234709988394786 -0.07295500001853517 0.044814089888595504 0.029902903336899506 -0.03035959526902894
leave 0.4748595811965867 -0.018815463141281633 0.0005628659169836847 -0.0001328026031419514 -0.0021362599704872524 -0.0018547089083428914 0.0012576020281314455 9.995934204710159e-05 -0.0017170821508322874 0.0008401003085357614 -0.00863684434769959 -0.008336647589430337 -0.004804399328532582 -0.0025450482150202475 -0.010094720825258585 0.008011271845739 -0.036190131231764476 0.010848987438222164 0.04710888482753133 -0.17295179000137692 0.12740456004980788 -0.027507533178575842 -0.10192886581710006 0.01929289796582769 -0.03989553997942313 -0.004480451604265863 0.008319387708822826 -7.837050175423923e-05 0.002056375742285022 0.0035107112545362295 -0.01046576497891042 0.019254801724505267 -0.011234669204258101 -0.2618367373874973 -0.2822899437975481 0.036925049940939154 0.0003433874715434311 0.08087778043188845 -0.007367811303183397 -0.008747483140869863 -0.007807762608305337 0.00539012826207214 -0.004482047344371041 -0.0014826925593664974 -0.0570649058605042 0.12949311220687115 -0.02045514719015145 -0.004163520584706683 -0.013541836543667016 -0.001584886124959791 0.19456960737242138 -0.010941868181806397 0.04207039961911451 0.06754740652069512 0.0010355838445201598 0.012006272871273857 -0.21842845578010558 0.014022016543453685 -0.003940328487175851 0.006094432978378361 -0.0028930207721010897 -0.013630168961142188 -0.01865063684991964 -0.007837212438099157 -0.01767605858292005 0.20977820690379853 0.0126316083905024 0.018371897316820388 0.1409989998159465 -0.05331786796202774 -0.20204003259519376 0.4652575881486032 -0.006114091964573026 -0.007784238418032783 0.009626295730208711 0.013144883366297573 0.018434135285670273 -0.025109918547606937 -0.02382304547398494 0.005902318015687106 0.002762166581383971 0.015092625790673555 0.026982531636696044 -0.14899644857952396 0.01237271080812257 -0.20377206289414737 0.01452112228319955 -0.015002346900617206 0.027429806832554554 -0.001781264321972646 -0.03486199942357977 0.02405484546218495 0.027547117475933816 0.0999931889760328 -0.1409403798899249 -0.11182849124090084 -0.014653826198360564 0.003145924708635417 0.04186240529089749 -0.02093833876444676
wife 0.011562770163088756 0.19100754759393784 0.05172450929128278 0.05234383767859093 -0.15461896962785718 -0.2996384784322501 0.011048243831550942 -0.07921972212471971 -0.10747425730523104 -0.17898223180671563 -0.12062802080948075 -0.06791634902156607 -0.05723296714932333 -0.06198418966027877 0.009120382882493793 -0.014743698650447343 -0.1489631056562497 0.06276293227674712 0.1452451639741657 0.04954011922210744 0.12000160754129316 0.2011117530548586 0.12649414839758377 -0.08834854212828656 0.08910008184199361 0.03188608400526343 -0.003758818279291219 -0.043457804736785115 -0.030614411669880777 0.21521969794248633 0.026920037836234395 -0.1099339183011317 -0.21989299440394125 0.11015583831207622 -0.12392697857973238 -0.12697274780962825 -0.058131663347907286 -0.03758658815540305 -0.003775719506117769 0.024510121452622276 -0.057999455605351455 -0.18635758159058297 -0.0813644454907387 -0.04641196294608152 0.009337466985405352 0.02873385832256036 0.18480616995180352 0.04349108540080718 0.09336777504750142 -0.04365372368475236 0.019012715644493545 0.016860435018738695 0.018416835119852974 -0.11415108016406933 0.20850942021650246 0.14878801819818094 0.03436574497778523 0.1250656777531767 0.005179044775844107 0.09534738242784452 -0.08001517861318377 0.020948087839270674 0.05143011785135336 -0.018917047627125476 -0.061129001968271125 0.0018822056779250263 -0.1667102365446036 0.11829994365826885 -0.11208987635429293 -0.14764846065431506 -0.09593882041282323 -0.02961483650517895 0.08786639670057997 0.07301998699008135 -0.12526702501986983 -0.025786690680264793 0.12334671936560286 0.01884098677562247 -0.1429362049654141 -0.006315735502606047 -0.007729015667291949 -0.1630607056224764 0.015286840803284943 0.012344419792867472 -0.13322319937510113 -0.012070237081547997 0.03550867189372466 -0.029528020691933277 0.04253291495076707 0.00048483901319955303 0.0746225566273524 0.06471912049745533 0.05254756755376804 -0.010598089979126493 0.03281312607871638 -0.042626106366858235 -0.05641893370915551 0.10433303206546511 0.16475482639096264 0.01371382883832435
clothes 0.0073517085164802425 0.22531041409575484 -0.016153423493769598 -0.26502085891948673 0.18283152936620536 0.21071412187135746 0.11323971926918792 -0.10670970361145857 -0.03762189982827962 0.06052883143773054 -0.009447162595274894 0.13852963089938505 -0.026016263831598566 -0.18504520252622628 0.03136651454957248 0.2889372929423664 0.09507680410238677 0.036843739777740254 0.1305678030464558 -0.04752361816972679 -0.069030047887641 0.03663988068716206 0.10160997944878872 0.1125481415843347 -0.10029379897363719 -0.0597983509370646 0.12179755780335293 0.0017004884178884495 0.02389009450887439 0.048939323452540484 0.08487197425773975 -0.04440268758085444 0.1019153072430042 -0.06831595506345872 0.03109207626575082 -0.02151881794513558 -0.06063004995454976 -0.0733872984426992 -0.06251460456583414 0.06147134914179324 0.11446561452076073 0.06715119853904417 -0.022954382945942677 -0.1024953831835821 0.03868660702605576 0.03186415490273778 0.10325652621700707 0.0650390443419405 0.07046363767999572 -0.012156192040277135 -0.003813548659078602 -0.11831703204008868 0.08400999708272736 -0.018511893450398574 -0.017988656068820733 0.0066668740331943255 0.023252572421231958 0.3210477093346059 -0.16752742750940658 0.008891009866468543 -0.16392773086828438 0.009686456253461815 -0.09438192581714287 0.005299084234732981 0.033967872428136724 0.0031476239408658 0.027167543164332397 0.01032840262202953 0.018857709236817077 -0.0343015617814687 0.07809828687700834 0.02865298356900301 0.036135906568266964 0.10077689460085384 -0.09125195850274762 -0.12034495897056646 0.09263718971515762 0.027988145965493 0.010931867043691892 0.01591392984426947 0.0037910807351331146 -0.10269020699727006 -0.046735353564862255 -0.009207600187686966 0.017819522000569764 -0.021817510198909755 0.04551724840505364 -0.10036949932525947 -0.13203363269455082 0.07929746381967213 0.028921096691064345 -0.2120808119284944 -0.23853516986937012 -0.002072950737257685 -0.0200569647976211 -0.11418269689003713 -0.04500049833898278 0.11344388945118529 -0.1426900348854727 0.06540983493547077
go 0.4356809093840129 0.01035231249317962 -0.0010879610626484092 0.0016903779006132518 -0.03456024694344016 -0.020552604024524496 0.015654048155300356 0.003280515350560966 -0.012393176472410412 0.002983457698967351 -0.05875023511862292 -0.05475403812231463 -0.026559582635063424 -0.009912785334382878 -0.037173134420532286 0.031999790543633874 -0.11373011878100092 0.03244103532466822 0.11735950590612405 -0.36000321702659954 0.25168933230615215 -0.045235966767739104 -0.17541099809006874 0.023872080025357012 -0.05461151390633805 -0.0010682304680814715 0.0022010394438933957 0.0023879438900889353 0.0027114853135302578 -0.0008170622991028507 -0.044394565427608675 0.052806080456493466 -0.02439062411650091 -0.09402746641226722 0.055085670444224515 -0.023112983525869997 -0.3452593859218858 0.27282188275641633 -0.0065244496993583125 0.0015721765863669235 0.006230685204548963 -0.008713127199052454 0.0045655695655663206 0.021971819987960564 -4.853956261648793e-05 -0.03326628155600112 0.020351327548362153 -0.013135821999339279 -0.04716889345103517 -0.005961174486135144 0.2513343508388375 0.003986174388710218 0.03605627553241424 0.005463868370432826 0.013493005037626318 -0.003347448273665022 0.30405712912667493 -0.027169788664022095 -0.017504976512915712 -0.03796495719296301 0.014407589305284199 0.006487008949758787 0.026194714875022538 0.009185966827914229 0.024465742062902168 -0.0026446592505440444 -0.020377610212122775 -0.040647235796994405 -0.23503013074565662 0.08862734890302439 0.15203004329413627 0.08718916776843655 -0.009537113738394975 -0.005581464762762148 0.007299061043858925 0.008581854486880543 0.008340950199683773 0.0009056617259190123 0.0042326933274423086 0.008187975812700131 -0.002277949141038782 0.0005192825353522199 -0.018555269545838218 0.11930800888776327 0.006720016096198128 -0.04885603413469495 0.038902312520320705 0.015644504414921212 0.0006153366192282615 0.008066253601586445 -0.015277268581882749 -0.012152041583190654 -0.04005526367513512 0.1763209152930275 0.08844746718451683 0.03865659945034124 -0.025011509434179093 0.028103102699247613 0.04479271073082411 -0.055294514550993656
take 0.4633161450628054 -0.002212140627939996 -0.00035564082102385654 0.0028479193927837833 -0.02058825729773414 -0.015033537817586392 0.014609579220232672 0.003851486329486357 -0.010999215282905702 0.0017947871243666955 -0.034562592374426396 -0.03274058099274687 -0.0203342379747537 -0.005146166501088269 -0.01954585788515638 0.015115428405303723 -0.06126251285259547 0.01731108593542189 0.06483330396193693 -0.18137787570055952 0.12463979504510625 -0.02190727414741165 -0.07251332782229515 0.010590360048697563 -0.029113291962576636 -0.00559503926270665 -0.007041131190188445 -0.003343519413170584 -0.0048182037485295275 0.0030533497642906597 -0.025362493595002974 0.026361558790907864 -0.013786606387449215 0.03226990244876018 0.1259219406948682 -0.034770023935954686 -0.19896118561525525 0.1135503979136353 0.004866099336304264 0.006048197971133405 0.015127933096773035 -0.019260845368708604 0.018247773320043535 0.03239905466326543 -0.1540725449663701 0.25149079916045736 -0.0006614176948361368 -0.02376889029198952 -0.07559096542996385 -0.006417238515997504 0.5405903766967248 -0.0156982572626752 0.05871103102341585 0.07434885943518225 0.004693889039847804 0.011346555398525731 -0.09447947213777193 0.0035754427189533824 -0.012109238848895917 0.0011102029137176606 -0.00472784792501899 -0.0032616252505085234 -0.0055455764668591685 0.0015090190625087856 0.007815094444053167 -0.09479933501671857 -0.007432506727443315 -0.001438656133345607 -0.0006831863651427405 -0.005926072829529272 -0.01960577996401314 -0.018353222502885697 0.000840111078267369 0.0016139986906956243 -0.010268400575019775 -0.015027436308313293 -0.017060827493055243 0.01723202108894458 0.03391478343426721 -0.011902573648584243 -0.008298593976712839 -0.015982759267538192 0.025680198937487308 -0.3228501081882405 -0.06409701184388772 0.29228334172439135 -0.05992327501674909 0.0030361698650280037 -0.03570492260388551 0.009373733153667687 -0.00433268416450925 -0.0012175569446791514 0.01735558315247176 0.028737255668318504 -0.1383264589702012 -0.08069151665953773 -0.0005994830656751238 -0.010012755289740433 0.022528922723701987 -0.008578678436574162
accept 0.6176567390937058 -0.02678136807575309 0.0008774915328825134 -0.0006730655863318681 0.005471066541034673 0.003391676077546684 -0.003317933888511289 -0.0008982088303350899 0.002130189619491886 -0.0002926866904885016 0.007636887027326724 0.007004898637702193 0.004046174843575628 0.0007628723049796977 0.0032491115766377643 -0.0027040726702462596 0.01156657566779957 -0.0031551847539883645 -0.012364647399389993 0.04201454040014487 -0.030220659736883745 0.006264596668207111 0.021498732344528763 -0.003312048115860261 0.01121816859562899 0.003676558639150444 -0.0020369811599158304 0.002110481429629952 0.0025292632680526234 0.002974009603997756 -0.02500875316850313 0.033803537026921196 -0.016199117188744495 -0.21246229916884699 -0.16707096302371388 0.013164215137447512 -0.16942942320458554 0.2066468341768138 -0.01580263893531649 -0.014382886214462896 -0.021394887462714788 0.01906443671465253 -0.015108806901920959 -0.027324343333111054 0.062181559023959956 -0.08194376641716312 -0.010405097212326684 0.012047004881643836 0.04177901648746468 0.004658599790156855 -0.2264972888875131 0.0032976143735772706 -0.023855858538320295 -0.010711954541434409 -0.0023958852957166156 0.00352841815843565 -0.3414299514143314 0.0386809522945115 0.05031658111164834 0.06124223284372971 -0.020726002914300806 0.009797899559817892 0.005229506984971499 0.002048397336007639 0.0008082926715643757 -0.25346758677264025 -0.01176856798392877 -0.004268343253111071 0.03166882738823241 -0.011579471655049736 -0.08443566938868574 0.1990226085438635 -0.016249584711355854 0.000851642657289682 0.0006214914327689906 0.006306223945710746 0.009752023676619512 0.02314337388617728 -0.020488299238173715 0.0017163774608587314 -0.007319951449417218 -0.00029362862458776073 -0.003482359341152818 0.06550706351754794 0.022822577208794687 -0.2344454048410176 0.005624391172298244 -0.017272893677309796 0.01849729765723005 -0.00032845986866766614 -0.05354606392109419 0.003269016270553913 -0.011907953474924533 0.22254275012198937 0.13016855923315543 0.15516668381187906 -0.007015115627579258 -0.07241010819420347 -0.0186085195224575 -0.04614471430689917
argue 0.41145752057794666 -0.01964094055965725 0.0006976538717054731 -0.0009208400982267183 0.011165334909492215 0.007575009006589432 -0.006910310829029143 -0.0017544417604311465 0.005496531588756548 -0.0016829159340291178 0.02332509541885023 0.02212069733923252 0.012859025442930067 0.004487314691168152 0.018703174595166957 -0.015010423376851335 0.06834066390119847 -0.020050575665326913 -0.08482639175363804 0.30675711476652484 -0.2243628559437936 0.047512467876049895 0.1741906675350662 -0.03127743313659474 0.07210416701419699 0.010454299735711688 -0.013329622763985345 0.0027466472130622597 0.0007291245727680396 0.0007350357359915442 0.005122884707939015 -0.0099432689121944 0.008226254656039106 0.17195463327108707 0.1518775118906587 -0.015112296347116444 0.134654342483856 -0.18840758092325113 0.016095899289652 0.016652112985747272 0.023391153178126525 -0.021248451189381 0.0163385913434213 0.033498452203554296 -0.08131827008066464 0.1254641069262015 0.002791402324451282 -0.008928174858864593 -0.029841286428288177 -0.0029232613662146913 0.15654177681225007 0.0011511992581431487 0.020099652487661848 0.009170572866255309 0.006333908658693094 -0.001365489836849692 -0.09699994989919752 0.015136484943842812 0.02761291301717532 0.031075718176287674 -0.008738340121087193 0.01546296851263033 0.02271197928329389 0.008635276313630461 0.026618337020634084 -0.013024299094380737 -0.023240506815057436 -0.04255594097162906 -0.3085557398562066 0.11764540321178966 0.24592129546586 0.05528311006222469 -0.014178893669906262 -0.008966270854402185 0.011975898200387415 0.017808461283337296 0.016354356637240074 -0.004558343988797961 -0.020806865065161873 -0.011162343411594102 0.0020588871630860543 -0.0026376676024426242 -0.025765065520437593 0.24806207853950757 0.013606886596532277 0.09902773731520903 -0.036017514529922065 -0.0017734476693017673 -0.01246439428368758 0.009848365136135859 0.0320419433240093 0.01321896954953453 0.014153696995849445 0.2530174291671093 0.30873868719292735 0.15864965520183297 0.037743335119770495 0.0339851684400298 -0.08286432014379531 0.12534195598159154
easy 0.0006461853868632914 0.03666174308333058 0.6245839657958799 -0.0010119386208175384 0.004519780638254267 0.012468583715208528 0.0023914074602389844 0.003142906974778094 0.004039752843221876 0.002440445892675411 0.002883014949924961 -0.000170673008603937 -0.0012409543402312063 0.0009452638342917607 0.0005409230804892425 0.0003758604463819804 0.001941111092364135 -0.00020370827098072528 8.901236234239061e-05 0.0016963640052101226 0.001585962159207021 0.015139657236577642 -0.0054251130610418145 -0.0030783639561824303 0.0016641668549508915 0.08096188225752216 0.03816622858328943 -0.3065736252297565 0.07270606270364198 -0.03040372456820704 -0.008551815650294227 -0.020251091265499475 0.024708178191243633 -0.011077164703744499 0.0034080442672792984 0.028058630804657776 -0.022221516989757238 -0.02118707633397815 -0.01361746987591119 0.01738508589075368 0.01788499053312506 0.02661589801735586 0.07023009873966903 0.026132080572655786 -0.029829794025620773 -0.027675671145902407 -0.07668871308615069 -0.29255712130517053 0.12862396941092294 -0.04393847883712226 0.004640562096639411 -0.016225235084198486 0.0039226120851851565 0.0015860375734845816 -0.011101055598782888 -0.00592895683290163 -0.003522670735636968 -0.02596917780343391 0.02931286187717186 -0.05897322108135351 -0.09504177259875426 0.0033522844544991754 -0.004266117870102647 0.0036000845104716176 0.03564707905190945 0.0024579678436000806 0.08263004290250309 -0.22952027760332602 -0.015584150795791533 -0.17787800224094322 0.030301856285353687 0.005222245290933229 0.013959602039365106 -0.01698300545498271 0.017043182954060515 -0.03256862711431759 -0.011532879169181066 -0.006684738191430177 -0.0356245995270607 -0.00627744105143602 0.30208006170781254 -0.035553487976601086 0.0971443610306392 0.007436868281296343 -0.0025740953853038966 0.014684985876584419 0.0830505259952439 -0.04141462656137686 0.011159967160984469 -0.3744943750034163 0.07466492271064522 -0.07172440203653034 -0.023066686676860515 0.037697875427003646 -0.01144236162807439 -0.016267623306230595 -0.014830982828036713 -0.016033543473479253 0.031205061661181074 -0.030289941068654017
bad 0.0005036681930036273 0.029440875885453365 0.5165733362134622 -0.0008601032463320852 0.004860661108567635 0.01521877330635567 0.0034985955444344252 0.00397755302219351 0.005728351669017525 0.002952149341438044 0.004203905565188537 -0.0007269756966148639 -0.002504079041717819 0.002770847275282296 0.0014910216031269285 -0.001024500897413774 8.57689085430626e-05 -0.0008911604112518929 -0.003733830738590422 0.00041866719089338965 6.240438891556647e-05 0.0037199473111366494 -0.003076794635648995 0.0006556822224736626 -0.0014131251385443588 0.043812708720633156 0.020580450203260204 -0.17145987221523878 0.04317620444033357 -0.007128324910045968 -0.11657628198211044 -0.13649910579889263 0.056859044399621445 -0.020490368503723218 0.0054792882531512375 0.05021988149017185 -0.03768075628258696 -0.034571432747271105 -0.02328303995198131 0.021191980066131995 0.02503266164184618 0.04015342560732995 0.10876654540066055 0.03454056491120614 -0.046139544471875925 -0.04364549348407322 -0.13427527652979396 -0.2948068085047417 0.09510779320627366 0.406393127825745 0.00798419392275215 -0.020300516670591802 0.02357038095971196 -0.020199716845161534 0.00512860291656286 0.01992833170455942 0.002240964095408622 0.007479263275764527 0.015287869802584541 -0.022449307653118037 -0.045892877237273894 0.0034910979636599937 -0.005705495355701603 -0.004760823770064028 0.02375924717761673 1.1247850923694936e-05 0.03935577112242842 -0.07991053098148657 0.011866812737975609 0.03851066263270506 -0.00090225270197414 0.0022940712111537923 -0.056857341306843646 0.16271787973538776 0.3088770771468708 -0.32243858211377274 -0.06098187579123411 -0.06007249876496364 -0.13442082336269057 0.06101137245837157 -0.08562717035756912 -0.08736653617428315 0.14048523996402507 0.016609531566334688 -0.020877925261403567 0.015080336926079433 0.09722543753073956 -0.03250156023417718 0.019920913063515372 -0.18109189694197994 0.04521868919650327 -0.00942967319217597 -0.004731435485277684 0.013944641913575494 0.007566027144579125 -0.03526845918620588 -0.012008203572034859 -0.001261716143006514 0.037982922380656745 0.0032890729983185533
word 0.006381921378709191 0.1946088078695289 -0.014025160074928126 -0.17404438271981967 0.34000689383434607 -0.2807433179466921 -0.012379150289442661 0.2328308654120221 0.11130143808724052 0.36372589898325897 0.28283988032552543 -0.11470190319892005 0.05662018345277036 0.010908869194931831 0.0031569581717560543 0.0102801018004048 -0.1785220441764164 0.04016066368991154 -0.14149453963711617 0.0032544895457481044 0.17058408522169874 0.007416149693379062 0.13395743858679834 -0.03543494307163975 0.14459041901548075 -0.14295636162178008 -0.05529740843993785 -0.03130540763415486 0.10112217449021954 -0.04035143017955011 0.029837468605479995 -0.0770548480547445 -0.08905312311309646 -0.04337810028921562 0.03317096138124266 -0.023306298680276602 0.015402264810743544 0.0027486114600905284 0.0007705568091417668 0.11727259773744797 0.07685145390003266 0.11201506798159525 -0.05793900969650206 -0.0019024986171356946 -0.056448041558749766 -0.01606469772240619 0.09081636462227452 0.007722596379219962 0.04982345990913157 0.012990907000099056 0.001565329210388689 0.12834901335462343 -0.00825281337593086 -0.072027624156767 -0.0707301146055894 0.11204056832596267 -0.029489327468616638 -0.10783265359945596 -0.08731848000479897 -0.005889585888097904 0.002626736570924194 -0.02357025720534392 -0.10258600635246792 0.09626377917041148 -0.005187389491010051 0.0027046027166064937 -0.0012293117405128486 0.019836204663230512 0.010591187060997143 0.0032761472313142543 0.01904376329826673 0.005294793257757437 -0.005631120671769626 -0.052540174645237386 -8.201673425326779e-05 0.019294882920307253 -0.06688473775740564 -0.001230832642557469 -0.0581366821311391 0.13082627540838407 0.0170735848466811 0.0811910773862134 -0.017457595286147688 0.008709724201869516 -0.02496463821142688 -0.01926878781878153 -0.003274749353259915 -0.07718952777332634 -0.0901979111615139 0.03199258437933095 0.12034656220290299 -0.04713992255148807 0.09470109624752156 0.0439762654156631 -0.06353186730869995 0.17172876162448764 0.020097855221892398 -0.09203499214886086 0.03827461889817078 -0.1009741551136665
alcohol 0.00830472748159878 0.24553580933008678 -0.017931636410263477 -0.16184387991242416 0.13914693549138138 0.14288645847104905 -0.1204740083013108 -0.09096982316805426 0.1503111620959806 -0.06932335637360788 -0.3009798000136147 0.20827304767609697 0.0026651872304254893 -0.0833451638957357 0.10902686619425844 -0.11866148248797063 -0.21686132452100332 0.009044469227736485 -0.1773500072819127 -0.042913810744443094 0.02528234097588876 0.1220786441569863 0.04455504766210389 -0.14474690627886685 -0.022838790837213404 0.11849676053480339 -0.034858692439764985 0.06273040389778108 0.004823085535003752 -0.2229440987779629 0.0487721028060025 -0.046182101724039144 0.07596167683033864 -0.014483980650603082 0.01626529580528438 0.008811129469618989 0.039682351552029295 0.055209977017621883 0.1291279060593307 0.09135809473698814 0.03051279242260486 -0.019187910375578987 0.1900626188968405 -0.22924837987926566 0.008030235904700296 0.008834931254190239 -0.058430393139956516 0.02760249878775744 0.039993283053930816 -0.0017045054667941112 0.016562526667005934 -0.09552595321496958 -0.13304437144151757 0.03365399265410952 0.12840881256925873 -0.06766283643734944 -0.016438870895442066 -0.23529492462119855 -0.10017322743799979 0.1348555678751288 -0.048556636875298494 -0.028656341271603415 -0.021345362070902388 -0.0635758697726985 0.0015579176380445259 0.003985206894648847 -0.028512823745621477 0.09579802387160102 -0.008697451744215472 -0.08650759260718581 0.05981610470280356 0.01788035231451637 0.005244779900654703 0.03264200362958222 0.031834172301630985 0.012517707111200276 0.0957070200902181 0.036265532479249865 0.05885269537709084 -0.13398491139710086 -0.025332423875576313 0.06044808804132139 0.05879412084855097 0.013323352766398466 -0.0034602934381382966 -0.012323674526312507 0.18974000600297966 0.13273387380347987 -0.0914652897949855 0.033564142845312776 0.07669088034179762 -0.04715600910593526 0.02827732103586224 -0.025972726528578974 0.11342458495740582 -0.10139310295466669 0.0577563989200978 -0.14940366732974128 0.06760536934675795 -0.031050715055564785
gun 0.016351307225925434 0.3186943021173548 -0.02157843225371643 -0.06603116703584487 -0.11948074437352983 -0.029238257152202348 0.3517115892210118 -0.07371683964246288 -0.07424394371130966 0.01285621737942723 -0.26601143127852755 -0.07993394463361785 -0.09834924884353495 0.009564523619337831 -0.09878455602696798 -0.10195931428924894 -0.10459238845427338 -0.012738116112923891 0.06296622572654077 -0.03742214565876204 -0.10553361006858347 0.04361030956093156 0.10774247090010097 0.21589789070158266 -0.05626087094413447 -0.14530352362836732 -0.08634392663967999 -0.041480695469325306 0.038220562969574316 -0.006981662572739907 0.08407842360085474 -0.08088565546510991 -0.05798418969484694 -0.10752001691663939 0.043849971570369566 -0.09500044314784456 -0.1257468183397202 -0.1841134024735941 -0.08126433297863161 0.027869351177758277 -0.05728208153426595 -0.09772517654380918 0.12415423778254746 0.07793515213988751 0.024896162202898343 0.008788070930426828 0.13527368620724764 -0.07055193720474288 -0.1444983497053043 0.005407691347747354 -0.0461728256359033 0.09970762141394482 -0.14659418320088036 0.04185740831260903 -0.04154941308150575 0.055757017579241036 -0.015031226359613913 -0.012525373376162111 -0.09754102324452592 0.04067835161710506 -0.053580061418084864 0.03186263729668544 -0.11979699051656129 0.01244226066615701 -0.06898617990124085 0.0007623053473556027 0.09927570518587453 0.00010814359352349637 0.05198151224030075 0.09234499718022172 0.013698447499986251 0.0022410453666534265 0.12465461088550803 -0.24182154685905202 0.08412009880948856 0.021568347833616865 -0.13190955269915774 -0.0712928713828418 -0.03399848928052791 0.18206299482215843 0.029302162942330078 0.016885146098532856 0.05102113712169711 0.013996167109871453 -0.07291608265091809 -0.054164400003529296 -0.01958254152805704 -0.02171339293377456 -0.17599099868399745 -0.02144040744849521 -0.12310792944692972 0.027268550962143624 0.09623621286203592 -0.01611658295504768 0.006006712303392854 0.005290389478264318 0.11313964949721672 0.016994512885542035 -0.13843869385572732 0.034159794885021084
father 0.007110763039488653 0.21137402999852092 -0.014990462674869925 0.07206839926659009 -0.07186780912769268 -0.036117847729307206 0.02193375892677867 -0.10281175962074715 0.24912192765310978 -0.14904696843228107 0.22963263669042275 0.06843476957653144 0.009920180923993037 -0.012136826476265003 0.14341459908442783 0.2530833309325548 -0.10286776675430008 -0.0440624812128505 0.028793351893106316 -0.16368086254527064 -0.20408733348664598 -0.12495329794185511 0.12756861879665127 0.11082543603046945 -0.014194430055960286 -0.05929184036165701 0.11428358018209196 -0.08885580381664218 -0.1893702415062214 0.02568143277049926 -0.1452118830807406 0.061853565752156836 -0.09288141600386854 0.029128799848246234 0.009137076681126077 -0.05625955450457969 0.08622759971850853 0.04123654647463635 -0.07720751388254347 -0.04891596953708941 -0.2213336315003376 0.0831470419397609 -0.06568935845099168 -0.12933363325185224 0.030939149011577332 0.021658305331830066 -0.10179448616763978 0.036867690629355326 0.13299171719071934 0.02347339254941003 0.04440051390496252 0.24417996118495397 -0.00013607706862698617 0.05666462100715058 0.016634101940836594 -0.21349103178659043 0.028291271389964668 0.00918579098947274 -0.06233232022433906 0.12002851277241432 -0.09043980528092407 0.15471703816764057 0.05189715894109302 0.02481337033904506 0.05287047872964782 0.0003472786066403555 0.19037524648995427 0.050988462891324235 0.04695223755283881 -0.007390396641118269 0.0547115886878148 0.012044700561969239 -0.05457854015554575 0.04344606888261514 0.05431673825923244 0.031222302163381652 0.09595818418072409 0.14699636167248864 -0.05728505438115803 -0.004598951863454556 0.006224088781164359 0.013965071445345926 -0.12257352163416015 -0.02156870247753402 0.07442987501645447 -0.005766637119330461 -0.014056967663895118 -0.1157830481634997 -0.09296451046225511 -0.05055494173228275 -0.11851307971857893 0.032449187674412815 -0.03244106248314318 0.0114561379410251 -0.014894681479271482 0.003863981619417157 0.07239344482863964 0.09772411771884353 -0.14439239973959467 -0.041170337794759024
apple 0.013658309140351177 0.2698424862798263 -0.015985586930157208 -0.035746202737301884 -0.12125133252814359 -0.11725802979023749 0.1124801429224291 -0.21579719823107996 -0.1134684810553781 0.12586116312997433 -0.1828309504817 -0.14748118155857018 -0.027048428650413424 0.16540764080635775 -0.07733436982236226 -0.10882489968608362 0.03162659587563926 -0.10419507127035493 0.178018303315591 0.014922697851326812 -0.0034180057596687663 0.015116751729963969 0.13364346997922255 0.14031497950761693 -0.00878784190453365 0.018378458691243105 0.16633070589016397 0.03403450446802861 -0.11219530567639809 -0.03718897147908731 0.14835631323855603 -0.059090362989687624 0.05938250784239377 -0.03866175311963124 0.0003569454023978377 0.015228988900554607 -0.0950382889830113 -0.10729976339759528 -0.16893720995827102 0.06508521505821833 0.10060887736909047 0.23747932635768348 0.07141459526567989 -0.07329346437321779 0.012853158253335635 0.013549256804672822 0.05544189176755507 0.027851290340471468 0.05656285602888754 0.002752597914317783 0.002101656247979237 -2.9761674646833465e-06 -0.06207854784192995 0.08735440332388619 0.04993533228720158 0.12107487643495492 -0.008829506211743462 0.014774894013254925 0.0066914961932755855 -0.09121905752057294 0.049534898510999695 -0.13499754084295182 0.09721082038793426 0.1473714935587224 0.08139647930251494 0.0033352035201220215 0.03581393298798706 -0.004436179393373041 -0.10132355853901283 0.012835464115602966 -0.11367352528414383 -0.028106185149520395 -0.0061122029346812505 0.2247335233789247 -0.09136597538652215 0.028678722863739476 0.13347417125366035 0.14252917754406758 -0.05888063026613217 -0.0058566933478285555 -0.012135981964403842 0.04716948400429472 0.03260958559020526 -0.0013202062789122156 0.08301297090090955 0.007354096124175805 0.00451467838896761 -0.25835671157436485 -0.08598617774723553 0.02807680746689434 -0.04796823950082962 -0.03080250296807172 -0.11503782791039457 -0.017919604451589542 0.1363273502180133 -0.11587164942195045 -0.12199307709641861 -0.1440089865178881 0.13430549935960934 0.06603649617817857
body 0.009472028437727027 0.23927449398371864 -0.012602540868431133 0.04324610440109429 -0.17090581661269258 0.0004108889478667099 -0.13629847346810525 -0.06735881211373282 0.10083487932830434 -0.014494452769770207 0.15473193621109452 0.006320902045964396 0.16729650698231788 0.17196785594306715 0.019903093665246 0.09525521406777168 -0.15022551135155165 -0.19795058754754527 0.13873381980737412 -0.0066017105173756425 -0.038186012933796434 -0.004749387931508902 -0.01865112620321735 -0.010440072307060844 0.04288415937108525 0.17933282644335347 -0.014376796824997373 0.00463112431588222 -0.1832084090608698 0.1484063053536128 -0.06272108865651045 0.15366481957336733 0.16465409418704494 -0.14964257928689415 0.15874162213911033 0.00906375137740899 0.058105275723644816 -0.029570538277883678 -0.03712445931728567 0.04223682336614764 -0.07714639079841211 0.17697109591940616 -0.12406792343900223 0.1971806141539367 -0.17153826942861203 -0.1044691122827963 -0.033390658648109466 0.02847248198558157 -0.005617400784743044 -0.014074555099457662 -0.057087521950526465 0.1861949626504233 0.2264721268714586 0.12142909150662201 -0.05659949654963406 -0.15081363169026518 0.008586065632708275 0.042209735141557965 0.035609807318121196 -0.0076589221388684145 0.018839793965308577 0.07532084811478128 -0.06876203403666584 0.034938120997962195 -0.05308655894638442 -0.004151134675430549 -0.015188076237912953 0.11080900655172092 0.021344626854509784 -0.08197262018156094 0.08541941593570458 0.023795375219760884 0.09367294078065208 -0.027876775532446593 0.02534956677197841 0.008073552967311846 -0.01764338806420916 0.21589103863959694 -0.0646360690935975 -0.10935254361170788 -0.021768006099403235 -0.0969296868917942 0.13007412401053312 0.00983604104089321 -0.05189190420872294 -0.029646100052987158 0.08041071672845802 0.12422139313779028 -0.07802299765480604 0.02611262761826181 0.1159581922748843 0.0667653273084052 -0.08830366167383862 0.0011326772925638402 -0.02105734240565048 0.002764735137590386 0.12418579248614492 0.03709385127924533 0.11759353600500265 0.0752603989327645
people 0.013704007910026152 0.21793840074444723 -0.011580914385190431 -0.041152202849701704 -0.09081452233834149 -0.24688739932829193 0.25654924830024 0.01846502791901709 -0.12655849124416008 -0.08856246177425196 -0.2408348372275175 -0.1283140803067925 -0.015643580362163182 -0.1305740524209081 -0.004699895033204497 -0.01768798541979965 -0.10246548910686402 -0.14955452959711107 0.04966846500647227 -0.012908456131744961 -0.16474530009051766 -0.202493395251481 -0.08751924505292782 -0.025537003002043337 -0.00942408546967013 -0.04215588352967011 -0.1065003575662394 -0.026720305444510407 0.06718617869596234 0.021511318549330496 -0.09838787798723753 0.07664753073165635 -0.09035096772140905 -0.02189328709440284 0.038083720456441206 0.06651964646225417 -0.011850189712018113 -0.02846836678225589 0.1273997947523224 -0.14044719588040666 0.014393222866759441 0.03568484442088021 0.06174273199219954 0.2309359876728989 -0.1997472456801199 -0.08730431090493763 0.178169277771756 0.012714195047164062 0.03703484393874515 0.0027051683303091927 0.020879805104174393 0.1652879658425644 -0.08837229614439343 -0.1321960572981433 0.18313510407913594 0.060712355168138415 0.044222132548512906 0.0030936568416785317 0.04227287063882446 0.23553116783495076 -0.13074759446856507 -0.026341836360712047 -0.006011490413196845 -0.06706690360072629 0.11106632130003566 0.00413607327545842 -0.05506632098189956 -0.12350309037212708 0.0708489552553172 0.1025625216492645 -0.037617932972561344 -0.020808778899908505 0.0776686414618231 0.008498163377240778 0.00928495920271447 -0.013870636120079747 -0.021331614149405726 -0.08880159386972003 0.1969339783577616 -0.004869328826242941 -0.000472406617619875 0.0946577744812495 0.04716049619151141 0.009231129396313905 0.0261986853212542 -0.04883285548329743 -0.013133726224809218 0.09258537029215973 0.12212175785712072 0.017676470154796585 0.09737851396727987 -0.036994483888340965 -0.09465690021300564 0.026649026870596365 -0.024984311160845905 0.0222181457169434 -0.07477361673059774 0.008534887676678784 -0.11838531467601417 -0.0943773609292498
task 0.008755944625304591 0.22546457675349554 -0.013086308597398547 0.11780769439222788 -0.1531492384885979 -0.1953468666276889 0.13562420226909838 0.07141607603096507 -0.11082353422063457 0.15245033871138777 -0.2761191632984103 0.028238587010383065 0.14014825064197814 0.13751590772651653 -0.09683072106557093 0.008336178754543212 -0.028924425409700076 -0.07019910609620932 0.06545470967528845 0.048034734933025604 -0.04055541578356076 -0.04455165633559529 0.07311284747999265 0.12066516132731182 0.024681863303420922 -0.09929148237451184 0.06296181674410525 -0.018330018737316697 -0.0018968427367960221 -0.17207761995725365 0.11334267442253981 -0.20260080990959056 -0.09947293101536923 0.05636711983965087 -0.061482648801862466 -0.079603640714089 0.018790558556239047 0.032213083550654095 -0.009935851187291522 -0.20494346801886587 -0.1385886698902713 0.0928184394291209 -0.12358518898925071 -0.10259289776152525 0.2860457398082342 0.14454616281401786 -0.07755270399984812 -0.0725345152835379 -0.008367983466376098 0.02722005029338327 0.017006772946063405 0.052029766536651485 0.17002025836693915 -0.015031497039383997 -0.2238282191730733 -0.07537304393015679 0.02090232832021383 -0.13049050894810996 0.033635018000775035 0.1353809137825964 -0.04655585067110983 0.019543577169939947 -0.09782017444531418 0.026976383506099856 -0.005651861734916688 0.0014021118292870012 -0.1201259594229453 0.010790698306523964 0.03179155152484732 -0.08025041861984955 0.09447031873288489 0.026014688116896306 0.022960640807617335 0.008465217627091478 -0.056248818674103425 -0.16995462945679368 0.028088937142478683 0.04132429207961932 -0.04128504956204668 -0.12086379917608003 -0.01072490503646248 0.02483109949790839 -0.006003004733999546 -0.004379624728154691 0.04668602016683559 -0.021414117944184647 -0.058264529021244654 0.017340550986244124 -0.05111698430037937 -0.00851237165935988 -0.044483647085607966 0.04342695208223097 0.035271549366826506 -0.05056909846624276 0.11618553682911477 -0.09408299884800392 -0.037027930450982155 -0.1101157383761451 0.12588965366791577 0.1736753969088781
keep 0.4374465637601574 -0.019399587880792397 0.000648343632353959 -0.0005477590135433496 0.0055184270951078515 0.0034437860383201343 -0.002887294662719063 -0.0010733630922398194 0.0022606622128447775 -0.0008673872661362036 0.009038230909936808 0.008508541453765282 0.004650014854258718 0.001654442553126154 0.006436660592729655 -0.004806044517031596 0.021061899817793966 -0.005993213714880849 -0.025127311453018105 0.08707068022245366 -0.06272806908250354 0.013012687796841699 0.047642414433942626 -0.008734164351695287 0.019894448311804647 0.0025024584741505833 -0.0036154676415985775 0.0006301673827521897 3.227224869921161e-05 0.0011593239392842084 0.00027917252278167825 -0.0011180625571625673 0.00028681511778369143 0.04647596802189091 0.050609734971895026 -0.006790600109382153 0.012965056907005675 -0.03688727700012871 0.0047480926492144675 0.006632193926959301 0.010438742204763714 -0.012255149206673513 0.010534687027380195 0.0302752520732745 -0.15216880657099563 0.29259875823846343 -0.026857254012132004 -0.0071241193520189755 -0.026002914628025054 -0.0034060722438355733 0.24522173319272692 -0.007129099062575784 0.04338940389783521 0.05806223401384288 0.007603645660981387 0.010837496407119469 -0.26669108433291944 0.022909544410067914 0.01898727675469806 0.03763165323666168 -0.013467169265632302 0.0002321075800025668 -0.005093357117246301 0.005341414487044301 0.014518392428952176 -0.37698833247059504 -0.008993362950293775 -0.03518746659379455 -0.2995661686202633 0.11755181949620788 0.33215993921243014 -0.19194399982081536 -0.006616643961780612 -0.008101806552155947 0.02233044402918184 0.033071088964268774 0.01454778119423967 -0.023246880136509187 -0.04419490448700649 0.00692363844485645 0.01258907493747069 0.01792497551015562 -0.019972999300843848 0.2692092915654886 0.052069145903632055 -0.1757488426189606 0.02911550280590614 -0.008736089275281442 0.02525503197465087 -0.025594868342069584 0.009288226922857641 0.016660652221905974 -0.019262238897082094 0.02888701622244164 0.1506680094952685 0.042057132800207446 -0.00021989379892488272 0.026145567446038163 -0.01714320418348978 -0.015084111701100807
forget 0.44519799643415386 -0.019169652515971126 0.0006214363955926117 -0.00046811598242905647 0.005023575857398672 0.0036882714502486104 -0.0032550439768116854 -9.789750651447533e-05 0.002461257294888026 -0.0005927182096840115 0.008827196017985295 0.007402620994044969 0.004413751335320727 0.0013108849125763528 0.00607824223765585 -0.004413455717830599 0.020267560471122537 -0.005701638132265418 -0.025522406978012044 0.0904651890265356 -0.06691252902135189 0.014774224174147432 0.05208214016155426 -0.010156256062916362 0.022052288835366324 0.004202010824526377 -0.004998085022929649 0.0016196939633559971 0.0011128138776436026 -0.00018744751646653735 -0.014650303922438957 0.017633808909450426 -0.00626293494206688 -0.08928133694809033 -0.07601056699036754 0.0075436431758466455 -0.036067730399615416 0.0530360629179796 -0.0011561423751588647 -0.005863046433679152 -0.00689990888103939 0.00809191208760285 -0.008454924917162786 -0.031685365116272 0.20644260656778365 -0.43125705059013614 0.05737897152080854 -0.00620587219883386 -0.020002013326214655 -0.0016801894752850775 0.06806434205935089 0.0010055951761275017 -0.0047977048570821005 -0.017359519794443553 0.0001731946579500956 -0.0038844971080598616 0.42994032775346547 -0.047315444194225544 -0.06124858336025171 -0.07822119581196144 0.02312078398120234 -0.014647986977970871 -0.011769391025993465 -0.004919198368657238 -0.01066837628458644 -0.11632396586870122 0.008837147926410114 0.015418669635369676 0.11443132812470429 -0.04483801363031408 -0.08952063761950116 -0.010756194622840227 0.008203829451192175 0.0004936564784135501 -0.00562397539730135 -0.0074712370868270815 -0.01481946810213453 0.010791873731599974 0.014719872754022976 -0.011228046762522217 -0.0005465257324332971 -0.009244137881115824 -0.01256707728837836 0.16710625004175175 -0.013266728827655627 0.17690143436837188 -0.046223425351219066 -0.0056618280026828945 -0.01501397427781529 -0.0072460810841342175 -0.04282247776240366 0.006572066739163286 0.035357922362432154 0.3742645686709765 -0.17047721623727952 -0.22858944302424594 0.00839576662690811 -0.017209577274050886 0.025019530026639345 -0.057725813910351295
join 0.4089508044154505 -0.01665593807007895 0.0005069409365760377 -0.0001447463220931138 -0.0014440762698678397 -0.0008745898338324043 0.0008231227451257154 0.000758676901463926 -0.0010996216315006086 0.0004308312665712363 -0.007810072095775433 -0.0088037882763823 -0.005113971092546005 -0.0023293008402032254 -0.009164078303704479 0.008476815893572017 -0.03874623170591593 0.012200688268082056 0.04948274279322365 -0.18982826544774367 0.13974741784817515 -0.02948585484963737 -0.1115927951201489 0.01842991872498489 -0.04583606017984526 -0.006547596411946683 0.007585905266419049 -0.0015118051944633174 -0.0005657138310126789 -0.003277888075518373 -0.020704874571484188 0.025685163941337127 -0.014556859621230593 -0.1313963760951411 -0.026901946978554584 -0.01130183962817663 -0.3551962921868012 0.36198927710984424 -0.027325555531694346 -0.02271025187486471 -0.031615697209352686 0.02882391205149928 -0.02232184559150854 -0.04261634114463505 0.1421494275721483 -0.23887759544784026 0.007499606604517414 0.007086619331269337 0.023037962708488978 0.0013736032128934797 -0.06911604178841256 -0.00028345940181348365 0.0010718008889922211 0.016978916008936074 -0.0015171777684285057 0.004695447112435384 0.050407591581408916 -0.013859435363662279 -0.029510810495803695 -0.03553960170819469 0.011072284359518663 -0.020144430972490284 -0.02568733624857251 -0.008019357554168917 -0.02933846516498133 0.2975304267324967 0.02239920620630016 0.030301064656511993 0.1571998973199571 -0.051213240502103644 -0.02517075546826047 -0.3622358968618353 0.012025506641266335 0.010214292213757057 -0.0037992062360971404 -0.010246195884448259 -0.0030005078656001744 -0.005056031470073848 0.0007107413580501221 0.020347179729647544 -0.001196689881853839 0.0035750245368923383 -0.03405756156302976 0.24755951353528363 0.041678146235523045 -0.13216774077273216 0.07336618518994635 0.019921567519236818 0.016280044392144862 0.021925680221497768 0.04092912581803546 -0.031124777379453412 -0.044053098681956136 -0.005579039015561782 0.16876341140405188 0.08454565360323345 -0.007957176156994537 0.030183462811812372 0.015288122720791528 -0.07084285435611562
hard 0.0006060846563360776 0.03247607145867323 0.5259601614264199 -0.0005154848537799542 0.0008903046202952371 -0.0004888238339422769 -0.0009285539570565924 -0.0008819459788754455 -0.0019668072508541726 -0.0006390649326659307 -0.0016250155888504752 0.001241131690105023 0.002149979826687814 -0.004174941113966103 -0.0020987626602324886 0.0026246720144053153 0.0070974458332172885 0.0016219162814660887 0.012176508196265187 0.007692599807359606 0.009180663396290947 0.05052513090944313 -0.011368568508939025 -0.011967636851670758 0.007483433909224088 0.15828921577737928 0.07148970261229971 -0.5409020177389354 0.1216756958698613 -0.04368987156639897 0.03681446643105023 0.02677785144927608 0.008359910489734093 -0.004808594820090475 0.0003597871988119924 0.013641203415088033 -0.013272147055612549 -0.012285489659795288 -0.003392871258572711 0.010079657280901615 0.005418497963521762 0.0034302280837440993 0.005694961145303848 0.0031609828481865766 0.00427706490931798 0.004575675137671205 0.029765734217186007 0.02269515104997641 0.012391035710360586 -0.35535368343803814 -0.004938334112128821 0.012817483028390048 -0.021148763694459255 0.02477777348436945 -0.008983106451102677 -0.033889194598409486 -0.011190498788558866 -0.0731986053084727 0.033021933483960195 -0.05765839146275939 -0.04794348851766114 -0.009079221812847428 -0.01881341820525307 -0.0009903014685142964 0.03756990837514576 -0.0008919282711864724 0.06325627718469791 -0.16558934364565536 -0.019343511810814583 -0.14930428329227027 0.01953518121734087 0.00228658560836185 0.03169847564246003 -0.07586254430549048 -0.12844761148653763 0.12925680025372654 0.02414244095652094 0.02489173950030239 0.05642927905475344 -0.020820567741404068 -0.05052397609574941 0.04834243910017201 -0.10122303743229547 -0.010047805958302805 0.015721754681917208 -0.016484866928445467 -0.08098881358781547 0.038369522084783426 -0.011530487525808835 0.3178158839284356 -0.06312068668854773 0.047012539641440504 0.0067242582865342715 -0.010662466694168503 0.001726941627962719 -0.0005088306337675583 -0.0016372211455821326 0.010810268422254262 -0.03767555721596686 0.01521484599578722
happy 0.0006281491009507135 0.03571083414883143 0.6139431757238425 -0.0005941060782551521 0.0038033054661801903 0.013104892454857684 0.0028394610072795543 0.0032630693168716686 0.004598615874027701 0.002215958657573278 0.0027701016018877975 -0.0007107854680971426 -0.0011820053668961518 0.0017234025423458687 0.0005442922119577174 -0.0005802442751672151 0.0012014398104928813 -0.00020481511706386973 0.0015724877981880556 0.002962153236051712 0.0035167479118702453 0.020179842556780625 -0.005175517412495797 -0.003981294245780202 0.001856963218071827 0.0993364031384685 0.046543228954407365 -0.38467036910015734 0.09230379729386941 -0.04319150942462402 0.01980995031897346 0.006510067519927076 0.022165327932266655 -0.01053398663815579 0.0028315175390448886 0.028081668605129492 -0.023555406596842486 -0.022500547136186537 -0.018108106344300882 0.013690763287193776 0.016238949959512815 0.025933628771892446 0.0726746239374887 0.02282077821274476 -0.02896786432652669 -0.027249050150936552 -0.08176538881230112 -0.16701247235752098 0.05664705205127145 0.2056533120285836 0.003955847675770547 -0.008244992134702499 0.008392352856971758 -0.00584248421649361 0.004384714647104426 0.0021203078787218293 -0.0031012537262024922 -0.029553971849582694 0.031101301402021136 -0.0497048631578741 -0.07259805415710525 -0.00019647329609053177 -0.013173300315583968 0.0002950482220023484 0.055737494026695616 0.0034305277374393458 0.12503733552245552 -0.3733136506363083 -0.03941574963508983 -0.3448113288344391 0.05057141186940067 0.002011561905699046 0.05152293111755892 -0.0967896719374317 -0.1089259000722214 0.08167419271406649 0.015863802868489124 0.013040211150361546 -0.007980976458726368 0.006133308781412665 -0.09866388071203958 -0.004113345444865727 -0.008542508522152879 0.0002746661202858269 -0.007963967311266957 -0.0005164078540354993 -0.013810472512174318 0.01307357595859249 -0.0017105896007813793 0.14801648046884092 -0.028166613724607204 0.039459718119476885 0.020802819854561175 -0.026703401410273143 0.009468562353109684 0.02012460128381789 0.016071511699248267 0.004993609361026214 -0.010355609431017408 0.012075184602813148
strange 0.0005611056129069089 0.03164951497467428 0.5357581808535671 -0.0006439455014487037 0.002883308726476993 0.0071036261836745435 0.0014185721844064002 0.0011188241110913135 0.0019397429040558308 0.0012268751361693064 0.0019407989632442126 0.0006672826002857604 -0.00040942450353210406 -0.00032892049480802264 -0.0001356190795540192 -0.000378832339765382 0.003897689081992465 -0.00037491807540866306 0.002793522745593375 0.004156947254182668 0.0044689853438478555 0.0186745771975951 -0.005606768304056565 -0.0016715763145366562 -0.0010300639470643053 0.030339424802778254 0.009804468152062295 -0.039154479964016914 0.0064594136982907705 0.04774091344938268 -0.31206691238528794 -0.34149097902564635 0.09704548330066873 -0.02788649686288332 0.004442710904192266 0.06730438603189454 -0.04907705775393635 -0.041968053347750514 -0.02027876107410561 0.01746934691856281 0.018526856793190417 0.02666625290231503 0.07347807898707309 0.018683636144278325 -0.026011708395250438 -0.024334794954899236 -0.07947169038060725 -0.04993214113631614 -0.016043329541928424 0.4719475800154162 0.004207913964569522 -0.005778367734527328 0.021606363336241243 -0.025568783238315077 0.017029636789199155 0.030813242570713353 0.00731015145988297 0.042483656127830956 -0.015584317053826277 0.03919204101704826 0.041533677726653444 0.002150723132436345 0.007821271135199594 -0.0052504764164438885 -0.03035296897352626 -0.0015519844927667972 -0.05223350458921334 0.14086438439060203 0.00710169207020202 0.07274749855114385 -0.016034385962030148 0.0015014203387257626 0.009302411131607988 -0.04393037762632881 -0.11994131322906246 0.12898995804552935 0.031419226609213986 0.03465604482753419 0.06699721639108015 -0.03982687123502733 0.11534350206672164 0.06524031610063509 -0.11419801905465893 -0.013124509792854698 0.011340148280873983 0.000935892569649426 -0.08413660568948263 0.027186266484413857 -0.01491531051371603 0.3291518379560854 -0.07196900496318938 0.04284674804916719 0.008054848053481358 -0.00332372431892191 0.006242809106710349 0.007548206395644234 -0.01204387164167273 0.002017427787929104 0.005992043609429751 -0.012001179950122775
friend 0.0068573155868001555 0.20796949997519418 -0.012514557773916203 0.10867868468231104 -0.0872860064782351 -0.12731467689676695 -0.1010467744139908 -0.07037861919072147 0.12849035869429087 -0.08531673740632993 0.18673365357712274 0.06243565024890187 -0.04898824726190193 -0.19656636022157345 0.12234099772526384 -0.03702921412783974 0.13565525635291478 0.02736832782186103 0.07871887402487501 0.09794023825806887 0.15322209546064489 0.2165465086281026 -0.06637325232369248 0.015191380979685972 -0.012260151506480231 -0.05782952941554298 -0.11187678434018436 0.03950821538556533 0.017735192235072264 0.0006339773072434993 0.11685820615598012 0.02503620912940707 0.23939516409304193 -0.01752359553071041 -0.012782836848209972 0.029203457667137268 -0.06508253935847552 -0.03856515920552881 0.2236519867494908 -0.018876551023136456 -0.12186279677709341 0.09513472995872276 0.2004472101776485 0.06895529210254923 0.10426636394288759 0.03950690763450565 -0.10593810118261311 -0.10722234928148028 -0.23972269688380993 -0.02862416514575469 -0.023725998666177205 0.1270270327195199 -0.0275679998307817 -0.06823624067893685 0.08007357379981722 -0.007255383967986725 -0.01995545106859434 -0.025503421058246267 0.01678884807104058 -0.0266418807184678 0.005026442911171289 -0.29842303263557535 -0.08883173826417236 -0.09143490802695796 -0.004814857665568976 0.0006826810746518164 0.06946881414418196 -0.10918847071256543 0.048273668871253915 0.1912202113287487 -0.030845601412597776 -0.005291386362403047 -0.12845231028544887 -0.08871815847188017 -0.0712107652765538 0.02736925413272811 -0.06288608499954614 -0.0283680551235692 -0.0989699750499127 -0.1473730483953593 -0.007921976095872614 0.020346642815001554 -0.10684820309976521 -0.0300471399944301 0.1579771436977911 0.08786370037906163 0.15994315690497637 -0.02607703156663197 0.09308423849605599 -0.011203043447081453 -0.05287663395902569 0.03465723497580046 -0.007170981552036705 0.015078564839025166 -0.047899433188151826 -0.04574905763924578 -0.05446695726318797 0.08621359779691609 -0.01027173368325099 -0.08905833137440464
woman 0.009748522398711887 0.23343251484545116 -0.011198013971467902 0.05070028054422919 -0.2009940166215968 -0.2331486039637416 -0.022256102533148824 -0.1376664312234718 0.03147881631778442 -0.08042304782211676 -0.01336853060628309 -0.15726147870781423 -0.04228101426440443 0.017481363243729068 -0.05517674167652841 0.14574238189273647 -0.025780627417507234 0.0827003072223051 0.07515886746292956 0.05776291584623249 -0.02115746946668012 0.08533740634367953 -0.0011313125560504446 0.014247480345608443 0.034741413423111094 -0.25445101778020035 -0.0814604142655949 -0.08552931240136502 -0.06630729192185375 0.024237587344221892 0.01717977043978742 -0.06570260413699587 -0.16538845454745985 0.09628796100077004 -0.11450872008057626 -0.1494531351120814 -0.04358755537266536 -0.04816165875767737 0.015334146426639897 0.0076549890693532385 -0.05557729273601332 -0.049974434640301525 -0.05479384660591128 0.13731243015610675 0.10474807705568255 0.025252670694652632 0.024423336612525107 0.006332378892687574 0.1889810943251616 0.060714628964320685 -0.042447471611700344 0.014900963294106262 0.07147622282908116 0.2456220760111048 0.2178358263635041 -0.23843253644435447 -0.020076659645810475 -0.07582028540823872 -0.022525124697822925 -0.054649165339079014 0.03262219732228134 -0.08966139426002323 -0.1204006820657584 -0.04374358553571606 -0.04136139739422271 0.0035754873428711963 -0.08549171370091395 0.0668102436706761 -0.01463519293778374 -0.13960770853993265 0.08183705390515653 0.027938670506171007 -0.07431563478157033 0.04415368457555743 0.07635294449310512 -0.03953208046801904 0.04297307368341765 0.3196615087379772 -0.017974281932109523 -0.00011885807070012737 0.0005143377365009373 -0.09356115871821766 -0.1109575454020341 -0.005298339744883969 -0.0984294437309603 -0.07364702063209426 -0.14660929572499726 0.03637227341177047 -0.04734518981695934 -0.03417540827281324 0.09968259530222623 0.08295732264079796 -0.046544365918829295 -0.008718267670493109 0.023769066251918998 -0.02176984877852141 -0.03385160666321561 0.08461943307713764 -0.2005097763277449 0.047994759423767595
cat 0.006687047490881126 0.19961291602207715 -0.014230263081626091 0.01413886585853979 0.06596867247588042 0.15064799458325548 0.035234501280537615 0.14441875014955977 0.011128874935507986 0.1286487935433705 -0.08870163036724857 0.0990556765243008 -0.14936608728757098 0.02823184223560861 -0.053386619674219864 0.06725408635997553 -0.06144542147927673 0.2217293077907246 -0.07770255261225567 0.26062615736167694 0.05751123249924668 0.07661279570354604 -0.33535353025716624 0.18435297541706072 -0.021619403922902316 -0.005962711206163199 0.06857896076121311 0.05144440184014637 0.24603497048018616 0.22872500667695186 -0.11204774270302427 0.12084683754995502 -0.05793817042396221 0.03196486139384119 0.023365005336338104 -0.01783349771654657 0.11185175742327363 0.10650002897948638 -0.038718113478698316 0.09349611312111517 -0.020003010225441372 0.07991818081149865 0.0604722571287677 0.04617987185562465 -0.03134920204539638 -0.023005089019250476 -0.00601770422079551 0.07859937054530627 0.15322093293927766 0.01572215265924406 0.03075438117659093 0.046522458486812635 -0.009932891528450219 0.02708729129041773 -0.2597409800987897 -0.014722690736825472 0.01695593188820558 -0.0033782206963370834 0.05243500914994417 0.043838677346362764 -0.012607331971868098 0.03238557592165262 -0.10543790343460764 -0.09335075101127147 0.057789660185047095 0.00019124311029811264 -0.004904068144632538 0.035845969535704146 -0.05768123514309167 -0.03853270557305797 -0.05087181296794537 -0.019457581287131143 -0.022708887091200624 0.15408478582862406 -0.0286276984628597 0.07665740797848437 -0.03838667835308896 0.05696966607511099 -0.20289835015226182 0.07329795402705554 0.021822311460426663 0.25824977969125423 -0.10857282210669973 -0.016204534868479812 0.022030697583823144 0.02006245233380926 0.0168041666321055 -0.09546701749382541 0.09533181350280823 -0.029118627291401643 0.04368854066007652 0.050802858747392036 0.13170146575246297 -0.019636359641286606 0.03999425953341774 -0.040030783921383976 -0.012396357967707517 0.06790611285706205 0.08150756112877336 -0.05858391157374795
mouse 0.010127264875743966 0.23757310595061662 -0.017404847525660617 0.03537661832600237 -0.09461066223671964 0.04170357438510037 0.1931323659558009 0.13094716651986332 0.00903146136673485 0.017587276723136473 -0.2997370813616225 -0.09649197635047647 -0.2291729442018354 -0.04133554576316408 -0.011399074051996983 -0.09239866932350342 -0.14181867686831365 -0.003980955433636732 -0.08129816126865945 0.15055386842380852 0.019600454762785522 -0.05592095706330631 -0.10470340482843606 0.2719443717862709 0.04368341173287169 -0.01915698993462536 0.15788144939480026 0.05147520338353284 0.2011365952847287 -0.06550904957713558 -0.10314806476436816 0.0645871328073232 -0.050913983297680133 -0.010613539653427973 0.017079660279909446 -0.04071762373473399 -0.022979103753900373 -0.06404553646957654 0.06962800849382567 0.08076804274470993 -0.11007684162433909 -0.05185119457433121 -0.056395100367798955 0.1560361668655049 -0.10123638213057054 -0.07568597142923018 -0.05282426641430144 0.08791212427400415 0.19812515589870572 0.030459300161433573 0.03707280540121688 0.1676387558488347 -0.13682070572446153 0.0338639304298807 -0.10624712375756003 -0.20441268149221567 0.015159104234335466 -0.023455233657759783 0.11398521158029147 0.05417122802964633 0.012973251527921746 0.04374117647024337 -0.08655460920008556 -0.1270167634915996 0.055281888535641685 -0.0049931044771906324 -0.0026730798499175336 -0.03881316722940319 0.16600765102590703 0.12115830858698311 0.1010517925008942 0.018774687863839682 -0.021176235460534255 -0.08624181438366867 -0.16583279581305704 -0.09341968895052091 -0.02212447725975507 -0.053785515375991626 0.029811966328560688 0.0016787235522899993 -0.007048986586763371 0.028976636316576293 0.11810280513380106 0.013953903502294956 -0.03387414139622325 -0.029900465523146662 -0.02023874423587501 -0.19910577808470104 0.04639318149610082 0.015260082641874064 0.028503487795021567 0.0698343358072824 -0.051083596821520916 -0.00192232999037513 -0.01021468527187039 -0.06388616521725032 0.08577019325956485 -0.0807809231800102 -0.13536514099449665 -0.05094227657715947
flower 0.006829133674768315 0.20573367411434082 -0.014664534398419353 0.10821645589025726 -0.12098401593828818 0.10574642515872945 -0.010535997806011544 -0.04926508395369143 -0.1891021652290304 -0.14804888448245407 0.11159718336466759 0.08454235393151983 0.020292601455424508 0.08857136864059453 -0.0725342200484223 -0.07424690279022886 -0.1775893023673838 0.07336710257933622 -0.2338562258878832 -0.02260555721049052 -0.024798187482515704 -0.13178947428422458 0.04648656086970166 -0.2950280621888342 -0.12826613102051795 -0.09049638295774023 0.003520156129872679 -0.009625029880370643 0.22262359350944222 0.16481953502408273 0.15273176756267667 -0.16584500367589924 -0.0273890682732838 0.028298659509872728 -0.038708765553189466 -0.053272852504138296 0.05975583979919039 0.11216017829337932 -0.1438961274554778 0.13521334054123155 0.024981415301932156 0.1135496168776981 0.007804972017125277 -0.03809642154056079 -0.033811424153276516 -0.02098723573413582 -0.12120169640837046 0.027383857016659758 -0.10650040288302234 -0.03914136826384779 0.010948737622561417 -0.06017578784074049 0.033775715009056476 -0.07104895301934065 -0.17789708052402622 0.09283856742862583 -0.009866115345827008 0.04388344910683938 -0.006706230302135647 -0.07559385584032988 0.04416400174204221 0.033944159948744335 0.2247653522536633 0.058762661088392905 -0.16991345197280033 -0.00457470956362334 0.07988365472107879 -0.0016231957092743012 0.08101105230477607 -0.02129851721805636 0.13845345766529496 0.04399125791028675 -0.15641864952281095 -0.07807792268211314 -0.0011419787532660594 -0.07451529610855138 -0.13496219275458646 0.1289161164047183 0.10040813493153249 -0.21956439693109334 -0.02932593487779622 -0.0246817801158281 0.06139890512278504 0.009304521677081153 -0.03062845328318114 -0.04024933270097065 -0.06686821132623874 0.06443945237726287 -0.06490294969421963 0.002408861222465353 0.05318850116637379 0.025243391655020018 -0.0882576577583216 0.016898229255914568 -0.009502663640360577 0.032666001889766386 -0.11545963191902762 -0.05495668350179358 -0.07318760563299212 0.025383570779603286
cloud 0.006263402057166865 0.19172276678820152 -0.014492721298672311 -0.11256975193230566 0.002684909411162426 0.1485467096409 0.20620263009823975 0.11238015049054925 -0.257551094878369 -0.17365633812038492 0.31031974593618694 0.030763976367119625 0.142223591598791 0.19108411289239244 -0.32861683363170224 0.06349280681540401 -0.19801691588790293 -0.22510818612027936 -0.151501566963507 0.0674206273332261 0.05170909303174022 -0.07987816757000238 -0.0720316771213637 -0.22404109030824768 -0.0201739713113171 -0.018418804803818557 0.09502661032331086 -0.01804470625435699 -0.026001399914123934 0.12648378952498024 0.057001083807635265 -0.028003869621997145 0.07519622024638904 -0.060076283274811564 0.03528886654752784 -0.04993328258624929 -0.016145920293730357 -0.0320719590846866 0.0004443536044680129 -0.0005737650784513337 -0.12397528133928531 -0.08027406912277588 0.013647586097596627 -0.03314011080603078 0.08599307657731435 0.0473882755353808 0.03428721228388079 -0.032779031313347806 -0.009199283253360233 0.013240952867208873 0.0008881018379057497 -0.14370295250862233 -0.0698432657293281 0.009142856486861218 0.17260706407784512 -0.0742958454923932 -0.0168472278461791 0.017637389965708735 0.036065786511147245 -0.10392423961205464 0.06745023436833594 -0.057241422352016395 -0.03895315141348624 0.026267362575523343 0.12875150130810584 0.0022949303404453747 0.09023183029294957 0.0204532891050968 -0.014266073341567981 0.09290238554424389 -0.0464109089834561 -0.012703560609294184 -0.050204151273333324 -0.07684488850549887 -0.08956718313296728 0.029349631723403533 -0.06174516446588363 0.04420902041404244 -0.16013338598067997 0.05683864287949388 0.0031839830183085943 0.02829502680018323 0.0181952593523545 0.0009122477219685193 0.07004555280410076 0.029942287221551348 0.1189535697507027 0.055453252760087716 0.0517912304075295 0.0005636415334100554 -0.04776406267975572 0.014828752257221776 0.062326452091567536 -0.0030487183418915673 0.04032160396315429 0.061708139953915296 0.04758421182755636 -0.08372900522386571 0.07936414979037469 -0.14926874377207627
god 0.006356119527777494 0.1878437926628845 -0.014690461206361503 0.20527135490026654 -0.003925988716326538 0.032506267630690505 0.22360593704548984 0.1994603064835508 0.4526647568580749 -0.10210530262027592 0.1596857245458199 -0.011758630121770287 -0.15489644315942108 -0.039492966479675554 -0.09630437028089991 -0.1488646951805925 -0.022214306706992103 -0.04681060699813867 0.11492310288460433 0.049050697586089084 -0.032801249774838906 -0.14764200332789332 -0.01857099124376211 0.14472695085752127 0.09102948969206431 0.10778066867031315 0.20152903680289058 0.014964441182988796 -0.08032066778501878 -0.1360592078118774 -0.06161701682912635 0.0022179085765144835 -0.0203068572979072 0.13406296389975544 -0.09900176569279247 0.08920581505025882 0.0020247782155434785 0.04822363292668731 -0.013389034374379742 -0.0638987526729829 -0.05133209582869218 -0.004274544973195775 -0.09126024954086691 -0.01778841490879492 -0.11999360457127821 -0.056682335731814935 -0.03973090608391993 0.0594177834343272 0.037049316114069704 -0.025253605058337264 0.01769466256106773 -0.21891613689442246 -0.026864399791334117 -0.06517190427028222 0.006123302896602436 0.0902335575620245 -0.016436015240916604 0.05875118607881187 0.0053634614162031725 -0.12516334150479624 0.06571727697821937 0.07898642552320352 0.10215647707397586 -0.0781794260594418 -0.037182473255051036 -0.0018529584199825679 -0.10700785716266871 -0.03071619520707136 0.1346677662662712 0.013077365338315073 0.15675166064001397 0.045892480122297755 -0.10088615412701028 -0.1146598907729575 -0.11333443349459509 -0.15353519364201507 -0.004624691140714955 0.1163297200366051 0.01915456169721321 -0.02600868231728421 -0.012528202528333275 -0.1696056212046997 -0.007790356094374064 -0.0006273636568991919 -0.014042797937425234 0.020325811777338196 0.08510046975843893 0.013164762770456882 -0.02959536512590305 0.010256195408242163 0.0020204928715858066 -0.022473085798839606 0.01104833209056661 0.003269732000065961 -0.036919883212840204 0.003186516995054454 -0.01114995503256926 -0.04471999309536857 -0.032300892167670923 0.1363457583324969
stomach 0.015090885662369276 0.2497348486710535 -0.013628328401588919 0.014084502193765634 -0.09864665641824584 -0.1421423233257632 0.14661482519109548 -0.0314157912197244 -0.02882023472606653 -0.028980043668478214 -0.047341786929445635 -0.09507893216078461 -0.11051744518190815 0.10839651368324066 -0.16810452347564944 -0.05080032193376415 -0.1933573549651738 -0.0897088346620957 0.047491024771023155 -0.00853604930340248 0.08368554667575957 -0.07887982822081335 0.0984789430170771 -0.011250883718274717 0.2762665305307475 0.050482294516177036 0.005959691963896831 0.010243685658487187 -0.007455730204673106 0.11535134157113656 0.07421754438256188 -0.03929707921994028 -0.17565170099707486 -0.0683473282648517 0.03490565767805921 0.04149099678025205 -0.14445845650765257 -0.1786491810768514 0.028198881373028978 0.008180936003216746 0.10334680010315234 0.13137092503551717 0.05197434965532523 0.019062159054706776 -0.13720338449294125 -0.059043321666162774 0.05736276777800151 -0.042158311631521055 -0.2042075020249829 -0.037309657637565816 -0.004723286611718473 -0.03006952996528748 -0.06722452179109799 -0.20470997788587852 0.10679355909923711 -0.057047433173323545 0.016827517471621655 0.06654010624964261 0.006841069624738002 0.09834991826438148 -0.06040101969898754 0.1858269669869568 -0.16619954405351786 0.06668049900545739 -0.10298539459818942 0.005029853138580845 -0.058804677006730595 -0.10434446485265471 -0.05009636067813747 0.08592197696115768 -0.16296391549710612 -0.05578012773037849 -0.015283444249372474 -0.05527391737813112 0.02143851384323969 0.0374734020605049 0.12996958868073388 0.039227091907453354 -0.013223078242600269 0.14008343935335274 0.013838975688014496 0.012174492613691 -0.044127916326248295 0.0075354652352799985 -0.13304907335565197 -0.043865318041918934 0.16029466240975007 0.031015599611278165 -0.1495748144674596 0.01546209159282231 0.04916849804451319 -0.011427824016721213 0.04113179940921432 0.007623062031226543 -0.030689076270130896 0.02235576784668738 0.12362717664285115 0.17782229319037748 0.1731684871705403 -0.2110521060376844
intelligence 0.00525536227730824 0.15823427481654442 -0.01164068965458133 0.22336210948982513 0.1486065452513838 0.02579603959676827 -0.06376040187499275 -0.019663422718488966 -0.04210588815111374 0.08709480919845622 0.10402436390528816 0.013911187904690646 -0.1509101641233839 0.22046348523086115 0.12159428206036205 -0.16793273815171902 -0.03977018684315422 -0.028845282140747736 0.212019990757022 -0.04268294333904461 -0.2294141267160654 0.05105317121464932 -0.20569159569440157 0.02692064598871739 0.12284283960632132 -0.04092340152438429 0.1036424997834376 0.007734549435056875 -0.027126252086129034 0.02042974805979458 0.034092221968974726 -0.008470960569305326 -0.07491574709435708 -0.16457054731932438 0.16307272132853573 0.09159852470293615 0.019986395995357627 -0.045348445373618804 -0.13845288175678733 -0.17723538093933452 0.05868616902492293 0.09064365251354595 0.07757559310079275 0.09389166700835049 -0.0808213289562674 -0.052418716931494864 -0.033344225333986934 0.09200629311229883 0.05974021934739247 -0.036636889066874595 0.005723928885608088 -0.22053513210096398 -0.0522608570047094 -0.07979237602111369 0.19407918121180043 0.034025472679048714 -0.03317796169291643 0.09857178828605288 -0.09510795882279041 -0.17049923704751632 0.05208039807674484 0.14559648764365718 -0.07018193463158079 0.010374306293516974 -0.06299882006713287 0.0017622111994941927 -0.0852254625637126 -0.013615468815845605 -0.13407217208203573 -0.05396302314325762 -0.1437156478243824 -0.04652509465177643 -0.03434058879786098 0.0789216679068028 0.044593844583446944 0.04562780598166224 0.18499759852485032 -0.08960300944486023 -0.012660694660008937 -0.08621404736613147 -0.00569545787926895 -0.08188755157380959 -0.09532706079030068 -0.01270983054221902 -0.006555085042461928 0.002674831740640943 0.08303148151333149 -0.0016808591525258793 -0.009736004132061767 -0.039683540968483866 -0.07971467863088641 0.14382585424840405 0.058977771503572855 -0.014284746459764845 0.009661393306885868 0.019249952972353736 -0.012981659286560905 -0.2023483993934023 -0.03676530444345354 0.1593860790039551
belief 0.006954485788639177 0.2160297080818736 -0.015973191195979033 0.2796099139718992 0.12657142268010949 0.09595196737883763 -0.05977641133193379 0.039628304401894174 -0.22084834223630365 0.11457223804581718 0.017684341550952713 0.31930211964783634 -0.23158416319869085 0.20386090907998655 0.21271888323246466 -0.03731107793294027 0.0001637288577695778 0.18223892117336346 0.05475791962692751 -0.006959625131526583 -0.02224053647941743 0.010740121146037817 -0.029506240205497188 0.00956987034503656 0.02034080766050828 -0.1439541404776307 -0.011676441484910396 -0.04870427171816193 -0.005278655306073587 -0.0037875151507168183 -0.053929968162889586 -0.018383886079567823 -0.26312088289781527 -0.09665368323715351 0.11515274543549277 0.014544890397122406 0.08910148906234844 0.03661081622643598 -0.07174240635208118 -0.09640422814493192 -0.0029441690527667176 0.0962376985591401 0.10323527311000283 0.14538561063223923 0.06755410087209379 0.009565117843162984 -0.10578930990651661 0.03915708386330037 -0.011863365093961117 -0.019999446914987888 -0.004014198418402852 -0.05480536601978715 0.02528577736745965 -0.01582423583931521 0.054549685371540806 -0.07096434603139866 -0.02743149551513629 0.0233474892670378 -0.11172121461598086 -0.11412143858257529 0.03632953012710409 0.19720822634959367 0.060139072263168086 -0.08209662644400943 0.03178226206873781 -0.0013617020687193345 0.05593116996227303 -0.01712444446049178 -0.0343180349955452 0.04009122845806322 -0.06007066161857194 -0.0199488181986178 0.021827436661152937 -0.05585877614045909 0.03355592759545649 -0.010269480100695028 0.0108831062196826 -0.04836654204822874 -0.04068884446361188 -0.018881730480578354 0.013493816763038131 0.0568965944128136 -0.10401615960612894 -0.01867772759380452 0.0956986173082856 -0.012533630630011694 -0.15519937336854195 0.16921518081461867 0.10216401781895149 -0.0567505554202078 -0.14742897576903838 -0.05215867164762574 -0.0931514341011258 -0.02987306314549445 0.128626445840244 -0.10122582907179328 -0.07020041228705916 -0.14328509421346325 0.0650146897113212 0.09144381762301271
bath 0.04738580786502259 0.23196306825449828 -0.009986181928111465 0.026284563393078674 -0.19240375270118382 -0.23217979931122695 0.18871453097282093 -0.11057289543712102 -0.1459444706192364 -0.032105429195468424 -0.2554970632643366 -0.1402388104864022 -0.11992947596655112 -0.0132781227399539 -0.08130934862957921 0.07379456209619766 -0.13947003359617316 0.05226703882457714 0.13169101888006093 -0.011780255080499173 0.06655486602041535 -0.018824718509234777 0.046046421526362506 -0.02755210209183566 0.09658614286421392 -0.05969239488675726 -0.08297010923144009 -0.0284106238768441 -0.0367731073030392 0.15670463231847026 -0.0018164453056205053 0.041672847147627146 -0.1495335018327517 -0.11779097470443506 0.04658010856480938 -0.037339083368076745 -0.12562931411775236 -0.14090514206783347 -0.02088539565674625 0.060656418569415504 0.1407654175218992 -0.09689720413859497 0.029109013745584864 0.00028675447265720896 -0.12075334003970788 -0.018121780106916844 0.05649792754347976 -0.035663319293602204 -0.07344375448633057 -0.005894022863175814 0.10907084997157705 0.05586328102229417 -0.15650226804546571 -0.327083214131866 0.039445814941058054 0.037350175948270496 0.01462265630476823 -0.04838535398106391 0.16846372889751526 0.08922504695260199 0.03205180550393008 0.09461987621990814 0.1984908648947675 0.056304940727828455 0.10974378897215645 0.010692099610524827 -0.1196696690739179 -0.07099243541740198 -0.025263326331869874 0.004182038346346553 -0.08439798123343081 -0.008617030470803722 -0.004225685211074795 -0.010254303673414213 0.011842485938726992 -0.05246703188884157 -0.06922333542114659 0.039645703764593594 0.11376743676330411 -7.918216887711698e-05 -0.0028397160138423196 -0.0874384977869895 -0.11467077064955673 -0.003999880653717107 -0.051559833146217066 0.004813650200299067 0.10473131558070858 -0.036749008599935434 0.022834707790632968 0.0569303068651774 -0.005071031399248701 -0.13897890098224125 -0.12485870912417864 0.04367485097714427 -0.06416356712163505 0.08809698361871433 -0.09492055099151868 0.07689854909577748 0.15189261784156322 -0.10796345776526034
president 0.010745574636589806 0.2221953742231973 -0.00728792346549578 -0.02765810251047503 -0.023551657950618095 -0.3821350551223849 0.15534715357084525 -0.04191290111598904 -0.12861117351058401 -0.0205767121431374 -0.11376735184178867 -0.05788319160263271 -0.10201741553655432 -0.05192449391637765 -0.16179084907757788 -0.10509456515663236 -0.0721173780933679 0.019118686376873358 -0.029566978916631414 0.009753293809085734 0.06454469616801609 0.010904022322611184 0.09160677884591358 0.051108236461598754 0.1476795387668759 -0.04796864319966815 -0.04181863656704148 -0.0427548190456041 -0.06994773049553848 0.12286341640621685 0.06738645535930457 -0.08956744970129306 -0.20007107094122595 -0.054679549442479686 0.04747905170287694 -0.013078449982371886 -0.020838743226332047 -0.058676264715364634 0.04024331840076146 -0.11147201005047268 -0.054074700427873865 0.07814108190889534 -0.09990472724224188 0.009182101150625819 0.045902146355474314 0.040554291406958896 0.10456212066953886 -0.11646844253550606 -0.15697038022892554 0.005761357542426514 -0.006601773008080598 0.07771303092949802 0.02908624871424975 -0.17802848145076336 -0.061741381000513414 0.03791487261559226 -0.004373352032167063 -0.05018984584431463 -0.036233108466736115 0.07546509577847703 -0.035146238347640614 0.16736831345807365 0.0006704608487536249 0.019987999526533167 -0.058834945755748075 0.0011760165406487781 0.09535049790153047 0.14888535805050268 -0.03723967050727152 -0.15612892590111171 0.016816968522685067 -0.007126185862596402 0.014707965977924394 -0.18593249505531276 0.006888444124990083 -0.17828784694331978 -0.014534660880947932 -0.19223628493717698 -0.19057965855867515 0.09666621276041948 0.04096005057794452 0.1324936475836757 -0.18569843141290368 -0.0014808596277697214 -0.0665432952976729 -0.014932552365865182 0.17234990667208355 -0.1467039820181015 -0.03715154007611757 0.09490427264097695 0.15138778532132402 -0.13383876064347774 -0.027817494414779487 0.015699325526039122 -0.012450564727865297 0.020284943403085426 0.05371998579264922 -0.06166984884140831 -0.11716208308181886 -0.006437373619653869
think 0.37889467024304346 -0.01600813513141141 0.0005177201022869508 -0.00037131208226658287 0.00534662411484397 0.0035296690693933934 -0.003101471397350308 -0.0007330725105169633 0.0025341547841496166 -0.0006463445669668866 0.011578868404042169 0.01129489863544936 0.006471394715880823 0.0023846791448658075 0.009737870652630227 -0.008428438582578489 0.03768567333615543 -0.011444439746938446 -0.047036760327641536 0.1749398927315351 -0.12868911341561975 0.02721167963946423 0.10143760923753055 -0.01720002840359673 0.04196764613769782 0.006715765920104756 -0.007309965923717111 0.0019410208199235183 0.0010652063117085673 0.002304981489997412 0.007479974423790069 -0.008867466460199388 0.007147136214819924 0.0326820387471809 -0.04210400503035496 0.01539353445592285 0.25518722340144223 -0.24503984576428983 0.01988160732688905 0.014472441541305945 0.021353764589318085 -0.01906343468866598 0.014558384322120187 0.022137352858956287 -0.03741597054801195 0.03018064325220402 0.016357322639884316 -0.011123012136438617 -0.035981091056608 -0.0028160400683659914 0.16927730916022973 -0.002550962255762707 0.010880680551801363 0.0018702282132505605 0.001304268844179234 -0.0026105002842874377 0.24946469820667097 -0.024047028068054796 -0.030583688541014335 -0.03972079257513819 0.01070983074939928 -0.0021388798374833073 -0.0015671035184856286 -6.012542737616561e-06 -0.00035121040994714916 -0.27505691939238547 -0.0029706453542253783 0.011516406484696044 0.16109868231098332 -0.07029121549275602 -0.2734798343563549 0.40977547061343705 -0.006569066366285563 0.007437338902378049 -0.011588250776074492 -0.015555046373134367 -0.005576780587688926 0.014458650063226141 0.03351234091167703 -0.004921885121107086 -0.0030619850840276313 -0.015421158021995849 -0.035326988740795956 0.2572533594906769 -0.014644126550731525 0.36056345821390917 -0.05706434957503524 0.010478767674057433 -0.04979784805084271 0.009642889878744119 0.033010476760872765 -0.007940563667592965 0.001954419230892551 -0.032314307895771076 0.054818107069829716 0.04556507207353866 0.009369501246031949 -0.00205388860172871 -0.014858324464210863 -0.006190453959865528
make 0.4421481820185472 -0.02008991011101645 0.0006854345555086833 -0.0005685054327549052 0.006115266788350221 0.0037163251502570454 -0.0028512007941823196 -0.00106295604575342 0.002302121449335957 -0.0007258979671482634 0.008804447173683255 0.008292518945479069 0.004166223429218799 0.0015483127906448693 0.00494084961725483 -0.0037990945166503374 0.01173089356751172 -0.003119026962166618 -0.009320968843685632 0.013273716612105744 -0.005795240848463495 -0.0010157589568509076 -0.0033131051964461773 0.0018255111785502821 -0.004663261260793245 -0.00227363294811691 0.005172711817613893 -0.0009123163138893805 -0.0003245116612696103 -0.0006586480134599627 0.02216017869108244 -0.024799423354047525 0.010178359219986154 0.01488590531706765 -0.058657382402838396 0.018864636104302685 0.17214910196439778 -0.1277319251918227 0.0036169220806318014 0.0003628557825777871 -0.0030835612359125914 0.005253704671224866 -0.005202376196350626 -0.012133122921174981 0.025452705773041606 -0.02851101633456262 -0.010211337197299206 0.015612086961346734 0.0526957407319865 0.005534279243674314 -0.43706306845207166 0.009416838731946717 -0.06970198435240117 -0.09023343615403047 -0.009307206852639483 -0.013984006206771586 0.2876964761514567 -0.021727082940855773 -0.0029642128590657893 -0.01726658974168709 0.007304538575059897 0.009947489482564992 0.019454452848535732 0.007009602642944389 0.02065179031127417 -0.2972450437241063 -0.019483105780995272 -0.029416866637007766 -0.17892623618018116 0.0653311295616473 0.10359799703050525 0.2001101954254566 -0.011889143854487591 -0.008103105555119077 0.012146550903698332 0.0182975494414874 0.01084296561584 -0.008656725624483604 -0.026047455627361986 -0.004510105561440435 -0.00037238604521561884 0.004452702273336393 0.04015347441408695 -0.3860146313521468 -0.0171621094629065 -0.15814577501797636 0.00927280897265864 -0.0037728022603491754 0.019065736399195645 0.009603341432652719 -0.001692993305166669 0.012538058310599853 0.01354320791591458 0.19400192991895165 0.16530135815064453 0.10970896345203664 0.019034901921127754 0.02630596986517616 -0.05949848316615714 0.14720925334723853
