1027 100
car 0.0129716422680858 0.3417511959876286 -0.024746314656801258 0.040082806061217134 -0.09444216726953934 0.22751550787023886 0.02466666828539156 -0.14166690868716314 -0.12804231916571499 0.08385954945818425 -0.06131937801455668 -0.021408174006551726 -0.11643493761088135 0.0015361009879627087 -0.3248943680915783 0.20611771414932695 0.11190644879721899 -0.21346106968963532 -0.11752559581202308 -0.2972982226409455 -0.21963366616229765 0.16239127365528552 0.02981008730332133 0.005367814338004199 -0.08306455565156946 -0.05439553812277047 -0.042763024563372075 0.018868036341042817 0.029411415130692477 0.01562013607610742 0.0017159184654276414 0.10173254862367656 0.20112963375656726 0.11582433566837576 0.20468446588601993 0.031190342515716535 -0.020096339171137845 0.001300019453559718 0.008627057440236672 0.03155756990667849 -0.08478895495871881 0.007825951005606192 -0.15326977016551843 -0.053322688222920286 0.01842931990270455 0.0724780355104166 0.0041706349782219595 -0.04417494335594416 -0.0024766473527321926 0.005564130749241993 0.15411886265080876 -0.029323344514690666 0.04967860173042532 -0.09360074033642762 0.0837928934416013 0.04044378576136448 0.05133754679224599 -0.01497554880812901 0.015213735690453641 -0.011148963013287614 -0.019846730687444632 -0.04859448892280595 -0.012562248695954348 0.11922890752140779 0.07394544407607856 0.09998965677332104 0.0016075848595468215 0.026780804020735332 -0.0506526892986637 -0.0012422226782198864 -0.10676551643036368 -0.0681286836494723 0.0785716864147932 -0.044455436519452926 0.051113272041338774 0.03952151905660098 0.0468072265506748 0.002255112628145743 -0.06624885252768391 -0.14526662334291676 -0.008396047029328937 -0.12150036795282829 -0.029800980638367478 0.0998011739545044 -0.0033457664336302767 -0.10843682810682466 -0.07648050169011086 -0.05296357056709619 0.053323158922995835 0.029290642461618492 -0.033741726955147155 0.06634619371271469 -0.025995125210285196 -0.050582834554866826 -0.047228924900485754 0.02927123165517303 -0.028558770599774717 -0.046316939497316904 -0.05839477079859081 0.061717859690586525
door 0.012370093626537525 0.331141387083154 -0.025320282085054983 0.05303157282216143 0.05174208992129095 0.26814848918159384 -0.024566245278539667 -0.1498973663803847 0.023143906430931175 0.1686841806456179 -0.15678505083996444 0.1776206249725475 -0.3827622135251084 -0.09729084701250383 0.0013779540228921903 0.09856603182018507 -0.1747081624316564 0.06061738470385728 -0.018280714925567237 -0.03964692002022947 0.1678937393163935 0.045949135105890604 -0.12247646201169353 -0.17228644925100428 0.011405560061907433 -0.027444955892207395 0.05891516556640602 -0.05521853877576248 -0.1624201296818459 0.03400808103595516 0.009849191157462479 -0.1012159718377802 -0.025546683446880523 0.15229707242789328 -0.13885654357459482 -0.009293365717120562 -0.021177373681390763 -0.01243074035828198 0.013201036368170627 -0.05476139749979936 -0.2301414177605416 0.052352265226004474 -0.010208355137774497 -0.024161447160830154 0.08907113432127116 0.13680272343115626 -0.009392249738022811 0.04232401254401686 -0.10495414976946443 0.02713132670126191 -0.039084768305117 0.1593751774873086 0.02592597406058534 0.0016498728696815736 -0.0366089654884819 0.08440886103794029 -0.0860143643925364 0.12488643747049989 -0.11449171590958089 0.008857103591643926 0.05407048843114948 -0.021196427184048044 0.02883805680082413 -0.15185197627536867 -0.017315011228910108 -0.13072298031178572 -0.0002823684456009618 0.011853822084209214 -0.06992366082267298 -0.07007450668381311 -0.005249807706749601 0.020313091136411554 -0.10484931968117822 0.05915460041307042 -0.04856414119529584 -0.1377112687676156 0.045950510775760484 0.08304191861086456 0.13109219638764047 -0.08119304515124036 -0.014784834839879081 0.08311192617399336 -0.04927756401868255 0.0020592731065481804 -0.000558174687783854 0.014781372615106703 0.0198225788972484 0.012861278024697314 -0.015821541819493423 0.10645529491091366 -0.009614889494409704 -0.03945255504192417 -0.02650604402330925 -0.05457350549476216 -0.06321872306652851 0.0387324834159657 -0.020096000678887577 -0.03922181557398655 0.047401073641413036 0.07365862433984978
book 0.009833612933181603 0.26732577598183543 0.01848223193375434 -0.10265091851105813 0.1530845194331816 -0.307172629091111 0.07724852208103448 0.13274828570113867 -0.18430991306744557 -0.06667373305099118 -0.013446151623661867 0.10739043863092504 -0.0752474120047346 0.21915462130387078 -0.020554397563516763 0.17570549372377287 0.17529179424815639 0.058000865330549094 -0.10253387041413387 0.0698825393441667 0.09612300528680832 0.13149342154336482 -0.01629204636566209 -0.12288384292680225 0.011367112452281067 0.16567638515983849 -0.15229798645995254 0.030267208751843157 -0.030081983936297477 -0.0658377890999014 -0.05818435682449078 0.05267387256718632 -0.04733435253842391 -0.08964822264913641 0.10314809918673558 0.2091446945208852 -0.16163634668451338 -0.05152685827292616 0.2524200783262449 0.03796131333910806 0.034675558348747394 0.01703925577782277 -0.1512321397797749 0.11432827649577224 0.03194600658387029 0.07472373143580624 0.0005890657501239464 -0.09347373853748754 0.10214423329250165 -0.015785487723014233 -0.07474337670990133 0.043329696102790576 -0.008854610704963748 -0.004430246005302849 -0.059215752972192295 -0.06934573519545638 0.15950403421145234 -0.021006908601424994 -0.012685486456162624 -0.018185317843379237 -0.004400925781252335 -0.01907939268357477 0.07911791151016236 -0.023062346728085423 0.08531010317297974 -0.12231496725703574 -0.008463072440549915 -0.03731425840281329 0.13309451113936419 0.16245001287298388 0.031011505470370945 -0.033525241409694546 -0.07577710458108233 0.04625206428126884 -0.08082468159755421 0.04856019648134419 -0.0690316338561603 -0.00013172320876784463 -0.1524047721156018 0.05194965974554848 -0.0013499933975340936 0.09138159863342357 -0.06578064942364195 0.04278194198354704 -0.003160470983905374 0.22360190782012557 -0.06710889022257933 -0.022389717757414825 0.04886600874295256 0.0018554900955825907 -0.00667385406728001 0.09636476553047729 -0.0797219848826869 0.03091779262794818 0.0378212341880903 -0.05393663445714251 -0.0025863831008262226 -0.0524623163539883 -0.038179542517033045 0.025373684541805833
arm 0.013779175587220995 0.3378102280440496 -0.023240079226400954 0.008696842622921155 -0.20472988169706932 0.07468879049340303 0.13245504168774377 0.1823226643091949 0.15127622469685867 0.04970684544210089 -0.08004004014093415 0.028943987386928546 0.12965351789087787 -0.0116905002919448 0.06734555093351724 -0.0656495778218569 0.04450699856627923 0.08935654795772938 -0.0028784098610742208 -0.1482547305123557 0.06679138402011862 0.10302220223683574 0.005224257759344787 -0.06972309602272958 0.08534172163088848 -0.07717682214536749 0.25410858102284195 -0.08352942288203938 -0.218386318427208 -0.06043002571077421 0.08218215904966066 -0.16313574080460194 0.020111985545126224 -0.013393378529422005 0.20569946657318727 0.09603003828392663 -0.09271998935631016 -0.042602297901620734 -0.06159624285681559 0.14605100894813303 0.01710465928224345 -0.1915180781572541 0.04109150961967848 -0.045299699324615826 -0.15624730041923238 0.11191202614509224 -0.018690362216671173 -0.008331787795127601 -0.017572198585820844 0.015043838293803029 -0.09474004169716253 0.06599532953988908 0.027896837512440698 -0.019542426486988316 -0.10726874448308443 -0.14377908145696738 -0.05126915265198128 -0.12817696549424099 0.07341366159581009 0.010827432606973553 -0.02686679699241714 0.007585459529119922 -0.002787033333634074 0.14751439730739216 -0.19813875387337404 -0.07172600837530788 0.001954425799808998 -0.1539447178193876 0.11102138330212731 0.04669288470278631 -0.12800409868315457 -0.1054760983521372 0.040899841061801084 -0.028540212081520605 0.06773224472950401 -0.009813866167003799 0.06827640227946388 -0.011595847868862036 0.07915742909731024 0.030994304316314947 0.016338089623668173 -0.04083179769926008 0.23232830898570417 0.10369135661105507 -0.002115934194262585 -0.1564393735557739 0.04496751410788709 0.03064427934101219 -0.04140562530185376 0.021401654759434348 -0.04999969499353936 -0.02825030749880692 0.0525723304867752 0.04161275281100321 0.04096477786935334 -0.06831768080216731 -0.04241828419656867 0.026006106326395512 -0.026975623572730006 0.06339554289966927
give 0.6404747096559937 -0.028405372555654004 0.0009138412926566022 2.9690884563442868e-05 0.001996799630123801 0.0008434251592903865 -0.00015627479086977 -0.0004252812808845181 -0.00013798628023098392 -0.0002320146895233081 -0.0018479036419008512 -0.0026374382529010167 -0.0031432569359522086 0.0011491400328193146 0.003919653568816193 0.002255562712798002 -0.021604368774768398 0.005997583349039445 0.02397646742366394 0.05703937053072487 -0.165368079941289 -0.017062900450139324 0.11125221971282824 -0.1701302563625224 0.14066294778572072 -0.01619949245727796 -0.012783345417326408 -0.004475913552543129 -0.002360151388173946 0.003371795221001144 0.006958016439670995 -0.03976705457086837 0.011873019575219277 0.03657328690021341 -0.02945697228934706 0.15243380207585805 0.13578585981345995 -0.030212796649165895 -0.00886378647461627 -0.003023786853183353 -0.010800996254407407 0.009600553775661392 -0.008055529510925018 0.012537738691105286 0.016319890736225424 -0.018628763982583504 -0.059246303466489667 0.01110145640121606 -0.01749540349439842 0.0027693987506885683 -0.007241216065562493 0.021966514983559345 -0.15262784149350744 -0.07895353405432189 0.005380299473224527 0.0004153896049375008 -0.000998613567244823 0.0009240799603788483 -0.07160893769826908 0.043998384945596936 -0.16997042683027624 0.014423428092009749 -0.00596893555789674 -0.000894631271356213 0.005064317776408783 0.010831197094494555 -0.2694989639081877 -0.007792077855305841 0.0062756052974402374 0.027980531334645873 -0.02865391667401917 0.03662701211890368 -0.11392643024027185 -0.28084156765659857 -0.022544768600326847 -0.009478848641042401 -0.01574314961588845 0.0018675973773379622 0.010088534259879735 0.006047541948666158 0.0025866412978226075 0.002991226342137155 0.0024062956559433046 0.009897506251488821 -0.17633446259572305 0.014139738943300237 0.01210942406108024 -0.016785209408041867 0.0025539334222193224 0.011240980125453602 -0.019324427263229735 -0.0009102181624554374 0.017039874185210045 -0.32580024520131995 0.21820027176821585 0.006245578695505931 0.09803976437166728 0.07372372346272121 -0.08276899149725717 0.021756271968797227
dumb 0.0013314218483783862 0.05819012889495598 0.8704806762786673 0.0006547493896928615 8.128887513293189e-05 0.006907954863806296 -0.003173929210043736 -0.0033021067896967463 0.002485025026517293 -0.002484036318983375 0.0007452430504774726 -0.004061267100985461 -0.004090239790751065 -0.0019126416091713705 -0.002281126887233169 -0.0007158678736855909 -0.009803839212150821 -5.112867579144101e-05 -0.0021914777598344617 0.000367921384095702 -0.002438628899956878 -0.017006176381962154 0.004171695960132007 0.004744530696179573 -0.0040278604967157305 -0.027730065598493392 0.01824284481385396 0.07337248944361252 -0.01419271794930983 0.007611891859301054 0.134910238579589 0.038464657916488516 -0.017757371550516283 -0.016661151282393247 -0.021589579234338546 0.007778615438764483 -0.005263312298902901 -0.00082471146479514 0.0025675016920248144 -0.00016005457441405186 -0.0037626082770632354 -0.00856735858631207 -0.004768413813431614 -0.0004442550858905397 -0.0037868425466470877 -0.0013592969681437746 -0.0006335800787653968 -0.10257438778329836 -0.10569528424438086 -0.08570203174587757 -0.006506121979142222 -0.0017338468714646093 0.0032135284345367323 -0.0010368451525266807 0.002511490651911133 -0.008240279160032433 0.019398804383638158 0.009009354166950563 0.0017769072997725214 -0.05052452842293564 -0.011712840468559194 0.014356400033319778 0.014685347741396317 0.011467114680056812 0.011082300184984167 -0.012124331777808414 0.0024765901837022243 -0.02719048267360839 -0.1271929738297109 0.05220311324911013 0.02496038672819224 0.044688967378007434 -0.09183140272098629 0.03808923447402979 -0.16185005178206388 0.30298587057824217 0.06419971071293762 0.04017104593247163 0.07619650789404778 -0.03541572474355993 -0.06939425956820366 0.026001054608696502 0.061264294755268296 -0.004652189453370879 0.002354807109149605 -0.04357653415799512 0.008635267074002799 0.0035796205747938717 0.006486259054717872 -0.013617937883086526 -0.01581382612654672 -0.014801462396573541 -0.0014257847662445453 -0.005787538205584089 0.027525798072493717 -0.014737016547765736 0.0076218222622215885 0.01863634817437759 -0.031339084429659284 0.012351831463542219
man 0.011435279991695592 0.30693764787133804 -0.015283917095217004 -0.018484896379203853 0.02671969608284186 -0.22834786387702102 0.24177977431799164 0.16526431014193338 0.16322579152254782 -0.0968306662428831 0.07189398791622881 -0.01905220421071846 -0.043884417426231295 -0.1008334161412215 0.26191887779457845 -0.09060386721115125 0.31056481454467627 -0.03609234747009061 -0.10988028083928451 0.21683084190407853 0.00888609273431319 0.10502608703223246 -0.13105340877550098 -0.05291854687796134 0.06638441088440608 -0.0166921543041373 -0.001728375312982873 0.016071986762439854 -0.0058035009408978645 -0.07185369523019601 -0.003344371130710654 0.09963290053129814 0.09487847136282046 -0.11367177199673408 -0.05787740806118046 -0.09772826780113364 0.11152367169174927 0.05286465104768968 0.13713093842568871 -0.09585909983675768 -0.17250766318507135 0.1466601599406511 -0.18549188856778945 -0.02590579569145872 -0.03201337218112669 0.017222614434262564 -0.008319692060653966 -0.0196639526485685 -0.07314799618913202 0.05084023959256335 0.009160020002958097 -0.06934563541754261 -0.08815383624008676 0.10990650136498067 0.02317019617741165 0.16035940803122953 -0.044597629607363534 -0.0073001063188201576 -0.10407612981189084 0.026476954521707344 0.050132288724116514 -0.029566472988969257 -0.08720230627860022 0.022371179037751435 -0.11241325851354363 0.18617118671134666 -0.0007064945974154314 0.11853711355765555 -0.0781363257130202 -0.037067243691916815 -0.03248104559265084 -0.02212146948516998 -0.06479548303112151 0.032600832197654236 0.057789328273630404 -0.030409860982024868 0.04052210100663525 0.0799424454322491 -0.022973968647757144 -0.0003136324187779572 0.005742791892429571 -0.06976834097270534 0.10451168565849647 -0.046218926329844374 -0.0037017099793372893 -0.05276666984520415 0.033667376836459754 0.012442091749347316 -0.010335963949962173 -0.017418314453075782 0.004355045145137588 -0.0003524763589869744 0.18150694238741488 -0.09329820727003042 -0.12479439111138883 -0.006013732253484086 -0.0864391274524238 0.01798006368102522 0.029233483226948888 -0.031311596052231876
bed 0.010333733477586942 0.2746962246767746 -0.02121235369046939 -0.18228858547649832 0.022241519459657005 0.3785291029867431 -0.18666184132276922 0.01716056094985415 -0.17739011963305437 -0.0776606975852668 0.17314567129207853 -0.3154715985343103 0.14742516163853245 0.04218480474033261 -0.0959271903074434 -0.009966185585008029 0.2269269413721525 0.17102686873392123 -0.008439147177750437 0.11339978688314685 0.049162596903917305 -0.012783200310195747 -0.06001788289390976 -0.1279245228456073 -0.05979534594280123 -0.02397374112201598 -0.032810741169284306 0.01256227314339691 0.10207032807245135 -0.024633530098318118 0.007564359340312843 -0.11704067786906901 -0.07265068590646587 -0.14095902469425248 -0.02274899636741018 0.034573204425404826 -0.029687090118145635 -0.011871624058486723 -0.096189599764978 0.06745062047022941 0.06052731726243977 -0.16223998147093344 -0.020920506090993024 -0.0010304985589505938 0.0010164496366027286 -0.14459792450974573 0.011863831123070528 -0.03478628557695359 0.08411349749767678 -0.016243309507489673 -0.02809765241579077 0.034402802118011166 0.02117436236637335 -0.03273721042241442 -0.17370339775686017 0.02700737201574234 -0.07226776052645964 0.0826263766643672 0.10443946049868665 -0.04191726288631784 -0.06716846166529054 -0.1060718585352568 0.0191268017329111 -0.034541357579982425 0.02062922294063005 -0.05871148152682323 -0.0030829757272470715 -0.05032439670425486 0.0846372159084366 0.02915878211667382 0.06853801385395804 0.029001484454993103 -0.07625846046496243 0.032667227995260215 -0.07697907788719835 -0.0797940717575223 0.25597186126046856 -0.09843908646685118 0.10011969851794472 -0.0073437152432890215 -0.002627962091569197 -0.12188875701888743 0.018153613133229912 -0.0240841719822284 0.0029004627047181024 0.051839473524576435 -0.024119618663207696 -0.05145372632758703 0.03524121454664876 -0.08130888290078077 0.002162419411234966 0.05146470757065794 0.026561803646829342 -0.03107750549848387 -0.050551894611570475 0.08334329453890084 -0.01744976131588192 0.10852814227357302 0.0664291960580793 -0.05648224043836294
boy 0.013874875235416537 0.32454366156876435 -0.023032027965653963 -0.13982195688632038 0.03540017390688833 0.053786853040574574 -0.3302675159581884 0.003075108038793067 -0.11301733030998208 -0.05227752644749704 -0.03686552695049889 0.032602618039873736 0.10567378916316664 0.1320922132212156 -0.11481844364204698 0.02356595689685355 0.01258764624830606 -0.07852049583028205 -0.08462117528255682 0.10113303446304518 0.14383431019920256 -0.18851966290181027 0.010098486839076593 0.044645952927300496 0.20886481585259997 -0.07028086647813608 0.15217616975625706 -0.08003314997575937 -0.03540342844515956 0.011974060000199087 -0.027399294315943287 0.008698580637561574 -0.0075464908613682505 0.001179634707094776 -0.04098582328588591 -0.06613334814650759 0.052377300205877726 0.014651922613962119 -0.018883034215861343 -0.08131749766789134 0.005835043016430174 0.16109479731880316 0.03338396940588317 -0.048017850320559066 -0.04532892011224582 0.02109466974923602 -0.0024348900830281775 0.01918356448381221 0.05747025144424128 -0.03689614815579728 -0.06870662381423959 -0.12146179104168024 -0.06673411456785572 0.13790818160994772 0.16277258191178062 0.06117992925636297 0.16692530569154046 -0.04865111484615173 0.24512139940852368 -0.07338237235563268 -0.12263436089694621 -0.006326994895354888 0.11542738182636743 -0.1783460149644273 0.2108480669747008 0.03580652342201765 -0.0009671610512689252 -0.036590065765204065 0.07040982901855343 0.062165117534592536 0.1282785159545936 0.05958032375212025 0.100687679555811 -0.040111537291538255 -0.061590689444087895 0.09595870335044683 -0.09946051551071672 -0.09166220005401977 -0.026190603494219568 0.10165286132392377 -0.004091783905309259 -0.07983862250878436 -0.1763590074341273 0.01714171139574654 0.008441742965563147 0.010131230141419591 0.11827896255536229 0.08631576558502538 -0.1143128485691679 0.07560580811326179 -0.024806716252273615 0.0830924864899563 -0.06780648165204324 0.04950575311326866 0.05656553088157751 -0.0681640689911516 0.05809360318286713 0.072331844716978 -0.01678630000486065 -0.130252891263655
bone 0.010870448009649031 0.2709341823451537 -0.01589015015817122 -0.04598504616797683 -0.12144275974721203 0.11196327019739111 0.005422146274432886 0.056249568392879985 0.05520331366429649 0.2679075897639332 -0.14164292088297106 -0.13659987318638886 0.0921438738215013 -0.12522331718784252 0.08694948282531278 -0.13326074598801602 0.034323173239304824 0.1707540834880723 0.15071399951466838 -0.06100880597500792 0.22565700562542035 -0.09511339409911171 -0.040056154262628076 -0.12015550180489824 0.1630732606656082 0.2017622094783998 0.10989003108838753 -0.04882454926038072 -0.2275924795549216 -0.2168214587185204 -0.01666686800852314 0.1323692900754615 0.035689823668850304 -0.12445082428339412 -0.09162118965318926 0.008101181667131934 0.011813778980809635 0.017487661431760844 -0.014936124773720952 0.1043344391286532 0.17056692396615683 0.20279935567944907 -0.056280232553338944 0.07819435078272842 0.10857925210207325 -0.0887202760762055 0.010699276472246274 0.04438316122581181 -0.031223367713423638 -0.00238605058745798 -0.01957161180625763 -0.09354025551130121 0.03519040745696976 -0.08159895424908165 -0.07922760720975815 -0.11360338006432255 0.05976534075272567 -0.05217061367623885 0.03790547497200739 -0.015490472158774232 -0.039830243351966554 -0.15630455826580644 0.1251523245126511 -0.001184991004793036 0.0817846897947654 0.13513643517112284 -0.003652569066766097 0.06703830847829652 -0.03189230435881762 0.04199141392926023 -0.13544440019564094 -0.10105258168200534 -0.026910808767166686 -0.009278622293993653 0.08340328938687674 0.09094745765629766 0.10207596432927303 -0.04969684820006567 -0.16381560240227036 0.0030946543935572606 -0.001006130013808579 0.014825384762354786 -0.11846243694683363 -0.09329486004042069 0.0021918117090983153 -0.02177962165427257 0.04493327965587346 0.0026317105230019007 -0.01018582768489914 0.02097816711453547 0.047691305902737756 -0.11974346474927884 -0.05741065171946923 -0.04048091908207925 -0.053412804974388446 0.06991866661613103 0.011545817880533505 0.04331759570670735 0.008784263141029576 -0.02504010824370273
leave 0.536561053816337 -0.022339365058707338 0.0006749624493328877 -0.00015661026331708686 -0.001443259477199428 -0.0014389542453117814 -0.0006793323220273693 0.0003625272636406107 -0.0011588202629802629 -0.00024089870940035906 -0.007634518071394728 -0.00657984680276791 -0.004883992579168692 0.003415573985488342 0.00830577108730477 0.0038586634671380162 -0.02568909407085176 0.006972054080958069 0.02618920566237847 0.051634216198108526 -0.13834442642392336 -0.013226579476154778 0.09164296549177786 -0.13712729818843258 0.10439492549012351 -0.007578990653704435 -0.008762153986010745 -0.0004917626707517792 0.001928723090778626 -0.002302341714239713 0.000952790141267321 0.005151183384614711 -0.0032943632138456246 -0.021582751916960675 0.02459245859466457 -0.2567732211961599 -0.2871531724471424 -0.04343327119502126 -0.00865077567931371 -0.008771815992223628 -0.011870465355923588 0.006724670345084323 -0.00680879875518901 0.008476926683004218 0.001928141250860543 0.003157674874077525 0.12510215893748264 0.000541420854990193 -0.0010891483823583367 4.921751757839435e-05 -0.001496437509315531 -0.019529789256357608 0.1606531792548574 0.1373550343614365 -0.019299435452944262 -0.005684352920610714 0.0036446165833686115 0.011689257283529016 -0.1257562519152413 0.056307738873653077 -0.1775398029856725 -0.003363258104155611 -0.017523715308927833 -0.007045423219647565 0.011883063811152159 0.005592895660715137 0.1606474253052781 0.01788364863130653 0.020642546580688707 0.05161795808585017 -0.10897118723649675 0.12673726504198388 0.2003523591876411 0.43553676634643235 0.028529630191548482 0.012408796922272244 0.023152824162641555 -0.02438606728908502 -0.02223455723907401 0.009311158228146696 0.0014750952409133317 0.016649206611779255 -0.011643343865161035 0.017622848817932236 -0.14368471730688 -0.02419920132000536 0.00287207116541333 -0.14810352938418034 -0.11922440930898712 -0.029447325491429345 0.006172853221942128 0.013885873018191872 -0.021696395610915516 0.07826229952137702 -0.0009015006815296442 0.004219402132700752 -0.1318665282900179 -0.07693627730135998 0.08233077274795621 -0.003058020181550452
wife 0.013668033948083531 0.21547365005500815 0.05560094510474357 0.038233441419358805 -0.14632857502671695 -0.291339426926968 -0.003640586097421798 0.11535711081915384 -0.10046435863614779 -0.21085574127931173 -0.10127871373944904 -0.07784346851120869 -0.06285652410486504 0.06719336673309975 -0.016953930637633882 -0.014623211171586933 -0.15505842386500943 0.05588405907029253 0.1480534008610798 -0.031904411280544054 -0.16918537929054264 0.18649940680442803 -0.1142803875733166 0.05435734149104849 -0.12124140737024597 0.03288114836284205 -0.005484120681117302 -0.03950230105093818 -0.030939139253789757 -0.21943840332883097 -0.008404627853345493 -0.08283498492831218 -0.19435243969886734 -0.026764900227651794 -0.22990864733481847 -0.07291940879593116 0.051963344851844305 0.01050730518127874 -0.004682476490282023 0.02591984412053851 -0.05078247607446704 -0.18396153308913088 -0.06705650098681055 0.0613646258487695 0.05005948912909277 0.17533506943253177 -0.011686923109078836 0.06895814238482513 -0.08377471656107076 -0.04863958322213256 0.029599880887059705 0.0324396875352053 0.03941907239755714 -0.015971135433812643 0.2248317268088597 -0.12569930937520807 0.11157776282051597 0.057441769326275274 0.12252625766458396 -0.052087588640733755 -0.06097588712043141 0.03322593944648186 0.04905660332766613 -0.013308310770187749 0.041970881849218954 -0.1591418730198002 -0.006679030564371765 0.14396575492538785 -0.15830757771325785 -0.0637182542452478 0.04452057019455095 0.10353017065799305 0.05695094873042743 -0.03486582251104368 -0.11978675767104385 0.007303490710640385 0.1440439919250616 0.027051120258970204 -0.13059766119566593 -0.001088796916140127 -0.0008916135633077392 -0.14003104390746907 -0.02919763485838496 -0.13658425071311142 5.800358277042954e-05 0.0483365460929277 -0.02350731590199245 -0.007797181553387578 -0.02919457368812456 0.0684198562969192 -0.03609996530664871 0.046157776883124696 -0.06767128369505532 -0.035324324283311524 -0.04313308740565556 0.06246050219136642 -0.042378795437691304 0.11643877424552755 0.13401231255614265 0.009225691723676816
clothes 0.00908092606156287 0.25384689198027655 -0.018385031386964786 -0.2544096972075135 0.20386795076906652 0.23499081875312228 -0.12125135813003247 0.07442458094242851 -0.0371485405873569 0.06506156229091405 -0.02572487544996771 0.154400084275159 -0.028401687280749096 0.16494597650236287 -0.025406588998678394 0.30705397764691894 0.0945848786554286 0.06106838662680493 0.10337957626225532 0.09800111585844955 0.00758991690931424 0.01866352492331858 0.04913968109367095 0.16117596161848924 0.1009805624979159 -0.0885988735144825 -0.12209486359592503 0.002152925945635506 0.022986020332520417 -0.02987511690795931 0.036283791946625794 -0.09123588568334605 0.0955102437534486 -0.0387534798416393 0.04683540795982126 -0.07176237305712478 0.0665008730300143 0.020133554897023665 -0.06860670043085272 0.044684034650492276 0.12494453493401353 0.07083682103347966 -0.010144551318242715 0.0922211253199792 0.0548076884479738 0.08408915530741426 -0.010481091031212768 0.08395088064794466 -0.0515547652498266 -0.015811750529341743 -0.10802440862637915 0.04048026287866814 0.012221981614210137 -0.01009787860836744 -0.03496505761991338 0.006540885799749853 0.320686150745544 0.20458900772906025 0.015622513860549577 -0.1082150080115928 -0.03121569291763659 0.028420026860946128 -0.09684919511599693 -0.0217972279303461 -0.016245819662282567 0.03776742268782083 0.0014362025396014416 0.015611504924481396 -0.001473999075139004 0.08242332339038087 0.07079137274808966 -0.016879216399209963 0.08135724611891805 -0.019620967521750583 -0.09636661715910713 -0.08584527408390082 0.0999158257478257 0.021183789776152408 0.0016198294570535247 0.017082538428713757 0.007281656359077694 -0.09800435745130485 0.03759409519699062 0.006856445758348111 -0.005653750444581287 0.031918007591196874 -0.07764654609541499 -0.09751380757242742 0.0868784535733606 0.08039709149128918 0.0813815558233213 -0.13398578923542828 0.25801453340362335 -0.06075455292123028 -0.05767362045753744 0.048674700919576756 -0.1502066242861739 -0.009145345479445904 -0.11500326960667513 0.07762971389804711
go 0.4891597194311893 0.009225644511386851 -0.0011420353651461583 -0.0004082476353627669 -0.02962291080137918 -0.017603777301295892 -0.010500657943332756 0.00024121055161140475 -0.009345927801124112 -0.0047553628381141275 -0.05572341686924056 -0.048661003444814326 -0.029630496533215256 0.01479167201071777 0.03425627337397624 0.018614459338695478 -0.09129353340755281 0.02363776000522935 0.0747968247053988 0.12290812907411038 -0.29763361910275293 -0.026526656405453604 0.1728554163660282 -0.26549645840613467 0.17988289876176336 -0.006786928084085971 -0.006500270219624232 0.0011091236544521963 0.002393297017323175 0.002243351543153078 -0.008261838696765805 0.04321401567973643 -0.01789701178029129 -0.050524489555833677 0.05104571324069039 -0.10084350085449202 0.05900984930904055 -0.4390811717299226 -0.018613566025148524 -0.0041888904828730885 -0.0017957937255273836 -0.0027191209064684244 0.0006244916278529898 -0.015200207436133754 -0.009820550910444531 0.008073440839961494 -0.02968093693518571 -0.013585235646951575 0.02380015003682067 -0.005766988788931628 0.014643416097291426 -0.02202297625639363 0.2224011529206093 0.11702100428036451 -0.00015002658881741167 -0.00142155466795897 0.00016171456017919394 -0.005558197978237487 0.11907540747606415 -0.06811915833305897 0.2558915759739047 -0.01824865700467487 0.014483071342209811 0.007904041301392812 -0.014079161716478635 -0.010692631598199123 0.013186111931773778 -0.021747695035631093 -0.031268726029248954 -0.09822183376802669 0.1713721076276774 -0.19557341513334334 -0.0067597497700442235 0.04727447686428857 0.021931765338391297 0.01158079621637903 0.010883158873083647 -0.0015840216554605586 0.0014980316943808835 0.006317699308377648 -0.0022745641988310204 6.926610275199037e-05 0.008229318704286587 -0.003121895013152985 0.09673239273081148 0.021341067560704117 0.01957760062225874 -0.042924609291117855 -0.024449448037928492 -0.0061907798656969815 0.010750183328805042 0.00026402448231837216 0.03755658423130469 0.13538973295363746 -0.12000001957465424 0.020942657765743264 0.03445779012609633 0.05585615285513627 0.017765662110099875 -0.0029916284852980137
take 0.5234610318946512 -0.004338550272856405 -0.0003449309655627771 0.0013877327976990306 -0.01788341000155058 -0.013387642551139087 -0.010647417505308052 -0.001985563573443213 -0.009688418529338579 -0.0029537267459823096 -0.03313921932523785 -0.029921111194698626 -0.022501444062793603 0.008029753645972621 0.01767618897820151 0.00836832664763728 -0.050833769179767306 0.013078461623615601 0.04403479187159517 0.06521016722551042 -0.15860563837266398 -0.016323213485493808 0.08555477606944059 -0.12436411656465068 0.09020735655426357 -0.007458804169206546 0.0043143408274209085 -0.0034257615392326185 -0.004760852551243735 -0.0012864704244843345 -0.0061163858206661655 0.024210013692371312 -0.011714625776518687 -0.029338385649314652 0.016608400648904863 0.02231821197533294 0.13303316661268694 -0.21844838503505054 -0.002871134952102658 -8.42150967711617e-05 0.008734529185320764 -0.010370362856265821 0.01186052325549773 -0.01188075498309255 -0.03281762093440938 0.04472080361715302 0.27072663654213963 -0.019475018977357286 0.03023093438035777 -0.004184391704329909 0.013969993889704628 -0.08093802185427561 0.46072699287619745 0.2795001349920592 -0.02644385489211705 -0.011300005001259609 0.002720045292403683 0.018607276811218917 -0.07716488257670043 0.026197722992090285 -0.07639027319424765 -0.004517347477803986 -0.011055999110717408 -0.000906846679836694 -0.004352983284454684 -0.003471761798162393 -0.08169798113856021 -0.0043346463089108025 -0.006511169887169536 -0.008706178161272277 -0.008866606929316966 0.008986281266237246 -0.002735487200912215 -0.013658375320004705 -0.013578696876482546 -0.009194867137087042 -0.011440930063279906 0.013868165750988764 0.026343077524147555 -0.016001874575758405 -0.005577078910864863 -0.015023165084948996 -0.0036685430865854227 -0.023018781097198057 -0.2890218297636777 0.004734837278315989 -0.02339061656785393 0.23039470711838111 0.17559888647095945 0.009671211227702346 0.00496356368528872 -0.0025813920612529073 -0.016245330061120982 0.019244195269885574 0.0410086761148013 -0.013020720348432385 -0.10455241060382395 -0.07892696414717121 0.05139338681042844 0.0050625811899921835
accept 0.6872636879180063 -0.031041256904470703 0.0010199266566610686 -0.00024995907620299266 0.004817614165113606 0.002984532703869256 0.002411298017663755 0.0004812095261567492 0.0018435797311478423 0.0007397409147388212 0.007304902202233903 0.006425673725241436 0.004489254399843263 -0.001297447419915751 -0.003053679699191672 -0.0015521341813934978 0.009693381352858037 -0.002283076076339043 -0.008159871950466198 -0.014473222140327304 0.03841442438882037 0.004195834150292624 -0.02271437510507295 0.03452624585055824 -0.028409274714483394 0.004012337080685878 0.0016344133899198693 0.0015855336095876751 0.001734391559841763 -0.0014006091972059186 -0.0035774003138946187 0.023576608114115678 -0.008849932298622415 -0.03510128924321692 0.034540902055787547 -0.21655108346306426 -0.16972467325259893 -0.25458838558128527 -0.020914245095889135 -0.012382012056680563 -0.02453204326356567 0.01591261022800904 -0.01375540200844851 0.01855930781132778 0.022779940091202485 -0.025802204996455694 -0.09531815614223177 0.01247666414136185 -0.020962454118722277 0.0042311986668790245 -0.008220142043963836 0.02850592935977363 -0.1883086485276665 -0.09763404875055733 0.007342424865657015 0.0018560212409928526 0.0022863852937632834 -0.005602884607422002 -0.1131939130161987 0.07040576721353146 -0.29064567186317647 0.03370739225293512 0.008676294922730072 0.0014340356471545077 -0.00030811578479648987 -0.006848097590180339 -0.2490569847906557 -0.017731302041677825 -0.0020906852498863006 -0.007904708072275805 -0.034090480518983945 0.021869316886125294 0.07637249770401347 0.15325596630067098 0.009746302593474799 0.005769788291176266 0.01108294243742653 0.020624109885333912 -0.015586575685362567 0.005619427192436644 -0.007987870411270605 -0.003483337080337569 5.565263756916187e-05 0.00560094533096395 0.04207048101419328 -0.03544480977240679 0.006400079169341758 -0.17506713643936717 -0.12453173449894359 -0.04337977242602454 0.01944423734057276 0.0009082925454620235 0.016877292617658215 0.19308022467345734 -0.09239886997156546 0.005765889431927786 0.14640037660832328 0.0245559266329218 -0.044172268697127724 -0.012806440110381562
argue 0.48181279958211964 -0.02372149856870646 0.000840251607060444 -0.00024329637153581684 0.00958231937275378 0.0066063069748682 0.00485139480716741 0.000527904465651292 0.004438675273260115 0.0013810050719898993 0.021890078566152334 0.019192974507845188 0.013844053829817078 -0.006538255444277505 -0.016064917179027322 -0.007575949236871709 0.050855119684836934 -0.013246599210904883 -0.0489312948895922 -0.09387659044704191 0.2496284644216276 0.02456239347178515 -0.15960428502180543 0.23986968225353233 -0.1847260865709933 0.015103658084475162 0.013484267609740884 0.0027135204198969203 -6.746940633295333e-05 -0.0005842131945036197 -0.0013768175037707174 0.002429491936949663 0.001534285600316713 0.016275244511848388 -0.02036552449124464 0.18054570551992297 0.16081561139402184 0.23086363875200558 0.021586686817961092 0.014070195655539047 0.027442012452102264 -0.01832104127476856 0.015370193633620197 -0.023449983025840154 -0.02560510591373759 0.02978112831094445 0.14298693828722978 -0.00992844937929626 0.016322811604233 -0.0028595181088376205 0.008260949760761114 -0.01866918250230192 0.14395538610249467 0.07537542111472093 -0.002682449404114828 0.0010029581681639625 0.0012589210151909198 -0.0014514688034869808 -0.030576028894797287 0.022395822939979198 -0.09879949846241544 0.02053215340648734 0.015319573647824021 0.006659703420828517 -0.015600274774449276 -0.010243527806043476 -0.002678852446415167 -0.01948244490452573 -0.037129598522375865 -0.11600087390949938 0.24974066267495496 -0.2871026697198529 -0.0505318534138452 -0.009981924977043857 0.02949845087978647 0.020095542135280458 0.017644192667390878 -0.0038993262831052942 -0.026771839656324917 -0.009186787003015937 0.001878517382136354 -0.0029929805509565756 0.0013206526487881773 -0.004956045647970401 0.2389329452999098 -0.015558284667714022 -0.01035722421939557 0.061018888493301594 0.046183250408912344 0.02770576309297919 -0.002341177302410271 0.010714277245279078 -0.014380345766337219 0.19511110678024557 -0.24741863475691275 -0.020949555519524776 0.1748498404843883 0.13172767408638453 -0.13294179720243776 0.005076620044925325
easy 0.0008039554366964462 0.04135994300036323 0.6788529299206332 -0.0005798260344375152 0.004068515086257975 0.01126016670489952 -0.002015180614230999 -0.004374609128825294 0.003350245756328356 0.0029556885317988013 0.002764688182801467 -8.997769514448044e-05 -0.0010221132256471835 -0.0009198495358729123 -0.00047995973354461873 0.0005541674523157656 0.0018163135163262133 5.731456377495702e-05 2.1980056113475692e-05 -0.00013085713888812055 -0.0005823866147400508 0.01547014172691431 -0.005989839172130546 -0.003558191217936438 0.00023453599680909465 0.06358280419572655 -0.05012782762705846 -0.3001843135586845 0.0646940702273482 0.02806821289071401 -0.028596762355845486 -0.015401413878917952 0.01322746603693261 0.021209885431895094 0.022013621499806523 -0.021566419328982962 0.016347882888949995 0.0035796176057031454 -0.014090417437681546 0.01121715097765698 0.018366023605721916 0.025697810973922125 0.06417902834085663 -0.025260561051194192 -0.0478708801884001 -0.06533261702659415 0.0013137317488181935 -0.24015911865935632 -0.19781260618049346 -0.020731284824814965 -0.010621164941454018 -0.0008414011598514181 0.0021087455423512863 -9.13255237417887e-05 -0.010734179897153927 0.004362415200050883 -0.02004212615751158 -0.021485517605576775 -0.042273443679982675 -0.11520130635482119 -0.010702211449300256 0.006872853930123349 -0.002755218899750666 0.001447327837006925 -0.02317487878501262 0.058614314940455 0.01387896560338768 -0.20148725327478673 -0.17618587348122178 0.08929327721010882 0.009820338171788122 0.009601371603599801 -0.018814810144732397 0.010176588677219179 -0.0002687420674015305 -0.031692507612950456 -0.011361456906818902 -0.0056152218284011655 -0.03501854712284346 0.004265304712486867 0.2823091983911451 -0.009902358230468214 -0.07774060921180351 0.007441948457467057 -0.0003114968319233062 0.07741923399082183 -0.0304124391979988 -0.013307722936855094 0.003657767911867404 -0.0582286343576786 -0.32420891496761667 -0.11751319257186305 0.03631006124851324 0.02446912941156306 -0.013574054297490824 0.01180652244868854 0.0020395040252737446 -0.013932701783567331 0.03557433167328586 -0.018278350367058233
bad 0.0006401474918766114 0.03386752539050034 0.5716536430895703 -0.0004464625775941285 0.00441169874368308 0.014025312659335126 -0.003062379546512967 -0.005678526412662979 0.004798753432821219 0.003744347474081416 0.004301541340667128 -0.0005936717081924835 -0.0021021164427883366 -0.0025768913492800727 -0.0013921939041613431 -0.0003819728203949856 0.00014924176853942377 -0.0010938530946758061 -0.0031916444130205574 -0.0009587647368203179 0.0009794966484273622 0.005170627667975525 -0.0011671109996557133 -0.0012659728663155906 0.0022048913100579325 0.03569592158730111 -0.02783103374472902 -0.17116872842170958 0.03920173424865283 0.0039547716421570265 -0.1776068552843865 -0.060417106668322396 0.02608785484296641 0.03908853043816035 0.038471122361655286 -0.03509517505789803 0.025999732846287826 0.0054893853807710235 -0.023656795364243147 0.012669626542139736 0.02451381512180929 0.037543625244473085 0.09668759089698346 -0.03363258426198475 -0.07073186182198783 -0.107170989557425 0.003192799474629674 -0.23477934541897286 -0.15063676006783577 0.4108036854978109 -0.008246238366987296 0.02424096897741428 0.014697287768151233 -0.006819788538508535 0.0065520538564731055 -0.01749469249143505 0.011103751263297488 -0.005819786515395194 -0.007732136831391082 -0.04379716053016126 -0.0067349762175259184 0.004281064185658465 -0.0036658578472253513 -0.006021263472431507 -0.015697229510681792 0.029863390220026 0.004390442551871451 -0.07228954811077772 0.019960273179689566 -0.004624739422500058 -0.017463604216065153 -0.037931182622711924 0.09223742310996083 -0.04146674703299682 0.1855328051706589 -0.3896093538963021 -0.08164182764858456 -0.06024797919931658 -0.13504651843907323 0.07186074927939584 -0.07550755238772423 -0.0688348262916866 -0.13811830056377497 -0.009231763820861225 0.0029229898712437564 0.10831810788590866 -0.026145158630958495 -0.01294022001226665 -0.005042484823590119 -0.022652300198048078 -0.18103398765349288 -0.03757974011878271 0.006215167944613674 -0.005220028223581867 -0.024852971565183162 0.011424811408666911 -0.0069166251263361135 -0.0026499435176114833 0.04066601011216203 0.0065325384889218605
word 0.00788785851802637 0.2196679166096765 -0.01596538407770514 -0.16427499203041115 0.347519462538232 -0.30908522500220353 0.015717297815235707 -0.2008939534479559 0.09708967413752889 0.4168939532087463 0.24191897083416472 -0.11699174982376313 0.08981424110910788 -0.007681707811622768 0.01943430825377264 0.01801648055298197 -0.1616653602731175 0.007594873068442302 -0.11461194988422575 -0.08537171740107447 -0.18446568527615576 0.005887800371978902 -0.009756877633040091 0.021777818756147437 -0.16900588763331265 -0.12627661735720627 0.07549438422300872 -0.02081768865234843 0.1144595239856068 0.04655244787147559 -0.0006541997683572627 -0.08770440449695958 -0.09049277798442894 -0.02776221275678947 0.009419433043969873 0.003391109836777733 -0.004110117109362337 -0.0002971177624674535 0.0011942358324318488 0.09808887995228242 0.09508654168403956 0.11046818951878053 -0.048159157092077805 0.018139843158656372 -0.05241340487335306 0.08312114082233027 -0.00909216509499928 0.02245289134939687 -0.03420500679279473 0.004918700508529935 0.12530885557864796 0.020425207807992198 0.019814239637132133 -0.07184636210394134 -0.027280872257224212 -0.13801299895545038 -0.07899350048106701 0.05238470828512779 -0.06301082236571122 0.019335486045150122 0.022357855174645603 -0.026015268448402906 -0.11315022937172378 0.08754392870240191 -0.0016350553196621093 -0.00047739551979008 0.0007776654122122075 0.017315141429358662 0.00834139655276293 0.011033124539854649 -0.008370306589536 -0.012176925099515257 -0.04244699376997021 0.020396982063666393 -0.01253538302580351 0.0190552420291295 -0.06380684683744105 0.005796723109679877 -0.03883659246183177 0.11925472092967572 0.007593774421737493 0.09025106756998388 0.02082378416610391 -0.03037035495203643 0.007365079684569006 -0.019373719265579917 -0.06298084285487657 -0.07339536299391972 0.07091026945203496 0.10686652047914726 -0.00048515069360116956 -0.061700897372463925 -0.07301586034650016 0.11572069667552236 0.10658442546855865 -0.027349740234161247 0.1128200683821985 -0.011833688644048598 0.012861403238288209 -0.10582666123335488
alcohol 0.010276718980115937 0.27727351217970325 -0.020339499180969212 -0.15305270357007617 0.15312032067780876 0.15484836287360196 0.1014689239315356 0.08196938426862906 0.18707199686850365 -0.10361412312080406 -0.2643532933965676 0.22034372557425388 -0.0034491995544315745 0.06547086076970851 -0.13583918098221562 -0.08898629416634392 -0.22646971496497928 -0.044758918647662634 -0.17861619250791125 0.0249237207832164 -0.09422637381076329 0.06642928015151112 -0.16711512687660668 -0.0091169652583285 -0.003381762099701261 0.1288715356676572 0.02040430007563069 0.060138796969758095 0.006140751639944624 0.2214120533980405 0.014092070584392389 -0.06860253270574217 0.07758647373882416 0.03081783299203266 0.0343308105622538 0.046731791867033315 -0.0461887553751036 -0.024546015605275265 0.1268921167124539 0.07557960333862945 0.053418186889497114 -0.015417785760873277 0.19366274745378123 0.2090189004033117 0.0405324682488492 -0.0735759604436082 0.009178721445114967 0.02587479603236866 -0.020418852861824918 0.003915461910500983 -0.10040617405126798 -0.13962800931708935 -0.02929557623578788 0.03330760602414654 0.1256272851471239 0.02804594641166803 -0.2529173203201532 0.15057597658131466 0.0166078419194731 0.00620828915801482 -0.012965041130116624 -0.0261066443165499 -0.018541446354758084 -0.06529241143382006 -0.01468838477557935 -0.019533514240778736 -0.002138911153676075 0.102135153732338 -0.05335967488478626 0.06643319031943999 0.03264744768781989 -0.009913541080409049 0.010974995264199915 -0.0038941888603987586 0.05579446265218574 -0.001037875362578763 0.08600127663977064 0.03323626961473729 0.05178727818832552 -0.13238702400262067 -0.02003683652641822 0.05081570455933613 -0.030033378194191003 0.03335040539736772 0.007755908515890951 0.14999342168675917 0.15172880895874255 -0.08740497624643559 0.06394411592813909 0.06752709519644115 0.009339478731865455 -0.03430859129781579 -0.01833461924513869 -0.09427268070085829 -0.1050290133979315 -0.055479049496103834 0.11184693283277627 -0.09826437312144122 0.07195836349410285 0.0024649477479550433
gun 0.019228580436507978 0.3530125729927483 -0.024111070132376858 -0.0764178834302538 -0.09535332640902042 -0.008335211244918457 -0.3348415043971394 0.042513882377395486 -0.09170078770428391 -0.03759709240207425 -0.278394689098236 -0.07829133164281979 -0.13418066375537765 0.016018901744127585 0.07212680703399493 -0.12439477262901386 -0.1130676983374345 -0.024709994922674738 0.057915586583102245 0.10986936884139134 0.03901875919453008 0.037396901528541165 0.14979292205585604 0.19270039920197748 0.03897583378860238 -0.11908459842914809 0.10247768663094 -0.03498107484331484 0.030671994601799278 0.019061041664532784 0.03752986668712995 -0.1390435749827965 -0.07121494014927283 -0.1320915700166868 0.021841011524403722 -0.15377852503754577 0.15298430054260342 0.06070523228771775 -0.09842100283656 0.03239708429696613 -0.051941495442334285 -0.09221489008688677 0.1305821589660937 -0.0834415590799091 0.018210114421459415 0.13964606271057065 -0.01783427926685057 -0.11181526597122651 0.13238576963023627 -0.0019381346059560202 0.11521444358847606 -0.10988173268529526 -0.06320661726550805 -0.01894668928690734 -0.017550375548950337 -0.0648776206812586 -0.022815460691449484 0.09468881702936793 0.0006953621013380101 -0.013472084773950267 -0.013136994545052754 0.029031884034636402 -0.11429087434578096 0.013398218078879405 0.07482727080896732 0.09281761843729665 0.0012201227761056248 -0.025143070686684376 0.09884656353266162 -0.016423754906832247 0.05029033648248979 0.08430974326801603 -0.21189944565233837 0.08894163643448608 0.024441062731966626 0.021076683059287206 -0.14403309065228626 -0.07897770237524747 -0.009941221111202388 0.18430656705616322 0.021799777350516414 0.05008491223459503 -0.0597153983268229 -0.07826028486859946 0.00024787794190556106 -0.03439629720329474 0.0019877803656639377 -0.1168823483538333 0.1115406011829323 -0.12658342884620855 0.02605192845509725 0.010118666445052884 -0.0814271359986906 -0.014007467376826675 0.00044615484303248766 -0.10843899821316658 -0.019712591546818176 -0.012452550922202802 -0.1280250945336867 0.050925402804954924
father 0.008824159761900874 0.23954660742420328 -0.01711697350986819 0.06938462508995108 -0.08732539255883405 -0.033430743436636844 -0.07211446729243902 0.09269705178176749 0.23190421605238196 -0.1277576998452602 0.2608985336510479 0.060134148934564514 0.05107635700170961 -0.01835041565616841 -0.09137612572960634 0.2796485452807338 -0.09422076334043593 -0.05765163620273277 0.015862496734135242 0.22136760293616678 0.0379037129213762 -0.17447684229754237 0.09257738383609894 0.1383115034250528 -0.003966588811176254 -0.09320716982696448 -0.10201983787651134 -0.08478914149415369 -0.18774529432389095 -0.015118700305651057 -0.08834094928030593 0.1301757340971238 -0.10212706560772064 -0.06927591575797347 -0.03325558915784692 0.09054278539127836 -0.05626390797858299 0.01840189102807573 -0.0767815094899377 -0.0036499798572376743 -0.2149434438933819 0.07357805441813925 -0.06583294281633444 0.1249969525623839 0.05856587996659431 -0.10809490550617037 0.017827365109289072 0.0778170112547215 -0.11575158725157463 0.023382216459388833 0.23176647933866218 0.014538317580211362 0.00409787620995157 0.04616126788803834 -0.018972540231355518 0.21114688137049809 -0.06672108637131512 0.13848839960350284 0.06759654490592377 -0.0294974413469376 -0.01078615484823991 0.17986924804789975 0.038056529667008475 0.023998531695505358 -0.03095247793686578 0.18507235626555726 0.0001461827274277027 0.03321394480061277 0.023165298608234963 0.06762359896459773 -0.016203387009493593 -0.03144023484041037 0.019120845673811927 -0.011055029042296256 0.07989466568287568 -0.002113121086479702 0.0807689903674648 0.14434718551477047 -0.05353100701263938 -0.004764981768447202 0.004870346464240699 -0.0010601428513839122 0.12656386463530536 0.05066282584577428 -0.004998820740313375 -0.03399066501887408 -0.10971412660394557 -0.06134986866116404 0.06916047691566879 -0.12099442563140568 -0.006266983289446272 0.03010746458116924 0.0397738654124156 0.00526276917947059 -0.016620063168974637 -0.05895441412667597 -0.08480929908344445 0.03223609910222285 -0.13995816834467786 -0.03970949535235116
apple 0.016333517076059567 0.304197255555824 -0.018369838975425695 -0.044280588566685486 -0.1009228708812431 -0.09544996747204673 -0.13014588293029983 0.23191824661951121 -0.11003023673640872 0.08209101643182558 -0.22178207518088336 -0.14337982537345442 -0.058376102063790056 -0.1480030444181452 0.09032014599753814 -0.14381755280787947 0.042057767499876886 -0.06734450060434627 0.1951452407327101 0.01325266877873461 -0.021110617443483682 0.011056786936525004 0.09950815289706255 0.15883905063537238 -0.018084738908776897 -0.01280438339320543 -0.179555860036525 0.03604742861691989 -0.12112662589783911 0.06040485013635258 0.0850353420233619 -0.12961516260697004 0.036023811700907 0.015136177938017274 0.021882203527893884 -0.11069892791611609 0.0982300123099488 0.037956192994686486 -0.18095230808805204 0.0328921651351681 0.10661828894407001 0.24428321961318764 0.07237667574397263 0.04987581927938736 0.013552168776259378 0.03684912469205559 -0.007732336829480278 0.03827969823772447 -0.031925694709301455 0.00043409415050727125 0.01648680124549757 -0.0708497909670405 -0.05898856289270507 0.07604340647131021 0.040553370876593484 -0.08716263764659297 0.056652737538466974 -0.04261241648457489 -0.06544150232499861 0.011346128051090787 0.02343316511708815 -0.14140019595304665 0.07658449643572225 0.13433266791925316 -0.06727161011447431 0.04228302220524572 0.008030344638166119 -0.013419515110763634 -0.041711386366462364 -0.12124985291232267 -0.008486029546904049 0.010868104585467865 0.20033716177648997 -0.09828892754860229 -0.02824196098824853 0.02715195208858691 0.1429798768417119 0.15786432516668814 -0.049578513082324735 -0.012321822061839358 -0.012390025070386316 0.03271744433791476 -0.011116481525972612 0.07083441499545619 0.0025383557946430505 -0.00040246544482767824 -0.2416169314945629 -0.07548837743787455 0.07850153469447613 -0.016225914064400698 0.039162137492913744 -0.00103632693204363 0.10526248276232833 -0.08656143378730599 -0.12225452172298065 0.12168253134834962 0.1048590440769124 -0.0743883815847579 0.15310740934156897 0.08109008175378381
body 0.011571942921214308 0.27024022233493117 -0.01438979955214417 0.03367861602377496 -0.18048976123591376 0.0016326611569751597 0.10180227643031557 0.09124826356450866 0.09418187696491188 -0.0008907450258958294 0.15020721960018327 0.005132897027372024 0.18952652922324742 -0.17383704088508567 0.05136397784365158 0.08063494341986109 -0.12116354529611663 -0.18989893268687724 0.16059596167958856 0.03624311634053508 0.014708101681956867 -0.01534211480441792 0.007401392899955178 -0.024900652424080096 -0.03700688499634861 0.1657159884816399 -0.02899268150202201 -0.005334849307388313 -0.20267093158959498 -0.1315344173198459 0.004088347062128606 0.1343668241907275 0.16162005037606308 -0.13807220095056263 0.21750250816130035 0.048638427462743654 -0.001997433141666899 0.034023110485492815 -0.03285896668933358 0.07459099031624307 -0.06194621106545798 0.16764651491859284 -0.12537628042620266 -0.15246152713048194 -0.24140313505658148 -0.013115676684767607 -0.017136996144234855 0.032697319693423064 0.01131150410258104 -0.02004392898490929 0.15029417249876414 0.23506606617527676 -0.04463171938336992 0.08690868164272504 -0.113361784202386 0.16772335283774267 0.018234124553609034 -0.035627576791863846 0.010147663112451142 0.012268127852134712 0.004065426737723713 0.07235537741955093 -0.07379933470361677 0.03669949645061398 0.03962644645096387 -0.0029651160505162204 -0.010207410241377267 0.10732526523252965 -0.020298061375304283 0.09184523828391808 0.08863789011052109 0.044515773859677206 -0.045493703019138444 0.026505638506646424 0.01610301801408144 0.00912101470713496 -0.020676326753748406 0.20745198279781205 -0.07227587996034483 -0.10056756415975784 -0.010849059697376966 -0.09311592113270421 -0.12061224463352546 -0.03026044260554542 -0.005834999963751472 0.060505668468618275 0.14067836060428754 -0.07045338691631292 0.04851507267408421 0.10555037051545005 -0.0345081723000289 0.08285916288650635 0.06274619230484811 -0.006803641188647101 0.010146365425676401 -0.1170427220490983 -0.010799869704217611 0.06284704082865276 0.07868755102563643 0.10042155657796009
people 0.01609651415191981 0.24393550259251034 -0.013330647324465858 -0.053157517731527985 -0.06573922840311949 -0.24645408912575228 -0.2276639904991421 -0.019645606698145447 -0.15430147613202183 -0.13878937318245116 -0.25567369457901934 -0.13397252302637075 -0.03960387462175635 0.13741492147143738 -0.011643905973958268 -0.009025020477875565 -0.09201069315447 -0.15202901218381787 0.0706870981941007 0.060027982997669774 0.15315816203627952 -0.20131352615210113 0.033919648112299874 -0.06906144071026943 0.010023128819567422 -0.024708048404054887 0.11772573810422926 -0.030627625220581944 0.0615969481633445 -0.03130051135119046 -0.03641565132953348 0.10499547675688364 -0.10785208900498752 -0.006987955776500436 0.07190733054602191 -0.0075765300883659315 0.018489729406039344 0.004432691270035614 0.12141948745089845 -0.14996735680367915 -0.010258606911468002 0.04477709739904944 0.05385668037857923 -0.1805832133894768 -0.22655558434569487 0.18127350720204125 -0.02150019643141446 0.020449459799500948 -0.01633015231585961 -0.007371361405436367 0.175393916986624 -0.024860095107651057 0.04728066571718762 -0.06259740707627985 0.21972570271801764 -0.05924372412313729 -0.04799896697652682 0.09472705491376313 0.22658043744980438 -0.07056435001581497 -0.11784028176695925 0.012426644718359895 0.005105360441558381 -0.07696363831324878 -0.11637679203273173 -0.05073775137874996 0.005875920861364405 -0.1339454149610659 0.09715940852173421 -0.03732591712133685 0.029902328199850385 0.07241102476114197 0.005609631500252023 -0.016701581644602136 -0.0013262190697546196 -0.022698305118183958 -0.02465769343129645 -0.09966411900018227 0.1973711985416777 -0.023998273079582796 -0.0023746705914642675 0.08629065950200661 -0.049757738518006064 0.04328314521714079 0.004198911861390072 -0.011946656227767515 0.07813578740973173 0.032871037212382624 -0.1268265381241474 0.09185612556165172 -0.016141920765316762 -0.015220409531394722 0.08881643671731912 0.036548146510611106 0.01827172710820778 0.06641954491816916 -0.005920627144942333 -0.021631315828598827 -0.10546395370026056 -0.06354221112266488
task 0.010716710780781727 0.254943158935604 -0.014907083570481485 0.10579609194609144 -0.159080880191035 -0.20994653409235853 -0.11474459692462198 -0.061170714480604946 -0.12032619129372088 0.09736656739370955 -0.3310157568310293 0.028305010082340248 0.10827637111173664 -0.12175682168206989 0.13713696689463767 -0.030474918774212524 -0.03129475447242112 -0.0576659767966483 0.09366788800962025 -0.009433672081211519 0.045129976018091336 -0.026956183461841674 0.10108410464875633 0.1068098672913698 -0.051219124173258024 -0.09215398738958626 -0.03473720037333243 -0.009581064939261795 0.005757858547554151 0.15731680220346908 0.012055073914877984 -0.22857868709845605 -0.10484192088828162 0.002509423268761552 -0.12607565755850816 0.02232670815889176 -0.022038460937368245 0.004304223957824726 -0.026289459066865778 -0.17962737508016244 -0.1655417046741412 0.08976469401395426 -0.1275234687671789 0.05014711168280138 0.33088247742459 -0.08492977179164138 0.02510050883197514 -0.05706301687091033 -0.026421168134598483 0.02856992433970004 0.014273597333631536 0.1571034311131084 0.06161974856139827 -0.03409892407012764 -0.23016488293950754 0.02647122614363222 -0.17215107110238215 0.04339165599246611 0.07837715075889298 -0.013795488730323331 -0.03254953463864482 0.030466345593953656 -0.10114428461579346 0.015994495440337965 -0.012010995177383752 -0.11132244580944163 -0.0037794051123721437 0.02820947910778649 -0.029142490389290152 0.10702138999808558 0.056365134539343734 -0.014379575106658658 -0.021089380127494135 0.023849381942612862 -0.09547172432999619 -0.14264432267914756 0.031214717476948647 0.040202798733175046 -0.04659593085067502 -0.11028289105943813 -0.009055857785848073 0.006783720165355072 0.010001325838320975 0.04529048445507692 0.0002856166875179114 -0.06851811452452009 0.02315686746458954 -0.029009200950945335 0.03326439181693948 -0.04551162042719071 0.005575059064322407 0.028471789127513015 -0.04602135900409706 -0.09869729666784684 -0.08481661246892243 0.038879793058760465 0.07926913186489766 -0.04211978975712352 0.13587516288320484 0.14998258430661032
keep 0.5017401894862153 -0.023141126010198226 0.0007749518066412623 -0.0001640336509765293 0.0048537379245934395 0.003024023114962523 0.001965801695542872 0.0005119202224964688 0.0018411376575158905 0.00033695331488979856 0.008499019767554064 0.007447879614453743 0.005024942764766608 -0.0023959107398515613 -0.005471695006155584 -0.0023624331820905346 0.015448506751760547 -0.003914522561159672 -0.01431327019596836 -0.025863902596382597 0.0663156697158553 0.00654683504083892 -0.04150845859883396 0.061734184251439235 -0.047330437939431834 0.003368841240792827 0.0032353614564678947 0.0005543274171642775 -0.00016613365437166688 -0.0009178247772924235 -7.121019719970217e-05 0.00046078984281600153 -0.0007556443590494091 0.002733905430097265 -0.004020687413052403 0.044535416571486505 0.04839142450165467 0.04154747472702555 0.004892475170391587 0.004043126894450293 0.009234390777492812 -0.007685838345152208 0.006944112265989301 -0.012489195957811922 -0.021366160578276627 0.032388912935808145 0.3160625447181501 -0.002238788358778474 0.005213644520122361 -0.001946345247449627 0.0036849148353255245 -0.02622805813313981 0.20677863353404213 0.15176362250031133 -0.014117039338889826 -0.0053531972169759846 0.0011781340823380211 0.010724302589005332 -0.12081896103154859 0.0610575173896816 -0.21814929976214956 0.010824600769859022 -0.008597794781382867 0.0016494560121747205 -0.002519786027143867 0.00860261620177243 -0.33950621644035484 -0.030320972929250036 -0.03453121482546982 -0.0946670341835269 0.26786145824239066 -0.30405442789333614 -0.15882243035160978 -0.24776775808202267 0.02864823524862298 0.027144613385276937 0.006170911698545846 -0.01636177811630782 -0.04226445151743878 0.010384730272533695 0.009234716918486825 0.017300457298592285 0.0008071685852278622 0.02016430762046149 0.2381547172386288 -0.010295893776701301 0.006452810372095642 -0.13930566176761772 -0.11202477634592123 -0.007143695268056901 -0.024218892004071 0.013261023079809834 0.011961898527464349 0.00736764961709465 -0.08918755119263079 0.009979327502106339 0.07897415610084277 0.0723579485462796 -0.04591633415717725 0.005339745306817924
forget 0.5149790931869281 -0.0231419235731004 0.0007539675727452176 -0.00012067470829760614 0.004490625363810019 0.0033131490644030697 0.0025113432115087936 -0.0003269705963016334 0.002137540048832335 0.0006895699161007852 0.008685582038458475 0.006740261763245575 0.005030411142975154 -0.0021449161367860983 -0.0054992163571927835 -0.0022063731456987033 0.015822762231608955 -0.0040233372421301355 -0.015660336914938396 -0.028689752227922437 0.07780676232358008 0.007874509566098883 -0.05089525700300177 0.07522200239280705 -0.05859212895086266 0.005643202508437073 0.005000090998352168 0.0013461445469166663 0.0005254959651131289 0.0009602780767590945 -0.003545748994241734 0.01577078543406381 -0.004055134891699423 -0.016344970139273163 0.015418968405280642 -0.08401819517121167 -0.07113484033779546 -0.06656185597589927 -0.0025385348745098355 -0.004404737404526071 -0.007185423801293886 0.004847976917040855 -0.0054289208725563365 0.011256579482018362 0.02056570775682257 -0.03644110221598224 -0.469653170243287 -0.011476714728331252 0.017148544163883717 -0.002424184941615105 0.006983381538777402 -0.014863049937099367 0.058861297528610246 0.01159703649910996 0.0029325730702828693 -0.002841903905687706 -0.0021060165183655996 0.002860465920334679 0.15997687838146768 -0.09944581308672341 0.39145698032621956 -0.045474088182696944 -0.012750997023724833 -0.004428722374215027 0.008356449846020282 0.006277912116280977 -0.10728221721318273 0.002181220863292021 0.012179004230577243 0.04289458039169116 -0.08272439517658361 0.09881067293041677 0.011528879752461028 -0.0005230787154586167 -0.012484057277442038 -0.0063560533288561216 -0.014132769073800431 0.007969906079471184 0.012579641302257494 -0.01244533537840084 0.0003341957872752829 -0.008220505680843591 -0.005292848708920935 -0.018782091379904435 0.1634039927664146 -0.004958762402744545 -0.019720389980669033 0.1276901237770258 0.08776470906056846 -0.02406676155441031 -0.00021287523231329738 0.001948459013531754 -0.02247666015901297 0.26686849932134 -0.16321989302756845 -0.030512806814943248 -0.23087922118727203 -0.1782660745685678 0.10768288896945145 0.019272422516972126
join 0.4698093837495819 -0.020073290664482657 0.0006172875380665623 -0.00012492376791983312 -0.0008372671432178703 -0.0005629493305164836 -0.0002484868260543933 -0.00034427975987921485 -0.0005806505511950685 -0.00039833797365729413 -0.006650169629271662 -0.0069633535345460735 -0.005013059807058458 0.0030171418927221207 0.0074595121703756396 0.0043596541188447215 -0.027435744626515685 0.007615231993451158 0.02668556278131465 0.05604941162550941 -0.15131839036387548 -0.014557738663968978 0.09715962673826144 -0.149454099324802 0.11500834151227876 -0.009387169041669077 -0.00781266527651035 -0.0015675383281545895 6.296308240339459e-06 0.0030458437043362073 -0.0026711215422580738 0.013121220168188579 -0.006730189442367483 -0.03098072586190953 0.03386766503140663 -0.1453464381988888 -0.036008609099320604 -0.5071591760077002 -0.03882625326835353 -0.01974209023583491 -0.038501449416124746 0.025393903386938383 -0.021281827346185153 0.02710871918075743 0.03706702058504839 -0.0454154036119301 -0.2627791584818254 0.009349725821102847 -0.015194623366112808 0.0015699131501848817 -0.003969622596700076 0.014743720757141468 -0.07556621182990153 -0.018094345777514998 -0.0014380474906791122 -0.0014289914537897336 -0.0010567792287033678 0.002364627037332872 -0.001668083229455188 -0.01015724095619425 0.06860435569337382 -0.026227163396797627 -0.020880428376646464 -0.005925549949221897 0.019197049350517335 0.007893838207137864 0.2937891266815818 0.03178404511491697 0.03297631626270149 0.08701075559121924 -0.1210410754869702 0.13702203026454343 -0.1036558567197743 -0.29139614522557394 -0.02748054254269128 -0.01771183403972753 -0.012482771961537728 -0.0032991450740368724 0.009241570730067872 0.02100682285426297 -0.001319189394676852 0.0033044016284374976 0.016492467710345137 0.015273312951235948 0.22209770152007646 0.036752877075048186 0.031378449617596726 -0.10515066765520799 -0.0750881829306581 0.03655358699189805 0.007611409974305119 -0.01191903460790052 0.04101590350354089 -0.015272245124335919 -0.08064333234044703 0.016925767522383995 0.11774969130990579 0.10845637402888636 -0.03861295769319911 0.0018077180730987153
hard 0.000754058942589583 0.03680206782060252 0.5754605526557157 -0.0003576804016073944 0.0008763997142963151 -0.0008323187370265617 0.0009024799915982817 0.0013059549415630864 -0.0017307550350144662 -0.0009933220940618523 -0.002012589138844694 0.001158422769059767 0.0018572901701635123 0.003839538797707056 0.0020016385797521573 0.0015053384411304424 0.006916920149417162 0.003258156397731162 0.010821162651342331 -0.0007547769828966364 -0.00654480128295369 0.050324527741113054 -0.019919339463993636 -0.008506360825796767 -0.002897314857487136 0.12694497253578155 -0.09611001896238959 -0.5382946630130556 0.11001923863737192 0.04250014733333158 0.027274712305569042 0.0005275744244078452 0.00648860014020952 0.012883361094958697 0.011501439780009377 -0.014517999422885572 0.010773588081900112 0.0021887242051634457 -0.004552145346244562 0.008100136112487855 0.007458076751745929 0.005578027015913317 0.010696172822634686 -0.003954709384903453 0.0019806995664435056 0.015351594133067557 -0.0016827315400357843 0.004204805481381425 -0.019946500854605243 -0.3347190185294945 0.003734958482158833 -0.021868136049679982 -0.014291703664261975 0.007771269152577242 -0.009206829017318695 0.026908065822691014 -0.06264453563552573 -0.03819928280216988 -0.04934047280952476 -0.07309031740247665 0.0007889049087080168 -0.008835812443699813 -0.016153682646902836 -0.005325937826452811 -0.026489821477100023 0.0491413584443346 0.0077128614509137106 -0.15437024039867664 -0.15118768434910299 0.069523003329127 0.01356852533870698 0.02187604332942017 -0.046577217831089486 0.02211527096485723 -0.0795411985334854 0.15456177423114287 0.03183916208279956 0.024648227839558612 0.054157343893148746 -0.02587046238703062 -0.05715581327376706 0.03033089260132385 0.08928479957249284 0.00515686466576917 -0.0011608416999171912 -0.08233675660862981 0.028382793956726816 0.011503407669403509 -0.004338814818337094 0.05120124237398782 0.2826111085814482 0.09114980958527508 -0.016572523886968508 -0.005946007846072457 0.002540192496926114 0.0011435808335735595 -0.014203415118116944 -0.004539485432375088 -0.031169854540561995 -0.0002450825249182028
happy 0.0007740247200412472 0.03993912881095284 0.6613587706716929 -0.00024459665641090884 0.003392823665551982 0.011718223164530299 -0.0023848794186842183 -0.004509544172324259 0.0037638335664471534 0.002688743707102652 0.0027164270852590047 -0.0005762741536707167 -0.0009311641100779175 -0.0014889083637874639 -0.0004298780416638351 -0.00036360481923116843 0.0012856921303025005 0.00011283858989549511 0.0015832255038679792 -0.0011330163671060749 -0.0021494095520657027 0.020710252731796355 -0.008007054942482977 -0.0033662627849376237 7.447251947846857e-05 0.07875712270812801 -0.061723340056147574 -0.3790464970866168 0.08270386078251854 0.04058755296184117 0.005975422357174552 -0.007308789810954228 0.01380479359452462 0.021369424298230057 0.021958007391415783 -0.023021979482173282 0.017465774604974307 0.0039040552309298443 -0.01843589651031035 0.00811498422113262 0.016166627068723318 0.02468311904033923 0.06565563402672786 -0.022574513272003927 -0.04517857038587816 -0.06665886778051208 0.001859547854421002 -0.1350216262994604 -0.08851982497808893 0.20795682367674165 -0.0029079992913400177 0.009612964657270552 0.005105516616967584 -0.001788515291284229 0.0051189109244921096 -0.0028883562040056105 -0.021957818391127034 -0.024362867529027343 -0.03265685793610534 -0.08604853864106801 -0.007515494081231911 0.001320110060699158 -0.010400878575916983 -0.004078201484418545 -0.037648810074590686 0.08928533753248127 0.02162424153949449 -0.32730442547724853 -0.3306135416948381 0.15896624618784125 0.025148306955515582 0.03573369173447528 -0.06861789757551325 0.028196127782709655 -0.07643603106899655 0.09830699467706813 0.021911339813291325 0.013351349346855588 -0.005143860573971475 0.003911391697767654 -0.09584834810515501 -0.00787429479514098 0.002938034763963335 -0.008361967077253951 0.0006792711664931764 -0.007483555949105782 0.009316900292773569 0.004661264489789438 -0.00043046691478136373 0.022391788624090515 0.1197544731572297 0.05216500750935833 -0.02672203828897756 -0.015533957891957575 0.012290544870201448 -0.012566637771167349 0.01061429333385159 0.014050879655396684 -0.017165167998399164 0.012041031355009463
strange 0.0007070221549940502 0.036167837577065765 0.5896972328542655 -0.00034737073158569903 0.0026018163953518327 0.006276353118793967 -0.001323156747087258 -0.0017346258989136805 0.001543232169300887 0.0014557530882868628 0.0017834324853068081 0.0006290703687194664 -0.00029576173371694827 0.00026638439343977066 8.519254750949527e-05 -0.0005458075180133948 0.0038366580926482074 0.00023938700258594427 0.0028015386505723305 -0.002386386868090805 -0.0015019364223911155 0.02010493301963569 -0.005764584206797902 -0.0023543322582714583 0.0025796188588015725 0.02650214175187131 -0.01463890177487761 -0.039575439319387534 0.005948793867315101 -0.0511542298486013 -0.4395323521494284 -0.13548465018548217 0.037811578580019996 0.05659955398444568 0.04874678687225335 -0.043687594914936914 0.030933181545825902 0.005971636927988516 -0.020445623892467683 0.010786421297070978 0.017976616805583556 0.024775471671225863 0.06516687467869992 -0.018616400611860005 -0.03878986281019876 -0.06144647506537819 0.002688372415495111 -0.03833286258454434 0.016312809658658358 0.45733898583072696 0.0014039503579893996 0.02727112203426146 0.014781371174331403 -0.008527649386751978 0.018432994030986583 -0.02617822623324662 0.03911708556451268 0.019262985191678583 0.037775039909369895 0.06310677184486635 0.0007624601367729498 0.0006783161770804537 0.006584215464538697 -0.0026389407944027304 0.019921175140400853 -0.03610157204477564 -0.008314048024574429 0.11804047358046575 0.07701329749389872 -0.03718707715627763 -0.0023495418111015563 0.0073818482062780084 -0.015840159009316335 0.012440670334398895 -0.06332519521421502 0.14488626478603858 0.03618169885195058 0.03175764836443293 0.060917575491897205 -0.04195790223356025 0.10221439324049036 0.05144495501586608 0.10465746411586586 0.0023634532163241888 -0.001551912604810916 -0.08483986575607658 0.015984222218543124 0.02373838597325071 0.006562163271353403 0.04876802496562787 0.3040756027930566 0.09130291442194324 -0.018933057275336413 0.005669948686225089 -0.0009684611538490758 0.010856389244869544 0.006268908330358512 0.0046059193009283985 0.00269649450374455 -0.0022280074264795827
friend 0.008535274712566638 0.2360182624963249 -0.014454747307073107 0.10565205427326307 -0.10642556278868873 -0.13640583514314986 0.06093537086081715 0.09054638358401264 0.13062651418752844 -0.06745503299018912 0.2102993385798618 0.05742339082328123 -0.021457567287416674 0.16562640526963826 -0.1615436925231419 0.002145125124678543 0.13587104470608075 0.04308216516119808 0.07159378058783604 -0.111387795681945 -0.053162241707252006 0.2652133394270436 -0.019538020331617306 -0.02713349038412736 0.034849649996644035 -0.0354552684238832 0.11190541533991082 0.03867840517174516 0.01539494065255276 -0.010044842250026675 0.09238050759414353 -0.04887959788449757 0.24581226451442417 0.03996727800314385 0.05036177402706745 -0.058082486866829756 0.040693708841944294 -0.00628559060093014 0.205905825143981 -0.007675260890901719 -0.1301618365740985 0.10040234991964235 0.1895052175950523 -0.08923066251015903 0.09207255664219803 -0.10965758205265355 0.022390404761882483 -0.16964301695785972 0.193617596603422 -0.026269467164968377 0.11347588093257772 0.031278799916879894 0.012033546092835815 -0.055629149922006536 0.09759034685165706 0.0333632835806555 -0.02675202061362208 -0.017009119311997355 -0.003986351920722164 -0.015092973419162773 -0.03969235236193219 -0.29304655898899534 -0.07118107761227757 -0.09745467663393358 0.020561412465959543 0.06945079948524224 0.008155094360713567 -0.12991799275135377 0.15679412372763926 -0.06872535989649202 -0.11844290031690703 -0.09260976019642517 -0.050436867134985776 0.027299991477836308 -0.05470906950186594 0.05635357553332947 -0.05484406221415726 -0.03872797336781663 -0.10071345479684869 -0.12348319958960453 -0.005478771454259376 -0.0005853259982517793 0.13163557095859169 0.1626048117773633 -0.005827747577861 0.15826048788955763 -0.031385179997427765 0.07103402989195365 -0.03730730452701383 -0.043414748934301806 -0.002358526825767651 0.036465006117055984 -0.003563132349341421 0.007801554165553408 -0.0025780571723044076 0.053640490405200414 -0.11169967431800806 0.01283939867207152 0.013094689290018354 -0.13154052021272516
woman 0.011770969666787846 0.26230879530579226 -0.012950501015644057 0.03603031350227814 -0.19580864426488992 -0.22775123562422292 0.0021410300812364095 0.17401407121561926 0.039925857652416664 -0.09854095350318798 -0.006303085273146113 -0.16778077215821835 -0.03727990777652307 -0.00512821137916817 0.09024131459933908 0.1295487172608446 -0.03604306513938707 0.09013982198326542 0.07941567828607829 0.007001403842027676 0.030069640248266496 0.10855688952065688 -0.010336537870934324 0.016090877506136712 -0.04206472737679274 -0.23160370628864727 0.13424999302705748 -0.07430483634197634 -0.06197601159143364 -0.03888019313768312 0.0014758580068546768 -0.05669162111839221 -0.15875482061470875 -0.05611480799093403 -0.21704606973805665 -0.05900494027146568 0.04439393840203869 0.02387589314405638 0.014500341653004428 0.01896239583217846 -0.04640739248186549 -0.06082195087837782 -0.0519358464537123 -0.1380383193045175 0.08092554840741469 0.039095457353517285 -0.02201393051966382 0.05574444296512074 -0.1649906249334928 0.06186052216503902 0.003836689086446269 0.06272206075355695 -0.131769271560818 0.2134459586261895 0.1288651133320406 0.2776217729859931 -0.09305842212202639 0.00463567816846171 -0.06411038783971733 0.015904045114178488 0.02020197163126506 -0.09790385081491627 -0.12437322545068763 -0.0573104262520074 0.02892971065170556 -0.07557860745171992 -0.001725243397567734 0.08954706729115465 -0.09262909859782668 0.10465385610165542 0.0008603924294660155 -0.05666670936726666 0.01131663280841578 0.009983032860661779 0.07228967323103885 -0.0680689570706877 0.025487572903303616 0.29935023018143647 -0.01937462694999457 -0.004989108123443522 0.00500177871376148 -0.10238013166619618 0.08636857197123005 -0.12299106491628335 -0.005368851139421579 -0.15578398459144568 0.04774303609846945 -0.04201923009737825 0.0017474306397974753 0.06822251613354138 -0.07473071280864081 0.07223015106325659 0.024368560376025975 -0.03202083353410189 -0.0362215786422574 0.03723307098010235 -0.06391553960129978 0.01224930790020338 -0.2038347138850131 0.08438723279841838
cat 0.00828330264045382 0.22551809981483806 -0.016221304624467494 0.0169811702174753 0.05090978836824281 0.13913671626779056 -0.01870619479373733 -0.16288111564670898 0.02011921391663643 0.12053566614392212 -0.09258014840244243 0.10677882061364798 -0.16580398354590623 -0.021926606284431424 0.05937837490529102 0.04805398635560989 -0.11327965582948858 0.19701761889271469 -0.09954667023816897 -0.22911506323170763 0.24086273618255746 0.23445419508583112 0.16916457261813692 -0.14968511121450828 0.09525727181568623 -0.018115513288932853 -0.06681107182309386 0.048081736136724236 0.2536925264330385 -0.23782366804126664 -0.023756425838887422 0.15628384545325316 -0.04484780088334592 -0.03969446627493719 -0.013742183017504994 0.12360813443916749 -0.09600721293485065 -0.025173064418263065 -0.030467314132096662 0.10363407851773837 0.0075981185073311155 0.07250512002820511 0.060224088376677046 -0.04394298693758793 -0.05059792886253626 0.0007126865044962099 -0.009423106999949183 0.11937325863872213 -0.1241276259578065 0.016441858139296227 0.06150346578262632 -0.030282831656546355 0.022212886926611303 -0.04215505862311214 -0.2596603148945151 -0.01466072796237295 -0.032618485834151945 -0.028385579153553976 0.038279004761408865 -0.004981106703525242 -0.014142209832130579 0.034751127609155844 -0.08927378406554928 -0.1038492631205678 -0.052483182682027604 0.0006092602287041189 -0.00025368516831127244 0.03766614588228809 -0.05499073820841697 -0.035562682802412586 -0.007517893814215958 0.0017794547115859082 0.13928578777655165 -0.07310917918186119 -0.0015421138405559546 0.051998145052521746 -0.028642315856144063 0.0835125387046726 -0.17053425111236215 0.059589102235633656 0.0029450408917205107 0.25057761380265453 0.12634190573848797 0.019502790443419536 -0.004554838345189504 0.01300841888353971 -0.100567948495066 0.03979611018893176 -0.07092657255454828 0.019299501069745886 -0.04791491040607501 0.013471701054432756 -0.14285182661305829 -0.03984606050504141 -0.03492424686631039 0.020734978943503745 -0.020089253728419 0.06473395132331271 0.05632298352217232 -0.044255076032334126
mouse 0.01220110985723593 0.26528027016406497 -0.019521689904930025 0.024731523149505618 -0.09535494430319402 0.0355738603969963 -0.15838195555055862 -0.14899528349047142 0.010791284827698672 -0.027648969487646963 -0.29401691644627287 -0.09875385246641018 -0.25491184978467984 0.05066882712731979 -0.012920028311282722 -0.09701008738973152 -0.16894250145874465 -0.02910481492991805 -0.06940998879690151 -0.14508367684299114 0.140265860034524 0.05558635847192265 0.26308115908111795 0.010316436186460982 -0.030501137582370972 -0.04673624920389997 -0.1501759086011033 0.05291612856510462 0.21465498133172145 0.07078037830751822 -0.04750261769603521 0.0903093042228993 -0.06155868822993854 -0.0488547716520948 0.0038335760377997455 -0.037941145811314234 0.05402818481318802 0.028085895004769535 0.07048327340030368 0.09477196102683558 -0.08625695416890432 -0.06123230273458081 -0.04656196023367944 -0.13506747663732682 -0.14318782021707743 -0.0257531356892625 -0.0156446495239505 0.13578716214505346 -0.15537141974010238 0.031099444669974923 0.18792743515079102 -0.11839492079972212 0.006486533398328603 -0.046292418702110025 -0.0991207153714841 0.19260961082945685 -0.09836816283783922 -0.07048932663943924 0.07493042830169429 0.010386319450198167 -0.02782379877030028 0.06130781477857091 -0.0671224973893637 -0.12924644006390573 -0.07204513814584652 0.007447131682786147 -0.007253655088075178 -0.056018514421792204 0.17921269676349955 0.09719424809136908 -0.018403014253286675 -0.0491701048108782 -0.06867456734367848 0.04062175652994386 -0.18276099563763426 -0.03338858451554254 -0.0031806496566911162 -0.046278471454797326 0.04145502680651206 -0.013447646525240236 -0.007366070946637463 0.04060213782084192 -0.11528243039292403 -0.02922777107007619 -0.0005881121959897978 0.0033688155114507618 -0.1882877636021689 -0.02737008222452226 -0.048625597862926626 0.030900670897959177 -0.014249880389116273 0.07498655055515473 0.030729265356392744 -0.02498591998741018 -0.019842639021517915 -0.07432521496360428 -0.012972963408867607 -0.12368553448153055 -0.08367111220106686 -0.06391396324376462
flower 0.008437953068700857 0.23218695188412938 -0.01664865509664507 0.1022676187136918 -0.13958800083380646 0.1112578070977007 0.02906127728663841 0.055665819815832594 -0.19611625997019003 -0.12912458038479874 0.12329427980690663 0.07498591771954581 0.01660929227710447 -0.06378666889496182 0.07417136309591486 -0.08996780874963316 -0.19675479536913623 0.015673334960565336 -0.2158875243547137 -0.027557734371273946 -0.04020765314916592 -0.2244972443510049 -0.27859578004088126 -0.03935879809538045 0.07621343710596921 -0.07785224053072956 0.028768075567870508 -0.009540273957211026 0.22459619274938972 -0.16691933366822634 0.0549231838876565 -0.21257382604489317 -0.018315555713498115 0.01244599297519296 -0.11406943094698524 0.061695926691293826 -0.08581086752195333 -0.042749029332023916 -0.14482701568268913 0.13353181187172591 0.040765845958922235 0.10259462818354197 0.006642998460392655 0.03941587650302225 -0.043244474547583976 -0.12433052774214437 0.01546038174170635 -0.004377793014652625 0.09670485891837474 -0.03690016360156987 -0.05283500216096387 0.01097681277672787 0.05398094673413654 -0.08163777899123086 -0.1434358122162448 -0.10911027582561068 0.07172339543969575 -0.03810076679800826 -0.06040682641213409 0.024382437386840018 0.03728434867549049 0.03035281248089371 0.21181330284475128 0.09124530799040573 0.17205838580715446 0.04665920366145506 -0.003288266954831866 -0.002410286063002874 0.03403271578644761 0.14909666088436974 -0.07501859925847877 -0.1545479006499535 -0.06391603759757501 0.05760210636233804 -0.01745097749173092 -0.049785960962318764 -0.1372846132315655 0.10437389691896296 0.07004653341958536 -0.22048461964904537 -0.017763314191862972 -0.05012607683992023 -0.06200355624354612 -0.01890550525636517 0.000626871100012509 -0.07704272860502441 0.07292870891975163 -0.037417521040790276 0.033140849862536376 0.04461156453070371 -0.020446076139659985 0.03263154771002545 0.07525973785369588 0.029767789425033567 0.020076790911921657 0.10451266698356436 0.035887126702831285 -0.05593691789110974 -0.06505528065930953 0.033836692825553155
cloud 0.00771594562951589 0.21553772129247842 -0.016352071867657216 -0.11337294854469433 0.0044254358716107715 0.16044783953405167 -0.16700118012349616 -0.13800191461650577 -0.32041447175185894 -0.12001331730025044 0.30314707333756435 0.015001651572491946 0.1392761507628941 -0.11182959423706344 0.3905904103259344 0.0009288076729337728 -0.16225203293839174 -0.24263603966644115 -0.09868025549509532 -0.11726190945182842 -0.00312763091843341 -0.1171099931198638 -0.17899633566980366 -0.1392198945257834 -0.0026308416566056384 -0.03880321550247585 -0.0875524285704236 -0.018818624714119 -0.019713413358078306 -0.12777205512271414 0.02984808490828564 -0.06805966707945099 0.07712889247667983 -0.07055846054695558 0.03971050618596659 -0.023987876034297768 0.029263040479097283 0.013742532819545851 -0.014248761618265786 0.02775755086354824 -0.11200114269737634 -0.0729170980709611 0.013238811835439745 0.01807934530343422 0.10091542726776138 0.03891380660052243 0.0005070826624106556 -0.03503382054453548 -2.758068878425347e-05 0.016859641508075868 -0.13699474528339184 -0.07118245803111699 -0.017131171101741373 0.02614054603368244 0.15539969871994977 0.10020252725081139 0.036988184598327464 -0.07717045071749454 -0.058005174492912065 0.022635932295477973 0.024299330624708945 -0.0628806007167818 -0.035872061489537706 0.01713172048014501 -0.10938837227006708 0.10452155614233352 0.005058000300376621 -0.004039279557431847 0.0560691986170623 -0.08888881871594294 -0.06173315447732959 -0.03397257149167999 -0.03982069107337195 0.01703504814603736 -0.08592002703103649 0.05851714908153721 -0.043114748190792085 0.05299960542619268 -0.1327600829239074 0.06380876818624293 -0.00064965169436733 0.03532358646913273 0.0034895769944973233 0.07240297139490859 0.006600547743102682 0.1164296788362402 0.044473911771122435 0.02001425978917786 -0.030545622438069627 -0.05115052615009773 0.013330715955454321 0.009802208973760478 -0.053863483773495806 0.012357793599336675 0.004801398904694251 -0.041701987220331665 0.11496788442095801 -0.0007082003694699434 0.06297932502379328 -0.1382574660667788
god 0.007885504342055769 0.21292056075704185 -0.01666836023806912 0.20305492655012441 -0.037414802393420495 0.011026446346072406 -0.25014659860354516 -0.26345136932166086 0.4127764142054662 -0.08886487211794732 0.21130938621956286 -0.021228737263132916 -0.13959852798791592 0.06872310042047931 0.0465163506869173 -0.1564116322007108 -0.020979932778854505 -0.035292679962303085 0.1247372492522292 -0.031763412752106965 0.0927802070154404 -0.09560682085565213 0.1788976606591771 -0.0032454979984488904 -0.09061018738019387 0.0586918938969438 -0.20649108581134215 0.011162115419545086 -0.07659865912833676 0.13313779804027134 -0.05460779530525136 0.06612764165127367 -0.027914088733647965 0.16475451509988087 -0.0915466551632428 0.019634617622961845 -0.03393831699914426 -0.016982121902573165 -0.003680672750287355 -0.06347632997057018 -0.08015761863237822 -0.006175238484134365 -0.09008510221753831 0.029549167081121652 -0.122709363539608 -0.03564531884161863 -0.0003024994350209752 0.06494412521208247 -0.031032591567497762 -0.01866421281970262 -0.1889110308853297 -0.06462402594949283 0.02890803328142671 -0.039757830740413176 0.039887247022701224 -0.0773123018919737 0.10886303913354992 -0.07817909045734642 -0.0876279819810082 0.027707723419891986 0.05274681405671953 0.06490297941791617 0.09994641442719361 -0.060205420260597074 0.02338650913223269 -0.1075952609382924 -0.005787675133015292 -0.022354183380959472 0.09042701170283406 0.16582839994026155 -0.03895309996880311 -0.1215374690108893 -0.09566270158440993 0.07469677473380783 -0.14305126663864084 -0.08774659741044748 0.001733236469695608 0.0928840982942099 0.01646644547189402 -0.019241911134827226 -0.001857584218227982 -0.16406618997967437 0.004200785861028665 -0.024071631574885413 2.82402345299105e-05 0.08854874799512685 0.029046169526694712 -0.012378339267196935 0.0350900806798772 0.017083909664475344 0.007109116087983235 -0.018960189102667446 -0.010068626827863936 0.018346718022701134 0.031581504870791394 0.001852589889503943 -0.007251706007939675 -0.046223046715081026 -0.013945794615880514 0.12937664228343243
stomach 0.017987917456098828 0.28291791308017517 -0.01584358498783524 0.002410361200018626 -0.09106536932149921 -0.13058011107477277 -0.1425291252944597 0.03739006430635481 -0.040768911623607025 -0.04526670910809563 -0.04246098766730714 -0.09705195476764568 -0.12066111041168993 -0.06535559330394154 0.17793905488967685 -0.08581258133977346 -0.17112854573453523 -0.08957865353812595 0.07451379125961088 -0.02147400404425363 -0.11881882420806464 -0.06994103560169555 0.06347404253014866 -0.03537301081702437 -0.28851109004205977 0.04590809456436876 -0.024819648006722515 0.010020160892508269 -0.011571827153825332 -0.11366321459156388 0.057728001353131636 -0.0689705142284155 -0.187001855688102 -0.010083783246361982 0.060191138888004675 -0.16502845872061062 0.16012578813304768 0.048293735976961495 0.010548119555502975 -0.018181870064731424 0.091231511573597 0.13526770351609294 0.0438370561813994 -0.000789050097561782 -0.14633045095049957 0.051798600779301415 -0.0026276372920244237 -0.10074515800199944 0.18576932364558071 -0.04182943274981831 -0.035590602941706746 -0.03931935026763167 0.08599546386061901 -0.16017505662432827 0.14666503100530606 0.031049334929883175 0.04184812416455053 0.03925131378522948 0.11330822669736405 -0.026933284739718472 -0.04578379770443984 0.19425700171277802 -0.17164781582869007 0.04672016069600842 0.1123057697121874 -0.08369361513245652 0.009047033943695071 -0.10993984397764517 0.018857189501325443 -0.1576540582319371 -0.07416404117452834 0.04880993646337702 -0.038861073465889844 -0.01231421704253276 0.035494568252885945 0.026257224081498852 0.11869575831590858 0.03037110137166945 0.014292573544028549 0.1302852469766269 0.010343238219510243 0.03392465732375704 0.048710051026037995 -0.13175124088609247 -0.002493312483632264 0.12093725093604786 0.061071816063296605 -0.1371096742723889 0.10075777659276176 0.04629402422867102 0.001166237241497062 -0.013901487518145846 -0.024609757249483364 0.00413352679161853 0.0024181750799970197 -0.11229331584056927 -0.07841946793915257 0.18799535265292622 0.13188780201420613 -0.20297345366617975
intelligence 0.00655110234722179 0.18065509736790755 -0.01336333764576468 0.24240229201367958 0.12627684927178706 0.018512858911244823 0.06549152476124928 0.014166694915109333 -0.04120642747081688 0.10558190082284936 0.1185536885035647 0.03230573715302379 -0.1563444563439392 -0.24759534008654502 -0.141442199922976 -0.15152608102569268 -0.041108067998939304 -0.022291001526706964 0.19206447259885537 0.1885680908877665 0.22057597514101845 0.0655010570943033 0.03324816958271465 -0.15896407838128612 -0.05072380383621947 -0.04683000893932712 -0.09307177182335362 0.008403343964470322 -0.03349472428910569 -0.016146651994098336 0.02801972612347127 -0.04351397711920466 -0.10777501067453624 -0.07333823187936193 0.22604661353719516 0.02308013382655854 0.01100898674364872 0.030463077365539618 -0.14619591624563671 -0.17543120941488818 0.02495588348352674 0.08298961450970949 0.06202716141201882 -0.10273648051216865 -0.1221045511664921 -0.04161803692031388 -0.0077803989297350875 0.09566796453994084 -0.03179688735415978 -0.031013204579782155 -0.20311951210932586 -0.072660035681797 0.005695431363088426 -0.023307112207406357 0.20575849831717774 -0.012557031479347926 0.1673194648309724 -0.010390024672205352 -0.1475166588456486 0.02525780477965942 0.08132195648960923 0.12927154837080457 -0.08204944898320371 -0.007097762911429386 0.07218722140774249 -0.09612140862056749 0.003957091091993729 0.003906652182886421 -0.12146840516259026 -0.13388424690526118 -0.04769596906079172 0.03455536101302278 0.06529760292703549 -0.05794378266415549 0.08466644474241045 0.02011949022218218 0.17739314583962856 -0.08466146259779857 -0.028546923469489328 -0.06734316536729318 0.0012016327970761564 -0.08230469262778385 0.09915464854386227 -0.011123621300977063 -0.006481318356626023 0.05612348009089983 0.005051521496826352 -0.020933252420035076 0.010584089934129466 -0.09120318360109247 -0.02910013773157187 0.11493288647240556 -0.07695265685090674 0.0070304204677869835 0.033740783756777006 0.0059639442618122 0.11420063298667234 -0.13439309526143375 0.0016559675280241573 0.16346948256092872
belief 0.008525250534147136 0.24112443990189414 -0.017882122576495428 0.2871487827431733 0.08530449502323617 0.07415904173407213 0.08519957305689108 -0.044896482658982016 -0.2062404748938533 0.12158072967416213 0.02504700369385246 0.33210394008940464 -0.23871319974349614 -0.249971028109748 -0.2122559164247435 -0.0008613703601321948 -0.03277255662563515 0.16933542041053418 0.016291725346027353 0.007929566066578188 0.014241044446743855 0.03424777879865794 0.004641500518029108 -0.021161280843726857 0.0023094172331142035 -0.12617001371253836 0.04074642065846082 -0.037475072174047414 0.002164467191427277 -0.0013129281616562096 -0.025765345817038838 -0.006725432691444915 -0.28345776049545784 -0.08921184685310982 0.09633733015075129 0.09026030246086691 -0.061162092796877114 0.004037406612600882 -0.06963519475251459 -0.0768508710066636 -0.01991505230419944 0.08061121850546342 0.07943342827169755 -0.15838241330435252 0.03342858286296675 -0.10800654219582871 0.007042906424428622 0.024105205597430932 0.023188071681638976 -0.01595100847590727 -0.06294758206058126 0.02186730139117501 0.003828351849556591 -0.004441560833985997 0.04698848243086213 0.06906151752044433 0.05251289124943062 0.0368619898305892 -0.1384183652907348 0.03353028487887631 0.08992729322690401 0.18833563174821866 0.05102840481928039 -0.08020543244516899 -0.002269287631739786 0.04613077202351063 0.0029857415572345433 -0.029051348343622756 0.00431529597914862 -0.07749448649351193 -0.009488489895589489 0.0316772993143462 -0.0515934359068734 0.011477909036728372 0.022901512041314683 -0.014066090836513797 -0.0022968558488312605 -0.04195768916835319 -0.04056071479832928 0.002235025785950599 0.008954903803439078 0.0467753614052605 0.09715010707445607 0.07309871447646682 -0.001874867893980721 -0.14690349904740446 0.12714433769159708 0.10148552919771366 -0.1052359955238496 -0.1498092160928833 0.01201766414008764 -0.031223729101813313 0.09997439602994419 -0.08337929553813762 -0.10343706568789289 0.06901456057097356 0.10740224618727985 -0.0872963585575883 0.07445028491601106 0.13231278117788545
bath 0.053584686079563446 0.25929641421603006 -0.011600137042545979 0.010232299741710806 -0.1727547201699119 -0.21938242381464557 -0.17848648290854674 0.12587256248894088 -0.14773412952941498 -0.08693420122916978 -0.26887091394226464 -0.14256869762757443 -0.14901445485318046 0.03192930415667596 0.08911359748818037 0.05204242676379947 -0.14455602910348767 0.05756626302636829 0.13284821432043817 -0.002908644674455258 -0.09301859980529703 -0.008450364276745104 0.02188809137768555 -0.020469037760625707 -0.09572034391124962 -0.05298637493911643 0.08036810992329767 -0.02709627196433293 -0.04245864610803796 -0.15155845476718158 0.032328401877009055 0.01870206348823115 -0.15281273658347203 -0.12087055619269502 0.061138840988710974 -0.16056959614376684 0.12857921702341435 0.022665384370902868 -0.027890432196538997 0.028485980803351033 0.14347078752184902 -0.08361431600987282 0.026451532632588887 0.010314734820448373 -0.10814287244804889 0.05865390038084396 0.02532598666672825 -0.05444966967507711 0.06614025492200304 -0.011384253908425469 0.07157214530141207 -0.11586039766237376 0.2084834483232172 -0.24360051812756828 0.13687978468433376 -0.07570883457875978 -0.06648327773314189 -0.10484096044919153 0.13025095047657487 0.015467892782845492 -0.05019275677555328 0.10705661038686587 0.18947649690893734 0.07429087435482923 -0.11680511374476972 -0.11738308974178524 0.010829257201503089 -0.06539507798109986 -0.029626019552715616 -0.07998702905190935 -0.03214171264194496 0.0197541032163301 0.005234943174003579 0.013160330597358636 -0.013490479337327693 -0.05348759546827168 -0.06518675958841266 0.02282652526681135 0.11442646843161168 -0.006885094755948546 0.001066833639415443 -0.09424305150341558 0.10298505828148631 -0.05695558960847137 -0.0010158480839416767 0.09705841672820864 -0.02253658004467452 -0.0018413062720386176 -0.014499969317686722 0.03235657458323141 0.06724932967583809 -0.09381137126822589 0.1400586188210639 0.08148483743424366 0.06563686535062545 0.08354164031762369 -0.005520245025690369 0.11439377294411032 0.11657853687638565 -0.08085570648297127
president 0.012801735530853085 0.24880754781147038 -0.00868431621132994 -0.040665105413728225 -0.00039267503044250886 -0.37671760824972217 -0.14282624617656015 0.06625311390027876 -0.13815107948284802 -0.051279303396493024 -0.11568597088205285 -0.06446236277468555 -0.120387525631149 0.09687434419785905 0.12935319630920722 -0.1369665710940756 -0.06667407598327739 0.013894875460830737 -0.023925818823236134 -0.017766164099857398 -0.08655198981396707 0.02621073939049707 0.06287122642970457 0.041604267669188455 -0.1656245168944478 -0.041653509386260376 0.040667122928080966 -0.03527975805403515 -0.061628877193190636 -0.12766235926290656 0.036580422827434546 -0.12022911325748173 -0.21158211026852625 -0.05858957446873187 0.030868333076310036 -0.033526600443420214 0.048779758254205725 0.028495128743959677 0.029831280663919046 -0.09302292423302895 -0.07263721916729111 0.08102116883319076 -0.10351132726309586 -0.010855971222184183 0.0629945550590149 0.1056382560843181 0.0020870528852055367 -0.14454782454808757 0.11595153145887227 -0.0025869715922304947 0.06361275831678398 0.06925640451392995 0.08552697372100396 -0.15052182790762794 -0.009486610943305331 -0.08012174598339944 -0.05843571463546809 0.052658655617943036 0.03414024198163446 0.0029913968597326374 -0.005637439993148183 0.17643157816879848 -0.003318245696572701 0.03450772576041296 0.07230555062901785 0.08917815056579174 -0.00532024353591565 0.1575993303754479 -0.1389332112906022 0.034421188187777674 -0.015797459854315327 0.027946827773731704 -0.1766442270152928 0.07099710392128555 -0.08621752266715905 -0.14496985033942264 -0.01724223904359935 -0.17322959577324087 -0.1658452090935394 0.10141460471159704 0.023321024045769717 0.14866536379398396 0.18512815557509427 -0.07155338929233239 0.007739750199734076 0.15367809745514252 -0.11574679078167967 -0.09044789486852983 0.01979036187030945 0.17132948249223173 0.04420235638002005 -0.10172216637762746 0.04748984673925368 0.014889569146142135 0.011411277920957447 -0.05035615081264748 0.02745155569284073 -0.06971857295582704 -0.10075615957329971 -0.026811013291376022
think 0.43854627543275854 -0.019344012998473884 0.0006271745592197672 -5.228989146175115e-05 0.0045530869877216835 0.003043600016015117 0.0021230545195325165 0.00011217772257072487 0.001964778537998223 0.000824895445353123 0.01068369555008781 0.009613883026182912 0.00680009790811299 -0.0033576339068105416 -0.00827200302807237 -0.004353357387810382 0.02742099759712728 -0.007347220165241569 -0.026220411748906654 -0.052025230260610046 0.1397893117455277 0.013559868861377023 -0.08938031491066806 0.13628934044375404 -0.10478670198383956 0.00898864728335713 0.007253169180864555 0.0017083483322153843 0.00027376232921759664 -0.0015338111945466769 0.0005550441221053759 -0.0025558529132265785 0.0033241867336955056 0.014418021360312304 -0.016971481208832368 0.0539442402349307 -0.02682838035708828 0.354639170639049 0.027803807044611408 0.01260213299855955 0.02580762118467474 -0.017207535373540132 0.01433086068679189 -0.016898112496382074 -0.02131992532545692 0.021772124055572807 0.028947364745638537 -0.013947647741601336 0.021875600210050673 -0.0029013320392642034 0.00782321383578626 -0.028402164463295212 0.1547215840889252 0.07374060486146392 -0.004745494750846725 -0.0020420701367669172 0.000676090331007291 0.0027495807278001415 0.0934547838930369 -0.058196791509834235 0.22118373073906752 -0.020658569018664485 -0.0037098672863776563 -0.0005133211187388855 0.00011422420539343655 -0.0008320509067567558 -0.29633742675523406 -0.01353653665956508 0.002842691622857317 0.019820254379515338 -0.1471936438745007 0.16305941200067808 0.20326633216824638 0.3808166386504767 0.00029309552196661294 -0.009193416014721402 0.004841073351609816 0.008102324408173166 0.02813182926969803 -0.006396446211106155 -0.0011230911334964685 -0.013275578058003747 0.008722972817575489 -0.021526173345770522 0.2713384736643338 0.01596780722618071 -0.02002931707538147 0.2624896211812402 0.20986197171905804 0.035468406165369185 -0.0025479932116208386 -0.004056381857179892 -0.0044569590212892125 -0.012178675372731394 -0.020099026925222415 -0.010940469067408557 0.052816223529372354 0.025674853441789817 -0.03683463055706809 0.008823509489936281
make 0.5173376850260191 -0.02435722725358103 0.0008307298866332184 -0.00014146939467818198 0.005486172376215171 0.003323037458959514 0.0019408178154353066 0.0004749560950065073 0.001904439346188696 0.00046163710609264203 0.00860025954218002 0.007649286329335499 0.004781200947116681 -0.0023339331545964123 -0.004651729284084944 -0.002278565099112662 0.01033669097366535 -0.002600283733324109 -0.007409037090636925 -0.007458167690996338 0.010961336211798319 0.0007063112144236925 -0.0015206420356442681 0.0015034251693633067 0.003937363626745061 -0.0023003769593966973 -0.0037913211856420016 -0.0005528705269479783 0.0001008090055974202 -0.00037277321545269596 0.005108714878743281 -0.022644243540585484 0.007791477629508389 0.02395762265070994 -0.019050208606816183 0.01592085999433932 -0.06589505595893813 0.2096004255606831 0.009196692298460925 0.0027153828848004574 0.00113364208917159 0.0015287144028341823 -0.00243447250205947 0.006212766222133665 0.007420418714020184 -0.009956131788061071 -0.025359255622857655 0.011870418472289248 -0.01960536900868708 0.0038514097183697297 -0.012735380353311874 0.04960655620386923 -0.36236515964051463 -0.24712667981399555 0.022755155892184083 0.0070084414797284165 -0.004981788204502913 -0.014942141263691137 0.1588301263032277 -0.07254871026750305 0.2374778412907178 -0.003174996450520362 0.018200457842069914 0.006261436910927151 -0.012680434140019518 -0.005975605901649027 -0.2862008408850036 -0.029537397060278654 -0.02891448064161725 -0.08011146951803388 0.1462190025044668 -0.16715281606135243 0.03768068078875472 0.14823062869061243 0.030364646680465773 0.019084431844700652 0.01307636395597625 -0.007369056503211431 -0.02782916825984886 -0.0026560574524058 -0.000527352455070428 0.0033744987767703153 -0.007059096587275456 0.008486620865152408 -0.3848335339395752 -0.019853638864507948 0.00819606095996694 -0.1057526118262488 -0.08313182468923484 -0.0006352088368655817 0.007496617417015082 0.008862946006762304 -0.010526462221456456 0.15076516435850373 -0.1349762730051199 -0.006897171479779295 0.09672357341745585 0.08422811958286357 -0.08245658154353808 -0.0017730074649297814
