1027 100
car 0.011806377008443007 0.3467978669504762 -0.024755619139812803 0.05175218162900243 -0.06403200793016751 0.2686957036799223 0.009699036777291538 0.14809825335983487 -0.14392085510918104 0.07312728179164743 -0.025594354295888317 0.0016774789144881751 -0.14432098342728297 -0.13075237108730564 0.3687770208367677 0.09827050142345449 0.0938661015190157 -0.22092497834302785 -0.16176683900278085 -0.024638800128262677 0.3697194782091132 0.08823484192150549 0.06657986640163965 0.0277310475239211 0.07121829345891986 -0.02010955586937738 0.029750355244938652 0.017224067055161725 0.009235036740283687 -0.0014637921012346188 0.06503824937574258 0.10128866119854534 0.20974573744955527 -0.00846267815689532 0.07157257696699368 0.1531823513187135 -0.01832169703672845 0.023014584751990013 0.010847458441551574 9.430063269486402e-05 -0.08870684165977195 0.01803162273930129 -0.15970674012284855 0.05737354017568642 0.0009259964131248667 0.025246712844862566 0.052697761903457534 -0.04948752380253172 -0.024820005795466345 0.008912308312196133 -0.010793414371615835 0.12844536410842283 -0.09486340195082932 0.09258878419543613 -0.06306458919997532 -0.02051320449932967 -0.010295783543139552 0.060632255064486655 -0.013144003699193205 -0.037953146278934494 0.014991686013764358 -0.05824185982494363 0.008228327293362082 0.11125872939541637 -0.06613039568399755 -0.0023865631837777634 -0.11390701518738681 0.03158150898046372 -0.01624652225761544 -0.0465026893583618 0.020267923906752878 0.022345581868081728 -0.13765569533357672 0.07688337034136357 -0.019315541209582034 0.04643516604748335 0.040381120154759025 0.0038034985310093808 -0.024640049579254517 -0.16362230517470028 -0.022967685804750032 -0.09362613907784675 -0.006373969227779931 0.028295765429868055 0.10297626450034605 -0.006579185939417734 -0.08750430054100367 -0.0722927466282393 -0.07319958431757914 -0.008122296155179034 0.04007437927315712 -0.06879181370309097 -0.021676600587589415 -0.01311389050989793 0.01177769112717597 0.06293140459348016 -0.0264681642071908 0.007735349066856681 -0.07683456223131482 0.014341921971595605
door 0.011242958210114484 0.3362134163332747 -0.025344418006217746 0.05708732769200223 0.08839440261282448 0.30208015375142455 0.05309162837259605 0.11331709914848107 -0.005690722329659904 0.20650040879628795 -0.15801307156067168 0.16419861100935024 -0.3679121711664412 0.09986969049706824 0.015070992844937531 0.09487646647735891 -0.13174073844911868 0.08485596623984167 -0.015861117614983898 0.12281268462735141 -0.0475857646752232 -0.2088433425229519 0.08745995828741673 -0.12106477880728586 0.003780184737247727 -0.04611230651240826 -0.018358348869578753 -0.05634740188221716 -0.16168752141425313 -0.06694170286694953 -0.11481534447275989 -0.09719799263902355 -0.022085085112661704 0.013024592427783597 -0.17944058436857405 0.031256696057233704 -0.08480223763939723 0.029167438735121284 0.02098842857436045 -0.10051416440570728 -0.20528468451818344 0.04672532381932678 -0.02612433760258559 0.037736922390290736 -0.007352675957237819 0.08428286064435582 0.1273356018525269 -0.02062388461760677 0.0935809587270747 0.030884901705321443 -0.014577583817661388 -0.014750253760562732 0.16542231882311895 -0.01789742100192817 -0.014576549203550103 -0.11661184094455378 -0.01888910145224017 -0.10547684351645795 -0.10578100857749487 0.04451207456251118 -0.04664738347115051 -0.028312153804420318 0.027217657693753623 -0.1485998207541121 0.028355849067087907 0.0007650559793624914 0.1381465835400011 -0.01975586496042834 -0.03327679740861169 -0.05980782781090984 0.050455053059553584 0.03270423177372435 0.022906230408612834 -0.09046734625636278 0.0331499998400192 -0.15608260279312444 0.05030547197593452 0.08209034896879339 0.11911958319458664 -0.04556635497735528 -0.014276762112163345 0.09381824045723372 -0.0032114877015428137 0.06228139054756634 -0.012734621684241176 -0.0002615338465402618 0.008936685563319198 0.003199530818557708 0.02679971269733248 0.017063636685396788 0.10678075348903263 0.028425949492015157 0.03681062054799464 -0.0005978168016105231 -0.002750801433245181 0.09141595888263802 -0.0395736347875646 -0.004502318115790603 0.021162428782124015 0.030242927989254494
book 0.008901249637482796 0.2698057038625089 0.020560052253999598 -0.11977158220838202 0.14262140961229655 -0.3296248647920772 -0.08280778713371224 -0.08364049057815694 -0.20724341887152045 -0.06511986031219069 -0.010285588154532689 0.1110710573533234 -0.06974817746146554 -0.248133726555976 -0.01988231108406858 0.167158011879681 0.18679280113742627 0.04161527704497594 -0.056335991106662923 -0.007204957749311294 -0.050056730447597196 -0.15456936215267184 0.1421449267423521 0.017655973589210783 0.060583878646798116 0.21711123420626147 0.09327263152063682 0.042376316245696245 -0.03900118231235992 0.05946353590663956 0.10570426073181775 -0.0033514515687701075 -0.04839462777927775 0.020144490583365374 0.11575314790936311 0.026243318874493996 0.14891093200121622 0.23423905897959474 0.2264699671109797 0.021658394603178054 0.026649617005810537 0.018278918873713104 -0.13621398688133599 -0.08933624675017915 0.02453328104809139 0.0014021176271371073 0.07969249891562563 -0.040799278044501154 -0.14432997808992482 -0.010398085622992173 0.05293537677957714 -0.08586194357852722 0.05811095573498545 -0.04608761045171406 -0.02978871047445612 0.08980537815894549 0.0014567005492917167 0.11083280011251208 -0.05106015421591789 -0.05403269498152788 0.007297148588439606 -0.01453267981153155 0.06308500544631455 -0.058183830429938764 -0.12100395982376622 -0.012001573368660203 0.09480160540952497 -0.03948776514221266 0.0926108778165222 0.09454650411179354 -0.1300511982383259 -0.10404439424415218 0.023331852269890634 -0.08487603161984765 -0.042085410301767594 0.00013957761966593792 -0.07129505298768184 -0.002974213313149117 -0.16600928342014487 0.04690640080297772 0.0056581543618214195 0.057654246141093525 -0.009755594377587704 0.09934182576905133 0.013150363610818781 0.03907935067081293 0.20069775100568651 -0.0771055687857208 -0.004477742416496507 0.025305588373921686 -0.00942041064455838 -0.10544511416261625 0.008965699819562177 0.00808425887101314 -0.03134236232844748 -0.021611126661140977 0.04367077839849514 -0.041064178597235254 -0.06268736418255551 -0.027671710218742717
arm 0.012788902287256163 0.34344364417895434 -0.023184270624852035 0.020538630848789857 -0.21657784246230072 0.0789935634634354 -0.20080841269584127 -0.1629009235792251 0.11704006746585269 0.08650537535318473 -0.0609193937318024 0.017446363041148227 0.13603009189385898 0.03132565425306998 -0.07048296749739115 -0.030305611858063457 0.056216160214483744 0.08406315593518003 -0.007149731033711314 0.09188492900668825 0.1372411247786435 -0.1368820637905362 0.05763257486238036 0.0192727017655768 -0.06186603014876625 -0.13544624825922968 -0.23698914138474375 -0.09301855706000801 -0.215062252767832 0.054553702914640116 -0.14571346886927908 -0.028342271687252445 0.030062998990846492 -0.049998304979011934 0.22234276170141143 0.10540048387108886 0.05987943865440384 0.12425854131305067 -0.06324614996614689 0.13168465852031938 -0.027450037452593203 -0.20108708160709474 0.0237733930991536 0.08547365246827084 0.005914716391541872 -0.13870149139534976 0.08396523104897563 -0.020291917903617212 0.018480400288194712 0.018788287571369366 0.005950811994614443 -0.09378696537802463 0.07765371707574299 -0.08713831121571208 -0.09057606437208233 0.10324152030770554 0.017524762517024055 -0.055564199088625754 0.14992616410939053 -0.013795655266407063 0.0679155237477588 0.011686492164830966 0.00531579493606458 0.15412098559555445 0.15432693482771018 0.010647674562670476 0.05936599402349621 -0.12905054003252453 0.10125727210139178 0.1295790334180403 -0.03039579875356104 -0.010206778916662345 -0.15833561133839674 0.037113770151308643 0.012514948625911435 0.036496176715018105 0.07434293788195973 0.0046727640338327095 0.08462812168269317 0.02447598330994453 0.01766668823507911 -0.006105681032345293 0.005513191686885424 -0.2260389683490463 0.12909463211110905 -0.0063402773142422885 -0.10515699203958198 0.06064728741978075 0.012023875742467873 -0.05394244322289339 0.04631263959174756 0.033389345230593025 -0.0270645176519198 0.023871850921650388 -0.03910328724117963 -0.04561359113311639 0.06751302995618855 0.033802653663500846 -0.0036865209185922617 0.04594785513060924
give 0.6405371853929551 -0.026317485346788707 0.0008330030326301714 -0.00029758799699508126 0.002025515495737122 0.0008944406239325058 0.0003949950411751908 0.0004777054421580295 -0.00035140164906468085 0.0003571459736974549 -0.003027390603754803 -0.00450584919509858 -0.003714346068900585 -0.0006089352664200696 -0.006175989886095642 0.007053114606049526 -0.040450904053596935 0.01396523464007057 0.07105965582553371 -0.25157951675302215 0.07393972233157035 -0.10571801367897365 -0.0029171508023624684 0.03014730457796899 -0.04633135573018698 -0.01299306945782331 0.015758067044155364 -0.0062426970348947565 -0.005458395197242403 -0.008305783436925968 -0.05180733230707193 -0.03903487579656655 0.023912901302307124 0.22286158606696171 0.015666197452970838 0.001951430604085014 -0.0011128838141458814 0.010063617796118533 -0.008500017371039913 -0.008161073883573355 -0.01182729212938361 0.014495240639574605 -0.010459041497528562 -0.028443474872200895 -0.05836415488294145 0.006310268059783656 -0.014561702482920092 0.00792696349223106 0.05316065283129999 0.0027714708284720924 0.16013731162973713 -0.0007199524435085249 -0.01025580858144402 -0.0040320434626289385 0.002659087285257495 0.015643010130777915 -0.18958096723500464 0.010894099964399972 0.014861946543123339 0.008479213602083393 -0.008729408470480553 -0.0030736385795840553 -0.014806424969224777 0.0012381376375433558 0.010281779015943607 -0.2862188711551825 -0.01305441199310163 0.01836324410164063 0.04589672287002141 0.0035538389848152746 -0.17099125759787454 0.23748670345094516 0.007033427026116212 0.003581119185001997 -0.000550293775429876 -0.002632017056058378 -0.006534385399316744 -0.0034458958934268807 0.004033460019046765 0.00745513536445768 0.0029697352541782026 0.002908553208291286 -0.17846217419974467 -0.00464740117266099 0.010462001476637988 -0.03746688110737745 0.021201832770869768 0.011479532449505885 -0.009009256911621698 -0.020024017932140727 0.04148763571046374 0.020754159716262856 -0.044138483215035405 -0.39734412638975075 0.04150599005301681 -0.05657417672039583 0.004558063359816491 0.004818819863954422 -0.032628276150402466 0.006544789690002135
dumb 0.0011998094118301432 0.057155793180715696 0.8750653870906799 0.0009316934332347189 -0.0004506625661050067 0.006929608036184804 0.0044578291122472575 0.0018706914242616263 0.0030466346280002337 -0.0030634157687456174 -0.0014076742068861155 -0.004400044043433161 -0.004661072353936104 0.002407574826051832 0.00242141499465106 -0.002173056533468001 -0.010519958276113442 0.0019940704774724627 -0.002693173321451605 -0.0020702354757986363 -0.0033758566631263906 0.006279188389473935 -0.017681961626841276 -0.0014253798222598666 1.6896415954613413e-05 -0.03860312491204168 -0.012594423785163957 0.08335010561805929 -0.017722055692775598 -0.004006083532632386 -0.062115477992035005 0.11876772395965396 -0.0454876329198453 0.011111766989330165 -0.016371653064357478 -0.01812460027530555 0.01191201363089639 0.012871685439296359 0.0028465972321110302 -0.001957880963809086 -0.005202346751078193 -0.010877833435121926 -0.009556248490031534 0.0004175400309161163 0.00011854589775257383 -0.0013218435724152348 0.0036394049295759654 -0.11043013929554715 0.041739726126882405 -0.11087152897254914 -0.005386553798722835 -0.010632376418858372 0.0017829038425410833 0.007591361660207789 -0.0049610470173012365 0.011573496559190943 0.003527215460805924 0.02245933325752398 0.0020192803069336253 -0.017230900822350806 -0.03880327584117282 0.00833973715532171 0.017320856733664246 0.006725122065324959 -0.017084521944841478 0.00012146426403654807 0.00739064673941452 -0.036891784913389895 0.009183856981595434 -0.14111017889172325 -0.028236032252567586 -0.008658894449755431 0.0673336879179053 -0.16813516476043242 -0.2663548459050412 0.1587569002773838 0.03559857420184266 0.03302784894933155 0.05797352383618282 -0.016548766972947365 -0.06932507555312034 0.03510015403820175 0.003514423016562256 -0.05264949568198249 -0.0010446740638225761 0.0005990294570415446 -0.03271144634868507 0.005963628751953489 -0.010062550483505751 -0.028263281810777523 -0.005405112887254218 0.004120007838790561 0.006226826622149188 -0.023404586643751182 0.005752448369803068 -0.03512778823364349 0.014612943481656721 0.006782841231202464 -0.015960199066754985 -0.0023418346801673774
man 0.010302531188434685 0.30790608816976234 -0.014631362455289974 -0.018389520552286296 0.021522499288299246 -0.2560314677075217 -0.3104302807216145 -0.1146934510871127 0.1211227885718381 -0.10241022665065917 0.022235683094474393 -0.03456461034682693 -0.033674305759093554 0.1721182289003288 -0.24096488563264942 -0.004195182025728036 0.29885952362491613 -0.07074562450729761 -0.07624390122957392 -0.1230027271637716 -0.14862898349172196 -0.018136381764157147 0.21342055185153297 -0.05922955356826698 -0.030864721422921532 -0.018331261009025063 0.01900014690638517 0.021245013876777036 -0.0034707111730512908 0.08356132105597966 0.068126701589815 0.08516976925472874 0.07696137136681205 0.007014204015320389 -0.04931260389429716 -0.12537674788848366 -0.011052324356894223 -0.15799735013693483 0.13287981869081367 -0.14507498720584974 -0.13334472479366935 0.1478419186193247 -0.17269622979877874 0.04101470786144185 -0.0014222932995053138 -0.022955854330556028 -0.011394034584349223 -0.054693977939314936 0.07215478901589857 0.04253895266437394 -0.002285076357047036 0.0017757440414390968 -0.04536320671314763 -0.023876925761111008 0.17212945141631272 -0.11784201245582158 -0.016260439643914878 -0.06862535263183496 -0.07454794297955523 -0.03439835634188481 0.04669157299251478 -0.015191518105446873 -0.07002068562527473 0.04679092962964339 0.14521690458100286 0.009633659966350528 -0.13455440479419237 0.12546363058620227 -0.06336571147773108 -0.0750383074288597 0.015742239685808315 0.00042247692825438647 -0.04467308397065101 -0.05870392187411797 0.06205237145083588 -0.014615922064724077 0.06281144992888758 0.07357296719553266 -0.013172685882534873 -0.005825410018475828 0.002213587762257017 -0.06306051158220612 0.0019890091721160813 -0.12212257395623351 -0.024884904517624207 -0.0010499545657224676 -0.04781063528491678 0.0380363213413511 -0.013521774565642006 -0.007915396566597777 -0.02421098020430589 0.1080002486870501 -0.14106446652767266 0.009385358492415301 0.011933861519118117 0.14494254009134538 0.031175927931724107 0.07249855679022953 0.01167759396494278 0.03527289714242372
bed 0.009376378489379361 0.2764430166014024 -0.021014529913507753 -0.20513049245014328 -0.003020602153418039 0.35665959226621413 0.20836304441375791 -0.08098581469926379 -0.13003907451979327 -0.1613052153351573 0.1975422767782064 -0.3111277737182883 0.1466050027504288 -0.0674183347836037 0.050325213742680945 -0.03595468487725084 0.239335090980502 0.13943495901355432 0.0322162516440137 -0.0540308286677571 -0.08585976724313583 -0.0735924091289429 0.03547646049985365 -0.08833774342064958 0.1223022990735779 -0.020087591103741368 0.03690796718683781 0.012012055633549006 0.09731051339664185 0.02259757320844896 -0.07109991952660229 -0.07715867370644751 -0.09197080135379458 -0.01931863773978471 0.08177767266269964 -0.11230946410232619 0.08349784024101443 0.04407977780623431 -0.1062425936450284 0.057351916503786474 0.028819198252131487 -0.15658986760376414 -0.010724514150255864 -0.0084797895594353 -0.012666891799743129 0.0140687827580149 -0.14393204256601447 0.009724083345001407 -0.09399669594351799 -0.017730971047710875 0.015025856824268739 -0.0054237239331281165 0.04672631358658876 -0.12925430660439707 -0.06278048360686907 -0.07243862557233684 0.011912335249230455 0.0011386131794558951 0.10339428979867066 0.08946587722946182 -0.09650691029298337 -0.12390766846979627 0.0033966595849299406 -0.025171356358366242 -0.03392043589332831 -0.004540319538333536 0.05797117971010186 -0.04624506328769935 0.022761140059360477 0.07006893134981045 -0.028116510562645993 -0.02319231214516776 0.08865400399822618 -0.04300788207291444 -0.052820866054515914 -0.13306930729444508 0.24049876827086594 -0.07398764153139806 0.09609061544665588 -0.005379593319458694 -0.013678757208391592 -0.12688700902882732 0.00500168764970173 -0.029014776896064187 -0.014400396091445436 -0.021644785623802735 0.059406032417449024 -0.031170462980464057 -0.045957843780502015 -0.011441966609425086 -0.07460713563670171 -0.03628615399301164 -0.04629662306378046 -0.010446062562213273 0.04983479066064388 0.03557563910888813 -0.06950505534984676 0.08626712112566061 0.09418038825034047 0.0016608163213991326
boy 0.012964831218051665 0.33169874235790026 -0.023002893432992447 -0.15040978644198047 0.00942921680654292 0.04338602147811198 0.3506947384358714 -0.0659758290227567 -0.05206423038402975 -0.044935977670516714 -0.0035753836060078677 0.047098772267806496 0.11731249676593314 -0.15901163778318406 0.07846315957086568 -0.02448102339434405 0.02132931995346644 -0.05426100778733575 -0.07474722528992954 -0.03459579178878509 -0.22681112135717418 -0.09852003065666008 -0.12129619429914329 0.018579297300791827 -0.22043708733257392 -0.08699164164771257 -0.13014667393676524 -0.0786985339792503 -0.027826799020572814 -0.01102240290850936 0.02952653240634603 -0.006191663160669744 0.004043943161727446 -0.0039625516037881435 -0.04503089060976473 -0.019484398956857333 -0.052054511652814564 -0.09115231002471312 -0.005448020997079824 -0.06636073056069657 0.0439015274000413 0.16585543159503047 0.044714142947498 0.047805431728785965 0.0031227699132113907 -0.0432920594242035 0.025097161049089618 0.057950066655566186 -0.049107757093574615 -0.042060799412522845 0.00766537946150959 -0.10396517099581672 -0.09525077709987383 0.1397263412135793 0.2001497566122708 0.03688752959126439 0.046430679715197716 0.26279379581840095 0.17355214127714153 -0.011158728917661696 -0.04649721548706932 -0.0319965922433502 0.06834869898462217 -0.1983257935915016 -0.20047143703100678 -0.01701750839106862 -0.06322144411820188 -0.028682435215528525 0.01622424203800789 0.048721198962131486 -0.04134570642166376 -0.03656445177972089 0.12450323979225705 0.0921765434551314 -0.07425293179009865 0.06910636183660068 -0.12494040164888814 -0.09178555361055481 -0.02300517100815615 0.09355607609315435 -0.004783825664125847 -0.10814277608500376 0.0007286784933567373 0.1370668861746155 0.0062492626656236215 0.005616855438109526 -0.023460963020655347 0.14963949558464748 0.13690316018267112 0.023674056265028314 0.09537589026135178 -0.09628313346518289 0.007315775121803515 0.006506809978263371 0.01347211695530668 -0.08839304937466552 0.06090337519555751 0.014745797938133942 0.040142299523874665 -0.049904762420131976
bone 0.00995118990719269 0.2745521588178973 -0.015762829039379717 -0.041911846782753996 -0.13888649184578242 0.12185219212916838 -0.04012291092778579 -0.05288632876864616 0.03946863640482083 0.30989025278327165 -0.033106288791819746 -0.15729779809976122 0.13292584494966833 0.1605138882243327 -0.08285593013142513 -0.0810016304486658 0.08196126082876948 0.13423280132113807 0.16273533164677906 0.1325023344463393 -0.06972080794701221 -0.24930328801687224 -0.06342644809850227 -0.07459759546950441 -0.1412727723259617 0.19907509096644957 -0.1542876001677091 -0.02396538137398361 -0.18766588634247686 0.22354253536142946 0.09632605921272124 0.0769191583680246 0.006554802517386425 0.029522704928452114 -0.05472872810034772 -0.11564801169418201 0.05403487291269427 -0.008441624418293122 -0.033142915747571985 0.13132004569701866 0.13599063746282145 0.19679232849454947 -0.04958860108045139 -0.12498572063344046 0.001717736100596601 0.10780447783841983 -0.07190633453192358 0.027335581742228086 0.03539763343128126 -0.006020985152076386 -0.03065053192299116 -0.03486653894253581 -0.083102734287645 -0.07134957182501155 -0.10580634154601908 0.11237243288862195 0.005106963955046407 0.043614884975108174 0.03715408068838583 -0.03349446161499364 0.026157638348474996 -0.16041813819838463 0.10012776153753151 -0.030003683283792038 -0.07599916093246034 -0.007078018678728753 -0.14727448730924506 0.06991047991104783 -0.010169848752781397 -0.03027827097310824 -0.021951724420910052 -0.006120745042826216 -0.16294419818157607 -0.04153616074361779 0.011026574275012493 0.09160632336114213 0.10435961480332759 -0.06438916312151227 -0.14580091687360652 -0.012671007950672485 -0.0007497689095227049 -0.019763090489004608 -0.0009566627390039345 0.10110055958630179 -0.10164951094303533 -0.008556401328825729 -0.046286709949093924 0.04092835584048638 0.003715203107342896 0.026132401546878518 0.019953849819873706 0.07218330137479169 0.10566912360125104 -0.0169429010455967 0.04920515896519551 0.041864735401166565 -0.06632049274528302 0.04490506384524912 0.03267918872476062 -0.0038271253908020867
leave 0.540356808826896 -0.02062730262917948 0.0006083613747678699 -0.00011155923251189179 -0.0026759231656845266 -0.002113738262437341 0.0016348997541293683 0.0004500687857473601 -0.002066394705020003 0.002257648167704825 -0.009167897118238939 -0.009558394195108564 -0.004901231002303557 -0.0017993213781990784 -0.011158272074191632 0.010462043741694849 -0.04458639184616898 0.013975492068446758 0.06827956518417867 -0.21382453226960416 0.06027889825945964 -0.08183768890822492 -0.002147539146935489 0.02325123218645728 -0.02749297035318001 -0.003415857942986411 0.007820685379332308 0.00021039632825040335 0.002362037595404017 0.004780278245597055 0.02669175116180141 0.027146801049111227 -0.026503756971699575 -0.37619325948288856 -0.04508434486844634 -0.010358028366282935 -0.04946508744903164 0.06481225947612651 -0.006657803403268096 -0.008307101088458559 -0.005566832165471329 0.0038138734633405796 -0.002434488927036839 0.016781668277237812 0.14026206786789436 0.026045479173992223 -0.010715014530061443 -0.005255474704454783 -0.03645051238908827 -0.002394448023077696 -0.18291402787745326 -0.007853812050988977 0.038429244208491906 -0.026324575082210547 0.05148123777756151 0.024692809972887458 -0.2016338887571564 -0.00014969592296356767 -0.014614644633970539 0.000795995741631661 -0.0018985254643706856 -0.01329396997827475 -0.017917842031468012 -0.008076889859662501 -0.032553103632686736 0.21304049632370825 -0.016814182327025314 0.033904360268260506 0.1746583309884087 -0.031851977010185814 0.3181278021316456 -0.3280586646433391 -0.00124886125676801 -0.004824840289117683 0.005297403072309329 0.012565485412995452 0.017038104292951137 -0.023862126376349095 -0.022075092203817204 0.00353854231220769 0.002910604742196143 0.013509313799509535 -0.137433889036946 0.009394898128919313 0.030048216842136013 -0.18777867368510823 -0.015433701509253744 -0.012504140350151103 0.017366762352651673 0.0027160372222924246 -0.036059015743306444 -0.03529200538691811 0.020576466402126462 0.09688706419569282 -0.1519339956856197 0.05804882387778155 -0.009195466700644719 0.008914669944974071 0.029812402128002142 -0.04486820519393741
wife 0.013192711974942964 0.21817782050216195 0.05939534998332412 0.06411285271765294 -0.17356924491426154 -0.32080495729921293 0.016164446070436215 -0.06815307984287065 -0.1148097178207818 -0.1636262313292357 -0.1480112571654157 -0.06756142417110766 -0.05732634754416813 -0.06257330950721579 0.005801232305361557 -0.015248140229157162 -0.15122379140755843 0.06677430653628598 0.14267934770841578 0.052192873687245796 0.13769070868266256 0.17294741460082572 0.16001648261591866 -0.09732722005304509 0.07835928048247973 0.03188869725014777 -0.00542058380092984 -0.04474946686300393 -0.03146301306001471 0.21281495144632007 -0.05617295229343837 -0.11655329475217391 -0.2261895976326324 0.02686561013524418 -0.1604566770313574 -0.12099073614002548 -0.03033654555880028 -0.045336170399842564 -0.004622294677291784 0.020957186108337283 -0.060477311037474696 -0.18408197054433395 -0.08598909030112126 -0.03531347612934208 0.013047735469542233 0.010059439211060452 0.18422674941353814 0.02715895668914334 0.09225521785822033 -0.03887493569603792 -0.023597548791179257 0.00831736517602983 0.005327652947307831 0.23613262716613453 -0.01731987038518467 0.14676052765620945 0.02483394593265936 0.12752610600465047 0.038952321931387195 0.039128817321341595 -0.08527405254893312 0.016318865686492965 0.05049826651009866 -0.02192332188274123 -0.06549820634148704 -0.002460688074204075 0.16259270799762504 0.09286732293298387 -0.041830381923359646 -0.1810396860116709 0.0692698128815484 0.07220336827911843 0.0728000248108954 0.068750178433556 -0.11263708313312001 -0.04746540501977121 0.1049480672042723 0.013733263468172623 -0.13709821751470086 -0.007862219186649347 -0.009308409060738746 -0.160802893029797 0.0014346686932816177 0.011546969233168536 -0.11764313135435868 -0.022714664344312026 0.022438378191937745 -0.0274282888270322 0.046251041400981005 -0.0021976413549585675 0.06652092940749076 -0.07345602241617197 0.016930335487607973 -0.007523528850055462 0.012018369514197274 0.05006981917831719 -0.04701805990926145 0.08781156421152081 0.1546468605568424 0.03406621466384361
clothes 0.008224080285038888 0.25725552184682 -0.018159044606188012 -0.2937675704925365 0.1883884389324614 0.21214533586355958 0.11939857568862024 -0.12393719166998136 -0.04213035707014905 0.05994820762672163 0.002626620571969825 0.13819072887367445 -0.028389574597239824 -0.20010477876358615 0.018966959000776686 0.2949447843551237 0.09417602483917503 0.026413456523745094 0.1431053179596705 -0.001616633607307287 -0.08048593210795472 0.11534319549790999 0.005049699868018461 0.11585420000149073 -0.08587812758981625 -0.0506647289809851 0.11980780879537807 0.0022314852486282426 0.026481011387947805 0.05710291855602116 -0.09656724603045519 -0.00963331359491868 0.1015744566277224 -0.03440586381650289 0.07197982105672411 -0.03742739420608522 -0.01238675979160117 -0.08931502976389194 -0.06023048838804131 0.06813158901278678 0.10575884255368559 0.06421732937434596 -0.028265294643263827 -0.10303313086946286 0.013149500041326022 0.045498387151239994 0.11005627034452063 0.04970812749937762 0.07570893276760068 -0.008469699843546341 -0.009970071940855982 -0.12044015226418223 0.09176664351454814 0.00770553696542468 -0.028573812391478874 0.010498730858070513 0.011672276613847456 0.2914578094355164 -0.15638761956744082 0.006026792314117919 -0.18787689641328528 -0.001399073537944146 -0.08579775075351502 0.01912967169183009 0.03908895762662974 0.0059901631103099155 -0.019851696893526765 0.007083252853245368 0.0023606924217385566 -0.02413934534949327 -0.05613047840472665 -0.05477444826679003 0.031515226424568 0.10212066230508694 -0.07118441601720674 -0.13100669367583243 0.0803255191875005 0.029711260048302202 0.013446751229582497 0.016566449074854456 0.002748244878699453 -0.09493220780505399 -0.0009851829870393823 -0.048535949865037634 0.021458586538216286 -0.021597867996895656 0.04135983616003025 -0.09667253416217456 -0.12834521463551504 0.06189289259161283 0.02385815158268341 0.2713482978076847 -0.11713682908305474 0.014640702710802264 -0.04682504007025672 0.07651202082343146 -0.03405660300443854 0.12019831776779688 -0.1310459682019993 -0.010580907903239137
go 0.48671777937444993 0.012361206276699305 -0.0012138395517659111 0.0028950633858479853 -0.038592266346066585 -0.022022875421771327 0.018489376154892264 0.005711405558747041 -0.013887624020232471 0.011951025462225855 -0.0592714757157716 -0.05824498205173947 -0.025363392038928064 -0.00655981490609557 -0.0382130206502989 0.03816915324543654 -0.1292867712236834 0.03810141414620011 0.15591920973686108 -0.42267297406122617 0.10913631055782944 -0.1289220124489996 0.00012231190821731096 0.025685130077521923 -0.03150378192465096 0.0007174295482433167 -0.00019791238019925206 0.0029888838625327964 0.003042927021987195 0.0003406682895458079 0.06760693174384011 0.04528961987759158 -0.028533275471804547 -0.01868556958725129 0.16265486145554206 -0.14745873662496098 -0.34588314519879965 0.12836738733963468 -0.0032496962917124795 0.004254034048093637 0.008315268803175057 -0.011139171973148045 0.0057962600494924615 0.021137357419625004 -0.03016465485819916 -0.020724441548237243 0.021959372908502906 -0.010051295088951324 -0.07561326187509519 -0.005281901329604031 -0.22866199145381289 0.006934903870846876 0.019505852092080868 0.01666316185670514 -0.006285415634479114 -0.0220703952726837 0.2892275480103468 -0.012731283492813352 -0.006710102622848911 -0.009197512691260542 0.011558056776665972 0.009988172045686604 0.02921571137757092 0.008483419875177886 0.029307992951020136 -0.006561476741050695 0.030732793973026765 -0.06698615998038203 -0.25575383340398766 0.0300261641826313 -0.026086566535050745 -0.10245794539303407 -0.006166079032510033 -0.002585925583480962 0.0029129559002648376 0.006089207869702807 0.006692236039000753 0.002086821125071284 0.004085632850066536 0.008080305778085259 -0.001912282393039908 0.0010395015316225253 0.11659282229322798 -0.00286218317116143 -0.00027532779913230397 -0.0485520677905174 0.02953755181957265 0.014882567661541547 -0.0011412649699858045 0.008370304701333093 -0.017055992534478582 0.024870925179730174 -0.023640672675877664 0.1537073586945096 0.0888304986820412 -0.016170738073676392 -0.025899396067134373 0.02015327445230578 0.04822911317820131 -0.14663299535989857
take 0.5274749322146752 -0.0017179719962205646 -0.0004162422059405984 0.0038353666505060017 -0.023396777854464285 -0.01630951106566576 0.017079568471137486 0.00534219350210357 -0.011955281272099343 0.007222241956483761 -0.035365862531116066 -0.035180052206698544 -0.019905748311597686 -0.003266571955836441 -0.020573563916165664 0.0185975714114325 -0.0699776849168719 0.020403934488499968 0.08500760236124556 -0.21239450018345277 0.05249934369506673 -0.04987442899583497 -0.0023527892398327232 0.0099543079388644 -0.018836017808997303 -0.005053364256406405 -0.008435799242166395 -0.0031983017967014975 -0.004760809681952584 0.0039369606937611525 0.03585214247441672 0.01955510390490889 -0.011600081153638047 0.11648662681623871 0.11117723461151298 -0.09160028197864534 -0.1825568135227433 0.03846628889476326 0.00715817710931141 0.009788718295490023 0.01714063993224597 -0.024720090202552857 0.021782229467314396 0.07088842083686903 0.2833402428080065 0.011939963778256334 0.021186760753941703 -0.021259895887672655 -0.1390511375758809 -0.006859827510431428 -0.5063689311574544 -0.008395913311586456 0.03618387606380435 -0.02104709164728124 0.04295480453074593 0.01408252596424532 -0.0815943625546144 -0.0020663546741592474 -0.009895357462495199 0.003720004390476278 -0.006720482183010566 -0.0018657922550466422 -0.0030891416584883876 0.002549656229321275 0.014074384942434764 -0.09246914513776532 0.007234603911085716 -0.0008776931679720524 0.007632826558741116 -0.007435812851818853 0.0094192730235912 0.024459170798312165 0.0009050551911899624 0.001035869501146812 -0.0057735279332337625 -0.01622867592899909 -0.01896368518410265 0.017244857298962683 0.034507577565222596 -0.007480219242340377 -0.008768741619516808 -0.016390414083170896 -0.3100138519528057 -0.015570509200487656 -0.052328337286189026 0.26849171825565926 -0.01481274998143136 0.00022029752157898684 -0.02221427140063399 0.00978394491407024 -0.008513190288280618 -0.006382383264285034 0.017245195098551505 0.034635072532254375 -0.1424270394889366 0.03094517283678926 -0.0001864324610315522 -0.003255886299891531 0.0170357739913006 -0.02584592248679209
accept 0.6810053699268226 -0.02855953890502337 0.0009253286007082492 -0.0009090370796626837 0.005940398826565028 0.003550433481312996 -0.003741384060940014 -0.001186224648743245 0.0022368243322602316 -0.0014306524964434503 0.007537701368771034 0.007219946298387709 0.003805288880073498 0.00041635895402997863 0.0032256871663407767 -0.003160952643634644 0.012650329581777626 -0.003651243823218112 -0.015963707480929047 0.04702898973277673 -0.012549617356445253 0.015251437077242075 0.0005619628098373519 -0.003749215964244155 0.008084384823807137 0.0035381190269572903 -0.002247965363448584 0.0023136647216421813 0.0028810458595236142 0.004004167382758395 0.04282535469141711 0.03435911876854117 -0.02716644097204777 -0.24745292105838324 0.04111297248428159 -0.07969475558262554 -0.20634513948721983 0.12274003048360224 -0.013899104160875987 -0.015189570197867703 -0.018942775181285426 0.020113998635029006 -0.0150740886963272 -0.039015387246861696 -0.09110670583297584 0.005880078292146069 -0.017600572201135492 0.00924566362857446 0.06704234914443315 0.004186930575616936 0.20786874971684366 0.0006809393665024344 -0.010976163349686598 -0.0025549350046584884 0.0035201480708326152 0.023988163525607807 -0.3275454386560436 0.028234253194776474 0.044113926791137695 0.009442621571487012 -0.01146156662016821 0.0059160200948516145 0.0036598776244614727 0.0024472938219243638 0.01376159625485525 -0.22602465433314334 0.007625869906852854 0.0018609407242382386 0.05381144523827738 -0.010892963516088873 0.14668031345765215 -0.14266345851943754 -0.012758237651799008 0.0003691379319508532 -0.0015140660039257633 0.005197148031927056 0.00857484315334516 0.020265406027846666 -0.02008648424341531 -0.00043507699346628597 -0.005749319942438139 0.002227469284707993 0.06774043890299263 0.0056929735095248915 0.027907374540237437 -0.2047951025777282 -0.027843932271475438 -0.01453939323604088 0.008320307228986272 0.003052202348642623 -0.05037949178154886 -0.003217354495487755 -0.005686034062592351 0.19326886063675025 0.16173967810658635 -0.10179070136716194 -0.014384269631643413 -0.07412155409970918 -0.010199333914477575 -0.054405972419527604
argue 0.4508184746268708 -0.02090722269598506 0.0007360313079037996 -0.0013201153573912756 0.01248489081406762 0.008081693502140486 -0.008028027137681288 -0.0026533741970430837 0.006054470381036347 -0.005260055451207831 0.02360841570869103 0.02383907439765411 0.012505725833755643 0.0028996227779971013 0.019823513541962243 -0.018832263922745892 0.08075459532283691 -0.0249180530014017 -0.11869478937020225 0.3681198823335366 -0.10232210570622512 0.1354391888116339 0.003453127723405632 -0.037007045843675555 0.049948339512539935 0.008795376254999241 -0.012668781868722421 0.0026187257357542766 0.000871758209794762 0.00023364409416536946 -0.01642593025749736 -0.016320575827200808 0.01836024251639183 0.2136478267698392 -0.023131395500113887 0.06340078326494067 0.17328158137451033 -0.11852340650236491 0.014127495168866537 0.017710854136079004 0.020602624935391584 -0.02237301667191744 0.01634004858710274 0.05000839045305464 0.13540167331541342 0.004174549148645155 0.011344093597349803 -0.006636935107783201 -0.045902935085698454 -0.0025438831760308286 -0.1396427653887217 0.0033079122065699565 0.011598843987684317 0.004404141512219342 0.004287645385948333 0.003264744805576892 -0.09167773992778408 0.01619989529060947 0.032614159448926976 0.005936052053598154 -0.004000441422187078 0.014275217103444161 0.024959778281929412 0.008455145230982897 0.03230858273677552 -0.012656853012263417 0.03713769309269548 -0.07797861470467163 -0.34151660032478054 0.042958899264950855 -0.08896635602954132 -0.10815458349300631 -0.010787191959317587 -0.00356412852829697 0.0046174533646263765 0.014534438477807462 0.014048754195866816 -0.004078913653597564 -0.016098664556792385 -0.010588377812715984 0.001824635681421266 -0.0021223100038567397 0.22240300240353383 0.002032009732859879 -0.007774065984287716 0.10246093532471442 -0.018516841183994447 -0.0020015228687919975 -0.008278860131255535 0.006600734091173086 0.030241512923321775 -0.01711576056608413 0.010890981953751456 0.20610248294563743 0.31719903989489434 -0.07048822431466432 0.030150138843385417 0.021474494400673113 -0.06531230020253356 0.30110668299366083
easy 0.0006924829470766456 0.04024384331366209 0.684801822706074 -0.0012762747163876942 0.005016018537792075 0.013235009470427495 0.0025536242425619735 0.0026612036735395805 0.00438671431846772 0.002042741883102472 0.0030963364254426124 -0.00021498321260376597 -0.0013274709889103374 0.000978693746765879 0.0005469870591775541 0.00030791550374747973 0.001976379066625757 -0.00031281675794970847 0.00012131828917950392 0.0010891542569686483 0.002726514218329514 -0.0020258838788940444 0.015631006262827523 -0.0011587527067347724 0.0027435209546604455 0.08609395615644931 0.03317420278168771 -0.300923162329315 0.07045111950274309 -0.029812789719356043 6.869442375324285e-05 -0.015612203180665049 0.02750591111747702 -0.009305381882422603 0.013976783653802675 0.02028520076684281 -0.01947207753622702 -0.027259721237224 -0.012607684259064356 0.019662896219331906 0.015741390994360966 0.02541714034185062 0.06866984926655637 0.02351145082916463 -0.005679241367533566 -0.033407489608493386 -0.07880424970169671 -0.289245116756094 0.07377220555242182 -0.05976406282793921 -0.008564068873526898 -0.017616945379202203 0.0046015358722477735 -0.009474709632814673 -0.003815343072340565 -0.005972664433245125 -0.001264964708907307 -0.026866708472875506 0.01127068749783749 -0.07917815814651034 -0.0619663217560788 0.0014984085288412402 -0.0046739808877745495 0.0047061121905024985 0.03810647393271298 0.004322999515043956 -0.09252407149187554 -0.2097085498762225 0.037941637262523455 -0.14888229225701202 -0.03829296981478705 -0.02111711073999049 0.012227194196301725 -0.011125333199194443 0.024650459187135095 -0.024993399235599182 -0.010181922464657482 -0.006341256933197425 -0.031032519203880622 -0.012231104655431767 0.27447679347081155 -0.042151040976823116 -0.004430832316656972 0.09295131604869186 -0.003861347823051111 0.002819454039758024 0.07585560615442845 -0.039700513508459274 0.01944845602830088 -0.34537607670832826 0.03856138511134027 0.05561497855993934 0.00439128401871926 0.03902788694992087 -0.01761593749668312 0.013101845584360209 -0.012820868136895177 -0.013318776065932833 0.024990412728265448 -0.015035475704331992
bad 0.0005481436123283188 0.03284503289123945 0.5759642261337691 -0.0011321270290430548 0.005524026903745581 0.016424011621964465 0.0037868183957250907 0.0034126183491116134 0.0063567909886104905 0.0024359684846128457 0.004457511035174093 -0.0008274405691592446 -0.0027268323788745405 0.0029560781243315095 0.0016347982274182327 -0.0013087741231496525 9.991498966157931e-05 -0.000801659256195455 -0.0039479415075889 -0.00045389463124290353 8.670424362833445e-05 -0.0022710451461935917 0.003937061667496738 0.0017549680145517706 -0.0008773979130084939 0.04696666176688969 0.018102705196593752 -0.1708942357237432 0.04257209297682008 -0.00827234541613876 0.06966373524022407 -0.1561099119600356 0.06906837780980021 -0.020838642191032455 0.02628431104063805 0.03690854220967324 -0.035628007259266604 -0.046679783528767296 -0.022289237481059154 0.025286638942388626 0.023185419722288114 0.0400084331487706 0.11079600106291099 0.03148098624377492 -0.008159174247161614 -0.054821922954247516 -0.14647733490209247 -0.3143803458943281 0.051170648010966685 0.37493583343319936 -0.011252790839490745 -0.02598854260783193 0.019770098097615787 0.015954535256762582 -0.017496523638759212 0.018982232639429712 0.0026418887095281357 0.004582738757406612 0.007445810386659968 -0.04014209503163488 -0.03393904956209898 0.0028049099174121193 -0.006466901340424893 -0.0034904837481132063 0.026013104555965567 0.0014804906352861586 -0.04359661652472912 -0.07524185118775063 0.009792293619793517 0.04538635926134917 0.007811153885217273 0.0023929045811649954 -0.06363335496620223 0.19314706055571937 0.33696650484514873 -0.21784791840635626 -0.049812316913793175 -0.05509725370778676 -0.12145129639850667 0.052081973303701165 -0.08122378282921304 -0.08705329674682831 -0.0014162857764503834 0.12705937353630406 -0.01880852983314435 0.0006351109079479802 0.08293329836452365 -0.029736736758017773 0.02524142057006536 -0.1637485668154677 0.02562456035060397 0.004985522148182171 -0.0020233302360209756 0.016725343552727832 -0.0049651479649647605 0.03501457517940638 -0.00918090355451456 -0.0003242145394055584 0.0315525863167511 0.00852210218396343
word 0.006949163502099449 0.21615176368096128 -0.015349929042151806 -0.18903425257426237 0.35080942864198805 -0.28596466020418926 -0.011951224169046357 0.24938367244026888 0.12092692796914918 0.3232001752543004 0.33353176283328745 -0.11346270812760757 0.04304985537045862 0.010715937106945673 0.012940949134582212 0.004148764877017046 -0.18504167939743152 0.05492615400333542 -0.15307831160195376 -0.04761270614111282 0.15467286287886256 0.14400249275154967 -0.0339702968725011 -0.06014794048137698 0.12723175535380998 -0.14634587334889448 -0.04710976079853115 -0.037596399255419535 0.09308622646594311 -0.03676334440296656 -0.041243731931884 -0.0648700735533353 -0.08625518487129785 -0.012320693685417525 0.05808350743885896 -0.021633549244288383 0.03421225360732743 0.006503903165226034 -0.0004564582995611817 0.1200669894387924 0.062488165985918886 0.10744191397993902 -0.06059495946089256 0.0069548868635494025 0.013547307756036936 -0.05541164556123928 0.0880734169766906 -0.004375351616957587 0.05317635721818809 0.015411767547801913 -0.0032747962039396186 0.12097881396202993 -0.01192922286482465 -0.035651648271609174 -0.0952532694197612 0.09444179204750769 -0.01424834285798159 -0.11481253973311452 -0.058338317222084504 0.04731269352128679 -0.02521600685473676 -0.022767573586441766 -0.0888452523500722 0.09349928646580478 -0.008387046753007724 0.002703654685627408 0.0022259350847734834 0.01902673836110549 0.0013357068819506335 0.007257035443121971 -0.016912828732374246 -0.016184634192236536 -0.0013125443601017146 -0.049308617487414934 0.004916389128041536 0.020135504675038676 -0.060457934386304625 -0.004652925016084525 -0.06123179598890316 0.11946012802546112 0.01974214121628126 0.0702713100941368 0.007931471303360887 -0.011553421853796013 -0.02221206354096541 -0.013082266554426469 -0.0017226453074050826 -0.07156605827876328 -0.07601593351437835 0.01862304513808712 0.11602972786540333 0.001266631427607945 0.09703016509924074 0.031891349580230245 -0.013115834979630368 -0.1601791474406866 0.008073450723339967 -0.09447892416896146 0.0412165988618234 -0.022825526326695225
alcohol 0.009186790313310671 0.27721558238289895 -0.01998677830751932 -0.17885630043055817 0.14339705736038866 0.14549659227918252 -0.1304952277022118 -0.09922912339335734 0.13811857571668076 -0.024901349565660914 -0.3339030547023913 0.211305577299554 0.004188095728360869 -0.09490923002666021 0.09803565479254633 -0.13221778072809948 -0.21479918928856068 0.028350120667181646 -0.1765288546822695 -0.04873800788321911 0.004874009162879819 0.06424406459691213 0.13021898911430446 -0.13159576315301905 -0.035374242232327005 0.1138970689249328 -0.03889191591756003 0.06341746383052609 0.004375086618212575 -0.22258782887739398 -0.058569404470992 -0.025677872830894302 0.07137786160220783 -0.010723075214258386 0.022411803510431576 -0.00026181741942137894 0.02358620848447405 0.0624251164368741 0.12696740331615605 0.09638641595140648 0.016636952402981412 -0.019417480873685777 0.18267456334546367 -0.2261716420310374 0.03449704793665679 5.556700632158525e-05 -0.048515910374201464 0.022724566387412846 0.046404675357876304 -0.004145432374089739 -0.021555181060348014 -0.08002199058226042 -0.12981877866667033 0.08280071236721544 0.0983645814152608 -0.07850493643826487 -0.012288265853093193 -0.20323725539235982 0.02901244366867961 0.15472158441954176 -0.09826585843173012 -0.029507563991802665 -0.021650441833414018 -0.05901745948114441 -0.004392565712273591 0.0037377737982315206 0.032295479720483626 0.08399881029590842 -0.01172518109510582 -0.08185601406655985 -0.05058318781249665 -0.043643726894106435 -0.00037820573911764193 0.0378730020780879 0.015457542410433577 0.014126206052898153 0.0900752978931152 0.03500257699899611 0.057255316178307605 -0.12232282619291261 -0.026834632425941998 0.05440609745747763 0.005280077664081674 0.0670400425779821 -0.019540069813791673 -0.030968957521146274 0.17517776090167422 0.117096734724084 -0.07905942641480218 0.02440879378967007 0.07852112954798414 0.03367564582004403 0.04367377366226339 -0.015058104560526094 0.05997973258107743 0.13026920510906204 0.05368138007496092 -0.13008379413212803 0.05446896959398064 -0.035134705467479765
gun 0.018376790129360346 0.3605947639482891 -0.024060256308201643 -0.06517740237324005 -0.13988271769765556 -0.03894766982324308 0.37530259016395745 -0.08332798243440864 -0.07097508841584228 0.05729745988362049 -0.2607116299676884 -0.08321670702275068 -0.0859660903828828 0.024957742450459713 -0.10481521793700019 -0.09541689868307777 -0.10167206224093368 -0.009996001058295186 0.06337680725804883 0.021871528164148505 -0.11281104389980345 0.12476307653974394 0.0038679998392173428 0.21505838551145037 -0.04255138462682324 -0.15373252555170155 -0.07978071100383267 -0.04553427174706543 0.04034136219011184 -0.002119114530298112 -0.09166718288248266 -0.04559344050224371 -0.052006178254636375 -0.03989761254005097 0.10120423145132183 -0.10747551354364245 -0.008076578409419765 -0.21539553295461486 -0.07217140694589103 0.023107763911115173 -0.05852088917349855 -0.09685809908765713 0.11664949081413788 0.07057681435953339 -0.026038839095716276 0.024673833568731034 0.12695438195196165 -0.04480446710120825 -0.1333248530914597 0.009291433670031992 0.07068900836028948 0.09389532139086613 -0.1355682571404569 -0.07212494968965512 0.02971502296790513 0.05249925627317186 -0.010644212731761592 -0.011088092278391458 -0.05907765040780617 0.061640933410270556 -0.08742714938254874 0.02995882307157091 -0.11367335009477698 0.013208740753652843 -0.061475955367807866 -0.0014837272385557515 -0.09304368663479218 0.01302028323765601 0.013504948254058171 0.09692300045696195 -0.01675023421123191 -0.017277076791500007 0.12826042256088474 -0.2171686036780234 0.10548263418254693 0.033227947099386576 -0.1113689789366723 -0.06166449753189042 -0.040687977255665565 0.1610871186431181 0.030171182724533917 0.004611024276398796 0.003669788978944937 0.04558220065984677 -0.06024550154557822 -0.042534121840565146 -0.025745043850346188 -0.02527998412406268 -0.16685803210890973 -0.011076456351310895 -0.10691049844188209 -0.061374952590240346 0.0740298958223951 -0.022582644128691133 0.01541492210235695 -0.01387389530596362 0.10030273070891053 0.02013145266493026 -0.12331374376347042 -0.06730672173535027
father 0.007913919107644747 0.24000652385115506 -0.016780200785727895 0.07900386250123767 -0.0697416966916589 -0.03776376842971066 0.0017735488788516625 -0.1122026287891545 0.2709667800008074 -0.18309490689784788 0.2073279950507153 0.07469751465730508 -0.008293908947496527 -0.03164067432289048 0.16029081820994848 0.2513642154804391 -0.10916403005955011 -0.042211065076816545 0.035639568256211486 -0.07113026655194715 -0.26980808587483296 0.10313541368961661 -0.1460686946124339 0.09752486864080397 -0.011370662466320512 -0.046270820648337346 0.11933158918320148 -0.08803061785179087 -0.1915086915950778 0.03151221964810341 0.15530975393726654 0.012947768916735205 -0.08393509020409688 0.03617640902555469 -0.034023547995197516 -0.026632663914285388 0.07365898547449576 0.06434880928458225 -0.07480340897443791 -0.0719013787531436 -0.21643839063746112 0.08610864530531058 -0.06354749865903779 -0.12313638092222269 0.024526126415002833 0.030346649860532354 -0.09588127145412108 0.010438178035456533 0.1260946125893664 0.020325844571010183 -0.060387535793880294 0.24147998384533856 0.004297146230857052 -0.004607560488307639 0.06048898218526999 -0.20121699799426282 0.011110817330428015 0.048687564238592475 0.02380706751560444 0.08879547255100095 -0.12355811694268108 0.133676116249209 0.05487015746586028 0.022902032469006146 0.05890992782844926 0.005498423260321927 -0.17871395328653314 0.06235813246176442 0.015235609055712765 0.010823645328803191 -0.04951560852955815 -0.03997147641659395 -0.059997778997680835 0.045622635365569895 0.028666013949619127 0.041450469492059216 0.09316937706977318 0.1368693089992005 -0.0548947947128389 -0.004729806532507234 0.0064067533117467546 0.020497959764046815 -0.002051163592747826 -0.11288479947794737 0.07415566299898865 0.004012027684271505 -0.004894801877518437 -0.10535649081025755 -0.08665370177331658 -0.03816916523833648 -0.11233435335961522 -0.021023509574338895 -0.03447274620084318 0.006586533519838544 -0.0048510702721205196 -0.028925619133298944 0.0694568056117287 0.09390405317958171 -0.12496521874585736 -0.020210242577826526
apple 0.015544553595505363 0.3090480513108031 -0.017963985899433706 -0.03451568106408629 -0.14277736045161118 -0.13194101467256164 0.11587262731036224 -0.21860980545907252 -0.12349237999617489 0.16375874418381606 -0.157884187757707 -0.15724516847113215 -0.01470092119216439 0.17944203925822502 -0.061944772380790054 -0.10183592922915034 0.02797787110184369 -0.12098254303853088 0.172965995169385 0.03917654254563588 0.0021327329638218613 0.14809600539604517 -0.030001428315302465 0.13189241177931932 -0.006206110539443994 0.028508397968357958 0.16216282737857274 0.03645939407090189 -0.10754921087280411 -0.02733330169744806 -0.16248059794499992 -0.005895646509862957 0.065541731487041 -0.03293140391510465 0.0384851371002489 -0.006035189684456061 -0.05200463837161323 -0.12783301981197837 -0.16369475577546805 0.07942330086740797 0.0917691679684564 0.23048735762682365 0.06917457704340114 -0.07993277674031486 0.013269308757747728 0.017386217878805024 0.0635563953810087 0.015702032709041122 0.0641666616149607 0.0037861496738023264 -0.01370567670063058 -0.0019400349915969567 -0.0508053313725811 -0.00014142460928740828 0.09702618391392545 0.12916087151288688 0.006982093315679929 -0.012355547168285444 -0.04367319849456012 -0.06268460073184455 0.07317456385069723 -0.12432320885415002 0.10511879266630594 0.14465501243480228 0.08184409042985172 0.0075800457945131485 -0.02753796401057461 -0.0028060900790540452 -0.0636977907377007 -0.02684941307006409 0.1097777699459693 0.08920221437674371 -0.010076379034820086 0.2021314159235406 -0.11838646878621269 0.012444705916250331 0.11737200445088548 0.12520812110117693 -0.059449764829605165 -0.0034350031089483827 -0.011001717386306759 0.04829969934270128 -0.00019244863145170813 0.03729303697956725 0.08097215881380113 0.013493345447689072 0.008763972904966822 -0.23949742137281457 -0.07506556766340007 0.02820378878173775 -0.04922923331362983 0.0730573408368659 -0.08760409379983058 -0.007799687734936712 0.07826793698825947 0.16087939277128482 -0.10602386989851822 -0.13260143386092776 0.10588807173305934 0.01626877137270765
body 0.01067301218272123 0.2735995976361654 -0.014202534538765521 0.05115320120306862 -0.1789160937452348 0.00394152420316005 -0.160079707834876 -0.0616535638008824 0.1109934312522964 -0.03519613248203919 0.15983683722494693 0.007833372352425408 0.16537261171306689 0.1715962224569104 0.056396828986097935 0.10024056102719325 -0.16629810957627547 -0.2077092505369906 0.1319281570651445 0.022397839417032283 -0.038603203774736486 -0.02126727615594826 0.004822154117732546 -0.014577981204122325 0.044480679742585356 0.18527036166563013 -0.03154002497855116 0.012582253261800961 -0.17636625614790397 0.15726637674085872 0.10130495527447052 0.14195531474884085 0.16418200384790893 -0.01603083099084328 0.18807400603079674 0.02602213063651899 0.0921702073324855 -0.01742394739229999 -0.037156051833930025 0.025027994987771283 -0.08042154999638323 0.1781214586625023 -0.12232765023264024 0.20786063885066547 -0.013889856702514403 -0.17732190791343957 -0.04561458149893858 0.027090986730875323 -0.0007855334941177006 -0.011615481430544835 0.046366122955485554 0.18092401659141155 0.23477469116308178 -0.08755258413248865 0.07711942942175636 -0.13621480856597157 0.000903652930877888 0.0512948838101157 0.01743933199492838 -0.02097683812378385 0.026501857991371936 0.07314502715446033 -0.06367655906792741 0.032782982561671406 -0.05593998292634589 -0.007137847825673313 0.022200967582104915 0.10274297428515805 0.0041767575922398185 -0.07438865517989889 -0.07882955442899416 -0.06332808283336355 0.08551332203882174 -0.013954951151260091 0.02718529768945413 0.011173563209233522 -0.016573847189407208 0.2036239736767113 -0.05729353463368108 -0.10304458208978325 -0.02502233202027976 -0.0939149851288658 -0.008609777930437995 0.12394979751060413 -0.05110598406741407 -0.034524338083546977 0.06802532493248559 0.11024550412532697 -0.07040687718856559 0.0188901493993625 0.10959100975785312 -0.019473187247590795 -0.10011479948878604 0.010607354280673059 -0.02432595252681664 -0.009860844256295466 0.11359277413187906 0.02361051157616832 0.1171107902595879 -0.006559249619854377
people 0.01562240548 0.24890174126146394 -0.012932440189532839 -0.038318937553136895 -0.11281278810976089 -0.26250856849674176 0.2819284452603208 0.02250806613291297 -0.12001189225394666 -0.051567429062084114 -0.2478618539632241 -0.13164333871152936 -0.007875073413015467 -0.13251808039108806 -0.014591537831949589 -0.022056592137754936 -0.10744826326621232 -0.15315419273593409 0.04050115946881932 0.03668065175786352 -0.1717921726501291 -0.14939757980567853 -0.16406699385783238 -0.0372666651877413 -0.01844517586692012 -0.04764368251620086 -0.10286465870090968 -0.02678731786194944 0.06904188372202243 0.017656734446441762 0.12150206369518836 0.04447693378794388 -0.0813917432522473 0.011441722873565137 0.03740988624625773 0.07425450320655687 -0.017152722857490334 -0.034501840484590575 0.1293899234442275 -0.13042730601138347 0.026329939084236902 0.029845635989388147 0.06220439360440033 0.2468069686784478 -0.0011294126368564038 -0.20798493011128252 0.16901007118016553 0.003220329091152123 0.04644396143063104 0.007263471963174755 -0.008936094806206805 0.15635224768980685 -0.10823539588882188 0.20643870616852963 -0.03272979919443708 0.05676011563672251 0.023251524729614375 0.043165353254016874 0.16166068919444795 0.12646378254979657 -0.1481550885676909 -0.040288876336237206 -0.010250083384085354 -0.05896826496705844 0.09979645803802194 0.01094448915414711 0.04722509168290501 -0.10788804834085008 0.06914130391317475 0.11259731316771367 0.019130771549466685 0.031484344984607185 0.07419878934614275 0.009453107017616659 0.010661480166977428 -0.006563110170708227 -0.017679262857404572 -0.07639408679371076 0.18079481914135195 0.00372584427511505 4.861104863674773e-05 0.08922918770188644 0.006425568439679129 0.042823056819035026 0.01866688109404051 -0.04588273826261864 -0.021309112496574457 0.0890331235423731 0.1088316149934585 0.008658581120827274 0.08963600518698862 0.06933958349859495 -0.06644421770982588 0.030149757892850303 -0.01855450731555328 -0.02607413283467554 -0.07036472738423918 0.01716612019628221 -0.10855067494007516 -0.07877365923131166
task 0.009904454976263737 0.2588955269948292 -0.014827695825638875 0.1351913949641765 -0.16565459131763033 -0.20252439651229326 0.1522386524204566 0.0816953334204584 -0.11515045856149027 0.20503059571571638 -0.24671090101792004 0.03245098081026122 0.1596023244363015 0.14828700243161808 -0.07492194556822446 0.019388599230511595 -0.027636267281214 -0.0776531035929821 0.050986134158448736 0.06914977277774323 -0.024404969576696637 0.06448500015858229 -0.07647192065820926 0.11080286723905097 0.023540824942083042 -0.10344682766395524 0.07785334667193995 -0.023260053065085967 -0.0065690473496152185 -0.18195258637152953 -0.16152302605857205 -0.1680626464692324 -0.09726217580352708 0.0026583214416512567 -0.08039528438493163 -0.07934749914565091 0.014048412155871676 0.04181038683131234 -0.0031637147749636017 -0.21590194806334284 -0.12047674427649983 0.09425576959261005 -0.1187266152144205 -0.12195648168352642 -0.019841358863754974 0.30814409788686503 -0.06940244002336886 -0.07351776367739937 -0.031364074143921394 0.02402915158766937 -0.021602392140959888 0.057289786806991407 0.16698274181438594 -0.173747872965161 -0.12116148705666605 -0.08861230672255051 0.013842787533256675 -0.08535488196066975 0.13036598651278933 0.08895695931143095 -0.06158933742796478 0.01284897658554105 -0.09138879751599889 0.03157206747542753 -0.013535345947530898 0.0004593864644273911 0.11537722893283414 -0.0006474889128818348 0.02783501091298519 -0.06344326854103569 -0.08255479460779569 -0.06545761232480041 0.016123061465886802 0.027542693445020344 -0.022182950704886777 -0.16825405548341932 0.02127392048668578 0.03759342602138511 -0.03508367281533121 -0.11592447738433367 -0.01136907985508659 0.02973568481765199 -0.0008891761373549252 -0.0047025489630138275 0.043727324154432416 -0.006767285006423667 -0.05396047945893562 0.013868122654180654 -0.04831750643357426 -0.004297681210115248 -0.03983508060939065 -0.05025920036037102 0.008073022608236618 -0.04462438402472131 0.07270881825260533 0.1326848469526001 -0.029789007638853244 -0.10781541325216593 0.10140800436319593 0.0812978317149323
keep 0.5024124516020715 -0.021564073800668222 0.0007128375286618125 -0.0007998792539005163 0.006337104807060966 0.0038066526012494033 -0.0035103810906353503 -0.00152503005116518 0.0025734821731753727 -0.0023530210013351705 0.009467745214828495 0.009483544716341026 0.004689007549049569 0.001129413603002034 0.0071159563827692335 -0.0063074172979441 0.026057771700334072 -0.007801202338225865 -0.03686094170308 0.11102627939735714 -0.03013196647093025 0.0394425857515654 0.0009643766144992328 -0.011025258922082375 0.014839875666618204 0.002271946370325408 -0.003820913858025629 0.0006667375347195329 9.475468327759316e-05 0.0011746874708187462 -0.002047238244173836 -0.002840462440775409 0.0030552460979358246 0.06998320364192936 0.0069807328970109645 0.006374612515976058 0.023811125315053448 -0.028265295745190638 0.00501862601113141 0.008591707825738511 0.011029170817198172 -0.015951017028455767 0.013361348830646868 0.07096564841136505 0.31840800856341417 0.04048918922826495 -0.006524384786993628 -0.007349422103655735 -0.05572030149057549 -0.003899042758399562 -0.23390123030987128 -0.003219659511038595 0.03587241788710587 -0.015451684861836344 0.04490434722219361 0.026661831265057476 -0.26272930292253627 0.014275748747938558 0.020379847991476675 0.011552024001204452 -0.011424633187479537 0.0002918275418497344 -0.002375761910474424 0.007669767035275549 0.0431692879489751 -0.36619684672468583 0.022591529284454726 -0.07220861341429358 -0.3640290678192142 0.056252227851144546 -0.26580107760676197 0.0569749031018564 -0.007496032533547157 -0.004145936528773975 0.012591249882939543 0.03335750465754518 0.016917749856667167 -0.023979180108392388 -0.04183162272360407 0.003481015017339724 0.012970937074640596 0.017705884702402815 0.2629222671168729 0.013862923744650615 0.03963220954885828 -0.1604126280681221 0.0032333648297977586 -0.006233991530761648 0.016520109440976587 -0.024590401404799293 0.009136797027334656 -0.006536075937312327 -0.024820427669320345 0.021725499200144147 0.1473555973164796 0.0039750112329649005 -0.0006444741856644477 0.021963841868565023 -0.009508700723041582 -0.07384856665728295
forget 0.5034067977194632 -0.020945656771779054 0.0006707739108212521 -0.0006821116050033976 0.005663201539546783 0.003991609948469681 -0.003760793485998705 -0.0004095883704061152 0.00270589970176947 -0.0019936298977361435 0.008969643249240808 0.008013889730099581 0.00429528491542097 0.0007713481239349632 0.006443981756801627 -0.005615089604917087 0.02408879559929179 -0.0071207946412980986 -0.03571231447851935 0.10934532919987615 -0.031018231962608802 0.04084901547994031 0.0017705281716914561 -0.011938817253409123 0.01556788948484935 0.0038517184476055118 -0.005001946741047242 0.0017700999875182517 0.0013966593196359115 0.0003514825355177293 0.02298975031011165 0.0167822962195011 -0.010937645371009636 -0.1166578228820159 0.004014494080786225 -0.018136040353497317 -0.0482982290985913 0.03340569966168753 -0.001007189287091545 -0.0070643299885093025 -0.006888263585839085 0.011225059089520734 -0.011295371930762686 -0.08593700875137415 -0.4530549850042638 -0.07661463581349436 0.0326491043701246 -0.004275560052992692 -0.027725780422821044 -0.0011935508361514636 -0.06436341966814928 0.0009364320376699053 -0.01106462269105348 0.010009001117639627 -0.022219636506999787 -0.029647816190973203 0.41582000536356956 -0.03542080650154566 -0.056649602601972444 -0.01448870460288296 0.012337286360383646 -0.010340894099491384 -0.011725548540523406 -0.004475433720885455 -0.00538324091569294 -0.11257676988464184 -0.014933607812257294 0.029964753853927342 0.13387556619713284 -0.018363503221948685 0.04250973161089167 0.028136209715345882 0.007364494357776697 -0.0006434112812502491 -0.002330123770131908 -0.007102796154604589 -0.014296850395493969 0.011342132850768415 0.01450901890010536 -0.009195966449084006 -0.0008415408332445186 -0.009417928912854076 0.15077235635366648 0.004847325918442492 -0.03165618146019144 0.1740758283890552 -0.01976044088295379 -0.00728974126707218 -0.009238653971766679 -0.0010197501258204858 -0.05319892623684246 -0.026148920658794338 0.04507327954552095 0.3488497849923246 -0.19932257222672584 0.1363623844142025 0.013788999470463333 0.00022980675636730474 0.009132681810619025 -0.17371510170068127
join 0.4566996070639295 -0.017931680752248335 0.0005379131497017253 -0.00014565887005808892 -0.0018693303888546585 -0.001041539851156646 0.0011617371141560671 0.0010948761431283035 -0.001387943491622264 0.0016538736277417387 -0.008370250124002422 -0.009983249525170441 -0.005238285362681376 -0.0016678977964176558 -0.010096081280867872 0.010862698513127333 -0.047280520454930024 0.015628240586821038 0.07192459934429271 -0.2327507752451909 0.06534300840508096 -0.08893601565736366 -0.0011985945822215777 0.022731651396385402 -0.03234720818613723 -0.005554909459585286 0.007096802200728301 -0.001407143760060898 -0.0007000296739347352 -0.0028432467312322304 0.038147169573363254 0.02759774359121603 -0.022813232256142353 -0.0980148038816102 0.13513782129685087 -0.15892403339384759 -0.39484627502008446 0.20836337559725762 -0.023850467024059036 -0.024280114545501292 -0.027766169899307625 0.030670426799461505 -0.022726218330043676 -0.07413360054419971 -0.2596941733879155 -0.019544266927341375 -0.006605700969845753 0.004338567341218366 0.02900292118769544 0.0009238256534154083 0.05728976420070444 -0.001436020151855501 0.006939176434119526 -0.010121244174395862 0.016245248154403084 0.003136664408785817 0.04961427449743496 -0.01841554353204375 -0.03871991759407342 -0.008658057706166315 0.006985081159599563 -0.017754973694419963 -0.026338939559380464 -0.00840479245760364 -0.04818681762916279 0.26954718417883844 -0.02800155613575118 0.045494325429859726 0.14612884849960375 -0.0026962179530091034 -0.17215045423588324 0.29510781873001785 0.005335928714430339 0.005090915095791854 2.1678977446447835e-05 -0.006241021507791825 0.0004452751655997193 -0.004659439175075937 -0.0032870908145915287 0.016833498974494786 -0.0008921061990359479 0.004303671068736766 0.2371898605412598 -0.0014295183772778596 0.027849069745327838 -0.12980831473314272 0.04914542832932065 0.019445033519090726 0.011290258411078422 0.016454316225186748 0.04172153362040701 0.04705074816911749 -0.0263282676722819 -0.011608783884252082 0.1625889784141688 -0.02958679686077435 -0.011111492981709836 0.019927736947524578 0.02726301130449434 -0.21500240339809634
hard 0.0006545093360094016 0.03585428346476061 0.5795509052304347 -0.0006202513029911434 0.0009424313635544893 -0.000327394005989391 -0.000941317948055042 -0.0007411400331937982 -0.00210916812236135 -0.00043402307253264863 -0.001509731161598448 0.0013027032300258054 0.0022670555996656423 -0.004344614103308815 -0.0023404577194998245 0.00306693517002596 0.00703757145654279 0.000953966861273498 0.012450413803006374 0.006621478449368094 0.014128403327758417 1.33238017928382e-05 0.050786437813524876 -0.007265457042667758 0.010039115043443759 0.16815770064269675 0.06185960676757877 -0.5310732640667466 0.11764557658347656 -0.04211628704654311 -0.03028502452539044 0.04243155468289275 0.006836329204407925 -0.0037276257854101384 0.005145062741437975 0.008626788704873937 -0.010518049251200836 -0.015072874051782642 -0.0027211000541301315 0.010253701054846402 0.0038521836257321015 0.002116060847756567 0.002422187975014349 0.0027074880333922014 -0.00044423502594282175 0.006953451954807558 0.03727409432987405 0.038988345880584516 0.010005013931763554 -0.34003113712888244 0.004509651041762336 0.017239012721541436 -0.01728312841948948 -0.022149181675128735 0.020405199134831752 -0.03337371075100908 -0.007007731063197942 -0.07174747703119931 0.015452597530740944 -0.06397927326592803 -0.021369669634202282 -0.008477023942297598 -0.018467872406583978 0.0017098435563410203 0.039135879569474515 0.0015220476042171335 -0.06824165609873335 -0.14820916829530223 0.024419286456324556 -0.12866265215637235 -0.027798667000552214 -0.013946806485237195 0.03290789793041915 -0.08578215173960549 -0.1371778277226652 0.08595963708937933 0.019693638885483238 0.022658409008112945 0.0512646506479774 -0.01645323362681095 -0.04195239992066586 0.051105455194537484 0.0032871260799195124 -0.09447406136193919 0.015292365490084267 -0.004075986140126838 -0.07190525396385389 0.03674815836923904 -0.019332739749135762 0.29252435793809917 -0.03287359104463198 -0.03159470630523824 -0.008342960369163904 -0.013034938177441361 0.005553513974532418 -0.0014458892912866308 -0.0014881067619131347 0.011645970039794708 -0.033745221173796705 0.019801784975128904
happy 0.0006718926022155053 0.03910870226228079 0.6716355342201612 -0.0007937573269059206 0.004240202577064074 0.01390281367973159 0.003029462350633554 0.002764078336192429 0.005000632297766242 0.0018499564197811394 0.0029136107803470596 -0.0007788847275547134 -0.0012723074592242852 0.001836921128041979 0.0006427973797955107 -0.000677326000496515 0.00114634556303097 -0.00031135540391276454 0.001485514232775476 0.0019493019521801146 0.005103656980387189 -0.0005890400441646851 0.020022379916013713 -0.0016605465484267827 0.003025449611434789 0.10456064436615264 0.040072214497580805 -0.37421224594298447 0.08866467405575802 -0.04183524366476075 -0.019239169837797852 0.01794335058910285 0.023096053301891305 -0.008442876119661923 0.01295520948142465 0.0200499947499199 -0.020169114003829088 -0.028641924903422104 -0.01678920870021706 0.01580331522630951 0.014421276932186642 0.024812767217678437 0.07112333589415964 0.020027313995159994 -0.005076890468407762 -0.032971578848783635 -0.08545493419589284 -0.17100999547663148 0.03065793921912396 0.18321619467444197 -0.0060722965426251545 -0.010345184720935792 0.0064549343095935165 0.006560778577749456 -0.0032946087625054204 0.0013223418034981835 -0.0007700106022370182 -0.030513451343242255 0.015083169383941915 -0.06827466483960684 -0.045405822683055756 -0.0009001078832898277 -0.013233728494267193 0.002962040068750855 0.058364039040574696 0.0063689944122906385 -0.13967712669262483 -0.3392714413274632 0.06117110518830137 -0.29707506708185116 -0.07079569388590125 -0.03140016433156883 0.05064236624185513 -0.10109459933047647 -0.10973624336249849 0.04970123340900059 0.012267062268360421 0.011468339115256188 -0.008213388396928367 0.006718284531518186 -0.08669190649542995 -0.0021942197652033394 0.000618220703605541 -0.009735347635790351 -0.006758220246199833 0.0007738222282378816 -0.014709233222108056 0.012933122564093033 -0.0042988623402413165 0.13922611808065205 -0.014026972121640342 -0.035332877582903655 0.0030913752116978666 -0.027103850314721366 0.014191992534828996 -0.015485877396709665 0.013830861458895477 0.0023677984656573494 -0.006932210663270032 -0.004113899922300789
strange 0.0006054601210724323 0.034978716372440766 0.5915077569951022 -0.000831884693556656 0.0032341555721249675 0.00770954779735894 0.0014941280625970525 0.0008771272345569232 0.002159200308536354 0.0009855804050640333 0.002116633524396007 0.00068832319592313 -0.00047212823499385797 -0.00034742555407516726 -0.0001870439758784304 -0.00032898894783088843 0.003914950498191789 -0.0005853247007701033 0.002740078212357008 0.0026876645176412734 0.006663058921879715 -0.0014354076730103138 0.018609471777483517 0.0006223895409041985 6.30795377735182e-05 0.03109996773345948 0.007886941428768598 -0.037406637837959826 0.005827911197719732 0.04471290434475508 0.19566553578094445 -0.4028255590519464 0.12170242081719627 -0.03436993928983689 0.03431351786758487 0.04722688757974969 -0.04849216785794277 -0.05772462874287241 -0.01921665207236687 0.02030724681525965 0.016954905892376436 0.02630218667287225 0.07394920454133101 0.016562872115216554 -0.004124861677995639 -0.030774082321173152 -0.08690962605877468 -0.0635137607934328 -0.014989931756490294 0.44758495609627785 -0.00359278208468209 -0.009739278747278188 0.016257212426951786 0.02800679738776529 -0.016536777406483245 0.029564947298086588 0.004861937931886761 0.04053893897799957 -0.0047887212990827595 0.04115905039068433 0.022102709880417522 0.002681468493224893 0.00787976950608507 -0.006510498850848458 -0.033011514885940764 -0.0032693205139095087 0.060058564616220125 0.13389889371488525 -0.019418647419487463 0.05908239484853887 0.019107268062446305 0.006312978936842007 0.012782079881703056 -0.0586680464953567 -0.13627890184880986 0.08961383330104736 0.027128285182516115 0.03265761563006468 0.06270774332088376 -0.035940860754220066 0.10761020239249601 0.06533881960331776 0.0008243490753429205 -0.10569433659736888 0.00983068591043988 0.011515670856248439 -0.0713780525048267 0.026730753231007338 -0.021870677460364966 0.30117834183631226 -0.03959466930454776 -0.02786453381457155 -0.0058059903065539745 -0.007965028900155513 0.008066524682395677 -0.004092769194829917 -0.011186283606857719 0.0021560195117798597 0.006423178779901984 -0.017393565088378398
friend 0.007690478405026856 0.23812213550441272 -0.014070848296468728 0.11990681904324237 -0.08593433207244684 -0.1303304140554903 -0.1246304560109245 -0.06812924915215375 0.1362303643263795 -0.11418432688807664 0.1755499711690567 0.06777368688884729 -0.0647028141718713 -0.21985805302166675 0.09939512697461991 -0.050110036980099394 0.13985951772771155 0.023977831020862293 0.08422743254110633 0.04496719312142937 0.20221154446548265 -0.011560158378399186 0.2105760083669067 0.03565800584033894 0.00015090955064550322 -0.06814267969336735 -0.11412457725392736 0.03933637779473816 0.01897764851673547 -0.0038302707218713103 -0.11066905769675141 0.06904129863553303 0.23300684190904863 -0.02921180230891671 0.0025818898815105503 0.0013007545592058564 -0.05689573303354728 -0.058921291045926465 0.23124118235817417 -0.022108373414950797 -0.1155900216115761 0.09178107664524683 0.20192405550999726 0.057145796625718503 -0.03050160101665222 0.11348328065910702 -0.09904642437137497 -0.061921063264953356 -0.24657406534006454 -0.028412693257829427 0.05659270172475442 0.12601373479958958 -0.04547905355786094 0.09267333883034533 -0.01897921474880026 0.006217577449299245 -0.01740577862639523 -0.03381516198780189 -0.007103792485719149 -0.02996111954855669 0.025267121732033576 -0.2864364401162332 -0.09238893765448622 -0.08298723673147788 0.0012825673185644427 0.0005079129669443324 -0.06728958077513575 -0.09222482190778887 0.009876044271227012 0.1928135620020905 0.039353840979074836 0.01922645697167296 -0.10879016768251541 -0.09878936868873334 -0.066689744431933 0.003338687504560823 -0.061637218789992815 -0.0228537601776566 -0.08982815692689027 -0.14673222187829668 -0.009680843391433413 0.026575981302620382 -0.0066229184496699465 -0.09532272809555407 0.13796510880093854 0.06161784633573105 0.1655345218595131 -0.022933131711082088 0.09434700982932884 -0.0036512743817948496 -0.055482088333247366 -0.024571184373581766 -0.019286828146890048 0.014266785415902638 -0.04676525355534996 0.018454855350959438 -0.04553222327592125 0.08489176720995073 -0.011221769114152992 0.018957819110464038
woman 0.011086534011942524 0.26860671589072765 -0.012603991951880913 0.06271321251884855 -0.2224777921062029 -0.24843227799542655 -0.02998905791716123 -0.13053078589181483 0.03137804283771535 -0.07573305592444741 -0.023347598607931116 -0.1616776682033171 -0.046212037049698555 0.022956832512699386 -0.04342096987285661 0.15576216240092783 -0.022719170717997082 0.08202284771779428 0.06890672229718883 0.0799997489205688 0.007734687148267392 0.01617141745295354 0.07180946885846791 0.017789535960937707 0.03502607921382264 -0.26509179830829466 -0.05987802747925441 -0.09259523381852384 -0.07157483648665607 0.017533881776752473 -0.03135086839834216 -0.06879531929404338 -0.16387157420209536 0.02235129682304958 -0.15534341762236922 -0.14194613586057728 -0.007172876789352555 -0.055229932507033355 0.014569885265536564 0.0006195332914036559 -0.05695059801359137 -0.04420045164970959 -0.05559381115733422 0.12922764686441607 -0.05712493952305275 0.10880564292595868 0.012812007141555698 -0.02641618054694955 0.18916885962910965 0.05508561639759337 0.004138950271786542 0.014088714495025974 0.08747020158155101 0.0815627022362419 0.3250195209458861 -0.21200092803062418 -0.016507477649324354 -0.07518500691326792 -0.040578215220732065 -0.02357850599498682 0.03947530359075687 -0.082699332762525 -0.11352604201487429 -0.035099168120507875 -0.0448504726280074 -0.00015578992799694064 0.08546395335275624 0.048778530717784645 -0.007342057382431458 -0.1322182668338964 -0.06873383941590339 -0.061180822605882326 -0.08773905640159431 0.05639135192157915 0.0670478969601221 -0.01813698529234199 0.04415207918419189 0.3056398948933611 -0.018472551593415976 0.003711607903550388 -0.0004298663418459687 -0.08054757931690013 0.0015346644467080627 -0.1091460237680418 -0.07997771206542427 -0.04823857871396512 -0.14542634680631408 0.028506405243164595 -0.04996783204667296 -0.037800326155742 0.0925946784028546 -0.05474641610547224 -0.07461610626329901 -0.0029953358734697497 0.016261500002152412 0.012612409985510801 -0.02972478724375438 0.08959691094930265 -0.17540548750839127 -0.05854052349236351
cat 0.007476174671395405 0.22782796886496326 -0.016000845938279683 0.013693920885381562 0.0798662622776476 0.16384119775594091 0.04344666923085208 0.14530278123983295 0.005387513926754355 0.1469386309844457 -0.07643411717320747 0.10084172078486474 -0.1491460204418863 0.03461885017260149 -0.05258769646224244 0.07753623531546294 -0.04150013345646529 0.2340135453937044 -0.07762153678662355 0.19535329993566006 0.17527480296135 -0.3210489257654175 0.11188154010534311 0.22332532619252318 0.011497590708588525 -0.00013032078444303303 0.06655049172384243 0.0514403952460169 0.2467990587481095 0.2260815509605445 0.1459460592801821 0.07799838561358137 -0.05961753462672422 0.045338577605316586 -0.01932230206270467 0.014384410403180949 0.07094155478853179 0.1359326110694032 -0.04085152188405649 0.08630962646959343 -0.032378168253676815 0.08179875094346317 0.05906589723755798 0.04469330092432878 -0.006197257049312654 -0.03269234324749908 -0.01038269432411489 0.04982923095149317 0.15557509695749405 0.013815110367987975 -0.04818104065704384 0.041696187445762346 0.003927054451596295 -0.23203967714263707 -0.08899969903841837 -0.02056151550596049 0.01240044403597676 0.021661628430074076 0.07096897223379123 0.0090861399935423 -0.010089677266350109 0.02916196962360989 -0.10779412371904158 -0.08138258746389312 0.056851525301198656 0.0033189406666271942 0.00893535744167656 0.031058334030616603 -0.03358966920230726 -0.056563684042550105 0.045723396008734 0.04638114125680208 -0.03072548091557855 0.13531438554278075 -0.052741558143822094 0.07941030400277528 -0.03835712586947156 0.03926249099869838 -0.20183548857406874 0.06617519464380463 0.027413353786822494 0.2408644945219798 -0.0024916234973011253 -0.09172055857584903 0.01557616289398868 0.016331037176939487 0.023818733345046156 -0.08658176469002593 0.09277113299033195 -0.025160242952438627 0.04008613156451288 -0.09059028715299544 0.08623814600672268 -0.019083711516938728 0.022928313709308583 0.049403443179501946 -0.006715522894761018 0.06213359153117703 0.08106684284021187 -0.03643437051272887
mouse 0.011406594578462022 0.27131028981822103 -0.019620548847546944 0.0435431372274949 -0.10115132179614517 0.047068611125174666 0.21807785592014708 0.13382271721265238 0.007703041049544263 0.06680687603303381 -0.3073249309169993 -0.09961052767035648 -0.22829670557567194 -0.036618877698033084 -0.019625694995759845 -0.09345226862783272 -0.13051459526802323 0.00305455465073831 -0.09228473876403369 0.11787956441973688 0.07553029535808448 -0.10879535482785244 -0.07147144901945687 0.27729052062445897 0.058249826270367795 -0.008053479262389657 0.1586258586559605 0.049852451224787375 0.19848216027848053 -0.06295600856575073 0.12475838473063329 0.03452173021799947 -0.04377651707241047 0.015712011590617775 0.00903156204074851 -0.03789298386657283 0.0186347167409436 -0.06755965080311946 0.06793152273675915 0.0691634079554123 -0.11847415084644951 -0.04690307417688617 -0.06042693194932976 0.15695302947810275 -0.023446856193274163 -0.11406721945680891 -0.06848374782371895 0.05214663204598124 0.20361980621539283 0.026554109372042483 -0.05211176352633977 0.1605240738428465 -0.12430592029034489 -0.11968470518820735 0.002322330569997954 -0.19154976161342102 -0.0022042322973208025 0.021187969275508554 0.11789475253023886 -0.009633479513836696 0.03103564527111371 0.0344429467186636 -0.09350046335353511 -0.11770831893479758 0.0429375090054578 -0.0011719462753969736 0.001677985624280401 -0.02443662875411696 0.09780424321555696 0.1627585528419975 -0.09448613931629721 -0.0705319457664934 -0.0073758011343800865 -0.08151398004992126 -0.12749843706370761 -0.1230513112233551 -0.029557812663417192 -0.05329683896433065 0.022755334553323944 0.006819504715532264 -0.006376612765547948 0.01969445775538226 -0.001863200205202861 0.11000365443057272 -0.027520454884636177 -0.026777612629340013 -0.03222248709083528 -0.18324143864649556 0.04454088492033603 0.016427071383402145 0.024113356925920402 -0.03776850735045929 -0.07017071512593713 0.003120947145558634 -0.020782236991947433 0.04669254834755999 0.0850727553209412 -0.0626841115704654 -0.1348400680259444 0.004812673541714087
flower 0.0076422564299794835 0.23485159800441943 -0.016515329019317432 0.12049942348559937 -0.12014414502868097 0.1127165363689296 -0.0034840846761325516 -0.050352432751363356 -0.19458023674573827 -0.1761832791773232 0.09737107454767972 0.09185418838579837 0.025085892729019 0.10523137197410089 -0.06739348068574474 -0.0729821191098555 -0.17207534156794504 0.09774242824288996 -0.24477434394186726 -0.03295258043648306 -0.050423588486891026 -0.017004741330114374 -0.09123693829071138 -0.2927079274205306 -0.16324604708490678 -0.09424881103343428 0.01599394019031176 -0.012935213698240945 0.22434446399401806 0.16409939558264752 -0.191833321540001 -0.11900009653573215 -0.031438660272093105 -0.01149149413012221 -0.029542733635897458 -0.04631334347029135 0.029453475739812718 0.12960648293637142 -0.14257441225311657 0.1326085819494494 0.015090755599375246 0.11622370354804108 0.00883442529116956 -0.03616790809248212 0.013444176856235343 -0.03490222802580176 -0.11507922514721768 0.04752031430671951 -0.1040966987778886 -0.036939477062788814 0.0008977671271078539 -0.062211681490625316 0.03565346895505598 -0.1205047415537816 -0.14788387206921613 0.08217106587323361 -0.00285973987508855 0.024088494148055823 -0.0529578821005936 -0.04645711289249348 0.05245562371799732 0.03462666825188566 0.21865506997585824 0.03814835426424975 -0.1564859444750531 -0.014107409839042203 -0.08958463306298661 0.0038884601511445325 0.032938673008355755 0.014031631575250164 -0.11243441085482918 -0.10474159162377229 -0.14258898787202873 -0.06974982988409888 0.017266646006590353 -0.07743298616007976 -0.1273994124928612 0.12876419440569867 0.10469956131285747 -0.19775473646864153 -0.032796375684289135 -0.015210406166797547 4.342394226184895e-05 0.05845976218135832 -0.03025398427044853 -0.026548901248953365 -0.06643927598108065 0.055657441887890784 -0.0640992194268285 -0.0015175267143621742 0.0504866641935159 0.009976130493401219 -0.08572770900383 0.01945923074903323 -0.002211829017219864 -0.027051435059800545 -0.10876957180991059 -0.04538256406011174 -0.06768085954949501 0.014379161869966213
cloud 0.006919742701137829 0.21613240474645382 -0.016130804183103954 -0.12076761600965277 0.003426908270243015 0.1497471608888073 0.22699453882490295 0.10920957356619773 -0.23688187470205135 -0.23447624711009524 0.30399446671288943 0.03797919857583662 0.1503246837205821 0.23507990432028794 -0.2964567564134534 0.07759954615585693 -0.2132065441791555 -0.22115092772557857 -0.17514174523480894 0.02488669666676199 0.0686687904140509 -0.11084315988368486 -0.028078223505460603 -0.21554106705719037 -0.0458797979022771 -0.010644558705574434 0.09730066245392971 -0.016735045704421306 -0.02810956334966179 0.12499427246048232 -0.060319300831834656 -0.004730155028069838 0.07181846352256849 -0.022315561347102445 0.056998805167808364 -0.055690500470035605 0.020796141957830507 -0.035271793317225 0.007191910953159941 -0.015655409738448256 -0.12344731314644326 -0.08072463323534215 0.014050187300077042 -0.038453243278469856 -0.006481428824764831 0.09141007826473324 0.032150690741943926 -0.02913294379230589 -0.013095045187106764 0.010792054820485782 -0.00037158692429068005 -0.13595573343926276 -0.07570878473692351 0.13965955467639804 0.0940417410048319 -0.060557593424816036 -0.014958829106466644 -0.002543360980777881 -0.03592598275598096 -0.08283736775485567 0.09593764809710109 -0.05031251172017027 -0.038027626129736 0.029311414295521157 0.12604796449139632 0.010066916235487534 -0.07426384695545839 0.03012019203494746 -0.02463706557374213 0.07825942604084973 0.04205001769238343 0.030048887242338094 -0.03708856006922508 -0.08661466673297481 -0.07622126069272574 0.0066436349687996376 -0.06307699592381798 0.03560217999319932 -0.15770732913379465 0.04569491199585523 0.004625284202640341 0.022765863872095324 0.0021873928616166875 0.023469075191280803 0.06092173534200851 0.01469953151280851 0.11141362929680765 0.055670321762761474 0.05148537154477651 0.006864992780581669 -0.039806322711574374 -0.03377532321182787 0.04949745669824719 -0.008612079740027746 0.045199512210971356 -0.0358577450650425 0.04075967027057426 -0.08394854949174729 0.07180668479047148 -0.05272137369357518
god 0.007012897378246349 0.2114052181484748 -0.016341375460488954 0.2214161240525175 0.011870719932766043 0.04119411716456265 0.21762230123904858 0.18403126840695033 0.4898166163316352 -0.11716518423611465 0.1310765927994029 -0.008302365107183714 -0.1657919724873913 -0.020728885291016696 -0.1153780550826635 -0.14814154838208188 -0.022184771809320075 -0.05180838781720061 0.10985392979203847 0.05866178104259858 -0.014939996371340565 -0.04047905710132695 -0.16094142411142448 0.12541521273232617 0.09040218679211817 0.126524881526207 0.19890104215716622 0.019329059166162336 -0.0806639384268397 -0.1358448114633278 0.05006779994326521 -0.022398275729573047 -0.015509325897330126 0.03227847466259411 -0.14407477762076584 0.08505959597458496 -0.068144731392598 0.05157339142502246 -0.017543653201764996 -0.061310434530031474 -0.03687369733356969 -0.0038000127381642972 -0.08856333760342053 -0.011043079412771255 0.026582116574239426 -0.1291053114458211 -0.04002894560059517 0.05478773185212268 0.03775706841366451 -0.025771085998628093 -0.021982372876349184 -0.21840875672039628 -0.0250231693007257 0.028685899714215233 -0.0592315405756658 0.08588055750932154 -0.007706387088451114 0.02291216061486209 -0.07289084893891078 -0.08180407739166087 0.08145382756491781 0.08115159384052519 0.09415664226283299 -0.08330216724544669 -0.039641840380473706 -0.0047081962289170975 0.09472358206307159 -0.03125561766110176 0.08223743277741861 0.057786741644002604 -0.13348320338854955 -0.11521592976661141 -0.08750121303517952 -0.10097912960804317 -0.06665396105459177 -0.1750475488935752 -0.009954676996574471 0.11589486114989254 0.01745544378437362 -0.023452086126180487 -0.015091334600065771 -0.155631524201355 -0.0006445224381264657 -0.009154493373156417 -0.0072082385815770795 0.005598678959780583 0.07631635293610593 0.006950544910443884 -0.025071513026918964 0.008689757356730077 -0.0027569741324261687 0.016146266424720876 0.01737100265671261 0.0014665919708645454 -0.0268938207604933 -0.010701824167080475 -0.012607517816892462 -0.04262078399329525 -0.035480299263921176 0.04980786907617815
stomach 0.01760664708226844 0.2922227422043675 -0.015603935047094166 0.02181227234349257 -0.11489775042157446 -0.1598339743817827 0.16221058314362086 -0.028784386949917133 -0.025155814639699597 -0.0195283994229317 -0.05337201278981347 -0.10211574308859483 -0.11320447397077729 0.13972308729292632 -0.16390827280668066 -0.0447879318500073 -0.21395559762483354 -0.0943878415652306 0.03497704559796082 -0.0123374439068193 0.0729085855909711 0.09836043671305619 -0.11797475446577456 -0.05727484053252069 0.27045103886322774 0.05322248094223706 -0.0012435199925748851 0.011445043999019031 -0.0053731828259281945 0.11921387086646962 -0.07899244617446044 -0.02164451997163489 -0.17699008611035605 -0.02172124982344408 0.08863157908502507 0.021777777195187847 -0.07273432109431373 -0.22261727395594294 0.035724867310485804 0.022780487843700428 0.10731895107028469 0.1302858907478115 0.055422526058883204 0.028954672738499124 0.02160844834083215 -0.1495802355997257 0.061218664218812 -0.006243288688939926 -0.20070931061084096 -0.03196081626278008 0.04480551698032043 -0.02506501684941877 -0.08960068643168671 0.18426711215833053 -0.12228372334418489 -0.06878333170825096 -0.005072068018169249 0.08107710153015045 0.04501712253122954 0.053102856328661165 -0.07799185339273583 0.17731383757896796 -0.15792012024620394 0.07568701460108769 -0.09554909443361402 -0.00023225306470407654 0.044657902547720896 -0.09801329421279131 -0.012112925345186137 0.05881499131219651 0.13760820182789282 0.12747131320881755 -0.011713898669463015 -0.06411307724932475 0.013542461556579287 0.03521887800513999 0.12917489695443676 0.0419512978880772 -0.026019060404416598 0.13380113584327807 0.01504517233993082 0.002785919811969666 0.00446742477479977 -0.03352598289290647 -0.12667468111100746 -0.06382476062456881 0.14796082356388263 0.02396217305503766 -0.13864030552288156 0.009147811590257215 0.05065664542773252 -0.009331563687199736 0.04625614960449142 0.007250272400201166 -0.025599599347991834 -0.04290367530342688 0.11604064671308811 0.15205404271150136 0.17301436536263193 -0.08052274814323057
intelligence 0.005944360477681914 0.1823386842189443 -0.013234874413999538 0.2379980616752214 0.17232620283126926 0.028493591380989024 -0.06760995690154145 -0.026961710289869073 -0.04681200134122707 0.07632644615238701 0.11233127011586494 0.003866442889556163 -0.15505525643566012 0.22086948172353732 0.12885234432810846 -0.17823911297935105 -0.04162340084202632 -0.0341758092300947 0.22750343634316264 0.050567065667065016 -0.22119224882250946 -0.1920625817624499 0.10018259183477783 0.04687877234105229 0.15439194096449738 -0.039787787404463246 0.10975657422575238 0.008388668289223286 -0.024379799462240788 0.023713907120855537 -0.02933312640040307 0.007851594597010873 -0.0642940489037175 -0.03346680395279992 0.23075794586107587 0.10162859588425664 0.03865460443044484 -0.048109506442191634 -0.1331580586070076 -0.17409217939394647 0.07588296689051058 0.09303731917409698 0.08456223566595511 0.08634024185625125 -0.005679370277488554 -0.08649977056445231 -0.028382316787087816 0.08497543508568964 0.07298193669907492 -0.03674610290188792 -0.01629304386540708 -0.2194019117991788 -0.05977495460433595 0.2044534391698951 0.017555720256803783 0.03506094217920484 -0.02340255224012533 0.04156696599437478 -0.187664148801917 -0.08182786090652551 0.05146801119413841 0.1466576371339963 -0.061934881469479876 0.018305847543491287 -0.055730940620192335 -0.0028844443191653577 0.07856044430215016 -0.025388216306867356 -0.06711754512641292 -0.0955610194768809 0.12355147665394293 0.11298728104774036 -0.04279275966436934 0.06905394289360348 0.016993423435405105 0.04796717501962696 0.17677331723437636 -0.08505072571729501 -0.0030432719340516114 -0.08704389547160138 -0.009098716133355772 -0.07724397579145133 -0.000890280210207859 -0.08749408975832955 -0.007408562693162245 -0.009629246893917275 0.08597211702486691 -0.0025805478563949457 -0.0049363292995171434 -0.02487018242840709 -0.07711329253641447 -0.14716572702015107 -0.004919007378518029 -0.01798441792330061 0.016145995355106836 0.0015549111160066248 -0.014932646027793633 -0.19259157476202657 -0.052688656556953095 0.02370977253273398
belief 0.007720026341454509 0.24498406228454792 -0.01789338167489122 0.2974646284685897 0.1553402663517203 0.10819155653998222 -0.051567177653547555 0.03397682154389024 -0.24039350219507802 0.1113523892656969 0.027901105674786316 0.32353422353946454 -0.23500727770660418 0.18790823269946993 0.21974025294089397 -0.04648639534788969 0.012502058191461564 0.18880692010652744 0.07197389714285114 0.004997379156187606 -0.029366998671265486 -0.02569572709522514 0.008227259088352337 0.011675960165133156 0.030508808386811595 -0.14924037984313407 0.0006637353268740228 -0.054157812089483164 -0.009547637535361406 -0.0049799203042601 0.06327316253443721 -0.03599467654250301 -0.24824048427174902 -0.0006237903902118167 0.14321008702087876 0.04215975487979757 0.08767010154528086 0.05116615161210553 -0.06919790099117884 -0.10047326482386973 0.007293922705049027 0.10023727936107658 0.11107102867391352 0.13060259186621845 -0.04161606211145416 0.07135749330564937 -0.09970176805243935 0.04406489812822352 -0.0036261714623341107 -0.020319250904301946 -0.0007351021876552712 -0.05024434037034191 0.02029743968436798 0.0563734656759706 0.012714693848082624 -0.0694125272450658 -0.0202634638922123 -0.005177037904014079 -0.15025939026412183 -0.030123838801025694 0.01867627767160794 0.1869541803747495 0.057943690122008146 -0.07772221942982689 0.04316183319978011 0.0007528673967011592 -0.05371504476878287 -0.009545502450523184 -0.023764074654954007 0.024773345578099536 0.05021503875172122 0.0443460922817829 0.02393675497048449 -0.050436209964211276 0.03607646905655747 -0.006126805780521824 0.015955040359050376 -0.047450215929233625 -0.03526765955904327 -0.027800755827609464 0.013407531692452337 0.058847178990970396 0.00016041342571679494 -0.10006718888659323 0.09299124884258009 0.011520981963354085 -0.13963528514842088 0.16403824425541433 0.07853997681884206 -0.04459353955196412 -0.1366774230344176 0.07893761427037414 -0.0566755478344081 -0.022379599763587294 0.07599276128500877 0.14297936377488568 -0.06015574488216404 -0.12519055704751758 0.04789529919300747 0.014150851895562158
bath 0.054998059629376005 0.2658053175347852 -0.011146192334873238 0.03699789326240807 -0.21990381686847818 -0.2505293725811928 0.2062974232991584 -0.10651737480531803 -0.15343449843766224 0.010155518405394024 -0.25787694085318535 -0.14662441762873776 -0.11331855348067811 -0.003964128952760508 -0.07957398490687231 0.08375703354032661 -0.14402007645136064 0.05085468302623042 0.13134720436382868 -0.00769650512823049 0.05779592826847897 0.04893328857209778 -0.03728779722529073 -0.05319214685589916 0.0893431605747148 -0.06256151105810753 -0.08537130265048529 -0.028866355078387668 -0.03505231071456783 0.15941806504714898 0.023939478038498326 0.039919758802587565 -0.1483935186357399 -0.041113148580047915 0.11333784927519291 -0.05092822292316124 -0.034912015316354586 -0.17549983384657983 -0.018953566047813238 0.07551299716774452 0.13317580379472438 -0.10208722421151538 0.02916913875897257 0.00940958678464465 0.04719144963022131 -0.11308356754711538 0.058522573512531796 -0.025133990668832377 -0.0770111839828071 -0.0025324188964427996 -0.07193710898094369 0.056529095150480324 -0.1886056754995112 0.16567981407392782 -0.26037921145890225 0.018913582314467367 -0.0031376107441813336 -0.021200004955030223 0.1842337517859567 0.00425259922159926 0.06162525486301435 0.08852973928856729 0.19117772599210778 0.04164881458272256 0.09892636696876615 0.01622385428434122 0.11041343964304867 -0.06945550864981186 0.020063919706298474 -0.006776392410461407 0.06825843374475137 0.04631179379641275 -0.0022078733988987677 -0.010177127967725661 0.026017077153135542 -0.042083913315279387 -0.06616777774854055 0.04396467038730351 0.10326776568163089 0.004913076361726445 -0.0034857222129575905 -0.0770647682379582 0.007463146166497628 -0.10813295820662991 -0.04807758214641123 -0.018098833188803877 0.09840689773740166 -0.037826387848264205 0.02153511311764285 0.04800657139961857 -0.007103286534634994 0.16641490188790614 -0.05001118433830449 0.043475891715575164 -0.03992750132919949 -0.08930265756572708 -0.09250476220304464 0.058689137915208314 0.14549973244134967 -0.06587514935707005
president 0.012299259947535867 0.2562570039728537 -0.008111229241911164 -0.02329643311282054 -0.040868296711703056 -0.41320196344159976 0.17247184605939725 -0.033227260470131414 -0.1322268469210613 0.00027367189335827306 -0.11642716104290601 -0.05838491405268079 -0.0991816069016591 -0.02851992653985055 -0.17605844677959118 -0.0987864571310179 -0.07680149113724447 0.02194078852380665 -0.03565652722919999 0.0036124510530897856 0.06443376221113659 0.10381546842167313 -0.028891489259648056 0.02982054708624521 0.14359773711862361 -0.05094311887353101 -0.04233994186401013 -0.04605656907693281 -0.07574302709261607 0.12163751641699676 -0.07974150515030987 -0.07277750076099766 -0.19634251247454143 -0.006491660463723171 0.071887228372336 -0.008633210861401003 0.01594919712171541 -0.06319290984857956 0.044675701194917004 -0.11899001022002129 -0.04201328320176129 0.07622739255201362 -0.09667290519987783 0.009513842213392036 0.0010895769551563224 0.05641088265606133 0.10411471607339558 -0.09239524971547723 -0.16826867266996332 0.009638077842073937 0.03715008623407388 0.07682144377348961 0.008882325316165675 0.024215400837322678 -0.18481244569457997 0.019461028060140682 -0.009233229752887916 -0.037935406383769646 0.018002574104325895 0.07298837872570008 -0.06584861751846922 0.15522682897913048 0.0012802828190006986 0.01302969226897346 -0.04954516680732042 -0.00020314118324251385 -0.08807888824396558 0.14011148043632765 -0.016218438325269792 -0.15314321705007464 -0.03928625059765224 -0.015559876199896966 0.016236088204584474 -0.16000813806522507 0.06848568422350525 -0.16832895966482483 -0.01128002045804727 -0.1882623906692863 -0.18597497830817972 0.0822726270725249 0.0451378653778821 0.1177307504599881 0.015086508891993936 -0.16784307572328833 -0.06697034654785955 -0.037644165729344516 0.15916057634274397 -0.14183978674721695 -0.029103020864472293 0.07438539539424135 0.14610858981675423 0.12871289196289318 0.029639215059659347 0.019410766271510806 -0.0059742630548242255 -0.026335499597236054 0.04886491478457694 -0.05277283570305964 -0.10958717545191331 0.008824433075959544
think 0.4386906683842679 -0.01790816623204737 0.0005728264642030672 -0.0005850909081861052 0.006308831696922732 0.0039739194682431814 -0.0038286799707124447 -0.0012480232664200139 0.0029781790038326014 -0.002545349849621016 0.012444560853580667 0.012912747258045348 0.006694827345021088 0.001672676694258924 0.010934600496805337 -0.011123864083914293 0.047300166043171776 -0.015113637570725634 -0.0702761745110945 0.2228457732680394 -0.06256325192774011 0.08398155297794105 0.0016045580903833918 -0.021898983702369902 0.031022323056051793 0.006213653863414446 -0.007352356753275832 0.0020929912049698005 0.0014343607905571744 0.0025671118606462565 -0.015219115373107146 -0.010066496622525805 0.0098690578928729 -0.019996935815609445 -0.10971867443497224 0.11610253345259633 0.2857710619172212 -0.14345565195194565 0.018157270059473776 0.01608746546184633 0.01958704515140968 -0.020558122454869283 0.01479895460398508 0.029680043828689367 0.04636232985497322 -0.01392858760699905 0.019976595040454622 -0.008440480261538312 -0.055997880114365635 -0.0024762383013422315 -0.15841627316262388 -0.0007545739318949944 0.0007614877290065442 0.004057938517216632 -0.008166944505871977 -0.01847383382453621 0.2472537787905115 -0.015886449181123738 -0.025683853640310277 -0.007440862990863391 0.005407280571172598 0.00010163745649842115 -0.0015830538492050425 0.0004448146475588154 0.012346972322894629 -0.2513849729371206 -0.0066207321476763606 0.036075919166691485 0.23142289591009577 -0.048837909978802 0.36333874507041847 -0.2652039787693585 -0.0018804694917891383 0.005895481987168404 -0.00861972637392674 -0.017836698102810015 -0.008967795265348941 0.016175579205686266 0.03373575463334244 -0.002821062978442336 -0.0036481393311718546 -0.015897448166325098 0.23132498667176443 -0.007376258323902061 -0.0480602837278734 0.34785960332338933 -0.0020812732826836554 0.006757497000199747 -0.0334310302373703 0.005550344464888401 0.03265761077201378 0.008782948911097986 0.0014638571282170523 -0.04230264906012358 0.058118669459025725 -0.027783245870283607 0.004157545091931887 -0.0036343869832970092 -0.00655704892220112 -0.042935929329236976
make 0.47579253168619173 -0.0209593210837052 0.0007080392463439221 -0.0007949436174324375 0.00656949426333832 0.003846303491232875 -0.0032612599765530557 -0.0014274404297921941 0.0024456557289011557 -0.0020127025515069047 0.008557750315911057 0.008498398221709395 0.0038458543933691104 0.0010273208667445526 0.0049058209443100485 -0.004335818209728826 0.012375891728648416 -0.003282241768259255 -0.010451807150117565 0.01340388441240814 -0.0008239590589222055 -0.004714725280417311 -0.0005503733215185005 0.0030366163574135916 -0.004452385044414312 -0.002195224814500285 0.005653621563730081 -0.0010626770905734371 -0.0005267795897728795 -0.001190133339108681 -0.03138799994609662 -0.019497465225175793 0.01052045111792746 -0.03111154770256995 -0.0824621288073738 0.0744677206194079 0.16535751945611796 -0.05772244252317722 0.001978021768950768 -0.0009921590832293234 -0.004467547185226275 0.007147671757641622 -0.006372892779059841 -0.018576372257879614 -0.03651118972957062 0.00702350206191811 -0.016227823915549316 0.014356785328595478 0.10000764765688193 0.005816948259888787 0.3977154927695819 0.0036271224437078218 -0.05314163425116488 0.02524838320088653 -0.06345103173208119 -0.028922367603267704 0.2570057658158026 -0.00558183826366277 0.006889571064173082 -0.0032660767237189226 0.005122868942726485 0.009761623854751643 0.01850871312386562 0.007048163572868098 0.03876032622461891 -0.26550610591536455 0.025320743394076736 -0.047332406158462154 -0.1831968534765534 0.0176333933231801 0.044296546638858486 -0.18155028640145712 -0.007619315399192665 -0.003704503697428179 0.005510517197017292 0.016041348687355753 0.009584158482580143 -0.008583311075836923 -0.021996192266883995 -0.004605945490582737 -0.0004029559455306841 0.0043686119199796 -0.3360500421205243 -0.004969800269201952 0.016025166271462235 -0.1441373791652455 -0.012877223798490378 -0.0020263875008023316 0.011696527541289737 0.009522046761460724 -0.001394662811453989 -0.017419068789528563 0.011683926968473448 0.16456304344810319 0.17537814526651177 -0.0589077527557811 0.01631188461410344 0.016273335574980414 -0.051699442105767504 0.3705518591326719
