1027 100
car 0.014566513903109769 0.3795503225759114 -0.027235367069311 0.04176299723064939 -0.0974447311275306 0.2336084927185979 0.025243926328768845 -0.14475940191733902 -0.13063088714935822 0.0853858530906374 -0.06232360861580174 -0.02172669195832679 -0.11781398053624983 0.001550210986047053 -0.32726488677941135 0.20733535510108891 0.11220004613178478 -0.21375797886200346 -0.11756735063738902 -0.29648271176627977 -0.2187575785185341 0.16169743668012376 0.02965946885553424 0.005339429203750786 -0.08255525743996947 -0.05386388807614758 -0.042315925873434156 0.0186475915271627 0.029049636965895853 0.015365668585017526 0.0016843193516945093 0.0998221974539555 0.19711554152853122 0.11337112430636499 0.2002664798058266 0.030465111952963083 -0.019618732281320914 0.0012672059396189636 0.008386310608906395 0.030670126727826836 -0.08225929378414233 0.0075786886890027595 -0.1483422304060048 -0.05149443379574956 0.017773941053692333 0.06983068099081054 0.004013695639183552 -0.04244166406168056 -0.0023785966885454886 0.005336062400559892 0.1474913387333803 -0.028051734156059462 0.04748966496743405 -0.08937177006602079 0.07998364581058237 0.0385486043217369 0.048835805471535355 -0.014242257746863737 0.01446036513629007 -0.010592705487851352 -0.018850539498393458 -0.04611022723536793 -0.011890633260803573 0.11268558344724228 0.06966288090036411 0.09394955734454875 0.0015092678928250902 0.025133412614363155 -0.04746425253028862 -0.0011636098175844725 -0.09979560551223672 -0.063676078728005 0.07332713657651699 -0.04148338173497149 0.047648227449723864 0.036804462367761887 0.043570460958328824 0.002095438699861864 -0.06141787994113923 -0.134557918266246 -0.007769022102013521 -0.11234610428869234 -0.027492047583226025 0.09206555028796318 -0.0030800556151951886 -0.09967391017367944 -0.0702164115494138 -0.048608018733936116 0.048906999669319974 0.02677551189120643 -0.030837198988625348 0.060583370556322354 -0.02371842480101917 -0.045971749335330096 -0.04289833673761165 0.026572094748133927 -0.0259054309609768 -0.04199447625774237 -0.0528698672634098 0.05569245037861148
door 0.013901146674076046 0.36803554064568406 -0.027887412221111532 0.05529489327640566 0.05342608585578434 0.2755306722621666 -0.025159509425196132 -0.15328135818457414 0.023629034906619526 0.17187975559787855 -0.15946907541353875 0.18039493900303644 -0.3875783831974562 -0.09825620829229031 0.001389021376769053 0.09922070178955704 -0.17529441993525974 0.060746019133364304 -0.01830056173736151 -0.0395670334917766 0.16734612972927998 0.045786217062624375 -0.12194660900292215 -0.17150052009277683 0.011343904983220292 -0.027196557375701536 0.058341757807358396 -0.05461323816633218 -0.16053939266280917 0.033478481418445075 0.00967487430909472 -0.09938783384455846 -0.025055109539027696 0.14918019318505543 -0.13595860663584733 -0.009083906114263901 -0.020689169773923596 -0.012125825625155068 0.012842017456984016 -0.05326028851579255 -0.22343821478526507 0.05073520219766929 -0.009887375845899066 -0.023350069029134356 0.08596632955220879 0.1319020610260242 -0.009045422597757211 0.0406930470993388 -0.10087260278416903 0.02603823716070468 -0.03743132826376046 0.15257517175822752 0.024801719920396155 0.0015764802389820116 -0.03497022608386201 0.08051223305869173 -0.08188252045203054 0.11885798015019396 -0.10890164279673416 0.008421338445549691 0.051393959123648275 -0.020127502142198186 0.02731621768372627 -0.1436230733910016 -0.016324119347007844 -0.12291604442058687 -0.00026529286112885093 0.011132769794837684 -0.06557001298943467 -0.06568783478678519 -0.004910670370885653 0.0189993745634302 -0.09792221819222462 0.05524014036352767 -0.04530496021439264 -0.1283374196758718 0.04280421763744758 0.07721844872282439 0.12162147751282905 -0.07526260088157523 -0.013690677690702672 0.076906092547742 -0.04549280724963417 0.0019010451245416128 -0.0005142212873115714 0.013596791245860537 0.018212309926530983 0.011812226472775947 -0.014521815979413892 0.09738523725494505 -0.008793644170859002 -0.036052013758196846 -0.024202254243641724 -0.04963484764784974 -0.05746389875883197 0.03518658457819705 -0.01824222990603093 -0.03558745920795658 0.04294765096989625 0.06651598824779134
book 0.011155905578219992 0.29993780815580307 0.020549827164883128 -0.10805066330455397 0.15957128692954747 -0.3186333234325783 0.07986705034970602 0.13703715689438167 -0.1899643449486404 -0.06858343365782694 -0.013806509954341184 0.11010591559631099 -0.07691944430903473 0.2234357852073484 -0.020916693661196594 0.1785559980552254 0.17755404192206609 0.05867717295789021 -0.10362216856686418 0.0704055336520615 0.09672140411155176 0.132274317363808 -0.016375961716732758 -0.12348755348606348 0.011413272902703005 0.1657395240497974 -0.15225117401266336 0.030220348690111414 -0.030016656741618054 -0.06542940076847235 -0.057698574565899455 0.05221478639255465 -0.04686539710097291 -0.0886493131278338 0.10195667521905522 0.20637664218897694 -0.15941312318809528 -0.05074135581669099 0.24789239685666026 0.03727213773144921 0.033986012478677344 0.01667011596262203 -0.14787115019709468 0.11154059668306546 0.031125910128622487 0.07273265988161691 0.0005727130554631923 -0.09072710863031958 0.09910636469511795 -0.015293702337594618 -0.07226275118583746 0.041875780070719834 -0.008551263120689165 -0.004273463253312221 -0.057103446437662055 -0.06677404261702774 0.15328722805107908 -0.02018316615958532 -0.012180961596151584 -0.01745518172368656 -0.004222891350078141 -0.0182896689916921 0.0756560159742128 -0.02202020439392754 0.081193550311418 -0.11610483872212217 -0.008026968150539113 -0.03537803603670829 0.1259955882907489 0.15373003601449173 0.029284264300625036 -0.0316555076529113 -0.0714443211508596 0.04360250594758224 -0.0761181323377589 0.045685495543981616 -0.0649170018261923 -0.00012365169689518139 -0.14274012809575745 0.048613532573129455 -0.0012619850044794615 0.08536311039156728 -0.0613063900397242 0.039870625903997904 -0.0029393127711539574 0.20764011014338393 -0.06224421801792969 -0.02075918687453411 0.04527860884731307 0.0017135571000135071 -0.006161910387288381 0.08889692604843033 -0.07348574273520367 0.02838751671064829 0.034705567205385604 -0.049465191521254476 -0.0023701466764359472 -0.04805414252498144 -0.03492175311045088 0.023131301083306632
arm 0.015652835863775055 0.37952575153423135 -0.025874349417811002 0.009166515677787944 -0.2136893040878005 0.07757864357646838 0.13712733525418253 0.18846389126150992 0.15612489327782195 0.05119867616846204 -0.08229458902756297 0.02971539266855219 0.13271100930996466 -0.01193474849225605 0.0686238801551508 -0.06680348469975064 0.045141435054794184 0.09051887923521194 -0.0029128360183950665 -0.14956320169589912 0.06729670049897175 0.1037720530190608 0.005258160643813709 -0.0701589599543509 0.08580241704191545 -0.07730906946609273 0.25436883240001235 -0.0835111869892424 -0.21820231186204628 -0.06013517239069085 0.08160456792288638 -0.1619293054879697 0.019939253060243987 -0.013261782814157045 0.20359432950254747 0.0948852855286377 -0.09156647475356079 -0.04200872552692333 -0.060571957497845365 0.14359050120472844 0.01678685171523958 -0.18761858256022673 0.04023180591045231 -0.044254017484822245 -0.15243899667429667 0.10907513391998133 -0.018195714158731845 -0.008097738253623213 -0.017072293670729877 0.01459457194622347 -0.09171775716847065 0.06386582781804678 0.02697701214075797 -0.018875944642282115 -0.10358010307580372 -0.138631427332822 -0.04933652030474678 -0.12331480266101802 0.07058776162391107 0.010406556454157282 -0.025814269143299717 0.007281171684500957 -0.002668633250853775 0.14103611446889994 -0.18882894597925381 -0.06817504849675295 0.0018561828055130816 -0.14615099419132782 0.10523977340550177 0.044245362874348236 -0.1210356817704403 -0.09972625310525296 0.03861263183846731 -0.026941117269246535 0.06387305182467432 -0.009245195786561114 0.06429230654438012 -0.010899795878250995 0.0742364633358351 0.029042529763720158 0.015293324401574725 -0.03819337681760956 0.2168142364218041 0.09676386174621368 -0.001970489967242182 -0.1454654620876981 0.04176340643144631 0.0284504545110573 -0.03841701623588984 0.019790892103268006 -0.046225764666187226 -0.026095746868253174 0.04852441308358929 0.03825810426474307 0.037640218081699435 -0.06273747603134701 -0.03892364863207307 0.023852657974634067 -0.024706708254829984 0.0578699793671432
give 0.7049519320709929 -0.03092122327024296 0.0009858034538030012 3.0321699096604774e-05 0.0020194065454110077 0.0008488306052028635 -0.0001567588945157447 -0.0004259429999248917 -0.0001379828487571466 -0.000231550506006057 -0.0018409035157932953 -0.0026235729038804148 -0.003117383644173884 0.0011366868911674127 0.003869918042174684 0.00222387211419078 -0.021231288819784363 0.005886766371880428 0.023509117237563448 0.05575433506270103 -0.1614405898060864 -0.016652910937326126 0.10849398505826198 -0.16587302239252816 0.1370268137909056 -0.015722901174107014 -0.012398718854999666 -0.0043358533877422625 -0.00228487004708811 0.003251057830208404 0.00669437591929773 -0.03824612867273236 0.011405198379115756 0.03508839341086142 -0.028249342323270612 0.145935439958218 0.12992878904881805 -0.028865901909519435 -0.008445481105213145 -0.002880448051398721 -0.010270849482866655 0.009112763155364448 -0.007641862982451219 0.011867638822582387 0.01542725040314141 -0.017592224537058318 -0.05588565807349834 0.010454258028372871 -0.016469387799465093 0.00260319031598882 -0.006792334786502163 0.020597012273245736 -0.14300800878842207 -0.07389065309749064 0.005033815732952128 0.00038806934437979064 -0.0009311026457560054 0.0008613953074126703 -0.06671254038675267 0.040973778294627665 -0.15823590227982157 0.013414534057093334 -0.005537724461461338 -0.0008287579793730717 0.004676358669218118 0.009975001610716372 -0.2479969735952892 -0.0071676697672249795 0.005763902340197192 0.025689800737662367 -0.02625193143425074 0.033554027841511125 -0.1042125435684347 -0.2568665292714067 -0.02059945370076383 -0.008652055423838267 -0.014363746233705676 0.0017009315393565368 0.009167298842581793 0.005490591868990417 0.0023459813579687033 0.002710981514199118 0.002175817040859288 0.008949198544770597 -0.159109822918549 0.01273922290569449 0.010897032493912244 -0.015099212000863001 0.0022959455160901565 0.010071865554117558 -0.017310559412374107 -0.0008146663378482901 0.015239024540105313 -0.290225875099423 0.1942605154254881 0.005557178357167712 0.0871666644774408 0.06551736631281498 -0.07345118058284957 0.01924273522481784
dumb 0.0014042125200088515 0.0606967081477823 0.8997841400510616 0.0006407153684941908 7.877347926063992e-05 0.006661677609418532 -0.0030507045079887934 -0.0031690272531499433 0.0023811108196875384 -0.002375460621429825 0.0007113925004138328 -0.0038710789698527155 -0.0038870379532505725 -0.0018128469424434363 -0.0021580582777246736 -0.000676312504503528 -0.009231889515046006 -4.80866690783182e-05 -0.002058959644667921 0.000344602630914337 -0.0022812160042143853 -0.015903899525970076 0.0038982462278467677 0.0044324832620352235 -0.003759758132741957 -0.025789434281726593 0.016954480761621295 0.06810606599263222 -0.013165787994367703 0.0070325973983467885 0.1243738843116522 0.03544749687065473 -0.01634481403008778 -0.015316662416093443 -0.019839195423329053 0.007135779682663753 -0.004825803406991471 -0.0007550155177521534 0.002344096516420801 -0.00014609542142116514 -0.0034283977207508766 -0.007792205274143527 -0.004334497261002648 -0.00040293700750116264 -0.003430110980351205 -0.0012300158537795138 -0.0005726645057100275 -0.09255754626039432 -0.09533859462493605 -0.07719180349482983 -0.005847758388141514 -0.0015578062711345871 0.0028851499273036675 -0.0009298041373334942 0.0022515524692112376 -0.007376583780967644 0.017331442239809838 0.008047226976387102 0.0015862245274210018 -0.04508490808836792 -0.010448490033470806 0.012794175148472383 0.013055043687005038 0.010178820268528396 0.00980565064051363 -0.010699265628528118 0.0021837507653377428 -0.023966315036860666 -0.11193960141770046 0.04592623293636006 0.021912312827097432 0.0392286289652384 -0.08049082276257635 0.03338166658719446 -0.14170409653847607 0.26499990748545665 0.056126610255276134 0.035057130086482535 0.06634497361628852 -0.030810308616763055 -0.060307529463180375 0.022580205221670757 0.05308116758450881 -0.004030652829696469 0.002035985937213999 -0.03761957398714727 0.007445950998756786 0.0030854900952925917 0.005587350785179485 -0.011691674895801975 -0.01357378834470412 -0.01269400141672857 -0.0012218120294074813 -0.004940128382555084 0.023481660841373108 -0.01256466355024158 0.006493317332500329 0.015869733263098127 -0.026648763545717935 0.010468231639049454
man 0.0129130920270029 0.34279324982190135 -0.016915317514195168 -0.019367490037715533 0.027723413958676772 -0.23577478371055532 0.24882221813280528 0.1698166295056984 0.16745723142276772 -0.09914460707075526 0.07348017869754885 -0.019443837713407946 -0.04465258758824808 -0.10232889905892179 0.26530583891854936 -0.0916489642352326 0.3131215447911872 -0.036344739605839775 -0.11053423492824814 0.2174457362826676 0.008900160049162739 0.10516238120450776 -0.13112068880109803 -0.05293318611023249 0.0663464781477494 -0.016621476164410273 -0.001719872555730779 0.015973069757436138 -0.005764181222626043 -0.07107854602521177 -0.00330114830327461 0.09830888128214677 0.09350509213577136 -0.111886591738001 -0.056944952191583076 -0.09598991661817084 0.10948227848215193 0.051818578770596126 0.13404989583285276 -0.09368458619332153 -0.16829719016565373 0.1428209364477111 -0.180532751072284 -0.025157528090764505 -0.03104764251952275 0.016686364332884913 -0.008051416367482233 -0.018998092627244265 -0.0706450684307408 0.0490291021564772 0.008815154392363795 -0.06670956711232492 -0.08474102982528871 0.10552788591681748 0.022240599970380654 0.15370007549344183 -0.042661664754283686 -0.006981489002854859 -0.09947576906503709 0.025296662774019152 0.04788231271893894 -0.028211913438410906 -0.08300195993064188 0.02126172249242028 -0.10649527147860315 0.17590367243295169 -0.0006669972601580165 0.11186776883507375 -0.0736274741066695 -0.034915719460541846 -0.030530449078530367 -0.020791367984259436 -0.060808762046947296 0.030591497660822246 0.054173075385127716 -0.028477644408302007 0.03793097266125643 0.07469764871174735 -0.02141781996540505 -0.00029213738952166187 0.005343641965529185 -0.0648726440571585 0.09695364986961921 -0.042875000179687796 -0.0034267948635603256 -0.04877386315952224 0.03108278766219917 0.011482774663678419 -0.009532985136194537 -0.016011712749317352 0.004002423655956871 -0.0003236608659675258 0.1665366978917747 -0.08526758152021717 -0.11398566562176386 -0.005489738564841109 -0.07884687164481656 0.01639329745006952 0.026615682443628164 -0.028412762048832745
bed 0.011631002721627627 0.3057815297876872 -0.02339972742837682 -0.19036725756565026 0.02300149725445596 0.38956159487330516 -0.19147020080947916 0.017575556275484263 -0.18139320226337416 -0.07925632317994095 0.17638665555029426 -0.32090278331352445 0.14951486188477053 0.04267036145133002 -0.09684967970930612 -0.010048153342632907 0.22804639825951467 0.17165925924237868 -0.008461591743217154 0.11334922011907425 0.049079287411003335 -0.012757902479424323 -0.0598521877835549 -0.12754116769237409 -0.05956561214073596 -0.023794110245931033 -0.03254248479131988 0.012444100564253735 0.10104702590596472 -0.024288043844827252 0.007442163016505617 -0.11510740585161788 -0.07136475188094829 -0.1382912679105254 -0.022309244232888294 0.033847103164924335 -0.02904830904652635 -0.011598630695177154 -0.09372071824620669 0.06570481596192763 0.05885676067227924 -0.1574758886651059 -0.02029456380706083 -0.0009974585944712484 0.0009825610141883873 -0.1396372090174711 0.0114436995755385 -0.03349837166296807 0.0809695202207282 -0.015613394358015892 -0.026951317142834687 0.032986729993180426 0.02028800390725936 -0.03133011450826607 -0.16618872625764256 0.02580111181485336 -0.06890441926730598 0.07876151099317719 0.09949637284734507 -0.03991761414910251 -0.06394394790408409 -0.1008810650242939 0.018145928287187692 -0.03272091444624141 0.0194792447861398 -0.055291953830346616 -0.0029010937807017268 -0.04733753764754994 0.07949224151769803 0.027376412785373797 0.06421125586294577 0.027168507296143597 -0.07133224973631251 0.03055348782078863 -0.07192585064427426 -0.0744794931864646 0.23882000811861312 -0.0916797741713689 0.09303261543629171 -0.006818023330654265 -0.0024373047071093693 -0.1129648445815139 0.01678567631872835 -0.022268576696079935 0.0026762671340062744 0.04776002100738793 -0.022195124042695507 -0.04733111471147961 0.03239703425799367 -0.07449825765703616 0.0019808280820431774 0.047102739366813653 0.02429129834298971 -0.028309568899620875 -0.04602237935632353 0.07583238168321672 -0.0158649987096241 0.09862656787223936 0.060282672149355704 -0.05108537921945868
boy 0.015822933280287884 0.36604097135855557 -0.02574258331815769 -0.14794700019970755 0.037093264653532396 0.056085552704194006 -0.3432491862307107 0.0031910674731882582 -0.11709399797718952 -0.054056219967804714 -0.038051566669282395 0.033601889755892546 0.10858705150991764 0.13537719286798638 -0.11745354505069654 0.024073562972058135 0.01281680262676982 -0.07985165691181269 -0.08596676190452691 0.1024229653663248 0.14548691573417322 -0.19063136055084662 0.010203605776739684 0.04510001530215469 0.21081015279138704 -0.07067548125980108 0.152925295235924 -0.08032730555074533 -0.035511364073188285 0.011962042047114168 -0.02731268612196331 0.008667879016525786 -0.00751081562173833 0.0011725933401546388 -0.040724361977071175 -0.06559947905768569 0.05192713283706086 0.014504047409036694 -0.01864134652976495 -0.08025891220058319 0.00574892975236665 0.15842937308641053 0.03281281710813192 -0.047092116590904794 -0.04439632739033017 0.02064000699876353 -0.0023796816513129274 0.01871728935137149 0.056052757272064255 -0.03593369259092033 -0.06677387443685054 -0.11800030726383735 -0.0647850637550835 0.13372369044463364 0.15778746797640722 0.059219273308152014 0.16125851992196655 -0.04698791089624935 0.23660388181244074 -0.0708045906827376 -0.11828896326469986 -0.006096842462444225 0.11095418513417385 -0.17117780318297499 0.20172367838803745 0.03416638750763414 -0.0009221221842740839 -0.034872917752969246 0.06700306554497486 0.05913599767312281 0.1217675548247148 0.05655179804997726 0.0954272106295121 -0.03801157163854338 -0.058307628370774044 0.09075038283401994 -0.09402150473497792 -0.08649564591129884 -0.024658077440250746 0.09562253905930324 -0.0038450450267350357 -0.07497055144015843 -0.165223349908344 0.016058794036862983 0.007892095083887184 0.009457233609280805 0.11027895828745572 0.08044851587582924 -0.10647494978516987 0.07018774510437965 -0.023023648236635205 0.07705421850651781 -0.06282932377013259 0.04569206487845632 0.05217728864501472 -0.06284019856127408 0.053515165546520416 0.06660074720774654 -0.015434284033098199 -0.11936309954919946
bone 0.012344749987505692 0.3042967499882612 -0.017685807528247974 -0.048453411461351785 -0.12671797839638274 0.11625921568275452 0.005611666214931949 0.058126175429091806 0.05695497732641068 0.27586246037771484 -0.14558744204152343 -0.1401969185184773 0.09428751119261927 -0.1277998773449742 0.08857240193171037 -0.13556091093661618 0.03480162673261092 0.17292147941152222 0.15246917694359702 -0.06152813875957174 0.22729360059683754 -0.09577591680174657 -0.040303574336077896 -0.1208690751432652 0.16390263512018952 0.20204515366589182 0.10996840356487084 -0.04879872523106055 -0.227330070522605 -0.21569650187140307 -0.016544588802556024 0.1313495629519659 0.03537230800429193 -0.12318975858567328 -0.09065536224805555 0.008002122522605638 0.0116631811641922 0.01723865095739367 -0.014683188626192386 0.10254485948270795 0.16734575588843745 0.1986084422249684 -0.05508563659964438 0.07636560918527155 0.10589987895312122 -0.08644441496778218 0.010412879827592685 0.0431229859741132 -0.030325681709700254 -0.00231407489597533 -0.01894137517793183 -0.09049382690223462 0.03401952367881518 -0.07879158912044408 -0.07647944713792679 -0.10950206313195347 0.057494570554342116 -0.050176022392418695 0.0364350631322778 -0.014883712399390748 -0.03825797318912894 -0.14998784937661355 0.1197983148268754 -0.001132598645082384 0.07791771554468424 0.1284062934490692 -0.003467887926988554 0.06362460341493849 -0.03022207150553612 0.03977796970756573 -0.12803115335934642 -0.09551419451560629 -0.025398004310323224 -0.008756024359649674 0.07862677017994203 0.08565083545166474 0.09608972009410598 -0.046699234433114446 -0.15358397899758391 0.002898876833746835 -0.0009414988416794564 0.013863107428380704 -0.1105175847040486 -0.08703489545395232 0.0020405177283924878 -0.02024553288858642 0.04171864673591486 0.0024425472403693366 -0.009447690703498487 0.019393250915398178 0.0440779128799972 -0.11057665049305718 -0.052973735338513225 -0.0372059520996806 -0.04906275947809879 0.06418774580837709 0.010591322870315625 0.03971831805840324 0.008042920758855683 -0.02285050816932235
leave 0.6011239628747659 -0.024752232570069144 0.0007411166054962818 -0.00016279384909603968 -0.001485665590731676 -0.0014740385370079917 -0.0006936061240235948 0.0003695755788861182 -0.001179485632865651 -0.0002447102159712147 -0.007741421388444103 -0.006662143654056609 -0.004930293120852409 0.003438895421875238 0.008346827062141082 0.0038723908091121318 -0.025696320497044824 0.006965441197013343 0.026137306226437392 0.051372284648203856 -0.13747068400649404 -0.013139299831121061 0.09096691899128465 -0.1360835078630064 0.10351245491869349 -0.007487382551836828 -0.008650287547856165 -0.0004848817430023962 0.0019005482433787349 -0.00225954326301212 0.0009330593632180442 0.005042645551996405 -0.003221072607105383 -0.021076266646885593 0.02400543382333698 -0.250216873805235 -0.2796738350053173 -0.04223807513179011 -0.008389721307783475 -0.008505224085336095 -0.011489408451489283 0.006496989613950401 -0.006574504493235079 0.008167157075596525 0.0018552289081112175 0.0030352292952940912 0.12011335280776331 0.0005189620643902153 -0.001043585217067509 4.7089871784163016e-05 -0.0014287410989932445 -0.018639231336336305 0.15321570949830127 0.13084281754671373 -0.018379040898820056 -0.0054053288581447775 0.0034589104653041207 0.011090911550327057 -0.11924967592267921 0.0533733842288516 -0.16823438745359354 -0.003183865191148568 -0.016548095424038605 -0.0066432119609075736 0.011168701103681919 0.0052427676130411055 0.1504701747891538 0.016744346718772396 0.019297970623954157 0.048238408827386774 -0.10161932949800542 0.11817752061282426 0.18654230644110492 0.4054696257961416 0.0265334326134079 0.011528711100547779 0.021501435182875978 -0.022606468375915463 -0.020565021902804816 0.008604613246039 0.0013617449903839572 0.015358832251423463 -0.010716142629779794 0.016218916912498296 -0.13196469139942701 -0.022191668327224596 0.0026306757991573274 -0.13560643601223052 -0.10909492812688663 -0.026855854266083976 0.005628307241791681 0.012650125633772769 -0.019749938636700982 0.07096181282574146 -0.00081692593480525 0.0038213775126309155 -0.11933562612153548 -0.06959334526432367 0.07436707215368739 -0.00275302431417823
wife 0.015636633015208987 0.24379793377231063 0.06234209694745522 0.0405838704706633 -0.1538147877471023 -0.3047568071035342 -0.0037957206896882347 0.12008790365113313 -0.10441932726908529 -0.21872345525500894 -0.1048695870718597 -0.08048458145867647 -0.06479483770474774 0.06908344303521691 -0.0173981936435475 -0.01498571018375319 -0.15838345653628147 0.0570122428427207 0.15088608426416664 -0.032414126812105544 -0.17167361647644397 0.1891883686277685 -0.11583728136096688 0.055084839053958626 -0.122759889588739 0.03317095144083183 -0.005528648337014792 -0.03977360608126388 -0.031132180928477762 -0.21991548661897029 -0.008404711473229826 -0.08280518451213124 -0.19404896543335598 -0.02668976775558894 -0.22916865538929784 -0.07256084032024258 0.051680608423840896 0.010434345799538891 -0.0046372487175045125 0.02566379829132974 -0.05019218441035543 -0.18149325670707728 -0.06611891478713039 0.06037301601974417 0.04918553167080041 0.17210170933693597 -0.011458267908223177 0.06749606996362237 -0.08196833908235746 -0.04752147894216027 0.028858730061474828 0.031615452657984974 0.03838951918431692 -0.015535792013237192 0.21863925322945296 -0.12205800841152048 0.10813279359922318 0.0556545189208716 0.11864490467102193 -0.05041772043162335 -0.059002371177167355 0.0321191499594634 0.047305496201235246 -0.01281404536378417 0.04028233471649732 -0.15233533643532773 -0.006388257111664806 0.1376459948114122 -0.15112710801706297 -0.060806264182741876 0.04239529491229459 0.09858021781741133 0.054147217606773566 -0.03314558734353842 -0.11376231099832976 0.006929052639720684 0.13660007086759823 0.02560757827620041 -0.12334694298232485 -0.001027464511442315 -0.0008405134956922712 -0.13191108148723332 -0.02744105061864418 -0.12836264523060986 5.4399422445334016e-05 0.04526440699368058 -0.021987075949279376 -0.007290290612013668 -0.027279337519723546 0.06371879772440821 -0.03361173503894986 0.0429396829117176 -0.06290350927937806 -0.03270681546809942 -0.03991346852468803 0.057765268660424696 -0.03916304504792002 0.10755397601602384 0.12361053717494182 0.008481270966810582
clothes 0.010356956783088483 0.2863337441024486 -0.020550786040032826 -0.2692207706055817 0.21364008119120326 0.2450585600940974 -0.12603012944819933 0.0772389072302045 -0.038492441758118806 0.0672820545161962 -0.026555194782040194 0.15914861881330714 -0.02918764235103494 0.16906516323291654 -0.025992314308065756 0.3136997228964949 0.09631656646304533 0.06210999001915401 0.10503411431199042 0.0992611819051598 0.007677902236573549 0.018874500980742764 0.04965623813073232 0.16283170727653412 0.10193143431226208 -0.08910539128062665 -0.12270836996290678 0.0021610583584843785 0.023058440671605885 -0.029848164003978845 0.036172774298225366 -0.09092310403206426 0.09506838539681202 -0.0385260692902219 0.046541357611645656 -0.07119029392635844 0.06593601496559265 0.01993238062905493 -0.06773546971537696 0.04410682102918178 0.1231131147230721 0.06967185378482946 -0.009972005327037193 0.09045238626009545 0.05368553340840382 0.08228510236666312 -0.01024448446690793 0.08191869371918452 -0.050288283419659484 -0.015400856932444612 -0.10499629626281541 0.039330629340047545 0.011866229078845637 -0.009792477473504093 -0.03389765203058967 0.006331910741963938 0.3098309567731947 0.19761492874683712 0.01508119207066615 -0.10442422934462532 -0.030112661852396676 0.027388994421521585 -0.09310542209519546 -0.020923263219132814 -0.015544365421828106 0.036041127545600245 0.001369460392943453 0.014880378565596918 -0.001402822453919687 0.07841504661495531 0.06720508062884298 -0.0160228569089157 0.07711453622591047 -0.01859563669568488 -0.09123910985390551 -0.08119412401984753 0.09446151088078915 0.019991792773468315 0.0015252011116646713 0.016070788450404255 0.00684325989307714 -0.09203799937712144 0.035223907209238646 0.006423946391309354 -0.005286167661065955 0.02979763691414232 -0.07240214030109318 -0.09089461163182709 0.08092982345038319 0.07464325719365598 0.07553964939287135 -0.12426176499979598 0.2390999354877119 -0.05608000667863361 -0.05320481891705501 0.04487758180217941 -0.13838268713884902 -0.00842158411683155 -0.10575132307445252 0.07114670890292443
go 0.5447284734642223 0.01016072653520675 -0.0012464388588236815 -0.0004218188127743013 -0.030310204940800823 -0.017924713132208763 -0.010656918570296207 0.0002444237426601592 -0.009455478062999343 -0.00480159782888138 -0.0561644246758326 -0.04897379583011088 -0.029731797699674697 0.014803248690042167 0.034218901908685456 0.01856851612235023 -0.09077090441605906 0.023473545805699197 0.07420038463570411 0.12155040055705844 -0.2939780513385828 -0.026193388500098735 0.17055004531153728 -0.261893550699047 0.1772913685586941 -0.006664635375447848 -0.006378749819700637 0.0010870380251082497 0.0023441754477933154 0.0021884302477276365 -0.008042169594580989 0.04204947246426107 -0.017393783245680625 -0.049042578438016925 0.049528067349772845 -0.09767856565577752 0.05712776317783165 -0.42443470541357836 -0.017943475382684586 -0.004037195204170597 -0.0017277100879475322 -0.0026112844787232483 0.0005993819274731354 -0.014556819308691142 -0.009392452411087934 0.007713780137819805 -0.028326217572927737 -0.012943517144712967 0.02266757480801917 -0.005484555115223425 0.01389702537433203 -0.020892525807634652 0.21083150141907606 0.1108035364527859 -0.00014201393748314908 -0.001343659256863101 0.0001525531193904501 -0.0052420219022714775 0.11223652035935926 -0.0641815825306878 0.2410235738245058 -0.017171564957296884 0.013594617498574097 0.007408063888366721 -0.013153324415671002 -0.009963065596235736 0.012276594439593419 -0.02023996742337907 -0.029056483269433636 -0.09123987600458017 0.15885075216410036 -0.18126955053468322 -0.00625601809566514 0.04374664286341384 0.020274744096096035 0.010694832664508644 0.010046225911572336 -0.0014596091031760154 0.0013772290914675575 0.0058032475241403085 -0.0020871728590002095 6.351406398137906e-05 0.007528511856271041 -0.0028559363396547547 0.08830872087481843 0.019453133002376936 0.017824448139296272 -0.039066611157620654 -0.022237857108487826 -0.005612068603783776 0.009742989000126405 0.00023908390692364682 0.033981984769723673 0.12202317587959065 -0.1080892333178524 0.018853210495995733 0.030996129039104904 0.0502217751938228 0.015950870344017733 -0.002677083113850414
take 0.5867478842001136 -0.004809616698425143 -0.0003789321002911215 0.0014432644198324068 -0.01841828806341788 -0.013721078277790753 -0.010876701382348234 -0.0020252035052977144 -0.009866241619785126 -0.003001996788742117 -0.033620458721254264 -0.03031085658851938 -0.022726387950392564 0.00808871947446021 0.017772657628315192 0.00840239670537159 -0.05087410062472846 0.013072746093851935 0.04397002663959095 0.0649125822794252 -0.15768461769397815 -0.016223801297923304 0.0849671186757272 -0.12348066121668806 0.08949060765506543 -0.007372421164689889 0.004261440162984572 -0.003379556281990447 -0.00469370758840992 -0.0012632024695676664 -0.005992791584665285 0.023712030625586737 -0.01145987116182289 -0.028664565260176942 0.016220255978290965 0.02175948154259948 0.12963444973376304 -0.21254588334500424 -0.0027859182661657583 -8.169744606778589e-05 0.008458467894403143 -0.010024377347740499 0.011458259629386038 -0.011452460474999912 -0.03159279372086356 0.04300866614404542 0.26006371002386874 -0.018676728366830025 0.02898109023148574 -0.004005552386970622 0.013344842397073932 -0.0772867968426526 0.4396224985302904 0.26638490317420094 -0.02519563365682356 -0.010750830235068072 0.002582770931479042 0.01766385224961527 -0.07320986446882166 0.024845198988455205 -0.07242347873732545 -0.004278585868311846 -0.010445809550324175 -0.0008555140989092717 -0.004093393725191948 -0.00325608768254443 -0.0765614696465375 -0.004060579585777532 -0.006090173643133487 -0.00814032949752914 -0.008272644831074042 0.008383644065011051 -0.002548237187807806 -0.012721983478197595 -0.012635070514679872 -0.008547100648481841 -0.010630338340802202 0.012862703476167305 0.024377517755014063 -0.014795198311246364 -0.00515115709294473 -0.013865909925132773 -0.003378132396569736 -0.02119582558290567 -0.2655828919038417 0.004344264499565506 -0.021435621667225183 0.2110618169478578 0.16076200700723442 0.008824625102899416 0.004528013633280593 -0.0023528698253812335 -0.014795477288802962 0.017457985689418868 0.03718045107066361 -0.01179848698519065 -0.09466553091893333 -0.07143058777388443 0.046445967203837424 0.004559990960363435
accept 0.7462336576015686 -0.03333415038854879 0.0010853815008412206 -0.00025182174174393716 0.004806347890729977 0.002963089268911018 0.0023860968653011488 0.00047544835545013873 0.0018186328848071207 0.0007282890957078129 0.007178935098729358 0.0063055564950126606 0.004392163537742125 -0.0012660521034223039 -0.0029742089789241443 -0.0015096562907446728 0.009397319456526816 -0.002210623623694744 -0.007892750675699127 -0.013956067451855982 0.03699553370980286 0.004039703877169449 -0.021852024834142253 0.0332075989705537 -0.027301084976800477 0.00384169253303363 0.0015638248686233934 0.0015151731524356965 0.0016563904207553277 -0.0013322152270215223 -0.0033953621411310624 0.02236862540564413 -0.008386399050040527 -0.03322128861687342 0.0326774249426845 -0.20451904960786882 -0.16021004439523273 -0.2399532885569649 -0.019658085412933644 -0.011635740059280919 -0.023012838335452115 0.01490009847769826 -0.012872780273727827 0.01733008913922107 0.02124309419759431 -0.024037398075424713 -0.08869694436720796 0.011590593031968249 -0.019466574368960043 0.003923537073151514 -0.007606428984223854 0.026367696228721864 -0.17405671356186836 -0.09013908505172698 0.00677679410001869 0.0017105295068454037 0.0021030201407870523 -0.00515226915878539 -0.10402967371156319 0.06468021112416786 -0.26692511480756886 0.030926172146937707 0.007940771042802872 0.0013105014648090985 -0.0002806691811631936 -0.0062215754438860954 -0.2260902960212695 -0.01609011870162831 -0.0018942773371111578 -0.007159530268228902 -0.030810894423882112 0.019763884231099472 0.06891700825135455 0.13827938366324632 0.008785039672647883 0.005195382147700322 0.009975279977366644 0.018529884316508646 -0.013971979635165319 0.005032991965607565 -0.007146827100072355 -0.0031143448324691654 4.964243250223115e-05 0.004995898514530969 0.0374482206217493 -0.03150272417512379 0.005681513192896713 -0.15535529592061445 -0.11043988828886092 -0.03834307372513882 0.017182616635361594 0.0008019622758238121 0.014889752544682227 0.16967444347469893 -0.08115024302410537 0.005061064545831019 0.12840569270360305 0.021527788214312095 -0.038670050364063055 -0.01117389698461163
argue 0.5442157601589543 -0.026499248644070033 0.0009301739460667458 -0.0002549771667216994 0.0099447798932876 0.006822891894147533 0.00499396100129227 0.0005425825416713914 0.004554889393087468 0.0014143626776453246 0.02237867081105715 0.01959243363429765 0.014089932450920823 -0.006636896467962394 -0.01627675535274145 -0.007665265824130116 0.05128669567253696 -0.013342590785465557 -0.04923490403675069 -0.09416651245931852 0.250086597933199 0.024600461155252478 -0.15972643017154695 0.23999645307672274 -0.18466701815375472 0.015043492853998437 0.013421310166812488 0.002697498764766006 -6.702916264470487e-05 -0.0005780562846473258 -0.0013593656335596509 0.0023978100737026315 0.0015124573290915637 0.016023680415498516 -0.020042463268987367 0.17737888235218413 0.15791170116089534 0.22635234711524282 0.02110699278606576 0.01375448300838871 0.026778963800643384 -0.017845931155948392 0.0149630371491483 -0.02277838352499512 -0.02483894354298743 0.028861116547713957 0.13841104234917495 -0.009594667854143797 0.015768258199674652 -0.0027583447233763656 0.007951934977012931 -0.01796402413241808 0.1384171101342237 0.07239072800657091 -0.002575476936455859 0.0009615498272801023 0.001204574995034186 -0.0013884681344754459 -0.029231869389807725 0.02140284790412156 -0.09438906076094733 0.019596425507881453 0.014585334489791523 0.006331021655548784 -0.01478272078614563 -0.009681024701433286 -0.002529725135047341 -0.018390918653984244 -0.03499584690441975 -0.10929525339987993 0.23480199859848644 -0.2699079403664818 -0.04743468228851591 -0.009369052926343668 0.027659504273696418 0.01882342696003361 0.016520118348500958 -0.0036444199688300525 -0.024964725373657296 -0.008559318402026929 0.0017483920754255288 -0.0027836615838074193 0.0012254546817219104 -0.004598634765496623 0.22124379139642145 -0.01438462421173005 -0.009564524806797469 0.05632835563704925 0.04260609816694159 0.02547481964924371 -0.0021521574388241745 0.009840845564035318 -0.013197612567106921 0.17836185352014863 -0.22604604743426635 -0.019128976148595277 0.15953231634889242 0.12013276006647418 -0.12106759756294899 0.0046077854283359835
easy 0.000885059786638326 0.04503179111107468 0.7324506464196553 -0.0005922583893204855 0.00411536457958658 0.011334501152256655 -0.0020218100684705432 -0.004382254397469614 0.0033508036363854455 0.002950339754886616 0.0027547422794327835 -8.95218014235209e-05 -0.0010138938538753286 -0.0009100553417006563 -0.0004739603366497933 0.0005464859868416673 0.0017852897183583925 5.6266332992111695e-05 2.1555744860605e-05 -0.00012793354954323725 -0.0005686637557903741 0.015101312939900823 -0.005842453316440788 -0.0034698172173694497 0.00022851697461727703 0.06172400062944168 -0.04862888199158051 -0.29084660930643097 0.06264252163729339 0.027068324768466653 -0.027518491594743327 -0.014815208261848503 0.012708708768107368 0.02035264821203016 0.021115182663702436 -0.020650979111021914 0.015645717151086216 0.0034206918418136093 -0.013428023148627304 0.01068746118861279 0.01746790414505391 0.024396809843288104 0.06089496761486297 -0.023915045491560493 -0.045261173238477385 -0.06170919580016424 0.0012394497342723791 -0.22620148465195636 -0.18624755074568766 -0.0194908042156838 -0.009964668221458119 -0.0007890949894300261 0.001976213617041617 -8.548564935457568e-05 -0.010044835900977003 0.004076278264927769 -0.018690761797683413 -0.020031887965207575 -0.0393904541467608 -0.10730248864982397 -0.009965252392824234 0.006393332995526974 -0.0025566641057858906 0.0013410151243208072 -0.021403630664441307 0.05399124248090791 0.012774075925392819 -0.1853768055175938 -0.16185092632682865 0.08199864079691949 0.008998846081518035 0.008797505754597383 -0.017213867650005033 0.009309609467602405 -0.0002456001837208407 -0.02893366309727385 -0.010367958236370446 -0.005115093880086144 -0.03182691558438999 0.0038732314373851853 0.25609228255361505 -0.008976334446615724 -0.07030795061474614 0.006730202459934793 -0.0002811231046578252 0.06976434611148476 -0.02737279369034985 -0.011973314278086683 0.0032889045113823566 -0.05218256913833592 -0.2904775259946413 -0.1051971592450145 0.03247886758984767 0.021801498883046985 -0.012087095241949055 0.010507194231990022 0.0018136598887620104 -0.01238419049970177 0.031575554029807044 -0.01616971760824549
bad 0.0007185089508854345 0.03759536078106681 0.6288501193606006 -0.00046495409204373543 0.004549773067120394 0.014394004845380608 -0.0031325419529791405 -0.005799699379917494 0.004893417270244107 0.0038106671078791373 0.004369889162808186 -0.0006022153258804838 -0.002125992627155738 -0.0025993132429421436 -0.0014016785450644573 -0.00038404487935019135 0.00014956148828419396 -0.0010948487399222403 -0.003191245679286716 -0.0009556757890952953 0.0009751212500488711 0.0051460639989635345 -0.001160656622178919 -0.001258673863179455 0.0021903203880261858 0.03533006939719197 -0.0275268325500501 -0.16908766927670174 0.03870094221714388 0.0038884769624760373 -0.17425248703827143 -0.059254125746685524 0.0255549269610819 0.038242251104185755 0.03762267809664825 -0.034262694782166404 0.025369642335118677 0.00534826034761218 -0.022985589011277327 0.012307427923798091 0.02377103385494047 0.03633997459424083 0.09353421544186905 -0.03246384530955586 -0.06818376626003846 -0.10320686226318451 0.003071180691361992 -0.2254590951235654 -0.1446035895997994 0.39377611878869256 -0.007887839709804872 0.023178624369739914 0.014042951947825297 -0.006508538143485361 0.006251193432099634 -0.016666892749488866 0.010557581385667536 -0.005532158546469444 -0.007345720392855977 -0.04159200418025149 -0.006393848536997325 0.004060256336388188 -0.0034682044225914426 -0.005688082596376229 -0.014781022819227644 0.028045955445507264 0.004119952365916802 -0.06781016945560323 0.018694854461417876 -0.004329987683909677 -0.016315701934554453 -0.035435141118211964 0.08603938209924583 -0.03867592516653088 0.17287223495359183 -0.36265001038073896 -0.07595973381466468 -0.055955229097385234 -0.12513860897023193 0.06653139492295655 -0.06983503530952173 -0.06361801512977908 -0.1273559464539398 -0.008512118456348482 0.0026895629845238365 0.09951698852991661 -0.02399223208740104 -0.011870357377405865 -0.004622652218748783 -0.02069725084522089 -0.1653709435408318 -0.034299095046616455 0.005668109974699437 -0.004741897788579819 -0.022563277636088782 0.010366336574366206 -0.006271003189354801 -0.002401487895073526 0.03680080309018921 0.005891948159357185
word 0.00882888087198874 0.243171029297427 -0.017514105164368108 -0.1706046550600047 0.3574023707689276 -0.316330995784445 0.016032829464159893 -0.20461200380851977 0.09873048450643622 0.4231018002857932 0.24508157186900192 -0.11834641259526825 0.09058256194168271 -0.007727067499043917 0.01951246760850991 0.01806399834853342 -0.16156257855510434 0.007580712971076549 -0.11427995255363868 -0.08486076836546058 -0.18313260209642968 0.0058435855181215935 -0.009676022285466069 0.02159223537647 -0.16742361093739674 -0.12463592507362299 0.07446221663514127 -0.02050758085930369 0.1126840905471187 0.04564519340613535 -0.0006400649662078543 -0.08577771749987748 -0.0883984409280849 -0.027085857795059808 0.009186160384349452 0.0033014929277974062 -0.00399939284768314 -0.00028867677492983913 0.0011571355383629674 0.09502057917769612 0.09194976564421568 0.10663015972348756 -0.04645934211456364 0.017460941579161556 -0.05038516443058935 0.07982468975576788 -0.008721585619516962 0.021501787090872523 -0.032744035230940986 0.004701753245400332 0.11953039814520226 0.019475946623209003 0.018879610641919564 -0.06837726706404805 -0.025956022455715957 -0.13111812518650212 -0.07489976981814472 0.049657688994570404 -0.05969588848039057 0.01831105625117184 0.02116658653668262 -0.0246050603988785 -0.10675271190282838 0.08247051485221675 -0.0015353533483345343 -0.0004470991866241736 0.0007277313589780609 0.016197193597339902 0.007790920739807281 0.010301306850972162 -0.007798438623408275 -0.011344094303721805 -0.03948493880312311 0.018971473700471007 -0.011647602865768025 0.01768753037554995 -0.05920145894885364 0.005368774460047921 -0.03588752092046398 0.11010445170567097 0.0070038214601735775 0.08317994949331113 0.019147940336584228 -0.027925261676836195 0.006758125754281554 -0.01775021316135002 -0.05763446303452154 -0.06714059210229949 0.06482614062351869 0.09737252549497845 -0.00044194696252937595 -0.05615840698366155 -0.06640442440039702 0.10482980722979164 0.09649660258090975 -0.024747075402233313 0.10200549142483839 -0.010694447017340795 0.011606692984759182 -0.09518454640114495
alcohol 0.01165636236261687 0.3110395393213949 -0.022610535693615468 -0.16107288673764666 0.1595780454726978 0.16059504291726706 0.10488837569343853 0.08460147410648744 0.19277424961937334 -0.10656148097358031 -0.2713860191644369 0.2258720865404395 -0.0035251672826872404 0.06673704720483994 -0.1382070435969336 -0.0904126217674024 -0.22934852394804262 -0.04527215140275041 -0.18047746909205362 0.025105439773189984 -0.09479481192428071 0.0668109870850843 -0.16794372402470725 -0.009160001419691694 -0.003394844896820705 0.12889596430120864 0.020394122780059684 0.06003419260005736 0.006126242950992923 0.21999651603873846 0.013971739994088303 -0.0679915975445761 0.07680309353266994 0.030468609002365796 0.03392777130860636 0.04610446245855032 -0.045544731207805875 -0.02416719516807916 0.12459218166793629 0.07419327134107949 0.052345907329376905 -0.015080885562702004 0.18932252231731642 0.20388332362515915 0.03948438451549168 -0.07160176015519806 0.008922207929773912 0.02510968310813279 -0.01980778311014972 0.003792752218471015 -0.09705525066403542 -0.1349169928181567 -0.02828653047358469 0.032122725709058324 0.12112279341210902 0.02700068934368023 -0.24301311360291072 0.14464375154644932 0.01594426447086925 0.005957886892135354 -0.012438173231658356 -0.025021260847460373 -0.017726749236597242 -0.062330038672864255 -0.01397693497388103 -0.01853821602778477 -0.002028304087126075 0.09681685954482266 -0.05050393381248803 0.0628551586607451 0.03082318705072813 -0.00935886146111518 0.010345485768569246 -0.0036704066127066 0.05253540198987309 -0.0009762475263772609 0.08085968378171575 0.031193700031801355 0.04849393673372713 -0.1238616132133103 -0.01872701438138141 0.0474598400667044 -0.027985212644231136 0.031074955509820035 0.007211797290414207 0.1392594890603145 0.14070315833442168 -0.08102419366549508 0.05923844271245553 0.06234976882151441 0.008621407016977835 -0.03164376862117756 -0.016897160118829246 -0.08654094210394227 -0.09635839886102485 -0.050869995833805436 0.10247626480057484 -0.08999042382116428 0.06580568805957665 0.0022466792899229573
gun 0.02173316745482101 0.39460686263824074 -0.02670879697516362 -0.08013895687510933 -0.09902466990113436 -0.008614089353203106 -0.3449060667518143 0.043724441206217095 -0.09416305696672526 -0.03853033590862624 -0.28479406536157614 -0.07997289162005702 -0.1366528170976804 0.016271175067379823 0.07312553783862528 -0.12594337187840712 -0.11410156765234923 -0.02490528108633191 0.0583129305584737 0.11028052616346797 0.03911585157453613 0.03747927717181951 0.15000528231739815 0.19292792762635433 0.038988770754856655 -0.11868754766440072 0.10206571551094838 -0.034797202580493396 0.03049172159732441 0.01887245584769011 0.03707831167810974 -0.13731983260228472 -0.07024752972776599 -0.13013462839535203 0.021508556592257273 -0.15117969468985687 0.15031973194609305 0.05955779525616898 -0.09629664983287628 0.031690791190919214 -0.050719537164253536 -0.0898820842445397 0.1272059077750556 -0.08110465848737851 0.01767674267678686 0.13542027696460282 -0.017274797166788102 -0.10812662360615717 0.1279714470175983 -0.0018707796944375467 0.11097695066683058 -0.10580028780569864 -0.06081454036284446 -0.018208306161609993 -0.01686147494431312 -0.06223961681541381 -0.021844777440405933 0.09063791850912059 0.0006652265099119351 -0.012883159048131547 -0.012558736997678082 0.027726854437008557 -0.108884056237763 0.012745268056459903 0.07095206718247989 0.08777790673964918 0.0011529516591004586 -0.023749873704272274 0.09322681591836059 -0.01548444048303642 0.04731295706484689 0.07931205788269886 -0.19904148833350496 0.08353520218558397 0.02293233566142543 0.019755328353087694 -0.1349449585024495 -0.07386290036657082 -0.00927622624803408 0.17183014883090328 0.020302928765503325 0.046612508954418194 -0.05544699365719699 -0.07266379338537407 0.00022967618125900902 -0.031822296770145496 0.0018368404628422226 -0.10796791908169565 0.10296823547209366 -0.11646646092137065 0.02396418324435936 0.00929984772727124 -0.07477875456012681 -0.012813348121296026 0.00040788068919030433 -0.09907987062254474 -0.01799741683109072 -0.011363857507767338 -0.11666605307950359 0.04625248607423313
father 0.010063407334730372 0.2701844630397926 -0.01913201468951948 0.07341888978129264 -0.09150482366886523 -0.03486058594398539 -0.074951414829841 0.09619562252883279 0.24027689648928832 -0.1321087265217808 0.26930071953164686 0.06197922975427096 0.05248611813296494 -0.018807365850098248 -0.09347618799455414 0.2856811838400743 -0.09593908334596736 -0.05863086688197247 0.01611524233406926 0.2241982140709644 0.038340429665946175 -0.17643683756685033 0.09354402445781383 0.13972260482286947 -0.004003660076057053 -0.09373348571164489 -0.10252530905246965 -0.08510347745280443 -0.18832365475746918 -0.0151040053953417 -0.0880645007391438 0.12972039481945627 -0.10164749568369766 -0.0688645852286052 -0.03304448983045735 0.0898147178864861 -0.055782106187466325 0.018216747063359903 -0.07580117275009965 -0.003602578976428718 -0.2117780387875292 0.07236295078228173 -0.0647086877105532 0.12259103206955826 0.05736277131074823 -0.10576844393533515 0.017423702188756763 0.07592800235147633 -0.1129001756719646 0.022773001487189436 0.22525392687715126 0.014124444878508082 0.003978318983136177 0.0447620357268383 -0.01839206598561058 0.20438666337978104 -0.06445808182126003 0.13375823075678372 0.06524975955393834 -0.028462155966651834 -0.010404290828233237 0.17333177626240973 0.0365828726726236 0.023034696215328967 -0.029613958056984614 0.17660062646001434 0.000139379695526352 0.03165624032080564 0.022045150367814643 0.06433054470157001 -0.015381448739947524 -0.029843044019748743 0.018122444262536584 -0.010476595753975715 0.07563832006303603 -0.00199849128132832 0.07635455051936808 0.13621535573833876 -0.05040027417543282 -0.00448245239771151 0.0045768046534166995 -0.000995533407655861 0.11857613329975596 0.04746373804184653 -0.004673492248252218 -0.03173038756990925 -0.10229666558243485 -0.05718147136959534 0.06442050952399933 -0.11232728761048387 -0.005816706868547355 0.027920463803634187 0.036855537919059926 0.0048575045380848895 -0.015331197891609843 -0.054351576849049045 -0.07812783910009631 0.02968286533891667 -0.12868962550035395 -0.03639073795975375
apple 0.018652985434306327 0.34357581790216835 -0.020560611510809523 -0.04691966497969796 -0.10589854390782776 -0.09966929432770617 -0.13545181236505052 0.2410023389694376 -0.11415958139946752 0.0850035386942287 -0.22923940316481284 -0.14798237860570648 -0.06006985491790222 -0.15189716435845518 0.09252302738534494 -0.14712210078485902 0.042883686537196736 -0.06858257158353322 0.19852728790163368 0.013440591475224908 -0.02138322018290824 0.011196373141721862 0.10068546078372342 0.16068028924177982 -0.018278864301596854 -0.012894397870587911 -0.180693692243467 0.03623083219704633 -0.12166688347970632 0.06042914308604113 0.08488583580055947 -0.12933944293792737 0.03590396767704447 0.015067001653692479 0.02177320737036594 -0.1099598212092814 0.09752280027850332 0.037625993021909575 -0.17888764907840596 0.0325096620748754 0.10519264573615361 0.24057946466825286 0.07123852294156281 0.0489831003105454 0.013292026673550334 0.036105637350412466 -0.007567649254829953 0.03740183271194556 -0.031182071982095286 0.0004233655172947462 0.016045568181613856 -0.06892753708352205 -0.05734631734167114 0.07383981753767972 0.03936669397459237 -0.08448803262420546 0.054806506446203065 -0.041213569747030936 -0.06325642284866781 0.010962966305011597 0.022634647531403086 -0.13644833184212263 0.07372018805100958 0.12911491359069124 -0.06445102186007365 0.040403004093340515 0.0076671610527963095 -0.012807744316825737 -0.039749048598039675 -0.11550402525015319 -0.00806664468425015 0.010330184970355885 0.1901376595994976 -0.09327426725848949 -0.026774162212253073 0.025714369697366724 0.1353512092392713 0.1491759102994108 -0.046743145488704306 -0.011607169499893872 -0.01165927793696222 0.030765768809091085 -0.01042922069817525 0.06645287741349977 0.0023764211574519452 -0.0003762194674500618 -0.22559176542525733 -0.07045612118269211 0.07322194721228553 -0.01508433024665416 0.036398373742228984 -0.0009623702291681943 0.09767322202841985 -0.08000558119651002 -0.11292895283418156 0.11233653059552344 0.0967308899824021 -0.0685907261283206 0.14097381272148832 0.07441511954223173
body 0.01323720147120951 0.3057303425405724 -0.01613268589101415 0.03574514063087718 -0.18970300870091214 0.0017076659348478978 0.10612877017673814 0.09498000828217767 0.09787886338332887 -0.0009238809972319605 0.1555159327120121 0.005306470623390044 0.19534970325946405 -0.17870742376375176 0.05270418592058504 0.0826248272610438 -0.12374826690653885 -0.19371150194111214 0.16365079595109244 0.03681813841890898 0.014922790832712822 -0.01556162361886513 0.0075014084302988445 -0.02523116503531372 -0.037466295312159385 0.1671583458502133 -0.029224901044257526 -0.005370904515127946 -0.2039132674087254 -0.13180603197092858 0.004087942499157752 0.13430385713557394 0.16135011306800467 -0.1376696204451296 0.21677883653780702 0.04839398563813507 -0.001986348615701307 0.033783185336972166 -0.032538039921503226 0.07384610989862964 -0.06121948525773375 0.1653791305558816 -0.12360980216967382 -0.14998151924003839 -0.23716279736622675 -0.012872408035461648 -0.01679988024573682 0.03200057539491769 0.011066396501415466 -0.01958103572842054 0.14651500201018486 0.2290685056555147 -0.04346128788420939 0.08453050611156691 -0.11022748874897773 0.16284694837756972 0.017669220564640577 -0.034515296665176075 0.009825138132663303 0.011873532569265818 0.00393341870168968 0.06993752970813619 -0.071157269699547 0.035332643383980296 0.038028077389964686 -0.0028379882164185724 -0.009761964572167383 0.10260276196794818 -0.01937527746836153 0.08763827084696489 0.08439739731737485 0.042382783172358204 -0.043249308821067006 0.02519514001057931 0.015291481939545609 0.008652452758248403 -0.019605677938278325 0.19636023593043234 -0.06825572440373423 -0.09489221424787779 -0.010226165685269505 -0.08770686738910365 -0.11334364190860687 -0.028435836665554996 -0.00547183543972423 0.05665392265281431 0.13156623080274849 -0.06586607303682952 0.04532742718952059 0.09828740717388829 -0.03212615910941808 0.07707387462591664 0.05831906294362675 -0.006298809888713632 0.009387979347417112 -0.10823268707225357 -0.009979276618840245 0.05804520907454759 0.07257207196501225 0.09230849073708153
people 0.018346270958467133 0.27497273755886215 -0.01489118448627925 -0.05621517122693784 -0.06884498701292185 -0.25684372176949716 -0.23648089347879714 -0.020375070084547878 -0.15977827513118473 -0.14343162359327397 -0.263752266851939 -0.13800188554285467 -0.040673026984015766 0.14075383579091733 -0.01190450168658371 -0.009214282996417859 -0.09363355806397314 -0.15452025985016143 0.07177112052632907 0.06075976918430862 0.15483161563063577 -0.203455158779653 0.03425364265655551 -0.06972496158121491 0.010110848546906618 -0.024832941653613026 0.11823938392734505 -0.030723074266126492 0.061750330569832645 -0.03125168114429788 -0.036280325588700806 0.10456662584142219 -0.10728244662818387 -0.006942375284515995 0.07140881885965533 -0.00751118207817731 0.01832060652911395 0.004385510309096666 0.11979865779619689 -0.14793265701999259 -0.01010158182638925 0.044011704058495846 0.05290578739581575 -0.17700312391351256 -0.22177087062354509 0.17726765692997865 -0.02100100054687378 0.019941303589214626 -0.01591850126734679 -0.00717507723702613 0.17036506857759448 -0.024138167717101113 0.0458742131448179 -0.0606642346661073 0.21287770239736142 -0.05731318076705053 -0.04634367151694838 0.0914377292821632 0.218585377753945 -0.06804764059301115 -0.11360145216934214 0.01196794069770171 0.004904777486535909 -0.07382911902349287 -0.11127861045062676 -0.04838671958110306 0.005599170173201773 -0.12758834523090637 0.09240687915101649 -0.035487361764815116 0.02836878392822875 0.06869202353057026 0.005313593019609268 -0.015818386325644203 -0.0012548263714063303 -0.02145436089940398 -0.02329630253710869 -0.09399415733377361 0.18571866031835632 -0.022562058032172174 -0.0022302326598275923 0.08098405440831404 -0.04658997401560467 0.040526175263669945 0.003923331455853481 -0.011145674615691544 0.07281036344522968 0.030619590278320296 -0.11806484254391572 0.08522604029449501 -0.014973320851524436 -0.01410649308796733 0.08225126349033343 0.03371386377776757 0.016844855810398577 0.06119782597930108 -0.005450976738446195 -0.019906300511819224 -0.09691558317968194 -0.05819733478866492
task 0.012207722104854856 0.28722030843440516 -0.016642855712081087 0.11181900593645042 -0.16650330631089902 -0.21867482728488222 -0.11912176372566509 -0.06340658681940566 -0.12452741543536959 0.1005670512368102 -0.3412840388079175 0.029140013896514133 0.11113725514879758 -0.12464555750187808 0.1401277754243603 -0.031096611212417642 -0.03182892197476146 -0.05857816535679371 0.09505116796056666 -0.009543337810188323 0.04559757632139621 -0.027227722170014377 0.10202237981945225 0.10777578174534216 -0.051638497523092 -0.09256802814570766 -0.03486925805468812 -0.009605551103974241 0.005768969454016499 0.15698357623777182 0.012003561665903377 -0.22751780806435226 -0.10422987905022046 0.002491661352886165 -0.12513162419790994 0.022121765776696438 -0.021824671266080096 0.004256029886039053 -0.02592402095387106 -0.17709120815225407 -0.16291668963813866 0.08818098744624296 -0.12520188733045923 0.049125460574850496 0.3237133836466296 -0.08300653414885861 0.02450401448825723 -0.055613930600201235 -0.02574074499296732 0.027793620474538278 0.013856598165628542 0.15245593696915602 0.0597533314580234 -0.033027386689307825 -0.22286687896711554 0.025594307034199 -0.16612134255877462 0.041861499283049275 0.07556928683780711 -0.013296029604638927 -0.03136115516119973 0.029325340769032326 -0.09711613817163053 0.015334506264012992 -0.011478402817310204 -0.10610475814057142 -0.0035993852438815444 0.026855631948706254 -0.027701498288723845 0.10169297912795366 0.053444549446601326 -0.013633420389961234 -0.019965257969545548 0.022575577171951428 -0.0902818171968697 -0.13475155951024248 0.029474816773574497 0.03789443803584545 -0.04382045801541004 -0.10362487512883223 -0.00850028618846457 0.006362983668715024 0.009359368955760896 0.042381949470350476 0.00026672208437948365 -0.06388847968451507 0.02156652496520896 -0.027007158308111397 0.030949041142689104 -0.04220303102982535 0.005168559843832352 0.026373309866536146 -0.0425957067381233 -0.09099249732031697 -0.07814942322172891 0.03580314686389065 0.07294035543488611 -0.03873922864861278 0.12479201559568637 0.13728995480224265
keep 0.5690529006160451 -0.02595714340042375 0.0008614111414325655 -0.00017261541657948262 0.005058034967008437 0.003135998287696049 0.002031885369812878 0.0005283159668234204 0.001897106416207841 0.0003465103551775785 0.008724424272707284 0.00763413290619707 0.005135204243884274 -0.002442051191166325 -0.0055666279654191745 -0.0024001073604174136 0.015643629284817953 -0.0039590915170651395 -0.014461263084800969 -0.026050388522451985 0.06671038449164837 0.006583925877059046 -0.04171092443403425 0.062020626320230726 -0.047509734144538365 0.003369209790004404 0.003233488553094491 0.0005533188813398988 -0.00016572784908060702 -0.0009118838284462386 -7.059648311519986e-05 0.000456649709990612 -0.0007479547709664357 0.002702708519752215 -0.00397316661670977 0.043934050083466104 0.047712863655262096 0.0409029911706543 0.004803413470149983 0.003968647050874138 0.009048300814562859 -0.0075172895102696945 0.0067879419455824435 -0.012181361130716606 -0.020812008864959073 0.03151732306109905 0.30720506740707076 -0.0021724136832024523 0.005057211788309752 -0.0018851961287503346 0.0035616502060139225 -0.025341098477902668 0.1996404272347858 0.14635307354494353 -0.013609767978042399 -0.005153273453384409 0.001131907795010463 0.010300972808872563 -0.11598226255185429 0.0585901557071742 -0.20926746734485063 0.010373736650643223 -0.008219355406519278 0.0015744925814761023 -0.0023975449598594017 0.00816362967463859 -0.3219239175548696 -0.02873982172173935 -0.03268052934471948 -0.08956117486699924 0.2528737381955714 -0.28701905684398393 -0.14970061217293967 -0.23351089717713477 0.02697267549422445 0.02553075141524601 0.005801518282952461 -0.015355017290022463 -0.03957352944822986 0.009715199567210807 0.008630345235066917 0.016156641724617112 0.0007520623890062617 0.018787020321199145 0.22142936481682346 -0.009558325831332983 0.0059834255671538114 -0.12912564951336383 -0.1037725106357502 -0.006595456989433505 -0.022355015460595037 0.012230030428466874 0.011023185880316083 0.00676285255172634 -0.08181816245847134 0.009149537859540308 0.0723518091120478 0.06626003294919428 -0.041986972157477306 0.004866526581721147
forget 0.5822671327696106 -0.02587800487016698 0.0008355017875610342 -0.00012659653329788844 0.00466521061765325 0.0034252368878969364 0.0025877629671110067 -0.0003364023923840247 0.002195728396492125 0.0007069418902241642 0.008888445028473904 0.006887518167701313 0.005124942655719712 -0.002179482428106598 -0.005577377599259853 -0.0022346474892882265 0.01597321130260338 -0.0040565992296369745 -0.015773475104404366 -0.028807520028610097 0.07802855312402865 0.007894706258201007 -0.050985824494558435 0.07533802831974647 -0.0586327524037453 0.005626418992767825 0.004981789292550065 0.001339552543010941 0.0005225961278771909 0.0009511207935882388 -0.0035043525603203353 0.015580899919472414 -0.004001493571655637 -0.01610863646820678 0.015189753007455193 -0.08262814367280381 -0.06992111796202671 -0.06532731147518527 -0.002484639593739057 -0.004310265808878449 -0.007018916822773652 0.004727042424180325 -0.005290464733628761 0.010945275740215648 0.019970553432018118 -0.03535113660801933 -0.45508395852369676 -0.011102122177814259 0.016582725335210755 -0.002340783974788738 0.006728968669240212 -0.014316147426675028 0.056654131603390834 0.011149107763275446 0.002818479398019046 -0.002727333581509943 -0.0020171445916986152 0.0027390810644559024 0.15309909522163198 -0.0951329445975813 0.374361227636727 -0.04344564574753696 -0.01215216773660692 -0.004214414649002329 0.007926543252051535 0.005939185718293527 -0.10141266136192734 0.002061102102283546 0.011490738267742445 0.04045594596559371 -0.07785491351246704 0.09298698870536613 0.010833225277908087 -0.0004914601806584253 -0.011717658367361841 -0.005959727395195771 -0.013245810027280345 0.007456447091228441 0.011742396258432859 -0.011607054828662939 0.0003113611903973684 -0.007653339370329783 -0.004916296027292387 -0.01744526079035446 0.15145988280185976 -0.004589337570258521 -0.01822952763356317 0.11799401669299081 0.08104889199970142 -0.02215126605799048 -0.00019588661655553955 0.00179143356660504 -0.0206489380905017 0.24420648597634803 -0.14927170615461346 -0.02788938698490809 -0.2108667846683664 -0.16273951955649668 0.09816416435617643 0.01751030825680112
join 0.5300199176151218 -0.022396890871288107 0.0006825273365163181 -0.0001307640778983505 -0.0008678932372114488 -0.0005807066090740113 -0.00025548159463727573 -0.0003534269745989972 -0.0005951371022433869 -0.00040746934918998626 -0.006790432127339554 -0.0070997370612129705 -0.005095962688100796 0.0030589798463831466 0.007548792603204483 0.004405750724645238 -0.027635320895906364 0.007661197005775378 0.02681886999478299 0.05615493879471784 -0.15141390082519904 -0.014562777189510337 0.09711712067500787 -0.14935336673928973 0.11483338565714189 -0.009338538185920177 -0.007766842347002679 -0.001556410137560098 6.247706338771107e-06 0.003010122026903795 -0.0026340940621287917 0.012934548185418135 -0.006626465367392627 -0.03046520208910775 0.033290358695999035 -0.14262539718639677 -0.03531589151615952 -0.49665118394515817 -0.03791783880302514 -0.019275914398320458 -0.03752602919713274 0.024705647747343323 -0.020693171295911698 0.026300686761338895 0.035914675337043456 -0.04395951384782768 -0.2540639300086115 0.009024540877771272 -0.014660757696788918 0.0015125475588498283 -0.003816539663466786 0.01416978130053451 -0.07257168926770953 -0.017356965483976333 -0.0013790406765654122 -0.0013683472630768385 -0.001009944133375611 0.0022592723331914364 -0.0015928355769713885 -0.00969522778193241 0.06546306517520147 -0.025001807343694962 -0.01985577490032972 -0.005626331218976112 0.018169138247983493 0.007451397302384212 0.27710092979530104 0.02996724766117565 0.031043888587568066 0.08188242614305347 -0.11366402349699849 0.12866088970640474 -0.09718569298124086 -0.27317623495511784 -0.025736424263062503 -0.016570675862752078 -0.0116734740287895 -0.0030797678120295857 0.008607402090152523 0.019548508609258962 -0.0012263331960305375 0.0030696092197690095 0.015285231227742791 0.014154827881907878 0.2054077576272929 0.033939533698566664 0.028942045583601358 -0.09695105456278467 -0.0691889253000017 0.03356979770607607 0.006988477486184116 -0.010934233371064911 0.0375972474693482 -0.013944424403859224 -0.07358862675396086 0.01543629273228467 0.1073052398712314 0.09879096649091308 -0.035121832706683266 0.0016388002013258617
hard 0.000837556594382546 0.04042776627097472 0.6264500722757059 -0.00036861829802789785 0.0008944227708887106 -0.0008453090090779281 0.0009135497347246886 0.0013199417290501508 -0.0017465304082078823 -0.0010003954217562602 -0.0020232902016770315 0.0011628649191544563 0.0018588377258810433 0.0038326424487061302 0.001994302777619702 0.0014977537052648616 0.006859601497670282 0.0032271844151992917 0.010707211908695478 -0.0007445157889893788 -0.006447760009896078 0.04956422940018162 -0.019603032387225893 -0.008369304140389631 -0.002848215768317569 0.12433635472163916 -0.09407025019878704 -0.526216328933081 0.10748345708166286 0.041352834909732794 0.026481109190335392 0.000512034398970898 0.006289904033906131 0.01247326123541801 0.011130733713348061 -0.014026122007785163 0.010403094864371874 0.002110263040140948 -0.0043769599960628725 0.007786683764614438 0.0071568307307642715 0.0053430072025097445 0.010239645298085551 -0.0037775570240418063 0.0018894753756345723 0.014629906378221124 -0.0016017889502342832 0.003995862311268417 -0.01894835709515404 -0.3175061671986639 0.003535450034477424 -0.020692176865032948 -0.013513316475996979 0.0073394113557895425 -0.008692651928019272 0.025368076697186322 -0.05894332635974312 -0.035933498826618455 -0.04638685219823557 -0.06868793717389506 0.0007411526555787113 -0.008292871486678389 -0.015123675390041204 -0.004978873457932369 -0.024684096969585897 0.045670421675524715 0.007162360214819455 -0.14329783643203753 -0.14012923660414997 0.0644146499955049 0.012544728474093518 0.020223824657413104 -0.042995242034820504 0.020412196566839458 -0.07334210990067977 0.14236956126200506 0.029314944663058052 0.02265377727977071 0.04966175011886044 -0.023702590421374282 -0.05231185327591364 0.027740470235549184 0.0814708528797667 0.004705388001192826 -0.0010570222818092263 -0.07485945289387742 0.025774559415139914 0.010442521499638056 -0.003936175636826855 0.04629537293405837 0.2554730237446094 0.0823268290314088 -0.014956527926534423 -0.005345170322211747 0.0022821659761764652 0.0010268331163496326 -0.012743604861558901 -0.004071056637899488 -0.027913689325903674 -0.00021874897102304634
happy 0.0008508412309846743 0.043420112159494935 0.7125130962632473 -0.00024946928928673415 0.0034267840545955056 0.011778023576099554 -0.0023891634820475314 -0.00451070099900925 0.003758856856641382 0.002679883012378035 0.002702625900592771 -0.0005725008743143273 -0.000922301203064285 -0.0014708623898984092 -0.0004238727734514441 -0.00035803106463519864 0.0012618506003196374 0.00011060998542412435 0.0015503511615006687 -0.0011060538625755148 -0.00209563866563952 0.020186400141076886 -0.007798408156927073 -0.003277769381866237 7.245328289193939e-05 0.0763409033478847 -0.059788531143762036 -0.36670899483183156 0.07996199184620127 0.039083419038277785 0.005741553686665283 -0.007020138907839934 0.013243651806523817 0.020475215891822093 0.02103048743862213 -0.022011940425383184 0.016690712333232306 0.003725172030562741 -0.017543068020176827 0.007720274264622249 0.015353173087085026 0.023398607514031784 0.06220328630400578 -0.021340258625159654 -0.04265205324615415 -0.06286817138450478 0.0017517924340445783 -0.12698510096225546 -0.08322047993029003 0.19522245957617412 -0.0027241941145603413 0.009001949846931808 0.004777519495761067 -0.0016716554365164295 0.004783046611028309 -0.002694887503500197 -0.020446805415955505 -0.022680756169743195 -0.030384410944575398 -0.08002928813562563 -0.006987557207509329 0.0012261777075224258 -0.009636973297795176 -0.0037730147519569037 -0.03471956661826553 0.08212073677325882 0.01987313311015561 -0.3006856892661457 -0.30326186919188336 0.1457625220402013 0.023010295550527977 0.03269318496582943 -0.0626857881390013 0.025755606176314567 -0.06975000223006912 0.08961574107357788 0.01996554693701573 0.012144088262044819 -0.004668084198875798 0.0035465636562795185 -0.08681787640380771 -0.007127301418117677 0.002653178648237826 -0.007550974237423738 0.000612123637844373 -0.006733575468920466 0.008373217689486685 0.0041876217048598795 -0.00038648083300596415 0.020036907917700155 0.10713525133553709 0.0466283153814368 -0.023866929110458786 -0.013819840246075046 0.010927896241630573 -0.01116701049309945 0.009424871352705904 0.012470643394723683 -0.015213017048873104 0.010636094538121924
strange 0.0007869760315899325 0.039815271690471075 0.6433089745480911 -0.00035875220860702927 0.0026609510229510915 0.00638782207507991 -0.0013422256204918364 -0.0017569200835967397 0.0015605993815688039 0.001469227116664927 0.0017967156133181558 0.0006328212117548124 -0.0002966356311748255 0.0002664695799838163 8.506024929864183e-05 -0.0005442085729099709 0.0038129300480171887 0.00023761400697140585 0.002777913424604527 -0.002358933674134891 -0.0014828033679408856 0.019843162819982194 -0.0056850714483908825 -0.0023213088001358675 0.0025412790210885767 0.026012567024925336 -0.014358588454624559 -0.03876944697869536 0.005824002152019881 -0.04987880241670762 -0.42764801049470286 -0.1317725996357545 0.036731395784460684 0.05491404846583502 0.047275615606216334 -0.04229690493933761 0.029932734776752953 0.00576977080507974 -0.0197004632942184 0.010390996885838213 0.01728707329103114 0.023781907882574924 0.06251770254815014 -0.01782016765162092 -0.037081772788830326 -0.05868196610971332 0.0025644811082111375 -0.036505262240202056 0.015529348083843745 0.43474001435414833 0.0013317732649083954 0.025859316195449504 0.014005940691066879 -0.008070830562599884 0.017440450929005636 -0.02473232200904688 0.03688396078283362 0.018158814956271342 0.035589029279727506 0.05943143354244827 0.0007178269648962527 0.0006379846597458787 0.0061774530049261344 -0.0024722037336296836 0.018602562874027066 -0.03362277794664884 -0.00773700313597094 0.10980613644902229 0.07153155644515378 -0.03452771086784372 -0.002176864557663634 0.00683878958905105 -0.014652981674719808 0.011506967166172838 -0.05851368119565589 0.13374017391432472 0.03338381911271004 0.029249798416609827 0.05597922595387624 -0.038523434823617315 0.093750019663259 0.04715101371485392 0.09570057720470014 0.002161107306265182 -0.0014161133510319935 -0.07729875179780514 0.014546122125610069 0.021594824009293585 0.005965818011275327 0.04418876567159749 0.27545902821660245 0.082639918074348 -0.017123104072546753 0.005107810940521476 -0.0008719316009123506 0.009768728056793798 0.005636519982392622 0.00413939105928465 0.002419923401942548 -0.001992828483903625
friend 0.00979943538054082 0.2679956938782447 -0.016265075788248953 0.11254711658527466 -0.11226936274872619 -0.14319684753025627 0.0637585973753332 0.09459590956204039 0.13625315505794688 -0.07022158716904753 0.2185323030200054 0.05958345738371893 -0.022198155180754832 0.17089269676297733 -0.16636812377450763 0.002206142505508205 0.13927966746390585 0.04410867983244031 0.07322383177924877 -0.1135710278206951 -0.05413652403148454 0.26999684943365165 -0.019874836466377017 -0.02759471389583138 0.03541198697730065 -0.03589534108650538 0.11321642098751211 0.03908296350825702 0.015546251618782826 -0.010102588296947055 0.09271094760429426 -0.049036302002687916 0.24630387112496993 0.03999724629056875 0.05037873813829061 -0.05800303553709351 0.04061665440347433 -0.006264210233427557 0.20464435638777762 -0.007626548726569936 -0.12910773056035735 0.09940854242748379 0.18752205576461217 -0.08810189585961647 0.09078780469042472 -0.10801931392861293 0.022030638550013037 -0.16663847206285154 0.1901184862857206 -0.025757144951268362 0.11102918971709781 0.030592796572616408 0.011761054249311223 -0.05430582107809215 0.09524095813177257 0.03251236258964918 -0.026018527784023054 -0.01653867857796209 -0.003873842093018667 -0.014661220160214173 -0.03854468767213996 -0.28429534910209125 -0.06888506005123647 -0.09416995504604435 0.019804589259651104 0.06671750476774868 0.007827882565659142 -0.12465796617800594 0.15021621168456614 -0.06581847738915399 -0.11319111322150821 -0.08849647213506599 -0.04812487776388388 0.02604561823697443 -0.05214291175749053 0.05365512498686335 -0.05219534179725725 -0.036792083293515306 -0.09546118911938899 -0.11694298555098194 -0.005183195190677336 -0.000553351541331274 0.12415741971499229 0.1533620064113804 -0.005485125344906652 0.14873051296228754 -0.029460181060624452 0.0666530462647072 -0.034984196886714544 -0.04057598430407397 -0.0022037956527498127 0.03404368749496535 -0.0033239062707628607 0.007249230028092746 -0.0023941305248279384 0.04978521884387386 -0.10359197324773381 0.011901998304835681 0.012121387779381295 -0.12135786014242302
woman 0.013525469313869562 0.2980928869085068 -0.014584404827452428 0.038413247221474135 -0.2067301004728335 -0.23928628280135505 0.0022420671627334525 0.18194585622281928 0.04167983941033043 -0.10266669832027522 -0.0065552230183668365 -0.1742350835849686 -0.03859826490954596 -0.005295614933963423 0.09301266321993551 0.13334311700815316 -0.03697763032516598 0.09236337363751271 0.08129053052291225 0.0071444965084601275 0.03064586379882942 0.11060564089810897 -0.010523365627867324 0.016377835833878307 -0.04277859402526355 -0.23467096808313223 0.13593432758887264 -0.07514369797107992 -0.06263655316082185 -0.03913582567875846 0.0014823535738424788 -0.056920081827208854 -0.1592029697135587 -0.05620300741954297 -0.21729750733753206 -0.058972623408683304 0.044346270573952594 0.023814222863818683 0.014423342862333391 0.018857523776001476 -0.046069372796487984 -0.060269380532714335 -0.051434550759286046 -0.13640407742814617 0.07986187756580716 0.03854300756776131 -0.021678003653884944 0.05480212773223601 -0.1621419320105765 0.060703899865716074 0.003757048204688547 0.06139683286556873 -0.12889121738101703 0.2085395587961203 0.12586610919980465 0.27076331299478756 -0.09058126182771212 0.004511166016956157 -0.0623521215401803 0.015461778958561509 0.019633964566876074 -0.09505817146892226 -0.12046029801542985 -0.055424255750652664 0.027887753920318187 -0.07266377972859389 -0.0016573805517358792 0.08599211984676709 -0.08881595989747641 0.1003096226677305 0.0008229177524484326 -0.05419431677444268 0.010806755215838506 0.009532157573285072 0.06895547679537682 -0.06486275395429389 0.02427656101563323 0.2846202254591194 -0.018379311913421792 -0.00472874366301746 0.00473582239336471 -0.0968669323434368 0.08152892368242125 -0.11609526405861656 -0.005057358489660278 -0.14652338275059648 0.0448515415628356 -0.03946010104876684 0.0016399648355210736 0.06381401290723618 -0.0698853556473557 0.06748937103520158 0.022751144086532074 -0.029778302586062785 -0.03366504559161826 0.03458542303805558 -0.05932492689939724 0.011364316075851378 -0.18883906801053635 0.07791869208457144
cat 0.009467430552715393 0.254922788146434 -0.018170899094496425 0.018008149680019684 0.05346402399275976 0.14540766715664835 -0.019484972514239696 -0.1694014146178425 0.020891580049259475 0.12491566486719496 -0.09577246327909811 0.11029784697991947 -0.17075617181187996 -0.022522178427700996 0.06087703188879568 0.0491989011078257 -0.11559998470062695 0.20080598533054772 -0.10135587849424378 -0.2325565836296649 0.2441753093062256 0.23761091661440137 0.17130793176010603 -0.15154579324213968 0.09635961661580114 -0.018257991474706792 -0.06729019805560377 0.04836643958116666 0.25503535869336097 -0.2381165910770798 -0.023734321808386298 0.15608070735422028 -0.04473566436404323 -0.03954581560598702 -0.013685070613228826 0.12288464544558243 -0.09539503811659973 -0.02497476269533947 -0.03014465784403934 0.10251384952709489 0.007502736456191392 0.07146502557645079 0.05932619126942703 -0.04319224318604503 -0.049667820323467525 0.0006988859879971319 -0.00923005549956529 0.11673239229932297 -0.12133693528437159 0.016048794058498846 0.05990709302270813 -0.02948564472514304 0.021612384357396965 -0.0409674288146976 -0.25227111277678077 -0.014222643597996788 -0.031581661540311515 -0.027476523878867922 0.03703155633843309 -0.004816884163763252 -0.01367162126036267 0.03356194174235154 -0.0860061437621905 -0.09989831128158354 -0.05032434225987711 0.000582653586697801 -0.00024241273829319474 0.035978824360177866 -0.05244711721634635 -0.03390551722555371 -0.007152280431396442 0.0016927826030358518 0.1323041267813438 -0.06943670698007086 -0.0014631789186347415 0.049285893563006 -0.027136592304421402 0.07898167577613649 -0.16091480880194492 0.05617954206177766 0.002773644255548174 0.23582542618087732 0.11862927864213246 0.018311595750332182 -0.004267797859220588 0.012170183820654948 -0.09397566944278113 0.03717399387989643 -0.06621129148945713 0.017956550076863004 -0.044570369181854835 0.012520676384453146 -0.13266234257913775 -0.03685880000006708 -0.032286976548919204 0.01915827172786508 -0.018547400590225346 0.059738232114064746 0.05190244876488254 -0.04064587670855882
mouse 0.013898298040068742 0.2988586921390982 -0.021794240078148366 0.026138822815767175 -0.09980154219303548 0.037051879079419085 -0.16441965406131664 -0.15443740739909356 0.011167786912099886 -0.028557090962442282 -0.3031299080494577 -0.10166457426879831 -0.2616406129444089 0.051869673218081294 -0.013201470571319677 -0.0989866352203569 -0.17182187748349498 -0.029564471081316972 -0.07043327179862964 -0.1467665999705359 0.14171564378114698 0.0561448970319969 0.2655164829141334 0.010409471039227966 -0.03075010802303885 -0.046945059683722735 -0.15074305756020057 0.053050041134786445 0.21506383120665615 0.07062868933489785 -0.04729845468860655 0.08988791696731954 -0.061197795789565364 -0.04850776244271641 0.003804775885895498 -0.03759193623804955 0.053502735143807295 0.02777072611530556 0.069501781708652 0.09343153916087218 -0.08488704808577711 -0.060150487827083376 -0.045713152524022485 -0.1323124332625457 -0.140081932098164 -0.025169326735778645 -0.015272485180606877 0.13233561279869116 -0.1513663680964735 0.030253653294514866 0.18243263347079017 -0.11488964872794687 0.006289904033275475 -0.04483658912312334 -0.09597542752865416 0.18622433407663525 -0.09492037001006964 -0.06800190430243767 0.072244239900396 0.01001003780213366 -0.026807286137782778 0.05901028319078218 -0.0644476851554508 -0.1239101838981687 -0.06884878909823693 0.0070979071268524735 -0.006907977996733881 -0.05332870721899183 0.17034701641574937 0.09235280831937734 -0.01744901811904979 -0.046617509275355636 -0.06501240049884534 0.038451172854741936 -0.17282167089877068 -0.03154034762596218 -0.003003286053634285 -0.043620169441587135 0.03898479722809004 -0.012635467690782828 -0.006913994194042132 0.03808298169182904 -0.1078800835103832 -0.02735009373540806 -0.000549192683695394 0.00314111283235857 -0.17535236128783616 -0.02548052574812688 -0.045239909122256075 0.02865354841734841 -0.0132105364637538 0.06945802240859088 0.028441187522479414 -0.023034820424241275 -0.01828241002438857 -0.06844198364478749 -0.011936915660060266 -0.11375561517232209 -0.0768442581735164 -0.05850363312763809
flower 0.009646686966688682 0.26252915936481375 -0.01865444249789212 0.10848060572438416 -0.14662935364719878 0.11630236190819361 0.030278999776634608 0.057909176396114835 -0.20369781146721416 -0.1338513439614504 0.1275787065205532 0.07747723402751201 0.017109804933680865 -0.06553621879651338 0.0760630794944221 -0.09213520496107085 -0.2008369711701894 0.015978848684717075 -0.21986810436637466 -0.027978922609620545 -0.04077118527978842 -0.22757883907836363 -0.28219874053871496 -0.039858375132409814 0.07711537127585777 -0.07848487180559961 0.02898188707101612 -0.009599250064258442 0.2258434992659747 -0.16716821579385482 0.05488629453395185 -0.21235251388904947 -0.018274492321533803 0.012402596166477589 -0.11362478409053929 0.06135070281182111 -0.08528579409198958 -0.042423258434618645 -0.14333037975888457 0.1321226194496877 0.040264523986132415 0.10114909024365669 0.006545651304432653 0.03875251167771786 -0.042460535512571375 -0.1219545637209424 0.015147567080799857 -0.004282053036471334 0.09455518513566645 -0.036027346832193975 -0.051476957175287455 0.010690619794322904 0.05253523208351496 -0.07935835787189474 -0.1393901296085845 -0.10587731692432072 0.06946155486565092 -0.036890133447648264 -0.058453406840043534 0.023584678287114816 0.036053031191968794 0.029321730537210024 0.20411327255829811 0.08779661064430418 0.1650236806866579 0.0446331356618542 -0.0031429676431100825 -0.0023029094143813713 0.03246692520438486 0.14218581002131644 -0.07138875025921128 -0.14705840091867467 -0.06072799056431684 0.05472276771447324 -0.016562017533315695 -0.0472013216689424 -0.1301012670842706 0.09873679778065544 0.06611249142675066 -0.2079228089223812 -0.016733851393658995 -0.04718723779331065 -0.05823358765103847 -0.017755389665491967 0.0005875185766576244 -0.07209692830071174 0.06816584831414432 -0.03496118072758134 0.030945621426099613 0.04151803158427281 -0.019023832183391466 0.030335803881472206 0.06990963692476114 0.027543229966238484 0.018565519510606452 0.09659043942436175 0.03314136696346587 -0.051633464196617955 -0.05996491641579274 0.03108520920442025
cloud 0.008691053822367923 0.2401072231255932 -0.018051699922708452 -0.11848560758156734 0.004580059130052765 0.16524720129742476 -0.17143068753597984 -0.14144450848928783 -0.3278891786691845 -0.12257035770902318 0.30905149346627153 0.01527128813776326 0.14135555708115477 -0.11320103748831996 0.39464028909198207 0.000937144278625348 -0.1631738965572874 -0.24371461747694192 -0.09901640435097865 -0.11729692835866322 -0.0031246567087844243 -0.11696529457404557 -0.17863513316754226 -0.13890608243904445 -0.002622686108403815 -0.03854115749094078 -0.08690129464438168 -0.018655484870104898 -0.019530314324302446 -0.12607388771853992 0.02938778665142806 -0.06698532024400523 0.07582012849895868 -0.06927465133738243 0.03897188562246326 -0.02350157923160952 0.028654712358258016 0.013436518293294513 -0.013893382451525662 0.027059251430085956 -0.10899103179379858 -0.07082864537590176 0.01285227247313646 0.017512718510678323 0.09762355223713805 0.037606784049964245 0.000489489785456895 -0.033761872032536416 -2.6569559956462382e-05 0.016217896517248052 -0.13150348056171213 -0.06830331917553079 -0.01642628717275398 0.02503561976503523 0.14878762028393858 0.09579837646954871 0.035293024374748974 -0.0736155815286925 -0.055300969643765144 0.02157214970194718 0.023150039376900355 -0.059847986222815314 -0.03405779673400671 0.01624091110236735 -0.10336744590119612 0.09850723835241124 0.004763145991965839 -0.003802370024145315 0.052700059168596235 -0.08351753624189373 -0.057879063846900246 -0.0318491136599531 -0.03727606500875318 0.015944659727741055 -0.08033967804282433 0.05466037725882743 -0.04025573087451637 0.04939715948348944 -0.1234544053577461 0.059285214411874156 -0.0006029685855177542 0.03276180585396145 0.0032290289069550125 0.06699470969374782 0.006094885224167293 0.10734727045981064 0.04095584107514495 0.0184243770555061 -0.02810132169473042 -0.04690094640561435 0.012220351771027333 0.008978090782760538 -0.04929592098898015 0.01126552461752782 0.004374443379871395 -0.03797206036873497 0.10460452449315062 -0.0006440670474947211 0.057194580628217875 -0.12514015225664596
god 0.008900040635359268 0.23767241159779065 -0.018438153653640085 0.21264193845897317 -0.03880053577070761 0.011379286747019615 -0.25730182243247485 -0.27057064247469315 0.4232617940200871 -0.09094218136162568 0.2158616482965153 -0.021654092755851378 -0.14196987613912548 0.06970687860945587 0.04709390612804301 -0.15813534312577118 -0.02114189265619777 -0.03552140544167282 0.12541580855617135 -0.03183728823873129 0.0928798239374264 -0.09568220480286889 0.17889847267751544 -0.0032447447761817494 -0.090512355717285 0.0584136568555922 -0.20537075082455752 0.01108777494314665 -0.07604099752180604 0.13163454257628057 -0.053874627878961225 0.06521568881299802 -0.027496037359367204 0.1620846213432446 -0.09002594958954324 0.019275556805969093 -0.03330014623369095 -0.016637618149462095 -0.0035961459530441256 -0.062004852173354934 -0.07816140372383934 -0.006010526654791323 -0.08763208077612213 0.028681069694861352 -0.11894713341176316 -0.03451788817415477 -0.0002925961942520765 0.06271307894159023 -0.029955497244574403 -0.01799016309474103 -0.18170626018939443 -0.0621358253800009 0.0277747486866894 -0.03815448588358571 0.03826748508376924 -0.07406402525103617 0.10408437712930102 -0.07472889448253518 -0.08371206448824511 0.026459102980057367 0.0503538741942935 0.06189801575624491 0.09508382976914659 -0.05719054500033947 0.022144060497691895 -0.1016095793731522 -0.005461330026277277 -0.021085723577087327 0.08516559142433451 0.15612364544735477 -0.036595213713916414 -0.11417166934580232 -0.08973113120731527 0.07005723196908831 -0.1340314213632651 -0.08212946307419004 0.0016215819974411264 0.08674609684329952 0.015343278597531658 -0.017914037224875824 -0.0017275946757578154 -0.1524759566736077 0.0038950131205662654 -0.022318699301548874 2.6129619621462764e-05 0.08180671716390035 0.026802704623469096 -0.011418127690988648 0.03234754812544556 0.01569632566840247 0.006530178796410618 -0.017401309585728622 -0.0092334929988066 0.016759000093279477 0.02883148850748307 0.001690308342573368 -0.006611398766770193 -0.04212236356944553 -0.012690518794907622 0.11733921954935883
stomach 0.020706633610673476 0.32209776862823186 -0.01787492007059076 0.0025744450016112054 -0.09631936674796084 -0.13744299341099403 -0.14952643498605223 0.03916539613077694 -0.042637272062253324 -0.04724765603853354 -0.0442397731174897 -0.10096857258321759 -0.12515516612356506 -0.06761168383648726 0.18373693017404122 -0.0884864887640311 -0.17588480820491909 -0.09195516580850781 0.07641152712245461 -0.021952704955607975 -0.12131580809587027 -0.07139050503742896 0.06473873790669961 -0.036069267435174704 -0.2939405144990594 0.046600613865866225 -0.0251767112856565 0.010151697938653613 -0.011716413076676325 -0.11461845020814773 0.058087443205975475 -0.06937429998390239 -0.18787053385040106 -0.010117986277010013 0.06037037719752575 -0.16523780856003506 0.16024453155580573 0.048256531223310604 0.010511174500759859 -0.018114173195911826 0.09073158824919228 0.134282373395709 0.04349282615573407 -0.0007811254317745931 -0.1446695352505549 0.05115944693579054 -0.0025922424649041623 -0.09922212708641436 0.18289363270997977 -0.041121930672234734 -0.03491515836477466 -0.03855853215958127 0.08427004660976335 -0.15677756338985602 0.14351210543336104 0.03033731271240447 0.04080817637393987 0.03826645581499665 0.11040094320233976 -0.026231896733008624 -0.044577383135773196 0.18895347065642024 -0.16654968960741112 0.04526463987717555 0.10845760914131292 -0.08061204463369356 0.008706960901167259 -0.10576717740664163 0.01811377845480652 -0.1513843660130221 -0.07106270704721454 0.04676516856641809 -0.03717760364333651 -0.011779423237302898 0.033918990026701575 0.02506591763080147 0.11326152210167621 0.028929119366561534 0.013582973233047442 0.12371051277438626 0.009811060869871387 0.032156134929068055 0.046064150309827 -0.12459028126320684 -0.0023529223696667338 0.113954828312919 0.057477343265369615 -0.12899316879639838 0.09473308383118934 0.04338122064925494 0.001092603206518568 -0.013012676760255141 -0.023018085973639288 0.003851027082205207 0.0022515836390872563 -0.10449768037643231 -0.07291941125290656 0.1747299596289253 0.12240716538867978 -0.18775549652425536
intelligence 0.007513691412263263 0.20492165164416623 -0.015021591567430749 0.2579577436998021 0.13307438256732806 0.01941464348805481 0.0684557318722587 0.014785132123564216 -0.04293738723013091 0.10979970648466132 0.12306887391062495 0.033486668416591085 -0.16157505301722916 -0.2552065486210797 -0.14551726922379193 -0.15567674559258163 -0.04209623868577986 -0.0227987764563643 0.19623642062225607 0.1920673619010148 0.2243885592192354 0.06661423761325701 0.03378673053529046 -0.16150078909624402 -0.05148955161220278 -0.04736275624142824 -0.09406579287330465 0.008482551195502128 -0.03378932384255071 -0.016222860723020184 0.028091179979917762 -0.04360881505304047 -0.10788006138583532 -0.07331812949413967 0.2258913967825815 0.02302498006099947 0.010976898373536664 0.030328395004405657 -0.14515159120011595 -0.17413945486854826 0.024728453064607973 0.08208409155871339 0.06131525105478234 -0.10133307945737627 -0.12027755301578463 -0.04095432389643592 -0.007647551785013895 0.09387744079440845 -0.031190299977433607 -0.030377254698633206 -0.19853664223505635 -0.07099375117736767 0.005560766642233213 -0.022729393551424608 0.20059961553057298 -0.012224247834979413 0.16256536217407958 -0.01009231921694946 -0.1432065114896593 0.024510170414559575 0.07888981395617585 0.12528281408307174 -0.07932161941148747 -0.006851514594120199 0.06945901822501976 -0.09224399272230215 0.003794432045383226 0.003744647157611649 -0.11625342929610726 -0.12809014255448856 -0.045534481447507276 0.03298678983299083 0.06224066093061938 -0.055224834471139746 0.0806125566208535 0.01913648315369103 0.16865312275140462 -0.08034720915315566 -0.027030499872316517 -0.06371112142643746 0.0011356423335508125 -0.07772904417969362 0.09342603478345621 -0.010480596574663546 -0.006094030148609307 0.05268992601934702 0.004736836710232836 -0.01962210882352568 0.009914868948204612 -0.08515245800817514 -0.02716320221467631 0.10719142360509529 -0.07171266364067379 0.006526006058886537 0.03130155165257027 0.005529637697118649 0.10580303612339563 -0.12445363239216348 0.0015313144616401074 0.15066086737219786
belief 0.009660542861956441 0.27023044117088774 -0.01985982815450578 0.30190773378061325 0.08881739882139528 0.07683789327046904 0.08798680457497982 -0.04629396700096969 -0.212324427245092 0.1249199665186845 0.025688831320079892 0.34011182022646574 -0.24373823704847355 -0.25456250438295513 -0.21574997259199843 -0.0008743426983488015 -0.03315751390646057 0.1711138567412665 0.0164458023512995 0.007979766802819432 0.014313299373955849 0.034411735305129525 0.00466006786426637 -0.02124090488031522 0.0023161416094388907 -0.1260736389754889 0.04068727592604506 -0.037374228629349866 0.0021572948770721624 -0.0013032907994171815 -0.025520987986574952 -0.006659186048084395 -0.28032825454578275 -0.08811683353971918 0.09511558930105309 0.08896376117642435 -0.0602518023782751 0.003971307859890094 -0.06830787344557027 -0.07536930806408487 -0.01949668891052918 0.078774588959829 0.0775792044516369 -0.15434370601259953 0.032533149533642364 -0.10500830370201265 0.006839555691483819 0.02337012088344696 0.02247268625422888 -0.015436379082519953 -0.060788788972062205 0.02110936255534949 0.0036929659563260248 -0.004279474147634217 0.04526047887166988 0.06642425486422318 0.05040839739076497 0.03537598863903639 -0.1327610947751451 0.032147217077866726 0.0861906281403944 0.18033351726823932 0.048739751032834566 -0.07649345802999401 -0.0021573135536975974 0.0437385216633732 0.002828644409691868 -0.02751236092455491 0.0040804535927525375 -0.07325081224234418 -0.00894975668835934 0.029876393995809346 -0.04858775345561263 0.01080801077884474 0.02154323601727994 -0.013218250668292198 -0.002157479620515214 -0.03934159846134905 -0.03794510660351284 0.0020891021334277188 0.008361537386013997 0.043644677889785814 0.09043853774263932 0.0680463695688075 -0.0017416758395634307 -0.13626067850790147 0.11779277229833653 0.09398715448410395 -0.09739870476092265 -0.13819143699047162 0.011083103672865375 -0.028771062881798735 0.0920484405430985 -0.07646801303512482 -0.09480741447511994 0.0632206911366962 0.09831015808203186 -0.07986971952952783 0.0680196421261777 0.12048167167481691
bath 0.06106942029744022 0.29226598597874276 -0.012957113535724311 0.010820049258442857 -0.18090258863601572 -0.22861351208693456 -0.18538482637972428 0.13053647432435725 -0.15296625152954865 -0.0898351934381682 -0.27734549519494944 -0.14684548750731902 -0.15302569312240255 0.032702649369813264 0.09110110537264168 0.053129781434531564 -0.1470945470551216 0.05850515481483125 0.1348753030063127 -0.0029438804796363574 -0.09402783498994499 -0.008539615567292153 0.022101943112021967 -0.020664134304465388 -0.09655075681427423 -0.05325017900383858 0.08071265437791726 -0.027178659218251466 -0.04256115176068748 -0.15131056739155588 0.03220582798710019 0.01862426620341915 -0.1519941244688313 -0.12007306548750224 0.060710390138615504 -0.1591726298216155 0.12739348194236622 0.022422440452395127 -0.027516040523757904 0.028097367831703517 0.14126403871782084 -0.08217884381373344 0.02598253860457206 0.010109478681279769 -0.10585095238721352 0.057353404572017756 0.024736091085421807 -0.05309261223056565 0.06446811090081701 -0.011080276257695174 0.06951478747111223 -0.11248734556509879 0.20226640986844455 -0.23605963189590914 0.1326037373505672 -0.07323620989389487 -0.06418567434558632 -0.1011927800140385 0.12564544122625107 0.014915094803791473 -0.04838361338552986 0.10309703475168736 0.1820184394330376 0.0712598173733302 -0.11167971786280298 -0.11193544742300336 0.010318427967662611 -0.06228670454334927 -0.0281747379240017 -0.0760413698019622 -0.030491014093824525 0.01873812251119114 0.004958303029040313 0.012463456874330732 -0.012763297403257151 -0.05055246835526895 -0.061583033934025054 0.021526279376737373 0.10766273230816603 -0.0064725554796722365 0.0010018683061035966 -0.08844070709885779 0.0964213466971897 -0.05332370261323429 -0.0009491047493089794 0.09054413728236345 -0.020998987587454953 -0.0017150592913160506 -0.013497230869378329 0.030018837224490932 0.06237607141988446 -0.08693914116128998 0.12969588915751318 0.07516005911473471 0.06050658871290351 0.07696800609255022 -0.005081970162471446 0.1052633387705606 0.10712116925534657 -0.07404889602366625
president 0.014699288105537629 0.28254632273010616 -0.00977293740905659 -0.04332336993518277 -0.0004142785901965579 -0.3955126057315827 -0.1494587064960448 0.06922316379414649 -0.144116403000017 -0.05338783389935083 -0.1202270893162219 -0.06689397253251188 -0.1245551788919081 0.09996468552100554 0.1332297396609046 -0.14087678037335538 -0.06835365052437126 0.014227385472353403 -0.02447303697894888 -0.018116217134555093 -0.08814710224848948 0.0266861858513353 0.06396152949700096 0.04231574730577676 -0.16831406197296256 -0.04217477804360265 0.04114770980543139 -0.035652371908675776 -0.06224089520577775 -0.12840924774304066 0.03671498020890996 -0.120626751433501 -0.21202669109702482 -0.05863943351440669 0.03088185251165219 -0.03348412387003772 0.04869231460707436 0.02840107370654296 0.02965151847483126 -0.09244188484545886 -0.07205625558937843 0.08022731062141625 -0.10243844149190243 -0.01071972690476241 0.06212182792317234 0.10407055573322847 0.002053725975781005 -0.14200209404611774 0.11386753350606478 -0.0025367754103837407 0.06224747455884902 0.06774432806289275 0.08359872119964001 -0.1469560080169283 -0.009259166329711391 -0.07808615688871996 -0.05683925667401156 0.05120739087684825 0.03318002998578619 0.0029061179910200344 -0.005474992473133457 0.1711801289226457 -0.0032115369575562236 0.03334800959209986 0.06965117282866416 0.08567712972377618 -0.005107292433241898 0.15123384862833072 -0.13311806573311258 0.03296860473063927 -0.01509852281569359 0.026708261422339254 -0.1685640226450132 0.06774179405002753 -0.08218175139379291 -0.13804202656237446 -0.01641117566956847 -0.16458702766421357 -0.15721217555115227 0.09605294984343288 0.022065099890106753 0.14055846604341182 0.17462876901730975 -0.06749296387661265 0.00728545482193452 0.1444386605373437 -0.10865848561641457 -0.08487815172947963 0.01855990176540828 0.16014293162167828 0.041306635750851105 -0.09497729723776464 0.04430589196445901 0.01383683572862163 0.010598233015633592 -0.04674165739695795 0.025461563086158923 -0.06463497578655823 -0.09327658857606147 -0.024738051223695743
think 0.5018331008919633 -0.02189218500970879 0.0007033870170454687 -5.55180872303294e-05 0.0047872000580259115 0.003184552502021355 0.0022140670564087593 0.00011680681824658828 0.002042627444151179 0.0008558851973352129 0.011065207609686498 0.00994250978684203 0.007011515413465239 -0.003452928586270185 -0.008490849151399244 -0.004462370048003674 0.02801588748473721 -0.007497386840842007 -0.02672864788851768 -0.05286938822572102 0.1418800639889402 0.013758755378252947 -0.09062024134362101 0.13814731512024703 -0.10612516395003878 0.009070097865077394 0.007313856804604729 0.001720503989492523 0.00027553811823893793 -0.0015375235079007853 0.0005551860063335785 -0.0025555611126216963 0.0033198115321419236 0.014381080351725523 -0.016921012263297508 0.053692166436588064 -0.02668896034807833 0.35226319023468305 0.027542016390727158 0.012480709905053447 0.025513901940429164 -0.01698082658261544 0.014133957632239104 -0.016629135071629293 -0.020952860355367284 0.02137587379360833 0.028387980702101433 -0.013655279227208062 0.021409169868226375 -0.0028353339582437675 0.007629202386656923 -0.027687316297367138 0.15071756115121746 0.07174819567078056 -0.004615924735979061 -0.001983401897500576 0.0006553769772680341 0.0026646844148018704 0.09051658124629333 -0.056344908428321565 0.21407758619218947 -0.019975317525751338 -0.003578320067188142 -0.0004943780017004074 0.00010965573933149749 -0.000796659558710376 -0.283505927760971 -0.01294549394853673 0.0027144203337448334 0.018919095084369113 -0.14020150697782324 0.15530140962582098 0.19330688148734448 0.36211657312971124 0.000278423226195057 -0.008724227352344092 0.004592023706585806 0.007671840479545385 0.026576491462896513 -0.00603761453695904 -0.0010589847488802556 -0.012508841150918713 0.008200196573020032 -0.02023538861203197 0.2545408727684528 0.014956610494919115 -0.018738605017397034 0.2454855948072319 0.19614268340598492 0.03303952313620385 -0.0023729527775475227 -0.003774500292913023 -0.004143962179305714 -0.011279013962710551 -0.01860332781306757 -0.010120546175393538 0.0488204604555892 0.02372157388943924 -0.033983945047331404 0.008113533608680699
make 0.5854285530956487 -0.02726002755357437 0.0009213436728838282 -0.00014853717429290256 0.0057042819884092055 0.003438365024347952 0.0020015677791374777 0.000489069915611275 0.001957936536340865 0.0004736671075685205 0.008808572413462409 0.007823012411710949 0.004875168516148232 -0.002373551044142009 -0.004721834714799937 -0.00230971613900048 0.010443800677994363 -0.0026239980790134024 -0.007468874456073608 -0.007495115433703903 0.01100187777605733 0.0007087216007576558 -0.0015246362229007415 0.0015070174589682398 0.003943425454148866 -0.0022954749151375665 -0.0037806383145540267 -0.0005506283939664097 0.00010033749160223163 -0.00036953065286733964 0.0050533406599613615 -0.02239051790034533 0.007694913697420876 0.023631183710299455 -0.01878288226826375 0.015670695731299675 -0.06482550978033758 0.2058868596041261 0.009009050693814222 0.002659391120843113 0.001108308787022029 0.0014918405962140956 -0.0023743913007709555 0.006046059042110512 0.007211771523766455 -0.009666508142966827 -0.02459336058269738 0.01149268629452129 -0.018974519163852007 0.0037220518210570085 -0.01228179270144969 0.04782163392498336 -0.3490722277100489 -0.23778246815390502 0.02188834597497551 0.0067315864798158575 -0.004775596486680541 -0.014320166010001304 0.15213018530788014 -0.06946103332094664 0.2272987360112789 -0.003035935973319707 0.01736037216542607 0.005963482137145333 -0.012038247074248814 -0.0056579711502839 -0.27077118895678115 -0.027934389950195454 -0.027303520871925595 -0.0756208826411325 0.13772835168112568 -0.1574342180636533 0.03543696443841047 0.13938830759160314 0.02852465618326351 0.017909571906364413 0.012266067950610082 -0.006900137271084356 -0.025998949946400583 -0.0024792481816205947 -0.0004917355278692583 0.0031443350722416123 -0.006562431397833106 0.007889244664294252 -0.3570055503643929 -0.018390093136572784 0.007582845427043327 -0.09780496155457181 -0.07683544037882255 -0.0005851463988339179 0.006904179670673528 0.008155576079502118 -0.009678665623043727 0.13807911456236296 -0.12354607342268069 -0.0063094999295685164 0.08841435177901115 0.07695707281277446 -0.07523132459306515 -0.0016122602790578982
