1027 100
car 0.009173742486140212 0.2765604024589596 -0.020141285634030913 0.04727483610693243 -0.05967316824690073 0.25201161647998527 0.009163339796146986 0.1406913791982601 -0.13699912787736426 0.06994082158102875 -0.02451927370970969 0.0016138987202822892 -0.13967886408512328 -0.12730041335212244 0.36011166614820084 0.09626601954570128 0.09253602067754016 -0.21853497227921032 -0.16037771629444295 -0.024526120420248994 0.36874768300716265 0.08826075182713296 0.06662403475532545 0.027789627878129802 0.0714631595503445 -0.020352087761971085 0.030154030237916296 0.017493983142638284 0.009391828177823178 -0.0015013369701536647 0.0669800975897784 0.10437566755067283 0.21664008444519428 -0.008753519276919381 0.0741699310397784 0.1589604835774311 -0.01902309441579001 0.02395044171710464 0.01139565438681635 9.922373170239339e-05 -0.09357023660588153 0.01908810341510537 -0.16929180919530623 0.061074381248904235 0.0009869106026743754 0.026949702530652025 0.05638732785949446 -0.05323264020185424 -0.026713610758800743 0.00960394436321183 -0.011646484432906222 0.13916021092449543 -0.10293493536768852 0.10079908827095867 -0.068668196933443 -0.022427160336786472 -0.011263548798251276 0.06652680063714121 -0.014438867793373875 -0.04170779607157977 0.016488107845280656 -0.06423366299635207 0.009128619447317778 0.12372279912713763 -0.07399868631189438 -0.0026718919541093744 -0.12817975145752744 0.035590569900578524 -0.018339165087108537 -0.052597589388155036 0.022957037719896507 0.025335777658923284 -0.15654736129759161 0.08766317319981735 -0.022065664173847296 0.053109231555241235 0.04629369485613894 0.004377132696195004 -0.0284769140707433 -0.18947080841310832 -0.026634077166547847 -0.10883419985374954 -0.0074284817148911175 0.03302436942791732 0.12032212961590201 -0.007717137983257567 -0.10287219124450703 -0.0852532459074248 -0.08650758920623569 -0.009645853913234363 0.04763833184571353 -0.08201717924613203 -0.025853744400525444 -0.01567921806112782 0.014145148672484032 0.07580487496719557 -0.03193370178975126 0.009352283909934787 -0.09308092038816872 0.017491442783723516
door 0.008714072502578859 0.26744796360679723 -0.020568678672499237 0.05201777337331997 0.0821707812012734 0.28261337161898575 0.05003361771585904 0.10738006775734706 -0.005403462502731445 0.19700755883622179 -0.15099658122964155 0.15757937050123613 -0.3551861683474649 0.09698947745396123 0.014679993996038277 0.0927083857883913 -0.1295486247528222 0.0837277043992036 -0.01568552236151896 0.12194477635972922 -0.04734179234499057 -0.2083813373548992 0.08729873516611887 -0.12101659912486157 0.003783679567864481 -0.04655153525870124 -0.018560834724800863 -0.05708704550327566 -0.16402071076415506 -0.06848669527607508 -0.11794717437545131 -0.09990941269304658 -0.02275387798096794 0.013438465626786104 -0.18548661288456256 0.03235446241822985 -0.08782809293838305 0.030277454022489898 0.021993881100583635 -0.10549670399894708 -0.21599705773521058 0.049339070274198385 -0.02762286134846071 0.0400704833314842 -0.007816721009877934 0.08974268890021503 0.13590951528299816 -0.02212908353177931 0.10046825983799264 0.03319833719797295 -0.01569033521581528 -0.0159406787988105 0.17904775512944668 -0.01943566262118307 -0.015831988681203446 -0.12717276235178065 -0.02061283920854269 -0.11544116920123298 -0.11591078461539031 0.04879305017454021 -0.051175053457925945 -0.031146628143183495 0.030119999984394578 -0.1648331664729885 0.03165018256549597 0.0008543775814553838 0.15506714008476558 -0.022207966267284166 -0.03746893488263887 -0.0674771101485498 0.05700617803142823 0.036987689056167394 0.025984589899324454 -0.10289334821757717 0.03777498742242131 -0.1780689460572648 0.05752668994070601 0.09423434943977986 0.13732360230548027 -0.05263259284834124 -0.016514324469182627 0.10878430279974839 -0.003733421587403088 0.07250735498249682 -0.014842433060520258 -0.0003060008840841537 0.010479866383467361 0.0037636841537808463 0.031592675564470686 0.02021362153742972 0.1266174017109478 0.033805995082383154 0.04379414875348837 -0.0007129706274538899 -0.003295469318688665 0.10984047557993336 -0.047625775605259844 -0.00542980981185973 0.02557291483031184 0.03679194850297131
book 0.006774304530438393 0.21074076135710287 0.016384056883294335 -0.10716155165389396 0.13018187952879084 -0.3028054165353515 -0.07662671392508286 -0.0778247902743002 -0.19322292717872402 -0.06100263523175611 -0.009651090588240223 0.10466559595711998 -0.06611772715143793 -0.23661914226170205 -0.01901621334377917 0.16038393955847915 0.18036240204833226 0.04031927864117771 -0.05470465733858857 -0.007024648166442747 -0.04889937240174359 -0.15143796410843338 0.13931671059466813 0.017329736681147123 0.05954311644755812 0.21521504139603942 0.0925957975933349 0.04215606196520242 -0.038848398582893455 0.059735616090231446 0.10662358074765511 -0.003382635639200518 -0.048958337698681284 0.020408683674124562 0.11748917887912974 0.02667368623676725 0.15143486852055824 0.2387555830301232 0.23302672332093785 0.022320866446140248 0.027533119513042124 0.018952316886652207 -0.1414224129257336 -0.0931448756268246 0.025609905826300797 0.001465944139779184 0.08352002692149268 -0.04298516500960042 -0.15214969911150766 -0.010974801142753988 0.055945588393994355 -0.09111317826467233 0.061759810732546064 -0.04914351894689592 -0.03176915133038262 0.09616719779977888 0.0015608816052596532 0.11910913199078733 -0.0549378205562422 -0.05815806165357987 0.007860630251801075 -0.015698458033500964 0.06854937928186254 -0.06337263818896266 -0.1326191708682819 -0.013160366286825865 0.10448849704938967 -0.043586144809369294 0.10239175524312673 0.1047410884942571 -0.14427954954359104 -0.115543387035309 0.025988703972294764 -0.09478806916748347 -0.04708965683650135 0.0001563589118849364 -0.08005467817680782 -0.0033524507796726124 -0.18791764424316218 0.05320050422854914 0.0064265670610416424 0.06564224250035802 -0.011135960147479815 0.11356096174850597 0.01504977388257419 0.04489678896005536 0.23109733433000196 -0.08906063353802145 -0.005183087476114711 0.029434870948522956 -0.010968403352452326 -0.12313410766911949 0.010473704259154417 0.009467098501252588 -0.036869132556527726 -0.02549710993519294 0.05160600202410083 -0.04862781356898141 -0.07438200731224454 -0.033055072692916805
arm 0.009684557851954071 0.2669228144946943 -0.0183832995692154 0.01828476948788934 -0.19670374558659065 0.07220514995732182 -0.18489438374700876 -0.15081958031979278 0.10857885714247822 0.08063266701013043 -0.05687686202210925 0.016358396994971425 0.12830773465427667 0.029723299788100534 -0.06707708035274472 -0.028932737732771167 0.0540107052067986 0.08103981622938439 -0.006908135715414099 0.08913950472721419 0.13340062623242654 -0.13344142958362687 0.0562047039609305 0.01882242988797608 -0.06050057892252174 -0.13359496746260033 -0.23409831539467776 -0.09207446950494934 -0.21315343348227808 0.05453052074377969 -0.14624911985875189 -0.028463593144984454 0.03026178948613761 -0.050401885117848405 0.22455402687581436 0.10659569836801609 0.06059123675852558 0.1260240017608787 -0.06475331380572054 0.1350369942607622 -0.02821890666439779 -0.2074573227221051 0.02455955557538414 0.08867400437518902 0.006143545321118713 -0.14429354297360877 0.08755994127673028 -0.021272670364733896 0.01938468373602084 0.01973164362975706 0.006257903483785992 -0.0990274871542007 0.08211887311096355 -0.09245363528978207 -0.09611698734394493 0.11000484171430124 0.018684634801082373 -0.05941616360469333 0.1605090512750385 -0.0147750317032265 0.07279575032119157 0.012561116895143573 0.005747492253552278 0.16702983406532118 0.16829888935726658 0.011617625032205352 0.06510634696056695 -0.14173546160509568 0.11139405260722796 0.14283647945605912 -0.03355341852584929 -0.011278410821193997 -0.17548774822393673 0.041241692372813686 0.013933358931578311 0.040680568778643046 0.08306151213844941 0.0052407922152992404 0.09531970292353914 0.027622092833300554 0.019966051695749592 -0.006917019780746637 0.006261953232420311 -0.2571064872106505 0.14700536730867836 -0.00724784654453255 -0.12048233583964514 0.06970183468328331 0.013848626577562468 -0.06243226678888322 0.05365446965599652 0.038796504888440435 -0.03145931035339206 0.027816057240839194 -0.04576961453391179 -0.05354767353397865 0.07938339624498233 0.039829530991286534 -0.004352485983765331 0.05461351791995533
give 0.5018569232247403 -0.021162337953856886 0.0006833853324986107 -0.0002741084694863562 0.0019033700036905033 0.0008458961113905411 0.0003762898498170703 0.0004575972588919611 -0.00033729005941128586 0.00034443139632845646 -0.002924405269346166 -0.004371208624764133 -0.0036248434481789206 -0.0005978015578056675 -0.006081148241236312 0.006966849972983458 -0.04021017338874565 0.013929323927310831 0.07103678540915567 -0.25251678724072196 0.07436018454185925 -0.10663068032730152 -0.0029434222341706982 0.030462856153460355 -0.04687824387399231 -0.013259401536860024 0.016105040779163624 -0.006393386057964058 -0.005597346108613786 -0.008589839673144415 -0.05379895474269687 -0.04055990340252498 0.024904832137580213 0.23244261880922765 0.016370068316483476 0.002041922385388409 -0.0011651208306252862 0.010560152584936049 -0.009004026457255577 -0.008658724752117054 -0.012579738390807721 0.015472449407920544 -0.01117918806205801 -0.030530629171982526 -0.06272207052990346 0.006792077281115442 -0.015711120941527518 0.008597948033189072 0.05769347464140233 0.0030114483577420616 0.17423452202238207 -0.0007865134051944365 -0.011221209800885656 -0.004426180314822764 0.0029194990694374695 0.017245142198125316 -0.20912995838692136 0.012052855448527753 0.016462160704100826 0.009395733885601469 -0.009680790732942339 -0.0034181091563608022 -0.016563397698137878 0.0013883221149561798 0.011601037452956577 -0.3231096247108345 -0.014812622092085758 0.02086686217195023 0.05224040101109843 0.004053136150370295 -0.19529276936316928 0.27151107241638145 0.008065368745984944 0.004117268824570958 -0.0006338848879176277 -0.0030354101979135797 -0.007553598612370095 -0.003998658241577964 0.004700399579196859 0.008704844341746634 0.0034725125557213523 0.00340918808689618 -0.2097210149293769 -0.00546926448214086 0.012326189162289038 -0.04431362948177583 0.025133193368665683 0.013650421845947234 -0.01073594408515877 -0.023978320453674637 0.04972950108372176 0.024950479623502008 -0.053082987303624464 -0.47903287516408627 0.05026478257886414 -0.06871532870132466 0.005545126751080727 0.005874678883928335 -0.039856930738527245 0.00804858711048792
dumb 0.0010430712453604895 0.050997119713779716 0.7965732403053386 0.0009522395496196778 -0.00046989981304593404 0.007271773094506629 0.004712164167982743 0.0019883439716358014 0.0032447874743670607 -0.0032781517488446703 -0.001508819847769508 -0.0047363963976396715 -0.005047297113925997 0.0026225987228995842 0.0026455402779470756 -0.002381730832126466 -0.011603469555079838 0.0022069294040032543 -0.0029873811792164727 -0.0023056896988703857 -0.003767148829256295 0.007027532046853212 -0.01979658438694664 -0.001598154911926854 1.896955111561968e-05 -0.04371200837550138 -0.014282470107883196 0.09471766031701753 -0.020164962522678794 -0.004597170293301181 -0.07157289363216554 0.13693317568846491 -0.052566712998782676 0.012859669430351205 -0.018982157167098307 -0.021043631691956114 0.013837972358236684 0.014987100274281333 0.003345870348410445 -0.002304936921752092 -0.006139764560928721 -0.01288374683635247 -0.011333706095890303 0.0004972987384584815 0.00014136010248682164 -0.0015787050932266058 0.004357039864008621 -0.13290512065233542 0.050263429950465816 -0.13367533502267476 -0.006503075751608357 -0.012888393844651845 0.0021645311151113327 0.009246762772713822 -0.00604387156739888 0.014157193770060047 0.004317373704169956 0.027571575769326187 0.0024818406190808915 -0.021186013804688666 -0.0477485891497058 0.010290859013374296 0.021499815113091198 0.008367343991293026 -0.021389347223942968 0.00015214801462933519 0.009305146363984568 -0.04651612665544124 0.011598880476377634 -0.17857387551252638 -0.035783437894105166 -0.010984412355291663 0.08567532885341667 -0.21449399526652568 -0.3404415322259312 0.20315496305415132 0.045661260663969465 0.042526394216902456 0.07496401823613395 -0.021440615715991117 -0.0899461498176805 0.045650875162710464 0.004582642113581681 -0.06875101496095025 -0.001365717895357042 0.0007861476043762133 -0.04302690931282597 0.007868620661904593 -0.013305324710627363 -0.03755400497750901 -0.007188964203107297 0.005495888617055629 0.008309422854558332 -0.03130874311258199 0.007729864771946379 -0.047342624264220035 0.019725815225776298 0.009175320183476552 -0.0216328711101627 -0.0031955551908530947
man 0.007899264526299956 0.24229512656415256 -0.011746567719473293 -0.01657618549174069 0.019791900539174432 -0.2369550699443412 -0.289402370944288 -0.10751498360351862 0.11377130889544652 -0.09665124397894256 0.021019710092469536 -0.032814341577811906 -0.032159751757207436 0.16535598970485718 -0.23218808054096823 -0.0040552111641262625 0.2907247196215249 -0.06905395106544308 -0.07458860034178397 -0.12081945270514378 -0.1462760748749982 -0.017901564242638595 0.21073519385374512 -0.05856899032937994 -0.030560878475829275 -0.01830676685526244 0.019003035985172546 0.021292312770626057 -0.003482914447387013 0.08457011067918693 0.06923203822220633 0.08660375600337927 0.07843886343984954 0.00715922618242441 -0.05042570495101116 -0.1283838118368484 -0.011323531944788594 -0.16224563037843556 0.1377473089015044 -0.15062820910325725 -0.13879354616056241 0.15443238501715087 -0.18063769355531586 0.04308239832343197 -0.0014957895548958963 -0.024179951056401378 -0.012030389779595299 -0.058054329818600585 0.07663174198697058 0.04523338076520547 -0.0024330416236118895 0.001898409209464243 -0.04857140542384675 -0.025650123090230462 0.18494307717508487 -0.12713166966419748 -0.017553387775376097 -0.07430025906704925 -0.08080792470302411 -0.037300956639304404 0.050672422671991776 -0.01653261116182014 -0.07665362987947955 0.051344051656297206 0.16034406354389955 0.010642657610591319 -0.14941000994802833 0.13951880180427964 -0.07058075302114282 -0.08374976976906029 0.01759486443542488 0.00047267038197989765 -0.050131456628362076 -0.06604876660871058 0.06994897070622914 -0.016495369760859177 0.07105507845334387 0.0835482876378355 -0.015022371747796885 -0.006656395547836667 0.0025329696274677196 -0.07233335108677078 0.0022873872915800454 -0.1406442101572806 -0.028691759178735517 -0.0012152550467653292 -0.05546332851603807 0.0442616426485496 -0.015768562630966047 -0.009275714215340904 -0.02839977737804658 0.12705906244156426 -0.16602088635772452 0.011072776519127551 0.014142987958790033 0.17228140326129568 0.0371156999977142 0.08649279847341375 0.013959512121548983 0.04244946608584631
bed 0.007234841145100467 0.21891885930474536 -0.016978411200494686 -0.18607822915859593 -0.002795371130978091 0.332183241473549 0.1954833855119757 -0.07639949327784938 -0.12292264989224853 -0.153201733850325 0.18792625159792006 -0.29725006680696187 0.14090096827243942 -0.06518118236854607 0.048800350326258714 -0.034975932463098845 0.23430005458514525 0.13696568432309777 0.03171710258525375 -0.05340905604063397 -0.08503753206074247 -0.07310119946569202 0.03525269036408176 -0.08790766195462664 0.12186787652788778 -0.020188233503804626 0.037148160054928256 0.012115303643913977 0.0982732337566131 0.023015719394505214 -0.07271265698244143 -0.07895636778430729 -0.09433212447298235 -0.01984336581878951 0.0841550030029753 -0.11573394866899131 0.08609039099855492 0.045552661127583084 -0.11083423061485245 0.05992566430391493 0.030187453397838578 -0.16460976538623007 -0.01128896950569126 -0.008963889085962918 -0.013406102739177425 0.014913158414224055 -0.15293637925601294 0.010387114707003873 -0.10046326197783413 -0.01897387024370356 0.01610049463671004 -0.005835232867939332 0.05034885430024766 -0.13973564920943998 -0.06788263654634533 -0.07864569452564565 0.012941264717776743 0.0012406037676626184 0.11278880462132668 0.09763170054590198 -0.10540051321928433 -0.13570305080375908 0.003742049608004751 -0.027796251431382358 -0.03769192213362238 -0.0050477326687464056 0.0647806145777857 -0.0517525097213289 0.025513916713776546 0.07870045380538523 -0.0316251049812868 -0.02611262854395319 0.1001183985932471 -0.04869639394852291 -0.05992107728890066 -0.15113494176866166 0.27379172082856473 -0.08455311575857129 0.11027988246603336 -0.006186047052425812 -0.015751830451667472 -0.14647024457647886 0.0057885612818091275 -0.03362763268765993 -0.01670885870028813 -0.025211655608458745 0.06935265842562355 -0.03650256836948306 -0.05393481720765827 -0.013493558858564474 -0.08807123370925572 -0.04296086138015215 -0.05483344877121828 -0.012402505877990352 0.05943523254652928 0.042554588346596346 -0.08327330676326243 0.10357311622965341 0.11329963124954553 0.0020114250513506857
boy 0.009736814065827031 0.2556686731557356 -0.018089058994108304 -0.13279984739392764 0.008493324342862799 0.0393305279725936 0.3202392405585516 -0.06057905835113375 -0.04790199891190298 -0.04153991521666535 -0.003310595957961961 0.04379745807151335 0.10974016396388578 -0.14963364771922033 0.07405582826391169 -0.023179257675783285 0.02032353077211027 -0.051878103775888675 -0.07162583753114704 -0.03328531629324519 -0.21864594443346938 -0.09525157393246922 -0.11731547339289987 0.01799558015087755 -0.21379395743232898 -0.08509501634912721 -0.12749888754041874 -0.07725733982438757 -0.027352364429907742 -0.01092685483876683 0.02939067032235338 -0.006166885270815976 0.004037112271865912 -0.003961593502258775 -0.045103668766702645 -0.01954283516447551 -0.052238891681285884 -0.09168497588392255 -0.0055318469862336945 -0.0674888798631812 0.0447589977199976 0.16969841163926566 0.04581183879110432 0.04918637128892637 0.0032168336901950588 -0.0446660443771081 0.025955778101533267 0.06024990057200542 -0.051085885517974466 -0.043808367315791394 0.007994471720266103 -0.10886909884963217 -0.09989706768075461 0.14702683940300587 0.21064213644952604 0.038979876696931384 0.04909542170373751 0.2786943323670261 0.18427039014022978 -0.011852345317095715 -0.049427358228315135 -0.03410761033045231 0.07328986277973548 -0.2131645362439485 -0.21681808478357595 -0.018414589444199967 -0.06876278801171967 -0.031241954703500475 0.01770123951416751 0.05326302763018614 -0.045264435752971795 -0.040070222063192454 0.13685237276365764 0.10158399864457027 -0.08198678199813228 0.07639433525746683 -0.13844156250809977 -0.10209416074997768 -0.025697858006661557 0.10471090459114916 -0.005361864952982849 -0.12150269192341638 0.0008208166543536285 0.15462002739392383 0.007057603686262597 0.006367918014633798 -0.026658428215524766 0.17056210421870402 0.15637926927412105 0.02717406730627143 0.10958433027584544 -0.1109528331840826 0.0084335948680544 0.007519363545848796 0.015638795908077163 -0.10291245508148966 0.07102102210547652 0.017231621875254587 0.04700308968577736 -0.05882749865694876
bone 0.007564750277859597 0.21420427190852157 -0.012546923357749758 -0.03745655671257952 -0.12662855992081565 0.11181057173746414 -0.037085770199331625 -0.0491530707582063 0.03675664619483411 0.28996721617292964 -0.031028701917697608 -0.14805788271866813 0.12586365189193036 0.1528912177007644 -0.07915650678751197 -0.07763066158702878 0.07904972313568859 0.129904580180049 0.15784326763388895 0.12903945360695573 -0.06803134604146122 -0.24397492933184553 -0.06209377820137595 -0.07313596044417775 -0.13868797349845163 0.19711201356064828 -0.15299383040801734 -0.02381370802776572 -0.18671814722526456 0.224310000331865 0.0970533231088869 0.07754657888483187 0.006623613282484672 0.02987587940277869 -0.05548636317112356 -0.11741086782232167 0.054888237336832256 -0.00859460840518782 -0.03406368837383365 0.13518286887884481 0.14033929946817952 0.2038101530766877 -0.05142617718886551 -0.1301659852152049 0.0017910785684749676 0.11258372651490797 -0.07527420512183376 0.028767378507187417 0.037273023786304024 -0.006347704096319133 -0.032356661074928995 -0.03695686869670934 -0.08822041539939944 -0.07599399531420335 -0.11271233706826583 0.12019606386380159 0.005465983520492453 0.04681848243797167 0.03993021706475866 -0.03601074799645399 0.028145473319792832 -0.17308945466409723 0.1086770236080177 -0.0326422357829539 -0.08319962521680296 -0.007752599409073407 -0.16213850221420226 0.07707863812033425 -0.011231126739136829 -0.03350491540516122 -0.024325675473910187 -0.006789480488246306 -0.18129263139644386 -0.046334108270777406 0.012323680034749672 0.1025033718188618 0.11704844113804504 -0.07249514525317186 -0.1648546821615197 -0.014354915771156166 -0.0008506237940605413 -0.022475678816100214 -0.0010907836990692464 0.11544000333724305 -0.11619925773004458 -0.00981894744367034 -0.053237124424852775 0.047220456415260376 0.00429554071336439 0.030362034284352725 0.023206311866460435 0.08419658830859349 0.12330198405984565 -0.019818478282547507 0.05781595170370776 0.049336432802257 -0.07828217311803899 0.05311568270695519 0.03873156076616637 -0.0045664704737039
leave 0.41332415480757734 -0.016193334298205457 0.0004872538607775213 -0.0001003199132136798 -0.0024549116989401993 -0.0019516022364074249 0.0015205355355066145 0.0004208978473841023 -0.0019363667316099034 0.0021256307383870385 -0.008645963855883159 -0.009052830832138183 -0.004669674911076019 -0.0017245239929663135 -0.01072631499380145 0.010088965445881377 -0.04326977406756272 0.013608914784403186 0.06663854913175306 -0.20953042449090153 0.05918375757628765 -0.0805862835177374 -0.0021154821261242956 0.02293732085323772 -0.027157674249954397 -0.003403192764639339 0.007803299668000326 0.00021036399649413634 0.0023647137532398074 0.004826498955509929 0.027060403049215455 0.027538314522540283 -0.02694842411225213 -0.3830594122962791 -0.04599252409979986 -0.01058127009288226 -0.05055853806561726 0.06639690052443746 -0.006885294195147206 -0.008604600384427731 -0.00578054783253426 0.003974426841119509 -0.002540392167720133 0.017585827949309688 0.14715973872266547 0.027369177591563713 -0.011286580099262594 -0.005565119487773549 -0.03862020841012855 -0.002540066623779913 -0.19429573781007659 -0.0083764000079254 0.04104934244730953 -0.02821238831042863 0.05518223844786778 0.026576118585446413 -0.2171498971359833 -0.0001616899958209748 -0.015804253504123383 0.0008611136268882424 -0.0020554978583744517 -0.014433192638855726 -0.019568588846027746 -0.008841787279399365 -0.0358587833014467 0.23479474956298832 -0.018626230206138305 0.03761299185278169 0.19408354508079764 -0.03546536423497783 0.3547222807267089 -0.36616290445994143 -0.0013981250609692833 -0.005415617415266582 0.0059573539271247965 0.014147592608295513 0.01922848268255917 -0.027033100674401775 -0.02511505502665946 0.004033707983754008 0.003322644737139649 0.015459015206283183 -0.15767549125050134 0.010794074793996253 0.03456267451387334 -0.2168256378636396 -0.01786154203934453 -0.014516111586509142 0.020204342234888706 0.00317524936201317 -0.04219722288569179 -0.041421389772988454 0.0241592435142337 0.11403519345055857 -0.17963153275003452 0.06883406158459225 -0.010921429369165575 0.010610193268217846 0.035553411445092685 -0.053868791939668044
wife 0.009872396596375963 0.1675648009221276 0.046539793994421486 0.05640337425760212 -0.15578059738069686 -0.2897740717775907 0.01470769539755869 -0.06235361711209983 -0.10525223730716671 -0.15071720846175687 -0.13655788649236855 -0.06260032933856931 -0.0534335590489769 -0.058671606654372176 0.005455721732027142 -0.014385512374793467 -0.14357564495915887 0.0636127436894025 0.13623047029196944 0.0500356016146909 0.13225747249040665 0.16660966825297074 0.1542095768236281 -0.09393109604767926 0.07572507376390739 0.031081493570990396 -0.005291245204519764 -0.04377231104341756 -0.030815586404547988 0.21021298107214176 -0.05571380217229678 -0.11567023155495976 -0.224997097453394 0.02676271633701211 -0.16013919088329695 -0.12091806193827531 -0.030334735097124293 -0.045437437518021546 -0.004676570848052346 0.02123696908554721 -0.06143724024086122 -0.1876712887966512 -0.08778385938855064 -0.03620316272300256 0.013392518916203279 0.010341452008885529 0.18984564873214266 0.028135457431640393 0.09562694217783113 -0.040344815337688425 -0.024522317309527204 0.00867842728192333 0.005567479702532584 0.24757844824109346 -0.018162403733927347 0.154528524497065 0.02616496677872684 0.1347567817975436 0.0412095083352381 0.04141186537104993 -0.09032248120677323 0.01733309179269213 0.05395461893160393 -0.02347905517280636 -0.07058475482883968 -0.0026531459107470186 0.17620922156741917 0.10079142994223078 -0.04547467405465992 -0.19720602220908684 0.07556300350543778 0.07884218359787286 0.07973366175827111 0.07549483119154679 -0.12392249056688093 -0.05228279789999462 0.11587147687067588 0.015220847222401431 -0.15259551549150463 -0.008768061014612692 -0.01039571800810709 -0.18001999574073277 0.001610276046142557 0.012978954528885603 -0.13238341105319415 -0.025659550463692872 0.02540496913473893 -0.031151110036616653 0.0526411932649607 -0.002513490762512404 0.07615644529403966 -0.08434398026944756 0.0194471719639828 -0.008663094511410232 0.013901175406562969 0.0580850474691823 -0.05463220948098014 0.10224641608749613 0.1804279316673041 0.04001296849018284
clothes 0.006164051010782939 0.19789155966432884 -0.014251329336046894 -0.25885359813193415 0.1693500028335029 0.1919297558026996 0.10881112899043434 -0.11357119268117878 -0.03868460767223035 0.05530653963057615 0.0024272234015900256 0.12824696606664704 -0.026503857319011354 -0.18792592039290992 0.017865699703446435 0.27870165552110454 0.08955531764484934 0.025202890286343906 0.1368545634729172 -0.001552279383994305 -0.07743297257204537 0.11129316023966686 0.004874191208485496 0.11198947891496959 -0.08312319015614043 -0.049460806829035475 0.11713517220165019 0.002186230764583911 0.025977363061877107 0.05649448716395978 -0.0959302915011466 -0.009575536553485012 0.1011996860943923 -0.034328617916178944 0.07195168495456039 -0.03746442057266136 -0.012405725479395 -0.08965694085218173 -0.06103467608028624 0.06915099807632731 0.10760842750185444 0.06557362493714959 -0.028901155265383206 -0.10579698937651645 0.013518444927353577 0.04684833086720022 0.113593405414377 0.05157730806228514 0.07860077428804609 -0.008803927107262598 -0.01037727383784382 -0.12586846185680042 0.0960501247370435 0.008091892709661803 -0.030011468520167537 0.011072012458268103 0.012317438358240385 0.308473313559914 -0.1657130922292361 0.006388584858894135 -0.1993162483403491 -0.001488390815827018 -0.09181601345640088 0.02051975365997678 0.04219159687659693 0.006468946936513598 -0.021548427051600753 0.007699877139298111 0.0025704404149943503 -0.02633675377544423 -0.061327365892331905 -0.05990589595037432 0.03457171976036961 0.11231748792619684 -0.07844116486795227 -0.14453249036852817 0.08882720747283634 0.03298196416393538 0.014990554674564444 0.018504536699036508 0.0030741483929887735 -0.10644636622497575 -0.0011075312388478318 -0.05464187653772102 0.024185689517391654 -0.0244367796393543 0.046902542726284226 -0.1099684962033451 -0.14631008413720012 0.07090087985588986 0.027357444055439314 0.31206434826074597 -0.13476425783963678 0.01688510454432315 -0.054246846730484244 0.08890135253630013 -0.039634716569471644 0.14017970457458578 -0.15313578763823318 -0.012447731092794173
go 0.3782021333939395 0.009858056441354927 -0.000987623797500458 0.002644699371643741 -0.03596657846599255 -0.02065621405797552 0.017468849729829917 0.005425970347236009 -0.013220226252093582 0.01143071341081053 -0.05678400629462248 -0.05603954348832425 -0.024548525712809733 -0.006386879046674035 -0.0373165576191814 0.03739204639774737 -0.12745972993161242 0.03769068988514699 0.1545863049197346 -0.4207563190656962 0.1088536766481386 -0.12896487822851233 0.00012239780177597499 0.02574038813924536 -0.03161332737926645 0.0007261103261701528 -0.00020060559316813342 0.003035840161486522 0.0030947096816443054 0.00034941967502013724 0.06962817708578888 0.046671738296350004 -0.02947230938667627 -0.019328496563047307 0.16856411886327 -0.15302691325227794 -0.3591383070283202 0.1335924614589732 -0.0034140581565315306 0.004476295793901296 0.008771498016479175 -0.011792278878756406 0.006144370971190226 0.022501682068895402 -0.03215020426155624 -0.022123245450040137 0.02349774264004645 -0.01081237679830386 -0.08138522231900257 -0.005692022170867469 -0.24674413998807423 0.007513701803665166 0.021166346115132892 0.018141471092569746 -0.006844172391109962 -0.024130579699531234 0.3164261469033165 -0.013969535692408266 -0.0073714257454046035 -0.010107801825733757 0.012712238457754854 0.011016162514995074 0.032413570692810346 0.009434165032640753 0.032796374174141434 -0.007346228197580329 0.03458500665299231 -0.07549253574566564 -0.2887075675686541 0.033962878474763404 -0.02954883549158819 -0.11617296654227038 -0.007012575011080865 -0.0029486122279371125 0.0033278282055429075 0.006964672194813705 0.007672406397553961 0.0024016435491763916 0.004722017038559634 0.00935716877120235 -0.002217631119290418 0.0012083987669401996 0.13588727104740192 -0.003340622307527793 -0.0003217179593178287 -0.05695196349747304 0.0347264153391228 0.017551366265382454 -0.0013488043171411357 0.009940769252235804 -0.020276061701507416 0.029653562491440914 -0.02819739389130582 0.18378259193385602 0.10669064032854657 -0.019479437824781166 -0.03124869950888971 0.02436689830295661 0.05842923358831728 -0.17884090148155454
take 0.4038515584134096 -0.0013499562740994053 -0.00033369488586991415 0.0034522186751027436 -0.02148463934917754 -0.015072691831111361 0.01589981676520975 0.005000658597444178 -0.011213570308053507 0.006806335822513573 -0.033383949834034345 -0.033350759402213284 -0.018983214887259063 -0.0031337367469813507 -0.019795793278386577 0.017951308814755543 -0.06797538086138746 0.019887495162689055 0.08304286675770794 -0.2083255844514472 0.051594200058238754 -0.04915814514366365 -0.002319856259251664 0.00982918633531394 -0.01862386364860572 -0.005039380280408219 -0.008424991786458298 -0.0032008290397183194 -0.00477070290673996 0.003978779751190515 0.03638162449435244 0.019855855498227735 -0.01180583585341691 0.11872467176158541 0.11352385457722922 -0.09366283408236836 -0.18676846651634796 0.039443978504922254 0.007409753393237206 0.010148849692716637 0.017815486366415303 -0.025785054777618974 0.022751239926637853 0.07435544370484161 0.2975546985783128 0.012558627673937641 0.022337982491100947 -0.022533749221181888 -0.14746715495851828 -0.007283878105779851 -0.5383851738033215 -0.008963025465737968 0.03868737192922633 -0.02257773415939322 0.046086301888591225 0.01517090117603369 -0.0879561144580919 -0.0022340239487729195 -0.010710925411951405 0.0040281251010857375 -0.007283008487630015 -0.0020275929871109246 -0.0033769249524910143 0.002793748516591123 0.015518236061110033 -0.10200767252063024 0.008021835513030385 -0.0009746188874915128 0.008489743800379677 -0.008287170261049403 0.010512693640396623 0.02732589160504266 0.0010141838052377913 0.0011638040403210625 -0.006498923646088943 -0.018289260383923745 -0.02142181478963318 0.01955492277710638 0.03929668002775736 -0.008535012641159455 -0.010019538743660931 -0.018773629390142214 -0.35600921207867575 -0.017906303581566307 -0.06024698975273065 0.3103166224557441 -0.017159092919658496 0.00025598578505448976 -0.025868289245323462 0.011448956328597715 -0.009971767006921472 -0.007497923232609234 0.020267044818647124 0.04080364765108363 -0.16855042163607306 0.03672930103783619 -0.00022163432325649822 -0.003878796870282945 0.020335551638540283 -0.031059921683476106
accept 0.5462062728828698 -0.023509371652836324 0.0007771156069262024 -0.0008571547128042158 0.005714441995362403 0.0034373002322114535 -0.0036486627787519457 -0.0011632170085498683 0.0021978710034990553 -0.001412412996987488 0.0074538148516806926 0.00717016952608955 0.0038015884217218114 0.0004184315264841821 0.0032514107330947296 -0.003196274584206556 0.01287301064422172 -0.0037281485673720206 -0.01633670760908854 0.048322700913188146 -0.01292003535727345 0.015747605522495853 0.0005804593822152148 -0.003878226441996993 0.008373632138395051 0.003696197559885523 -0.0023519012053349877 0.0024256585667693444 0.0030243909624464486 0.004239232662907084 0.04552543989762368 0.03654741807243576 -0.028963741841646424 -0.26420662414447815 0.0439780883914516 -0.08536629560444704 -0.22114949838161402 0.13184779167756744 -0.015072119651672747 -0.01649767274002342 -0.0206253090661922 0.02197873194886385 -0.016493773136241882 -0.04287060362687909 -0.1002293937833039 0.006479007659113315 -0.019439826285341015 0.010265890351443487 0.07448283314139723 0.0046572702799653155 0.23152689805742 0.0007615200385168343 -0.012293934983898788 -0.002871139727118083 0.003956464325021661 0.027071606477116674 -0.3698823827389655 0.03197757096381792 0.05002158336681033 0.01071120401495703 -0.013011895716867398 0.00673493399540784 0.004191180433860197 0.002809169886435467 0.015895271487809427 -0.2612029144888202 0.008857977948840877 0.002164765483031792 0.0627003630701346 -0.012717743711356942 0.17149626314690855 -0.16696735547694302 -0.014976781855765483 0.0004344598999435739 -0.0017853821164480169 0.00613570330793856 0.01014719291067113 0.024073432516694766 -0.02396246685109475 -0.0005200464897179431 -0.006881975810591314 0.0026727371339675962 0.08149188275686942 0.006858489839242757 0.03365918582511867 -0.24795902565231534 -0.033789005615008284 -0.01769859249753459 0.010149886988351575 0.0037415489467710035 -0.0618186864301108 -0.003959526312943781 -0.007000321431369472 0.23852339515860313 0.20051191258440187 -0.1265651291854006 -0.01791387376738016 -0.09250357805393715 -0.012754167238272357 -0.06849219819582156
argue 0.33274693821988965 -0.015837710172932555 0.0005688426473094867 -0.001145501647169048 0.011052211559420154 0.007200201966408795 -0.007204709630693988 -0.0023944099966849196 0.005474603815540002 -0.004778857565575309 0.02148388075180905 0.0217866803404211 0.011497213160521328 0.0026816630524741625 0.018388082190847702 -0.017524064366876833 0.07562262506983254 -0.023413842708033168 -0.11178116843277582 0.3480815797568057 -0.09694131414271752 0.12869282062399348 0.0032823366191204392 -0.0352276229537927 0.04760956031938596 0.008455579466992507 -0.012197491766390147 0.0025265359226414883 0.0008421511036916535 0.00022763343537863292 -0.016069019310294804 -0.01597557056753947 0.018013850373551136 0.20992096419346218 -0.022770130531964135 0.06249676418687103 0.17090325475012647 -0.11716475110219168 0.01409804546585957 0.017702023833645737 0.02064360936085033 -0.022497537176380044 0.016453129264594205 0.05056764974452384 0.137080287571502 0.004232930900597046 0.011530326613932267 -0.006781602330201186 -0.046930332999855884 -0.0026039884979476707 -0.14313205472974308 0.0034043412244658226 0.01195532187143611 0.0045545130708159465 0.004434773026236962 0.0033905681881095896 -0.09527132491717415 0.016884476098030007 0.03403252109576483 0.006196545211913784 -0.0041793690493257115 0.014955214314703962 0.026303693348629732 0.008931392552556868 0.034341816324770666 -0.013460281949503026 0.039697791032258914 -0.08347569546598685 -0.36619586307046653 0.04615549154460317 -0.09572268024616432 -0.11648498963485852 -0.011653125921675162 -0.0038602959024534914 0.005010661975542937 0.01579078562833482 0.015299025262000434 -0.004458958566612018 -0.01767354474122775 -0.011646936176938022 0.0020099212587384166 -0.0023434708752624158 0.24621426269759958 0.0022527932499014666 -0.008628574713974746 0.11416287209317873 -0.020678448937243056 -0.0022421218941447055 -0.009293913045891762 0.007446231982614766 0.03414882150684704 -0.019384148871687105 0.012339051560386656 0.23407688839004243 0.3618775863345483 -0.08065452652143243 0.034553912289569506 0.02466284527780597 -0.07515908634396196 0.34883587168473035
easy 0.0005461210622142817 0.03257339125758273 0.5654943225227619 -0.0011833016791906856 0.004744506590133445 0.01259894092657107 0.002448680503812818 0.0025659347611770647 0.0042382187598554175 0.0019829635806264336 0.0030106586071630623 -0.000209929611137424 -0.0013039958195263746 0.000967112506674917 0.000542126125354465 0.0003061479422433995 0.0019775261240611557 -0.0003140624992043777 0.00012207612874368543 0.001100395081402193 0.0027600355822819 -0.002056799720518136 0.015875407917437957 -0.0011785748338136635 0.002794144601040172 0.0884360014161788 0.03412743518891961 -0.3102119749857932 0.07271924399421537 -0.031034970876874533 7.180395454904414e-05 -0.016328736298686336 0.0288351127169021 -0.009769200301292125 0.014700713347597814 0.021365334645809593 -0.02052001631097371 -0.02879265675597287 -0.013443010685111192 0.020998988819384504 0.016852861926940178 0.027308924655064355 0.07388031538973505 0.02540252000124994 -0.006143399844583288 -0.03619452844810267 -0.08558328007908644 -0.31578992060242944 0.08058856604673972 -0.06536563620701896 -0.009379206481574637 -0.01937212209038902 0.005067769560445387 -0.01046921400170438 -0.0042165146521423655 -0.006627638910100964 -0.0014045726137567884 -0.02991970626084657 0.012566253629662722 -0.08831303242884288 -0.06917131067564765 0.001677287984812819 -0.0052629642782039965 0.005311630583981734 0.043278440062084596 0.0049122570857194426 -0.10567533527171385 -0.23986569900587237 0.04346955189687199 -0.17091522959724018 -0.04402258874074197 -0.02430116051482506 0.01411329185473462 -0.012875015070174353 0.02858150425110163 -0.029013377364527162 -0.011847404423985443 -0.007406819403172413 -0.03640142001219369 -0.014375250752296148 0.3230546467789099 -0.049730923519813404 -0.0052411351210808615 0.11010792438232127 -0.004579280490130528 0.00335659597954976 0.09051201255516905 -0.047518450177806794 0.0233281698801675 -0.4162977435357326 0.046525635287399156 0.0672991824836931 0.005315862613723881 0.04736066923975577 -0.02147351114784808 0.01601814175915461 -0.015699753151078393 -0.01634376195906243 0.030727513773661577 -0.018611672297135746
bad 0.0004186594822032651 0.025746604322852255 0.4606229605486031 -0.001016560441211502 0.005060278710855997 0.015141739077161742 0.003516708249664289 0.0031867056384076013 0.005947968783388627 0.0022901273902583017 0.004197517621021423 -0.0007825150417831832 -0.002594157463765351 0.0028289992019712 0.0015691850949355838 -0.0012602340776390736 9.682095525353666e-05 -0.0007794757603721029 -0.003847351908597284 -0.0004441207088491438 8.50029502723069e-05 -0.002233006334100857 0.0038725488491351172 0.0017287107732649601 -0.0008654140154954887 0.04672322992846363 0.018035715073479064 -0.17061495150175318 0.04255721405382058 -0.008339962864885333 0.07052130926392171 -0.15812683953494713 0.0701231804427222 -0.021187560824757565 0.02677407623021304 0.037648182274162494 -0.03636165775385994 -0.047750276883987676 -0.023016705582291106 0.02615343480104261 0.024039877475574796 0.041630937114111144 0.11544455755859302 0.0329406704084606 -0.008547741800396656 -0.05752280785686442 -0.15406232570424852 -0.3324102041963364 0.05413626739288337 0.3971486210927673 -0.01193528855747584 -0.02767675992461431 0.02108674771324411 0.017073362345421478 -0.018726582036726662 0.020399745375902882 0.002840972547032613 0.0049425912329869575 0.008039964225721442 -0.04336168683453866 -0.03669075888067912 0.003040766337539636 -0.007052229818812098 -0.0038153812235539883 0.028612232922036563 0.001629252127690413 -0.04822346534782377 -0.0833485816994315 0.010865263273740945 0.05046029599733565 0.008696779383477946 0.0026668870899642576 -0.07113331775550688 0.21647589986480706 0.3783846699376219 -0.244913714966401 -0.0561328253150892 -0.06232655015696573 -0.13797175198233197 0.05928214490219536 -0.09258493030260394 -0.09946955468036499 -0.0016224737032627518 0.14576607968771213 -0.02160229554488465 0.0007322685017595329 0.09583722011391169 -0.034470388879244925 0.029322167091840018 -0.19115076650304053 0.029942140282036726 0.005842724325862153 -0.0023721149126468034 0.019656426684540977 -0.005861600665640115 0.04145865885240394 -0.010887985827830952 -0.0003853070269547566 0.03757298403512653 0.010216489487132541
word 0.005434482432477456 0.17348747487286106 -0.012569428433676689 -0.1737951431193348 0.3290402258536478 -0.2699404484756104 -0.011364055322568926 0.23844121602480803 0.11585448563722071 0.3111133505418969 0.3215854451892445 -0.10986721450518593 0.04193423002899983 0.0105004076114427 0.012718480575635514 0.004090387258741484 -0.18359775289295152 0.05468284200661208 -0.15274392653802332 -0.04770104893105144 0.15526259989721644 0.14497505495403884 -0.03421236639162729 -0.060664270426664925 0.12849372843998275 -0.149067418252084 -0.04805735570187372 -0.03843217918055177 0.0952780143715812 -0.03794980546864646 -0.04274946164892893 -0.06727885428412125 -0.08966576217443618 -0.01282642983347516 0.060580076339753576 -0.022594564851592065 0.03575138822254081 0.006812087411060477 -0.00048262314324581674 0.1271511617304315 0.06633979890452814 0.114471523944756 -0.06464649180656207 0.007451320749836768 0.014531728278381282 -0.05953137923045139 0.0948483872433382 -0.004736864965588989 0.057602994343996114 0.01671504864661209 -0.0035564445336215946 0.1319172921735747 -0.01302782795915235 -0.0390637199055887 -0.10438683389377565 0.10392038788220505 -0.015688302686804167 -0.1267879565974294 -0.06449931856625064 0.05232905497505966 -0.027912093867268797 -0.025272020457388935 -0.09920270885706821 0.10464529320285403 -0.009445560062868818 0.003046442174421976 0.0025210253319379312 0.0215805333064654 0.0015174908292679848 0.008261193146958813 -0.019280513446727227 -0.018468908107012683 -0.0015023160907959286 -0.05658526592069531 0.005652650497576382 0.023178284825423376 -0.06975776364170441 -0.005389249314076392 -0.07122363041001617 0.1392254205885732 0.023041483160102662 0.0822133009605464 0.009303355465475175 -0.013571238410084854 -0.02612119522541917 -0.015444109076568372 -0.0020382629952510303 -0.08494133005633324 -0.09041614556102966 0.022259136713917712 0.1388208746357213 0.0015198967627816384 0.11647556003898865 0.03837615913906576 -0.015854007565276145 -0.19419205156595815 0.009803483119256188 -0.1149657472803105 0.050254153356827945 -0.028017852231860985
alcohol 0.006975364737649171 0.21602521170104028 -0.015890201749223874 -0.15965364303606627 0.1305856439947167 0.13334780750156164 -0.12047391809368806 -0.09211490853855316 0.12847522384001267 -0.023272733906669733 -0.3125770128005748 0.19865677805005333 0.003960874070023908 -0.09029462750936458 0.0935471612995051 -0.12656479673967536 -0.20692258562287233 0.027403387877284587 -0.1710186403301965 -0.0474078538844817 0.004750250693286601 0.06279625447285861 0.12733141059958059 -0.12886399266653578 -0.034685744126272934 0.11263989982734947 -0.038519954744212714 0.06294120976130183 0.00434781830537013 -0.223086563341443 -0.05894146976865478 -0.025856557253513213 0.07204144669653392 -0.010838456530774072 0.022695055400658012 -0.00026549246615620856 0.023930227038066843 0.06348088389950782 0.13033970448330437 0.09910373023268577 0.017148557934582673 -0.02008602842157262 0.1892186758876117 -0.23526579945208503 0.035927224064222676 5.7961465167513256e-05 -0.05072788416031963 0.023886422405040485 0.048805152462018594 -0.004365183331277209 -0.022727982970195234 -0.08471868666683743 -0.13764956398458938 0.08808572147604755 0.10466031585533597 -0.08387083458787581 -0.013136499695797874 -0.21790613540436624 0.031143182981537107 0.16614741214156578 -0.10560785312941112 -0.031800506097057944 -0.023471104567097605 -0.06413120078409783 -0.004803019786747106 0.004089141986715231 0.035512718051768574 0.09250142439952719 -0.012933376763608154 -0.09047145681433282 -0.0559868454786681 -0.048354580577260504 -0.00042029372112953653 0.04219759751401482 0.01725535066985165 0.015787805650676046 0.10090725911413832 0.03936223044507201 0.06466069744570473 -0.1384141620486244 -0.030408100087537818 0.061800084564520005 0.006013172003803253 0.07645758721421797 -0.02231041801743433 -0.03549636744739814 0.20124300051218716 0.13493797943562796 -0.09130035656200372 0.02832574870549271 0.09121147936907438 0.03923351528743941 0.050900988281378394 -0.017592857108036743 0.07039229114422459 0.15333619912402272 0.06328814076445836 -0.15368595538871785 0.06448020765678958 -0.04187239629740626
gun 0.01402277700383137 0.2824018072203127 -0.01922419308785252 -0.0584699728060711 -0.1280207926127903 -0.03587366860358244 0.3482099858595697 -0.07773970560089459 -0.06634901632121412 0.05381720546759193 -0.2452778346850516 -0.07862564263329343 -0.08170767740374957 0.023862723764695403 -0.10051529592328542 -0.09179301058480308 -0.0984324161829663 -0.00971039494578077 0.06170485798961945 0.021380748475729867 -0.11049511066192316 0.12255980480042213 0.0038010968253252377 0.21164465832652804 -0.04193134775818677 -0.15279414903795596 -0.07941189998701688 -0.045417776172142425 0.04028993291982846 -0.002134458344566036 -0.09270972489474885 -0.046139754062663664 -0.05275153327466826 -0.04052810063196047 0.1029945789807306 -0.10952782086497921 -0.00823526073985776 -0.22013117457201078 -0.07445792353345848 0.023877746988691162 -0.06062140555062543 -0.10069279192141872 0.12143112624978464 0.07378090083632408 -0.02725364551116558 0.025865462050211202 0.13340481760478698 -0.04733017101532304 -0.14092119047316332 0.009832787165384237 0.07490699307190862 0.09990220443571547 -0.14446298635208332 -0.07711133470830497 0.031774638453391575 0.05636745202509881 -0.011435729172405582 -0.01194769763509029 -0.06373282308754032 0.06652320090833919 -0.09442807456706154 0.03244790611569494 -0.12384733864507025 0.014424857516064869 -0.06755580130441337 -0.0016313024918070673 -0.10282301585215431 0.01440976743378803 0.014970853106057483 0.10765869103569739 -0.01863210577914167 -0.019237441368288175 0.14324474811977433 -0.24317352329382388 0.11833836485804491 0.03732166407708525 -0.12538402153874814 -0.06969090936329612 -0.046179786629293756 0.1831871850512893 0.03435953081200429 0.005263809425884379 0.004200158337979082 0.05224477347043178 -0.06913014616908808 -0.04899548379059299 -0.029723277997673908 -0.029277060439038056 -0.19365431850795142 -0.012918056344213958 -0.12480861678140384 -0.07186107557364652 0.08671093879482233 -0.02651563987780754 0.018181225975056194 -0.016412041184505864 0.11884274547910631 0.023902721676075316 -0.1467067192509675 -0.08061413366032502
father 0.005959393199677503 0.1854885747860545 -0.013230951746534162 0.06994074121763832 -0.0629875942405657 -0.03432540736931738 0.0016238611209902886 -0.10330018970753858 0.24997159352464382 -0.16971026019293745 0.19248722372251936 0.06964755837245812 -0.007779308864376705 -0.029854273540005697 0.15169194562801536 0.23863482933190364 -0.10429467509709196 -0.040465319443421424 0.0342426602255424 -0.06861898257461696 -0.2607909198153555 0.0999806283959122 -0.14165297345054426 0.09471360492453447 -0.011057500176456299 -0.045383107127905664 0.1172166137275944 -0.086649743736839 -0.18874720824844 0.031322636555804036 0.15500874539764362 0.012930458108143751 -0.08401750309286142 0.03626443034120059 -0.03416971508804606 -0.026784009406967 0.07411766610676578 0.0648980183216728 -0.07615759151158764 -0.07331936662797495 -0.22125619700391363 0.08833956576351783 -0.06528173651785392 -0.12703235491155443 0.025332497545755485 0.03139354978293837 -0.0994268462963479 0.010881468757068608 0.1315248403298522 0.02122699756972199 -0.06314861712738813 0.25354690804792157 0.004518817172192138 -0.004861270689331021 0.06383030010695571 -0.21319940102029367 0.01177992120590007 0.05177158982036857 0.025344977343182886 0.09456726228154341 -0.13169587104163144 0.14287683129472192 0.058994331961930685 0.024681423482196707 0.06388397274895719 0.005965744645205472 -0.1948982554449284 0.06810448324875445 0.016667079494519316 0.01186429289930684 -0.054353715886299545 -0.043921109021091746 -0.06612524249028884 0.050413364064940486 0.031736422360425405 0.04594444452541596 0.10351355192979173 0.15264868630716075 -0.061484132417458356 -0.005307912005472159 0.007200107055464961 0.023091888245492707 -0.0023167060462329987 -0.12768182739354636 0.08397175598128735 0.004560669095867506 -0.005576789441641022 -0.12040874538735398 -0.09924605463394291 -0.0439293784015204 -0.12941447874444187 -0.024291471430894065 -0.03984636363642517 0.007631858149305966 -0.0056463196150641146 -0.03376703365658861 0.08121210871765612 0.110027853481617 -0.14671473651301942 -0.023887480261587178
apple 0.011596062022185718 0.23661483370339725 -0.014031964543231483 -0.030270541786572104 -0.12774493859299485 -0.11880700135149377 0.10510137961590352 -0.19938366071429794 -0.11285910700171611 0.1503689528536449 -0.1452126458772974 -0.14524423205543963 -0.013659919552030405 0.16772848103053745 -0.058073817850299365 -0.09577524034811588 0.026480067074473757 -0.11489502195596447 0.16463328081749817 0.03744016762073284 0.002042188505504653 0.14222411244759195 -0.02882254454757029 0.12689328580174794 -0.005978779469224539 0.02770012173290254 0.15779996230141505 0.03555206408001611 -0.10500769280996308 -0.02691492983815589 -0.16065003293234933 -0.005832735044352304 0.06499290666485942 -0.032702992203868325 0.03828923030744696 -0.006012758283893056 -0.051839394939437844 -0.12771908829461776 -0.16510051114877308 0.08023267269557505 0.09293510249161362 0.23424884224190246 0.07039820581433562 -0.08169109256994567 0.01357748048159699 0.017817904643519643 0.06529064795838763 0.016215880597757405 0.06630442866988447 0.003917054273871124 -0.01419838213012223 -0.0020179415586698488 -0.052926815803738224 -0.00014781740964069242 0.10142882648471999 0.13557328592876663 0.007333374558632356 -0.013015392734698143 -0.04605988443239945 -0.06613520411827263 0.07726500933346776 -0.13163823246271208 0.11196345355942092 0.15443705284478318 0.08792504359594852 0.008147421074573663 -0.02975110896530445 -0.00303602994532421 -0.06903127535657892 -0.029155798770858332 0.11937774309568226 0.09710030272592844 -0.011001665594718579 0.22126920179953394 -0.12984181174083576 0.013665012398617817 0.12918449189355488 0.13833794998277452 -0.06596352650383107 -0.0038188210949320726 -0.01224851044846459 0.053903265861061186 -0.00021533136850622738 0.04178719467429015 0.09083358849294922 0.015195189525238954 0.00989172414403119 -0.2711561237468419 -0.08517041136313305 0.032156716018788396 -0.056184327980618794 0.08362464879156827 -0.10031342395366821 -0.008953079478412649 0.09024717574968953 0.18605121318478662 -0.12280936174051416 -0.15391762848928395 0.12315540156855881 0.01904914166720585
body 0.007985626850427177 0.21009762603256993 -0.01112682762057726 0.04499521142250582 -0.16055487376572475 0.0035597225139214674 -0.14563091499817707 -0.056398537969617524 0.10173806165250739 -0.032414427282175806 0.14744580180369454 0.0072570495444453905 0.15411925822830813 0.16087185643689492 0.053029817801420666 0.09455520516031177 -0.15786340313908306 -0.19784454246317826 0.12594592818331207 0.021468788533340857 -0.03707425459062973 -0.020484788810220096 0.004646449346560777 -0.01406714461083039 0.042978789152924114 0.18055293263150057 -0.03078274557912642 0.012305620815640728 -0.1727106492939351 0.15531978149467351 0.10046151705679637 0.1408582220000874 0.16329140824735916 -0.015966988528117305 0.1876731338583342 0.02600251804186459 0.09215059426069672 -0.017460193208344715 -0.03758659152591221 0.025358240652077438 -0.08168553539881425 0.18156674992169805 -0.12486175778540208 0.2130648433037831 -0.01425470997054448 -0.18226515144738098 -0.04699862452412461 0.028060746242690122 -0.0008141183288752135 -0.012052822425803394 0.048175795265041864 0.18874913705179808 0.24530561480715068 -0.0917823770940111 0.0808585577143983 -0.14340266178294794 0.0009519400807647351 0.054194982130244804 0.018447071140004295 -0.022197373710350788 0.028066533360683415 0.07767913296691238 -0.06802448172490752 0.03510396829956724 -0.0602750151124638 -0.007694941990527547 0.0240565290355688 0.11149266822798379 0.004539944364231037 -0.08101894578319027 -0.08597808431944527 -0.0691402621113634 0.09364346075661326 -0.015321638249683318 0.02990448487668305 0.012305713927288067 -0.018296116753712184 0.22564591631630557 -0.06376011232509826 -0.11489921812466038 -0.02794089463291167 -0.10512240258456068 -0.009662158469179524 0.13929996870286482 -0.05750058214019269 -0.03899434015300811 0.0770071991522705 0.12518987203915058 -0.08012218539123818 0.0216017712148664 0.12544598895059483 -0.022356160498334304 -0.11498009610015349 0.012212147216375103 -0.028132564325423517 -0.011437626756206533 0.13196788631778072 0.0274875019312018 0.1366133273844135 -0.007703082463411398
people 0.011780258275501882 0.1926276048126533 -0.01021106129551358 -0.03396970985536014 -0.1020275169470393 -0.23893530746741767 0.25848841909194853 0.020750699524266447 -0.11086523041268337 -0.047863426654457336 -0.23043589326224226 -0.1229122317435118 -0.00739661194954238 -0.1252080885615254 -0.013827746643220944 -0.02096839860776718 -0.1027965282786657 -0.1470218981343023 0.03896718118887429 0.035434258921268454 -0.16627897920204857 -0.14502673889671278 -0.15932584855224183 -0.03624215359263022 -0.017961824956427137 -0.04679385428809696 -0.10118040379036927 -0.026403362357980333 0.06813984665215662 0.017574629327358374 0.121433243777018 0.04447851546964511 -0.08158363125750843 0.011485325326744945 0.037622237209786344 0.07477910264381718 -0.017283255304833836 -0.034844132438180485 0.13191334677420014 -0.1331822913594308 0.026953022506424434 0.03066096457774797 0.06398980263028617 0.25496575546031763 -0.0011681487854200059 -0.21545571223246865 0.17550073383491394 0.0033617045888687065 0.048510637232310784 0.007595925676356315 -0.009357520269978613 0.1643909033019121 -0.11397521492194634 0.21810537067396452 -0.0345852104297075 0.060222815933984215 0.024685634100830404 0.045962667469635045 0.17234032274915995 0.1348691540085237 -0.15812987325477965 -0.04312107883755809 -0.01103565085167734 -0.06363719074355245 0.10837148511569739 0.01189100219869238 0.05157256974265583 -0.11799195880045557 0.07574146906913827 0.12359269621067907 0.021028876817893845 0.034642900172257435 0.08188896747424416 0.010460112537926112 0.011819650501756731 -0.00728466723664543 -0.019669107072896368 -0.08531850019571835 0.20277496602980674 0.0041869860045009154 5.4705679120447167e-05 0.1006589097917135 0.007267393207676998 0.04850290616972792 0.02116689455105669 -0.05222884745933197 -0.024311455700395446 0.1018931096624486 0.12481813152160884 0.009978967275454088 0.10340683435114283 0.08022806292001966 -0.0769071073423695 0.034982728908538825 -0.021625880130260736 -0.03048011443157373 -0.08238676746661383 0.020141273353945378 -0.12761848498908848 -0.09323442723268566
task 0.0074775122685373915 0.20060178004903365 -0.01172151421839507 0.11999055809116266 -0.1499968392500431 -0.18455840951587296 0.13974837633980405 0.0754069637741467 -0.10650166514248179 0.1905314299735898 -0.22964046523075718 0.030334978351975815 0.1500849280963318 0.14027490434627554 -0.07108517557238499 0.018454102600327114 -0.02647147111835553 -0.07463312020010186 0.04911376914874789 0.06688006915969973 -0.023650040768563543 0.06267334439117586 -0.07435097416010882 0.10788575604583699 0.022951389473513994 -0.10172327151885653 0.07667029790688838 -0.02295410435543561 -0.0064909842859322085 -0.1813233221622784 -0.16162481091050607 -0.1682698423220795 -0.09760820085111822 0.0026716466403020563 -0.08094843394838923 -0.08000374951717933 0.014172268137802663 0.0422757405752748 -0.00322927664349347 -0.22072634158793247 -0.12347541317084079 0.09694659607277835 -0.12228056654354498 -0.12613887947676666 -0.020546439649872877 0.31959475521145225 -0.07215405402440771 -0.07683714599077478 -0.032798942489112706 0.02515906661288678 -0.022648242157898825 0.06030738601609067 0.17604850576337924 -0.18378682434957883 -0.12818326287083365 -0.09413074042959081 0.014714179476122323 -0.0909950855454892 0.13914461935104622 0.09498303469932326 -0.06581464272652904 0.013768690768693267 -0.09851064485290338 0.03411263896299037 -0.014715970321256601 0.0004997131805794967 0.12614955181151924 -0.0007089752199187268 0.03052862192164837 -0.06972202211498534 -0.09085431081195974 -0.07211064583854883 0.017815406296509004 0.030513205684177497 -0.024622156727893512 -0.18697571820688183 0.023696689002783156 0.04203538414813994 -0.039396083930918924 -0.13042823050453242 -0.012809801104948344 0.033584808280058234 -0.0010068726630082653 -0.005332649846382638 0.04964299018630382 -0.007712500883487256 -0.0616369368127964 0.01589024255019281 -0.05548131704301191 -0.004958984051518909 -0.046009985455595016 -0.05822108545185861 0.009355458974498933 -0.05183961119428862 0.08484594600534529 0.15529150286223717 -0.03492031360329457 -0.12665293899885627 0.11936388302033678 0.09633717249403106
keep 0.37512504858771367 -0.016524569846419437 0.0005573008744416332 -0.0007021203733752907 0.00567490555792696 0.003430748285117809 -0.003186876432308542 -0.0013921361941627963 0.002353970460454875 -0.0021625336552502945 0.008715569273353473 0.008767498017118751 0.004360817577967422 0.0010566204882483175 0.006677169324553805 -0.005937275210471711 0.02468454270817297 -0.007415209766082699 -0.03511613618474095 0.10619910600952964 -0.02887820645468339 0.03791217162383251 0.0009273004143796749 -0.010616736200157344 0.014308914399371344 0.0022094813288701456 -0.0037213989387295853 0.0006507192787923404 9.259722421940229e-05 0.0011577289387919363 -0.002025961050519651 -0.0028126342373882606 0.003032338244952905 0.06955918101746726 0.006951331735202412 0.006356528631479263 0.02375642900134378 -0.028265045618188406 0.005066194746254861 0.00868692800589728 0.011179161920680462 -0.016225650542601586 0.013609707025675233 0.07259076534832724 0.3260905892527741 0.04153115301789916 -0.006708334076793441 -0.007596634767865209 -0.05762752202519643 -0.004037413250048338 -0.2425237522983257 -0.003351910106764443 0.037403351961347864 -0.01616440925176024 0.04698337741745853 0.028010220432308774 -0.27619138489618633 0.015051423846939823 0.02151256424499233 0.012198693298394072 -0.01207392237400903 0.00030927121730673203 -0.002532691148202159 0.008195653457304173 0.04641769243554839 -0.3939547384355981 0.024428700026253147 -0.07819461461249788 -0.3948580408704648 0.06113828757742666 -0.2893004390184083 0.06207431547829877 -0.008191601232692665 -0.0045424817959570825 0.01382180426512624 0.03666083418715976 0.01863682188951576 -0.026517132722193967 -0.046456002037420924 0.003873392174525833 0.014453650216188526 0.019777513004993103 0.29444435825317644 0.015547254019886166 0.04449819907528756 -0.18080416545831512 0.0036526585455745157 -0.007064284455600265 0.01876049474371391 -0.02806165301963831 0.010436851186985594 -0.00748808785189588 -0.028446399736612483 0.024960218557504948 0.17005905668727217 0.004601017060819126 -0.0007471653861134798 0.025517131211519137 -0.011069066563746286 -0.08654582486875184
forget 0.37437028282928264 -0.015986741685459247 0.000522326370859635 -0.0005963609557032225 0.005051221200407648 0.0035831115441120544 -0.003400611861669045 -0.0003724067650109675 0.0024652340672348776 -0.0018249384900368584 0.008224149349602696 0.007379296552446401 0.003978740236210135 0.0007187586135976982 0.0060225447510622795 -0.005264521793688583 0.022728434293329318 -0.006741506870574062 -0.03388635974820767 0.10417462175070956 -0.02960918150408037 0.039107630082196705 0.0016956774556312912 -0.011450650384663896 0.014951087549367947 0.003730898338893587 -0.004852266743921432 0.0017206921968403622 0.0013594222968731126 0.0003450284638217323 0.02266019180599197 0.016551684971826672 -0.010812395047880839 -0.11548913516417866 0.003981662427315593 -0.018012554640362995 -0.04799533941057202 0.033272340390327775 -0.001012685906995863 -0.007114171356389771 -0.0069541293163158935 0.01137284176721279 -0.011459499000084146 -0.0875548189655372 -0.46213814604323833 -0.07827323276590097 0.03343589938240206 -0.004401773462381318 -0.028560571180881122 -0.0012309849658009105 -0.06647027943970893 0.0009710135757061746 -0.011490875098070067 0.010428968469812405 -0.023155780118973412 -0.03102314922710592 0.4353851530876448 -0.03719664386906419 -0.05956000546700671 -0.015238822457333706 0.01298650780823653 -0.010915356857609288 -0.012450279683942462 -0.004763247684622265 -0.005765262669444807 -0.12062772382855678 -0.01608370463853323 0.03231954022537079 0.14463482178789555 -0.019879053388858595 0.04608369989720467 0.03053237287943827 0.008015800413121736 -0.0007021434343696745 -0.002547660227520301 -0.007775078091565016 -0.01568686826750577 0.012492621555593057 0.016048771287569638 -0.010191769041456557 -0.0009340024232545615 -0.010477944080486266 0.1681760750656768 0.005414616503973459 -0.03540130707929604 0.19542268218657838 -0.022234000812442745 -0.008227742783657406 -0.010449768989577684 -0.0011590656123920255 -0.06052642206145936 -0.02983831060339089 0.05145218567729611 0.3991937200761947 -0.22911642960844308 0.15720874162677237 0.015922475673367045 0.00026592119441862277 0.01058899561878424 -0.20277212264686423
join 0.34259192916596054 -0.013805469190970102 0.0004225150166731779 -0.0001284561489887464 -0.0016818398319585 -0.000943088222034765 0.0010596187663278658 0.001004151254474719 -0.0012755058311650757 0.0015271096199341058 -0.007741381176314615 -0.009272732371194305 -0.004894484532505904 -0.0015677119451341843 -0.00951793576776054 0.010273162570386978 -0.044998794471597256 0.014924603646103336 0.06884122170022919 -0.22367478565080076 0.06291767796444593 -0.08588588034432185 -0.0011579156210189464 0.021991964985027947 -0.031336035182815074 -0.005427502900914368 0.006944364413361334 -0.0013797743183013396 -0.0006872971656181997 -0.0028153339678055533 0.03792764216084416 0.027455452291282958 -0.022748307305677125 -0.09787756018382197 0.13519938802252457 -0.1592159653028043 -0.39578570388203627 0.20933813977441174 -0.02418938092844085 -0.024664270396900483 -0.028275687908083463 0.03134471881445925 -0.023257148593305424 -0.07618669126187563 -0.2672066780944042 -0.020141189367514325 -0.006823777306001554 0.004505523068058605 0.030136238857376013 0.0009610943920465986 0.05968011161817046 -0.0015020132731319628 0.0072692335593815 -0.010637723966530049 0.017077056471574325 0.0033107426709449725 0.0524009400944556 -0.019507160198095386 -0.04106354919285778 -0.00918557875500434 0.007416660339212594 -0.018904451415406923 -0.02821034660990119 -0.009023171808128476 -0.05205563227885561 0.2913381423284029 -0.03042059557315653 0.049496659207437135 0.15924716299353817 -0.0029441461064909436 -0.18824842336365352 0.32302778473478155 0.005858388627766414 0.005603988298370901 2.3909225513112373e-05 -0.006891206845935711 0.0004928202543018446 -0.005176744116632916 -0.0036675803910525104 0.01881875074297314 -0.000998742576613 0.004829742055041551 0.2668718755791179 -0.0016107176664047192 0.03141489851964422 -0.1469952186491602 0.05577868988565316 0.022138158165199647 0.012881489044841219 0.0188650643488581 0.047881373204888014 0.05415657549233612 -0.030315947902953323 -0.013399733620685706 0.18851896641084626 -0.034406797584244676 -0.012942389126869413 0.023260140808121065 0.03188559043042321 -0.25315014764428767
hard 0.0005118940763572557 0.02877988068136267 0.4746126887226079 -0.0005703000573805553 0.0008840280942284413 -0.00030907574314159857 -0.0008951501425701546 -0.0007086832750510378 -0.0020208758362958343 -0.00041782890089168365 -0.001455785548514632 0.0012615342843873053 0.0022085017451005237 -0.004257609328240611 -0.002300427230799527 0.003024048825978803 0.006983276154412142 0.0009498253910846516 0.012424321246749144 0.006634353861101947 0.01418353267379141 1.341498015181914e-05 0.05115288389386823 -0.007328477452036985 0.010139591113146232 0.17130009678629177 0.06310949796819972 -0.542927443660374 0.12042633627749252 -0.04347936745114867 -0.03139346285518378 0.04401105104376924 0.0071072730576031504 -0.003880981169668381 0.0053666868734502365 0.00901081275575064 -0.010992210245452723 -0.01578849793842704 -0.0028773331262914362 0.010859653333001923 0.004089987231247255 0.0022547088994595327 0.0025843712752741522 0.0029010040399204346 -0.00047655789467672394 0.007471089757622223 0.0401449391277203 0.0422135089191503 0.010838839196284382 -0.3688183169363849 0.004897938163339081 0.018799374293446098 -0.018876471575175458 -0.024271145201819586 0.022363783059786473 -0.036726507940274725 -0.007716629135728151 -0.07923807411336078 0.01708603615516329 -0.07076900999378392 -0.023656610003943545 -0.009410338034850552 -0.02062266420982022 0.0019138433065615428 0.04407906237953096 0.0017151754495445697 -0.07729526164292631 -0.16811694748488817 0.027745111856452117 -0.14647875172200758 -0.0316931141071218 -0.015916651471549255 0.037669171573685024 -0.09845007922669531 -0.1577351214864198 0.09895823676157987 0.022724995890225946 0.0262464295577558 0.0596353414175245 -0.019177210094544078 -0.04896791196549912 0.059795691903591054 0.0038560336815248813 -0.11098391316685505 0.017985288390221132 -0.004812283052149183 -0.08508707178769691 0.043620047851804816 -0.022997115135766067 0.3496699043627277 -0.03933428405811086 -0.037915496910272156 -0.01001582704677124 -0.015686865863677908 0.006713509151688855 -0.0017530694127940191 -0.0018071487245808167 0.01417254337297284 -0.04114818532212495 0.024308433861303592
happy 0.0005353349230762736 0.031980319982715 0.5603287160621334 -0.0007435067840069685 0.004051953010507988 0.013370829753115203 0.00293485442163078 0.0026925496257122028 0.004881067484307313 0.0018142979733687125 0.002862139375037486 -0.0007684015183936144 -0.0012626678050105546 0.0018338616511690343 0.0006436403406668895 -0.0006803672631167713 0.0011588131419281388 -0.0003158117998535083 0.0015101746008369394 0.0019896845987016367 0.0052195644561759446 -0.0006041825105069457 0.020544686906356906 -0.0017063311898412085 0.0031129804525284934 0.10851019837325736 0.04164782944245753 -0.38973266789515637 0.09246086492963929 -0.04399840180226088 -0.02031697659770242 0.01895997659336334 0.0244612848280246 -0.008954907491219565 0.013766434715768008 0.021334895783136784 -0.02147326607800094 -0.030563874281712953 -0.018085783212739494 0.0170508082959551 0.015598403351868342 0.02693388409282765 0.07730732359042172 0.021860795071537296 -0.005548327944107469 -0.03608981851376437 -0.09376101632583762 -0.18862514961413285 0.033835258025782876 0.2024506199431767 -0.006718692908231352 -0.011492928706583697 0.007182104945902631 0.007324018325055648 -0.0036784913646298613 0.0014824509227696796 -0.0008637903844878302 -0.03433049527715643 0.016990020161891488 -0.07693515848699294 -0.05120680853659072 -0.0010179298226682273 -0.01505468190973486 0.0033775546831242894 0.06696749388045498 0.007311603669532327 -0.16117217426573988 -0.3920533669461433 0.07080457103368638 -0.34454804748796547 -0.08222601520802719 -0.036506509517131254 0.059055639361186095 -0.11819756996391131 -0.12854524917544216 0.05828891885048171 0.01442048514034143 0.013533271829827545 -0.009733511057031543 0.007977264886333702 -0.10308483686096398 -0.002615436714046798 0.000738804377642568 -0.011650924027064526 -0.008097231133651461 0.0009307244537022389 -0.017731866210161932 0.015639231560282945 -0.005209486914301117 0.16954242575809578 -0.017098164610378688 -0.04319593674816377 0.0037807661373762346 -0.033229182414262974 0.017477791278948416 -0.019127638094284527 0.017110807087002328 0.0029354745496702208 -0.008611357485931741 -0.005144791982319693
strange 0.00047013990804446813 0.027875914628931898 0.4809340400850566 -0.0007594097696603286 0.0030119971711326118 0.00722604097597015 0.0014106675781908517 0.0008327062480715309 0.002053991690402353 0.0009420089657930431 0.0020263794456238495 0.0006617947070451426 -0.00045663885819287634 -0.0003380287787410098 -0.00018252768336039955 -0.0003220644786711935 0.0038569143143951353 -0.0005786082942096497 0.002714745751252289 0.0026735975616231046 0.006641134859220517 -0.0014348762622548635 0.01860945839065189 0.0006232903728421655 6.325441299476679e-05 0.0314541608256655 0.007988651993551171 -0.037967617703535336 0.005922923366754834 0.04582931197061707 0.20137379117850032 -0.41482710981769094 0.1256193571320261 -0.035527554130025736 0.03553514915385347 0.048975789493334594 -0.050315146630899 -0.060032054886296725 -0.02017440236561165 0.021353234721791965 0.01787259735235756 0.027824764639697536 0.07833536742424647 0.01761954758518449 -0.004393287015409657 -0.032828113290345934 -0.09293277415894105 -0.06827501259299158 -0.016122858691542483 0.48199950388529966 -0.0038741689264150067 -0.010544721573909838 0.017628763785532298 0.03047006278232064 -0.01799420361238819 0.0323020112770759 0.005315411952725488 0.04445053288547933 -0.0052569846174102515 0.04520083735669319 0.02429279815722571 0.002955369788803744 0.00873612290833268 -0.007235050796792935 -0.036914757505684896 -0.0036577593733129977 0.06753914815340589 0.15079631577084104 -0.021905330167051113 0.06678171042804373 0.021628024661038813 0.007153005984137332 0.014526626537516544 -0.06684948689457007 -0.155578802760259 0.10242589007388442 0.031079748938823742 0.03755801318432706 0.07242428165292075 -0.04159105645711158 0.12470548058699114 0.07590165323193053 0.0009600921709654244 -0.12327541733064332 0.011478995192170825 0.013498484905620532 -0.08385808959321016 0.031502068497649034 -0.025829708631362438 0.3574351629948419 -0.04703684007326183 -0.03319949880669293 -0.006920225697408064 -0.00951682053609848 0.009681563532636921 -0.004926728631243399 -0.01348723571770917 0.0026049664218120317 0.007776169792063167 -0.02119915557503992
friend 0.005725143692569599 0.18193509680920006 -0.010968236676624015 0.10494177075124475 -0.0767276360881559 -0.11711398243183367 -0.11281127455168244 -0.062008937463536334 0.12424277027665453 -0.10463113384905987 0.16112662979912246 0.062471718920607204 -0.05999672185852208 -0.20508115511319913 0.09299113935224178 -0.04703029496221707 0.13209829177017104 0.022724229044229643 0.08000391225625486 0.04288527682497901 0.19322621711339502 -0.011078843594979002 0.20188313318911402 0.03423549760025748 0.00014508099088755453 -0.06607373121502616 -0.11082443565177205 0.03827811113828235 0.018490857276945355 -0.0037638420262756512 -0.10919588733128424 0.06816328676867299 0.23057779558839067 -0.02894918604734721 0.0025634336033348135 0.0012932394287574792 -0.05659763703491884 -0.058747010995961524 0.23274458855871363 -0.022287475442916177 -0.1168164737439934 0.0930859748547678 0.20507083410891758 0.05828205483940789 -0.031145426526744336 0.11606042436415388 -0.10153862588158395 -0.06381515444559568 -0.2542618761199768 -0.029334248905164603 0.05850588648868638 0.1308029877569704 -0.047280129333842257 0.09666208735817523 -0.019799373543082473 0.0065127606639713165 -0.01824367948584524 -0.03554737419532255 -0.007476509168898148 -0.03154500722075252 0.026624364535112924 -0.30266266950051796 -0.09820116827672591 -0.0884158408699856 0.0013750110695822683 0.0005448016227159846 -0.07254707592865778 -0.09957562181790663 0.010680837674060169 0.2089433169701582 0.04270678175581091 0.020885504391032914 -0.11853438477406536 -0.10791905168768291 -0.07299150402121125 0.003658490427423905 -0.06770015351396197 -0.02519806907822675 -0.09946424101449514 -0.16279026557137513 -0.010755652104201539 0.029597887856522356 -0.0073950759762629265 -0.10658907346448998 0.15444746368188636 0.06924585092168381 0.18644910728848502 -0.025910912027496794 0.10682597652333291 -0.004154411063568859 -0.06318961033536863 -0.028067084124087472 -0.022039220137661502 0.016342636179922175 -0.053811337380340954 0.021298229025466475 -0.052631704908625614 0.0983346274746926 -0.013024723522870764 0.022151839191872538
woman 0.008198570708304357 0.20386510869985808 -0.009759643819249387 0.05452213741922106 -0.19732453901991903 -0.22175852001774293 -0.026965002408948283 -0.11801656188906791 0.028427088299800316 -0.068936500909945 -0.02128717829537374 -0.14804089411718496 -0.0425665824201007 0.021271820595396302 -0.040353881507024285 0.1452192754651563 -0.021316061706111396 0.07721886691540274 0.06501724651311223 0.0757897336557921 0.007341962736691157 0.015395296377450254 0.06838835860190913 0.01696654959984406 0.03344988517482871 -0.25533787168686567 -0.05776079345270345 -0.08950639877833808 -0.06927624361271659 0.017115488891216214 -0.030728330356077558 -0.06746985566636668 -0.16108746734675544 0.022003412927440135 -0.15320979508769453 -0.14018981843491365 -0.0070879605546959375 -0.05470126273053428 0.014567326735978279 0.0006204089490756083 -0.0571730491754889 -0.04453147999603581 -0.05608563015900769 0.13092281022716334 -0.05794376605808827 0.11053835826601843 0.013047249595802913 -0.02704361610418852 0.19377280052192905 0.05649501158480432 0.00425048672126117 0.014527151564491178 0.09033097203794438 0.084508867860083 0.3368154260876651 -0.22059262846381583 -0.01718735370419416 -0.07851210406330242 -0.04242392668999733 -0.02466029091848323 0.04131980616170556 -0.0868044350333101 -0.11986751351383876 -0.03714710041178741 -0.04776418454697775 -0.00016599606276822827 0.09153019484398245 0.05231704850373314 -0.007887681754262132 -0.14232843880264365 -0.0740951261466559 -0.0660192122999576 -0.0949635588396631 0.061194125856678806 0.07289667814599042 -0.019742428357606125 0.04817337766721108 0.3347564523990569 -0.020318455436297924 0.004090480693989288 -0.00047442362982119126 -0.08911139092392131 0.0017022211543036814 -0.12123651986638213 -0.08893850145080962 -0.05385066411476855 -0.16271370822920503 0.03199418913197522 -0.056201584093779094 -0.042723798863461754 0.10475824738646003 -0.06212068244841607 -0.08469881083705563 -0.0034084021439535965 0.018587475731654878 0.014459066181134928 -0.034131600602448436 0.1030963423437297 -0.20223656443305124 -0.06794966740705596
cat 0.005602364654397702 0.1752195882096011 -0.01255504794931894 0.012063996988106597 0.07178064755941496 0.148198902688433 0.03958619037879548 0.133123128013268 0.004945890689422107 0.13553433344947946 -0.07061756105043679 0.09356673850454349 -0.13921143843032627 0.032505355181351454 -0.04952443424775792 0.07325151129387299 -0.03945604661779772 0.22324367265338602 -0.07421621448044739 0.18753921317449193 0.1685925937980665 -0.3097139504700227 0.10797133787654127 0.21583231515602086 0.011126524568342589 -0.00012719856423187175 0.06505287798638285 0.050387096001974205 0.2420566654314245 0.22362787642127976 0.1449543798086113 0.07751505959235737 -0.059385678299233184 0.04522773042720271 -0.019310882624608977 0.014395758262174627 0.07103595189182876 0.13642566496996453 -0.0413886776181331 0.08758348518133398 -0.03293782535524514 0.08350965220968136 0.060382562934950555 0.04588300941839753 -0.006369862482288422 -0.033655591020715254 -0.010714241904885671 0.05169261510434644 0.16148523930801378 0.014357400932531343 -0.0501388319396374 0.043566736262126815 0.004109538564523493 -0.24362536972007467 -0.09345889609605956 -0.021679933013514344 0.013083234156410346 0.022921659410725586 0.075185833592997 0.0096296591911076 -0.0107018695436917 0.031017468039224026 -0.11533222407162627 -0.08727888125549163 0.061351762807853004 0.0035835005876886043 0.009697123344175376 0.03375532220519936 -0.03656679634678893 -0.06170033105293556 0.04994673432745031 0.050716122003847806 -0.03369863366684564 0.14879583661482373 -0.058106553265694874 0.08759148905204953 -0.042408369627315055 0.043575898014184634 -0.2249629061461186 0.07390214853476099 0.030658056643663507 0.270024453815396 -0.0028004933783363087 -0.10323853053615027 0.017552173082103453 0.018473956155805594 0.02700531774344876 -0.09847016536188656 0.10573541911180245 -0.028816333786137693 0.04595639195450645 -0.10416258311755898 0.09919590016412894 -0.022004815204032694 0.026557152476479856 0.05739168358262753 -0.007813890395661608 0.07244797649082556 0.09471294560020241 -0.042854021680037865
mouse 0.008598462355850937 0.20990111083166949 -0.015486719716118792 0.03858832934366126 -0.09145099370248413 0.042827834131769695 0.19988106035715925 0.12333384895067684 0.007113628397465152 0.061987961382745455 -0.28562492779336696 -0.09297353391296727 -0.21435605226923227 -0.034587578768992315 -0.018592306716100192 -0.08881259956237493 -0.12482340068690286 0.0029312908788616952 -0.08876041081909561 0.11383680938600962 0.073082440626588 -0.10557783554082899 -0.06938338573736705 0.2695791937461824 0.05670484605522694 -0.007907240044118235 0.15597754724459773 0.049121814880152465 0.19582488489009814 -0.06264275597914648 0.1246469244110275 0.03451166246966279 -0.0438653671594451 0.0157667270554566 0.009079856424444905 -0.03814820777638824 0.01877038377744247 -0.06820758469700855 0.06923369567952027 0.07060122313206077 -0.12123809568732219 -0.04816861578592241 -0.062140985469620984 0.16208843194508069 -0.024243092626940327 -0.11812583223759947 -0.07109053023708918 0.05441810795838387 0.21261094879593684 0.027760422005093696 -0.05455149553010328 0.16872199726161807 -0.13085514559073588 -0.1264071872389139 0.0024531776687256937 -0.20316892603227346 -0.0023394194361479968 0.022553665880980855 0.12564199772461054 -0.010270403964424133 0.03311433299663918 0.03685213425342269 -0.1006334121391264 -0.12698653971436308 0.046611665888040985 -0.0012728831846360626 0.0018318591574984144 -0.026716419063045664 0.10710549133089173 0.17859384231695125 -0.10382682595009285 -0.07758242080496448 -0.008137587225485386 -0.09016786016462958 -0.1413025094097684 -0.13653504924486232 -0.032873857308971396 -0.059503539832368675 0.025513466096595487 0.007661036402991438 -0.007173735339752884 0.022209930159282517 -0.002106611789247486 0.12455325773446144 -0.031195997380615095 -0.030471290701872638 -0.03675043991690149 -0.20964030430568695 0.05106688017446487 0.018925915408067668 0.02780880370706917 -0.04368504437102071 -0.08119383761966237 0.0036200465182111784 -0.024214446125075405 0.054564751108538215 0.09957511912232388 -0.07352417015778714 -0.15847395674058018 0.005694289883236169
flower 0.005722718493894878 0.18049200937530463 -0.01294945543595674 0.10608090544979024 -0.1079034837383053 0.10188220884539823 -0.0031722307165556432 -0.04609872224878189 -0.17850224336055046 -0.1623928363467058 0.08989680695275144 0.08516654920868193 0.02339815723743118 0.09873618722939474 -0.06342231726046836 -0.06889967787163045 -0.16348260836924045 0.09317730169253763 -0.23386826852472473 -0.031611827969802976 -0.048466493245747214 -0.016392621825510965 -0.0879851933791252 -0.2826843854396843 -0.15786440017683112 -0.09192491716455478 0.01562282460392515 -0.012661276216386038 0.21987595946033955 0.16220216272661286 -0.1903933866159381 -0.11817799794551702 -0.03129396429251001 -0.011455188676434075 -0.029504127699718757 -0.04631668389176127 0.029471544584854306 0.12998342881486685 -0.14434566430917717 0.1344693978352151 0.015340604583261499 0.11856965509784814 0.00902488928762601 -0.03710408251617955 0.01380872582071201 -0.03590485409847925 -0.11866896421562959 0.049262048418150274 -0.1079738410789516 -0.03836198363656323 0.0009335779346834538 -0.0649560284438726 0.03728350831282162 -0.1264309023529673 -0.155182150313391 0.0865786038281123 -0.003015041205334504 0.025471437071749942 -0.056064371116865706 -0.049200844046801646 0.0555985257896994 0.036803493020535434 0.2337781813397816 0.0408829595794706 -0.16875206786103733 -0.015221032670853915 -0.09715235933356062 0.004223092531628732 0.03583241904266819 0.015294906373511209 -0.1227316889080605 -0.11444916263224214 -0.1562746132743517 -0.07664411358359463 0.019009425311662807 -0.08534928789272726 -0.14075433760678469 0.14280797282666893 0.11661303236260863 -0.22068741861396396 -0.03665195521370876 -0.017039622332846744 4.877196169890556e-05 0.06575382340655335 -0.03406762299311903 -0.030011073915233152 -0.07527389058869656 0.06325433856253974 -0.07300443003699827 -0.0017367970946475404 0.057838536721383074 0.011462545423159168 -0.09853814278869465 0.022421744228914544 -0.0025600578925277203 -0.03140298263831909 -0.12646890059435903 -0.052878323140925824 -0.07901704652140167 0.016900623636231744
cloud 0.0053566958949448 0.17171594104797092 -0.013075146477629784 -0.10990792547772531 0.0031817174014895978 0.13992508605537102 0.21365730293628854 0.1033606923017927 -0.22464825576845066 -0.223422702733329 0.2901390940642298 0.036403417059169066 0.14494680989883735 0.22801997497828644 -0.28841101289025306 0.07573317629076706 -0.2094014657224399 -0.21794255577804297 -0.17299013855438047 0.024680485798257972 0.06823285036478437 -0.11046216638747003 -0.02799205515295077 -0.21519076650603974 -0.045865833962477766 -0.010732757006565315 0.09825307582287678 -0.016933902177923378 -0.028480181862428712 0.1277220970705784 -0.06188856027579542 -0.004856137305541042 0.07390246595078315 -0.022996398805856876 0.058846971961731255 -0.05757563178178616 0.021511732413700302 -0.03656916742647284 0.0075271873141702205 -0.016411283057650352 -0.12972969602666146 -0.08513559882287498 0.0148378836973466 -0.040780969922388645 -0.006882027668034693 0.09721210872267037 0.034273369181988624 -0.03122078378381046 -0.014041543967644133 0.011586192074834238 -0.0003994602515050681 -0.1467477053354238 -0.08184412761358191 0.15147676558802892 0.10201590375093363 -0.06596089410985377 -0.016303865725332423 -0.0027802129959892917 -0.039317986758914444 -0.09069281771758766 0.10512029160702631 -0.055281599554991685 -0.04203101790199709 0.03247353464462368 0.1405192661631177 0.01122844350372317 -0.08325753402996836 0.0338171457652753 -0.02770673030235095 0.0881863924357096 0.0474514964739047 0.0339428349957509 -0.04202122294300872 -0.0983905436413454 -0.08674878450411887 0.007570175097468318 -0.07204297392635751 0.04081879681469074 -0.1815851678979809 0.05271628463578629 0.005343625163614741 0.026365108118672938 0.0025397679269205204 0.027288911411209076 0.07091821399567284 0.0171776894267506 0.13049205256251822 0.06540592275254893 0.060618696499896894 0.008122301232090397 -0.047143188075574424 -0.04011850404136223 0.05881556964626973 -0.010258362387575593 0.05408268587040675 -0.043031831793091606 0.04899291215789259 -0.10111791593944382 0.08666546508103264 -0.0640592933793553
god 0.005398659736299861 0.16702745282012466 -0.013172268623672968 0.20038683596427972 0.010960178038647917 0.03827838550695183 0.20369818440423246 0.17320791913829767 0.4619406275232972 -0.11102184826565839 0.12440766599932915 -0.007913700495575469 -0.15897296995840934 -0.019994694055440364 -0.11162336935840421 -0.14377563576091631 -0.02166783795223684 -0.05077322837674832 0.10790180199695285 0.05785263182736127 -0.014762708182451761 -0.04011589377537496 -0.15955647200469367 0.12451602549399388 0.08987277693562086 0.12686475974141503 0.19973254831508544 0.0194501200361302 -0.08127360203986539 -0.13803855663023576 0.05108507268637635 -0.022867126605759985 -0.015870739705472117 0.03307854862664225 -0.1479202912430451 0.08745050738342204 -0.07009811253476923 0.05317342680106613 -0.018259542099819302 -0.06391369388717927 -0.03853504511709416 -0.003985397037235515 -0.09300905900119713 -0.01164652054102897 0.02806833446029181 -0.1365374600028414 -0.04243479106905028 0.05838807790544513 0.0402612779824069 -0.027513809624116512 -0.023500069395897927 -0.2344365195206189 -0.026900787243666874 0.030940353603499057 -0.06389717765463285 0.09302382814380696 -0.008352668306851227 0.02490677723801858 -0.07932992614019538 -0.08906416125183171 0.08875450636445635 0.08867130136657826 0.10349111871699074 -0.09177629386666875 -0.04394761096726185 -0.005222267151732045 0.10560528201372198 -0.03489705077333639 0.09197022921694402 0.0647551855161007 -0.14979308925134965 -0.12942365915534157 -0.09858803606401866 -0.11407092705444845 -0.07543878074120874 -0.19835247459467134 -0.011306527151020984 0.13213845170537705 0.019986687238794595 -0.026905424965168023 -0.017338304977725153 -0.1792356599898497 -0.0007441949383970119 -0.010585368376833725 -0.008344419003323007 0.006506212507830813 0.08888833578365289 0.00812070297859498 -0.029355177621917156 0.01022417051175924 -0.0032469904171321877 0.019072110652205786 0.020526539370963545 0.0017372436151769264 -0.03200062321013569 -0.0127716231731919 -0.015070012409905985 -0.051052589375974684 -0.0425843376218477 0.06018313606840414
stomach 0.013047656556130617 0.22225602997262453 -0.012108030033453081 0.019003265712138884 -0.10212203520912305 -0.14297328511221408 0.1461606045424978 -0.026079574086634652 -0.02283801834712608 -0.01781328055756853 -0.048764409030488266 -0.0936996285245152 -0.10449385842636154 0.1297401433866522 -0.15265118257662952 -0.04184434857212396 -0.20116464337067827 -0.08904676383439673 0.033072239833813265 -0.011712792583311763 0.06935241705052402 0.09383695762390643 -0.11259083826979459 -0.054740190525767875 0.2588244288769082 0.05137212877777343 -0.0012020760427852025 0.011086550063831758 -0.005211576160303657 0.11661422471325446 -0.07758690997773565 -0.0212721973576328 -0.17434944649016607 -0.021428197387357108 0.08759829790823516 0.021553606698934122 -0.07202459338793936 -0.2209506096381297 0.03579380423362131 0.022860721337291123 0.10796500019425881 0.13153802389259253 0.05603056181929887 0.02939625782679793 0.02196433466265167 -0.15228225810997512 0.0624739768394988 -0.006405037250061832 -0.20602702624650926 -0.03284757066566902 0.046109822729415155 -0.025899453774422317 -0.09272597267152131 0.19132512775418375 -0.12698858572652316 -0.07172159618276322 -0.005292085720126177 0.0848432099767493 0.04716384014207533 0.0556561676645007 -0.08180795611629982 0.18650738938081235 -0.1670925051916888 0.08027179529191628 -0.10197070542255762 -0.000247989543229594 0.04792843351220519 -0.10534477771558369 -0.01304049720719685 0.06344563778329948 0.14865408985553585 0.1378418175064499 -0.012705126392826248 -0.06971999637206547 0.014754812468654505 0.038417092268776314 0.14123670149333029 0.046044506356831334 -0.02867932440598085 0.14776975769822864 0.01663962528107387 0.0030886083826709523 0.004965617973138546 -0.03731818954117052 -0.14116406497815118 -0.07140017224583423 0.16589805439481695 0.026950595016167637 -0.1562647642134734 0.010361080084612588 0.0574317602895124 -0.010610807928680707 0.05261719765538759 0.008267479569400868 -0.0293228706039052 -0.04928901822765886 0.13352467984459984 0.1753322059559319 0.19989971344877597 -0.09366187047343054
intelligence 0.0044325640312197385 0.13954438940708588 -0.010333637028421825 0.2086386537948659 0.1541179688107475 0.025646435450308744 -0.06129934396177759 -0.024580174996804028 -0.0427633050134495 0.07005615906847915 0.10327235385871782 0.003569856750013491 -0.14401498741465776 0.20636494923200213 0.12074958480694525 -0.1675609589486698 -0.03937853746802832 -0.03244254496129074 0.2164524315408392 0.04830555061864103 -0.2117126727841543 -0.1843699998393473 0.09620557864713446 0.045082985500495006 0.1486740800428778 -0.038643482595263304 0.10675881275887765 0.00817647286683135 -0.023793680316792708 0.023341129954261377 -0.02899047084607358 0.007764549893868522 -0.0637289012812856 -0.03322072374683277 0.22948688318338747 0.10120835155388587 0.03851560121805357 -0.04804644593505668 -0.13424518299338353 -0.17579243996888713 0.07681479852385663 0.09451595720181832 0.0860219215882214 0.08820245442201653 -0.00580883013549503 -0.08861027271039551 -0.02914453755746416 0.08771940194668441 0.07538172669811422 -0.03800062175866122 -0.01687167531440624 -0.22811667562889293 -0.062244837614567304 0.21360559556408668 0.018344619453086537 0.03678615048320228 -0.02456965436521072 0.04376845590310321 -0.1978366560688723 -0.08629599440965396 0.05432224508635714 0.1552215871901255 -0.0659399840277121 0.01953554197918516 -0.05984656713998722 -0.0030990465342716923 0.08483847758324042 -0.02745707293618795 -0.07270682763990771 -0.10372621413236649 0.13429953384963764 0.12293968929137877 -0.04670268442081885 0.07556022409700357 0.018629919753854893 0.05264863777890824 0.19448234244261503 -0.09393003104025734 -0.003375297754364861 -0.09672931276055416 -0.010125594084468054 -0.0861693616197022 -0.0009957190088180003 -0.0979967757408852 -0.008307346379505082 -0.010839179526171801 0.0969942962746112 -0.002920438718849268 -0.00559847444550853 -0.02834397868305966 -0.08797088685589796 -0.1683816385955322 -0.005630276608795076 -0.020635225312589676 0.018609391015095143 0.0017974435554032329 -0.01728949059420472 -0.22345754973808335 -0.06125494512793786 0.027750170007737517
belief 0.005887558645836517 0.19175115074436805 -0.01428868913797757 0.26670015430697513 0.1420864251107629 0.09959551300537514 -0.04781730704311341 0.03168012349345067 -0.22459669570337168 0.10452914672469812 0.026234416215845636 0.30551040138309904 -0.22323849857156475 0.17956124785647035 0.21060541128979518 -0.044695343604240004 0.012096789429934017 0.18330765443918143 0.07003515769947695 0.004882454098259582 -0.028747699631928435 -0.02522754490972944 0.00808034215528996 0.011484064607041494 0.030047093064847975 -0.14824477648637102 0.0006602899841671083 -0.05398842691406015 -0.009530024134371668 -0.0050131158230983745 0.06395625733932644 -0.03640518788504355 -0.25165458573969335 -0.000633286330812501 0.1456603656570657 0.0429403012700711 0.08934156211925016 0.05226123924232935 -0.07134947166658778 -0.10376192750041457 0.007551414922398889 0.10414628997453364 0.11555801188877454 0.136453848664124 -0.043532745671551853 0.0747610318869516 -0.10470773603607178 0.04652234735740636 -0.0038305895274773237 -0.021490854938263287 -0.0007785209098391529 -0.05342817740730304 0.021616826002266797 0.06023647144142234 0.013588219275927972 -0.07448437904272645 -0.021757855821077865 -0.005575204833879879 -0.16200695363361214 -0.03249124390010524 0.020160311125474884 0.20237143019352224 0.06309373835423603 -0.08482959648069653 0.04740338301420103 0.0008272771174983107 -0.05932687347456167 -0.01055814020893399 -0.026328530762194477 0.027501665636873673 0.05582477111226274 0.049349697372755005 0.026717966906842867 -0.056443480240142896 0.04045020379287269 -0.006877707381049496 0.017952624867359747 -0.053595856944897324 -0.04000502567797761 -0.03159679051632567 0.015260044978890481 0.06713986891260942 0.00018349210208550522 -0.11462816844655108 0.10664414650615028 0.01326356188333255 -0.1611203273224586 0.18986629528251048 0.09110095495501738 -0.05197809649503876 -0.15946783177348375 0.09237163522248265 -0.0663459731354372 -0.026262237735222974 0.08957898710286569 0.1690400595926178 -0.07123429329768356 -0.14855795209486936 0.0569486593377601 0.016938986826882257
bath 0.04142925956990744 0.20549778834077 -0.008791638760310888 0.03276485656004828 -0.1986756532385377 -0.22779720693983868 0.18895086969011335 -0.09809975239098857 -0.14159469948173517 0.009416365400382388 -0.23950017780011923 -0.13675884169856975 -0.106324204819141 -0.003741604856187612 -0.07533110759825772 0.07954282963276417 -0.13764327014540825 0.04876822895292576 0.12624240677202977 -0.0074273308698589715 0.05588356692767562 0.04745279748712401 -0.036173009729367 -0.051676593985784974 0.0869124252312807 -0.06138236590363792 -0.08388706979137246 -0.02842332310065841 -0.03455875354897551 0.15851348697231468 0.023901299639171012 0.03988010106121008 -0.14859031784246182 -0.04122735870686503 0.11386391034823883 -0.05123525148995694 -0.035141499713444345 -0.17705858944502878 -0.01930332459533389 0.07702869925283297 0.1361870598151701 -0.10476814838495402 0.029975484670709564 0.009710640712487732 0.04875977971016736 -0.11702497117436063 0.06070754430866231 -0.02621039939368606 -0.08035528055195827 -0.002645604284331419 -0.07525214553580499 0.05937431118501432 -0.19840324213200944 0.17486292045867313 -0.2748566738558459 0.020046773271397235 -0.0033277049388276366 -0.022550635531980036 0.19620251490559928 0.0045305801593960564 0.06570659716022535 0.09465565077087587 0.20561781622866357 0.044900191406686635 0.10731609344453566 0.017608805595685038 0.12045388145447358 -0.07588198232524955 0.021956587235082217 -0.007430468957907901 0.07495365367783187 0.050905426486779495 -0.0024341965386319255 -0.01124967343252905 0.02881366708756689 -0.046662611254887305 -0.07353937560826324 0.04905013282361937 0.11570337689663543 0.005515478827534611 -0.003918709732960803 -0.0868468472627475 0.008432220407951581 -0.12234918418352078 -0.05446040934308072 -0.020580910718664087 0.11215639469387331 -0.04324550524903979 0.02467303973128408 0.05527038068581558 -0.00818613648587664 0.1923491133080432 -0.05782682145107721 0.05039312043843465 -0.04648891335032647 -0.10428551742668628 -0.10819805215295918 0.06879001471360147 0.17088193327431733 -0.07788786467018277
president 0.009112440253214244 0.19485660916119374 -0.006292538584617186 -0.020291615154098892 -0.03631569242727367 -0.3695285771936491 0.1553707323365111 -0.030098018305351564 -0.12001610532255887 0.0002495785811136947 -0.10635148235333784 -0.05356062894430942 -0.09152888479188565 -0.02647612719214069 -0.16392908738637327 -0.0922726659627767 -0.07219340177566913 0.02069446356608532 -0.033706944355822784 0.0034287600111527943 0.06127682777476081 0.09901828362756901 -0.02756663494728775 0.02849429252772634 0.13739282783633983 -0.04916067455006795 -0.04091940244635872 -0.044603649492486824 -0.07344800170880834 0.11895758520572274 -0.07830458234933767 -0.07150911255194624 -0.19336854630018746 -0.006402601619283845 0.07103277415317243 -0.008542374512646733 0.015789926455297275 -0.06270534382385973 0.044751589722209974 -0.11938156482267355 -0.04225645381547143 0.07694224376037737 -0.09771096150081399 0.009656709956018474 0.001107266689836964 0.057416649516659604 0.10622513166214952 -0.09476713300687832 -0.17268706155184851 0.009903202933194686 0.03822272465082261 0.07936059673080613 0.009190022864266113 0.025137130541650385 -0.191878848149208 0.020287679378229773 -0.009631530392871186 -0.039688389255317286 0.018856708613373064 0.07648019552384921 -0.06905463255280345 0.163237545279389 0.0013543324290177857 0.013815786570272054 -0.05286278006948668 -0.00021685515416202427 -0.09450756924538574 0.15055722546896322 -0.017456372445195076 -0.16516246351889152 -0.04242999502499868 -0.016821879744938584 0.01760592246039562 -0.17396130659664352 0.07459946923028045 -0.1835725199500091 -0.012330457358755403 -0.20658360167090262 -0.20494233486096347 0.09084080663463842 0.04990996298503468 0.13049203447799237 0.016765042738018498 -0.18678514431610108 -0.07461338416061795 -0.04210247216251051 0.17841440326722588 -0.15949243301374966 -0.032795139357016945 0.08423165831446174 0.16561181086804047 0.14632412403645614 0.03370736385505081 0.02212897726584257 -0.0068415973765049145 -0.030248029494270526 0.05621450701217387 -0.06083787169893855 -0.12658714257076092 0.010261973948611947
think 0.3234532020515261 -0.013551515266705656 0.00044224163858483346 -0.0005071633710365145 0.005578970670644575 0.0035367312540384183 -0.003432396198829827 -0.0011250281594803986 0.002690097556531931 -0.0023100529927168813 0.011312697144852245 0.011788567068648802 0.006148423262190824 0.0015453092605066982 0.01013209890511975 -0.010340193769203842 0.04424741102705484 -0.014186272256607242 -0.06611283780603625 0.2104926150702372 -0.05921059754020334 0.07971399454668193 0.0015235847464203913 -0.020823972294742973 0.029538478907251458 0.005967283966831212 -0.007071359919421782 0.0020171749217025295 0.0013841816154066674 0.002498427398064816 -0.014872689223573406 -0.00984328247085094 0.009672628988545411 -0.01962734160519514 -0.10789092927061805 0.11432607689534889 0.28155087105225973 -0.14166129523430643 0.018100267282900522 0.016062448122758966 0.019605264055169068 -0.020650690421308356 0.01488561902975296 0.029980241438484427 0.046887483415360816 -0.01410845236687205 0.020283083095236645 -0.008615343588762208 -0.057190706577871744 -0.0025320660537827156 -0.16220302631043462 -0.0007757496753253099 0.0007840615758013285 0.004192053783599556 -0.00843825874510794 -0.01916553609564185 0.256674036136415 -0.016540282227195485 -0.026772493040932308 -0.007759181765566189 0.0056431605597331005 0.00010636638586960027 -0.0016665271503221166 0.0004693727600127506 0.013110115682804074 -0.26705974465465904 -0.0070696535598315895 0.038578259595415755 0.24788407939012155 -0.05241649791338387 0.390518358587393 -0.2853289033540377 -0.0020292755365195745 0.006378627651892888 -0.009343869478718748 -0.019358006755981455 -0.009755562783165528 0.017664016479211044 0.03699686607003509 -0.0030998147720873222 -0.004014347762590386 -0.017535528218314184 0.25582077055904373 -0.008169065264941933 -0.053286582444857095 0.3871785269009549 -0.002321778915419652 0.007561800584132655 -0.03749026545523114 0.006254678012272571 0.03683810747002659 0.00993645765904658 0.0016567391232638717 -0.04799362700724038 0.06623479244293687 -0.03175673563278202 0.004759765687595086 -0.0041695779262833675 -0.007537644180029306 -0.049689234547497456
make 0.3464483886478188 -0.0156632478084418 0.0005398358897460087 -0.0006805009307263006 0.005737265405525227 0.0033806048799284983 -0.002887364637168915 -0.0012707688803248057 0.002181626604114855 -0.0018039393135632718 0.0076827033217447506 0.00766209111422238 0.003488069098608905 0.0009372973245314487 0.004489273447228442 -0.003980264516332418 0.011433246503968974 -0.0030425499803949894 -0.009710395989352283 0.012503482856861448 -0.0007701115356221151 -0.0044195182330137636 -0.0005161030336646519 0.002851657811342004 -0.004186724588955387 -0.0020819798315161757 0.00536995902689567 -0.0010114521488128131 -0.0005020320897430803 -0.001143893068168102 -0.030292254957687757 -0.01882814858370728 0.010182890241040028 -0.030156956637912513 -0.08008050262806432 0.07241683361925004 0.16089051502783366 -0.056291926411891485 0.0019473022622633104 -0.0009783027846419904 -0.004416119187923136 0.007090609924813472 -0.006330533918999001 -0.018531021503739902 -0.03646578124347351 0.007025769166929638 -0.01627198956885515 0.014472065409437957 0.10086835873624611 0.005874158510280765 0.40216061492166233 0.003682560478759185 -0.05403685121829793 0.02575863367090845 -0.06474403890002163 -0.029632319471094154 0.26348126224210366 -0.00573932995025511 0.007092325816300574 -0.003363464644235954 0.005279886836132848 0.010088824102626707 0.01924246901515961 0.007344845130039582 0.0406444582650159 -0.2785553446985258 0.026701547546792118 -0.04998637869095177 -0.19378858313437922 0.018690232009978974 0.04701836031721365 -0.19289924894077337 -0.008120047053009645 -0.003958273816438074 0.005899205322912666 0.01719312897237661 0.010296473272767377 -0.009256617954770827 -0.023822639664564278 -0.004998153875692802 -0.00043789401610928023 0.004758858238947772 -0.36701606755072114 -0.005435544427426168 0.017546962499042796 -0.15843522805212107 -0.01418671563966746 -0.0022393899409144896 0.012953692083568221 0.010597006400427345 -0.0015536385512107855 -0.019461845944589735 0.013059066590336954 0.18438100790051526 0.19738486813174516 -0.06649564350879292 0.018442534855334123 0.01843764179148523 -0.05869227335297816 0.4235047660565137
