750 100
sitting 0.21242116758572205 0.12364851024133938 0.006114021491941084 -0.001183341413248033 -0.06628143502869119 -0.01974596820772937 -0.042654841586324016 0.019085830897954778 0.03952607976433175 -0.11299092234346257 -0.06934026521120813 0.10448114075231274 -0.08087740513740775 0.018383714504303043 -0.07457328033311288 -0.07058187658833906 0.13551466139647744 0.02858987816798634 -0.1759300869928345 -0.020733935888758912 0.08753929583639128 0.023918591932467405 0.12893465577898616 -0.08574752003142433 -0.037468726170672796 0.03610319959364745 0.0631863303652282 0.12214088034291916 0.06818771661304078 0.04379170524624012 0.13668510527896358 -0.07089252899800626 -0.02560482263515915 -0.20271536636435822 -0.1075187512050286 0.038942266655397614 -0.16875855085157032 -0.1754044011346852 -0.0966578304154788 0.06504968740423168 -0.02395774063466853 0.034421667246858204 0.07770676002558953 0.00716296969844205 -0.019261347577188698 -0.19914569240611538 -0.09643859965638132 0.10821865780052824 0.06300383966261187 0.13729252132067685 0.1706348185066723 -0.2413508821041165 0.027267707686458403 -0.0938068763664734 -0.03716433981221912 -0.020614564336884758 0.10139932609242529 0.03791718837117903 -0.09560729512134168 -0.052310011553020404 0.22747937227417564 0.12019400980875622 -0.024321184703745294 -0.07277755383632217 0.030159408923424072 0.18197348995332416 0.0663465842007845 0.06861150132153547 0.2258418955588654 -0.07237010102859767 -0.04621684480446918 0.018355001029979334 0.05560906861173825 0.17675521675632988 0.0644514730890909 -0.002040184545125072 0.2436502972360405 0.05962696651282564 -0.029055339125795675 0.029017065971522222 0.1583025027004155 0.07529894653640762 -0.03774512263171277 0.061175020883259684 0.01112097016944915 0.046807447329133216 -0.04757316576042448 0.05981975230941372 0.07098062609379005 -0.08251273753033303 -0.1304057431248622 0.028141182711700356 0.07403330617189068 -0.08491988730314384 0.10852477228342028 0.1556179497579437 -0.09499628518665076 0.010089059632720826 -0.012512243373515855 0.00859462677271138
happy 0.22678884235534313 0.23760864113222627 0.054078496855683965 0.05910636372110017 -0.06353292809275439 0.03911986829378567 -0.01662293527318009 -0.1954234584276069 -0.03458207676418339 0.12419206806275294 0.011687765126460468 0.09191386221858332 0.05352774758930815 0.023491069373715315 -0.10250993653815904 -0.1704259845911303 -0.09059135936843393 -0.10349749731581731 -0.20546462752668804 0.056871858581573155 0.14056828191440543 0.08235092705265389 0.026543802376939023 0.1005083720664517 -0.007984085845275941 0.062149290043478966 0.2281769676425427 -0.040892552692438223 -0.1617246038484214 -0.0058946025657840165 0.0579852670579821 -0.016270147092265746 0.030036930136553106 0.07259620566222774 0.006053776392891996 -0.09362467809111845 0.06242407314488145 -0.16790726490493946 0.015911934364755877 0.09492061842755989 -0.006544243625597892 0.10477314487101397 0.0035711837902517433 0.08779683899270029 0.09944489811178585 -0.010254848954813942 0.06151833220759468 -0.04106828069829051 -0.2603473539091205 -0.18701320387720574 -0.21002948147452766 0.014677463698874713 0.002797436278153649 0.006546959164938965 0.106950382289323 -0.0827368916433493 0.006287966767916534 0.013600762693470827 0.0003247788078915336 0.022043518581324608 -0.12690344472591972 -0.050554606839154914 -0.21317736943433213 -0.039418322210810305 0.07856032517294627 -0.01970364637947519 -0.111811795242744 0.05800449359231697 0.0709727095541273 -0.08343111568945778 0.07625166562553964 0.014167547290345209 0.008607947981778956 0.05155169246319794 -0.03592391291983687 -0.030247814314422347 0.2518012321536515 0.16358308958035234 -0.09602135941799603 0.10713216635447702 0.06637737987408386 0.12205699827964185 -0.047299730836584536 -0.047495283515465066 0.1226151185180006 -0.035201829383841726 0.031125399246885874 0.00879701194319249 -0.028799481727716375 0.08595541245219233 0.10217593591527749 -0.01587575365397195 0.07286298981431814 -0.0009128746726026814 -0.05602685103796549 0.039842874152860065 -0.034558922723435796 -0.12900741720730607 0.1292551807929966 -0.033500982004822336
shade 0.20923133062125007 0.14869749913692154 -0.09383641213441027 -0.07215280178475364 0.1832711448342972 0.04444316206503723 -0.025889176451098988 -0.08561148039980027 0.005659814873995901 0.015918347162358758 -0.05499807066786159 -0.10035438811231348 -0.02179649356681275 0.043233193433801005 -0.013073706656393017 -0.03609550285889348 -0.1395832412667291 0.14063297782571546 0.01515325187568545 -0.04220476455163154 0.03664851997347951 -0.0678481781158685 -0.16254884113390203 0.14355701757676392 -0.026466377148662932 -0.0640580243960196 -0.14592868198443998 0.21479708978747708 0.13004416834160554 0.08094566340852931 0.03460443824687606 -0.05629658872514005 -0.03033912959360911 0.10538107303223956 -0.06067331477962783 -0.11262071704002577 -0.060041398645659924 -0.04145779741394059 0.0077127899636068985 0.022598877921415322 0.05860403937624194 0.10663979161911534 -0.0423820532695303 0.11212247135136548 0.12408421908553195 0.0047232641230612465 -0.18996358944397182 0.16576293790600802 0.06028852325431237 -0.030808509271741828 -0.003885474464331045 -0.15639504221129844 0.07940027070518806 -0.08831613438018242 -0.12149849738885299 0.053944285598927916 0.16398948905728547 -0.19399270894853135 -0.08559079722396681 -0.1375628615678318 -0.24257598902004227 -0.022128511794581387 0.018794209114559556 -0.08904388539831555 -0.0567208009280708 0.028426977262076738 -0.01063684598317895 -0.2970854987986759 0.08600447744234344 -0.007434955396375905 -0.11980934320796179 0.037790073202709114 -0.030594151355453115 0.0853116774015822 -0.04202433702449441 0.225254345109339 0.0883479264670475 0.03499179041559814 0.08116590163049026 0.06750167310485726 -0.06988596685751389 0.022125481428100502 0.09660394479987365 -0.05254725089084475 -0.08084188213654643 0.006435178541396452 -0.028264681366623624 -0.052370356721066054 0.03297432403216883 0.1599378532928273 0.02662992123196547 -0.03292839945586899 -0.020022559360900378 -0.13625117728604844 0.00142495774001811 -0.030632227333825198 0.12184350342370029 0.016932097442738398 0.031035970485863366 -0.12157930730273087
interior 0.21802591702378768 0.13202758648327867 -0.17494334683622814 -0.021794009119673052 -0.016303537512070598 -0.03447791048018468 -0.08696879704500692 0.031759061542306274 -0.004217944229564268 0.07174206979301953 0.030692639515918066 0.11200541564181755 -0.06728414854117727 -0.05018128974912225 0.12056822196501357 0.019747679877153694 0.1875772947763186 0.1484951189255639 0.020916130272804645 -0.11652717311235661 -0.08788591227354596 0.13140525142620907 -0.11906925343288463 0.04248588873789652 0.0020255412676861216 0.028762425146298655 0.12057153623555432 0.10458635294675993 0.06170090400684096 0.200091585616402 0.0560327838454349 0.008796342882047649 0.017895335574459482 -0.018871715922277706 0.0209062381205013 0.06439493255825074 -0.1174814540916478 0.05159447493726809 0.0029839705321009734 -0.16948432101721156 0.13576119325223407 -0.027701100730700146 0.166569176782171 0.05815553649794237 -0.10110375503261254 -0.02704103600121431 -0.0670828297619084 -0.14161033562190986 -1.7070853440035447e-06 0.14935763094311566 0.04834677826140493 0.06196846095289933 -0.09867470883097677 0.11957551005139146 -0.06629206749954403 0.06365642462857722 -0.09253540182707078 -0.1577896450181241 -0.11595734059012304 -0.06836961796644205 0.13894477637208444 -0.1002616917527877 -0.05955215915303135 0.009711001472886274 -0.07536756841929802 0.07702455685416469 0.08061767553009254 0.16688595514519158 -0.0594842540811635 0.13952726550559685 0.018819407560483455 -0.10711566413459173 -0.09422189356767874 -0.1335611610144569 0.10529601447443845 0.16882287744035704 0.1955418219231333 0.10577868868443423 0.021313406341808123 0.012118847492576496 0.20519825830555632 0.06646377525378162 -0.15144017327307388 0.046649272033868344 -0.06478402538681072 0.12819218526519308 -0.06596309113510529 -0.004958645673203473 -0.007885255143652056 0.010042201657016792 -0.052272812764087684 0.014499849918400594 0.16940858683238563 -0.07927897429926892 0.1780313907919405 0.06983371575488449 -0.01901309931741844 -0.12551362802725216 -0.032192606117699474 0.01700221403734947
foliage 0.2702354187600559 -0.17289832115911868 -0.08211511440438851 -0.008762622917877615 0.025573412421205626 -0.1332833055746995 -0.061403220225200804 0.1621148777395534 -0.0005772950387740596 0.08338344768311454 -0.024029877390656474 0.04019719944983883 0.04891251206234342 0.11233190016856558 -0.022368777424647154 -0.00418669444711447 0.03534016835269639 0.030810816110523883 -0.06497859495048934 0.03291175136155924 -0.010167933260808752 -0.0002730370761781795 -0.1300066963019846 0.05906651084106156 -0.07105586410184803 -0.05636805426651872 0.08618662573595336 -0.12471893871729511 0.13251310623367332 0.0964256300240146 -0.059396077600462734 0.1121593779098223 -0.11737978794697618 -0.1839969238018214 -0.05180877117469283 0.01436753880304556 0.007035591881808556 0.024514241765008715 -0.0007437620227268015 -0.08171837286144423 0.09495871208803812 -0.08183986209322879 -0.018190005460232982 0.05909801038987414 0.19012003556926688 0.023016605281466495 -0.04127320465409495 0.0705401730698375 -0.033361995334764194 -0.03188898446360463 -0.06515609703607678 0.3056664627920882 0.04857677861404018 -0.0478145598356497 0.012791824792365533 -0.08342319316615568 -0.0272293513524054 -0.18300595805004216 0.14359420346129675 0.19866111090182934 0.026867426719692427 -0.025587822999394376 -0.03802984104901898 -0.06479500682096888 0.07503745144772556 0.1239282858488412 -0.10177907935699719 0.0077758823947224765 0.03216961542126861 0.1482231140685304 0.13442428046890753 0.024921609302046406 -0.02374843798120077 0.0825786666455979 0.0008370820825580977 0.2653180714093328 0.12042249368089784 0.10837931416327974 0.12308834344994005 -0.06990546832277268 -0.008916580119199108 0.050606714673765936 -0.20611233505547621 0.0695765174737665 -0.10145259370007906 -0.1383793817316446 -0.044591528733812016 0.03506970816488228 0.1700831880478091 -0.019002965873722407 0.03375708265437779 -0.025722745693379585 0.1822847925144293 -0.02135173305565605 0.0329175118789607 0.14027991279708812 0.056716624252006305 -0.01883744620589737 0.0813808287428756 -0.07589180973821544
guy 0.18878741268334015 0.23279710378044488 0.04732493222106047 -0.010986149155765217 -0.14723251431895604 -0.011680968574723541 -0.01677938278990143 0.08604884453242687 -0.035736499865221975 -0.027239259246449377 0.1419132112274686 0.123780951197602 0.1842522610878825 0.11635873381273808 0.159235136829528 -0.05073409361751669 -0.1117087680065027 0.045896713531110106 -0.12536767205371124 0.06408814103380729 -0.009031183462423785 -0.23439145241848292 0.04401676383876737 -0.04783187088907769 0.06771373378410671 -0.021200246475078777 0.014648309197080172 -0.027596513390692867 -0.02317661246242929 0.03939046161830134 0.029069120384831337 -0.03799149469251785 0.07304863584247062 0.02228072596802882 -0.060795417113939834 0.2156795099296251 -0.10377110667015074 -0.11219431956181515 -0.018389899656101615 -0.06385905159769195 0.04325327225516825 -0.03754983109443877 -0.08788571336206233 -0.14759565138022734 -0.01867251385704316 -0.14111145143186496 -0.16464083767107474 0.06620655030554574 -0.0849155731859763 -0.11513434493792735 -0.10919796661904542 0.06095395161246621 -0.026481880879905877 -0.06015984451776021 0.019022597326811087 -0.1137362422727208 -0.10100339717492528 -0.2128606142509266 -0.1420054902261984 -0.15146570483951013 -0.06843603353810022 -0.02368929068543379 0.02472130570519886 -0.08405923631474033 0.10461738736841468 -0.0008152185895472265 0.014323655222468016 0.19979932004364856 0.019788222196810045 0.08999033642726469 0.1433800212630934 0.1360965216920181 0.03448756018942709 0.10333343603062549 -0.21220687231462002 0.10045904509127239 0.1695156128498666 -0.019277012303217676 0.023823041021450102 0.21387995651694136 -0.04786649963320274 0.018726919759385455 0.03327909106004525 0.01001514027486655 -0.04639491718154045 0.03214144559020976 -0.019190697299466482 -0.08343187807957538 0.08767027958925744 -0.0165250079747628 -0.05853320546292154 0.13239666127197436 0.06139318072475489 0.04329857851169222 -0.033127495659982326 0.008080068005789363 0.00590212507900359 -0.06054393490579545 -0.12412590529878556 0.13227074424234997
morning 0.2209724218785746 -0.05983384203481725 -0.08485103559793723 -0.024932524553324262 0.07239788583882294 -0.01813167738551471 -0.08559064142991026 -0.02964212764801485 -0.18018389996483186 0.1054989313005899 0.009052962971699902 -0.1313259033087373 -0.018484247336433297 0.019548761975679268 -0.052932882755220276 0.13528368109920094 -0.09501037078897584 -0.10767114002827567 -0.01300900866425746 0.09783402211088599 0.023944614602433145 0.09486059288095026 0.08366184252073539 0.025526105701115152 -0.027817898386000007 0.05223623885358969 -0.09637973921246107 0.0579451519681801 -0.0745609427834609 0.007532652402336062 0.0580689867413311 -0.09416621458438676 -0.04162091327920175 0.11560243878986455 -0.08256060263453162 0.040034727467872094 -0.22091762828372735 0.07705377960606202 -0.02150643584917312 -0.06986429377106626 0.09696268335810018 0.16896421125625366 -0.05136611261274003 0.08006506076769646 0.02434932428552039 0.03150075257712818 -0.02908030854666384 -0.030285063887480014 0.15838718373990832 0.17730173703873595 0.030007153510301993 -0.10674940435499662 0.07181427013700692 0.07908884495268982 -0.15461821208717733 0.007163440974021487 0.1724615659070861 -0.020227581276220527 0.005055819165435664 0.04399062854153304 -0.015506700346429033 -0.12388625812100802 0.07580779640447133 -0.0689331394579343 0.05265589193517186 0.07494073977113186 0.22470099573001637 0.007061084295291627 0.24926664428678225 -0.13373673580295029 0.10993575491706008 0.024880057125698365 0.03695622662863971 -0.1073327232020254 0.1751940546443055 -0.06556285737380806 0.27706132939483924 -0.0031231961134453004 0.11575535483558297 -0.10167509686599077 0.07519142350464723 0.08871600149955643 -0.09431155164250289 -0.010740668638350777 0.019936122026691754 0.03287861921770261 0.05218599657285159 0.017474643475542468 0.06505897447507655 -0.12944187644406277 0.10113131679630825 -0.11676886046987807 -0.08847642068329106 -0.09628176321334792 0.11810263960062142 0.07375699755712477 0.17296787543412348 -0.0025996481057627393 0.16417402208281925 -0.004608673228091982
sunshine 0.23525818045280672 -0.10938524623880476 -0.159944125367087 0.11803213672982246 -0.00041414570308936384 0.046175753980776335 0.025485207069663292 -0.06613563079952547 0.004683119588087936 0.023192549090299566 0.016048785326384294 -0.03242873828972708 -0.12838296949145028 -0.04994072358425792 0.01255842200254756 -0.037339757780549356 0.0032445474725689358 -0.08699977420930646 0.13510108901009282 -0.03817000212089498 -0.048061232383062 0.023909631312249383 0.15105780395400353 -0.003259406781302537 0.09536496884055225 -0.08198183214129735 -0.08230229557776837 -0.06873681971569406 0.0986999129976978 0.16890736522999794 0.13011968714544203 0.09519400995209928 0.057714971202221944 0.02205201780308165 0.02961604952237631 0.15913911403539643 -0.01297717400032975 -0.22374343175395872 0.09040069433330132 0.039817133113090285 0.016804636733766996 -0.04393114978531249 -0.017185532226827074 -0.10446904089590914 -0.0547046766574857 0.1333330343563327 0.12338882116014868 0.14088524919712242 0.1061520755984359 0.06521281730898557 0.0489980326691592 0.025157511884565404 -0.007479446405523983 -0.05087114251263123 0.03185053559556514 0.17268362492363712 0.05854505796509766 0.021463414603160005 -0.03991557394368368 0.013557721688797241 -0.07910543752085446 0.05796994657885289 -0.07477866895205246 -0.05230475420478899 -0.06386312614914076 -0.14768957745721734 0.005442577531492588 -0.03793735569413541 -0.17761575881266908 0.11861129284838956 0.19522773728879256 0.044163900148057746 0.07345820728272007 -0.13810151504591345 0.031968540413775066 -0.03265100530124758 0.2339494578998964 0.29049258836745706 0.12588381386702915 0.13621419181615008 0.03739842301575497 0.25153243638126527 0.0820231592561793 -0.08596676496657098 -0.004097786594291873 -0.1273197307365321 -0.11929932971128912 -0.07177168063988074 0.12402619335092083 0.02616369474069404 -0.032383154473153625 -0.0036506848870319812 -0.087098784007757 0.09532889492971129 -0.05030384512905881 0.045541007640836635 0.05015834407867049 -0.004978967325205782 0.017495497017413434 0.12394697496088398
patio 0.2048391534684639 0.02446478108922931 -0.28389150084609976 -0.01865941477070609 0.010788687637508542 -0.0675394716796472 -0.017410522003373594 0.01934444988196481 -0.0601027483060101 -0.07416778555603232 0.03921015941623897 0.01592444056953677 -0.05190166703200386 0.023775866997365325 -0.03153915085747368 0.10205249849122534 0.22574586346943795 0.08166709885123649 0.04299778584218071 0.10536030114198583 0.1483415645513775 0.01852787245883444 -0.0007429713004471161 -0.01737399950727466 0.007176595650487089 -0.02438792515619452 -0.0010964606877372593 -0.11112332007620605 0.03685657688301275 -0.11054299369853184 -0.044112160036565096 0.03626123053983365 0.137764903301102 0.03593169441691628 -0.14614879591683 0.06077167398062299 0.049402029226741945 0.07541710857162812 0.06484678734026723 -0.042354172545066994 -0.0408231590547775 0.06869631870839467 -0.003012802722921837 0.09233726016438348 0.009997863293231669 -0.0289377328497731 0.10401279223520685 -0.16021240556455393 0.1244748950869775 -0.10243604687301999 -0.09290679331866934 0.008877384242677895 -0.07669739394200441 0.05359926307011895 -0.025426863607709124 0.15710732462276458 -0.13026526452477225 0.11967591435887569 0.05511208750323758 0.1294252063361843 -0.1659047954920362 -0.09933577338688296 -0.09206334596325634 0.05641823221146487 0.11931865085478749 -0.07139786220898908 -0.05187769688567412 -0.012093064524619404 0.14585787964133887 -0.036175510045383184 -0.22826704646394297 -0.008407409706782217 0.07472929015396047 -0.14739788007996585 0.027716572869950752 0.15366828025790494 0.1662638022636657 0.013179819817516019 0.10829910053207988 0.06146566041564533 0.033244714565962674 -0.041178366183037586 -0.10225778678884911 -0.14574483089536808 0.04377050063556018 -0.01105946977900995 -0.14582388798124496 -0.11807137043410175 -0.0383423012111247 0.015568589339540997 0.14479391400659689 0.07403341111345867 0.03799158828954276 0.29403686255812567 -0.09837463553573518 -0.04576345965112962 -0.02650635355079953 -0.049563587721093365 -0.12814274299792866 0.17520096354873088
sunny 0.25307543404317007 -0.07642945636238205 -0.08689123864983699 -0.05659315345644613 0.1067476729227453 -0.0977370805846913 0.03234931416959116 0.07275549810353263 -0.05565154062112373 -0.007158434466135967 0.014249342038226823 -0.23288721848658528 0.0036912196278559356 0.020308617330977448 0.14005105833107062 0.05479956450546992 -0.00307899308057494 0.031593529529490634 -0.03256443393996043 0.016019860752697714 -0.13108404859438264 -0.020060201322428698 -0.003550617062704868 -0.1774552176171402 0.033863995472116167 0.16628866500126538 0.04951725497084387 -0.10106513486653047 -0.08324957685074003 0.06384885015701584 0.06209107892370944 -0.03201469690091952 0.06495603297083705 0.058787081098552546 0.017114216861650912 0.12491573838992215 0.021672435445471837 -0.03936957860726173 -0.07428879144979858 0.09550641220054827 0.05857319793453209 0.17438771811869672 0.035704144322687086 -0.0036928409532841883 0.0764499000569067 0.01990421102468037 0.07978096908902607 -0.002518822158962124 -0.03619732328988783 -0.02625563151087421 -0.02237997235228813 0.0014736894923485697 -0.011555627747024361 -0.13754204031391457 -0.05473699751445369 0.11996879529083636 -0.0006273379708105574 0.09458616057010628 0.15646915414482337 0.07132731182862125 -0.04752304650361082 -0.08096189866547926 0.009812274324466545 0.055241709115625676 0.13107330415888221 -0.03229414984124885 -0.06817293097687284 -0.06066190434145342 0.10514656945014718 -0.06140670119177804 -0.028615148064095593 0.2330006062807551 0.15915405083401682 0.18529624470525966 -0.17696849734262526 -0.11329632743730916 0.10437231985235086 0.029443924228734035 0.05215465709669518 0.12671883271691683 0.06817165821804465 0.13686864482188976 -0.024936739182846442 0.021914471809343194 0.030514047049783513 -0.21658979668528383 0.1294803271981954 -0.10981768972539596 0.15421245863591732 -0.17987635449440947 0.09437918219713798 0.024575724814466862 -0.0019807610371260207 -0.1014012487216929 0.12113778118928617 0.18278131747073453 -0.184182226245284 -0.07284717764083345 -0.14290582799132434 0.09806840448451064
dessert 0.2031179542032118 -0.047070879377112636 -0.12093527717286222 0.01512418817240416 0.0015105170565975269 -0.13289090616409685 0.009856257493037132 -0.14059298000965423 -0.07819286679896831 -0.016576901499292904 -0.10767988757916273 -0.11846195322750694 -0.10668714278610618 0.07141597955281402 0.08979319829948862 0.005312314675639829 -0.1136083899745386 0.020385073652598232 0.04910951612797868 -0.03452421128102125 0.14242354074775235 -0.08314315545642242 -0.07488017865333638 0.039850910669395126 -0.2272350058604844 0.06758485561912843 0.14176019123551856 0.08712009658026817 -0.045193194197001116 -0.09191600289376042 0.019684909466289834 0.044664328336044154 -0.07784868735656289 -0.07982911295984862 -0.06637005546286347 0.13268595655309998 -0.01680219754537227 0.08897884913100453 -0.12037613583113124 0.06141175685871297 0.16420215223604132 0.18367389695713585 0.10363432490268769 0.07497239314753315 -0.09427172426810128 0.07149097937044703 -0.19983935657487908 -0.016998685009980724 -0.017049935750505618 0.20903769791137264 0.008788932449776988 0.1378082899217184 0.054998371574152806 -0.048245367291838405 -0.05457827789658685 -0.26264448284772446 -0.11876771718938528 -0.041388427998712285 0.019122094603363074 0.07197279921574232 -0.1089193386529849 -0.005270774049737206 0.0010112533192764262 -0.042288164247222454 -0.00038181273449187377 -0.04148648621419221 0.07822986581235415 0.08376217225111629 0.21774093302031194 -0.01431580871734149 0.00048553567720534876 0.07727847456979689 0.1354615151451044 -0.07823960486654884 0.14027598705380667 0.03987233331644 0.1944551852475223 0.11672229413325465 -0.1396841896952461 0.1682154469124984 0.07414372672974154 0.010986483655830838 0.05120901893781733 0.08925066781173414 0.019982519432415784 0.05388123910550731 0.07462730882513365 -0.0440748308217694 0.05280729501229126 -0.03010412687912279 -0.007251421316962804 -0.1160612592528617 0.09352740507257878 0.21288813649433697 -0.07671657093952858 0.05272743712567172 -0.004656082270838548 -0.010677504337133152 0.017620834710863204 -0.10500883790822568
scenery 0.23618448368779266 -0.07371718279996205 -0.21879322266501064 -0.029574556450844895 -0.056084375973375664 -0.032826055040756634 0.03252992854095259 0.042350316437863904 0.1552403223267911 -0.03055782990243099 -0.0709507760230026 0.015408443755046977 0.13147643843458756 0.09196702564050072 0.010964120247815462 0.05549378344016177 -0.09379477731187458 0.06511978106917712 0.06884895902740144 -0.09118336633758033 0.14848030595149653 -0.062101381790492155 -0.0721851091815343 0.02825394165519712 0.0922205325169983 0.08008596725041844 -0.11566419990138987 0.05820348331295526 -0.045126507432586095 -0.19351809796789388 0.021120466093883572 -0.10744570966851401 -0.08476293150743831 -0.10307973611298182 -0.10976142171319413 0.11847870132508335 0.03523568112318605 0.19005673366627435 0.0016068127092339758 -0.047214458651610995 -0.08112072059727948 -0.11685202573760008 -0.058910088910964116 -0.154094299673833 0.11233584608406123 0.028554878698278652 0.1410304677774323 -0.20659865377601816 -0.048372690212356004 -0.11805056934893152 0.02727033572486351 -0.0755875256358089 0.022064998098825107 -0.004082328829482388 0.14066543247732738 -0.07746872793438385 -0.08209495800064774 -0.1403909419555418 -0.06381632638999514 -0.05353292270852754 0.07285387700655559 -0.03524768852451109 -0.0044851490181539635 0.1710372913793929 -0.08241154739398616 -0.029540128951151448 -0.16194971309673317 -0.20560480709515927 -0.07100874032500101 0.04929527389139276 0.187931108946091 0.16568017823978756 0.225731829499299 -0.01727260784347151 -0.04291145603721191 0.15289874391445804 0.11759895034137156 -0.06460016523040893 -0.062415856641631455 -0.005763345091611931 -0.1538156525449978 0.0818528630711443 0.10218428074315423 -0.10400208538393588 -0.0541126897576045 -0.0684188572980797 0.049350298764253106 0.06746429594694539 0.10758021538819207 -0.030668061803202952 0.0598266216953987 -0.04229078628016263 0.1256753860649468 -0.00420125244798479 -0.05148460860607769 -0.06422229426545495 -0.04211911795345921 -0.032889083695947015 0.04072617061792855 -0.03686242166359605
purple 0.21132527213961574 -0.1431155708430173 -0.017214286358832907 -0.023262311268017345 0.024571540992902048 -0.1340332984433476 -0.0018528647875494875 -0.08262096951956055 0.183247940965261 0.024889018600280154 -0.07643643284129625 -0.013522124282865696 0.052162738036014816 0.004947436052673048 -0.020585574491144693 0.025204139936460385 0.05127650508406796 0.0641347823376264 0.07078647688572107 -0.12837155059191688 0.04070200453979285 0.08180042881665733 -0.00296246591550007 -0.14480252238568206 -0.018441472153469488 -0.13574466806065447 -0.1402975257806022 -0.09207570991309384 0.043563841717574416 -0.23211916764747625 0.014068389484541935 -0.08839702526083007 -0.06528234278990605 0.013650789585973537 -0.0926641550652572 0.007690579027589196 -0.06791695009569815 0.04895906530293597 -0.06046524024281194 -0.1717039850568357 -0.06384480529445259 0.02645916892003535 -0.07489256045855334 -0.05895487852289305 -0.1073079076450835 -0.04457913981937508 -0.014658020156684728 0.02655598942575481 -0.05662788539614377 -0.04013849688439552 -0.004992982700539021 -0.0051036492502398 0.032570662677302346 -0.03674704298371419 0.07790300757657685 0.0743570847832042 -0.009277534857445154 -0.12812240568739006 -0.13928962748259976 -0.01870318004819587 -0.032385678506245325 0.24236771554208453 -0.06516676711744142 0.06843103523363621 0.04144081592036836 0.26492127723474995 -0.08374966685260887 0.12198649026576215 0.10611665040236291 0.0034136509739301968 -0.093857537793404 -0.03929696881510271 0.06642527752128966 -0.0018481120570747343 0.20948112070402083 0.09900827301894354 0.14349795022862852 0.0889930209101583 -0.05965240454968737 0.05249254291921573 -0.05252266678927069 -0.02254696899204228 -0.06603143398118601 -0.174238588632901 -0.06808971365411982 -0.023936601993847888 -0.03443478681822841 -0.04847443127929923 0.20769249808237117 0.1573204578417581 0.07360335731674514 -0.028520853630662805 0.01175522847894325 -0.13661490606502602 -0.049672709328542605 -0.31329475973725285 0.09697039950106957 0.1537182945803616 0.0957471088058107 -0.011244769712738821
orange 0.23657963640680899 -0.120886427478669 -0.05457897495287243 0.09530815666831341 -0.12755818969875438 -0.0670660044934105 -0.0024995506920479048 -0.0898616666861305 0.10382116974529706 -0.012887187593545752 -0.010727619393881643 -0.20808099709672126 0.09788199138342744 -0.0011789866055759704 0.111807502949446 0.04900140645431175 -0.059514778521495795 0.12285470832222256 -0.007082719321534987 -0.06769796140365329 -0.10251213241443946 0.08426474906243354 -0.06527090089252788 0.08021274199455354 0.0647024489006231 -0.0674679208824526 0.1200076110104924 0.14727709156637062 -0.08562173822037462 0.14765118611525488 -0.10488421894393067 -0.1355700699042816 0.1441026261353485 -0.0922228299871693 -0.22505400838367395 0.032452987665480756 -0.04128634248164464 -0.08777585032089369 -0.017620179889836534 -0.045163331028172694 0.055366653009224324 0.07736949594158704 -0.17830676965646028 0.040381900207548754 0.1668580851574228 -0.08137459620439755 -0.00031961356011841286 0.07845920413354135 -0.11244018693651989 -0.21875518348491993 0.04754718865699034 0.1438734903984075 -0.07003780097825638 -0.07467779922380098 -0.034521811088530405 0.05231009219078853 0.103730807698026 -0.19434172521753698 0.25844513433132105 -0.03728646310835528 0.10543555765215282 -0.07403555808416688 -0.010910974756665871 -0.023575072925988764 0.08672960003976068 -0.13597500000064272 -0.03425365251189325 0.14006264769251442 0.08407283298392348 -0.006586836157521527 0.01717475371460992 0.00929834829281413 0.16467026823897077 -0.028463736962110953 0.13767840888924002 0.0007114137038753823 0.16255903018244952 0.014766334462297647 0.008168388963346625 0.08294823452196355 -0.036201666376128996 -0.0776675324628622 0.025888771994554152 -0.04483736969481216 0.051068927087332086 -0.11995044813442783 -0.06808041049312448 -0.06897077014478194 0.1359735462785971 -0.008565350460673967 0.0346894255801579 -0.12299414219434161 0.004049123947638411 -0.05961823650145808 0.08284373935087792 0.016531252196262475 0.02218594117890529 -0.1365616402196626 0.05698743074746713 0.08887163011117631
smile 0.23206577826684002 0.149311347266031 -0.0760457567374777 0.007010047227841514 0.018189242718804254 -0.028908030954083095 -0.09145583666469168 -0.018673191074351603 0.05098872046929689 0.045955544251441445 -0.02057059311977564 -0.05871693483663279 0.02588889818055846 -0.02207691083857108 -0.12168359984833582 -0.022392293739459442 0.18716481115247807 0.005490618333401443 -0.13445694686343856 0.048684365719352446 -0.0464845881979398 -0.13773680755255371 0.0810422367276005 0.05975436075067493 0.2581737389454232 0.12754934491796852 0.01617119542992351 -0.07489762667440132 0.09569670953755047 0.08916538651467565 -0.002541065363678671 0.12686108153810843 0.013730748637294043 0.08073185595336721 0.05611443844521988 -0.04881022436083544 -0.02777535481268048 -0.16242543259710313 -0.13519625281835174 0.14022374301543794 -0.15012404330219634 -0.06488051549294202 0.14074801148907193 -0.13788262394257 0.060407990211772185 0.07795904774281891 -0.06459218743458779 -0.08763710823542165 -0.08971315915927658 -0.048289751704820506 0.09327711567332544 -0.17797372457870403 -0.036047315837236873 -0.029560887251948404 0.02736429607507756 0.036671652602093624 0.09116303710577937 0.02348370768972607 -0.08576446026376104 -0.16143540410610288 0.0752933837925812 -0.1790545257849375 -0.13215691718137254 0.015429797521597304 0.0860918985472951 0.016125033629750242 -0.04185418252680016 -0.07741284129362937 0.09437022193562433 -0.040130235228535906 -0.0363957865997628 -0.06387378316891382 -0.26555446431613317 -0.10020122234613998 0.08923349785098793 0.17227559559199224 0.07180016431153853 -0.10939492213089473 -0.1387052531264077 -0.013201606366789083 0.0072756343460636955 -0.033887581728680345 -0.04919445631475959 -0.13721655362918878 -0.07102645829557583 0.12587185465908213 0.08787850541868762 0.054253857736861165 0.17425847969810634 0.016744232410132415 -0.06228432674782065 0.12266817263555574 -0.04063375790585461 -0.07790260690577 0.005415901772356053 0.02700283510865091 -0.19173258264278387 -0.08622086776096945 0.11997701984820654 0.019374189041138808
bright 0.2375284663465941 0.004459893612009007 -0.09410997348879914 -0.04436326524046562 0.03327461250650869 -0.04744647494145327 -0.10887234939811394 0.05422473230090414 0.047176842433667036 -0.044747003098937484 0.10088515004957314 0.07314200985525621 0.17320488146045226 -0.006391819178983131 0.10753155143441218 0.05786554103513458 -0.2773381488093071 -0.09386887923397298 -0.16700512829978562 -0.09094049999743481 0.05193210323222678 0.0025404435959019973 -0.041228554546415906 -0.10165748208397857 0.056519374858249226 -0.10267257290359502 -0.07458926760908317 0.07521865730929073 0.2191508155518014 0.024742760758477284 0.050183460846038745 0.08628749253075949 0.0662340681860347 0.01935181069171698 -0.05064424244614906 -0.09102901161545561 -0.06193026583284494 -0.02197250034330041 0.02283896878479765 -0.04948499045278548 -0.04275423806548756 -0.03980252938706665 -0.045207053268614156 0.1931649102654712 0.0843866485481395 -0.06650843026844634 0.025459054942042914 0.05141955903518806 0.18431499656770275 -0.05393483048870872 0.09448831373069012 -0.035302000541517546 0.06368412195745421 -0.028735631177966854 -0.1452980952509948 -0.10215391370324711 0.08388090685641603 -0.04325377642949506 -0.018077317554540295 0.03648864774879275 0.0674612883913155 -0.1624373323331607 0.046885021396112725 0.12784579551278769 -0.012355337179808681 0.07775906804251102 -0.16581196057039937 0.08902016314598822 0.15104167399661206 -0.13567566911299425 0.0329408817793808 0.1220776273044719 -0.23430401064280082 0.13602358003443088 -0.1411418337825228 0.1405439364378093 0.15754840088399585 0.08677832498932417 0.085883350264906 0.04227119414929079 0.057779390713024965 0.057803771174143856 -0.1050925967080906 -0.06293768603445601 -0.06573137445258458 -0.04144309489899798 0.008208278574806813 -0.10489411293737105 0.014220717835196248 0.09256958013728736 -0.05663079438250981 -0.09772187138083928 -0.0669660356506087 0.17677824538446935 0.06434285897055267 -0.045563105920236414 0.0066366754926911325 0.06753709815402277 0.10095189303415682 -0.18753463827097555
shore 0.20498521048741006 -0.08681936370274845 0.04624861461671282 -0.02282548626035399 -0.03270849786068196 -0.011835028906290457 -0.005824243312142658 0.0962401319099813 0.07716575572696376 -0.04148267447263655 0.2409474326283655 0.059755081506039365 0.11824621684562933 0.03449702122432368 -0.03360367465962928 0.12038356865916691 0.01156360115253257 -0.08017529563672379 0.10184828362080607 -0.029006092020689225 -0.04495717678110191 0.09176235398846698 0.05175596108610556 0.02008962279191732 0.06885882995308339 0.10425313952836107 -0.07542732021379918 -0.08783105126696067 -0.0040414723813874225 -0.026241721616496363 0.023822206388779868 -0.00851312621391682 0.1214680466565589 -0.031306419336874614 -0.28902382376227 -0.20901835493529947 -0.01436939152233177 0.05081207387811217 0.17403183852112059 0.14602599855350218 0.06557442023693462 0.1634969375624531 0.00022717182405498476 0.13699506572188094 0.019264596316892292 -0.03166073778366458 0.11422130464642893 0.18178114230768744 -0.039235908413666275 -0.13135160883391048 0.013158540427655362 -0.2058466348926164 0.01961777410322865 -0.06586941651322137 -0.018204267972501756 -0.1747121938214439 -0.034281325603097206 -0.05220017801540777 0.0333518837756269 -0.022280863975682172 -0.08395788582461439 0.03962756559092769 0.07726474379692581 -0.044996664196363306 0.029154292549614987 -0.05252574571201189 -0.13415073649201753 -0.0790868645912652 0.03892527186606454 0.03768177559650918 0.24974196315498023 0.04137320724823745 0.11077724364841447 -0.026913110966666137 0.01792131372917631 0.0996121658931631 0.17456796693930027 0.19278557142499753 0.11780988027500694 0.03300572910573482 0.19722331031740004 0.1007385466276128 0.01691340305598658 0.11474201833691444 -0.07292747095747504 0.014259864994491214 0.13421962348164124 0.01292581833371703 -0.05599402394799381 -0.10338648959376157 -0.08718029512781146 0.021138071034303624 -0.05114672408987442 0.026537004394309203 -0.1272762797992823 -0.16854982350513462 0.0019457532940946336 -0.028101691713497957 -0.010999812657402411 0.06496743469936571
stop 0.18776540451336365 0.22597476999791086 -0.020093481663095394 -0.0848131657447827 -0.02089987572898189 0.06531559954665409 0.008829589091530195 -0.10522186867321992 -0.05460632095885996 0.02308739573320789 0.0488044539889624 0.05196781332642667 -0.05556513321855557 -0.1322338382055721 -0.12053153870037017 -0.06409191955557951 0.0629680017960306 -0.058573001881451654 -0.14373751282810282 0.08647858788155122 -0.0910623671240271 -0.07935477414287931 0.10029460289865498 0.11388929121691163 0.17258557011314637 -0.07739905548140535 0.09068253188800461 -0.11773295770431674 0.18684500402162604 0.14854218834667188 0.01443954018686963 -0.06353246128103905 -0.08159380290239322 -0.006029685345761163 0.02209442406470958 -0.05484345147420244 0.091841277048131 -0.12850233600249222 -0.096611613597055 -0.07494050143034059 -0.174146406522389 -0.021283907337759207 -0.028514610818544176 -0.2163865176414543 0.10028493437317856 0.08510459860390186 0.018957129218386444 -0.001744680291817427 -0.00011415249101351675 0.11517708789422303 0.2645665267966613 -0.047779240503446244 0.066705688215988 -0.011340929768424933 0.0505585820554651 -0.1138851583570682 0.1717498286800008 0.15839920269156493 0.03147211240727116 -0.04891477775628789 0.0008327573093507199 0.010283041766583019 0.07968700592697296 -0.03393170617849693 -0.008306614025969234 0.03425816551786204 -0.09431133962680842 0.09038593728288673 0.3000270033357448 -0.006751806444524263 0.10489457209717917 -0.06446419685491178 0.035833021051166786 0.06311503688039288 -0.17925051730760375 0.032827292234439046 0.19839249820100635 -0.07772532589927376 0.043349943218080424 0.07046800125788302 0.09695557069112196 0.0929018659481885 0.0023143584412373243 -0.047657885943159346 -0.07772027164220525 0.027337795493749983 0.15838516691544288 -0.07502603671896822 -0.01669160202650462 -0.05006901397926967 0.017505831973887113 0.006729130184857329 0.10242478401400756 -0.03140372363933971 -0.10289860535100856 0.03311322470880995 0.0664948846194129 0.02372904790833976 -0.13548254830572654 -0.10533952912863428
fruit 0.2407204667411779 -0.15788216295786744 -0.033474452998124356 0.0065222409752288 0.03253817808362488 -0.16709296855422592 0.005739413990384644 -0.02353243468974656 0.06524819033387962 -0.04771978058770614 0.06917741256633683 0.08349989000796322 -0.1599809407053692 -0.05854690291885927 0.06460972252857979 -0.2940174399655732 -0.16226877304361587 -0.10337549129030131 0.11637796682289242 -0.11245822326418041 0.04735267164423731 -0.039031377007307 -0.17491097360623728 0.03573011172450328 -0.08972117243468485 -0.10341621361578254 -0.06627781681499004 -0.054239562005249264 -0.15810386619314282 -0.01305294895882261 -0.06179295882552289 0.058749284169738764 -0.038899923059107874 0.12258478420652867 -0.013918665328977535 0.0018878388591679752 0.01341484733919014 0.032489581737913 -0.015129058652487594 0.17139530489257596 0.048082958418038294 0.09913463138814702 0.1386058742244923 0.0021843828294628993 0.27674073093229473 0.007793314557106503 0.028317157656915636 -0.031948456837481966 -0.07607819465608762 -0.14414156662479227 0.024316587797399536 0.06929333484317095 -0.05636071770263647 -0.12941435980877491 0.20706948086062973 0.00976622818079715 0.0778435067609793 -0.017368317143296078 0.0035061683218640437 0.05434520674428807 0.2475207848598984 -0.0863183824504751 0.005672081007341756 -0.029323421691242534 0.09291761587457635 -0.2727590008233222 0.11324289874440333 -0.02502917934002961 -0.005154957292234052 0.02176800322772771 -0.06585206799372695 -0.024085064139079532 0.06479938852856178 0.030745997950686058 0.06546315170541303 -0.08435447897174231 0.075695087983984 -0.01570181364579037 0.022657536402159385 0.04782757969788918 0.033988102406989316 -0.1573163003352936 0.0026550123392668733 0.0021651144644010177 0.06593298247703837 -0.08580529148342274 0.02062445526178527 -0.1732007903532987 0.003988386229584494 0.1271055611252967 -0.03731695246999632 0.0011072409651409212 -0.015874808912087188 0.11676946296063914 -0.013816732963885876 0.06724580027719415 0.040238752364605404 -0.0966574746329919 0.11108237366493706 -0.07191129568328182
blue 0.22471643692572116 -0.029978417194258165 -0.13061082099678167 0.06178760547416711 0.038943834617802736 -0.13063724716906455 0.09677904128807154 -0.04418894462512407 0.07186241413455702 0.15013872416702317 -0.06978352702571489 -0.09614377976423001 -0.07942490793243236 0.10069525388419456 0.11666725588408029 0.015818795972588527 -0.09257950415264907 0.014568123003842484 -0.15758003773683918 0.07394061371761437 0.05246838934801964 0.0944142111926931 0.013320940740958125 -0.12477125852928715 0.08596353784625853 -0.034881276149580254 0.12138851526043096 0.03631641068663895 -0.03454459978656211 -0.0393736979552392 -0.028722989056013414 -0.030426270407619496 0.04058983069894121 -0.1513170970656709 -0.07003184583309616 0.05413285230761838 -0.08888775083602461 0.06433581635926032 0.030713990489353703 -0.03192851452909563 -0.06760586045972675 0.12185850589816782 0.007920198617390795 0.017947510208781336 -0.04464129088682539 -0.018330463942045846 -0.005339448032309168 0.14740413325337667 -0.0012244783655325153 -0.08149620382698515 -0.13875885049820638 -0.014255284742623936 0.1341458202908651 -0.16210707030628152 0.07495732984327079 0.03058249682422514 -0.07027417714395445 -0.0010138739544105905 0.03346553228942695 -0.16045055772219988 -0.039258828862496625 0.03363522191092749 0.05357254147411893 -0.02913879501793756 0.030665924651242488 0.08952167375325265 -0.2716505442817094 0.2155347547695154 -0.14714430270840995 -0.06939167076678834 -0.15751215391708204 0.19010471720508046 0.19300916838376417 0.117950816925673 -0.016708615330783178 -0.06144802637151541 0.20864752861890493 0.06836430758690067 0.21343191255459332 -0.06207181966099164 -0.07619379585917242 -0.09811209779537444 -0.017561651720215187 0.00813437345957338 0.007165883405252268 -0.21172465145323194 -0.0017659462821565698 -0.05580898989331506 -0.023247220097458308 -0.06707331827775034 0.06681917521360486 -0.06325153251724622 -0.0533878258078444 0.07870353910713686 -0.16157962491153297 0.10579942611058875 0.05995928127741476 0.010873704261507747 0.1522770355014438 0.06814008125437197
porch 0.22755270278297726 0.13546047616843543 0.025792302796654742 -0.10043439371188356 0.04617465575833093 0.09631315680223469 -0.08821124992054279 0.018211984234061538 0.08744082209227722 -0.1180167012631995 -0.16508891685445462 0.05856900598053501 -0.1050662919511641 0.019852309780961405 0.004355664768408981 -0.03088062448491914 0.2377262505950252 0.2545328301037796 -0.15112074533693787 -0.09931270119322685 0.13701429826300318 -0.12203626169792647 -0.03294625055586536 -0.14221839149735277 -0.05836630254597457 -0.09934874281874863 -0.21378894684994107 0.03495101918230002 -0.11716911074063843 -0.019036309313820655 -0.010805681500773637 0.04420018440487245 0.11845328887313906 0.015078152694079817 -0.08394935656526122 -0.0014297963546049798 0.10417539996565342 0.02440364913942454 0.11723312656274372 -0.10427858407077129 0.06099241275645551 0.026506864970625755 -0.13934953060029984 0.0006537478490438599 0.2262934766860032 -0.09774116703377299 -0.015586385393399396 0.05929627404338099 -0.0014930180942805018 0.00868893413190844 0.043000262247734705 0.00428122184977025 -0.08858930247483153 -0.01985336307344873 0.02258210269364635 -0.03448131444526577 -0.10348768487711928 -0.011434134751988045 0.12424394635009933 0.1642047545720712 -0.05275052123745502 0.10233580695829213 0.05109793045611821 0.032505217408100334 0.05020438509752078 0.024969011130723747 0.09561913612155677 0.03202409911998929 0.009964848188473284 -0.1518018312107276 0.13373708178437077 -0.06741815219326897 -0.01899642979556661 0.1058965497371683 -0.10894282758657534 0.06363077644635788 0.13967760345240723 -0.04268297696030266 0.023365381477711472 -0.03905032692621792 0.057772897482337285 -0.06783534280170195 0.12304075301420146 -0.015319363398655717 -0.08080032551474223 -0.11026735399239729 0.02546878758660246 0.10536261133669143 0.03822253080289465 -0.10766649729748096 -0.12996183212347495 0.2072008605863785 -0.13083123623461046 0.15516409438699236 -0.13486709396395338 -0.0004579114278217318 -0.05531622025215377 -0.14578463446537884 0.04066354355097384 -0.006877077737360916
stairs 0.22716152504436193 0.22334795656888373 -0.12775585780009815 0.07465463433771721 -0.22363129821938263 -0.04700069078988678 -0.017988473178932558 0.05165288683507839 0.03205177414641962 -0.031951129455591545 0.17557178766809237 0.044144230617747436 -0.05532820508351611 0.10745354084310114 0.07137359623530738 -0.008461703665324916 -0.0771969323794301 0.0604507130772116 -0.06529369768022329 0.05780897207757245 0.21717129395887483 0.11102733726419181 -0.21047488279642418 0.07188837887621213 0.02995291814123565 -0.13178580646430135 0.006073869885679717 -0.05823982999010852 0.06890145117187858 0.06272443960978724 -0.08834406417156553 0.07580303628553506 -0.09351991874503558 0.055973370759930925 -0.021836656242556762 -0.08107291614082393 0.17340461446298616 -0.007551382024412321 0.1143097572585382 -0.12444531202144192 0.08192015193581124 0.0472361464966352 0.04960176034718768 0.038677858020162624 -0.046370547113971136 0.011851691515280245 0.1122056938525337 -0.13022429217903472 -0.05097910113020822 0.07794655476772121 -0.20894672980736884 -0.12506795015975106 0.00157178934324681 -0.08845028580333256 -0.12218607309834671 -0.046854714819356116 0.05201292656684556 -0.11472047664933245 -0.03184602113512126 0.11236066292684942 -0.03901410442362664 -0.053199915244052196 -0.16433166132530144 0.13734199608337833 0.022181203904363976 0.0367490646788201 0.049678235632126394 -0.07098266619484514 0.03597205409526474 0.008075878005678907 -0.11359342007523633 -0.11370672791611122 0.08926975996395575 -0.018496987795880243 0.008659666539333833 0.06106292368576716 0.18167895751603266 -0.1183198336838103 0.08617170723488758 -0.015915290711410256 0.0708241546188269 -0.07528429889985289 0.033852265067590155 0.041967555494602786 0.027390278009653324 0.1708962194414885 0.02956059769505601 0.11414543464165386 0.006730074960291204 -0.1281205264970792 -0.011039393810971366 -0.013307018909891702 -0.12113725016726071 0.15754861376770068 -0.06130595990827372 0.039518977682908456 0.021043314800841463 -0.07629936463505688 0.09019165755411734 0.2548450651968179
misty 0.20641970297557793 -0.05035070583394908 -0.1405321861935529 -0.028278296351630785 0.1438528989215522 -0.011617466282365669 0.0257797124890677 0.14546228635776776 -0.004355871295712113 0.06466271491544016 -0.04456316419211902 -0.10688709559899036 -0.13580747170943047 0.1482249938999105 0.024630805260922387 0.17251355197143745 -0.0519131187636014 0.03384461833951548 0.09360696497258982 0.084160869191401 0.027623143759369397 0.00940431209840702 -0.18813143764932 0.05205588508982802 -0.050191996779807346 -0.05732419988166253 0.05511152180486887 0.03872092185194716 0.03922441415214748 0.11367532712842499 -0.08182904246738187 0.11086672219180731 -0.04067844101051131 -0.022824610854342398 -0.07962299706304478 0.09513339239543889 -0.041023763788260545 -0.06249903103056962 -0.13268240724999705 0.00975672806122057 0.18555839534583493 -0.03783811326536912 0.10617998373690461 0.10733696138313654 -0.02976540920877304 0.07403468012533446 -0.06511746283430096 -0.020373595462592112 -0.020506524498424966 -0.134326187189396 -0.08530139346142257 0.05530000447059974 -0.049310151655446825 -0.09296352435048372 0.05406280295535955 0.1372250373056649 0.15587720078879963 -0.008482215452454615 0.07499365201939562 -0.11624305527824365 -0.057395316598091564 -0.12129858562298892 0.16192376397733202 -0.10678930300526761 0.0049724391115668525 -0.24069185154476327 0.0441585680531231 0.1422708417438888 0.22215598016367652 -0.0803669483635006 0.03138123959761478 -0.020569967617898068 0.2170859116252138 0.10576555373568837 -0.06475615823452721 -0.0010177476026801027 0.21018693944773836 0.062055972130308674 -0.12292818854417407 0.08955723244899326 0.0588641685634231 -0.16617056581913145 0.02192173903711456 0.027893256457210913 -0.0435852623284756 -0.1501687779059407 0.17475090192096268 0.0051057236051780894 0.10321382438291493 -0.035927604573603084 -0.08484270760711937 -0.18105393143003568 0.011102033975180241 -0.0619749374943577 -0.032877458705840336 0.01601963501615447 0.0033620888835753514 0.08822471507767252 -0.042493110956132396 0.06572545618747158
violet 0.21835555327237677 -0.03913136359025856 -0.05278026410544186 0.08703712938756349 0.054076128152880154 -0.10831270306330658 0.03405437267832731 -0.16937308140277227 0.175442769335533 0.11881590126845358 -0.1548445897841792 -0.17856873738062284 0.03867185760032362 0.14465849709369527 -0.049716963372581524 0.02886505314414332 0.010526463499258686 -0.07430661897115229 0.07537146432010881 -0.07364683114300362 -0.03901915340801431 0.1853724979138844 -0.09804091858181369 0.029230081060656776 -0.09446062927678994 -0.005226627384731601 0.027195359030345964 0.1615520627152116 0.03852886601576516 -0.13889639744953416 -0.022184803428941673 0.013985669341038181 0.18025692867681004 0.06381019660595788 0.030727081112286333 -0.009639702781919621 -0.17143224957276487 0.014040043749699211 -0.10432874273024631 -0.018522284330495454 0.317874028995131 -0.11189467688649873 -0.12784456595813068 -0.18675173280939106 -0.05010723576857454 0.04009115002502072 0.13067728993058883 -0.036627922500405904 0.05182045962373729 -0.053236233953378016 0.04807668181060566 0.10952870355817346 -0.04891868357243011 -0.017479024720816225 0.02353626098760889 0.013707253710856746 0.15490928086714364 -0.141280034492642 0.09696154221384198 -0.20344208956304827 0.18085109816878187 0.09138419639697036 0.0797226003951376 -0.0846749393357766 -0.14330812392124456 0.006119981847117097 -0.13871317793178237 0.04968888341154777 0.028121112502559033 -0.019136746897134144 0.06290543062545911 -0.01333924537247082 0.11871656311841901 -0.0018783681212386205 -0.051468785743503526 0.021119745329570967 0.031948791694935454 0.07176579769773406 -0.07188611194953631 0.19075521084586916 0.03925724671231434 -0.021144496111559 -0.05883247802291331 -0.13558122240234902 -0.022198171836094117 -0.1291075579786615 -0.019765667417197114 0.014177153081223009 -0.01801634386571773 -0.04397960638271049 0.10324649067197093 -0.004041355764577504 0.003512469255551781 0.07891121956849803 -0.03518326081217073 -0.035892399941442846 -0.01846198888395476 0.16101565177348182 0.09319013330482903 -0.005390868842369927
yellow 0.24014615024193228 -0.005270440976246047 -0.15441916461035615 -0.10391543934908345 0.10054964471013261 -0.03272536066882549 0.003748934000388257 -0.11393083092415565 -0.07370945681885623 0.06650402991952199 0.002497414214957881 0.003098746427978813 -0.011776244211850988 0.20603197168859086 0.015150397964314378 0.004451708093302513 0.023738183003324836 0.004483346702043351 -0.019446480812037984 0.0007480797038575494 0.10231703148420662 0.02416918629428672 -0.06416633879774673 -0.0031600235114605667 0.041586318183767054 -0.19689325590638018 -0.0111827321058739 0.10741681410590537 -0.0094006898219563 -0.014844476427578593 -0.09885284298412873 -0.0052674019510041276 0.03525488764921857 -0.1464474406324152 0.02604158292667449 0.07698351838502751 -0.12461120782356107 -0.021113723563880485 -0.038139049083601016 -0.1177412026106837 0.011583136268180892 0.024032188437059076 0.07497134522843647 0.20108256279081904 0.046249894325767815 -0.18259175028702512 0.016993303587856712 -0.06674699831584048 0.1594300489528986 -0.18464940996717974 -0.02240824010904608 0.050722338182780005 0.11554035508834168 -0.06767339918863222 -0.11730288327106707 0.027194540684574362 0.005148634646317736 -0.13698452644197348 0.046894694848376245 -0.09757518946552693 0.06083335428363631 0.06636962509873415 0.18305539174339552 0.14097804866539757 -0.20682119107766464 -0.08881648227628927 -0.166659279250838 0.25940856624291647 -0.036846198944198924 -0.0030684108932631186 -0.22069205772286024 -0.03616605315629218 0.01849009949245146 -0.15722798616833555 0.05331382498377453 -0.0017115402204856559 0.22164896701061387 0.00647619473779896 0.11912804193938778 -0.07174294918981586 -0.13494810286825612 -0.04511386453905893 0.030305484958399284 0.0542151411543294 0.10480521365390978 0.05127345320542799 0.04811863144877889 -0.022549461784186018 0.060748777996538265 -0.03625510540029901 0.14241428904832418 0.03259260171832947 0.15567201779470102 -0.12032384264647501 -0.03916996484245644 -0.007247228481626414 0.013187889475968734 -0.036154107412997 0.11459678452146181 0.04939974795619612
floor 0.24337187613221736 -0.030204071426583375 -0.06740043413053155 -0.018424404829404623 -0.007054308334574405 -0.16888504673293286 0.008692663172457305 0.00445264942771918 0.06518418853893859 -0.04711535883341836 -0.028854706953737572 -0.009086329061371424 0.03721803653934976 0.05117713846307636 0.024035595396262308 0.09832110247940674 0.009816502599654353 0.02686232284759218 0.04254404102421991 -0.16586360270398207 0.008359469510314108 0.05769943810150879 -0.03529497547256304 -0.01698719834869804 -0.155517947398108 -0.1686193852294583 0.12273828343406004 -0.12435855100361817 0.02405288751238926 0.04540712650309863 0.03542245155512559 -0.07721066678399892 -0.06283770338087546 0.09639454645061535 0.10480034686187749 0.02520154177501605 -0.092172155738959 -0.0795292530423475 -0.17244213240549994 -0.15001097432878713 0.14380042460680814 0.06858851458322286 -0.06187651392293448 0.12801661190602787 -0.10180293255528702 -0.016183564194801207 0.03370129589572141 -0.052075429124656396 -0.01031830152567974 0.01226925067780144 0.005145896852253012 -0.023821205735249693 -0.049062463968073074 0.129346222808648 0.003743528457616378 -0.00601808992057618 0.027215605187002903 0.1025931739689041 0.05568857396274912 0.07729669579934202 0.1796681076139893 -0.08913853258269848 0.14161885294359947 0.1801296031174813 -0.003277986509750381 -0.040843762749490316 -0.1450047457180813 -0.02700568580645481 0.06634508752578551 -0.03676611416379235 -0.11372494744658304 -0.10653638107694463 -0.0725074138953098 0.13483094609367266 0.030562495086751545 0.2836831580835747 -0.15170936464552365 -0.07537981350155819 0.11236712597977225 -0.03003285048160297 0.05821760969344119 -0.28199107718554756 0.12856582836955555 -0.06514300784956244 0.04356782122963579 0.1089090447730198 0.14011349497009884 0.030592734851598496 0.02341842511399622 0.12975820178363032 0.17059198668941497 -0.09515885682523025 -0.039636501183876 0.10391306530289 -0.01275311570278964 0.15198527576401688 0.051164721250257714 -0.046619434750767484 0.17585184206984183 -0.07781639433017401
rusty 0.18533797734878002 0.22304371032436973 0.10169948814210687 0.05923382579911465 -0.021285560518024656 0.07215353317022083 -0.11015488405275667 0.06007466761287399 -0.09264435873267277 -0.03314108704017283 0.1373660966089553 0.07568034519740902 -0.14067944742715233 0.08041777687635476 -0.000817771147400552 -0.08237271593138953 0.004210877649777144 -0.06621808977826246 -0.11599261571386307 -0.057405858582129085 -0.10999945300647086 0.07405497815441646 0.01306392767766408 -0.10784488479156985 0.12897444715832365 -0.1871838840627261 -0.061570040759297444 -0.07371391482506351 -0.011122836978081554 -0.0243688047652422 0.07948191601223761 -0.08722178909819142 0.03653302415381794 -0.20739862994802571 0.04156335287721106 -0.19073775872592447 0.08983197629790081 0.21599596555381276 0.007013222930197172 0.06515839785453874 -0.05191618574077337 -0.13601170528455736 -0.13257115613825168 0.019820045027347463 -0.019550723798557015 0.08039240160309653 -0.11913066066193595 -0.004678330160584622 0.037120360416676546 0.0664025983590304 0.07941845340250914 0.08466200074528729 0.12221849444536811 -0.06293330085649895 -0.10345094290701277 -0.03966089954330055 0.08862101691817392 0.20921984493183193 0.19464928164918555 0.041264384049261645 0.07256647309002713 -0.09272426624372859 0.03301943379717693 0.09578282855025759 0.19059537679571173 0.013502188550157007 0.0958790908940311 0.050824744507447554 0.002835686220024094 -0.005691211292239932 -0.05909874476811371 0.05260926189334227 -0.0566392108744913 0.030688300583025113 -0.028369086046158884 -0.013045106371068007 0.33408608927923567 -0.0645746916949094 -0.013761559800938161 -0.04291632688637424 0.017106508966916834 0.04031820712562229 -0.01622978186809164 0.09794806455071702 0.0792400457177873 -0.12029706797800015 0.04100002662589126 0.057393728934652215 0.15841632100645117 0.02376388643134977 -0.04612244032249333 -0.01810994462103467 -0.12884301069716253 0.048247802751315405 -0.016443692025473137 0.12397485857723516 0.03816987435187315 -0.007003430042861799 -0.07032204855991193 -0.18870238930709615
cute 0.20944834554230624 0.15814893652747372 -0.04530949285202387 0.059981905619423834 -0.10416041913185485 0.044162310272653084 0.013536572866604578 -0.0154980018982077 -0.1078468948001006 0.057644453673206884 -0.12653876465586664 -0.11338518976945738 0.08096180612324742 -0.12167534410975171 0.0377173241690974 -0.1942478516700073 0.17266677825132054 -0.01186648502995263 -0.04382107141018945 0.13670689626529833 -0.07334001981243427 -0.19601482896709332 -0.04895360018572826 0.04747484896575548 -0.057838692062654025 -0.022873152384055514 -0.08502005711858195 -0.024213996993130437 0.01447614820329153 -0.04442684275814517 -0.04669824427000308 -0.05229966503631658 -0.0027122318475442924 -0.06466400103992269 -0.06945841963780942 0.2262430390926187 -0.07566052499740976 0.04220486933224519 0.0024235929690739006 0.1298253472988752 -0.06497481128997594 -0.06242146247030571 -0.0687744024489498 0.10270968377592266 -0.011372969402654467 -0.04213418145405357 -0.05610374537709979 -0.17619552961353085 -0.021681388284748596 -0.23605829162942846 0.06907522297060231 -0.18299587782649787 -0.029747723465350213 0.09845172440298552 0.07314704258741654 0.02613464904957975 -0.1347519856119194 0.14571438247557614 0.07697863382561072 0.05925156718093227 -0.04845703463452818 0.1259887262689172 0.037378115596620576 0.03447359572662391 -0.023589929430395902 -0.0365587110946745 -0.12196286635808283 -0.023220580282797148 0.04775917793902136 0.021663462363243423 0.00493482886098677 -0.08013329536000789 -0.05230165671485553 0.10851226386366614 -0.11200870521026368 0.07374037021305255 0.07360662467596925 0.15968897548080238 0.13532641421269628 -0.01230900084528472 -0.03220156298594409 0.15284208508457467 0.12872141882134613 0.027366851790145363 0.050467254845679085 -0.10341104753652532 -0.2410688054172868 0.05068091168946807 0.08042210297837658 -0.13138012656997017 0.020145599780223393 -0.0703991078454893 0.17184729508512764 -0.036420758351712615 -0.2277832935552142 -0.007991410799331355 0.16074721846546924 -0.004708490402308306 0.03320349090451079 -0.0497367558916278
birds 0.22217272127538437 -0.3450340268850122 0.01598863985420077 0.0018628285718639223 0.02664430344706091 -0.041885282025500854 -0.01764642960236082 -0.008908827050838761 -0.035071661379838664 -0.01628118860575365 -0.006211099783142171 0.14469670092103798 -0.11034570336441937 0.11883585185434363 0.05837579681281105 -0.09577918408266771 0.08635067438248514 -0.045054631470550215 -0.04046602291616353 -0.13446659464764113 0.017468833414732033 -0.03452232690157616 -0.08066813963694183 0.005000600734220695 -0.15728840516331732 0.011715803082826381 -0.07095482553400241 0.040267323216511844 -0.09679600979764943 0.05304924293006128 0.024774128946218357 -0.028395202024157306 -0.16521585982308828 0.08418038214162543 0.013217493296117643 -0.033605297823075045 0.07962314334436295 -0.19413987588811185 0.06217977995552852 -0.011755280027267787 -0.13024619093695572 -0.05575872879519806 0.07460131346569868 0.02784566406900988 0.05001629725145299 -0.17960999502369188 -0.07300978288235303 0.08119282871765279 -0.022648728600415786 0.016767004405755945 -0.015305545395204234 -0.1954620493144552 -0.15755486053878937 0.07753808797212257 0.02547043016125058 -0.05113966638375331 0.007294816275281243 0.21233371117807945 -0.04343105570804888 0.13857273216432595 -0.09805141724372554 0.10484404530688922 0.19850545798393873 -0.07568883651683224 -0.08345566527813272 0.11369238324113749 -0.03630080212060848 -0.11537394446894952 -0.13893113178176622 0.0850331305884201 -0.016164551662015907 -0.04638893255791131 -0.04250928793515776 0.08603574077855788 -0.19190863175846587 0.05757322043310194 0.07497573988896042 0.17386693969688993 -0.06409303271947232 0.18669068502089467 0.14035892911973907 0.0801117982346747 -0.020562216326591807 -0.002764878582073631 0.0005962259794200699 -0.027300643308449245 0.01237444668948499 -0.09437087383591573 0.16525225803715357 0.026707331423799142 0.04111232496165724 0.014893580615451122 0.20015732267443911 -0.02423450753613514 0.008924649028066485 -0.08117184110484674 -0.06092056545189812 -0.12314530288966004 0.04893750690653704 -0.011306404126700155
pink 0.2191162675365965 -0.14662754074577594 -0.10064516781077834 -0.05600119818768877 0.08034782864252035 -0.09356203312010494 -0.003283263291508567 -0.002209864018940408 0.08856973222445631 0.014730736311400889 0.03915714874077421 -0.06330567625304294 -0.0034366636409230004 0.08540919065938773 0.11075543903860585 -0.06942469526048799 -0.035381643343510814 0.056562987700488676 0.08979540394275098 -0.062267251944139165 0.17781990944377538 -0.16435282891162614 -0.16496997646613018 -0.032071740086782825 0.12295080473241385 -0.10484977787324823 0.0605524711116317 0.12482076478164322 0.08403317708857776 0.031368383396278024 -0.08499006208100182 0.08555218343162702 -0.02687143346119352 -0.1993031944306228 0.12874592772402826 -0.010073589300510787 0.013088534405673693 -0.039657650316708974 0.06069761717576409 -0.05605761920377422 0.08343450454323416 -0.11727967931217954 -0.01524988082769178 0.04611520829671918 -0.128384686618854 -0.003836928533553356 0.08855043820904115 0.08983635023476798 -0.08919008411023441 -0.03222614251007806 0.0095913198279831 0.135943520588269 0.17664016264005417 -0.014421276031110224 0.002019686113214427 -0.018444277677466273 0.10614362806534168 -0.01255286273042986 0.03895800953529973 0.020198611263556064 0.13080952026266437 0.04034708664861697 0.030849875933846325 0.1243177354083208 0.12388077467621879 0.09521831053254427 -0.37378735895935455 -0.025460707449295492 0.10162466358675312 -0.018262787820261573 -0.15407044519345903 -0.003816358684326334 0.25121652922396015 -0.014544751218464116 0.031610934867344585 0.15967133981173914 -0.025468683583110482 0.11890878037356196 0.048834776907889677 0.020306644058344522 -0.058944174001826756 0.02527044450097609 -0.011806885599732387 -0.10238180677052448 0.012126811615399434 0.11225823411085739 0.015953479482903155 0.05436615466867583 -0.07523823596977335 0.07236412992590464 0.27494608769703943 -0.04125036320080807 -0.057285493925061014 -0.023809690969031728 0.07747616007538621 -0.07686608628802541 -0.14737394105821058 0.009887613481574641 -0.020018905772844202 -0.01847617521023061
insects 0.22075191836141356 0.07831852654978844 -0.11217040574490864 -0.1860723067150481 0.01127879480159218 -0.0011666737622895186 0.12220121946042159 -0.18302267801651664 -0.016465725205477885 -0.09301685765100623 -0.17294368082231065 0.1242285268087695 -0.17250227584496594 -0.06707720205845197 0.03528687477056093 -0.0326609732374145 -0.11761570491538564 -0.13047267858566888 0.05852647819205049 -0.007724316037513151 -0.14195016377054423 0.07070133511150364 -0.10583905127003936 -0.027431285323390286 0.027682761338352336 0.11185093765100129 0.10050317152349607 0.057665046093269695 0.031110870308341032 0.07444429296433688 0.05337017637214278 -0.047612823231245584 0.014828469221094542 -0.06862697352813556 -0.06816683132139312 -0.06217025470587179 0.08098081480649884 -0.073662941391522 0.03676635461526498 -0.11871574705204728 0.013589778630410216 -0.0539141348910617 -0.04141423078803998 0.22975317332291562 -0.020344951603107186 -0.0004505320751824008 -0.019075961845853254 -0.08389787384197522 -0.015104901545105597 0.18059766024379492 0.11144838518508078 -0.03792546212025585 0.017022395003210594 0.029885329304831735 0.21583982617880174 -0.01832341289031251 -0.07239509198476618 0.1304433547588609 0.12899142994829801 0.10207140125465414 -0.06673568769973703 0.022646901840638434 -0.06728768860148483 0.09952266743818684 -0.07216780355011009 -0.054012572223701996 -0.0937857065140891 0.08984452962849224 0.045831700644851925 -0.13165326242541278 0.11467150490801792 0.1869083142820601 0.05916608900604295 0.04513621605763038 -0.1393111075772668 0.1806148129159321 0.018593627685235054 -0.09223100352399022 -0.14026994827971456 0.14202460299308892 0.02475295263913663 0.1486986196039627 0.034345415340047196 0.08042041531421601 -0.06410109109250758 0.1046534132916008 -0.008496566251648732 -0.010487746983820921 -0.0586377709947289 -0.09815898910344857 0.12134861644143081 0.024279766870702612 -0.1226105710191893 0.1731638728250412 -0.13006732151381295 0.02433062535965433 -0.021984680259852132 -0.0033519495033385483 0.025917693058509758 -0.20612518397344437
hummingbird 0.20359108477865284 -0.008263666595135543 -0.08314778775318285 -0.12030126589022044 0.11073857698278855 -0.05702705375152184 -0.15343634777043846 0.0779820077735028 -0.0568281469474213 0.029775356733511945 0.011872088966106243 0.014167271217700795 -0.09751129123016328 0.11105969221846303 -0.04390643188029484 -0.05055037687300827 0.04925389016888449 0.08437857721413214 0.08653518616364264 -0.052409646841233795 0.001827962459409531 0.004769424675323023 -0.04537310988299654 -0.17566281551871918 -0.11262595932563725 -0.13919744736007011 0.13146724183195832 0.09284563397163038 0.03523919950976165 0.3104750439868844 -0.0880438738792323 -0.07630645022447036 -0.13289437106411162 -0.10673974103117366 -0.04646186710780189 0.05586215753462435 -0.12349720309734753 -0.15896517968680754 0.022337153880002646 0.022789384893490822 0.03517360138305049 0.028544936734071154 -0.06502647512629407 0.022038508438907697 -0.014538159112456036 -0.02368054648983295 -0.27799864840034955 0.10440042337496142 0.2877433118934718 -0.02057628640327809 0.12334547460364897 -0.04225586500015806 -0.11010886108982348 -0.004732567684966226 0.007458426552017001 -0.058405553020335656 -0.1513859681410841 -0.05014436446764889 -0.051256446360855315 0.09479651126998857 0.04761281103363563 0.02250777326008947 0.03804694634040968 0.11570737889016651 0.10083107371205954 -0.06102903446123511 -0.10518960568289044 -0.17157007702316945 0.03007648897095628 0.07994887203398343 -0.04038369486281056 0.04377819559552879 -0.06875824627475577 0.00276715664235818 -0.13246812737530822 0.11964341165415679 0.20121944094383326 -0.054312170986242664 0.03199595878714548 0.0014574876530689166 -0.04184855532561724 -0.014634703217470743 -0.051325344574791085 -0.029594868989276175 -0.027523411931437564 -0.03486432386099339 0.07334050946581568 0.13797844306519363 0.2048384486213395 -0.12392529112412107 0.09499465671755485 0.05893691062134428 0.04651881489032834 -0.15684779892596 -0.08851102159463596 -0.07384004811357747 0.01577152933121333 -0.04502182209072894 0.06358922382774268 0.05332981922928815
feathers 0.20931660576338126 -0.13678162363337293 0.0673861639948605 -0.006355148711363786 -0.018587054336747254 -0.03578550550040652 -0.04696077686709738 -0.03133172323066663 -0.0611994382209092 0.0560642671333566 -0.07480518306627526 0.10447497556306821 0.011840983653726976 0.12658286881245656 -0.007530807115424442 -0.09832715555532971 0.01434298601372507 -0.10289064426073047 -0.005882534862395174 -0.1288635334131525 -0.013645918952322443 -0.035767175030164064 -0.054825294688873094 -0.10544365125739968 0.029480409474479476 0.11430867353393326 -0.03364998956923495 0.11691635917588156 -0.1671009312251665 0.05781359009590109 -0.008200988724834452 0.001515917842573939 -0.15410410984601153 0.03030762287321882 -0.07779120590381584 -0.06852934678107474 0.10762820916596959 -0.04734507525453724 0.16040338019152767 -0.01834413265179711 -0.30720945661570337 -0.19244826927671738 -0.017328450751637837 0.13264055735253472 -0.06752082533110258 -0.011731422098223516 -0.07875624088432913 -0.08949700427080591 0.13423026246717965 0.010131055140188456 0.095780671121413 0.01886521272463474 -0.14785856687294013 0.04763037530042032 -0.09092177359372423 0.14145515574129672 0.11931007779791329 0.13715428225247575 -0.010955036205968932 0.12895700166860125 0.028182480947468086 0.056182421025591095 0.04319212211388473 -0.006159024487379161 -0.008136454819590475 0.08497116410439642 0.13846904495109966 -0.0666620284792228 0.06526702108273229 -0.13195999139903952 0.011239031993916293 0.24740552673088909 -0.11525052746511662 -0.19703412390356598 -0.07285289130568036 0.05041510876087457 0.12880848887287816 0.0661712820878943 0.11934829694004986 0.0650957201048213 0.02250359203130181 0.0635033002488414 -0.19650493484993345 -0.007588443410741599 0.038043617377330786 -0.004417664371475718 -0.016712221203813788 -0.044699534162313405 0.013692916884469658 0.10276944362302155 0.016193985605415094 0.024111887532080527 0.11673851662698781 0.15162325716955552 0.033446933364622275 -0.14683361006933124 -0.0444124187854297 0.23051969384595597 -0.09514774041810345 0.03381027577557245
eat 0.21179937220733494 -0.03845099490619437 -0.018433548394427336 0.10734478048816697 0.07853805175451664 0.18847315414814855 0.1619716062800534 -0.03032711818161291 -0.031043645379315754 -0.2139334881629684 0.0020328349965338982 0.15391924014865424 0.056320423583629944 0.07321287308130214 -0.023812286465944375 -0.03764695838510407 -0.008686896117212097 0.15567492449075998 0.022489891415567058 0.011285253396175074 0.008744022110143333 -0.16315405254377668 0.033023180590236526 -0.02672499147710933 -0.19658115179692373 -0.13067990786213873 -0.04892095804320535 0.05614141099484368 -0.1442302226735326 -0.038863936881297974 0.11327258374130338 0.20165977773254531 -0.05752552404800144 0.08952897624821511 0.1321032303234544 -0.10609957353268945 -0.06877655954451792 -0.24294891360096885 0.0388412171310428 0.08249276772663526 -0.05453356425256006 0.06251235526423533 0.03137253950653469 -0.050097430513196144 0.019877846497751872 0.09659539159517058 0.050955923460940196 -0.15714376685734743 0.13810279724771096 -0.02117640809501656 -0.0014261105503412723 -0.1674643843183788 -0.0782082930292729 0.044922250069302005 -0.13002830969981416 -0.05055994973208147 0.1287066522629562 0.14371794460325135 -0.05284491697295707 0.10074832746747395 -0.009485212262797691 0.06550417588291217 0.20477070070608827 0.09530621591685395 -0.053629703201472645 -0.020079863667736394 0.06709856365034178 0.022177327716075706 -0.11603580669735426 -0.023052914732320462 0.08336005160330971 -0.10869550902111934 -0.1366222780280721 0.05404170669125921 0.06455921544611204 0.09497066938063525 0.1562838740007784 -0.013235360102337161 -0.07410516538569656 0.01680398748593623 -0.10481452388305669 0.08877146434379102 0.009921317433949198 0.02880816250981682 -0.010275110536509416 -0.030314174373295692 -0.0845671290506788 -0.05336049208717291 -0.13521719302258844 -0.12094169475937992 0.026209772340018724 -0.0916752136715431 0.059626542980815433 0.006522277020583423 -0.1620863235264302 0.13216767377355057 -0.13700315714723796 -0.03922975577521414 -0.007498241487828429 0.12071252096964828
kitchen 0.22710660578262126 0.02531948040164056 0.07313160273623252 0.059129032056271444 -0.10281766508727919 0.10261809908488798 -0.1376256070142412 0.2299906585766199 -0.04125580630473809 -0.18590411500611745 -0.07014236303971572 0.05852265556355309 0.20071332385185603 -0.11959699716718185 0.020575958310443856 -0.020760063270746875 0.02527594929582881 -0.09361888937047183 0.0018167085206040416 0.14610201513598783 0.06995874464844563 0.19634408001133102 -0.08509271763548602 -0.01680816784795 -0.1430270885417804 0.12419474000921309 -0.018568186097761563 -0.0487075552765856 0.019219135010852116 -0.047584834704429375 0.026939663298833825 -0.12808725147984082 -0.1025236769680897 -0.1965990219449443 -0.07871753629141376 0.1457845925149454 0.026141567884372375 -0.0047562991672084436 0.027608910154234147 -0.11734659367171844 0.02929576909220869 0.0780960648270908 0.10143226615995235 -0.05594400883074694 -0.013670524488756098 -0.14101997742909247 -0.046470274857261705 -0.27831400914116267 0.04006929427086338 0.10799542959916637 -0.04160728570485492 -0.10267224703812641 0.14209817922650478 0.05741238884412257 -0.011233164756789664 0.22716272450282818 0.0995236627828337 -0.14245497204749397 -0.13522493721984188 0.04209091678152816 0.01298640589876184 -0.02150778818792855 0.05415329771737954 -0.032109284813541646 -0.03654293208809972 -0.011603923759406208 -0.11221215226077286 0.014430596530834523 -0.03493819913975459 0.1035471074002469 -0.19036402658654317 -0.07974453861188088 0.0012565593512245707 0.11051650562366004 0.09031031885868729 0.18245421643986254 -0.07356883039965165 -0.04843829383040631 -0.08791293503420251 0.04114840180453381 0.01163432034901267 -0.05126081291411092 -0.10428070891168778 0.013001148183219262 -0.09741164368595137 -0.029270350325669273 0.14477193961446352 -0.019353081588588627 0.08471386781602729 -0.03781456269148719 0.025271310692786687 -0.01142738599252464 -0.06739773410105927 0.10324768271571155 0.013546997899043999 -0.10757850674488088 0.09254551154060642 0.07426215890123523 -0.0189879862276882 -0.0492314109737025
salad 0.21116629181069688 0.00022732103356495228 -0.010831733820497803 -0.0022587656341869463 0.047446113612135354 -0.1397536268080915 0.07468984001604134 -0.0615335651982159 -0.0709862963334914 0.024493719762474022 -0.030935356625792575 0.011720925134695828 -0.13943321968640188 0.06838529170602659 0.0612982528525967 -0.05107879902301038 -0.07939716663929239 0.03430696872289272 0.2079421584982934 -0.1296496573578266 0.17278513452741703 0.06930630721712948 -0.027138119588931187 0.01658641098750086 -0.017918980859787402 -0.0323615219980052 -0.022738497877155484 -0.12993339599256143 -0.04066244741432383 -0.042723244519062134 -0.02938162519768712 -0.07198208531254217 0.013188540410815224 0.054896769115808354 0.06077246589798535 -0.1050610480449523 -0.0770522938356279 -0.01600412512156517 -0.21594660615812275 -0.06605534291620334 0.10917922215548649 0.13084370374370294 0.019271242517889524 -0.19040780096318194 0.09316748440740023 -0.10121829672542192 -0.08426167863931543 -0.02310811473867791 0.107918240765668 -0.13954898263612708 0.12680965877209432 0.1556247849144129 0.03637751178117038 -0.001095174428953836 0.09863739195741957 0.09713324801211573 0.003923588982689894 0.03586988294329499 -0.18193312034651726 -0.0159658544855067 0.23112502824782213 -0.07853043892576489 -0.03930461854360182 0.21174055745610967 0.06515447541411128 -0.035938498532472864 -0.14275112151287053 -0.08109765244994462 -0.19164151508595198 -0.050509907605724484 -0.03817931065849209 0.03364492598347989 -0.12252971557429489 -0.033131417434025166 -0.14202847284300005 -0.058353160619166865 0.009782328451260829 -0.0022707571019089504 0.1068922905521689 0.19426612718544617 0.00349267499236522 0.02331954043265051 0.04764529960750603 0.03489400971944245 -0.09001052011371692 0.060203186419128425 0.04372984046031059 -0.08711937556750195 0.00977671798005023 0.22086654099735406 -0.12773429792792534 0.050538950987166986 -0.028765989950603636 0.2648333529372667 0.09851383414157847 -0.04104781518392284 0.01714603207870047 0.0723526405525189 -0.0474797585152618 0.09536933768128154
bedroom 0.2104272849573568 -0.0013617274508062518 -0.11275855304109333 -0.0025653154008335797 -0.028011382844929014 -0.1482324526947307 0.00013323180356965568 0.011451887789141134 -0.01715723786011157 -0.12292061391587282 -0.061923803030103364 -0.028972618524191914 -0.028222755032368114 -0.11927998784357992 -0.04505533261633073 0.06547157459559687 -0.008680571806153146 0.1286025708085367 -0.13932527368332684 0.09203065006411154 0.19696183663052058 0.27726291093558714 -0.12437786504458793 0.011154140896367286 -0.03455822132108278 0.20677354427611952 0.01784803459895306 -0.12494161389770413 0.03801442743096459 -0.10684207692390081 0.08366383361592154 -0.1608491463530258 -0.00276397124364448 -0.0029165212909463634 0.017618306198138547 -0.018119449354480874 -0.11017298229585833 0.1025041235487782 -0.07143455757423464 -0.07994081731629848 0.010348000553025653 0.06439429348962963 -0.08918022824472566 0.0012946864515014577 -0.16096304995397337 0.08435612632708792 -0.1502769307135011 0.14489998595470438 0.012100491513428466 0.07680050232039448 0.023624396333038183 0.03982117490498863 -0.05471651180883215 -0.09150486351232616 -0.18687106787147198 -0.028598491600796735 -0.18996299388427315 0.15284789923201292 0.062400609153183045 -0.018162269277804274 -0.07977970836263842 -0.061757133505395426 -0.025099946313898405 0.06128204247595914 -0.03813154511161989 -0.09347906069115142 0.08294904049261463 -0.04091168894600877 -0.11331070090686424 0.07364784107227784 0.029395606952982704 0.08551317918251809 -0.04937037229340029 -0.1399413258846689 0.027962232720777195 0.05507880771865234 0.07142519742482278 0.024882120811169472 -0.19603243393121522 -0.12298111458893231 0.05599485961105029 -0.07081679827898507 0.171817537012131 0.1784665271563191 -0.12769387148832614 -0.09296277593342936 0.02907276439361487 0.10098085732550556 0.08229863452021179 -0.053960653793926505 0.0035487857758868847 -0.06689505474352836 0.019898702408251156 0.1185285017694581 0.14886422606151217 0.17135849381028603 0.014115916263345336 -0.04213872905685806 0.06898397733686162 0.13228722572064014
fun 0.19770267666163896 0.07545107078584452 -0.13263911167646958 0.022781886444738518 0.04517700011617893 -0.027993148062477127 -0.12361442818328765 0.03786468537759003 0.037313147314162 0.023594637395401814 -0.014469041515163046 0.025025731765056382 -0.012789325332851926 -0.12407395775012874 -0.08031262253537948 -0.04717069319385963 0.20732734658485982 -0.042116053797833834 -0.037143997681323974 0.10883876633838929 0.1520317418413652 -0.16086742947475102 0.019083486934769266 0.04784532744149133 -0.0057863272348640474 0.11597874108534308 -0.04824074404928454 -0.027350206606799918 0.0691777404155479 -0.08440407856239124 -0.13005366061325013 -0.0707817798488336 0.010591589197684825 0.020377552361587642 -0.07362193524456816 -0.03698382113759363 -0.16835220434829073 -0.011313843753854816 -0.07019613971825892 0.0017150901215916645 -0.048632884864496816 0.04271103409545136 -0.06773578384179212 0.15218536434347554 -0.16685009867424053 -0.04973399612720624 0.07642863565582077 0.06443680042247699 -0.0033235150944011995 0.11042781298891777 0.07005488281482226 0.09139735982175112 -0.24724251284381438 0.11000553023775997 -0.09135413611872613 0.010778721468147548 0.036163623427920184 0.13026207837885653 -0.08339187219019417 -0.014240781064573207 -0.08062659527175076 -0.2866195332634388 -0.25671143397523954 0.007012232580739408 0.04356168041952331 -0.07278342103162373 -0.03364770288781559 0.05913628407383461 -0.04202924880251268 0.10372130514246751 -0.08350768458981882 0.02242536893153145 -0.03012411248509637 -0.0556319462299074 0.026271470884693022 -0.13683016283193247 0.24401660044144344 0.08725702006708129 -0.03305043284859447 -0.0846480877204241 -0.059610794363956394 0.16447875462928369 -0.007658259411875784 -0.05637026175265921 0.03377962598568327 0.011049036749292787 0.07120142665572822 -0.16067309178269934 0.08959169996025793 0.05552953760005083 0.013887110568759874 -0.14945144872062935 0.08656382754731014 0.20079880764195934 -0.03452478460463054 0.022205309402136695 0.10809667460091131 0.14778197544671606 -0.13014318400428937 -0.011410394713755233
friends 0.21965592181152516 0.17340864834753925 -0.17684684708957013 -0.031671561483171774 -0.03268414194418614 0.07797510020905891 -0.021112976395773343 -0.1036228492848948 -0.031496924612873144 0.11560023505992016 0.018772568189486874 -0.08859672118946121 -0.08429883422428286 -0.0684820901495087 0.039890257866462886 0.0062703572470049415 0.08816637541768599 0.13540126503209393 -0.15969625611447455 0.2298475466814311 0.009346847581643582 -0.08778014768396737 0.1606195289956857 0.07252828852026402 0.20255898869575525 0.12123757304930205 0.011159807503256637 0.082244390048642 0.15058773208095735 0.08590926572819606 -0.0854225126375697 -0.06585388180196736 -0.25815916845433123 -0.00938568050772546 -0.033178655132404755 -0.1407146697452625 -0.06430562646030549 -0.0699342168386387 0.019610910592681732 -0.13074681225210352 -0.09632482511894266 0.02378076407726693 -0.08919152790661221 -0.12438808570252649 0.16404766696762982 0.04751424632085728 -0.016927812430539254 -0.07868330813011082 0.1247011980417457 0.07367103267875998 -0.09488723253288422 -0.04488219019247098 0.09550304243879877 0.04554884808361347 -0.03594049202940363 -0.006405724093220697 0.12897876207545475 0.15775782713985453 -0.06925785291757082 -0.12501883523566792 0.03242459522246586 0.016432138575859453 -0.004635071309531783 0.0576881186986638 -0.0040237064953276116 -0.13600254089245797 -0.08938128252465996 0.20561396723888167 -0.025977946740160057 0.11109570761329132 -0.028391487435660712 0.09108008228340313 0.057791069672505246 0.16196558542960277 -0.09286224842117734 0.04345554872084748 0.0994562660064513 0.0898062080106081 0.11237373179020906 0.05929299509059707 -0.023199177881037085 0.01817290744193874 -0.03615091922821492 -0.020939151129379843 -0.06851205528431122 -0.17083146948893096 -0.06455965573899625 -0.12670182786784048 -0.08850472764241708 -0.007610552823990152 -0.03363601739382526 -0.13956855028267637 -0.12535796343698574 0.04822075218988674 -0.05809160197515341 -0.003292614787619206 -0.026776425519110227 0.12796543211213723 -0.06644021630569961 0.007456690249896675
staircase 0.2019178206777079 -0.02960952505750347 -0.21753024776771263 -0.03499294514084361 0.018919927597950352 0.04516111528068952 -0.13904301293912324 0.056954004818118284 0.06795238960281774 -0.07218258813988584 -0.005522136313768208 0.11959287243952861 -0.03690150832236848 -0.014703526934038095 0.04900112479045051 0.05452767597397672 0.1610695713517084 0.011344363850817234 0.13307458541506617 -0.04602721348725063 0.007726211978002328 0.07237081651042299 0.012474197158908594 -0.10980976536125242 -0.016269565682783343 -0.009619825197113178 0.09878697493567865 0.029559844245795726 -0.16858010274930332 0.11648347806893743 -0.0077119849512876995 0.020718862934250938 0.10839083396404489 0.06725776478487001 -0.1988623708205047 0.04714854354987119 -0.0470837502509599 0.05722597139710539 0.08872837481678016 -0.2372995914792314 -0.07736328597253936 0.10669274427406329 0.0814835833618955 -0.010723828271167581 -0.11771942804088642 0.15747269246163195 -0.0719493479384092 0.0591986315483612 0.020170544801753565 0.0600391250332069 -0.13496331505236542 0.01891506549268457 0.0020019364927498784 -0.03824366308010551 -0.15054924711922518 -0.10350699370399413 -0.028626005736377358 -0.10475296849988128 -0.07962688417771768 -0.13006947004195865 0.04920849758917092 0.0489893042662818 0.04361849596040719 0.04953536284139368 0.2695395253730576 0.12270022263182377 -0.015282225489876783 -0.03130170513985865 0.05914957176475555 0.09899568578463598 -0.27881343156434574 0.014115219558494128 0.03299359489466911 0.11578719245138404 -0.1456536931788125 0.09814860977992151 0.11252304586502532 0.06376783749671643 -0.15117911842739704 0.13872881350904265 0.07379655485754598 -0.045501805643209596 0.0020516124557141946 0.0890064130480223 -0.051645880325213986 -0.09698254142558034 0.06471479538321499 0.08949079884805566 -0.10966133677073765 -0.08738126648811757 0.09588364127058178 0.18452502273999827 0.15707347850692527 0.06478723225350619 -0.014406611813657072 0.0851505271695496 0.050561163842707646 -0.013443361121699415 -0.09974531636419323 0.007184424632951222
flowers 0.231031208928172 -0.20313028983244297 0.024478875052157775 -0.012117008941673264 0.02506942954650937 0.04079273200208606 0.07505966087678691 0.0597301833892512 -0.06411663553234717 0.0755408748490689 0.06781117663828178 0.03992898092612846 0.01912142146876181 0.10637771781299357 0.10780095230509706 -0.16208376432063645 -0.054057212620937614 0.026781094084490874 -0.06478742321305822 0.08288205268008414 0.0195879855750499 0.02054934765570613 -0.04073754364402021 -0.08877364081876064 -0.20196894374402122 0.05650143558041842 -0.10204920603802106 -0.03973373808441923 0.05865587240897864 -0.06800021468874215 -0.0010276672359617876 0.025559583790714924 0.08244033440717075 0.05777207453209788 0.10192570976137945 -0.006149786691940312 0.19767567908134542 -0.11556870038006002 -0.1328037078543612 -0.08982686753596453 0.11347508657374211 0.1270859765774757 -0.1207604798567511 -0.04627451808231336 -0.08674352082456238 0.0044751925816717405 0.045690597388934974 -0.07728612856231909 0.1106281840219411 0.12215178000715483 -0.044722603013453835 0.09154149808196092 -0.0890838788980147 -0.027457576677732506 0.0447970469306385 -0.06354798161789865 0.20346114824863304 -0.0656599341110082 0.1108930448093205 0.06733521776160506 0.09446483726143558 0.2472857621074981 -0.08482386498888408 -0.2510386370748575 0.054650681482968755 -0.027043694411662877 -0.13713989946765232 0.0540084766619522 0.03180941546890746 -0.004364246503505696 -0.0109137735406148 -0.1739884298089273 0.05233277019451424 -0.12089166433260813 -0.10308690816211943 0.16397864410508162 0.07058860660535496 -0.017740717790102643 -0.022592116709559722 -0.005404153156218627 0.08536572236645626 0.15290369359820327 0.06494919488315949 0.1226985766198868 -0.009246426752770593 0.20090890029710062 0.04209022435688833 -0.06255521336617845 0.06302775283352306 0.06953846511602298 -0.09317781794920364 -0.06979557627862752 0.14770394625304306 -0.028251724660891153 -0.04314525396184806 0.23800693984623403 0.0477489975969116 0.007525378049838065 0.054979256260259644 -0.011921052098270832
dark 0.18716938433888905 0.14972878353596306 -0.1856179089118141 -0.21423001853758164 -0.046764815442607154 -0.06080894022862251 0.17023816026741123 0.10145963140535928 0.13874204464426282 -0.010064132366613852 -0.054520809391452416 -0.011917802753764074 -0.06740244172525249 0.18330453849881895 0.04500524057353601 0.1569917470497577 0.01940002899267373 0.1255078231688577 0.006795492686349428 -0.0011034651298181708 0.17234891912679975 0.16814817766693907 0.01614881739151466 -0.015701793345906833 -0.002534741828033898 -0.08969635498579244 -0.21613961058541942 -0.003832728817913874 -0.10389669760865798 -0.008993978707082195 0.0688057870619699 -0.008682076035278975 0.10685030632378821 -0.01970656222902866 0.11904251586089618 0.00826491781770608 0.08328316238000705 -0.01788333526694819 -0.15642343063925407 -0.1324265409078841 0.0021099694210798443 -0.13405259893917665 0.010047946477444182 0.0468320361794747 0.04966288478690434 0.05678098607142775 0.11397167062538777 0.06070714902495425 0.05489641933554915 -0.017217772706506224 0.08066615231366975 -0.005019736358464089 -0.07624234002070389 -0.029479941453356553 0.08895928633402043 -0.05858646134177304 0.21510515963830004 -0.02169331259388097 -0.11350523515838809 0.06325090773433195 -0.10953388640031399 -0.01893750310127222 0.06754274483770271 0.17879585845179283 0.04864533843674146 0.013417502621819335 -0.05399698770055842 -0.0805758211411438 0.03517374847283499 0.009779160423561827 -0.05942962387164726 -0.03147459567639703 0.09374530431217704 0.09101514348745186 0.13883062117201028 0.11397036212339522 0.031522610094549895 0.056979486970628254 -0.03899154561632117 -0.00924451767131838 0.14833632647765901 -0.23887000609940137 0.1121584411052769 0.06470931570190631 -0.07119245041768131 -0.024684903142602733 -0.09099484390881679 0.2219263083365098 0.05452740725351302 0.1570404556860408 -0.08734123933351153 0.11996499438674516 0.09182222665228311 -0.08261469449203877 0.008807066035816742 -0.01719014149539548 0.12302464769991932 -0.10699081525712668 0.04035223556835105 0.028012182774828063
frost 0.1860895080498164 -0.013101649921883996 0.12496386237652837 -0.13410443342072284 0.17555383524534593 0.1467208385790246 -0.13158574458344877 0.03459304907780804 0.11172697377417512 -0.061287364716173534 0.1869377893945128 -0.20474105872369955 -0.09940007590232677 0.0066682792838298754 0.15842904390439713 -0.05132518823751243 -0.04286732453794637 0.06368216850360343 0.0581884031349201 0.03792221938563394 0.026472446301209214 0.001266192655738722 0.03832663078485485 -0.013743197523869084 0.1401575140904233 -0.13418272585331723 0.04812409933610011 -0.1441283535769671 -0.027828323680629284 0.07573022596605737 -0.10921382445560728 0.10187980246789992 -0.054858049454199385 -0.07620871637285981 0.13091210966042857 0.058393342551322246 -0.097542272131285 -0.0907916219734549 0.06397049173926196 0.04260061798061603 0.0865456671323433 -0.09543089438928658 0.03266765957648696 -0.12135296352479538 0.018887980923125835 -0.015313529909645539 0.06350342291393746 0.16236587759695095 0.061552019451249725 0.07512097799964632 0.05152585498128425 0.10515397621375128 0.027328308480173723 0.15225785826930083 0.025777552213142707 -0.04296491204436816 -0.08819500617453452 0.041468737515876396 -0.053640873002274436 0.004729443485182943 -0.13473909236278045 -0.001590847638533349 -0.103533160413993 -0.08419882419237548 0.008008929837241382 -0.09022761500279128 -0.13645041360190813 -0.03795847005293277 0.18434375314789922 -0.004706736586567761 -0.04856159061702741 -0.0323675046462919 0.05583636511445997 -0.17011846916592877 -0.03501410177917802 0.09665151303718968 0.16010725952009577 0.04459011072754156 -0.03294678207406482 -0.06829702526063391 0.0862989930602447 -0.016255011267313883 -0.23930052694702603 -0.21652439869374518 -0.01378518215592712 -0.07262283195231073 -0.10517298917107251 0.04865742472193702 0.25347739637777744 0.06767164770025377 -0.1360775832643256 -0.013910513392518253 -0.01113302299949063 0.009689741019322832 0.03494237780891715 -0.0913469593353193 -0.15828105463261383 0.06213784984679722 -0.07447255154265686 -0.09371600842730049
cold 0.1995077159380213 -0.0835793736593735 -0.17019806734529516 0.025172540439903735 0.07184665824256246 0.036787813948368955 0.09967703637252663 0.059138103742779356 0.02920020872266825 -0.09532883857611366 -0.006344143500303841 0.09215262801766615 0.015929023263373004 -0.03544614283710077 0.06708534270888686 -0.09375130463731347 0.06538750444489774 0.0171762387705732 -0.10934086303040227 -0.06541751776624286 -0.1318107614386561 -0.02158446183554637 0.05699638381612501 0.11067143260515905 0.12438831634455758 0.013886435517699443 0.019834477378273267 0.06371446146549069 0.14224064390691663 -0.1676754125723558 0.007343070232037046 -0.08951347592862555 0.08735668753971185 -0.05314551296011777 -0.03138458837551856 0.04713933326175722 -0.09581136822869481 0.01875478720768998 0.04711287171457801 0.006470923161137417 0.2248618577680714 -0.06228825431517953 0.04774607620268029 0.052655938509979835 -0.0028785561461460024 0.02753610851397271 -0.14816152475277602 -0.05790027878220846 0.1313864502046959 0.033925820713895445 0.0035673221659343023 0.22937726301497585 0.15319011121007062 -0.047772808570920214 -0.1041228694837118 -0.14679710108479332 0.03920855593045123 0.08418001967997396 -0.10732129770045455 -0.03824902509503057 -0.0724302473028192 0.17589307405105742 -0.035704615690876684 -0.09981787600550708 0.06103671250120056 -0.21856697973477116 -0.0014984061331130918 0.13176384652537873 -0.01755141670403543 -0.12642268017540545 -0.0625359804336161 -0.012035517302598697 -0.11367990661285132 0.07969357900024009 0.07148851743399545 0.2328890525425138 -0.021197165943000498 -0.00013831830684291724 0.17955048102449228 0.06147467062771284 -0.05627526360330666 0.19801378205640843 -0.19635893701757268 -0.04637222889061062 -0.026539715975594128 -0.09756044534219199 -0.07692272656731075 0.04168983939708209 0.07638734802700053 -0.1462471513036017 -0.027532722259443795 -0.01141502851659164 -0.15984346433639726 0.05807390084032504 -0.027676845941538054 0.075215216539524 -0.07376986163614359 -0.1390523724476749 0.015558945212663211 0.19170600434663032
red 0.18076839393241065 -0.006556268693984545 -0.07732709720473915 -0.096548628750399 -0.027709361636370083 -0.03727558439549322 0.09459188624327368 -0.060853331084645974 -0.036875327424986136 0.0884789201369364 -0.097521485419328 0.02990899207734761 0.05036304879838482 -0.14056868518607096 0.0866663610852078 0.06663254406263563 0.010220654345758324 -0.12903884915468838 -0.14514993350369723 -0.008386745124098312 -0.05683401439030857 0.09983283701968207 -0.06060152980421224 -0.06271862705132024 0.004337355151224008 -0.0007682213810829544 0.02151052823614817 0.014570994898047373 -0.22171058897390622 -0.09725305270786785 0.016224382407018838 -0.030063646474223715 0.21428787403126814 -0.011059786079074117 0.019652747937766696 0.12060933431693868 0.024183684785131707 0.0834322623811009 0.21298065110169415 -0.07928599673864802 -0.029214320029893014 0.026384133088136023 0.009534274681470273 -0.027278058694469184 -0.12590669411739272 0.005726644845690668 -0.010914610331438031 -0.00010876872396885868 -0.018456292536280342 -0.20684082001193332 -0.10544739032843722 0.03285620477020368 0.13711192877668973 0.10359289196030265 -0.11143538358419271 -0.22330580504065556 0.13433543521803423 -0.103489297101122 -0.010403370872610873 -0.06920170340517053 0.011094488896603574 -0.16631685815568312 -0.049047963216662764 -0.07060817742775083 -0.06125081843805416 0.09929340886571597 -0.06004566266230603 -0.07724499647843276 0.004645466490819774 0.09966932366586106 -0.10584881453135099 -0.06563394492994215 0.11782310601726001 0.09279610885056855 0.04534712000843193 -0.09836531142225777 0.039190667988033404 0.0380643122128877 -0.04724634302339227 -0.07843424434256559 -0.0777491528014177 -0.011944870695435912 0.010852258718596209 -0.13536320560688486 -0.3271623572693162 -0.003672168223324178 0.006541818219700988 -0.09122350854261185 0.068725401391414 0.13536192913641723 0.18677774145506884 0.025013821300069693 0.025910442969570752 -0.015175382565117145 -0.038286707801164985 -0.03253555545752908 0.053888513003241635 0.2789298515202873 -0.09108742670399193 0.15608597890324372
sleep 0.19313787092736684 0.12927447740976117 0.11066100745423972 0.09197142489351054 -0.03760209451903067 -0.06786907961438932 -0.12605591572615485 0.06693399029086321 -0.1330008927559704 -0.02162724885580473 -0.1520108561271373 -0.03936337018457911 0.0724463596513263 -0.017675699553607344 -0.08419960526151922 -0.27421088874664645 0.08444049800703929 0.0499710697164667 0.07872080998689845 -0.000645087571872135 -0.06418323150602095 0.25269744314173503 -0.005188445473317162 0.04583164142873436 0.10960501913760007 -0.16521731329791378 -0.04989724662174732 -0.03445880644246438 -0.0802796600547702 -0.05029658013992929 -0.02031077268168407 -0.06746253605351309 0.20610829919161805 -0.028895714923182287 -0.1257992171966583 0.0726114214618062 -0.01617605933817865 -0.04586183724273806 0.02887664934316416 0.13556833477548555 0.0017704168239376448 -0.08955342947766529 0.05565273954639123 0.08855572678859898 0.00722126637042656 0.08211898772489049 -0.21447762483270325 -0.04959778380914235 0.010472666855560777 0.07381790785185034 0.021856496502483197 0.015244485836108325 0.004950064393826656 0.005948103860636398 0.002477059109775272 0.10806466118227229 0.024576902834184268 0.01486555554949138 -0.19930631263029303 -0.02809169094341225 0.012904940118346647 0.12658994373089477 -0.050873606605408093 -0.0933855974895948 -0.051276185884123915 0.14271672711617242 -0.020759372395344977 0.004833903846161223 -0.171822030353487 -0.09955937921220326 -0.011548423027502966 -0.04949323728222248 0.029425555557679076 -0.12051852774269728 0.06508691769143843 0.09875386731001264 0.03441243629506285 0.020823452864039818 -0.17774502591030186 -0.025090041907774304 0.07821699360842556 -0.07984940154521823 -0.1106546837851506 0.06748211386700283 0.15118462748210623 -0.21697995492427122 0.1349826916084095 -0.09023785053028203 -0.06271285086896539 -0.17588513025612568 0.13399678031323015 0.08400559072625463 0.10969717728326435 0.11464942231795353 -0.03140682553441942 -0.018620035491868265 -0.1253004253906166 -0.11728826021543677 -0.03902628409169453 0.08166193348117469
ruins 0.1776809067697255 0.08518595840259643 -0.038819735993430415 -0.14008877437661388 -0.05718570468772345 -0.025800915196184143 0.05166611379391033 0.040920615487869835 0.14965337432031975 0.08069229593657784 -0.0036941815439570282 -0.1276892804630496 0.05435890056993598 -0.012745291692276318 -0.1049587916611134 -0.005531862136245938 0.07158326750390794 0.16114155131228625 0.09557326180339488 -0.14192572347349192 0.2614113106102741 -0.007570421921065987 0.10570395466317857 0.03975903428097277 -0.00981356909202586 0.01650169135359255 -0.19565029494975586 -0.1664818798097772 -0.00030646872338686057 0.009352114908258222 -0.11944016639899165 -0.08873882016704672 0.0752530244045915 0.025545431455475314 -0.034620058294907004 0.1838109735138994 0.10164631976932588 -0.06472763912697299 -0.008521426600602944 -0.07504625547325555 -0.11143393685850553 -0.038086219115874925 -0.11492901277945741 -0.13372817302071396 0.03316301273533826 0.06026014539173278 -0.18521997979512259 0.08131031495317345 0.03746888861567383 -0.05930710779186228 0.11192314033444604 0.21437896673330573 -0.14384410859854002 0.06176147774536374 0.02960714358601184 -0.04756733132511913 0.03304121607692736 -0.020642030352263654 -0.06316354710122198 0.10241721667427428 -0.16599527808009465 0.07999838598560184 -0.07531727124083996 0.0980712719959548 -0.08985401163140158 0.014494107171039428 -0.013122051575936964 -0.03120197145039796 0.1361973714690466 0.016243256349391628 0.06405314087497276 -0.03825666676273944 -0.07101730667454308 0.2303463141824604 -0.02139662893546524 -0.10326943643923049 0.13417776169006018 0.06652622634069245 0.02566732829506448 -0.03933695768282045 0.002700720527836661 -0.07098405195514074 0.036031433470600734 0.009231098864378047 0.10654218388616164 0.015653960999561612 -0.005386376715390315 0.015848502284473667 -0.00801931923264489 0.013489947295592341 -0.2083051120157133 0.1634791338844436 0.09445031923977261 0.10201030212246096 -0.012440446142944268 -0.2652525121000523 0.11509377807437907 -0.05870862971933123 0.06837546062830012 0.07929378829742426
white 0.21143747143978844 0.09894419406285909 -0.1604502004526208 -0.08299822042529095 0.059382847081251626 -0.010109536851431133 0.08232767028485838 0.03151613350908733 0.023758268085723046 0.16266694861178818 -0.14947705886918433 -0.16052686686473916 -0.12929980577837302 0.09383523427257934 -0.037980214014749956 -0.03202076241100959 0.09431579666929832 -0.0765500378605578 -9.924190652761195e-05 -0.06931840476184602 -0.02125933108027803 -0.03736303627382128 0.01321800067199162 0.0022864582624156117 -0.04068967049274132 -0.031879617658470354 0.13360429238234486 0.20881024286627373 0.07467061472990896 0.03370883936037183 0.048503805445050084 -0.052534944194152944 0.15900382115896183 -0.1598487560075235 -0.144024442686316 0.19757315793911112 -0.09106335544911465 -0.10859981320846139 0.06360171575796861 0.02813893046918525 0.030222734663489327 0.02638147837813225 -0.12926629350453883 -0.0407208447558982 0.07115475995490292 0.15422089771706138 -0.0006027643745548831 0.022738994223395103 0.14600598917611587 -0.07640995387004453 -0.010725624959345316 0.07662990492051552 -0.041099680439234815 0.0421565933169941 0.15076244584208884 0.07970989196240337 0.00925423874414837 -0.033548250417909146 -0.2473623680907701 -0.0006658346774759886 0.2751887193383487 0.08321316043523273 0.03210090821836966 -0.0717331096393449 0.009568279173026524 0.11199592938154901 0.04490536771158164 0.038055203187065345 0.07717636534972952 0.01591097189646772 -0.02557434807668539 -0.11342475908322446 0.0286518865011482 -0.009775971724576312 -0.04860911830876052 -0.02227558614422873 0.1114088200894981 0.18596209494797386 0.0994622748361535 -0.054626872765499865 0.09700812144273838 -0.05040767102599984 -0.095060890202307 -0.015908727121538044 -5.673347389849972e-05 -0.033148795520854736 -0.060896500804161605 0.018260234322727522 -0.2731958186011245 0.06070919744345514 0.08644297103188654 -0.11658548935434965 -0.04310438711225805 -0.09006578425839744 -0.057349739438150416 -0.1378986454110996 0.10891906884815065 -0.10860059299786849 0.033050868081190746 -0.129385085218161
