277 100
tiger 0.05482691969615785 0.007335971587910021 0.022081870659066784 0.029474896765398145 -0.052792736570993815 0.001963800849855005 -0.013193705601495348 -0.007963079373625706 0.06202416301881212 0.063711357770342 0.04537156863510328 0.15602112407151425 0.04877102373188741 0.07483082119783306 -0.20632318870294605 0.03338301656158176 0.08189381834638124 0.3552061794958522 0.08036963427370432 -0.08968956184044447 -0.0039105422222193605 -0.020570130882710785 0.11854836178495681 0.2111580953573325 -0.13366256908231947 -0.2926262045550064 0.4228605718127948 0.15320105951695656 0.36644739049268094 0.2956793939392337 0.02804023793327949 -0.029295014792982785 0.0073016344437307045 -0.11725944598904763 -0.1431772553559696 -0.0057518734689824885 -0.12091673197005894 0.11068027757663976 0.006308615317456801 0.09866903712102594 0.0031930942983629963 0.13443878486908464 0.009830438793434175 0.003035333518718975 -0.106398899204992 0.018281658777574754 0.0070772658224380865 0.0010117680148922727 0.0008391662663767078 -0.003067191554438475 0.016879849854244528 -0.14094773953063577 -0.004118817377639095 -0.0035891238757879357 -0.002450244985035946 0.09335642787711805 0.0026979325188390873 0.09022913149663017 0.008877876876421279 0.023072822084925643 0.009180188998181184 -0.00472342073842793 -0.009005094580394933 -0.007768193843440338 0.006711515261590781 0.115595265562203 0.008080606043359117 -0.025417933203442343 -0.01685882247915601 0.002261007478759233 0.02926892518911341 -0.017922678864127017 -0.0016365083344267839 0.007837664219101578 0.03633829362173322 0.012415853367376458 0.013134367857745055 -0.0069998015779333825 -0.02455396603390393 0.03774556986498168 0.0013697831432985346 -0.015099254056784365 0.026072137541048666 -0.014651529325821318 -0.035675162514073246 -0.0025468462849687575 -0.019320644984673757 -0.018018500370703315 0.04148884105300248 -0.013774645101535763 0.03391164858497327 -0.021060977647184762 -0.011887873346858886 -0.0010424784786680625 0.008041443243692945 -0.009581994346012824 0.015368145533148315 -0.013126499791012734 0.0017870479812504435 -0.07418885668204694
cup 0.17416614691290883 0.2348055852236479 -0.15609711898739406 0.0170172095069106 0.03282741701196224 0.11218493358372286 -0.07948924118485032 -0.09219043552913024 0.04055740884931486 0.02269781590094475 0.17901104279938646 0.06096767798924218 0.15195257351222546 0.22792995724330778 -0.06934851679951744 0.059495953837317386 0.011881326497435693 0.13223434108907087 -0.13052450961450554 0.09824573700149647 -0.033021046860139854 0.2491882655544264 -0.07030178032540402 -0.2879665986639365 0.2261889344032234 0.0785414139536159 -0.07065895083536447 0.18991495391941646 -0.08117873910313474 0.19080562326932524 0.30947084803760366 0.00537364344539415 0.031249107797407825 -0.03832412133128193 -0.1458282010732001 0.025958493730767303 -0.09233685513535643 0.13260099356856456 0.04287258863397196 -0.0315436425773851 -0.026279057859744426 -0.14067576168685766 -0.025848094260341084 0.08306282633914489 0.12256807439279645 0.05312869279326854 -0.032973469942655535 0.06310039605669235 -0.09771982454288101 -0.07758388902397079 0.053346717824075914 0.11515460710074042 -0.005107531581620553 -0.013290257163551087 -0.01267899636857966 -0.06158779396632526 0.009206172161242213 -0.04371105997445759 0.010856796640596097 0.0357787019255756 0.05642435204383557 -0.05399244976931607 0.07140117484685905 -0.0869102970998415 0.020803253789893138 0.0885722972579083 -0.016109328407156214 9.198286304842014e-06 0.0915235167503345 -0.047475990866073806 -0.0031410093754076314 -0.010624766399890058 -0.11365659206654558 -0.04206974575208769 0.03974222314481985 0.056503465269954305 0.002307278005679669 0.04939945350820462 0.04679421360966506 -0.04769401465854995 -0.019417327857937875 -0.008584633709686705 0.17081202032953768 -0.0259169247578133 0.030283253319250008 -0.08343618922231803 -0.01371920051922381 0.06532833994414286 -0.07314273023100024 -0.03897808954688639 0.1419597801776287 0.12157596176963745 -0.053940588994136715 0.05651135744111787 -0.01864719280854998 0.03803654071819572 -0.03935279021966615 -0.05711381914438196 0.029756885992651746 -0.039640439140410724
car 0.232384172594724 0.008846842587845998 0.12554212133791526 0.0340711267903082 -0.11772326968579572 0.08980475112929664 0.12012006894853684 -0.18127928358167333 -0.029058344390020953 0.3465468918224153 0.13769248823393318 0.20734587228923654 0.1687630334150097 -0.21797078805668132 -0.07619860955360747 -0.0706660872089925 0.11643017217822431 0.1110711055992892 -0.14111120186384188 0.022047543071710776 -0.10071918908772737 0.1610550674520638 0.044659333029624125 -0.03222232314707558 -0.10427348802319861 -0.189460770445031 0.10395159585281057 0.012916728545526253 -0.04065050313266075 -0.06003202443706982 0.08946645815519817 -0.08118093998152995 -0.08812468739332201 0.03638631155310692 0.2235215415984627 0.034740120564856605 0.06397953782332236 0.088272573382084 -0.030790861108908375 -0.13034344808053278 -0.007441346732855613 0.14984168444824653 0.029206589511419124 0.11797549057456842 -0.03811044082682564 -0.10437965298446629 -0.10486514761988784 -0.07007722292778433 -0.06021533360109708 -0.052512114587857914 -0.037358312185054615 0.01579034905817527 0.06427701653015237 0.05145589206214457 -0.0691235017483459 -0.020494652868739173 -0.003398697120485091 0.1489396541007929 0.02297434007319352 -0.11173474782172624 0.05248906755934037 -0.0845081725717952 0.017055426658949026 0.012798929770928818 0.12245364314316527 0.04533635276110185 -0.019038652501469442 0.11168327079437632 0.15136929603378652 0.0067374228153920775 -0.008881511092902954 -0.014860707759761067 0.01010923000662745 -0.1749739126964396 0.041824765877335635 -0.03430399444796161 -0.14661085516335015 0.0028369643380025213 0.025189796134877582 -0.018292279374773488 -0.054447394998938664 0.10264217760907535 -0.03401543453181343 0.04088321998120101 0.06300011695048353 0.0011369036733629987 -0.001851954784993043 0.09760444104823147 -0.002068867722062849 -0.04510933819886269 0.10875996037127969 0.04161949114547369 -0.08206895469366891 -0.11282735406930064 -0.0718515433468251 -0.1377612864290306 0.026979704547162267 0.05375459438287698 0.0019362172405340218 0.06328651127590418
precedent 0.23569286437810355 0.04606348041048585 -0.2385086330017481 -0.016050408762340936 -0.007692745214284337 0.09368639283738367 -0.049992218787669934 -0.18537336920622946 0.226135184676733 0.06868139184191913 -0.012478533903737897 0.10224677509117949 0.0009509460291312694 0.38837236014149307 -0.007486401555114049 -0.06372688184879137 -0.09999346290981688 0.05099407684060709 0.12407113234832705 0.10324230678690632 0.02289923784798401 0.0489977732091598 -0.012986041045679598 -0.19216819395267562 0.0369864697537362 0.07418740059537801 -0.23770417395259788 -0.16168388285927915 -0.002678726799690913 0.020178208016857314 0.08395240024052324 -0.027419252601805034 -0.045560424814703245 -0.09700872995956536 -0.04671921449333228 0.054546618967815555 -0.10394628590657336 0.053879826423684975 -0.13767264891320868 0.14100709146507925 0.20354646422211675 0.1343430526904195 -0.04603243148933116 0.04656840052263995 -0.02361894919565468 0.07178445546375271 -0.00040862612653606167 0.0992358977724525 -0.006075332482533738 -0.2233884077781396 0.0036641000683693093 -0.17363678036095867 0.03112293865737502 -0.017346585850595224 0.03361688197220487 0.02579286108371535 0.07683784036752696 -0.02928106992053151 -0.022375895148750696 0.007990019428115088 -0.01635793814795853 0.017823184756434973 0.01361923089839437 0.02224292764363934 0.010458597824095138 -0.006730891107569979 0.06098399885025978 -0.09541097142831867 0.041843328828615474 -0.0328897399330844 0.026163838971493637 -0.08251664074719274 0.05739428495335405 0.1053800753939415 0.060370008958524575 0.16392079389106498 -0.09788193251348729 0.0015719196836588172 -0.05653444682534183 -0.13223325577563708 -0.031823943551832996 -0.16465379128936228 0.08872768967503514 -0.07136961805280498 -0.12402156289976696 0.0213739032574811 0.054984912902960204 0.07216332045614823 0.00029047617134684894 0.009780696143578741 0.11293528000229412 0.03370741420742183 0.029127619950756474 -0.08383066503973116 0.053868694136484874 0.01391214678843498 -0.02674293034336607 0.10012556606680875 -0.01818865814665933 0.04147950383350155
stock 0.2485550145536222 -0.06387882960707504 -0.06760923355149664 -0.036668881633638246 -0.11277766991399713 0.004775998494291279 -0.03325038155342937 0.006271022463213673 -0.0754239627902868 -0.165145804778652 -0.04582989625910968 0.12108235148367362 0.2976112383417404 0.26670827963948024 0.11584822783355168 -0.0363136764689582 -0.07575870200737884 -0.13638857427632253 0.01680005972692505 0.23160663133460657 -0.06801510369709446 -0.1683991978923187 0.3800686108694741 -0.038220520340591174 0.1249677878475594 -0.12243724937184822 0.1525690766456434 -0.022307462625376494 -0.042266809295518584 -0.0757641239274887 -0.04204433310396513 0.0757383175436592 0.12686840390861673 0.2488168665799795 0.02546405651932359 0.10999835187893942 0.010924678869791045 -0.08012770738901781 -0.02354427606307415 0.1276872102978682 0.04092463012622166 -0.012927882876138223 -0.056169623449717945 -0.01030987098739761 0.0766528206135224 0.10020458434860903 0.04312462147713884 -0.02178844470728031 -0.027344513803923724 0.054283869804653787 0.008586736294791286 0.0952165212716706 0.012863177707416153 0.026389600654340793 0.001195153366538307 0.12786307014989318 0.02729005494972609 -0.0014017270764022274 0.004578399563875423 -0.08703057993399312 0.037670676510680234 -0.013095828827586146 0.06707629231182648 0.012463785084893313 0.11314103072174994 -0.009416981621906632 0.018198681274877344 0.033727614568238765 -0.030759862654773668 0.038738375711057 0.016390404845834036 -0.07336430070185745 0.024485241976263176 0.11109157565099582 0.003616049444645404 0.14755934704667872 -0.09646504733346113 -0.018777280160826998 -0.195529730157472 -0.054509609064732956 0.07301485533404904 -0.03328625564832281 0.04178022862590127 0.03556640872118177 -0.06961390368864907 -0.039307541668799656 0.01148345924086693 -0.05713577183333032 0.06962907994066728 -0.022998777002344054 0.06256558134689498 -0.05945315858741708 -0.0712643793512761 0.09904552151839581 0.0029598886236818444 -0.03883208683373611 -0.08294378631780813 0.011399001556326139 0.030768483935936248 0.1303202940716595
food 0.17135649626944413 0.14166586803742715 0.03576431382227377 0.19705982662367813 -0.1882744113979815 -0.22159301193765674 0.07080661742765108 0.07525446184460395 0.06981398175157912 -0.001860493163708439 0.05265976787690765 -0.17763977404686163 0.03131097892567598 -0.025897036909910742 -0.29684997302686306 0.36376666264445606 -0.13458456176315975 -0.05702400517378724 0.08981933076279734 0.2265624723877082 -0.01592547357350975 0.20033182402965158 -0.08654766335551332 0.054876418629160865 0.10794197684568509 -0.18751743615569777 -0.08748553657999665 0.10933651925550135 0.116988936754441 -0.19777406902758224 -0.01173905058816505 -0.07651566229891008 0.00929044321553168 0.058433531910285906 0.07150600868584803 -0.03427020562584674 -0.024697579009425864 0.10582539259169987 0.038396483273363424 0.047216183611706194 0.025345188127099374 -0.09719468753122937 -0.08604478299619704 0.004011287072566363 -0.07651990457658828 0.09747588511460659 0.05069547431240645 -0.02721710082391368 -0.04874292679254146 -0.049267095426396686 0.04052878342909397 -0.025330954208218133 0.05382906704212899 0.0404298296007817 -0.10001645956632947 -0.0737992902243919 -0.046200034573101255 0.11132656431513088 -0.06450214205899449 0.0745035798438867 0.05130964656608954 -0.0811413827577697 0.14211112024732925 -0.09237761335933038 0.04551283435270014 -0.02678924741688159 -0.04735171176988061 -0.007107704044645335 0.08545196146331403 -0.031121128526548896 0.022485628395423483 -0.01661980813366787 -0.13921643577379922 0.02289387722342365 0.07072004971025614 -0.04969178065129889 0.07694385371423983 0.04658093310428041 -0.06630085481144436 0.10125274245953633 -0.01733767134186816 -0.03168608880728044 0.0555186715968211 0.022849571301968304 0.08758765409202743 -0.018808402533652468 0.06017525208346174 0.01740628890025949 0.020897989937196854 -0.15019841042796922 0.0971486093641756 0.037130649033936265 -0.06383483242297934 0.04591157014353652 0.001057499157468909 -0.0009214662495786889 0.029493848841808633 0.005410228651240124 -0.030023577163917226 -0.1530402620553169
peace 0.3336126535564485 -0.2879430801646358 -0.08257594494779426 -0.17238585021523173 0.09567204979189803 -0.02665589783138933 0.16573042858625864 -0.19717675340615168 0.0689151393572844 0.021382346554695116 0.0629745961324991 -0.1486102553005506 -0.011027835929213239 -0.20812297386259113 0.05243580873227401 0.14605896271097538 -0.2515600550326723 0.14672532982322478 -0.13071254883755143 -0.06676955218362551 -0.05286319814964048 -0.26624436761742026 0.15736822888728574 -0.02416450054366166 0.17146694105585342 0.004020791141794881 0.0204691575108902 -0.0037683198225537504 -0.03401744777311068 0.009222268907950186 0.035786953393998386 -0.09901709283522284 -0.022072916606908483 -0.12685607361036627 0.0045445473000741195 -0.08658197293377577 0.036863170657805616 0.041803301523695775 0.10961718547246899 0.03575421381993773 0.02846786461837879 -0.014175869995042133 -0.16131248238989634 0.1530218302711949 0.05047671164081091 -0.05551087296275206 0.07927460011496301 -0.10963488975014445 -0.023704440835666057 -0.09326744169511954 0.024692440824866765 -0.021627879649628343 0.05019812295007517 -0.029496270176556996 -0.0865492146215614 -0.02674224862424351 0.051948525654829165 -0.10240032178862077 0.023034646384062035 -0.06674325426875016 -0.0587935419186361 0.0564667653404478 0.03247837372845116 -0.0008621891880335243 0.0575424781133026 -0.03852039319462479 -0.06378125787547943 0.08661660081352511 -0.09289676637444318 -0.08257066620612291 0.05249608513809605 0.013733817527890126 0.0002940056407888563 0.08193659719601962 0.11540130533623488 -0.0038214269506400837 -0.11181770091862515 0.09784248966053814 -0.1701545301662157 -0.04065075941779835 -0.0929757156622233 0.0725506582050323 0.06378049935576921 0.021932754867611693 0.007030030022663936 -0.06915699968066215 -0.049585058394789605 0.015535998555692173 0.06560072050546824 0.11596519176645584 -0.09382711992466139 0.0347999621631589 0.014825986796604107 -0.10696298592488057 0.05108438159590771 0.031195068589919186 -0.03463620669963066 -0.03118770138907501 0.010765406911585108 0.0724719567070297
money 0.20288430427193083 0.008972441466860243 0.03991793607536597 -0.02051042930981964 -0.20972109816939255 0.049346038417904296 -0.060297861136739184 0.19008009382321284 0.0806300803086585 -0.15119873773797488 -0.10845028055482382 0.08680859265569399 0.025626438214735682 0.04520992214028539 -0.08062717410529181 0.10988583075672638 -0.05201076774453688 -0.017277636885572312 -0.0581779200657598 -0.1018071049042175 -0.10426419348219695 0.04272342725466375 -0.1150540336090374 0.28320075121018634 0.006663275820432227 -0.045423880550120296 -0.0008115389479969584 0.08036731584349005 0.31268830726030666 -0.028605452783943375 0.3358507498901251 -0.14272817767193785 -0.10211141168078863 -0.02317236589510075 -0.011016891431974008 -0.037342565436474025 0.2254227287968994 -0.16199379708006614 0.021455253519868763 0.05374302600207417 0.001567198986320313 -0.027551420244527676 -0.015003822825509295 -0.027522174085809144 -0.0626170693993314 -0.01161582022055052 -0.005626694663742901 0.08179179148601541 -0.05104936532144401 -0.029927762032215602 -0.017280396654119276 -0.18178064941245733 0.06762488831328395 -0.045660045720347174 -0.021395881057864392 0.08856659388871332 0.05532533162410274 0.053402584868685515 0.15132897126419081 0.03732569276440861 -0.07594692651879001 -0.05209534693508332 0.04519826655562476 0.04239826741351619 -0.0020014271622833344 -0.11985536290201726 0.08407787708225613 -0.02752060062595595 -0.01870740758659768 0.12720125603487895 0.21620021449702523 0.10900672949502883 -0.08534571763342291 -0.0067398233977254635 0.03952761542215872 -0.11959795683457344 -0.07196098048255994 -0.019198830628317502 0.04426356566167815 0.006738837414152487 -0.13864528754505456 -0.0062940824977027994 -0.01182589751864681 0.03567512623498235 -0.03321286900651082 0.0035803681103569705 0.042497581704947864 -0.0043783233918920405 -0.040508248864945515 0.01128937261826442 -0.055218513709265026 -0.053901762304306426 -0.1789901793798211 -0.02730391892327119 0.15727749493856852 0.06150500893018357 0.031814862071540106 -0.09395933015372421 0.0789149857856651 0.029331629675663863
drink 0.24200310101166564 0.08077539193385523 -4.686486961951617e-05 -0.011019448359095121 -0.18035327030420048 0.10608190102527348 0.11262313680306224 -0.18839318433398053 -0.022988739356338588 0.2821274794116058 -0.21283128648714594 -0.03280556003842216 0.08919607530359194 0.06985682521284102 0.19482679553548302 -0.0600937044643663 0.0963413070789347 -0.06223658148200728 -0.023832800471287517 0.01191827749572836 -0.06749319908290537 -0.09109925855408563 0.011521611345824901 0.1258454388142757 0.026477975270474227 -0.07706489551897863 0.06618687499623994 0.11080960512951084 -0.03457539052635006 -0.12989418277923706 0.03093587567558118 0.1158384182290107 0.06221330016013042 0.30887706894685374 0.010987140208517198 -0.0995036959200424 -0.048363040496139625 -0.0045309727390757575 -0.21860938897824708 -0.004854250028719721 0.1488541351083272 0.06079473046117525 -0.05051015530693306 0.10980674184337896 -0.06373366459470708 -0.050892100790385364 -0.1765394334931354 -0.1538956106217261 0.07081726292616995 -0.03653433111669538 0.05406174551996271 0.09389926785215022 0.10963414227022686 0.14388344342000156 -0.15591257676591466 0.05368310317125257 -0.0052019104540016944 -0.0024394225861803526 0.062338360841676654 -0.1795002386142126 0.0025049861283675617 0.055572319326252125 0.07556428554358927 -0.0164052801180539 -0.05318513712007334 -0.005864620410494432 0.06907465014629627 0.06013967716248373 0.03927757306216013 0.04157961671309551 -0.19286858700314452 -0.0537533780050983 -0.04995100850603496 -0.030316230411597922 0.10484673613407115 0.02155020501323487 0.0279743673436282 0.09431635904795573 -0.007025843497118202 0.07044599279619256 -0.039942592928680604 0.0659799301437332 -0.013578423704820737 -0.029678978921018645 -0.08433653336565441 0.046540421167189185 -0.11836580014875807 -0.027461240203180613 -0.1664487804218405 0.05232703915291048 0.054238660675673366 0.06033479970885199 -0.05529364877478076 0.07054821699009989 -0.02108322807792314 0.08414926462095124 -0.0586981061677716 -0.08142241190660754 -0.024880779692520207 0.018385377973816088
jaguar 0.14080275868142178 0.04284823753237399 0.0550857489304905 0.019832577264842846 -0.043598035726677156 -0.0334151207258792 -0.028901219870200338 0.01364105075366902 -0.012204491977664442 0.08794505457268616 0.07174263539553465 0.2492490662442035 0.12505149130464352 0.09332636965179303 -0.23729413406145888 0.15972366665141882 0.16784429805503287 0.02633652422170656 -0.20713784897204338 -0.0425018097025577 -0.07234149937552627 0.004837535114625753 0.18131201953311338 -0.14111520661454513 -0.010309385474198485 -0.05220107838446694 0.0937727419267491 0.04724472498272321 0.11794775657084705 0.2840948241742326 0.21675089668943615 0.09128926957795527 0.06235020563603805 0.10938340062185357 -0.08575959931824902 -0.04120918024617561 0.1131040404795796 -0.1756744760105215 -0.04755951783479746 0.008097085859185804 -0.018276999382458758 -0.07035201375916779 -0.08681222045787149 -0.015410715700548161 -0.007152475040250034 -0.014255229344507925 0.00363900354883419 -0.01812592709900979 0.05939759187793623 0.07520665902307544 -0.045807406934192316 0.03423569478130901 0.03222339907055782 0.05405887805792117 -0.06585616748489136 0.001691451880982928 -0.053820689760805104 -0.05670538777925342 -0.2078665922283877 -0.0668552652752888 -0.011538352458350732 -0.12588508098016127 0.1363586758489396 -0.011517042000394748 -0.08595308374919491 -0.20913168923897532 -0.021473925892764617 0.02263284653095205 0.019085518549782802 0.019710304570021295 0.021571021964710706 0.062403032246427306 -0.07945730494331607 0.07270785324851643 -0.13322266333294838 0.03365145807224033 -0.04626034297724907 -0.002508862805939007 -0.22227603620418995 0.05429782429827 0.120206919569345 -0.0476994085354571 -0.006723859056975788 0.052735704741878865 -0.05326932177131616 -0.02681716368044937 0.18805967936591558 -0.06698472326234126 -0.16524689081832858 0.09172236731190038 -0.04882562079254278 0.05512024364196694 -0.13442672737395026 -0.037160167963623474 -0.11832872806184347 0.0032363706506349553 0.01704305281426647 -0.020010582062255946 -0.09231878308264832 -0.10663102881253712
news 0.30236411356813986 0.12824941210431623 0.011115315152749638 -0.09610775494877441 0.22274920423996966 0.012989624676842507 -0.18626499855828468 0.09615636241939529 -0.1778934354393406 -0.05846869930605086 -0.135896726259817 0.15346522283281763 0.014961557213120003 -0.12740011749786126 -0.03100437239904997 0.0692741958961392 0.11306598794757106 -0.06022326698584908 0.12706306527982708 -0.03991966025992088 0.01283902819474763 0.11525513159194137 -0.0019099297510171114 0.20223936576645213 0.03328773274116812 0.19168543795333 0.09113987143685498 -0.06692063022691527 -0.06768652400421232 -0.10171817615880525 0.05056814110485038 -0.053815856812645876 0.05595638638836457 -0.08486658490463825 -0.03812062348792793 -0.15946657790892968 -0.0011047393878933457 0.0417971353240631 0.26377428258598423 0.03842885386485383 0.12447277549995955 0.017636284270395628 0.29607207456857115 0.11716032523991367 -0.0005228937021221492 0.0512365174949656 0.08689020268318806 -0.07662247065126047 0.10391124067308968 -0.101477811001485 0.069583122717882 -0.10656199287089288 0.055348675350550824 0.002479202479976456 -0.03095204791062111 -0.1986773651254653 0.16041404483839988 -0.039280020153204594 0.061664219246256105 0.12949989712305746 0.030208227563484364 0.10214634231833715 0.010218121009009254 0.08774550186895014 -0.08494961555016438 0.05542640131547652 -0.04292417161582576 0.06834711864947672 0.048851374123219896 0.15862291160559225 0.06510982279883598 0.005184494170449725 0.049322124658840026 0.10037569567548618 -0.010408510045020303 -0.03186361629559403 0.07453931556059722 0.00332717305971942 0.002803258666899359 0.06432875036862651 -0.040414442138798676 0.01278030197005023 0.03416605162711292 -0.06387106579730305 0.06155966458101773 0.05835176990994075 -0.05054288656376541 -0.032090690828101856 -0.02481007707817469 -0.08546632724416044 -0.10649104132824974 0.017405081401531762 0.04604246669910808 0.021470250957228338 -0.0107348660074657 -0.002408795094589798 -0.05883940348693573 0.09427120869637724 -0.1110861489470116 0.0493848463511188
life 0.2968747399867504 -0.15515342417768369 0.08934873638888424 0.10263597113983407 0.3000820278097535 0.09895620948641075 -0.07855318029827416 0.2280339857112504 -0.10301633437084363 0.12344268426077493 -0.02518393150189329 -0.09965105920442799 -0.0214743386311347 0.12395129612791203 0.03239891410711885 0.12151510572562563 0.10015228585697657 -0.11866368349621566 0.18491329568888398 0.027819972261781834 -0.11067944424241707 -0.1157206279463658 0.06541514071390345 -0.038967911129845254 -0.03784198290571271 -0.015649406620698105 0.10717468168103801 0.1992006320179023 -0.1324593822526365 0.06792428081579426 0.06776506746321655 0.06021238255298566 -0.021690840815690553 0.08980708385060539 0.0713741456136745 0.0813563887148223 0.010784193417967354 -0.03592316490619228 -0.13001980443318603 0.015346705049950454 -0.04825847311750664 0.0229463377539027 0.2515124573681163 0.02409407850784315 0.04013988194996869 0.1693230908268143 0.031281031797984526 0.09117641903611189 0.020723941741027953 0.08926487563055235 0.09364020294257985 0.035878068788175725 0.1020382078172259 -0.012701971735338102 -0.12149692919776206 0.07514164171003218 0.12029244591271519 0.008893668393855155 -0.05375856170262797 -0.05114428387708717 0.10385178803645165 -0.03744968899652609 -0.02789112011247379 0.04838497956875476 0.04647462169764332 -0.04420071466860087 -0.07158143210639985 0.08883919333324714 -0.002953145458248349 -0.03465900357209643 -0.024891665954790698 0.17534168712239004 -0.04469734059724379 0.07248450760789088 -0.061350678959443385 0.15043741731456037 -0.07933222793751118 0.11567803854480775 -0.17051438162774976 -0.018047173419620175 -0.029626488575827767 -0.013562470333492336 -0.004483269735175092 0.05008868601636074 -0.0164623332762144 -0.08655569221175076 0.057153699443862206 -0.15559340406209454 0.09113039501135672 0.007465333172256434 0.04640453555237176 0.0001550363774636284 -0.018207340457608613 -0.0412422973854518 0.036326960479909035 -0.004120276246980883 -0.04682611381624492 0.08007312187245015 0.10390931350041503 0.18726607212476593
street 0.14875347250183166 -0.12448260628474106 -0.03900420773206702 0.45457793598366925 0.04078177855443839 0.061442754037062584 -0.15960419978885051 0.08826125548122175 -0.28193787350294414 0.1815916840240502 0.08122859181733923 -0.19298413442188447 0.074923252233689 0.041290053925118836 0.0074252846942805826 -0.09295061937970231 -0.18704053959925318 0.14251224961260606 -0.1937718911862134 -0.12132900882800772 -0.09469782764164685 0.2963517259186018 0.12282665108993314 -0.015162086242427196 0.030058540317559113 -0.057466512902514505 -0.09533291138071866 -0.020632772486054766 0.1089821357251901 -0.18122940607703328 -0.12701485927765052 0.164673652063641 -0.2085052020864288 -0.03131673282467545 -0.1121280967132341 0.13998995689757632 0.05539240528696408 0.0341004887168366 -0.07589428366262461 0.021997098248385798 -0.008532732615814772 -0.05396877651203234 0.10480507338198608 0.013445064208376198 -0.05013018548764449 0.04360785843241435 0.0017747152551575373 -0.03742827595990079 -0.005425103340173821 0.02258146847685302 -0.012529383808038533 -0.03690799516611066 0.024009680547456766 -0.027769566320393492 0.005211353323402882 -0.05992681299383855 0.0019238413660837021 0.01951804799195077 -0.04054581628039565 -0.05004431051331631 -0.0900907965051325 -0.14069845256759597 -0.010352104363165863 0.017680173246559516 -0.0878564821270005 0.04253331520356132 0.05059106173220964 0.06779951267804411 -0.07742356246306216 0.0025849067872128683 0.014721939071203286 -0.022745177570828612 0.033602914386307636 -0.005925791402419397 -0.008192289676353265 -0.055423621433514834 -0.025229791316958586 0.017892488598453053 -0.01738649691252153 -0.01860342708343985 -0.006526098237443423 -0.01622285825559505 0.06787230352667589 -0.02770087513723282 -0.04687697508137622 -0.014658949006402418 -0.0011079644070023681 0.05312742162701153 -0.008004462370819934 -0.007573552521879551 0.035354301671566356 0.026328286548885332 0.007780227728297695 0.037431213809059324 -0.046143395566363335 0.06113075627517617 0.10621991472495011 0.08606685572125228 0.07806953068429805 -0.02126092573435112
media 0.19996324877858726 -0.1121119778752177 -0.0473691135221641 0.06846307387438601 -0.009224439220347092 0.014844272930843394 0.05870248635387022 -0.0815230957640575 0.2722836753992629 0.11547422948730626 0.13587928447577435 0.21131980986512724 -0.16246389676612508 -0.0900946942205447 0.1172107338361439 -0.10659359773523804 -0.07266221063495726 -0.05296708401069894 0.19518725258706135 0.07938261488205664 0.07147320182250227 0.15714540691230974 0.07197953936305404 -0.0032550478615571725 -0.1036310487843773 -0.13213803117865905 -0.03595214302636936 -0.08724278648198762 0.01825418396912141 0.033667901334560366 0.045188763717242855 0.15235132472769186 2.7281021098522616e-05 -0.12210438774429035 0.07280308082946885 0.029400873660050068 -0.0023880505109733856 -0.04637141918097472 0.028062717086734457 0.0038024968868134506 -0.028366610718153325 0.011506814787916934 0.0021666142916397764 -0.12689426996373446 0.16191770720987783 -0.07894343107165142 0.0486899688659837 0.06765160098856556 0.08696131678145369 0.15743104904857358 0.14928611568561773 -0.10641393890383004 0.06185902585644418 -0.009811305820175614 0.01897402735402981 -0.051671015600093045 -0.04679815038465293 -0.046384417890468675 0.024334529751002663 0.0630500290499964 0.12573332431806378 -0.06868039602294938 -0.13452885237534207 0.11887679038125146 -0.12794542655954808 -0.020883041655559247 0.06862019860108877 -0.10959772470833103 -0.03835026276092631 0.019640618964834426 0.05527648750398172 -0.003509897162779261 -0.056255985536342173 0.21094586820226802 0.24296376049295337 0.15701104282162806 0.061950559659978054 0.06829289062106104 0.05201973136005623 0.06742808314286933 0.1660693103255331 -0.023678700827552548 0.12250770279951922 -0.030017295987371403 -0.13228287875964448 -0.030978923206585143 0.005370677460841773 -0.06367198697518378 0.08729914329500532 -0.04546822613982 -0.0011929569283720075 0.019556234738582173 -0.15880495719698293 0.07768896409673923 0.19630071172165228 0.08181254608673581 -0.043828067593815086 0.0468232350800535 -0.07734034274161453 -0.069074290589729
doctor 0.21223636764223328 -0.08852772426956565 0.13149200583508702 0.012729149774546433 0.044447097828995905 0.1809855093203612 -0.16377926334790086 0.3584158207215112 0.19551728464504134 0.14392645441631227 0.03937138749885915 0.16050253149073115 -0.12450395271683494 -0.18043235983015782 -0.015696569396347573 -0.15211847430055178 0.03614815531941469 0.04883074583923478 -0.015447599347356044 0.19463567469577592 0.18903785256371325 -0.04223732258235812 -0.12325632786035885 0.11001128479495652 0.1429218382632082 -0.006212814447022041 -0.04511909101655182 -0.02986987792885684 -0.1392219585895175 -0.0345735229581967 -0.0497023730537175 -0.2082675826198203 0.23727064308907192 0.09261096924464811 -0.21701151160530427 0.09626812267166283 0.02682632314843118 -0.0554686758369573 0.04874108049646019 0.15708277285955366 0.044730467289401894 -0.13678393338449638 0.018628914532547454 -0.029116656755850557 -0.04968579847086422 0.017667554365815696 0.009802609726468143 0.04026188661750286 0.08488393363011087 0.05203596586399431 0.10173278613596867 0.0036126489120720754 -0.026839914184474727 -0.08558398180502497 -0.05277200988305039 -0.09699151578495471 0.15079350992587068 0.04612058682343463 0.07271109863010397 0.07527137470587933 0.06548877128446061 0.07141920922232174 0.014275851945401557 -0.0025078070792749884 -0.020935584003365013 -0.07832525501862558 -0.026504874537043026 -0.07607027525480897 -0.008905926561928703 0.028671233469525333 -0.005195432313723635 0.07622796155874323 0.02995577487501315 0.04812431036399508 0.09378558953536512 0.047940410001340666 0.11075033687787642 -0.03121932033923252 0.018713162890558244 -0.010806615827798103 -0.0018570013435342918 0.042891951594976135 0.0031576838498890603 -0.01916514669213021 -0.12401296917497939 0.054098437931145806 -0.02025574140185042 0.010969080802971133 0.03634102463233878 -0.014882496806322325 0.003697814590658337 0.021806109401880085 -0.10664274362760046 0.011202114557679608 0.0027764669313631147 -0.03243359614663301 -0.08234574931717993 -0.12037814910369664 0.081997299592591 0.0981576329803336
professor 0.18636516776015186 0.0017700663209038656 0.25726318053251307 -0.024182951812390722 -0.17449132040824106 0.13076048836122803 -0.12664496251739155 0.30625845681217834 0.3578887176682522 -0.05402283285915939 0.10853844678748854 0.014570400497888615 -0.14214597487354513 -0.12993119073872078 0.02775070384549735 -0.2484942628138943 0.0011889333681235484 0.09914639066486629 -0.1015524405653472 0.08031204598276735 0.018103440182844245 -0.03900703692641254 -0.015457000230673102 0.026051678401694575 0.12341076170433253 0.20353408917720558 -0.0607968774130599 0.0757122911042428 0.07538552495598538 -0.08920896263217969 -0.07311738076420228 -0.04463679743040159 -0.05186290906275132 0.1854654203407128 -0.27036169752423234 0.012954759429478413 -0.08850363573627242 -0.03867399566813498 0.020770119016258734 -0.1025078766227813 -0.02852467209948835 -0.10816059711844297 -0.03676114107075354 -0.02369909219321465 -0.05179937493264669 0.10620786751425502 0.10086681104500213 0.005743139983818615 -0.014804412631054231 0.012785419478538455 -0.04387314114272145 0.009434786249278685 0.08061851261564708 0.045956380791202164 0.0032046719299957172 0.06780889306107651 0.06373406143633105 0.02741278917197851 0.05750696954331494 -0.13963503546482608 0.11219554137631982 -0.02238473850908183 0.016559085694049288 0.061280223985707906 0.025543058048961308 -0.02779045639077865 -0.017348698585302372 -0.028617703885934168 -0.007870463100310096 0.017041669404968467 0.164946984564711 -0.0121307618324576 -0.08419945517428967 0.0865640491401728 -0.04726053937211677 -0.009953761546507461 0.10079519234252084 -0.16448849352488648 -0.026295987020410246 0.009767593192989492 0.09411271654841682 0.06750191158380531 0.033009242398018904 -0.0569459310273857 -0.10330905345593344 0.06227491420724828 -0.029193429633167643 0.01707642779932757 0.013600117825080502 0.04258414182039303 -0.008734703047598935 -0.04814491910200842 0.06736194103408863 0.009259101034674786 -0.03967992270648993 -0.11615832292869128 0.09174074522369725 -0.0003972302167405122 -0.03254238949967971 -0.018739489190340665
forest 0.21299779254362888 0.047847101310461417 0.058389763032232936 -0.08804014814798625 -0.11827069132079694 0.10514129657357942 -0.05701016898662969 0.10363387467880793 0.04539832125013511 -0.14195380819318823 -0.0992415943079031 0.13171560292597473 0.2529841003899786 -0.03456455207620488 0.19594682439738034 -0.04812774628175869 -0.09328708445125485 0.05093298537519681 -0.036665811028320006 -0.08271965219780175 0.0031619395751026724 0.11659750393209471 -0.25244778455889216 -0.0631766020492583 0.1621321892869088 0.05023206862246558 0.041349733768365204 0.17047154658842315 0.14710358968685253 0.011071121110618608 -0.06749246919719427 -0.04826053720432664 -0.0524418047149022 0.044514464742048857 0.1178974024658926 0.13552351960949208 -0.07816647166265667 -0.18662700006483163 0.03977897888104233 0.05400998802671912 0.2330560214621354 0.05506793434889102 0.08180917485962944 0.0110560463814882 0.014156997619648212 0.04443689203790149 0.04925977283403559 0.16118359785387823 0.056366380484025154 0.07011451843983535 0.038357412872562134 0.0998144699957486 -0.11100896796240775 -0.04265841177796428 -0.032345321815023344 0.08358534201326537 -0.11640167689257427 0.09829110174964599 0.07185837921065773 0.16149601244015832 -0.12150823975385407 -0.05656351067758192 0.016868320523075048 -0.011710239406381008 0.06773536242833632 -0.05522947150418073 -0.12418924145838676 0.04838467685618694 0.17618164037202677 0.06528131837643963 -0.02737808742483626 -0.13378792513471924 -0.02962044185481733 0.060953576898356884 -0.059203190030119646 0.059781136162761435 -0.006050720461331322 0.004278138656742328 0.030960385290819802 0.009857000816684502 0.09771411435312494 -0.21382997213032295 -0.07850158794240855 0.027270421497159743 -0.07865518431828658 0.0010189764470687733 -0.13744091198373448 0.11016248238326257 -0.041523334187362974 -0.02303616524010942 -0.09128820580498742 0.020418977357383395 0.014916954866274344 0.10477333222318504 -0.11013849799573594 -0.06823079735027367 -0.10449684380073823 -0.06712662896583406 -0.02527721289614054 0.13960499752188754
king 0.14336092660587238 0.014957012496564113 0.2033978049491768 -0.0165067818420839 -0.3070366189544212 0.27696396726907657 -0.05624945445554216 0.23643668319326785 0.13493097958873512 -0.2789565375412987 -0.02017823131956771 0.09241742228062207 -0.22920095643586547 0.03203516020269858 0.12957073759171703 0.07264091160212591 -0.12394845859812884 0.10744286554871921 -0.18139983535970108 -0.1211260236586352 -0.24830942148834304 0.018366139381179872 -0.15085386623958563 -0.08080043586464815 -0.08590152129038998 0.07808731554690357 0.08475014328518929 0.004593007413932309 0.07321913495503908 -0.17231606913661826 0.07419477250215148 -0.043149263053072505 -0.10114630967644127 0.05648211435192172 -0.007469956001133427 -0.04523215976972635 -0.11487735925992984 0.00793313778136701 -0.044503298325477565 -0.07493383254169168 -0.07154971349229249 0.23816695334399163 -0.031502211375140164 0.006421727095480343 0.10836580267195307 -0.007541667529882303 0.052270802592708165 -0.10981732042868253 7.19766309790372e-05 -0.031871925307057895 -0.02831485602405526 0.03201170054904299 0.034433196273856916 -0.005095887688512007 0.050480158360735 0.020388555210431487 0.08505789734178178 -0.07951067122724069 -0.11738802988286594 -0.06772972471223676 0.18278964852061735 0.030674186468018384 0.0031225241424537083 -0.047709038329984764 -0.07192129513738858 0.07328232191942294 -0.1015904569598703 0.03393120035268123 -0.03371468806119659 -0.011828187767201757 -0.016677238444572487 -0.022384236405763227 0.016286353189081088 0.07639200786548399 -0.006723641404894886 0.07452320654970557 0.06862979355888554 -0.1315300384152318 -0.0389507927614366 0.051721695036068244 0.03570696459872175 0.04480936975509995 0.06488334965933068 -0.034841258298602094 -0.05884786161730811 0.0704227132412764 0.0019758283181230654 0.006839976880802063 -0.0013477434098175065 0.0414102186382253 -0.013683416731492403 0.016266548617632524 0.056574933856316116 0.03496404865424149 0.01876593243284904 0.022484499909073943 0.03563774468702521 -0.08927739487784687 0.022404415514895935 -0.017322426512673197
football 0.08264997688654782 -0.027368268393174106 0.10864657067431656 0.03385455924525856 -0.3098142010133149 0.48198669852771814 0.16518810430613518 -0.0784136590554389 -0.2993690584522313 -0.20044892388351232 -0.059113341849842745 0.029426027200720153 -0.2684541497558374 0.03992045818655692 -0.017505094866289542 0.21504413134908268 -0.0029731198740360833 -0.0007104348497260979 0.08408223827445371 -0.014578650889038801 0.15510430699357983 0.04631064562440346 0.09976487642293659 -0.06722193336022492 -0.021737018584758298 -0.012047656528912765 -0.04490331636729376 -0.048330026979357406 -0.1278719554403273 0.1736498532567892 -0.13240452491359025 0.062092155981734655 0.06859346628606246 -0.19512739399141704 0.014715820775666985 0.0043707900458420405 0.012982274632566636 0.10772416370011349 -0.007531950394568985 -0.021735196810066904 -0.037461754916683604 -0.24703414805353383 -0.012570939745768575 -0.001327505775146219 -0.12613631158744285 0.027194112981009145 0.04609862528583081 -0.030816926940486516 0.0025478148549034512 0.008777546235436081 -0.022482385347169093 0.010495093004773696 0.019225150138229924 0.0010405447878328402 0.045512958219140864 0.03721426813230652 0.032641564674389376 0.10931259160022515 -0.08636436340953714 0.02802041850827425 0.05406357662844073 0.06226582464479688 -0.06989261338722794 -0.04142716562938275 -0.057348992990648384 -0.03369159724911817 -0.02588872891955088 0.013731466805382796 -0.03199293426354655 -0.045605917204631016 0.0943475077542731 0.025954178864892652 0.026590209461096876 0.02707130426150997 0.01943084324028723 0.017794758152068386 0.06493163379691995 -0.07921882469756736 -0.07991375781555685 -0.012724251871669229 -0.009245709259456832 0.045141445944888975 0.07290974333555134 -0.029187104654777397 -0.016942948955780173 0.06218564221105229 -0.03706041576916422 0.0038398617795183756 -0.010066397483057613 0.01695135571238405 0.013939952768091714 -0.024486470999956267 0.03893169644128955 -0.019132980835926686 -0.013475116480975305 -0.08696176950630072 0.04828305993258705 -0.007132839315036502 0.03932590357978784 0.003800956598481045
lad 0.27388598633229605 0.12537238847259283 0.35246689307727086 -0.08029955480605762 0.025421697155763406 -0.2521289023979666 -0.05311936161499104 -0.10984120446863815 -0.1447876284226537 -0.008514810447654241 -0.040629782631473224 -0.07583283694542946 -0.051249998979897474 0.12500175778495162 0.031097575544108212 -0.0928463075076344 0.16020084541993765 0.010268630782023313 0.03644697989623649 0.03699255605678791 -0.1547633545096464 0.10129769247094796 0.04508199719876992 -0.09132098348157075 -0.08137268276949512 0.027555949943104133 0.09324944860048003 -0.15907096181391261 -0.04848127553683035 0.08061026340042642 -0.04889448936168871 -0.062090170141432574 0.12218601220498354 -0.11194888247706541 -0.04404211241961462 -0.005711397299992059 0.13815356099430148 -0.21346206323280925 -0.007087035185468907 0.10879154378196425 0.016005741392330113 -0.09816562743376132 0.1302155909685524 -0.07276996715105218 -0.03915964074531296 -0.11040080074173839 -0.2987145367558062 -0.06186653122344529 0.029138329907433955 -0.07813967778855696 0.10881624189079037 0.01834674285669769 -0.14852900157923535 -0.05656262370293653 0.10847521531974547 0.0017102679665351999 0.011378916863316305 -0.001063242207179837 0.028411438729041623 0.011480306514124725 0.11157996475683227 -0.0563656061216707 -0.044779220583100084 0.053200623581550734 0.19279131167482788 -0.003979887698303785 0.08166996061150654 -0.04377751719825799 0.03140368503436716 -0.04838679238233975 0.05010484799002859 0.07821183249112679 -0.11428666228324295 -0.011399181962769562 0.011414103807509028 -0.026956228850042587 -0.09829621269998072 0.07263735952818047 -0.004500497507678162 -0.06318684440674278 -0.07890649538369712 0.06855194342012905 0.031474805394431926 -0.10864225609796418 -0.011862491329127218 0.11155077395160704 -0.025712651477313615 0.040479779209341496 -0.09346379431580298 -0.10132778030605195 -0.06357382494448145 -0.15281077061079457 0.013413062820883238 -0.020281279890758765 0.016890184856305866 -0.003136135214107539 0.07697261880010892 -0.006305634317242918 -0.07753232881769202 -0.050051775266728916
coast 0.27801414597902696 0.0963661405000212 0.28476472781230494 -0.12806239446361958 0.06692454112583716 -0.225729347360148 -0.0004020208655827279 -0.17502375629782452 -0.16883282023076515 -0.05359182688396902 -0.1708418622986919 0.051003071817625936 -0.005021063430457499 0.008963519614299992 0.07536477723000823 -0.13174238197891433 -0.07541724994184856 0.0971546227133243 -0.0936468730378619 0.012070276265349832 -0.011752063752138414 0.08105097672937908 -0.18867851616279702 0.09630581139128185 0.048896581048628984 -0.06443522724731551 -0.08564831608551943 -0.07456533913513257 -0.04470770882146488 0.1571000553751895 -0.09173544715830506 0.08214629511354021 0.016202344358836537 -0.05078056591234048 -0.022881089289471582 0.036212029321595174 -0.11580885403358926 -0.09762096493281609 0.25393061808675027 -0.09456213600654381 -0.006918735754564624 -0.008923488113471517 0.052564325195326396 0.01690406284915505 -0.08418490386292968 -0.09460006587405555 0.04320091173763711 -0.06946778629809981 0.126093787458756 -0.21389437820258567 0.059784957931731074 0.04346824783909401 -0.07587693939240918 -0.14066602005188267 0.14712515908688967 0.06205844696163602 0.0728528080607008 0.11382372635948909 -0.09578345965038745 -0.007061750778505524 0.06828085173726792 -0.11619678246097938 0.03353759878579691 0.26838243592371613 0.01924750277374317 0.0030757882305149464 0.05733571796185738 0.10082275687271078 0.03343678186228356 0.058417841391806564 -0.05409622978595187 -0.1135350638553663 -0.09517171081884358 0.028598626860523182 -0.1039411446435149 -0.017798498711612994 0.08188687781876733 -0.010108247300632214 -0.1434948809033951 -0.11470981655547217 -0.1178477685829171 0.04553210477822156 0.014071519739739559 0.02478613218628542 -0.009471968563311029 -0.05119914221140277 0.09234636833783406 -0.07946105183562864 -0.0333147270650448 -0.029005105962901175 0.044965989109077 -0.019634916235995257 0.013244854886304877 0.07868475800778219 0.029614864572960833 0.017634309283914757 -0.0025613463629547604 0.004911711285252163 0.015376967826353923 0.022529427343012266
dollar 0.14319008854653212 -0.08120080400097937 -0.08934791137431244 0.4412313365037071 -0.18278466159154422 -0.1780223407888745 -0.13578541999129382 -0.13828248087577752 0.11492299946548915 -0.1765478118342125 -0.11522639246712113 -0.0015879414458958474 -0.029750350268537663 -0.08814053264302665 -0.08924119614563679 0.07812251221005183 0.1751883664801301 0.01585356142946951 -0.02326753868465401 -0.0012157407804186096 0.07308564144368955 -0.10403658843012963 -0.11201704975723305 0.10097047122612882 0.030398530944914404 0.07927326588167322 0.13975636514624246 -0.009293089360101656 0.05362963899649447 0.1332936522500879 0.22062647452008144 -0.12774300837402144 0.07620689711425412 0.017752432794707226 0.19711753229988957 0.06067083673594225 0.03190659704440733 -0.012394181441270247 0.00484703012316791 -0.09817938452885308 0.01651661660243493 -0.0914330738602911 -0.03165299869803872 0.01876596575352308 -0.17627226550905914 0.016845552999465403 -0.03209642720160262 -0.018552155383240745 -0.05368718781827287 -0.016943331067234196 -0.00240093903094297 -0.03151743161479481 -0.02638268465193316 0.027917029268072924 0.07572483378022135 0.2607141048476996 -0.11461411352900176 -0.19109764545216196 0.07847805216212286 0.02713730031146389 0.07275668102277941 0.2346432150027394 0.08852886133804087 0.11167002115408001 -0.04739205314262864 -0.03484758803651676 -0.07810507871382392 0.043556513893311666 0.08149998651743859 0.04789712999424259 0.10324357477426443 0.09616468932005337 0.011086219252150921 -0.01835217095201591 0.04088366626034088 0.03867677188305303 0.049829438471923754 0.04682331260599395 0.023905399066539785 -0.0855448691175234 -0.0384222031631234 0.04932037458352199 -0.06360399705818578 0.0036378709015564684 0.00823471380628306 -0.002848840988974009 0.0717313806951542 -0.001862319269923207 -0.01352431726223282 -0.051628286716387806 -0.018354537105691245 -0.0007392746384792395 0.002563642591522375 0.009676904763294202 -0.1000288056428753 0.04026813868498054 -0.01351750796172281 -0.010905660437294983 0.017463150459849034 -0.01909816491392138
psychology 0.016407445784841802 0.009482438565758 -0.019912626012776352 0.004112569925772028 -0.010138455616121915 0.016181147715282975 -0.012912531155116997 -0.03184426974878495 0.06021049246373213 0.035577315766109036 0.024194579640321345 0.10023004572295281 0.04657841028494252 0.2587007338807123 -0.20365596193925736 0.008968733209982264 0.004694187773395007 0.6167367411776231 0.3432315259928564 -0.1641428359174132 0.0013499593626650663 -0.15553122611316875 -0.02487476841349526 0.20595424084886416 -0.07363324954119553 -0.018749766295987284 0.12162474517948557 0.0217421190724278 0.031102319585032293 -0.10359874643499627 -0.2561001611249058 -0.005144935317643424 0.034848766441882124 0.04224006991411544 0.04313080752738882 0.03709178322410079 0.01036822399680754 -0.02070699344634801 -0.006000955398031756 -0.12486547554829454 0.008995084906380464 -0.11258987178686539 -0.0009043805620963231 -0.0002092543913494832 0.15588285054498888 -0.009205616095689201 0.0006487067744584175 0.004000256701184882 0.0007151284118546368 -0.009990900937400161 -0.002463822633656496 0.23052840922998813 0.0009706519025660684 -0.0009481952777182618 0.0028337376264688935 -0.14213134429070715 0.004677999676019616 -0.06582936366564357 0.0016765730676573047 -0.001922346553673684 -0.007496630483762914 -0.00036366820490503027 -0.011002156374601186 0.005508334249870268 -0.002425380357872878 -0.08067267948095151 0.01353280910560185 -0.007579205477468883 0.011416173295527823 -0.004700369447364008 0.04841310226610958 0.00014790737179280357 0.018609776217923386 0.013488215490212957 0.022642384400549193 0.015081377266348263 -0.018515380359537672 -0.04910698833760168 0.05698870401182212 -0.02413980175515385 -0.09053647366264843 -0.05172528582818889 0.0139994707727987 -0.018834357883934203 -0.02662433738968965 -0.04226940771075463 -0.002734669067402974 -0.040849535955339814 -0.04158899417078123 0.009147895413792214 -0.011682183922173062 0.019809100825655082 -0.04032043144156245 -0.0074842480816737006 -0.013973387438626339 -0.03614319666484988 -0.005992768633079199 0.0245205402718679 0.013849505363151377 -0.06441604877036755
planet 0.036960484281166654 0.022968236236733146 -0.05578378831167312 5.943559630324791e-05 -0.004135237393514237 0.03418799150669663 -0.02224893888351513 -0.061846633092106224 0.08866085613117795 0.040350747031352434 0.028278991009846047 0.10145157425385727 0.05219168185670896 0.34038564678936156 -0.17757608604512334 -0.0042203211232676235 -0.029549558166257314 0.5760386228318055 0.3395806376419985 -0.10062197735508624 0.004238069997565838 -0.08670413437865628 -0.07986442660357286 -0.008480033222165168 0.04911284126559023 0.16511688139372266 -0.22561351201213067 -0.08788626286843261 -0.2534687298707236 -0.19477063828613006 0.03373906222525763 0.025651664443874955 -0.025742673475790172 0.06929548953773372 0.1545469381469675 -0.04560757515570952 0.13512777357444825 -0.09410445617595617 0.007015022774908535 0.008475950636493439 -0.00789451708064604 0.045774902354926046 -0.0020402387587290637 0.002114089403991219 -0.09915012956312841 0.007879557094855499 -0.002649569754298765 0.003671525064511176 -0.004944499574964849 0.004358993137967675 0.004865451442830301 -0.1307787357020594 -5.1316004774276116e-05 -0.0016922936297008007 -0.0028653479742445837 0.11419057199470897 -0.00189554208369126 0.07119242295461091 -0.00427792611030785 -0.003057242714718233 0.0017499615573988618 -0.010116456558443357 0.002477891951552736 -0.003154999193343781 0.00371049318805348 0.019790313049426255 -0.001911369145940949 0.0034199679012615865 0.017493427787315153 -0.018739895178255965 -0.008511545304417913 0.016032828665056006 -0.0008027263322311178 0.01901396014470068 -0.0028557652809861394 -0.007965231971023296 -0.018190342527262572 -0.039061506971550766 -0.07589433145696818 0.11921785305322691 -0.010077095302409638 -0.017142009108916632 -0.009474682236370264 -0.053579682882438244 -0.0036464932240366814 -0.044457868162877924 0.05685111436614148 -0.0557496167610926 -0.03899317768497801 0.005069845187078804 -0.025544734444343728 0.043107958940695114 -0.0374998819969198 0.006448906805051295 -0.018704070904891117 0.024190350774543748 0.04099236741363427 -0.06080396969646624 -0.025041406033492124 -0.01957861831847957
century 0.24795426708315582 -0.018526506019699553 0.014796088746456364 -0.05703468125625427 0.08740333587397468 -0.051064778432504336 -0.0009719558237647781 0.007575998302553683 -0.05350427601529523 0.040346285217107626 -0.07766519562623808 0.42171932472306506 0.02906634744522404 -0.04261791372367802 -0.08491672808709984 0.021780698637432476 -0.057282884212711535 -0.13484379578064332 -0.024799441778143562 -0.1339693453435224 -0.008859207154753145 -0.02013082788498023 -0.07445072530753999 0.05456133448469907 0.187149619580393 0.08115917992905342 -0.12943189627885976 -0.13110464868640737 0.07407771673483114 0.009978666303666185 -0.22351800537174424 0.010987396044000574 -0.017975680873933093 0.033217571528167844 0.07402085000826499 0.0687148931383187 -0.09075664906817166 0.18064310120630975 -0.012013803119103354 0.20130517064491202 -0.07908623840210448 0.0614218273841651 0.10934110353106638 0.00708529858904851 -0.1158601202924598 -0.13466087057085493 0.019570833667245217 0.057158365938292974 -0.1372467241856017 -0.03426783225926605 -0.01806774104341196 0.11154376912745204 0.18348933439354592 0.14040176273490046 0.052384607103857596 0.03437015545269342 -0.09459954613992574 -0.041599772784984244 -0.056112453731233414 -0.05130027901492472 0.02707616144000997 -0.16534680071993163 -0.11119682537228642 0.07207071915233179 -0.1095936643135596 0.026637090226740445 0.09043165890639387 -0.020864142728887713 0.1581103533103483 0.07642871675087347 -0.023087442398298717 -0.026177392135905184 -0.1417101976590106 -0.03703130671553925 0.21290202321089327 0.1289356376370231 -0.08352373066853302 -0.011223526657064824 -0.011482639278088957 -0.1410305543404043 0.09221633128239998 -0.06271043062382639 -0.03968387643003721 0.01684734438028934 0.07927746251042637 -0.030363213354574377 0.029928483803692438 0.004969914785893252 -0.11822023553002535 0.0575076768233512 -0.015250819662725889 0.0022931007418815217 0.06637482772353069 -0.02640477207707864 -0.08283867886854566 -0.015037506092938364 0.09740573397279213 0.040151768532351126 0.11573632404445217 0.04794927346090468
announcement 0.24174358633594742 -0.12949917963179167 -0.1701374997946568 -0.11777469933641706 -0.06313684298406792 -0.021996824139319585 -0.08351900754596113 0.12997549503509742 -0.01039194191265403 0.15918754929546083 -0.06819736311332533 0.13323944510318034 -0.018645769233462145 0.006080485754403631 -0.0744746076424361 0.11038608948017074 0.10188478168500381 -0.10617498870511681 -0.015122253940830407 0.027147624590114598 0.11509458252443217 -0.022381895845672347 -0.1132472941532304 0.16080452255921682 -0.16805045639718869 0.1067040877373361 -0.10528350759936826 -0.10363208436435813 0.04591041724371358 -0.1533736455667419 0.053254675604470995 0.04640191760055554 0.1307804087229717 -0.21976930104112002 -0.15364782086427226 0.04254894835952309 0.10105094340847447 0.06358423987441723 0.029572285138658047 0.015144504136667073 0.022076168875669974 0.010947759024941885 0.21490169076099927 0.3402073573941487 0.1713314650895463 0.17939704656690203 0.04242873377936376 -0.17173666012918676 -0.11000899876599123 -0.00806729568498082 0.10532510741184084 0.02986950074545373 -0.11912014147882385 0.023180175176137744 -0.058161623826761016 0.08487687758707792 -0.030913300491378835 0.08338813679569745 0.1082068081668883 0.051712182823362006 0.09069555026502056 0.054175516910131394 0.07078402930684183 -0.05779797064794209 -0.04749141520992299 0.0702556636991752 0.07572967778107971 0.05693780576900679 4.7726580950846596e-05 -0.05917182560173212 -0.062105640599194746 -0.058635154439624505 0.03243175437578648 0.07647464668354223 0.07717713533391321 -0.04108100515372752 -0.003692969710590913 0.026845699822159747 0.05283727740220651 -0.07667109036529972 -0.10345072206681802 0.08555608818037909 -0.07192464580746583 -0.06777774941769148 0.0056956260214650655 0.11784425477664677 -0.11709552793566348 -0.03303008953916497 -0.05084829352879788 0.07348559246200423 0.03312223208673615 0.10002084264335137 -0.11683364129941641 -0.03899987013422454 -0.023125926028926942 0.08801691312700342 0.0432168258647256 0.011591298176333404 0.02338126368866205 -0.12336740148611415
phone 0.17834796400209332 -0.14689534934363246 -0.1603850474795544 0.5083828777008367 -0.19697074517530544 -0.10610098220730196 -0.17902473454773715 -0.14501934831552055 -0.004175028651510205 -0.21307598487628324 -0.1809805915497483 -0.016205912371637272 0.09505170694693965 -0.0103291253442895 0.019147953186680604 -0.043439250637197585 0.13050020679510513 0.031363635748139745 -0.07945313823130642 0.1099742072466532 0.0077933556649320045 -0.10948044183037967 0.09042894866446048 0.027146556706454612 0.007969004700126696 -0.024452833592601877 0.027932632630687893 -0.08281070495874245 -0.1315520480511655 -0.034596228241194536 -0.04664828070050315 0.03491347787132627 -0.02827486996799775 0.1051107499257969 -0.09180492898588663 0.02138926553160747 -0.06534836668513205 0.022344535988828833 0.06880816274777939 0.029202258910255588 -0.006750155195496681 0.06899776109163677 0.013747793784130677 -0.04615257874716814 -0.013197793913151472 0.024889236899659415 -0.002702739417159779 0.06267049270509958 -0.09748615447935305 -0.09104697349606215 -0.02032071739862757 -0.017206439461491405 0.06362567418970283 -0.1092570212098195 0.0647608657578566 -0.09458436415999426 -0.1682022039274585 0.05267350303867291 -0.003141532509578375 0.03781308450466366 0.01304915041814993 0.0011088980295514926 0.018753533955978622 -0.03212498545269351 -0.004456908451501949 0.053566440834743385 -0.07882958856243594 0.024114511938374692 -0.05112786254706866 -0.18856748443448224 0.04570811576781672 -0.08045631972211242 -0.04044646957371031 0.07634281725819266 0.011323978944655238 -0.05000321612660304 0.02260876728586871 0.008911877771295528 0.22647714725639517 -0.02334262015490597 -0.01681327968426546 0.04453498091003555 -0.09960001605638558 0.024049958181003958 -0.15384890679517144 0.07508900827288811 0.004260981469013871 0.028118413704680014 -0.04948257758097836 -0.13715143533062538 0.0898879414464375 -0.102319917219861 -0.048605950752818115 -0.05102914382738709 -0.08559253837989189 -0.010667950119987791 -0.027798646661842303 -0.20519634446444546 -0.012609288402368087 -0.013656031874239461
lobster 0.06250591522185987 0.07663956588628974 -0.06917578361476852 0.12172609804455939 -0.08166360001785597 -0.11989286118279821 0.11625365469971123 0.07793005301356802 0.04343787192987369 -0.032589515749048864 -0.19447729469999098 -0.06398942854936222 -0.019286811085452747 -0.18415024955701287 -0.32359171835791367 0.11239116424725869 -0.13723559028623264 0.00852438491816975 0.16037145161001953 0.3084035130626769 -0.20844086976495835 0.09792148077741106 -0.07167972103146016 -0.22001696043198232 0.045119367414212457 -0.0903632683394507 -0.043829445262893854 0.19206394112529868 0.04737287496830708 -0.1268791266231933 -0.22067380732897354 0.05161812942946615 0.12241942898861803 -0.03475557548469382 -0.08290235054860959 -0.30709774752619134 0.0005919683344625963 3.848408066330172e-05 0.00208973653256389 0.06717734818430968 0.0010714303055583483 0.11668227427005746 0.028540950137755632 0.02157643666388993 0.03714319185777157 -0.02031215295038688 0.029142146128139236 0.017997911729849086 0.05933392603722084 0.010603658343664144 -0.022909746600347756 0.010449625894004607 -0.045347324972514744 0.0011027234910344936 0.028047879968998678 0.019483170291794638 0.02745431616555016 0.2536618248608586 -0.007476390722875725 -0.030406689875004146 -0.030490031941796815 -0.10964503231101308 -0.02116367601644087 -0.07918513759314992 0.010971030999218142 -0.22921751186664804 0.042559532965225536 0.019645292084902143 -0.04866765302445219 -0.08542898928323378 -0.09000245431791756 -0.035715663826334294 -0.027026537002702584 0.033288701414705094 -0.014326191142722145 -0.006041631569781467 0.07931059257551182 -0.004739499839040208 0.017735259365458295 0.04232974579248055 -0.02710454809184877 -0.025671964464545644 -0.012335637279362118 0.05774903927219999 0.004017924456915912 -0.0040944515507086235 0.08150300324936335 0.05215970890444498 0.03143038667636041 -0.0016713898867322453 0.050826241453497595 -0.06213142511021561 0.01785932959578099 0.022897369207129224 0.05230783025159641 -0.14265681185353585 -0.06305084899726167 0.003501402550993456 -0.005019078303429873 -0.03755302227979722
cat 0.07392075032121963 0.018783508031010306 0.013448878597304217 0.005590286329022974 -0.008767724433496757 0.0227382337688615 -0.003917021771806622 -0.019701373775900536 0.0141452125401958 0.12359764091397545 0.06955244679504816 0.24888804012481897 0.08827233078780979 -0.01292610765139108 -0.20168482383632666 0.08216616711795402 0.14255204637072047 0.0697219890068407 -0.1890942553841176 -0.035970087409614646 0.0100654760934554 0.0790921939756193 0.10226844027363202 -0.16592280881644117 -0.023704444188466886 -0.13927616974440635 0.07334320837048146 0.013769851024088032 0.03722732896345844 0.1684250766507202 0.15271616006632924 0.04069498513895746 -0.06410417115622935 0.008894183026864197 0.052703251607071136 -0.1006236575529392 -0.002184373785012008 -0.035954685534831374 -0.01046475559809539 -0.18981756028708371 -0.015173433252508707 0.11166834114754425 -0.08418639200430471 -0.12325398511819802 0.03052022326862582 -0.0805211533735323 -0.015343676178619075 0.067940768997642 0.05278717880841811 0.10374146924131385 -0.021482884213619866 0.17988934953459576 0.04623253824479989 0.014230294272004198 0.003464480586351831 -0.062224209988564455 -0.06936028406781124 0.1161933160843471 -0.15158516105070907 -0.1498891695199446 -0.10649864646095197 -0.10992046232305541 -0.014384214867514919 0.13442774350805886 0.03568115744383831 -0.012397450147061449 0.02797820005195054 0.09454202717872338 0.23060685593217217 -0.12387225935834684 0.17443587103941804 0.2066463259752629 0.15966722497706362 0.20445657164716435 0.03990913190837312 -0.0419927571941965 0.014867129291786386 -0.15311162857213506 -0.03974504572535562 0.08613034540385289 0.0022933775001134824 0.10612315215869152 -0.06722620168217118 0.01620678196069394 0.15345037088465585 0.10807610732177637 0.06931005267487446 0.11792681569248324 -0.09046548742862101 -0.07633880274423603 -0.11315139302320144 0.06495151444334063 -0.03233646701880415 0.009332153839434117 0.05505937001925601 0.07770697933119525 -0.07180289160136426 0.04908164391136304 -0.060241309994632175 0.17357074492151323
radio 0.10826811918552592 -0.035138527154870744 0.08572978282254537 0.022299276613758728 -0.05896157995452076 0.08399255227802613 -0.025126970386655973 0.08994427992903263 0.24702704276603346 0.14671467639253688 0.141359185690955 0.2050727751861982 -0.12014605515703786 -0.2090320293955051 -0.00312182433559631 -0.26310012888404183 0.038619406188403864 0.12686907421879282 -0.007432754388238166 0.2502810556293374 0.19347436135582088 0.22941831893900924 0.1911371486805309 0.1169476274002001 0.022166530712309018 -0.3196816320793238 0.10795931285447655 0.014320363408501565 -0.2506239578075025 0.03316124441216567 0.05111224129425423 0.05445647972565923 -0.08225782055515996 -0.19543493531071185 0.28383809654756553 -0.058020137200800036 0.09912685861224695 -0.01498009693242461 0.02249754931222566 0.06179817447655263 0.01297747684371051 0.16809385919011657 -0.006944397009867221 -0.028213595946516967 0.0015648004915112942 -0.009127054899642174 -0.022940958186105573 0.04785034688921414 0.02316385932921807 0.03319564346810309 0.023803854423642957 0.04946964233276749 -0.01185097415584709 0.005952787771147085 -0.0054243242937842785 0.028564524066745225 -0.054132703639533486 0.024521154824537626 -0.03853123884625939 -0.014747914145306743 -0.04759561955378695 -0.027367947578987844 -0.0377110265604345 0.05120830640318876 0.02425414083916188 0.09081775951480198 0.058679360234311584 0.00037105883717269647 0.05524550133469211 -0.030900126192945448 -0.0019297977457305023 0.09525568932190086 0.10434504438621436 0.07918446625140438 0.10813604374305365 -0.018157032119022944 0.08160654700890546 -0.004465628301561366 0.02995692122060862 -0.016062442732491765 0.01489476317997272 0.040733345273828034 0.06165424404050309 -0.022726801585561972 -0.011703174410089907 0.058844890234240346 -0.08489453010355345 0.00725188052020372 -0.007446981020793693 -0.001019365910424289 0.01398968855946172 0.025117211570970324 -0.06223309267049753 0.019199930902496515 0.06816083529535918 -5.6141390816191926e-05 -0.012138396981718935 -0.024817183007562582 -0.0035974262774801508 0.003701236077933021
cucumber 0.136689407292757 0.009778791913138182 0.20184502017529654 0.005748097536938843 -0.15593371944827464 0.06737289230899267 -0.10070241421179611 0.21875780716179385 0.30868329008289946 0.028194767287051822 0.15678840071527333 0.08857530143754155 -0.21075405402459368 -0.13462152356234286 0.0189104327787462 -0.25306276437684266 -0.0344137935615563 0.08959739180287836 -0.06153446684407189 0.17995710698818465 0.10055800133273303 0.03159917228905803 0.15518247985114703 0.05596002915181534 0.03675763949423579 0.14700048315441694 0.021655397129173436 0.04400194973909704 -0.10481504285211922 -0.09299101862426469 -0.05351585678689063 0.04677446346277144 -0.09014236199497035 0.001986905793700705 -0.07461321107775784 -0.08604036991896578 -0.1665664212607355 0.10697284188822853 -0.05162230564269387 -0.0767609038765007 -0.0329722845519707 -0.06321285308947855 -0.04382874184080714 0.024733613118269656 0.012976677380743302 0.06645381392196924 0.1055328603259829 -0.05256419766744601 -0.06735797794291072 -0.02144061029331265 -0.11599004159319534 0.013329636513888419 0.09655421870266258 0.06015121235388279 -0.014344044322356354 0.06630578320297384 0.06315334658652652 -0.1291122585950655 0.00646568179137552 -0.16762348877792718 0.02561512312410217 -0.026011334626842155 0.12700181748575143 -0.023805943155283053 0.017929714908192663 -0.012071964886685617 -0.10309962189891542 0.10189832831903724 0.08531165444517168 0.0424222632041272 -0.08702465581913017 -0.11765637431923753 -0.06767050567774521 0.05277390275207825 -0.17591396774812307 0.035280168669108034 -0.06431959555931305 -0.15518687689806723 -0.019162554533123984 0.03448450218247261 -0.0503758950326589 0.04128160098949127 -0.08226821441993312 0.034288106105077605 0.003720020441160942 0.10647279444573929 0.06851920287517001 0.001391365257955279 0.07902817271086807 0.04426380143011406 -0.052568829247695195 0.022145648431188728 0.22554418942326498 0.036398180106672916 0.04166819131068641 0.19361020226899586 0.0501332811530495 -0.04863184621652195 -0.011013549610209667 -0.0950577980713151
student 0.20090939295656285 -0.12559650150845272 0.12031698197039695 -0.05120880670288544 0.07038979717978977 0.2113647623412997 -0.0299602790242197 0.21122026883402592 0.3045208523343197 -0.08221374086022079 -0.02743265181534439 -0.17472259952615551 0.10927015596158932 -0.10076369930630706 -0.016144018335239315 -0.10002465168612075 0.17025154477984505 0.02360241361788685 0.029291752983763072 -0.05322342753615966 0.02865124467169896 -0.029152814669101388 -0.08422605674792251 -0.03361466986989328 0.15083813972666932 -0.10964829885739064 -0.168981141785094 0.003962687049118399 0.08896822679884901 0.09804358625381936 -0.08846807753723741 0.01744699388782857 0.06829821009907253 0.15150244908932262 -0.09555346979695094 0.08688458592482885 0.11633394125419433 -0.02870340652743695 -0.16662187717725224 -0.04937201841178284 -0.15617869096020465 -0.11279390220805728 -0.11956314337368358 0.02517872105202641 -0.07553436230865304 -0.11015139592960574 0.11736038650928066 -0.24405256721843163 -0.05846661516827324 -0.10469212816077689 -0.0992194145556552 -0.011459249100171397 0.0495575724986063 -0.0845289300822615 0.07597497021370486 -0.0397559632552044 0.11486568524515708 0.07767442442163752 0.1103385169452017 0.05239334026124427 0.12430040880302647 -0.0545050020198314 -0.0373469545953576 -0.005761394897367646 -0.0242222887388361 0.030674436306769446 -0.040477209791332534 -0.12468788152772202 -0.1091750435108847 -0.003357551528266893 0.010923501931968928 0.14282251934192755 -0.17698861928721937 0.10211587709339084 0.005426087004760526 -0.019117576194823686 -0.022051643463060364 -0.17686121345478825 0.09924432092612362 0.013512921132372263 0.04040907545597739 -0.002550270208794612 -0.06694534456335338 -0.012150989758057345 0.05585425380795972 0.06789155157623986 0.025457058793551122 0.10464350513160246 -0.05459724759149614 -0.07858228483228 -0.035484447364264995 0.05217575285410461 0.010709091585444256 -0.02000804579209611 0.09157587232790569 0.012076776924456231 -0.08205816809487754 0.09365928641635879 -0.03445389711233174 0.09695324685986158
smart 0.20276449519759784 -0.1271048147383284 0.11687066699426325 -0.06007729684220557 0.04724669285980989 0.22827439108366854 -0.010645851017730718 0.19466625252836436 0.3024213885142902 -0.12867183168038185 -0.036276622871805046 -0.19777190401530706 0.14369055455751412 -0.09197628813838463 -0.028957311248474442 -0.06791791295313893 0.13697234127641 0.024664659471891053 -0.001918667166343501 -0.117476548941663 -0.020552136978403697 -0.038681368394115644 -0.1398654096133209 -0.033674269543940406 0.12803646101922656 -0.10680220005927502 -0.16495078071878833 -0.030906614224321553 0.15725783377680305 0.10474973449662912 -0.052110671683797766 -0.006859055485554597 0.05600628508931678 0.14863058481510705 -0.07103334002999243 0.024760856909841332 0.14591118301384506 -0.07157721339333903 -0.24379546199504779 -0.035576731918088106 -0.1561930371904405 -0.03473310151998667 0.016901834737668386 -0.003817824493125054 -0.04185567419289889 -0.04468937090490957 0.07989936967746246 -0.22721307602089127 -0.03212063199658534 -0.06814454611285743 -0.06717415716481631 -0.015419647786527572 0.008111942127512243 -0.07707606106224599 0.12994535264470078 -0.04304859859329186 0.11722254274363622 0.08765029446914543 -0.06338224408787983 0.07503488136201446 0.04240993612540349 0.026839682020898422 0.013840212946100897 -0.028975124222317614 -0.10609560335310157 0.09431139789602042 -0.10994389386151725 0.06608927969644773 0.03287515047504494 -0.09030762591631088 0.07641170739869593 -0.08822125810013719 -0.005428856138325892 0.023032454184063602 -0.08108804278613553 0.05962415347964871 -0.12710625230884537 0.061765658283533496 -0.007893806572917737 0.011755264407412253 -0.12805620599204443 0.025536823493261585 -0.003081491066943682 0.0496378849837991 0.174754089063984 -0.0862932650609953 0.012937031455283366 0.040796835462539045 0.031193810946878956 -0.10858429189578868 -0.08627014677967508 0.08030486422470769 -0.008551132332923967 0.09231541881900411 0.10494550033970695 0.04033776613250653 -0.11233465671324191 0.011787876195947332 0.08580613520779874 0.08220205133786271
sex 0.11918065070099094 -0.036576461082936926 0.024610118762917063 0.028367311746505253 -0.24786448670797492 0.26340521873571493 0.027563556586550263 0.0207526178322005 -0.1313551785307054 -0.2296567631878772 -0.12921688974534018 0.09000095060289644 -0.05052326388030012 0.15342097767017404 0.09704245579434863 0.13543136818723933 -0.04180247397073452 -0.03431532635366771 -0.029987626726215293 0.060623320821528784 -0.10372898808130956 -0.06065447870776334 0.1717970929358505 0.02803912050326787 -0.1090971441337218 -0.18466668718810056 0.05113602271302235 -0.09303682289509911 -0.2482477799579029 -0.018082931603943215 -0.018333777569787824 0.1386976267998461 0.073673231543206 0.12295618000229715 -0.022568481094762602 -0.05591964797357415 -0.08471583280113504 0.11682853348912921 -0.020137905695722436 -0.009473070453595508 0.01258579545021613 -0.11292335066237616 0.00425446316702614 -0.06710648336761536 0.007221544642886329 -0.0036583552071243154 -0.031234167032221732 0.08801707915564956 -0.05465891059993865 -0.046191367291941385 -0.04955229751970352 -0.052963718069299295 0.009949780170438623 -0.07901967069720806 -0.08050992086134455 0.0015970930158512044 0.0716927436141347 0.04715154428124119 0.2471435626040641 -0.08574298758311602 0.09348929527409332 -0.14854762740354055 0.06640857496422396 0.09567235524350488 -0.0320866002581321 0.03271113487249102 -0.058081543424295216 -0.1942676854297283 -0.07631128757834482 -0.08690217553226695 0.018818308131890598 0.07481776373503231 0.2042859033345018 -0.019645535552239777 0.02424754570367057 -0.06938271784505451 0.06460785782991085 0.07972532064227288 -0.1399496837361332 -0.21449014486464724 -0.1362254308793323 -0.07680121192555345 0.04007009127618243 0.06098761456755887 0.20281742744776382 -0.00033630254988574216 0.022492807805248313 -0.06227101239677592 0.046381461893084924 -0.013224238244811557 -0.07022312446776292 -0.05221684286199389 0.00211668611604386 0.04798257006666584 -0.04301428790508091 0.059806865848902616 -0.003080580878830495 0.06669148470998229 0.05332201734239047 -0.09877671774746788
chemistry 0.14705814943386164 -0.07869438764421824 0.07400854701132566 0.08357420431839774 -0.120008045494434 0.32378165503487427 0.24015891234054493 -0.2216950999269688 -0.22250331939432857 0.10003506511288206 0.15664040685534147 -0.14912187431740356 0.06990554886520685 -0.11797412546985889 -0.20795148799129548 -0.0733589905989004 -0.06994786544113142 -0.03694889354454611 0.046392264253538394 0.0006257147439356709 0.09920609030470855 0.0978423430291716 0.019426873852700016 0.1152531448457505 0.038058612425436046 0.2089349576269694 0.07102061358762254 -0.05172562193867137 0.02694269758553387 -0.02380783381801767 0.021712240586236647 -0.052935842386936174 -0.032044602835106566 0.08084583949013784 -0.06336179252177722 0.035281257142312915 -0.025276911031507924 -0.09344499326827387 0.15062288927054743 0.030388217970425964 0.03651404111277743 0.13491855984600187 -0.04639882355723659 -0.0645933736736615 0.07115883811745133 0.051438593678150166 0.04183291875185243 0.056640103864007564 -0.031196568464087672 -0.08060556894533553 0.07124260358017569 0.012290988889866275 -0.15038308052017743 -0.020860985812152066 0.05923135588982807 0.0822753795838817 -0.07384774102829522 -0.00035276017685701946 -0.18589563144787702 -0.14820191104741193 0.15888033517062264 0.020663141125852946 -0.12379621552598989 -0.17194642210513977 0.07333322420831459 -0.09414594615550607 -0.014830844555064868 -0.07283925258045593 0.03036936478360879 0.18756701969373063 -0.04376667389905511 0.09065682086443569 -0.12476772196912844 0.0048534269632293 0.0025296847654613084 -0.033616829197622676 -0.10564445049639107 -0.032706273171280456 0.1464612706370916 -0.031944215870274725 -0.025068832599065113 -0.026154363328627694 -0.19241705742222692 0.01732761040655475 -0.023698108471645243 0.06333663547209432 0.02211468459432539 0.02188108095999114 0.07121579392941678 0.030047013568031487 -0.037607297556957964 0.022879702843080902 -0.10895890328098261 -0.004148801312678804 0.0968060734129919 -0.0003924873904798038 0.015918003455693847 0.07514957399389108 0.011202040365160926 0.036886007749427276
vodka 0.10538469778396599 0.00807658291307509 0.12043282911952452 0.02822140829658256 -0.21736268026017588 0.2958230247037162 0.20303026287845025 -0.24585398836305933 -0.3055042809885034 0.1674833033006414 0.010399334251418821 -0.06252200564776268 -0.04533085831285627 -0.08383638533111726 -0.09592054633378644 -0.1523529562571349 0.195236309425106 -0.04375854263578221 0.16328897510885526 0.1097740669681474 0.18806453776140913 -0.09603345605194417 -0.001915645566434029 0.024313105798434462 0.1441474214632893 0.09343925605008854 -0.09156201842448021 0.1523595404540306 0.22947299345274677 -0.08358160195355728 0.08245139399670816 -0.06337094307858482 -0.07307983333471775 0.15116191877804566 0.00025540787639108376 -0.010646863004871943 0.0076577771426685395 -0.10087541210092835 0.015470717208408332 0.023316064605139356 -0.03885256424169102 0.23620381262038773 -0.014783110285682665 -0.015632378834529295 0.13282567815645485 0.0465328309672549 0.09814925821936436 0.024885196176799095 -0.011480604583290492 0.04583261828207693 -0.039343114722051827 -0.01787713420423064 0.016447158311174995 0.00758912476485907 0.05370287027931078 -0.0902632847133648 -0.003526877190706214 -0.16905560349375354 -0.11389037540827288 0.09789650872645445 -0.040066728031212605 0.10336091618873337 -0.1115468697662711 -0.08922053134841766 -0.047726840045130656 0.09576854791851083 -0.020869085064746766 0.03135275750764938 -0.03477243436004216 -0.04007704083778092 -0.15648198490739929 0.027233480483496438 -0.00402744632034034 0.01157812854796457 0.015726422286598638 0.045522615259677726 0.043617610076953486 -0.08064170586714321 -0.03935016590040606 -0.06101025579304496 -0.030763978482085164 0.014811301900527114 0.035955591021397476 -0.020615768626002125 -0.017362538981285158 0.04538896913905215 0.05684719532102357 0.02774004252056638 -0.0339467450510447 0.05498685075265829 0.022250804772832398 0.01689022084698959 -0.07884148137616061 -0.03485104328097321 -0.04847423717583547 -0.018022794119449428 0.02134220889332327 -0.0642395828599998 0.02495564683074338 0.04120571104697816
voyage 0.19670628646835647 0.15497927889385005 0.35573425900825345 -0.0357308481066574 -0.2127452863647301 -0.18679407844184034 -0.06611255002812107 -0.03250780495992652 -0.017475906868273626 0.101376153874587 0.09739589169194732 -0.07501884506905292 -0.04156622626368858 0.048744875495663365 0.0169591436666455 -0.21050824905315044 0.06633246466200761 -0.008438626063864686 -0.02188083020148121 -0.00030994322656375915 -0.2099932597477191 -0.19228272526889426 -0.022030231454848035 -0.11554105280218603 -0.09820153857815653 0.12628284691141775 0.010368648177763198 -0.04395437459038917 0.009688596531255526 0.023998622146024304 -0.026430394866363345 0.07133348186110136 0.015559809966778033 -0.15680010573159484 0.017040780147933032 0.014638761094650576 0.007957362738564148 0.08380381613399403 -0.05899864312241764 -0.005156953084349726 0.046265939379480134 -0.08132403038907032 0.014580268175758178 0.07269072210240887 -0.05244321938586632 -0.21969475393866245 -0.14295706184915274 -0.04437826500595691 -0.044075891001729116 0.017424750258332553 0.0070394254279960685 -0.013761154529640328 0.007588154329911395 -0.002264486656514586 -0.09934523579542898 0.012114267707683998 -0.022509066097614862 0.12287750192495409 -0.11879506393447042 0.016916962153949496 -0.03115649096686487 -0.016919131858885748 0.1763001303701815 -0.13407439168468502 -0.16964250713966583 -0.011350025324589076 -0.11515366082734455 -0.0070995282232062945 -0.08801561967930058 0.08108736590149888 0.11367324441829312 -0.038416617760086647 0.05068282923315535 0.06647508102927908 0.0066228515744155645 0.10485242494119272 0.024006972953298462 -0.0957327448785904 0.09989424657497427 -0.021169907268528448 -0.06494170840284198 -0.0835865589891248 -0.09597541312325115 0.07239529364441348 -0.052216050763657276 0.06583852000300296 -0.04941362846686247 -0.0362285057604236 0.08184226759862524 0.05645698439167465 0.010884222076381551 0.12088093550001647 0.2498360778038597 0.09623969418825856 0.15095908011066078 0.12359641965573388 -0.0739834666214064 0.10493450633923006 0.007760370874628316 -0.05048536818240046
shore 0.2047995003737069 0.14929245400071547 0.2074438334496242 -0.06641286162645887 -0.10736143210714215 -0.1600832904724189 -0.03604156110038308 -0.0972669148757483 -0.08729450234059194 0.0917238612701311 -0.047840626035241585 0.04025275887369701 0.13397958303778693 -0.06190353430950536 0.14308417056887143 -0.037783103493554696 -0.05253349068212555 0.000685362468428068 0.048670635629119455 -0.13438365954702874 -0.051750009685790736 0.006419221282561972 -0.14977507869287893 0.002188770393283201 0.04367419876729433 -0.0910639527578849 -0.07270858139836693 -0.005448898658363725 -0.16965104270814405 0.19376754123543133 -0.18994673787893068 -0.010742594167743069 -0.022995835991753834 -0.033837462975705064 -0.08791382170939205 0.07825411858705374 -0.05015635610615261 -0.01567163509190708 0.021620671162226 -0.05324405518342519 -0.01606884537429699 0.11983750388398134 -0.09465301675814117 0.012199060986209076 -0.09855227606741276 0.2838850599790872 0.022693631714456437 -0.03334176416262081 0.2878858531411055 -0.13368101131913493 0.03595298463444968 0.08103584083275628 -0.12616993738035548 -0.08282152046785879 0.05871351098331716 0.15052625772571832 -0.11545768876111814 0.07625693255331512 0.03469143479033675 0.15057339109857762 0.11985200909094201 -0.10546667200628955 0.03496987467838529 0.06406679278025502 0.0008338982990748981 -0.08776800184871195 0.031891639765168504 -0.017678498953635487 0.019736879155738202 -0.06672102855389955 -0.039442102580113596 0.07320135940124081 0.09047012781755795 0.008089395304339903 -0.09140441524708973 -0.0473068672096771 -0.1184840381060788 -0.08400415002039482 0.1492047487838783 0.05542146615708068 0.1017313797301354 0.04887850912619854 0.13977248154636854 0.03401437472944828 0.13353844947694543 -0.09271359278497594 -0.08556277011942336 0.018114290874934044 0.11140730974982918 0.014266771562406556 -0.11901986885461509 0.017272243109278284 0.0038217900390388024 -0.10291437707291483 -0.06891161364164237 0.13148659997306053 0.041764680718548775 -0.1028453415454569 0.10474013868016441 -0.07240734855886895
magician 0.20209618771976687 0.2976156519868762 0.10995193741086438 -0.05785247696576893 -0.03624437398601595 -0.13275150297504607 -0.1666975948827721 -0.03317037134904951 -0.09055845296108349 -0.0689310150057151 0.08999296375606614 -0.05154813833862921 0.12454598036930223 -0.10497109463117706 0.06768163843278158 0.09214847099828179 -0.09623492463554499 -0.026291440476316028 0.13848377661328062 -0.15665548758207004 0.2620162570631275 0.048578777540783956 -0.06671048089309325 -0.08305726793315021 0.047715701374609835 -0.08487033249569381 0.10397981303344248 -0.0212921151496095 -0.15609282800679755 -0.0024426302485891097 -0.05777485715738876 0.11487039796034594 0.04327970420169342 0.0074413502171295455 -0.19065759844948205 -0.05282665781852418 0.08664843533107311 0.020278056081980352 -0.11203749966183305 -0.09054904753744884 0.2664163355865907 0.14893317809317114 0.04942934448146072 0.03954495046396478 0.03507845442281264 -0.17814961657651374 0.13623331218004808 0.07264799421613191 -0.20003995153095921 0.1372333096421062 -0.036329842003789546 -0.1029314298246351 0.04227653084273634 0.011447014261238347 -0.053588455518665444 -0.02603923458148081 0.021766934103241285 -0.12304682732329303 -0.011595745035504132 0.008041904987026423 0.01079372164252087 0.07734708444435852 -0.04480922399007362 -0.10742451538292107 -0.04674861367093991 0.05645641617873939 -0.13365375565420468 0.022683366266708874 0.10186046184252529 0.017083758845512213 0.04803460087362127 0.0038909919653237505 -0.021010048227634838 0.10652689310275416 -0.0817679149671917 -0.1312239170114032 0.04777737511712234 -0.10303597223827556 0.058595382732620035 0.005381905844031013 0.09153207709646098 -0.011526810482713545 0.013546119133398768 0.10919855111865051 -0.005305804620834963 -0.08944208045770664 0.10658958331952002 -0.051115384821830825 0.1697134606896312 0.0726474820420347 -0.0068631113797735085 0.06355588557923432 -0.09050783509530581 -0.11332481374229235 -0.061694092578710794 0.013693634460435014 0.011114772960336698 0.10760321921429912 0.06278890925675967 -0.025846489095407883
wizard 0.21020976185960502 0.2106690998514551 0.3095678815876154 -0.010340555698779041 -0.18803918250152277 -0.29413140423350403 -0.10018083893220767 0.007727289822030254 -0.02455591117861973 0.022202741471453142 0.14872300730518265 -0.12701858970420482 0.04054716447758901 0.1215349472269265 -0.06389972759229237 0.11960300704010579 -0.08500726290480727 -0.10267486886390725 0.05188004846036258 -0.08274174938731713 0.07093002445618105 -0.04687565966289582 0.10937501246799891 -0.05289480801205471 -0.022306258427444842 -0.03949194376729973 -0.032824060255881124 -0.04274903095432461 -0.11965281477076233 0.21965541906706132 -0.11275736298619334 0.027970628770338644 0.09136228001774385 -0.029957871569621975 -0.0414090554764483 0.13899595537419412 0.20738924457137795 -0.16532869221834542 -0.04167084089621563 0.0775616651356884 0.03799923544076715 0.15991059743962355 0.07977227115795313 -0.020298766751434123 0.08004386404575811 -0.10788750055659126 -0.07828351079211589 0.03325179617666125 -0.1481525895805291 0.05945247862642071 0.07055444813899563 -0.0010330894851164178 -0.06087444890214389 -0.00710179197403947 0.0036165922183530375 -0.05214836318800669 0.039387109495628236 -0.08397076491810007 0.1356078599747692 -0.06841783611993014 -0.07624362278404483 0.164687785116651 -0.23054865780818778 -0.06415547128288819 -0.0019053073439034163 -0.03198842666660963 0.02599212117166925 0.028642845206642044 0.027865904494821542 -0.08441391976389968 -0.12412565481457505 0.13738538745802686 -0.013547065684945148 -0.006995759326332508 0.021795354349463694 -0.09427203474145508 0.029478127275037028 0.05213276019163905 0.006277393634717859 -0.008104058077470873 0.051053706942462966 -0.03899843199865886 -0.06893392568795889 0.055363919570681465 0.024068288726659327 -0.08423513175664099 0.02032165622401879 0.02801301337161722 0.07303829112867065 -0.07206818997117091 -0.014877546168023972 -0.11757523888872655 -0.13953250179657498 -0.09129133590402505 0.008074879622662172 -0.0749173165155807 0.07541472171361811 -0.009453886556930767 -0.027454008761067388 0.0968600219278202
noon 0.18720777468457067 0.20015644576659877 0.332298543147379 0.0023323277674782597 -0.26066748091743125 -0.24523668173783156 -0.14105230593562207 0.09762767589487359 0.11512841210185963 0.014184651149289126 0.19016112295777385 -0.15692466051414014 -0.06768687998745276 0.06658184509160109 -0.09875683037223956 0.07781824694228555 -0.14637123465486837 -0.09822309493708341 0.04265013060687143 -0.07999229200099886 0.15081535251996658 -0.08938904952799376 0.1426080472129871 -0.026312539923768363 -0.04297475986941441 0.10913490543350281 -0.046932325148049306 0.0003267254344698512 -0.04505910078535104 0.03198053026037801 -0.05185567643568749 -0.0118718472209441 -0.08666833980563417 0.01974306190417986 -0.02557089247493347 -0.008298873171860328 -0.05925528067286856 0.07575267664955367 0.026001305319876607 -0.06877662776419553 0.01973580834502219 0.09827408016254555 0.056790561627252996 0.03576016919905801 0.09744918800915148 -0.21015268746769383 -0.24529543822298364 -0.06304347251689477 0.1150148634543555 -0.09089580997310934 0.11689813386366463 -0.01001075523586724 -0.17523116106732564 -0.12639116817140583 0.0441651076806967 -0.027440921333926147 -0.08076909526156195 -0.02532646043209936 -0.13752563456049358 0.1894310895401602 0.045281658560781514 -0.04559611027058899 -0.02592532895082533 0.0016653418563235929 -0.06446411791259893 0.04766218671823965 0.010855386402447155 -0.05720256721758531 -0.12751947006991568 -0.058835233670454144 -0.05014647694393995 0.11000979846174941 0.0632371519207147 0.032315971623628016 -0.019287437174860235 0.05801113916524151 -0.0035847751001475275 -0.09384380829212667 -0.08559317359067653 -0.04810234111049517 0.043641380613949225 0.06589550075418431 0.09216864091279789 -0.0099007426530063 0.05937126195306783 0.027069215797562406 -0.04720018587019204 -0.0070361059078475644 0.016299273422549602 0.03259289389639702 0.02472641942531357 0.05337591946769117 0.09339300510721069 0.012242718628752796 -0.0781208096842455 -0.08000059000444061 -0.03238502462790996 -0.09202220776470625 0.09603144469784186 -0.016321178932638347
bird 0.11788092723286245 0.11409453070869423 0.11640554453659074 0.06555930109369237 -0.18840572047148701 -0.18300694771751225 -0.06289674600755124 0.04743232583357771 0.10284811717834047 0.015487666815170695 0.05047827468171565 -0.16085604923498026 -0.018994146619522454 0.07379671246343185 -0.1787464852864729 0.2861704844575861 -0.13702418240667677 -0.14642997065596153 0.07854167968232939 -0.0843109126549756 0.26806360305004884 0.03648315264823895 0.02056918734967442 0.1595423322583854 0.01312193860512273 -0.18676323098558542 -0.09086604485146821 0.03180484504779901 0.14265203843816532 -0.1855563416727156 0.2597300484969597 -0.2025149970017844 -0.12411795312799953 0.13696384939596437 0.2706424422478618 -0.08771949101539693 -0.12736957421812314 0.058076822264636535 -0.015026349139665544 0.10238709868956736 0.03271603778077966 -0.292368880333985 0.03837103958612064 0.01074851272283552 -0.11503795183172492 -0.055524981221856104 -0.015292381236525538 0.01606003580383912 -0.08247811259034131 0.03402725540775667 0.03104758384031469 0.038746837858403244 -0.03587627905546907 -0.014973321017893827 0.0182553437802891 -0.029423249523240425 0.05125399380959749 0.0851410480815146 0.06737930305006723 -0.07643289836778916 -0.045351968041990764 0.07651108391512015 -0.15424766781783128 -0.02502857315924547 0.003091339668035477 -0.01484339829451996 0.02918551642068414 0.05260206853740328 0.038818832344674724 -0.05909575539489251 0.05102272326068245 0.0015684746505515179 -0.027329143919188958 0.02075726663481613 -0.038605746809059906 -0.05140326651849683 0.05924421568790109 -0.0030253649387289925 0.05871234282541411 -0.08903780903367299 0.003954324717002069 -0.04698014851219514 0.018659702231830222 0.03536381089261706 -0.005551382799080486 -0.0611009771596155 -0.012952091923182966 0.016116397388228437 0.006130820915116836 0.0059134400739839 0.008082310594805988 0.009367090729708762 0.03897309393245131 0.03893313390817244 0.008476699633415047 -0.0034939112211749015 -0.016852176504045132 0.01802956840279721 -0.03598703295606724 0.004290837912287851
crane 0.1553118479075194 0.06776916786311729 -0.05931810512381134 0.021468869764391912 -0.13015403354240213 -0.039661805838829264 0.026335626809851624 -0.0007425467582362159 0.177388554519802 0.16798434327940234 -0.13403924699235795 -0.13220113593566307 -0.06598679007268167 0.1267722892128307 -0.03271484454124464 0.1754355587934195 0.005270114848976815 -0.12532857418078264 -0.017253896823356714 -0.08088969563576281 0.16678741342029219 0.03656464592870974 -0.036550392662146464 0.17550129678209778 -0.02499015845475265 -0.05171451194426851 0.008738330467113704 -0.03515454298497843 0.16891408821814452 -0.2204702512675308 0.19266890766154376 0.11297141592695202 0.08519130921155492 -0.061579172717227966 0.0870475273812257 -0.024164410154112605 -0.06017653844477783 -0.06909138500917147 0.0031858766216154425 0.017614132973193884 -0.027614919772476862 -0.1111787395126815 0.06498312751088987 -0.16851930869043305 -0.17104493399078066 -0.03757199461874154 -0.0015146004695497648 -0.04781508908207955 0.1598121344463432 -0.037772581433552346 -0.03984832874878717 0.15592398441321284 -0.006890028594667664 0.02006664613911774 -0.016253424355723516 0.10916375117364557 -0.026254530258569487 0.07776022973127336 -0.06926620499932556 0.024866642585272727 -0.007453594917678217 -0.09210821106620413 -0.12130700447560554 0.0484226902103335 0.1722863571009767 -0.0715338837988062 -0.04689211829816674 -0.15684297769127878 -0.13926653816397816 -0.04546770022458674 0.010526864014768395 -0.20098000559168153 0.08653062929184531 -0.0522187021580977 -0.01821029024989338 0.20892026921575335 -0.031427898113745814 0.017792022315584063 0.09488400143041 0.0012976318115547221 -0.025509254435584383 0.015036655028424838 0.10997978693659757 -0.14662517198062575 0.003775053845759225 0.06878306275304907 -0.07263962808736452 0.06865527226829217 -0.12367910199223074 0.16848628464843304 0.07789205919269351 0.2045241472511813 -0.05754553249190331 -0.03157392608009755 -0.058785522160042826 0.14114122914851854 -0.08397474634454134 0.10559941347806534 0.006248265942666734 0.023137567404852403
rooster 0.1504164252820532 0.11462074596796337 0.2190298230946584 0.03492664352880893 -0.2078627721347586 -0.16980965118880229 -0.08658386691130938 0.07660283835335624 0.10415705903748705 0.0018092900511769414 0.10148272120485528 -0.0990394492951068 -0.07430449582586304 0.1057911027127034 -0.1051880708767835 0.07281279556838552 -0.03705569372594651 -0.056375029819839946 -0.026603457051712586 -0.0231207335023473 -0.023324513536236876 -0.09462253258107509 0.16189348371747345 0.03731016143206186 -0.08329901154913773 0.2236533289814384 0.0581976932744192 0.04120263452250999 0.20038116272906728 0.028476522986497808 0.12873732172500305 0.02639118170003505 0.015551200678103146 -0.03177631516537289 0.236867259093377 -0.027101261552918546 0.08153594385425438 -0.01255258473238255 -0.012320534474640947 0.1346479949815657 -0.049227721973007295 -0.09471490159680014 -0.0763547071602731 0.0822651578682071 -0.13152979907582377 0.10969749584556461 0.07870751674983059 -0.007010483018033736 0.08471318265965308 0.01911192471856634 -0.0925987667648377 -0.04414923952126942 0.1288477760032946 0.040218985048472065 -0.0659525121629139 -0.016586249838345377 -0.020416173616792634 0.12190759568031383 -0.20777565750018967 0.04507646243032424 0.08736820787115841 -0.16737710691368185 0.3580594542357501 -0.047413750039640414 -0.13248423471016466 -0.04737322225818265 -0.0803274251460993 0.02336227250655441 -0.026591094983779207 0.1464454678248983 0.028931139939153024 0.008757334887560812 -0.010239928092548704 0.06791901803431266 -0.00772716411127112 0.07015261655277928 -0.018910763069646352 -0.06451918465145635 0.07344097396968406 -0.18976529758642832 -0.0622411277133632 0.040109955205059625 -0.04671734491104007 0.008110506887706282 -0.04231785695230087 0.038093822891952484 0.007168127212971602 -0.07464288190787514 0.08301456507671323 -0.004269049504929513 -0.007416302979577807 -0.15930368655456642 -0.08655851136398347 -0.026880980081084072 -0.031400512134705995 -0.01686883999241401 0.09976667925570933 -0.12052239525236302 -0.06057696796911261 -0.011271981092003787
year 0.21601280996274969 -0.10984966766434891 0.02915405785545512 -0.010724001385465 0.2094150355626304 0.01916911382563262 0.022935029541792572 0.06355047770148202 -0.026655694127027632 0.061227244672856194 0.030108940989785886 0.20220040857794086 -0.04277031259625108 -0.03285739892950063 -0.13555192693009693 0.1621114464459781 0.05954583517152939 -0.08936372543728709 -0.10535291231188981 -0.034364188326465435 0.08198467301654487 -0.24562061737980065 -0.08125325286077845 -0.02223053173278146 -0.06565102689794529 0.057462978532376106 -0.015059769935941806 0.18336876426368753 -0.15376749588637129 -0.16096985359794816 -0.08128169294276666 -0.044162022516893766 -0.0208772699146884 -0.08627528761327906 -0.06371714356142731 0.09609426521941965 -0.03966553772854664 0.03353932881490891 -0.1329344649494469 0.19210448104470298 -0.050897913371291965 0.01925191498026234 0.2114190170090798 0.15658836598987957 -0.033342757455253044 0.12583808828956622 -0.061895797506770676 -0.004604010367903331 -0.15931137713381277 -0.13415284421279172 -0.15391709723831395 -0.007605557787206661 0.021958950342601296 0.12374506355279191 0.0058639702984539365 -0.03994492542643501 -0.14662548633656927 -0.0076191734460225695 -0.013783905973583945 0.014998937023469116 -0.033170807975001645 -0.11455887234085202 -0.12215465404088645 -0.07402397200722709 0.11228881907527065 0.09228811610828795 0.0010805139074904074 -0.09005687874879424 -0.009439799133062438 0.1440476738797638 0.051848049988365424 0.09098832435135938 0.12350599980262446 -0.1103901118536886 -0.04216715242473565 0.07848153160999442 0.09698716632948741 -0.12151587040527692 0.018442170929785007 -0.081321376793397 0.09544064776022479 0.06978577738433286 0.030446376422256474 -0.0011780172696310815 0.06822682868491589 -0.15534927226589576 -0.05891184299888108 0.0018958050868902638 0.005109467971372415 0.03502092136161812 -0.15092024625456843 0.04849739845463875 -0.039672528738726676 0.07687253331477648 0.10688987312894169 -0.03253453567893207 -0.09211722662148543 -0.1863907337838199 -0.14171632400943904 -0.056762890478918256
profit 0.17662689346570737 -0.14659549563214025 -0.10818264012737143 0.41994490948788255 0.005674503086466898 -0.1090285214076502 -0.003110352993419421 -0.18781655028150862 0.11484012569799437 -0.1711180497836222 0.0988603739688344 0.1679980503392869 -0.1300659220847927 0.004943407925374691 0.06115668428325775 -0.14441323146890322 0.026234681511696563 -0.16167484284325923 0.14700413145532748 -0.1649566878111383 0.034483782693560096 -0.022576168265214476 -0.10140338367299116 -0.01666966095107477 -0.10237788549745108 0.022590932934991953 0.017681447517948867 0.0896332088178278 -0.001914455181327837 0.09197027853163126 0.06236367988742474 -0.058221562574490536 0.12928857398907298 0.04493175350012596 0.064669163665781 -0.023604413609758408 -0.012862873062104164 -0.05876124908710239 -0.10163748496953917 -0.21373757337589386 -0.0855713624883432 -0.050695755864086006 0.08241051519220181 0.08931178280037741 0.0001220987224426143 -0.09478481264937623 0.09938174619310759 0.22352504078479168 0.1116805448725396 -0.14110270221903382 0.025395577774734092 -0.0790503013258584 -0.10374643315965205 0.296534118569238 -0.03639445918130863 -0.0019293147112001438 0.17235938660131406 -0.027805700098545997 0.011318281899067974 0.021989087846357367 0.022952396514759436 -0.1354187154706551 -0.0923273495793649 -0.04702440612811031 -0.02853770001660206 -0.034344346074598665 -0.010463497566609694 0.03146025677386919 -0.03345219558864373 -0.010140096564226606 -0.04450602422044402 0.11032650979315413 0.020922785656521052 0.06736602004778448 -0.04481245410923961 0.06209372977197572 -0.03641214613306275 0.10531068738750804 0.025029510547209945 0.038498767116677934 -0.030250536406136282 0.026465821039199068 -0.05986499489276413 0.02816701940310319 -0.080479494991423 -0.020792570792362484 -0.04661824861272179 0.002280476992336621 -0.05174005741037753 -0.06292886585691414 0.011238169947698627 -0.029836376570926568 0.04029389549806602 -0.009293668344837315 -0.06719736144615594 -0.037906175683855 -0.02464571357934462 0.01939479933424155 0.12108564052270487 -0.024550079485750206
water 0.16001406585447306 -0.08777198097589034 -0.14010048923535895 0.1578281805765206 -0.14360134702572538 -0.1099797826896115 -0.008090108724041225 -0.13729869261883335 0.18218028127368496 0.0664387788790492 -0.12478345862836808 -0.02293764279235305 -0.027292470281760923 -0.2026038065791915 0.05351125939558011 0.294927866373468 0.03716894276977613 0.08341535210842586 0.10440983848165415 0.28365263795715245 -0.05991904109348913 -0.03435399599061814 -0.09670381027850027 -0.02892651453739454 -0.011514105447217843 0.0958684850982259 0.02232104690159476 -0.18344429825234593 0.03730601987993889 0.04103628459145655 -0.008517225337255043 0.12671580085845965 -0.15585523787251562 -0.11510737994691286 -0.08641828018253657 0.11075456972373311 -0.02317346557668425 -0.07332472803917651 0.07463124324390275 0.0870840596404592 -0.0880631310476262 -0.033891218227973835 0.036927494212795474 -0.05206168425415873 0.160101699769102 -0.13046289935876448 0.09100131071032115 0.07739775071218022 -0.03690553831733388 0.11437248215515229 -0.0851573349891865 -0.05092998083358005 -0.11148496325172733 0.05102958466026743 0.051264727457924424 -0.07624786022835874 0.048100744294274966 -0.052541767809962635 -0.06491393842756656 0.025463157241584797 0.024029121596888893 -0.05055508610074606 0.042513445711900376 0.06453373158125683 0.10546781808725146 0.06365906259095622 0.0282694380548112 -0.1433653532135907 -0.03417992736119055 -0.02233217024949022 0.09602880269778481 0.05480821654281273 0.10288844908686015 -0.007170385687866119 -0.16120470174308943 0.16983721921909958 -0.016837104344719057 0.024810262930292693 0.032780877483220325 0.10788090717610463 0.01780259708619547 -0.07793921699684693 0.05413188707239619 0.1182885896008425 0.014904657505747496 -0.12764967934195878 0.10470010878450435 0.19994587150641785 0.04626982971991355 0.10057612119701057 0.044886799267786916 -0.11123978070527633 0.07025107212929016 0.01911171240259782 0.14116736172415667 -0.08071164696991573 0.09757851314356963 0.038779349650101845 -0.06481198003607061 -0.03009162769517988
seafood 0.07221980014310744 0.003205990048522364 -0.06899881295673091 0.187444268032283 -0.11773807284938037 -0.13246307258759793 0.015324361640857449 -0.03290614735130053 0.09352928726486288 -0.051543421188551555 -0.14126015540764703 -0.06460837007702704 -0.007131482876573851 -0.18592590790931587 -0.20790500812279847 0.2561408508012211 -0.004962016842672884 0.03385966833427111 0.1362395455229808 0.4339232819960481 -0.1428222319468065 0.012661631697323856 -0.21969128613013875 -0.12185333771180862 0.10912796548268028 0.0006027249774596368 0.09778662827744476 -0.05124508215331453 0.0327345060172149 -0.030772967915760174 -0.18586249656934678 0.14642878333385065 -0.21058176672444612 -0.0024767573893262275 -0.10580212504776339 -0.1293962404456898 0.06189491612764237 0.013347140338127015 -0.001328249491354811 0.13303265043220686 0.01276216923404545 0.044005783671846876 -0.010509830674346991 -0.036035042410711406 0.05471104804222461 0.018262615236549557 -0.03948029464938496 -0.033172244889587206 -0.059818844716764026 -0.023105512421857374 0.026377714507454072 0.04872991640670387 0.058216902480133635 -0.056347364668682585 -0.01726774240888289 -0.14919349828941544 -0.06141897334019209 0.2837288954062037 3.794505255171117e-05 0.021417816313118607 -0.00416058006852059 0.09643997109268357 -0.01119702521749392 0.05247697522792878 -0.05011909152126072 -0.10240778598800125 -0.036355896650935936 0.02386893572808039 -0.0022659751181785277 0.011972690875533962 -0.11516025343700911 -0.006379661763918887 0.004230293047761218 -0.05350136732751016 0.030891723273875273 -0.06327232930448073 -0.09452734342960169 -0.05864358801384371 -0.11480866394458787 0.06894855918606975 0.09283999729178931 0.03439136578231086 -0.04717658508313731 -0.1036877429680996 -0.11087959279630617 0.07869689534701493 -0.032185474082404034 -0.07660171801556864 -0.0275777479864558 -0.0362820686883732 -0.07752955389772527 -0.018258417705535206 -0.01006440000435174 0.05526572291964668 -0.017473305925256928 -0.005009274460273842 -0.07109270818223033 -0.008645920549959428 0.015044374898763719 0.02691892010504971
