277 100
tiger 0.04740491726559833 0.021587622589521797 -0.008090640726736056 0.04324942385953724 -0.04599119950747507 0.009919109930266493 0.004824636223796444 -0.01634767247204004 0.05588211674194967 0.06556996071008768 0.020901881481386216 0.1437239659507262 0.06089401309058423 0.025173086911448834 0.21773644187788732 -0.056874674195514854 0.09674443016149274 0.3025185218430939 0.13842919358338385 -0.10757284966275345 -0.037596858173455094 -0.08554427817566855 0.006614692458105808 0.2688624982475566 -0.10184680707235517 -0.3950670821803739 0.27986967352271824 -0.017601008779648968 0.34867260258935917 0.24871358006728844 -0.07959331498264008 -0.03768890774026096 0.016406306867171382 -0.14262773251031352 -0.10528162131116336 0.047344565188798655 -0.21508964978108877 0.10388393570319716 0.011972362921940738 0.005409924536625535 -0.11588075162548012 0.016510550894288316 -0.004589925974142386 0.14879217175801204 0.018086973002406383 0.008584883719734796 -0.10376120099617454 -0.007482011032316255 0.002287983937981078 0.004584781643896278 -0.017675772485900857 0.04341085852317524 -0.08426538298956548 -0.003069756034490849 0.002027713847693368 0.0009586227077204698 -0.16476238276585886 -0.10168571928557693 -0.021651498533130326 0.03777521443614062 -0.009551561214765206 -0.014228579105063907 0.012165570122405727 -0.02653250999001487 -0.0340054051253013 0.03928261763467776 0.16190155259201922 0.04319402553494342 -0.03438075809079515 -0.012797428344029898 0.05872774247390961 0.0014233572676352311 0.0315180723282165 -0.030077227275670335 0.009256858682973339 0.009784974989524763 0.033499522129047686 0.019704144645293065 -0.034958678594877376 -0.07519752750340056 0.0036476696707969923 -0.026949884438022105 -0.036341837949887004 0.01825343991672785 -0.05142868274583263 -0.020218757062258102 -0.0010004698080792148 0.05713333037729246 -0.060377044870351476 -0.007907987442759543 -0.014253478846906744 0.041480520294419024 0.025783566937769092 0.009253237109701816 -0.020885467196530966 0.0305770172032263 0.0206457808304527 0.013018661078482745 -0.07508710261751217 -0.05950514224065569
cup 0.12350151774723554 0.11876652259674429 0.19331457131513832 -0.011458047453778207 0.050050523670446836 0.07892227311763131 0.020526270418147804 -0.1300673748170581 0.04696409393425374 0.02850127522146842 0.16323744740243962 0.04299792733562324 0.16914879395530705 0.115336288653065 0.07965198976144 0.007877403713462084 -0.004344533620703594 0.13825206008529145 -0.09826406987519153 0.09022091716085243 -0.011566568247759581 0.23043947511851917 0.0997506822462887 -0.21268052796045223 0.16285164033076555 0.049711971734489345 0.05760756940151022 0.18038047127901452 -0.025946288022133973 0.15959897501686196 0.2645161492558914 0.015210154267630838 -0.0294615264356752 -0.0492209935235057 -0.10470019903855891 0.05213539938223149 -0.14708819396402054 0.1182660825851583 0.049459011862673534 -0.02769348430740845 0.04129354395955985 0.007510164743220709 0.10636950811718117 -0.15760933198943394 0.06662523485882615 -0.14133835244389079 0.10338510460438875 0.042687882079756045 -0.07003614568810988 0.09707711917676003 -0.009315540800119048 0.06962355595558965 0.09823524218923696 0.029175814658547083 0.006035116053538493 0.028204143594466023 0.11482205664580032 0.03131229698010925 0.03186064048424946 0.04845751514444988 -0.1254540981949775 0.1080523989291783 -0.09741601609991403 -0.06172473039050733 -0.045696109567218236 0.038505777565797344 0.1107208343299164 0.06185196660947369 0.15186869009541612 -0.10788727844465727 0.04781297777972866 0.008007029338089456 -0.008626593222953149 -0.08579312196860828 -0.039348639931691194 0.15240181712073994 0.004590654765281127 0.022624226425399883 0.06501688084045977 -0.014316088075570691 0.1713878167391742 -0.2687969196197091 -0.03307654413975986 -0.03824462772465754 0.01693259497049135 -0.022121829263820097 -0.027965076717546392 -0.1366760558179068 -0.15714748900007322 -0.050319010061472255 -0.16001440134768272 -0.07226779182770594 0.04980337207507081 0.05128749574082387 -0.04820088850304083 0.034007195018929036 -0.11111694545698063 0.02115846900341224 -0.056836289988771195 0.01521602572280485
car 0.16094176463631818 0.05055447995703769 -0.06823670566389355 0.06040838939875582 -0.0748984127219231 0.0626239929656973 0.22327242403174444 -0.05079759762039716 -0.007826947706065353 0.26678712120914966 0.02628699925244584 0.15223289043100818 0.08292744964549822 -0.19755685622719737 0.04438304020695215 -0.05971316880492842 0.10581830420606025 0.07659381339661017 -0.07924203227708278 0.0364824590455977 -0.08265363815090118 0.09920318334420987 0.06828247945572903 0.03968172980564735 -0.10171774876591809 -0.1576169548485373 0.027509782198206698 -0.007504250032496936 -0.026098865586685668 -0.07543384457759839 0.07633668883913049 -0.08583319421727387 0.06807142676152071 0.05113633376085203 0.18653258240603493 -0.007489912213392815 0.08025552942043289 0.09785292744709463 -0.054679560655002624 -0.019704562651717862 0.12717876061910882 0.049165732799083255 0.14343195144058268 0.1528959493346177 -0.22151014091266935 -0.09513517660433107 -0.03150908409129249 -0.002569722575638451 -0.08177391105060222 0.013972104799460166 0.12121842867088539 -0.05035450038563655 0.006407526842871464 0.08141717931558431 0.01893746832311006 0.02330219166165471 0.01662414276358842 -0.14613877950718757 0.007318474762649552 -0.14484224505101295 -0.1593825256016314 0.03173712231188599 -0.06046372833451216 -0.08427714665018386 0.16732976936734195 -0.025923428103623913 0.05386504224427611 -0.11212056872699747 0.217213276065767 -0.027151716469740232 -0.07317048801161315 -0.10250787907496951 0.027553158299932788 0.017482831188362507 0.1827191105114347 0.09873014630709173 -0.10559032317706143 -0.11127605681578197 0.025932194349598047 0.014349232253962327 -0.057209240134137467 -0.056060709519645625 0.041755698862515005 -0.07203479581255726 0.010429729674964259 0.06009087187312994 0.010468004849487409 -0.061277566541574784 -0.10582110209805194 0.09650049132788915 -0.19824546294529816 -0.018993086237760925 -0.10446433806918122 -0.18218641699456065 -0.04851783172445604 0.08763495914878301 0.049083663382864226 -0.04469878100219366 0.20175392708995885 -0.004414310179523416
precedent 0.16525819434394934 -0.0520212959466095 0.1965045485176827 -0.025580508327654877 -0.012252714121604736 0.042365764943037294 0.06940802592915701 -0.14729854289225694 0.17842674545545936 -0.019567469741099373 -0.02057600741900241 0.08209477877865007 0.08368812991332213 0.2857201166688543 -0.005113208637365284 -0.07420626955488493 -0.070720777846978 0.019136033896898386 0.09778384829869308 0.07845523325159376 0.03982332710568264 0.05343663203160572 0.055292359770842125 -0.13543667357251177 0.0006155294639185099 0.1382006116996277 -0.18713609211585397 -0.06606228153199341 0.007493927916823924 0.016884831380053714 0.08755594236992983 -0.037550993955150117 0.05714831422863841 -0.06787141594894125 -0.005865367361876272 0.06945530473155177 -0.10446296991927181 0.0310619980011593 -0.14233332619591857 0.2649120158751525 -0.13718715679910456 -0.027000104322630503 0.05331985668284468 0.13223629715620838 0.09183750392948864 -0.08251787094266148 -0.009960868850150902 0.04158785906191273 0.03921845505166914 0.2992490979925743 0.058648685499611455 0.0847372211897615 -0.15078850654774134 -0.011210922221105568 -0.0069758153753157115 -0.1041444266019733 -0.10784979637136444 0.014729674839769958 0.05657497473564653 0.021678249086402698 -0.00313357440334302 -0.05445028696969191 0.0327043222240851 0.04796354493319444 0.005525796148355826 0.15391819036550652 -0.0026111100622399886 0.13201623954857805 -0.017381736751201606 -0.04415742150417531 0.20810377638653046 0.07870422887001567 -0.007948557970657135 0.2063719389537686 -0.037294687867565283 0.18600882486659032 -0.09397282183319322 -0.021735777007325627 -0.08533471851532175 0.07373408090323105 0.12029803270081854 -0.024291214317174365 -0.12735169271048552 0.1661013985941718 -0.026280795140607494 0.04958822101815733 0.07369544261208262 -0.0739240575190283 -0.02058967279756143 0.04929224983899691 -0.1474721777768143 -0.0020152297330929166 -0.03158574647561089 -0.025890130943386526 0.14025450860492858 -0.06433321393386804 0.04676917096534145 0.0016927911401227985 0.07555879468391272 -0.008645639940004564
stock 0.18996063820508385 -0.05744755759390866 0.041082365928400685 -0.017194858993913383 -0.09988093077009003 -0.007270918337500324 -0.045938410179944246 -0.03283353851864869 -0.11970970245952771 -0.14647498055042799 0.018676286385743552 0.10556263788288915 0.28604331322172527 0.14641174906860072 -0.10024160235018403 0.024977834655240987 -0.06542552254113808 -0.10494058579898728 -0.005287032938231953 0.1924564622710576 -0.09257356570089459 -0.23247235238319747 0.25534395282016437 0.10930420774277695 0.12462836185607254 -0.11800320146371023 0.07100147061492584 -0.0638218073560044 -0.03425530139882264 -0.07520086265084877 -0.05657258942471851 0.08919053656320036 -0.1333465065469276 0.18833798739681987 0.028032155946980705 0.12269525108288114 0.06660703499458137 -0.06795891797527084 -0.025934973668709223 0.06324134770328554 -0.12059576184958042 -0.0629669936486469 0.03299911541440582 -0.02109621908028444 0.13760766943279332 0.03919508206053892 0.06649880762987281 -0.0199758702523782 -0.07074237080047754 -0.044305484450283136 0.032685353945902426 0.0043860997297717865 0.16053675862762257 -0.017499772717584336 -0.022696185877254395 -0.07642385695499397 -0.06876389364743231 0.02770673662805445 0.052047739866127575 -0.08989224760710778 -0.07006889696651275 0.0593813877849042 -0.034730937708481534 0.00016583656882746358 0.13742401926554101 0.06990749948592702 -0.005831457393583158 0.022474708330113488 -0.04744530930652357 0.06874823320366874 0.2498653832470442 0.07979217306289309 -0.006507363921702526 0.1412238125125411 -0.08905247864395854 0.14812129372326735 -0.06754475087115186 0.024153451932994695 -0.1998702525915918 -0.054763965582431726 0.004046919877270949 -0.0017081596887359093 0.08916052166385605 -0.008418141320938257 -0.0806494752908136 0.00434493558864118 0.06263033531718268 -0.010510500763846421 -0.12708598589047443 -0.022968468290494506 0.005107520194879585 0.06937125960090616 0.1750128866275406 0.014503888324269966 -0.07083830398456924 -0.014678669936794104 -0.14364912285499273 -0.08294441437710355 0.18054094232167983 0.08138687132281149
food 0.12022314355768358 0.13776482733624829 0.046064277978102516 0.18972956438458222 -0.10175690646530498 -0.1358392201951102 -0.024844250206135926 0.14332679257330272 0.07006643626655731 0.004010282726335053 0.049814282133209924 -0.14426601294858654 0.031522564599416374 -0.027814759338129134 0.331580694455439 0.15745435073223416 -0.16104928632836088 -0.04829409676323503 0.06723907154461499 0.19281991773223395 0.0025242107956588576 0.18776912347054484 -0.07171679229146642 0.018204472885991873 0.10015908412635433 -0.15008123741079282 -0.08620427387227327 0.08962007936755001 0.07990601617832906 -0.19221565803107996 -0.031466833678997524 -0.0551550326181004 -0.03085012574225787 0.05521047983547841 0.0788571183088411 -0.042456631247435324 -0.03364391780375837 0.09121391469347177 0.04160854789971804 0.04133044932842895 -0.04527221145570282 -0.08148294277330752 0.07452801365470943 -0.09768413036739952 0.1172390443355684 0.028660252414965216 -0.07942568358053725 -0.0009810437596811735 -0.10591505883592822 0.017738604500680887 0.09110462224941349 0.05109053397698783 -0.061423636186730066 0.10247743764843083 0.0017154480570833262 0.13217865967790973 0.040133750403511866 -0.11656121190182771 0.09226319215112003 0.14399354317073126 -0.1063425247324522 0.14453801243960973 -0.15760723948917682 -0.04982208422563257 -0.015855866267326345 0.003755542889841365 -0.029522931993859504 0.0843432327846517 0.17889328528915158 -0.09673736720982473 0.044524972001294565 0.05888945978887779 0.005928843007452011 -0.1592048685648564 0.0030886029870545633 -0.10807246657542627 0.0507997247094797 0.12428775899104001 -0.027870340395939393 -0.18099927754160702 0.06419787487153861 -0.04299871920221036 -0.11344427252753927 -0.14043483919108654 0.06705453540136422 0.03445577175963756 0.1019856288038116 -0.047094158007779226 -0.2237253778341238 -0.023424167373419888 -0.04794815791029543 0.003944286056133844 0.053806109044939515 -0.01900462900475755 -0.05148903617475056 0.037724226925468965 0.006611453170293736 0.07234792957897167 -0.07623008360730922 -0.08964233008408407
peace 0.232514495108901 -0.24289164288373713 -0.043713213635827274 -0.11758916630519876 0.027226518846291896 -0.06751116986832557 0.20505768216479442 0.012965073883654045 0.06707969771181055 -0.019728712215283873 0.05061360588173443 -0.12968742760369706 -0.05245752490478953 -0.16808830010254613 0.009856218846467016 0.051744084177756465 -0.2257257359807992 0.13810362448543523 -0.08794208188890654 -0.04630086797890686 -0.0678551809666668 -0.24092289702133007 0.07567499585392236 0.0015870883637620582 0.13213507010394232 0.023185844806125858 0.004399652256815155 -0.007797297622935175 -0.012824315878803444 0.009882765918143188 0.05072704429127848 -0.10319305741132533 0.01689834304479468 -0.11864000378327004 -0.008593501073302123 -0.09204789295369652 0.002562148694897243 0.037675123980293566 0.11850827033015457 0.03721793680510396 -0.042581950864425185 -0.16407427188563675 0.2836477667431546 -0.020180380104888124 -0.08266875370602866 0.11063018088078021 0.06978085611778874 0.019118776132159284 -0.04123927951281761 0.08173368184206302 0.0918728744528557 0.1033124584269065 -0.02801870917200188 0.049180176382212046 0.1348352232095174 -0.02491443803351619 0.027012208767863224 0.10806230683244189 -0.01527446670046196 -0.11211703541238466 0.07902753114739802 0.0017711852231453939 -0.026418810869317202 -0.04439486521468355 0.12437985242227788 -0.09693740549391329 -0.04602478249689493 -0.007972011233162964 -0.1106129309122073 -0.14948879095849787 0.11836470058183017 0.1949695104856679 -0.015831404409116463 0.019794530546496 0.08051583997280459 0.10007967341471484 -0.23450720926144158 0.15146680899877682 -0.05584844368023099 0.032759868846624025 -0.059761354245115396 -0.04242487598637347 0.006977993245630216 -0.0938516888047743 -0.052849179998804015 -0.07407779242618953 -0.07971166258624786 0.060496954277707286 0.16629732391242427 0.12201582912331406 0.0518909622073013 -0.04034482151150071 -0.011427682538713917 -0.015679046189915065 0.1291844408847501 -0.003057928434481465 -0.08413127411323931 -0.05069865057459352 -0.03627925813965691 0.0902858884032898
money 0.1415007507425866 0.031532657611786544 -0.011341553947560992 0.012067718818358882 -0.15939704526007933 0.07558367653556561 -0.15579980640375982 0.07162699091347151 0.012173659122837643 -0.11210182503958874 -0.051048628079441355 0.06880881685298297 0.013612178855318884 0.008699221317308038 0.11531521156739982 0.051137496525966934 -0.051366882377305655 0.010070929334433796 -0.05229276637240595 -0.10826237042891361 -0.08365384720629361 0.0708525384715226 -0.21334944360351582 0.1655100077989145 0.019102151416326575 -0.06184919333428008 0.017806609632768585 0.048630903897345805 0.308179517500113 -0.02659825827907571 0.2626927795122107 -0.12391838646333703 0.06374653527126149 -0.0033253023531390484 -0.08115113727397194 -0.05856517828855052 0.21295702600810248 -0.10246531779894182 0.020075799723574986 -0.0065868476108945 -0.06429702486598075 -0.032402669699844726 -0.05982247597527934 -0.01486636928915505 -0.005665421370714953 -0.0812035614055896 -0.04570154509376331 0.08449675892759628 -0.02950823950118193 0.05039124072597318 0.06609803548253065 0.04325546156996199 -0.14042141052356716 -0.04197830175273066 0.10943279985003566 -0.05516132495577951 -0.18302398721993204 -0.044035119641647594 -0.16014394317468308 -0.030158494129056225 -0.0474411701540776 -0.0761541946923381 -0.118092238439866 0.08001047015579985 0.004647434576723072 0.10074709902356084 -0.10639519495453907 -0.03909308285071258 -0.01899756048047585 0.13676288995359417 -0.09894302169422779 0.17683639079212526 0.17705067427394072 -0.199501828323558 0.054852787644103146 -0.058496509224839406 -0.1193109482864974 -0.040082059988582885 0.025477245976468468 0.0918883226201845 -0.04549970668342708 -0.0038884720821487904 -0.1304840952654129 -0.0003364134810937374 -0.15130448851269016 0.00992362887488501 0.01735505440192607 -0.05771972793145795 0.03302602098385083 -0.02167976350785581 0.05603222049161761 0.018175795004298594 0.21321228819699814 -0.2160809181465347 0.10849879805067722 -0.0988652243461897 0.020430099113062032 -0.03505552988733001 -0.08315955494725362 0.049660355021996554
drink 0.1660095860938287 0.05766668836916466 0.04244286136750825 0.013465327316947561 -0.12027579639370958 0.071156290787551 0.19045384524537054 -0.05251195832653206 -0.032653505916336645 0.1227782855967127 -0.21248181141679595 -0.041439471636640135 0.0832421277889072 0.04685340428721711 -0.15492572237910562 0.04440212875758622 0.07035390346722023 -0.04038722068251931 -0.02984703390860985 -0.0014533728083395805 -0.06339075884029466 -0.08144815257659935 -0.06990918306211671 0.07631875241942976 0.04921027553349188 -0.09696448234707396 0.06337581271244866 0.07775545914379134 -0.03794732860624534 -0.10858827305184374 0.0003230380285491229 0.1280359413116653 -0.07495163552863665 0.26371398015459974 0.006502306215691584 -0.0803005104695002 -0.061580428772970305 -0.01960253933919052 -0.2700630986514783 0.19619818834761102 -0.006626623238822116 -0.04053662940181418 0.1887778075253733 0.06219747438808367 -0.21161183637870512 -0.05947346487201508 -0.06360522727185597 -0.1599580947390068 0.033759938487271345 -0.08537268602213277 0.22424336443544318 0.05098200849422392 0.11375981150292372 0.19334873750706566 0.0018807104736531489 0.026060929187169242 -0.002917153584661981 0.011887731330917665 -0.031652104275227584 -0.15283303710780283 0.012944374641676306 0.08510834758625367 0.015091153273433555 0.1144633499908006 -0.08000175443993648 0.09506302328615021 -0.012625232155259737 -0.058419844211358304 0.06960237012533164 -0.008231688738084804 0.10548322343370989 -0.08127824537703454 -0.18515795348986508 -0.07481171235491514 0.05911275018680232 0.028812178376074152 0.05377406824615125 0.046651120405524646 0.10230438145572118 -0.04118256397561963 -0.08278161618038953 -0.03710180519041534 -0.010546083374874973 0.11873377237167608 -0.012451283853924928 0.01595759078601441 -0.2134827301246356 -0.09002784117132952 0.045821481804819035 -0.1462416228105925 -0.004008386174044024 -0.09970083410390163 0.1494367625813369 0.015765104001482438 -0.03321867564577755 -0.04245695920076583 -0.09064988902707653 0.009798277331688716 -0.08162965990805826 0.05126017419661108
jaguar 0.10004947286471641 0.056732664515146206 -0.018146499492775917 0.028493460486900598 -0.027485553481812842 -0.016082377826133684 -0.01547897512293675 -0.014119124967241544 -0.011126662240562125 0.08741343576811436 0.04183001588228436 0.17698664839465023 0.11831916038432129 0.039915358704339994 0.22568572751284594 0.0748559555513183 0.11165967827017931 0.05824212743359687 -0.1597994504515277 -0.03113062093632259 -0.07682293335184108 -0.039230847569880725 0.19256163211756827 -0.00591504902161235 -0.02044921240042103 -0.06721773659962864 0.06679999309398849 0.009487413060624703 0.1354488026398167 0.24999421615281028 0.15499130066369682 0.09281198486811261 -0.05858705910420003 0.0931387562623028 -0.13299682098705115 -0.03574736817949989 0.10779301301520851 -0.14128226528797755 -0.06251489787644764 -0.014629070598756386 -0.02398230979002069 -0.09351069620412075 0.015809455658937623 -0.058572073686371996 0.013090602046816653 0.058045556069324294 -0.01411822883951583 0.008648054142022575 0.05075390333046998 -0.09253936272249269 0.07672769135307159 -0.11665048553416198 0.0024508700074178033 0.0665805087747561 -0.03825263819611483 0.06676867855415698 0.006175406085625704 0.08407544042894964 0.2819131428781145 0.013222356776476724 -0.06328666470957243 0.026942009858780824 -0.0890655806073564 0.09413517008789017 -0.06177246042738212 -0.052274111988241764 -0.2456537505386663 -0.01339968588180842 -0.0021329763376917513 0.03568223115062569 -0.027418563401501735 0.09818624181156933 -0.0157633471313354 0.03115775322719482 -0.18226071030264557 0.00933338664629073 -0.08554415280344936 0.03938877579114607 -0.14428300173875658 -0.16202810581837832 -0.007892814191494712 0.0856788998081496 0.10611348510264335 0.048270959639922784 0.03195652543230541 0.06606652955016139 0.08561736584231994 -0.11294859580014575 0.15457192441615794 -0.18568302738932543 0.0035563803688875625 -0.1567901139544697 -0.03613824555800105 -0.18297912145315848 -0.07389255447094774 0.2401124399722251 -0.004095632152806805 0.1384956040546189 -0.06719793132418951 -0.09052700660465976
news 0.19184188715837455 0.07927390094415394 0.0059886101480678645 -0.11301698359280776 0.15212314833587706 0.001198055447217362 -0.15696628534086005 -0.06306933119744443 -0.14030011363652276 -0.007597928647705072 -0.08174426866330627 0.08529721870199335 -0.05733829965570984 -0.09565396836076481 0.04909851055526157 0.0717554100468512 0.06608550339889487 -0.055299964222000335 0.09111386034703597 -0.029852292146605567 0.012634819204024577 0.07542658739883593 -0.06356299512770841 0.14184481311256347 0.03813191756585798 0.1420658183281784 0.09769379522974729 -0.07133384530043446 -0.05931035434352682 -0.07349687972305648 0.05032072855442435 -0.04467924688951483 -0.048200088312159176 -0.07652741443846806 -0.03696599184601687 -0.1421657082865603 -0.053981418887835364 0.025950189820392842 0.3237592254792025 0.12123315199713178 -0.04261488499482004 0.335580942416574 0.0885517291111494 0.01447352776475451 -0.02314364096859196 0.12550387256399043 0.023270687867446873 -0.08351035212212109 0.06376130300482688 0.07610318999345873 0.13364895135208443 0.12671188965342983 -0.17601133965333995 -0.005325868975322406 0.07606817460662448 -0.140388220491166 0.13297695044354615 0.0073866228826671865 -0.08885240393582873 0.1412935054138035 0.07103621444802298 0.002107978371166048 0.05974524787770412 0.1291298596359387 -0.042518113366508195 -0.06454068558182711 0.04275336659040628 -0.06309738127536836 0.07128890604323286 0.17017250329097636 0.010780139151704863 0.0322921896576834 0.04332659293585838 0.03401230639968195 0.007713795832344566 -0.08985765331260599 0.07173664570442946 0.040784549676475275 0.016773592706748146 -0.05468724114479225 -0.037387855802743265 -0.07613617163584782 -0.06633436082112634 -0.006551559962569724 0.13278060724274193 0.038279973536592585 -0.05038482513223528 0.023525934927328535 -0.06968182601022228 -0.03610419347087978 0.13507667980681276 -0.010047820786355584 -0.05350422406735328 0.04537503217938244 0.09281604401115216 0.20118074921712994 -0.06394599137825938 0.11332238293260476 0.2728778963477837 -0.00462234467552775
life 0.19134174851434138 -0.0865648703215958 -0.10917337654270538 0.038770921090221046 0.22153032897044633 0.07900058014937417 -0.13855784336148286 0.04681917775411378 -0.06816784739382481 0.10980106060297679 -0.03183623686697267 -0.09115387063218053 0.025940258619125668 0.12635764417342987 0.00027983426141536 0.12678710185381903 0.04579645702907047 -0.08557365322935458 0.10969918845839316 0.01770796604245831 -0.11071274191165262 -0.09756641709089821 0.043490664824803515 -0.02514445772022739 -0.026506711061549795 -0.06356701750754354 0.12481885584705918 0.13469318825150425 -0.0768031201247953 0.06818764337922573 0.05108607096681672 0.052181669448256786 0.017404939672974778 0.07823927238721275 0.06598912741163297 0.06836883909588734 0.04819661100246988 -0.027788883128505214 -0.1284210020220053 -0.03832985125650492 -0.007419678311436769 0.3241337447674658 -0.02568463078102405 0.02300762008496048 0.2052845476445434 -0.0035777919216221274 0.02571006378641462 0.03778725432321729 0.04953365971361312 -0.13141395788382912 0.1411644466591683 0.1404021389959158 0.08631368562910463 0.006536487471981151 0.13675567644362874 -0.08508031358526676 -0.05411263184008032 0.006699311954900778 0.128814482320431 -0.050320258665910104 -0.12119607802455197 -0.007288789956261322 0.060696476406813867 -0.07434852832516348 0.13038436774820053 -0.12304012086269692 -0.041657141531271445 -0.03198186364771055 0.015448935016032594 -0.08840591480416424 -0.042216555299469945 0.23476059548923506 -0.10433155153576318 0.05767410066148454 -0.16177775607205447 0.1722938217675537 -0.11153709802962934 0.14781306940618721 0.0061829031450431485 -0.057570622956111456 -0.0913474537298174 0.09635521070532987 0.04056858360642378 -0.06840405094420397 -0.11704412958314617 -0.07547456518878284 0.1363585349948976 0.13769568236027793 0.04216027546285424 -0.03706255363017667 -0.06560428847028506 -0.007036072657140161 -0.00039357673516273416 0.011433366219631562 -0.006819557833421889 -0.22397367965655432 -0.01818134904225848 -0.11635160085578365 0.1065403489143964 0.09580399783794284
street 0.10348361836024221 -0.0785673311390629 0.020485901477022242 0.3512181545801954 0.09832025221223216 0.040128137986715 -0.10441751012960232 -0.06830820432678823 -0.21013036138641827 0.21249802255005282 0.060041447358112704 -0.18001320254905936 0.08269607609931826 0.004667720867089547 -0.04326740313881018 -0.16005920321300085 -0.16194125947739127 0.14927787960374347 -0.13974760642853537 -0.08274558467868304 -0.0804783840923607 0.25057484543438546 0.13244725057537182 0.10076555111626977 0.02319111705123787 0.009631946649832124 -0.1302850726842489 -0.008134579708708319 0.06367993295472985 -0.1973805653933761 -0.13154687180305244 0.13715854384862952 0.22688036930248945 -0.03395505657218161 -0.12116735050157953 0.14869682958641522 0.06060201980848027 0.06033068970164952 -0.09448509010637395 -0.008533943534169119 -0.023301138116785088 0.13198831027164068 0.004664479654341913 -0.06969347089590831 0.012862716100676859 0.028541345554246946 -0.0627164940783894 -0.026622980232776563 -0.016969965395867485 -0.016476759902118904 0.0264723058077717 -0.02359932155244946 -0.08749379222854704 -0.03334699506137113 0.001780490418143342 0.009131624549598798 0.043765709602170494 -0.03408812594521937 0.09058334402587077 -0.07756423543458817 -0.032422062823219085 -0.16030499735706763 -0.12288771609542866 0.058988403084475685 -0.09968459395261775 -0.019251665704066924 0.021226472860878032 -0.15429258910542024 -0.14971979514640912 -0.021949037561613347 0.02729386227737232 -0.02872191013049335 0.022613160848851465 0.0022901630284344037 0.05410278669479531 0.008376214701022401 -0.06610331879199413 0.06782265072404368 -0.02072709802623504 -0.029147221870272397 0.09067352656819154 -0.0875325883382228 -0.012349900577436679 0.07480348928103683 -0.05127351040033867 -0.018807661919034272 0.0023479476394059665 -0.03281556577570914 -0.017063025999442802 0.055909184724368906 -0.05349211499267455 -0.007965556777745889 -0.027416123740477482 0.07571950754741648 -0.12672221857621405 -0.1974011003725707 0.10563142352193847 0.13785635980949829 0.012083484773246406 0.005404191888662683
media 0.13347026972028594 -0.0957610631059198 0.015571242834676915 0.05997398767651042 -0.006340193483653579 0.011423652892176402 0.08271800155160874 -0.004882320202996602 0.2179042036885223 0.07220463025361265 0.042228485184237906 0.16622361689170326 -0.13462763697079114 -0.018554561978688194 -0.117907862353504 -0.034413061308433995 -0.03798136757627207 -0.07365997465751377 0.14558029420215515 0.07425683565435932 0.04753762333563624 0.10331660254370664 0.08219954259726919 0.0788400380899091 -0.0923034132343237 -0.07969814128962611 -0.08181167214175084 -0.04878215032280449 0.011098638422080493 0.04449928967074292 0.04760773731689157 0.12779492692285344 0.03264833982142404 -0.11170198654395484 0.06211564096182853 0.011685007266853972 0.03437112197564849 -0.04141335462807279 0.029455653712850274 -0.04163275554217871 0.006877383823875046 -0.0341364278291927 -0.20361059049233934 0.0034274646047553216 0.003818688504902823 0.07714412131592764 0.18441442340463676 0.0498442179263039 0.13928862785523602 -0.16871223255286574 0.02589376186548001 0.21845743559399963 -0.08358608167623983 -0.08426805344309658 -0.047340471307070434 0.05919732217300308 -0.0013700574311155114 0.0318657765937564 -0.02820492384623408 0.10786598018091807 -0.18102390415735992 -0.16352955017760754 0.19189039975376798 0.10433144307698229 -0.15773733540324822 0.07870436655463159 -0.029862802818144994 0.15919009716291002 -0.026870847593949032 -0.0426350735239916 0.28497798242985667 0.2310655067821009 -0.03186202336126115 -0.033037038569457056 0.06228704632596338 0.01780160562098665 0.17162834936967103 -0.027362141635450032 0.0639250658749716 -0.1314368475972316 0.06778748539485388 -0.07689178584777608 0.08672852119951711 0.0349393545693585 -0.0981414112083036 -0.028361531568714526 0.05099308960517834 0.04443302319135576 -0.10153999053773244 0.02663833544387695 0.044202719713629886 -0.05682492351629612 0.25186148783613976 -0.03689776714478737 0.11072648459979746 0.02615753571468292 0.0054284552475763505 0.12337838962819427 -0.023488658983638555 -0.03288189095373481
doctor 0.1502805044098743 -0.031853440633979546 -0.12560454345316113 0.003867517891564178 0.031565692961746945 0.2061828625384755 -0.25733491328017194 0.06995172395279835 0.15110340763187946 0.15491698037908677 -0.023579535195947802 0.12882670071765148 -0.13039627314427865 -0.10547235244753422 -0.03936887793033189 -0.11371341227477706 0.040266886051849304 0.013806545498940708 -0.0027797286902412123 0.16941156327146903 0.18135121230477547 -0.037568084858544015 -0.13266580448321197 -0.003295663936797651 0.15200628327907537 -0.004221737507987534 -0.030286744259150827 -0.022255386331957235 -0.1430913404923283 -0.016606480227243543 -0.027164760290940698 -0.16848210008243636 -0.27724254616963817 0.06030797413685739 -0.2018862144435097 0.1304647057752486 0.011494225314824314 -0.03735549270624383 0.07260091757392607 0.06385746087600462 -0.16247237864107858 0.012365509189513915 -0.06559898739077431 -0.14693968823304387 0.05778777210635194 0.010642694491502224 -0.05688272017161968 -0.014595504104796346 0.12511999491705342 -0.07316755177363742 -0.030138052003719325 0.166427892675261 -0.032136356562169316 -0.02955194166477862 0.18259769100942724 -0.12632833776187646 0.08764371312515637 -0.07840379805589937 -0.05538739080019734 0.0705884953236187 0.001943950740965532 0.06658979383794107 0.03568368094887264 -0.00032671494579855084 -0.032795926147842366 0.010637000658176389 -0.08755037573563387 0.13296588251140695 0.020526433038029954 0.027746687686487404 -0.0112212568707119 0.10093892063578262 -0.04413181398024649 -0.015359634488701012 0.06777280950878345 0.006775480716936676 0.16886653781092156 0.03302984300518652 0.00793558895681154 0.08086087350880966 -0.0626674156388185 -0.017052769924995003 0.05322639178251785 0.10858227888175959 -0.12730514654337458 0.03539406314303264 -0.011429908375308558 0.00454266341193933 -0.0430483856430208 0.07088021610395605 -0.03680295578727697 -0.05685227983027009 0.07131274986207606 -0.09122493887392993 -0.09572132258125843 -0.05707452200481715 -0.15689370809341255 -0.23088658476050494 -0.027951129283425084 0.1100904240783307
professor 0.1319379782101651 0.08154326928451013 -0.18320368582069319 0.02339646018231159 -0.14738726499183713 0.194756443736752 -0.2228333168724016 0.09381526559766552 0.2767704582567154 -0.026255976480416797 0.07208484864286141 0.03137286668123158 -0.1277630424357598 -0.07683570442191016 -0.10801111082295904 -0.19572764627511138 0.03872037020235729 0.06520030611071108 -0.07631092388931512 0.07329905308335422 0.007686019631072939 -0.03389403768018942 -0.04378088160769314 -0.014332293974153346 0.13296041841053463 0.17982275006199253 0.04168259828602977 0.08351050907047754 0.061635108561908264 -0.09179169816613819 -0.08352656910286094 -0.022276511564410587 0.030010921235742248 0.18401954037695667 -0.2571061588559371 0.06455744307774015 -0.13560477590204134 -0.06612892836330364 0.026197676917211685 -0.03565573384031274 0.1170685452566693 -0.03203902556262454 0.011094472381962959 -0.11603112837144207 0.1461008767515156 0.07926196682907435 -0.08302783877030738 0.029705393566270364 -0.04837361867040089 -0.015840318057197614 0.13177174623658214 -0.022642974897174685 0.027181950589451137 0.0010280932830871183 -0.02928838018373087 -0.08301592755711701 -0.06639127631003623 0.00023443607942772948 -0.003580367955440928 -0.1446671400206268 -0.12935615394963965 0.047761426821354466 0.09182117902654097 0.041950895712023595 0.01822033887836463 -0.009146931434356392 -0.018595960834200603 0.088470375252948 0.005759426145988848 0.04703336467833272 0.05655704193640931 0.04764569371666242 0.20380883114163975 -0.05516406433358259 -0.10495514783523908 -0.17598710236855822 0.13227397408156444 -0.053103856291756554 -0.17930238092182252 0.0039280436610448525 -0.035199982329264724 -0.11176699747860508 0.14429774433307668 0.16112069533492707 0.001956132070496312 0.03425205932940975 -0.05049973822893127 0.029036061342187114 0.06874605606539931 0.05259785205056852 0.0147548125122025 0.09896336131811705 -0.09573756922455065 0.04068432692635345 -0.09708278157787154 0.07810181786862934 0.16178598975084132 -0.042637133771097735 -0.00716656969005985 0.005659533934683224
forest 0.14347667362091263 0.05575983877044033 -0.022292032667669374 -0.054277869590887456 -0.0952434409290329 0.10545741136072262 -0.08171279590056742 -0.0030408812997517014 -0.015501836275685812 -0.11278582068810522 -0.04131124265808143 0.10231431448231856 0.15436773879340668 -0.10260773202721062 -0.14779067967735696 0.0038100033776754935 -0.07456355079408145 0.06262749894895801 -0.016696520416518788 -0.0701107407775926 0.012015358124839655 0.1558511643738968 -0.10870174670551952 -0.1533540104639132 0.11309593901135911 -0.020722596454007525 0.09794059787436926 0.09878231672428886 0.1253704929412522 -0.0023890497815128578 -0.08312763647054291 -0.02941936571623134 0.03460428753483027 0.04037626309382299 0.1284766890052016 0.1349494454316723 0.02606401381174239 -0.18367049208482827 0.08483856751209642 0.28136439820286757 -0.042807934414300905 0.09908798939744969 -0.07718537966444451 0.05665760331220355 0.10812280027845057 -0.0470731008533858 0.005795079584532618 0.11922083756930694 0.109331831211667 -0.07413181369925056 -0.1618218300561893 -0.042223217249110434 0.1279896529323601 0.004263731656140646 0.004723837004962576 0.12133576436269279 -0.03604514418712104 -0.08247198156444961 -0.0807513198428951 0.1370809584462068 0.061397501706518746 -0.06805722017877952 -0.19926757561895883 -0.020671843580568505 0.04781934867470256 -0.09236973884363577 -0.03812323081000853 0.005996814941344664 0.23823837732876885 0.08130586451807124 0.15554658595919485 -0.05036874544860498 -0.008436738835423823 0.12472006085182288 -0.1266495033647328 0.008916019937867552 0.007809000575248567 -0.09022715652453411 0.004696724759367426 -0.05329073996766858 0.10145067847406626 0.16413528143056297 -0.061395396039139766 0.09184567393098773 -0.03168899714945072 -0.014025741446640051 -0.19379730600109915 -0.0642957531729127 -0.01907072202081901 0.08517772168694686 0.1419173378265751 -0.07424996604994112 -0.006511332377395393 0.06004995769404852 -0.15466102696383122 -0.004951862679021197 -0.14309231885612106 -0.16540695984302714 0.05526818257224521 0.13787910688288219
king 0.10249021864878277 0.07760957971098252 -0.1272021823083334 0.03772640655893552 -0.23604639492993137 0.28138450450578295 -0.1607090789145615 0.07172134082207383 0.05116961323988609 -0.2086367650249786 0.044295033034414934 0.0778692493246857 -0.20145301712909874 0.0629623914287627 -0.07393152372906994 0.053063132075053816 -0.12475718119046347 0.15677368747049492 -0.15716343008773342 -0.09894879527647743 -0.21043150244077555 0.07073187419723911 -0.07563090674120537 -0.12106899384004081 -0.12097432553156483 0.044476351856927505 0.10611613513909042 -0.0315311171776562 0.060819913342383895 -0.18600938991542482 0.058038358427006186 -0.02685920595791372 0.08431104864685705 0.06988397047415877 0.010732161679461574 -0.019083357908789383 -0.143585563506518 -0.026150199942397603 -0.059539247707712 -0.09687367008241805 0.07354114753625186 -0.03026666205852253 0.05970324625109475 0.27415708669266775 -0.018089048034659314 0.12889524264857613 0.13819240777909744 -0.06180958594438513 -0.03418705397184014 0.052152650605613346 0.047989664804845025 7.123911922003925e-05 0.0564788261026897 -0.062014187453014236 -0.011751757080925487 -0.07336628423590506 0.01661828840374796 0.1167932673183655 0.17334757686027405 0.03300030230634568 -0.04491981048315335 0.18252550076653284 0.18106381412842387 -0.04112155569116351 -0.10711174499320156 -0.13364479963005887 0.08823766597172382 0.01753711285739595 -0.06403620088585835 0.006310479201128037 0.07535466767964517 0.004329597425975217 -0.025968490109137748 0.0582588834914992 -0.027186017796788163 -0.013575438215534225 0.13541448091826672 -0.03693774303204085 -0.1450750635048159 -0.01424903536771148 -0.08462329719617383 -0.13292123389048344 0.022158852319962962 0.08611896694309694 -0.0156342679925491 0.05928841186777796 -0.01709760050225678 -0.005915750774035032 0.06804450328333152 0.02754975412705716 0.023429616678003633 0.011349502276162755 0.014163537738463305 0.02963467912842666 -0.031969967989875996 -0.0302374294337362 0.00660704726915025 -0.057319604566793046 -0.15406945116459436 0.0777495245446711
football 0.056290161417609015 0.008393452002473035 -0.05864677976703472 0.07466414792755714 -0.20643150342665598 0.36353178460337454 0.16537142333994231 -0.015902642723180843 -0.3108023177249154 -0.1588951022791762 0.03129246896007592 -0.008304889652788026 -0.2735099544078303 0.12356136453302617 0.09900285233494574 0.17162538165206082 -0.04239603554043525 0.018423568448304697 0.07985154988249452 -0.007041173261836359 0.14968050436728875 0.01831463445009122 0.14584618123134538 -0.012383428164390087 -0.024097989254222994 0.017046871752604772 -0.07333507514178908 -0.02131701518333893 -0.13520592450407842 0.1932558364644645 -0.11338150223861573 0.03271773725906715 -0.032301268804469756 -0.2183551804849638 0.03372978953450718 -0.016889155869634246 0.01114565992418441 0.11909798744579549 -0.012622162756539108 -0.051642414088072366 0.035065445844063826 -0.01160093578809663 0.01680526054013035 -0.2896909754833301 0.02590182347487253 0.07246673163643637 -0.1784779431998115 -0.008213266925869296 -0.014020182812766149 0.007000910785903888 0.019067458389507155 -0.011638431742758654 0.028218366752038343 -0.06292611014327398 -0.02897095401096149 -0.04649631431205281 -0.05202170305323566 -0.1222736315010672 0.05770325540904757 0.07486585183546149 0.05657984211282588 0.03652948632720411 0.13504826617663082 -0.058240456519388945 -0.06545832948997725 -0.042855593310700275 -0.05982635494132605 -0.003686417105315755 -0.060727490441547814 -0.0758530260849575 -0.009395937497865613 0.06014314434952088 0.10977816462351073 0.01761009319585474 0.017648424640155237 0.0015745455741669504 0.06808226351536807 0.08006903257285332 -0.16562646709833787 0.035067734398478254 -0.04756395062316835 -0.12220945447178033 0.013594179350753995 0.06971795177306267 0.027594419532099547 0.10232032683521608 -0.0694684934052698 0.014670087993249415 0.013354409375728304 0.0008904026475299058 -0.012986309880777834 0.061103514692200454 -0.05683047968481549 -0.007124918242987616 -0.05359843132455396 0.019158956417529873 0.11112504094120434 -0.12287693767219345 0.020109836073235215 0.0014713213248035246
lad 0.17877577429378244 0.19573296215038358 -0.2020277839847294 -0.0360886477390901 0.013230184267664268 -0.19378526845234537 0.022561699609079625 -0.05571277933354992 -0.0760414570910461 -0.011908665585278862 -0.01663928171711465 -0.05979460433909937 -0.006455260301058348 0.12005202525991214 -0.04513673572719263 -0.03513223993537817 0.1415003398532879 0.008361880675531461 0.024979566935283123 0.04863645795075508 -0.11352195561500301 0.06939653073979411 0.07974270728148566 -0.020296766323456467 -0.0886500461664829 0.031631992629685315 0.03328490327743418 -0.15312447600584375 -0.03812953951364121 0.07330086905082803 -0.023214013900306578 -0.06262263104615715 -0.11246917694314848 -0.11178515549420089 -0.0797669636772509 -0.01431455976047241 0.16593884497403633 -0.16966447054955638 -0.015260483472468422 -0.001870204884485368 -0.11162349586762674 0.08625120370728155 -0.1419069623636266 -0.09924830427815944 -0.24359638692820004 -0.21727726686357357 -0.03229195379763105 -0.27453820579473565 0.03827109218546456 0.08805304498202728 -0.2013732861294677 0.09927648825537241 0.02064554878128525 -0.014508430113267343 -0.029494807469354355 -0.03057993612213476 0.007236828875336576 0.0033868023919265003 -0.011107852564047624 -0.03521597256358945 -0.17657168772861764 0.008995408895416898 0.01163791116662989 -0.0820075898829871 0.156220603493437 0.11713106680568512 0.01935035745070871 0.04195583239822868 0.0533806861171598 -0.04063153288895119 -0.03769264043568052 0.08892019919502114 0.026066898611798027 -0.11400407691736188 0.009012187773381678 -0.029205695771421254 -0.15855544185695006 -0.019375940349994004 0.06305645149867024 0.0940439747693026 -0.052659235110335295 -0.06349812742498202 -0.010126421390817176 0.1649831491565653 0.13641398128581553 0.11121758734354019 -0.0433824132652085 -0.04748427181404212 -0.10061968159091728 -0.019304776550319046 0.2173173581458031 0.18569200727940255 -0.03017516623354462 -0.016369704667497303 0.039550533128379535 0.1189782482539856 0.05448322416551635 0.10117734018115392 -0.04842725608957877 0.05334934262785366
coast 0.18535253234074947 0.158688172597806 -0.17183194755374143 -0.08516662510228329 0.026377789743062135 -0.18823461133619074 0.08224660771074993 -0.07042167912297498 -0.11503969871451372 -0.07118007006176012 -0.11026468307045632 0.03324930454035575 -0.01091980452476334 -0.00047206678298853137 -0.08862610616669755 -0.10852307518718399 -0.03827535814260108 0.08968576306658395 -0.05561083660909175 0.012315594344815977 0.02155865003422082 0.10645440783597321 -0.15796186541644247 -0.022075252280511094 0.031591556360670965 -0.046282894772378264 -0.09982148281971519 -0.04516506630155873 -0.05576679369156986 0.14568495577387264 -0.06970752660355603 0.07073791782309369 0.009892415163227086 -0.0454863569300524 0.010214312122870692 0.05715508400179189 -0.07490325843172659 -0.11585037273017638 0.31340803068843814 -0.046822887911610746 0.10334687625800933 0.042966652014334396 -0.003685387136374585 -0.005853546237781125 -0.10887920147021071 0.1248066652745582 -0.10178358047733362 -0.13415488933285363 0.14300052912636982 0.3064855482875611 -0.08192219043422627 0.043059346404147596 0.08481165217353069 -0.09947909574591408 0.008730286391124798 -0.05299442526311355 -0.05201054707599266 -0.10789428758710047 0.18358846936802664 -0.04293391341646663 -0.1907077161895823 -0.08218592450070956 0.010367407986765166 0.19430824471477462 0.1552017052332103 -0.03478040943266092 0.0036885183075519344 -0.11725651465708596 0.056242948971317666 0.01853791090675503 0.07789330276281217 -0.1167013139726006 -0.01964864769440079 -0.057359272098004364 -0.16480028469804736 -0.053692817110346985 -0.032975164710852316 0.2286223102563517 -0.1058752111527657 0.11856625792814435 -0.04821753552360055 -0.006263944698638259 0.02703385992988744 -0.024859845134625507 -0.06915663887125482 -0.01916503739068425 0.11176446082652156 -0.0651537096166693 -0.015345854313029463 -0.13100168309627105 -0.001013008733549258 0.026400194294958955 0.09353225319066084 0.0734059626856644 0.009570574462438692 -0.053695855856941366 0.01344964100891732 0.001984093546469628 -0.04380604615685946 0.022960678109101483
dollar 0.09891145877682028 -0.04727778804339312 0.07963223737101857 0.35605152567532583 -0.08575712916534317 -0.14893009777584124 -0.06352338671302477 -0.09318164438831726 0.06255394730621071 -0.15248111256014857 -0.07360903469507651 0.0014272650236143724 -0.05594035105475985 -0.08236165757427885 0.10342896658879872 0.06580659125020297 0.14214335351150903 0.021946064703680403 -0.024873639359296387 -0.03641423996528611 0.06678067304563394 -0.0706127869943864 -0.12838055741683777 0.014407002102312898 0.038457517882559016 0.005946747845261432 0.153121805007353 -0.04226593381253462 0.10170759666660846 0.13362149826656974 0.1960487362815065 -0.10863721575927665 -0.09125661616998584 0.027327895026017818 0.20400498472958528 0.03207020625866911 0.08298030323346454 0.00791835425261802 0.007010234143246683 0.02281765542285273 0.0856541481754235 -0.021182021240503845 0.04311083210934068 -0.0899299211274721 -0.016207300326017436 -0.03947037679879319 -0.2033804210771916 -0.033016348774482854 -0.06390743746441403 0.008788033124789736 -0.05897161571006609 0.01939326940250956 0.04936816445079353 -0.028737271915130855 -0.0845285414052907 0.0637429601024389 -0.26542844098152946 0.26170911286458715 -0.16802910893662676 0.018724323127748684 0.08858849493350235 0.16348119526676377 0.17440000641573367 0.21486342631036873 0.10820493424104616 -0.10275429343742888 -0.006000135841747488 -0.006775420290362367 0.13462997726930076 0.020108976357914986 -0.0727580696701365 0.14709774421173327 0.08770806380497616 -0.0024442095437183153 0.040048563736777426 0.08471922800673758 0.06388788336688891 0.08557148068756074 0.05902259432805023 0.12739462306340069 -0.026120748863573687 0.05508303872911163 0.05736327840433694 -0.006398267189116665 0.034901952573919426 -0.014991410719003657 0.09333497172504816 -0.036472084070571356 -0.029822401309073553 -0.009895075956867002 0.019915598644814996 -0.054884978938487636 -0.051927765799993385 0.027195196245919095 -0.1022595055564086 -0.10712786777565281 -0.06003325355876847 0.041482846969948244 -0.09806871673385277 0.008849047335233095
psychology 0.013397034565706293 0.0015795261236224733 0.023815746591061553 0.005120475673191217 -0.009512309730211155 0.012145020158438814 0.013009218796848934 -0.03708633042823475 0.056937213692305234 0.01913304195665457 0.014068178628995013 0.08865082193210413 0.08879265050551577 0.1669107785709926 0.1921408147861542 -0.11949722435490209 0.029519706342471905 0.4750285561384553 0.4178051823502795 -0.18327967187364255 -0.011258705871109482 -0.1688524987221349 -0.1511507239935311 0.1281782592604301 -0.035713371420292045 -0.03996201371453783 0.07765727194652783 -0.023401786214880732 -0.029866155886403754 -0.1201498809253642 -0.27864041192556027 0.0050733581381745265 -0.04524958602760593 0.031752651122348714 0.040015474946515056 0.0290242251867237 0.04447918302263992 -0.021225526373389127 -0.008452332051013601 0.01599484978000773 0.15398952315593764 -0.0011622673158285695 -0.0007259012044478942 -0.13895886118136333 0.0026600267828147768 -0.004268608340696963 0.16276719945350726 0.003875983381921974 0.0037387106041688895 0.01897879934484455 0.0028610843322089134 -0.01589275403847962 0.16808668446710207 -0.002465302993442823 -0.0006390575532405405 -0.00952319801564206 0.28378464932139913 0.07249626768051952 -0.003018249375604369 -0.004313137415826705 0.003634971117836984 -0.02327234640475165 0.00695448980037822 0.0017275142295601039 0.004104088778958189 0.019959022283918083 -0.12894764043689685 0.011182649076588853 0.0018469036181652638 0.0007585437701749789 0.020342944547984798 0.03834750181246518 0.07305377583139715 0.03346660539129764 0.018093784889188443 0.00783910656241096 0.010757864485602038 -0.050068139729190934 0.015946567905415803 0.12118945798030577 0.0067353243947118994 -0.0323448554457187 -0.14055340864049845 0.024472501607674252 -0.0790083443715864 -0.055503903627857724 0.010566526088604785 0.01621459936370113 0.014860566172369038 -0.09818762641139657 0.004313031235719898 -0.04932251565558688 -0.0028427927950000482 -0.048960067361800884 -0.031282318097814815 0.0513507930120384 0.047795327424082365 -0.0019028892690637804 -0.004364501927466014 -0.0730042932894232
planet 0.030734476617255098 -0.0025853931528054693 0.06329219019140139 -0.0040498226137958716 -0.003578760206495245 0.02309865254323255 0.02618828140682224 -0.07048815610820093 0.08703456116648291 0.008995823484802856 0.01963391877252812 0.08936388582817431 0.11498677776115544 0.24304952512721745 0.16091320421942004 -0.12835990517581725 -0.009270499044787868 0.4389139067634611 0.40442016158174166 -0.1138794608221706 0.013475995549930377 -0.07542925540207741 -0.09845181410908767 -0.08185238546220179 0.04923407709178033 0.23780852169078226 -0.15565181737301156 0.013176038677407284 -0.26240876907224414 -0.18484788581134126 0.1006880986439289 0.029897702156680087 0.008348681223489106 0.10632635129401372 0.12696152925781035 -0.10617819648486032 0.22196237558367718 -0.08765685833011184 0.011483712974129786 -0.016108306410011642 -0.005893009547853855 0.00017259783801449176 0.003738469201617178 0.0590875719784346 0.002038050248940484 -0.0073041756705744905 -0.10561304416160039 0.0018958626354728461 -0.005996647087393413 -0.009112813490115312 -0.002651794259677367 0.012483938397466782 -0.06873779934775866 0.002429447873511436 0.001761692022761115 0.007229002321552971 -0.19855100265793335 -0.06439391950244494 0.008539583476769275 -0.0007594694596342336 -0.015669612122085067 0.0058428208683554625 -0.010680273775048103 -0.009951905437899266 -0.0036265573670630994 -0.003548730764105558 0.036054245710609015 -0.0004076818726276804 0.021164743622827893 -0.025621254058457447 -0.0142548046363958 0.01245703338399633 -0.02331715491584294 0.006105164897171552 -0.0022722438368369584 -0.024624964007577972 -0.006081926601860794 -0.006650303803366418 -0.09829426518103784 -0.15136106905093502 -0.0923887302564788 -0.04536641652112363 -0.07821959942522283 0.029459834952956912 0.01641406251430734 -0.11396788073838632 0.06715714287652876 -0.00903922434028964 -0.0013032129363195252 -0.09751727074088026 0.004672964351167257 -0.050012214006218525 0.004879383810127059 -0.030666450441397014 -0.054650013444532144 0.07460432998825314 -0.015591274746760014 0.05357292087760604 -0.08475239534698374 0.07209175156285065
century 0.17123624702422602 -0.006748744914664361 -0.019376732399608004 -0.060985999329869374 0.054993379888920696 -0.04137905783358263 -0.014464782234298899 -0.005517644209282444 -0.056685523104456285 0.030285510968824564 -0.07727298391996192 0.30676804306106487 -0.01231856662649834 -0.039961538046977475 0.06211035198125074 0.0004235297444321174 -0.066317207431093 -0.09646963124958109 -0.039247091602483276 -0.10847137292515535 0.0076343584329328406 0.010575856032694115 -0.06415079589909563 -0.05573535442441664 0.16170530817557463 0.10225087398318504 -0.12499065627193678 -0.09277234370566662 0.02342756405003322 0.00163017789065419 -0.20747696891365885 0.005798823751198889 0.025807574131444428 0.034060994659305815 0.11606408073727564 0.0707987099225045 -0.08755215775576682 0.1539206052620401 -0.044831569863575664 -0.11750262439911416 -0.204323319405618 0.09505883258568161 -0.07526751368292305 0.04478419136372835 -0.17650041230825536 -0.04284728791561643 -0.10651148967266856 0.18805759669726616 -0.11863774708359559 0.0298119493601111 0.2011571295995604 -0.020106461247092543 0.09376305750713798 0.01670143401505649 -0.22208404394675602 0.08888174074900076 0.01635379666821995 0.04730798425005346 0.07874049458988804 -0.022746725612778688 -0.18428982664903168 -0.2049592127746747 0.07345857136977593 0.07245000230182605 -0.13568021595855478 0.08563380310557678 0.02459474271507358 -0.01988975486880554 0.20518061882879943 -0.036113024601796787 0.10371993557315182 0.049347873715336124 -0.037808009310519905 -0.06528322416701815 0.06437212842235518 0.18251316658285846 -0.02512902435565925 -0.11125018186018129 -0.0826101475206677 0.119922834155891 0.09078833009804216 0.13842757910394496 0.023195645529553787 -0.07305312902687949 0.12024546727993758 0.005238150225878052 -0.0358512680347227 -0.06600182661185383 0.11386551462538785 -0.08970735543537141 0.015443014211621944 0.0009776865872345333 -0.12223056034358369 0.021255787994730616 -0.1167962651584047 -0.09365096867465511 0.11593239436036806 -0.04187840138816846 0.00848126242681961 -0.02916253140748181
announcement 0.16448824372115906 -0.12310683591728867 0.07264905321821871 -0.08286784496575206 -0.07197933897576896 -0.011321243418228242 -0.11134659908961775 0.02269187517953966 -0.005632045484653023 0.13536094477950883 -0.08003245832324328 0.0804480633476164 -0.029028978989507865 0.015609654910003885 0.08423884186851845 0.0863130612963758 0.056898277214604345 -0.07596272886399412 -0.021286258654673755 0.003843524201645202 0.12700224149303002 0.0061080891410459776 -0.1604692518551588 0.06542494366694195 -0.12881417989203925 0.12774350004179255 -0.08165596092106514 -0.05458995830337041 0.028156360733432473 -0.1111607980854503 0.04195903608719461 0.05621189751654957 -0.09642683003801458 -0.20359732674534342 -0.14985332348513355 0.04672315173645041 0.046267919066356064 0.08523843205706662 0.04673797415083105 0.05156187298609332 0.0008625323622828812 0.3122229559547258 0.38954095817371165 0.009100975328149638 0.07252262528096134 0.019357670415855243 0.13787651422219516 -0.10227200992784227 -0.16111270931839297 -0.0475960596122212 -0.13422288528427784 0.07672682178642198 0.12037613883340252 0.057625553588296116 0.025428248398562423 0.06640400302295685 -0.07060585158970377 -0.0878334244251125 -0.11037004616309685 0.03675167473040684 -0.057624873522669304 0.12025160424333751 0.016319774497816596 0.0412758639049572 -0.0736763052458465 0.06478355602790695 0.07044553592079456 -0.05985253963745952 -0.0583694400550836 -0.10336097974855846 0.09416952179877741 -0.019770443246635166 -0.05548747713634059 0.031111919819776554 0.09681926030512455 -0.0937126897642646 -0.05288585822914695 0.015529832252479782 0.08317192296740816 0.1831257444911635 -0.1122120630921003 0.050237215237044455 0.002956876442893124 0.07183249448509585 0.08282682563010334 0.02178814174697732 -0.1331640044902244 0.0880003493950879 0.05208960588912913 -0.016268120449306627 -0.1542412857243043 -0.1318493546865425 0.08237246100711415 -0.08870502164381505 -0.050743883612136165 -0.06249832869411347 0.07563325802743291 0.10432543356085128 -0.13145758312335448 -0.0987254416541291
phone 0.11443844539205987 -0.1080381320823407 0.11247216421272872 0.37242625741741575 -0.08176616565190549 -0.09826095638826579 -0.07304615549731797 -0.13985063557323593 -0.055644337141519916 -0.1738135241020117 -0.09819606327030696 -0.012274066956788654 0.049086170209984833 -0.044404096969589885 -0.03180812939720906 -0.01038074365428566 0.1090916079466974 0.03169948867784784 -0.056665436228004594 0.07745276474391315 0.006151200429907017 -0.11497495246298269 0.031117835703494814 0.03387031842984313 0.013039831466197032 -0.0019038490165041223 -0.01222172775338645 -0.06105613981976795 -0.13224557384894897 -0.029621401472603674 -0.031047527341958488 0.027287539087337376 0.025291605954829658 0.08704403372428585 -0.06815359585463637 0.04615081638464843 -0.08247074183264705 0.010134998539796367 0.09080856817918556 -0.02757730074116683 -0.03115121724272144 -0.008341848153222416 -0.06987206248153385 0.0650381045857777 0.04265601289115254 -0.07160240034118565 -0.008361907166467033 0.04197856025565436 -0.10364667272079264 0.11926339066282433 -0.00378695536748219 -0.0033425842784883058 -0.0599661649634029 -0.12356082146946236 -0.021982662681978488 0.25766718529847027 0.07180275923435578 -0.08035803639573463 -0.02215854912049925 0.029317457691294367 0.04266055680845446 0.07905705887991309 -0.003541665582996517 -0.04024045929346063 -0.00205840615520558 -0.12579362828969345 0.06094384803214474 0.04811230663525703 -0.04442620788509875 -0.19911212365174613 0.07547512584225062 -0.013121656175085554 0.04751122941252827 -0.0565875648875243 0.0014635536937400036 -0.22874198682595612 0.06861519092498256 -0.16170492863546873 0.23347269618336847 0.11502120401461162 -0.061945788417019254 0.0641018408070102 0.07121382333847887 0.1423723533905223 -0.09014555810263059 0.12385295441077587 0.002750894897638641 -0.047593945910841325 -0.22649541960507505 -0.06031047371926323 -0.02276187755015756 0.08683013258964242 -0.15486691494414914 -0.12562002830426403 -0.0364357429871454 0.23626343959185792 -0.17795764850030787 -0.06105417401693367 -0.09485720004938179 -0.012164871661307822
lobster 0.041117175072474005 0.04602170825188305 0.08533986787405674 0.09753175504002942 -0.03400460379894777 -0.0682118505950952 -0.005336523055014194 0.14613647885220918 0.014120904419912345 -0.05569657170793944 -0.13561018338255268 -0.05945700591189732 -0.04691650901015971 -0.12480926233496584 0.28034874587524033 -0.04190189634513298 -0.11624660967906864 -0.03616368369741267 0.13844343997432276 0.293216740607956 -0.17012298356902514 0.10256133244534829 0.04751973716963558 -0.21295383406270874 0.006659817802396948 -0.08584891014545631 -0.006364055145979084 0.1495298434667115 0.013002119909171042 -0.13038255414867944 -0.21704162667197893 0.06895714043733162 -0.11385764560606405 -0.06183023298220019 -0.11866974881048406 -0.31154738188945924 -0.07529073588806631 -0.037386212221439515 0.007603422397626536 -0.0013534079114067691 -0.07609004167448791 0.030197886641040984 0.00173987463165735 0.1377933237943466 -0.004067417585689119 0.03077596975930481 0.031888412019720966 0.018656908639904962 0.07520720327515298 0.0030778627494226895 -0.053604158303075286 -0.06501419714798486 0.058427627400949034 -0.014365256444374775 -0.019792338007367453 -0.032110795749577765 -0.07723634825986808 -0.2871991888181522 0.03710047703244453 -0.06328048782710703 -0.046183488995199 -0.022280084321340696 -0.10019268739439541 -0.11390001284619884 -0.05998276799107175 0.021506439814731448 -0.28398708734689704 0.0024585409820379236 -0.04790648657190953 -0.08679737295406255 0.0551933164843154 -0.05183494839432203 -0.07898682447642467 -0.01951460415162791 -0.05164816531334722 -0.0948247870742959 0.07762998904630168 0.015025194633402175 0.02954855621569643 -0.03658987249383722 -0.013594842340098277 0.023669561473042725 -0.062348012645813036 -0.05306380773506889 -0.03426427606742515 0.06356548320181933 0.08095650045464543 -0.08331715231980327 0.006859683118096571 0.030464997874941283 -0.018788398163979418 0.12150536002412984 0.02231104161524837 -0.007765655001692002 0.035708532107624695 0.12628199939417048 0.007704713163307849 -0.15636258284146126 0.07897263531464513 -0.06940079157022468
cat 0.049133642494698496 0.020939906975966347 0.0011294881035621178 0.00931017677089656 -0.005065374526888604 0.0200552710746797 0.026304007016362586 -0.025836013199176357 0.013202970222966444 0.1068204914100965 0.027576029444289187 0.17115469296471164 0.06397961250490954 -0.0347436853428422 0.17045003885505472 0.01607622344580682 0.09801436649808101 0.07847168160330528 -0.12963593387854938 -0.01893368232714047 0.0011627231980681986 0.03228260800301951 0.16612253096595161 -0.042703185216867195 -0.0403647411630435 -0.12279567669292625 0.021694252318610118 -0.005214859337237251 0.04828719383172722 0.1286165459379679 0.11600638355241058 0.025172886853786224 0.06716678725363491 0.017934034064377213 0.022278279425013054 -0.10050787836016574 -0.02113071572101622 -0.03765876938670415 -0.021456544013568436 -0.026435747228208503 0.17183582907760753 -0.10990682142117045 -0.13073482781006512 0.12216917653063049 -0.034892238981630436 0.006910839673892483 0.009486357804826989 0.044649635199716 0.06531759424407967 -0.08706197341205321 0.041051914295364075 -0.06498809914723484 0.13909172822321875 -0.006546352811278841 -0.053363646578252544 0.041311061953917275 0.14650881985939482 -0.10287172469699961 0.16176493938918157 -0.12976104756297033 0.00711772709691522 -0.1400947956867624 -0.01722196279280882 0.07730393045581438 0.10857179725807055 -0.03587273335416973 -0.015380399963520846 -0.11367700016634016 0.11100511107767402 -0.10979524244934223 -0.137998338944291 0.2940740393819168 0.14815108901483337 0.25211845845261555 0.10260563987483037 -0.2522833860307666 0.09477656364431768 -0.08002160787536153 -0.12258938788329879 0.001266396532447852 -0.17550412086366574 -0.05318925771574661 -0.06890762578484588 -0.07170144063539435 0.20745951584226918 0.0810930896611952 -0.008433409255175198 -0.16430103792106396 0.009686277636144516 0.05224946863416297 0.09583003992503751 -0.13256431428574778 0.06094212405145639 -0.01583421289118044 0.11112281494414243 -0.12554475572863044 -0.09795375472475512 0.038397169734976866 0.13099118770403873 0.1049116359817941
radio 0.08154385654491199 -0.0033413434595684754 -0.06987031608098081 0.04051923237465194 -0.04804104883385319 0.10937534228077282 -0.027375078130263884 0.02500368382051084 0.21613354496629128 0.14949948755872355 0.05327737285465484 0.19032775377749733 -0.1311724256380259 -0.14061882968125217 -0.07714087968258065 -0.2065770514944987 0.08388315402422017 0.06419027261605044 0.029939348592818736 0.2537151791236566 0.15258702443991826 0.10385815712464512 0.15888722981202383 0.25677396245321576 0.037958461741981454 -0.30379210704218274 0.007214708707613716 0.011294324918530083 -0.2534208056116702 0.04113335121921595 0.08924951795167543 0.015299101619022044 0.11595574265303961 -0.19978750184592217 0.27791856809670246 -0.12097254012434729 0.16982306571023859 -0.0013123063038938882 0.02348879259183069 0.010858795478793183 -0.09458615128842869 -0.01800178906787663 -0.04865958314439942 0.1969289101344675 0.006387865253195848 -0.03142525344151422 0.003104110331989836 0.008360187411494222 0.04282023583815357 -0.03651827471683879 -0.022631818455836308 -0.003170597246308728 0.07924832256751088 0.012133647260630579 -0.03816420171640084 0.04570233118279691 -0.002692670689017223 -0.026608450787182304 0.02907068058689114 -0.014942257464937433 0.009559141659007984 -0.10259309668407221 0.019267474076599466 0.027611383660417103 0.025333538116700964 0.06845279053455157 0.12021481209844317 -0.025921619799306846 -0.012743040375303187 -0.05040422682244854 -0.030491047363772915 0.14441008892452542 -0.0403930660959908 0.08755210074422519 0.13561885300813475 -0.09727577029430451 0.13343649257232437 0.05146542415237979 -0.0076494654140345075 0.03416165232211486 0.01362427645217784 -0.09059106569861625 0.005871578803792622 0.03423673103666061 0.03807000075161505 0.04934972637773953 -0.11460589241961 0.021757485924967984 -0.03261002502298578 0.010778110151428962 -0.02331165430956815 -0.03324509726208943 0.12955459747541903 -0.012476512610770847 0.04947578014960624 -0.0021131812727178895 -0.0027508725568943545 0.0008281174665589392 -0.02121858259632297 0.027098978763450122
cucumber 0.08841814062460882 0.06283948838983264 -0.12619559684346732 0.040203324785988905 -0.11291984556369021 0.11482074537582004 -0.1403989520637511 0.06135070454412517 0.2400467657139697 0.04818668041390798 0.0858844422156894 0.08363952748921179 -0.17307124999725584 -0.0510666603566521 -0.09618844781571595 -0.1886487085919631 0.010341448957614558 0.03898497212724048 -0.03218482782272902 0.16009596580212399 0.07022762245208022 -0.03353563146867204 0.08276180947771172 0.11682365066076139 0.054151145656858135 0.12233058471720298 0.07236738785986627 0.05525539814513157 -0.10931560788537008 -0.07695849785357103 -0.03845546256752452 0.04307285695434963 0.09249715881839521 0.006457015632478277 -0.028338737176254087 -0.05514006917765522 -0.20122757530833613 0.04735128138154204 -0.06187383730308627 -0.02845222180099833 0.07412608238195947 -0.023571335749813734 0.09641913532710956 -0.07310076212557018 0.06897120522692812 0.09214275731948139 0.00018766840540548736 0.052568422604275224 -0.1302024864048638 0.03616711426953154 0.14775044761658404 -0.12144889064802454 0.03310509475713474 0.018272518422405255 -0.005304828431826003 -0.06551960403663556 -0.04709533796583009 0.16904278230784994 0.05808922883534552 -0.1454243782991212 -0.021653483854492294 0.14962683987035796 -0.09059685258262029 0.03728465185592056 0.026466315894333105 -0.13450994891356177 -0.013800612566522926 -0.04763133126184486 0.10623729548402996 0.09850074519218437 0.06918250993437516 -0.15315702275251458 -0.059331255420610324 0.06384644531633446 -0.20033855396441574 -0.10526766865163494 -0.048698338303291074 -0.15412623906578043 -0.08431873400911868 0.05129024212778124 -0.16262645112375762 0.01537460250739085 -0.04546813734926887 -0.00841453098602436 0.01074417887042075 0.0918571372578229 0.11594908562331535 0.0360023346809895 0.05912890495374252 0.09555453370257222 0.053151091207200477 0.06207791824058707 -0.09561823998671638 0.2663508163884375 0.12158569878446038 -0.00011672593732330422 -0.01681051812401859 0.22210421712876782 -0.20337142213532897 0.004144938562832063
student 0.13196412668923146 -0.06739623085350806 -0.12380259515063856 -0.03253832517372282 0.031284318839167206 0.2037117687629423 -0.12115128489313932 0.07244268885289337 0.1958212666754991 -0.08320505727921326 -0.02219482070815037 -0.11874094314632451 0.07681790520100637 -0.10342619525468952 -0.020511434507237237 -0.049040209714652505 0.15026940407583017 0.0025865809702616768 0.025183312541723617 -0.037934261335836925 0.0179837629895594 0.015818516212587015 -0.02812400534941266 -0.0901817883813082 0.13286453464727987 -0.06797453128169832 -0.15895087368499108 0.02302921217238752 0.06024509641063682 0.08423716396183788 -0.08778618508963086 0.025983230717085082 -0.0694621609994668 0.12729108387024357 -0.11417550541665202 0.0668947528944319 0.11155810755311699 0.014804523836584321 -0.1935275528199144 -0.18898810817000927 0.06073659583946376 -0.12309757442553025 0.09979119999131122 -0.11075366177807248 -0.13436381514839568 0.24429104524519832 -0.07364708165677866 -0.05153928215538016 -0.12353699214578343 0.18212134561087837 0.0054961804172427514 -0.0009399466293942587 -0.031119197109969625 -0.151106048888588 0.08653153755201251 -0.08836347152823633 0.03267876036132508 -0.08897431862700414 -0.12845124792208337 0.06266657642284267 -0.14754607485892696 0.019421494363594666 0.061408398967209864 -0.05419836643569248 -0.08786828283649595 -0.02386499108120907 0.03987799803283868 0.13596908935250143 -0.07149370271630846 0.06390260618521655 -0.0508738898718808 0.12130981487510234 -0.04199244881088966 -0.18146044750087137 -0.10800341624708802 -0.14216451265421357 0.04226655965356535 -0.25194304825966213 -0.08654594950080662 0.04512274181988101 -0.0037754469023424542 0.014226665277209978 -0.07000963457764639 0.016329647164158512 0.12133918867297439 0.03590036693916346 -0.010596728278495962 -0.1420888267862847 -0.031197672549921143 0.054274285083000376 0.02775604857449356 -0.10118534514878354 0.03386239122117821 0.025094180327622555 0.1492442023023344 -0.09634282804475704 -0.03439737314733206 -0.008159239302344318 0.18067225541576387 0.03856390513742743
smart 0.1327288218717732 -0.06811964613610576 -0.11982312072085027 -0.035983024466935326 0.010042550802342023 0.21343516781161748 -0.10679493537006052 0.07447343179551064 0.18710864970576288 -0.12449762041731639 -0.017699705712888765 -0.13230483304270324 0.09895286302694244 -0.11241212670011029 0.0012629488188572284 -0.03865920522373057 0.12168540147775675 0.012207375905615884 -0.0006614042358979114 -0.09477293714072318 -0.016019842776372965 0.029252747211926982 -0.07276406384618792 -0.10977768302975315 0.10530041479679347 -0.06632627745202402 -0.16444216714913634 -0.015731942497616766 0.1254845437392061 0.0847032419406006 -0.05788697842151546 0.001337750377403276 -0.06371785233162193 0.12801906517475398 -0.11192516370270401 0.0022197341935273973 0.13769388062067184 -0.02230952806473076 -0.26435036434495435 -0.17533977769070774 0.03659750856962676 0.03271815430558173 0.06302767261436115 -0.028503347424728712 -0.07022052424523899 0.22594679817766114 -0.03565821772926686 -0.1034652259962184 -0.09861952198691697 0.15002763666943458 -0.03114449876338556 0.00925324971118079 -0.03966029586377599 -0.154353547452291 0.039278074822382526 -0.0915340930257436 0.038131470205270294 -0.10060938969017447 0.0585654877102215 0.09255613759408247 0.0427713938633517 0.08431090819354174 0.02467477332234221 -0.00826841458976742 -0.06500134398484349 -0.1734905799220543 0.1123936462877981 -0.048025218920434105 0.021941074255944826 -0.1243229955173517 0.03341942359785429 -0.044099207993889625 0.10770233914710248 0.10009019619382771 -0.0851556724294834 0.08357041959710827 -0.19792379714735342 -0.003365696951678681 0.09251106803730025 -0.005007916360540708 -0.06041323405288158 -0.03870216058937647 -0.1240403523366203 -0.24670480264186892 0.06471222081930639 -0.09568795456587173 0.03158397412364906 -0.0813113698264153 -0.10630861170365942 0.04599619980380378 0.14155383886614145 -0.12629572132181516 0.13685075683466058 0.055549926015907844 0.062251941497130994 -0.1280922455153352 -0.08763919445803077 -0.0917751100648039 0.05985855036416431 0.01867740205677493
sex 0.07888266419755254 -0.013865282561590303 -0.002083640998467058 0.05047161868811292 -0.15934088018052253 0.17914059351825432 -0.001960939456173537 -0.014074656798135852 -0.1623891160960313 -0.17274095935543202 -0.03481948683671748 0.05298657644184015 -0.03302999544070064 0.12676323385527277 -0.024520874190711025 0.12339318967054996 -0.05434246223545535 0.007761137412581699 -0.03202607403310624 0.05206789152745056 -0.09150164272800618 -0.08946400922828343 0.09482754909512102 0.09104361195196753 -0.09641073046684681 -0.1301365887897885 -0.04472669733042351 -0.07042444918428399 -0.2375331024397049 -0.00769506223293262 0.003041171368177333 0.12331422450616568 -0.05609809452443142 0.09236922245226666 -0.0006697856525548132 -0.03971473849468516 -0.11834317583239212 0.09232562716952923 -0.018502940894187202 0.012953136155785635 0.016572491245735968 -0.0016664167946423925 -0.08806818842748879 -0.12152425303341548 0.03559281865125052 -0.08203372542057143 0.003621911344862104 0.05785571912264061 -0.025708568499132122 0.060407345838213715 0.022752998903837248 -0.0036805746008509374 -0.04390204387864983 0.026100351493878567 0.20773752543186788 -0.07011023927773706 -0.03416353115059233 -0.06336326077891755 -0.16780207818931095 -0.15909620728025003 -0.25025773636058196 -0.034174064458835154 -0.055154222558592626 0.10170858590247328 -0.011419082331516665 -0.08871448144810226 0.0516843212040534 0.23292877977022763 -0.1748715000768783 -0.007135651626283983 -0.1612551065816767 -0.003077070592541482 0.03495057099893209 0.1577851435922249 0.11531501026450311 0.0027559388791815694 -0.0438351327797846 0.27475222241213326 -0.035816403265528034 0.14076461848216795 0.1433268912935378 0.10677018522163192 -0.09595357419694232 -0.19365342580614395 0.13077090417718462 0.058671302432276654 0.04949893151885734 0.08429583131486315 -0.03543145962969896 -0.0327445433200546 0.06566709815291208 -0.004694724973878257 -0.025844704146772608 0.030084195323053026 -0.08118534892168675 0.022482634541621853 -0.013904883481775437 0.115790705885169 0.017262413892665134 -0.1885393479979949
chemistry 0.09748424679713062 -0.04045358965262984 -0.051632208529471854 0.09224304719249506 -0.05550797676612298 0.20048835406551685 0.285734316778359 -0.025190477549460747 -0.16967249245532373 0.0782869716690925 0.11246731163169583 -0.1169910782242647 0.003668862415096587 -0.09181954307996439 0.12680305936725897 -0.11811840767755331 -0.027004745745206577 -0.0814746687564934 0.05505251547063149 -0.007795756367578354 0.09076236570316139 0.06039956375803616 -0.027954766071691492 0.10300896678882901 0.055759161919612395 0.1656499738652708 0.10498574419899764 -0.05897875519868983 0.02632711293946532 -0.010193073474869438 0.006123562850323889 -0.036890016182235724 0.011867449632013947 0.08218272812876634 -0.06168795626219228 0.06441771484429044 -0.012966727954641795 -0.09945965856264752 0.1660580941854536 0.020066453709036272 -0.03468119527365609 -0.057865914814452184 -0.08144478314507557 0.13815551550374686 0.10092404197079964 -0.029571802351154922 0.06670031273162999 0.01249252202247135 -0.036443838575149635 0.06988664674603344 -0.15108207511434826 0.01853255112770434 0.06537827250343833 0.08083584014770355 -0.11216298657367868 0.05822688556051967 -0.08858434102647768 0.00927551001405038 0.20858563450599224 -0.07524164994072939 -0.06043787516588596 0.10822467743372234 0.22307771044447677 -0.26948439182376277 -0.06341238667608741 0.04551445774434043 -0.08564923343669854 0.0098288425798045 0.13211689255486714 0.2688945215995472 -0.044146839046655784 0.08119557386554711 -0.0729630386761047 -0.12967104085218176 0.00907359442969563 -0.06179648476274959 -0.06999980746128709 -0.196331623443481 0.10146140562455112 0.10732432521435716 -0.051588180837505375 0.20817969449550638 -0.04353536876185948 0.006851883924683207 -0.027586602868414144 -0.005000025305987624 0.0776781428549041 0.04459121619686644 0.014462483180666326 0.11256942123557448 -0.058417061933861786 -0.04959656115236511 0.11317784134382945 -0.06735247559108269 0.0665206398479818 -0.041792077908107114 0.019237869628778537 0.053193319683553016 0.11936922661832598 -0.044566131340777075
vodka 0.07501071256516273 0.04021959907860747 -0.059577298062195194 0.06251336958054322 -0.13633701863177483 0.19701346650279294 0.3033958794073285 -0.062514532780571 -0.24086871152780778 0.12295611741008422 -0.009730181626156471 -0.06885755104167854 -0.07924300769497401 -0.02221388985673226 0.03555494747954725 -0.08921803247851592 0.19628799611327247 -0.10272140999506273 0.14803648798546276 0.09048621288237806 0.17060698792673504 -0.09065186159849566 -0.04105205826675554 -0.019062632563979474 0.17917351923889832 0.07868154464094304 -0.005796673955139627 0.16367653925909448 0.2557914281463732 -0.08542094416317869 0.04673360196728174 -0.0416331222902549 0.04524178461668735 0.1568097902633026 -0.02373604731117707 -0.0014152968456793388 0.01566339002495694 -0.10304442488132384 0.024441829282761368 -0.04757135838832521 -0.03589646291299884 -0.007367396288638732 -0.01562568656202773 0.26674142790465466 0.10529046932896038 0.07290660145537996 0.18333876940422808 0.06788468865224155 -0.02140687282101271 -0.01964700015246697 -0.010161342035564742 -0.028580454174990694 -0.07108431364524256 -0.07334043426519475 -0.0615738415398565 -0.012608207268882902 0.11825598440753345 0.18180172052240967 0.044216623450498344 0.13570842952397744 0.17078425769086986 -0.013047633956871196 0.10400884589818214 -0.1124131848597109 -0.07211432638072153 -0.014031391429635484 0.11032580357909796 -0.057351523170277315 -0.034720964304761466 -0.08083420754950858 -0.006701014589689083 -0.0276436538132932 -0.20850349564531923 0.004848246083520409 -0.0046591880282265885 0.062215664825501 0.03979862919366017 0.0470818308494167 -0.10366837161646392 0.13464301399672896 -0.008733294947018834 -0.06712562272966416 -0.01700260698448875 0.04757884780932536 0.009072697404334685 0.06920939781122651 0.03620371384200266 -0.05323281421915183 0.07821458755147946 0.004209001413027947 -0.06943585584032334 -0.02044992867224185 0.0054817592296676106 -0.15823996332630436 -0.08180003515861002 -0.015020291274423447 -0.009488849508358375 -0.03084162284152674 -0.023584844246389677 0.049354559295859295
voyage 0.12668145842610753 0.21872993071818714 -0.18460590307588912 0.02492943602420345 -0.14478889485999333 -0.11197120106220687 0.008520603324875108 -0.02033728303472697 0.028790596995155023 0.08040367085330359 0.05255386248748718 -0.05256509627511081 -0.012718680710050535 0.05571482044649425 -0.08132305880244786 -0.1327048177024069 0.08629442363565175 -0.026298268291628776 -0.020450917896347967 0.0009976579549641356 -0.15909141561270865 -0.14032710030520773 -0.021464568614024588 -0.12054925010403071 -0.09989807912465873 0.11611884889568959 0.01647013431160109 -0.03811722530320068 0.01821503589362421 0.01435125610202458 -0.014156374818746513 0.05331239675382046 0.01600242896625057 -0.14937312372453956 0.025753226237204163 0.0021803273753559695 -0.008306218276547034 0.0909407438657543 -0.07980011547752303 0.049257526399341035 0.015017468361205223 -0.00861265370146287 0.0445438941125014 -0.0840051593151573 -0.25479985373989555 -0.07352245578203026 -0.04884655033146479 0.042185429189473794 -0.00591949786650409 -0.06421299787104628 0.01104658309395527 -0.018508770620520396 -0.00903009891897149 0.04239597496503173 0.06996388371732944 0.06513507323423197 -0.035171934688441535 -0.13354156149441687 0.16827318219457954 0.11917703683193 0.097890212054708 0.15583843684010057 -0.11214469243060969 0.07789164699641019 -0.20870662972047957 -0.13551108461910005 -0.016290376083751217 0.0535027576467775 -0.13786291339188284 0.13369326421405897 0.10843762551504743 0.0807721348859914 0.11585968087984157 0.060893438005061584 -0.05840622108918237 0.03869885099357555 0.1209426995967951 -0.09789501704782165 0.03001805987363896 0.10176234813624808 -0.04707095147837564 0.1251622627751859 -0.15660601216887815 -0.030349426607462458 -0.09406960389761189 0.0525171449244855 0.00937874715867572 0.08981914855277201 -0.005893156437595428 0.043161240615885915 -0.05380448508530032 -0.07030777134437714 0.022559006937311665 0.4051435152821429 0.20745217989386636 -0.06317279221395967 -0.02612672315454911 0.05221505854800101 -0.018689856411113634 -0.09932174604345706
shore 0.1349662615914452 0.1709848801531056 -0.09311713391770848 -0.02718545652294279 -0.07491947045067995 -0.11100894092197683 0.04797703287054751 -0.05275680311390293 -0.05019677836268395 0.05207668155508848 -0.050304622606829386 0.02438893631165075 0.07216712584424949 -0.07521501985407282 -0.12262113417110648 0.003987076037446327 -0.04222649954338915 -0.0011150793795729197 0.04423445915872675 -0.10516866067024441 -0.03261998022376612 0.03763454250617105 -0.08420575595868823 -0.09285534571216374 0.023732462566321753 -0.0661492664489627 -0.08282004131783409 0.011007418050117507 -0.16039178606303242 0.1620330770495035 -0.14093915638067606 -0.036058586075432636 0.034596931278195665 -0.03473830587229773 -0.057176810962294954 0.09127786382664249 -0.03579708717147283 -0.018228740346857834 0.06026929696216458 -0.008496014747726455 0.04380991065042413 -0.054466675702293126 0.06701713311907397 0.12214909225951111 0.297904824152755 0.07460692411424107 -0.1407241638318659 -0.23981238386849069 0.24148859288439575 0.143451332856467 -0.10192016594717282 -0.05490907566898648 0.12842613954467796 -0.034379554115003645 -0.01821435695756696 0.12864437790293345 -0.12536137033261932 -0.04750423561928031 -0.06864028641667123 0.11497367952110019 -0.17446761235719005 0.004340145908586485 -0.0032521536594927467 0.027027066988777795 0.03775660306658274 -0.0028930789942205265 -0.09866567416689952 -0.032727338669475754 -0.058723315340536 -0.016751568216952648 -0.18502504136343256 0.007565676588320072 -0.019627161226956444 0.11659916626452355 0.061188665276090806 -0.05228937523833497 -0.05695742280507557 -0.20648962350156622 0.035037143203827226 -0.04444476383563532 0.09715274295440796 -0.16525188210112043 0.08004865397821218 -0.2098947669087314 -0.01715236053431673 -0.1076153465118338 -0.07370972001249855 0.16673265054256636 0.05807465436370425 0.11078557633104252 0.03675513799853363 -0.08201817507505942 -0.10848304100745308 -0.07929445614951228 -0.03574153873522648 -0.1148745449589213 -0.05439239942882531 0.05614937327168748 -0.20269732182462108 -0.05484502826803491
magician 0.13113543989829557 0.23987547022457756 0.003231977134872268 -0.04678029293770011 -0.009412717505094198 -0.09704941656550407 -0.06518321923885634 -0.0899530264901662 -0.04356481102069197 -0.019255959200788327 0.08939351292909845 -0.053271351208747625 0.03743689970309288 -0.11921149000696966 -0.04231225781969369 0.07417241973165488 -0.08939424667686546 -0.03182080481180568 0.12124232810911555 -0.13146179510986974 0.2085271946185178 0.03498852946985371 0.05339910698192486 -0.06631408032529741 0.020507841035207745 -0.10081285190248185 0.051959849623285426 -0.04602178113383321 -0.15236630566270515 0.003534993016681824 -0.023469450304257258 0.0979151917711917 -0.01807176336087357 -0.017025238395126426 -0.21348104225550268 -0.0474978818330819 0.020979129674912524 0.03710546945103051 -0.10454370960984798 0.26630096535101394 0.08074001471426366 0.037433013436152685 -0.01701926564572705 0.15289805606160636 -0.11799950622859359 0.07023473249491105 0.058250965422601615 0.32958893715641846 -0.17044247516858005 -0.13356181867806274 -0.005722607576784281 0.014474594224054421 -0.11784879034882177 -0.04597120888716257 0.032689250127532626 -0.022933637945215593 -0.014626940244562079 0.1305123363623025 0.022442265558064937 0.06501699741599343 0.08869131820690934 0.06979783192691053 0.04993509080117291 -0.07284963795990752 -0.07483749063801298 -0.12207143086158684 0.07364623076642336 0.008968987611829397 0.10046147453021871 0.04468142868361264 -0.027752442113024557 0.01882641450457759 0.045916228638406685 0.06373436305695795 -0.08057351842396042 -0.22974651454736958 0.02118280910133151 -0.03556614366987444 -0.07177719074242996 -0.02822478057749162 0.11754316441142584 -0.016077548449509548 0.08167491595201284 -0.1478078631504409 -0.14844789017230647 -0.053293306412806274 0.16007200754905043 0.10035957887779953 0.13288819446939154 0.07470374840392784 -0.13122606912565207 -0.10671285880302081 -0.03572742697233546 -0.1282879559594737 -0.025977902157982662 -0.004193418832692552 0.03737923169806854 0.08424680555087645 0.0959927654263715 -0.13493249939126917
wizard 0.1443699710893307 0.2604427180283189 -0.14393788448075281 0.03819562829549638 -0.12609978804944055 -0.2003809588976045 -0.0499013954520595 -1.7822855152220744e-05 0.024363851916982784 0.037933541371509484 0.1189218950797096 -0.09796552532054767 0.06454525605235953 0.08909307729697812 0.060645912950708585 0.0594211067555618 -0.08105951617352458 -0.08433257763165808 0.030482295358746355 -0.07345592156884154 0.04895296816809329 -0.0690895091118478 0.11070728491625767 -0.003938184057722241 -0.020478418581223453 -0.015930261806438105 -0.061263665824995664 -0.02313758225704784 -0.11334976155382416 0.20855172934021005 -0.09018507249110384 0.01426737078472908 -0.07450235303576126 -0.04161604848309243 -0.08820132382345668 0.11428758502125215 0.2476549939249572 -0.09550855892615408 -0.05594322433010975 0.0332129465390967 -0.07565502478898493 0.07609464791633147 -0.07667842218621009 0.17413950511990506 -0.1262016520786747 -0.12089000476204378 0.10280267884682642 0.06973747303875272 -0.12438804988399452 -0.0856140388173741 -0.12449471300725426 0.1405370554636716 -0.006585542919449321 0.022868852675425284 0.03439673754345973 -0.08305740493241114 0.05972099335593212 0.07214245292975399 -0.2009703230940034 -0.13427418946784403 0.17207557164490994 -0.10515659985237273 0.16024646105789744 -0.16897057804532672 -0.036109620075588315 0.0034837803874037537 -0.04034332535525854 -0.06117332514593964 0.05751762516343496 -0.12652056056215613 -0.14107422568990635 0.042623445804054125 -0.16993426457030197 -0.01792165959579263 -0.0018653518780159316 -0.0556822503277582 0.008799692989746734 0.03403954138385407 0.02476819943435702 -0.03537724293241666 0.10365290491105984 0.10462768668474352 0.029834158721491942 -0.05780530674692499 -0.05284220337147897 -0.08938715047399719 0.03707920220798247 -0.03410442537837221 -0.04195222665909372 0.08312874186382067 0.03092269151922784 0.11812426117998898 -0.01866105705259267 -0.24391955437567775 -0.02538816332470753 -0.013179754001057073 0.0747763283496927 -0.05073983023502451 0.11315078394187912 0.15350148537518782
noon 0.12335108799590219 0.25576460282150815 -0.15783169288939264 0.06113566048557478 -0.18067043781418157 -0.1358937869592134 -0.11515522967186376 0.030852721378184487 0.1380656391768844 0.03758120756972573 0.14369432005221427 -0.12023304839949349 -0.03215630179718904 0.06566940799236697 0.06981887524315537 0.003757690051008488 -0.12574972580888 -0.09594854027162181 0.025373292660334855 -0.07926416102261327 0.11713147002746137 -0.1131615874071516 0.10328791942187662 0.03197336685482821 -0.02428920492908847 0.11327503707214882 -0.01447850524231425 0.035526965344714806 -0.04691092115718111 0.019393777387436424 -0.043614296207393995 -0.023863103618187435 0.09212846516971525 0.03718792219579502 -0.008518194968822014 -0.001185639535223873 -0.09869177376161713 0.06675663790969713 0.03627455351090736 -0.0013080581713587488 0.08353330419700411 0.02977578705875867 -0.03385515329055306 0.09756711751744478 -0.2782758512078426 -0.13349717275113643 0.12568864343094321 -0.20121807778333703 0.1982795190244382 0.10089740439713105 -0.2502640158662843 0.0667742077645032 0.004584428598875035 -0.04012644084383411 0.03528365218468365 0.11857301101317709 0.03308180806186967 0.014612427867944058 0.130893185195498 0.22947150342894568 -0.03802174771621197 -0.027544196015798068 0.04525046430725692 -0.011973026929747142 -0.049163906323338495 -0.02779710567773057 0.041478427155973316 0.011299571066600204 -0.23027716928024036 -0.04023918891926773 -0.11748392299400881 0.09419341664288565 -0.09654063870632729 0.06318430348315253 0.00622699825640864 0.09817189761175443 -0.01381590570383398 0.0213625283564679 -0.16230496130132602 0.0464222888437209 -0.014719375655934126 -0.09850487076199638 0.08874732792973926 -0.0710352950225817 0.06661832805306356 0.02282197656922621 -0.06302077454128803 0.06096240063327027 0.019732260574811283 0.00305310619337579 -0.07425271196674997 -0.06528452256401598 -0.04333533892154185 0.04479763985698333 -0.12273837628956163 -0.04752253806068229 -0.02984708620678311 -0.23681640996849607 -0.08060733571703596 -0.009915651226602484
bird 0.08469726766532812 0.13620267682145257 -0.029955754419275168 0.09565495208449623 -0.13512426220641244 -0.11629506264121553 -0.07291229649212033 0.045022085939068986 0.110587559837344 0.007439387830929585 0.036195662539040975 -0.13461864167706308 0.003196739406726388 0.057515025287019995 0.22099381072075625 0.1515214939373342 -0.15850567323796852 -0.12407192107183493 0.04494668067461465 -0.10574622757015649 0.23037177421849417 0.021281731585456484 -0.04293630915431459 0.15794380596325677 0.04491165056758822 -0.1542153992456452 -0.10317909327823144 0.06376907922601671 0.1551899261293317 -0.1878939310726091 0.2390675653128613 -0.19280345550638936 0.0717892896223976 0.18384552466784196 0.3157794643907785 -0.09660196259937079 -0.0990201236597521 0.009540541537159289 -0.01779609792316635 0.032780690466106155 -0.11299403476097943 0.03719920011923967 -0.013149163595621563 -0.3346234864768834 -0.07181802613495197 -0.03298240163613918 -0.1203314065899572 0.0633138972310452 -0.07140939081369083 -0.0411764858757506 -0.07437707725929096 0.06237219839578423 0.028830743185041783 -0.006817079676442231 0.01600323131669972 -0.07676550184827693 0.03729320931718472 -0.10865302315996758 -0.06856473711795841 -0.11458099806719269 0.08717685827294283 -0.07383383582079348 0.08436125393104324 -0.10120990172237974 -0.029790807571990194 0.0033987570678407062 -0.020481701401209855 -0.0694573970693429 0.056045271253684095 -0.07864185200592175 -3.9944987404091456e-05 -0.010622698813317798 0.07056520700795946 0.014494756029687451 -0.09565156489542813 -0.0932419284990434 0.04056370870546392 0.019258347122191554 0.024824081017533917 0.08476050400267787 0.14887306567342692 -0.0031504820178328706 0.004794738661310517 -0.021704691095267657 -0.053805246727301616 -0.032071763504430514 -0.012380275292235808 -0.04089854829911891 0.009578528762555607 0.009439617465869181 0.007331304288369995 0.005666523194587865 -0.00021289343643849087 0.11402304727536398 0.02756851658152064 0.04104385627651247 0.019444913044261148 0.020991589756983932 0.03534740590981098 -0.019457345199722073
crane 0.10071962424619166 0.03248307255788638 0.07217220444460067 0.030706079236608223 -0.08809817691064424 -0.010931490122993007 0.015472612488230432 0.03635400749989659 0.13236977022989388 0.06379348234616553 -0.13439650358534316 -0.10461992806437177 -0.011714440639749699 0.104807070706084 0.07126188225852524 0.12024693754047786 -0.023131960944322193 -0.07462929046551643 -0.03599384582069817 -0.08933687741842529 0.13388754454419652 0.03571972145934614 -0.08744311601981031 0.13029844384984074 -0.0006200872799900262 -0.04638864290196934 -0.005035674337004554 -0.03519426652357746 0.1403713769876489 -0.17234257948390022 0.13387549687928632 0.1180737151447508 -0.06741875471259093 -0.04782224974276738 0.10007250616900577 -0.01838151719057929 -0.01824155080311022 -0.0795769742002357 -0.00878106804245606 -0.026541847746253955 -0.022016569502401877 0.015567995046111699 -0.19823863355140756 -0.10324026534031745 -0.041474255801457416 0.09233882363030993 -0.19904996451589393 -0.11701351211630913 0.13236149191647206 0.051807252588022726 0.03441734409044783 -0.09043792388518211 0.1720935771604316 0.05517630526172685 -0.020338801995190735 0.01931064426679105 -0.0336386758690522 -0.054005196311809014 0.0484731792872086 0.03271370496426164 -0.016081813483557368 -0.1463842800414141 0.015712522697736597 -0.1746907967323318 0.12907656308900362 0.02014949502422836 -0.04866388469429068 0.21280357316428256 -0.15986240887281708 0.014355561375912762 0.20680428942241882 -0.17441961772892886 0.08212297341459154 0.10316327995346161 -0.017706475359684285 0.18718605943656066 0.015211420994967985 -0.08610317193092872 0.11854655228587287 0.03847913311993981 -0.015487308138954364 -0.17802897304095805 -0.057440574888111676 0.09982174135848434 0.14290091542402303 0.017379022352959787 -0.14803430151613278 0.003036130948371674 0.14286327108069227 -0.01791879755352079 -0.21562487844179598 -0.19968211493023952 -0.016008613886717253 -0.020173067144822796 0.004098775019176636 -0.015046610808899309 -0.13138288851496074 0.12256085559281601 0.11424569525584279 -0.07397886102025279
rooster 0.09719579593155822 0.15290536562793847 -0.09793724527867533 0.07089165057245665 -0.1374678400553268 -0.0899656569784059 -0.08103970309268603 0.03334686810334933 0.0989924900846537 0.011855706314426876 0.07008744991599855 -0.06994506707905827 -0.02155409108178369 0.09475851064358458 0.09336625067937342 0.018931681097220526 -0.029875072349861687 -0.040938182603657 -0.03197230760209534 -0.036259599282023124 -0.029674375229184344 -0.10443351153180133 0.05135614093341609 0.09339222322483058 -0.05363054558186327 0.1615936660942861 0.1064929060985533 0.022145275342610616 0.20193772743534008 0.027085820405898933 0.07408962828112568 0.028390365823041868 -0.013101644326702078 -0.017641474274415637 0.2071587530691167 -0.06433497789532815 0.11098471625970475 0.015835764284951943 -0.012047988995522013 -0.045472652771825446 -0.13291176961382162 -0.04332951007466748 0.13796697846524844 -0.0865045566140015 0.13979966028204854 0.09609181146498098 -0.13598730015885663 0.036340159431113024 0.062234863408158106 -0.03148085265561424 0.19990882727218015 -0.14355193211068598 -0.07596987379748525 -0.021675963641307496 -0.008378168989790633 0.05989792231716574 -0.031961496640829166 -0.15062954989275018 0.2775455807893705 0.12731948613939437 -0.13100440709374855 0.21082143955942492 -0.18285555442042598 0.19938443980754125 -0.09280294804950578 -0.08676954644564477 -0.03527086896235953 -0.0015533782155246379 -0.0464783462788207 0.16287674240501948 0.028008295049874673 0.09150072864150291 0.008671409431305352 0.012451845180682566 0.007376606297489975 0.020977515021332615 0.0057489086885648905 -0.0421799712687787 0.04256922072794736 0.2620267956191824 -0.02867590440548564 0.0691673795114528 0.07811114043247906 0.016612824461493366 -0.04898926121435765 0.020317924973913364 0.057296968674713 0.10116604015951129 -0.03899390030154154 0.025383980318034842 0.051174766328479275 0.20347086431980133 0.003232290076441271 -0.16930827057332834 -0.08162337963319122 0.12026081622322438 0.04090495729369718 0.043449710915277516 -0.06753194558277253 0.13500158893751701
year 0.14070442637502206 -0.0767579887288131 -0.0593749518589551 -0.03067832189087871 0.14467078143729636 0.01177350126914034 -0.02450778500580071 0.036507730714822634 -0.017172778931749465 0.06456406919529495 0.003308374638018912 0.13026936321000532 -0.045212124909841056 -0.01209416036342794 0.13502213105150224 0.09811806173457394 0.014332603345615822 -0.04836521956572642 -0.09551553074784115 -0.03982437872702357 0.07707988527788308 -0.1771969692420906 -0.07960053272827024 -0.09645315746474746 -0.04551688708477955 0.03605645656877793 0.040814349334142956 0.15144838759519472 -0.12595695452312117 -0.1401362728574676 -0.06104321365314581 -0.0388498764736416 0.012220699094359565 -0.085074158746295 -0.02897478382655885 0.11110335520462966 -0.03441522066453825 0.024258932185350204 -0.14860013382275797 -0.04730421487157834 -0.18504918488822697 0.24169701808799798 0.10527859282527635 0.0036906204737668074 0.04446215089008703 -0.1357611982174241 -0.032412623562507945 0.017529174885825154 -0.1427745761265181 0.1061924367076717 0.025765226139677102 -0.20719706017841508 -0.06829039311273716 0.05829508279882008 -0.153153603563675 0.11682870450854595 0.031795786233735863 -0.008983425406040933 -0.03422771239397651 0.03498665448067068 -0.042467813730645426 -0.14175356504882927 7.718657975974179e-05 -0.16900582196204203 0.028169933267204926 0.03413160561420294 0.10644447454414398 0.05404994228109981 -0.08496610443846046 0.22853245641346404 -0.12175390161318074 0.012751806609775209 0.04880565123693216 0.04756290812673616 0.005328049521564125 0.07172920781115212 0.2020693480619981 0.006706087521308827 -0.09738028586350138 0.06339462313601563 0.04953468532807637 -0.08959782724849168 0.1282433191513692 -0.11614313649183736 -0.0043861687910634875 -0.15181853720112723 -0.06839406859959789 -0.02889344794262793 -0.011082316019250749 0.02901717371241793 0.16461425964233334 -0.06374248529244211 0.16569758725383874 0.0192807123866878 0.13715296979463595 0.22675601781280458 -0.1233006331939718 -0.06148804669198928 -0.17780843138178928 0.09605093666207944
profit 0.11506383905624983 -0.1197370892435875 0.06584907584756236 0.31291066203999834 0.06128563078887818 -0.10698771732874564 0.046061890476412896 -0.06830137744936406 0.07536653416766295 -0.13207509591704797 0.07707476593247825 0.14932952116982204 -0.11633904843972172 0.019869983778541052 -0.10438957608993406 -0.055735142659857115 0.06070292472851139 -0.15266598859609948 0.08602054386775436 -0.1587789054431379 0.023394322794234052 0.014422880087160339 -0.056948341019148994 -0.05178248675534911 -0.08660741936786731 -0.017281199235023654 0.05567758512206177 0.08362410885874685 0.020285086686482948 0.0907600855434715 0.04931827595066519 -0.03592380904218538 -0.14116849702324752 0.03921181662676238 0.05498192061162803 -0.04180513624940348 0.008410353279577341 -0.05570643194775815 -0.10078814591649024 -0.07761806370577072 0.2362264105384763 0.13834808977623717 0.03339177458542823 -0.043728921407175554 -0.006305694161246411 -0.0006792497924696742 0.008960707943936217 0.23528576308449947 0.25600115429027337 0.1317332746572293 0.011724951507293819 0.03249688992746956 -0.0730433834146006 0.29887925198418486 -0.1588908694136812 -0.2724748765583399 -0.024155478662846272 0.03279957965094165 -0.03772617345198413 0.06275570515064306 -0.12808359374088518 -0.03247983347560037 -0.05095649867855262 -0.14223290152782142 -0.06000727398096871 -0.06984923873342877 -0.04052813521454623 -0.07790794723822901 -0.07554942557772927 -0.0217373510567138 -0.03591285150174006 0.10127618056209316 -0.09121802395082797 0.04196067467040324 -0.0437708046569725 -0.010667843453219653 -0.03755243795894932 0.011240072392005224 0.14229687380173767 -0.026302738981768086 -0.09537700884122603 0.06107050988166197 0.020822324720572775 0.06573078377973171 -0.06062043085231974 -0.012320717268263387 -0.07371754307832136 -0.06087231437275789 -0.07169859585180685 -0.039247463703694446 0.014766125186298024 -0.031530703458142344 -0.10421048055149686 0.01699595537148306 -0.09097363823439089 -0.12312201816224953 0.042959889710804416 -0.09497178797440127 -0.05739507332907752 -0.1098338888744142
water 0.10807577427459245 -0.08725082532377813 0.0929861120131296 0.1328252650084965 -0.08957959955667949 -0.09363983987341185 0.04706104293413602 -0.036944068099227616 0.1324962911923436 0.003151323917001383 -0.11610125336121081 -0.03082893673075966 -0.06710640068785977 -0.13126953748966635 0.047715372569353015 0.21638650594344497 -0.02439861359962229 0.07131642111002225 0.09038712058483227 0.22702055255190776 -0.02544756375014005 -0.0105416781273502 -0.06873320277622896 -0.07100225489243561 -0.030166534303242145 0.09855377094223679 0.0019212652336298023 -0.16017369550877966 0.02062073487857413 0.0529920186477579 0.0009879970079652006 0.08407005348182225 0.1701482592129409 -0.09058471252621936 -0.0718397374753643 0.12419193328349307 0.005259631400235562 -0.06793049192262812 0.06922834512124015 -0.11787865019780726 -0.07401277021846021 0.00980312793408219 -0.11775219372935045 -0.04952968118039389 -0.049334142206639425 0.0518541819159186 0.1767493820317079 0.1517923932642313 0.01763034560696715 -0.06853915668931593 -0.13183878065287238 -0.11934576374196114 -0.08399136069127941 0.009728428365287353 -0.05118524008802492 -0.14623259614878437 0.05943670492036497 0.040524377281654006 0.08113726636458467 0.026932059238740768 -0.0545703121511547 -0.02289897537370699 -0.04246358898671674 0.001797102409476464 0.11790798104400421 0.0945690888799573 0.0717390209954276 0.13613079542698903 -0.12174225355874436 0.06933785684571656 -0.10421897454156091 0.000956419438981681 0.09930828555780104 0.15889765366215738 -0.15879124962352267 0.13053122657673283 0.05019721936744747 -0.08016431535110967 0.09767419355323759 -0.16628851237216652 0.009145182622407147 -0.059204472069515506 -0.0908797748333736 -0.13746064959858742 -0.0970610171246578 0.00030047684474339295 0.029257885182437278 -0.24414283587015342 0.11511861682082097 0.14392349207366004 -0.016428970796700425 0.2645942404043344 0.009299465981517346 0.03750516561813729 0.08336732695183649 0.12026522717638302 0.16782225452241775 0.014483509420713084 0.06275918531900565 -0.012736800696372393
seafood 0.04908388869930647 -0.0014998109632898518 0.07120780106934496 0.15978875288613067 -0.06149071730377389 -0.0993983705112145 -0.0068007259655607395 0.03469975639186108 0.05844015796577404 -0.06831937188914863 -0.10132324891746111 -0.06131339231225357 -0.044731801881730426 -0.13763144862635218 0.23560832163099898 0.12487600958711836 -0.040531572033906595 0.011354619846966025 0.11952756377730657 0.37874234299774506 -0.09202372226602169 0.05167055582106917 -0.11598739960104709 -0.21706240561508774 0.06004145049294714 -0.029978210402312057 0.0866181312498354 -0.10749019120082307 -0.009606980690061153 -0.03429144708515628 -0.17383237725902728 0.11250898240154888 0.23367425641399217 0.009245992646701897 -0.1385042355775718 -0.13521771967485963 0.02475071655844916 0.008074189595045808 -0.0009792985198573817 0.01189763077757223 -0.1369021168049793 -0.017047080573035594 -0.02014102162031924 0.04318672876272704 -0.0026607749098915686 -0.03618299391084153 0.052236017267605794 -0.04339355163737983 -0.08244900252554657 0.01774949124542134 0.04129173088670964 0.04866406931649677 0.03451032551455446 -0.04368883618905789 0.04092158124854985 0.11036986718394766 0.1347141566267165 -0.34638245176884774 -0.03210042178747012 0.03321732092794503 0.08896212730950268 0.0053030481604104925 0.09575114326306833 0.07740360130212992 0.03769596829335342 -0.071162975968184 -0.15985544538940805 -0.016171997313778212 0.018133907328613023 0.00803638209829067 -0.02415760963550315 -0.06203234591502191 -0.12159825020289265 -0.02881620841675286 0.08361303161357747 0.015467341021408969 -0.07440210744906546 -0.06219438029126973 -0.16824175609833414 -0.1162432615436611 -0.10520633385786443 0.054058360943001246 0.10768320681051452 0.2172201888619671 0.0010539107895246012 -0.003066726759383938 -0.00038267858242811736 0.09332456453066007 -0.049286043324173336 -0.06412407573263829 0.10468093557804121 -0.07043927845458711 0.010047191063805153 0.016892473261105812 -0.028363503105229275 0.006704806056941527 -0.09198405151839661 -0.028627319228811048 0.0056496329123714596 -0.03989847088548851
