277 100
tiger 0.21464108433353118 0.4870861193429486 -0.17293484872589496 -0.19411724510934766 -0.17341183363956314 -0.038863872603263294 -0.11441273493540903 -0.10679256623196114 0.08529001612691296 0.13525701755336708 -0.07019767606949676 0.011531296366636759 -0.02792570099046861 0.03484404679773336 -0.023031773352467776 0.08451810403605794 0.05480886347811405 0.0033620432835694846 0.06541260726984752 0.1299001925789224 -0.03649717168973483 -0.1271361355811742 0.009900412755932604 -0.017024265340492704 0.10626863415624219 -0.1298111366160257 0.05817643552319808 0.02812428592301752 0.021881355829540768 0.0014508828516600703 -0.01377946703686262 0.05485957604520685 0.0189514056195779 0.0006489250490956036 -0.08578183430881653 0.1253788988578445 -0.027482443279012395 -0.12055551694372026 -0.19091628948590406 -0.10304019735028841 -0.03247926541590115 0.008748180481965821 0.03662623661086832 -0.05066358050019137 0.009554168552021559 0.2839980220562984 0.13779855442166286 0.01080815832731761 0.016774074854500536 0.06886392650567391 -0.03077750987195945 0.13108857103190155 -0.12693557845089065 0.21772223594487902 0.020182316573725094 0.10396016871758026 -0.10244245131689472 -0.13081777579063544 -0.016155392901263103 0.04728400089557956 -0.15314089254362886 0.008990665502640613 -0.006962882806385944 -0.00017270558200089438 -0.17616804445166978 -0.04843039478353824 -0.003513786887450629 0.03797446114360486 0.04058477822935425 0.051097166985704365 0.047018914428460755 0.08775786642024763 -0.109354904337557 -0.015934010140408815 -0.08997162456102752 0.03975724838574559 -0.03156872143275267 -0.008075127838078722 0.02366188186617991 0.07447562130190981 0.1662445205290275 0.05759819098974522 0.10594983717104964 -0.015649235292987118 -0.0026495696138473003 0.012384708956200353 -0.008024293332603046 0.03076875001969845 -0.01954732650553568 0.0021595355019008253 -0.011021689211227504 0.058701125547156924 -0.020027123966747273 -0.005028576361305814 -0.009338645732425932 0.029068598699437943 0.00889545640400334 -0.02613478353872067 0.0470393135493549 -0.0496083519029432
cup 0.21853966647320375 0.08205480369864393 -0.1693543461316546 0.2412565691455816 0.311177842941384 0.00010709258526939202 0.11098380735674009 0.15697598497070453 -0.040297445923444294 -0.07348745004110435 -0.1766562499847511 0.2311419920411368 0.014986938175673408 -0.04821669000990346 -0.12065909742716997 -0.02185445626759103 0.08361933314194224 0.05014110596744573 0.10740674885232576 -0.07464779402229779 0.04493930190624856 0.046984069743178244 -0.010805596582650498 0.001772392384230665 0.16515252609099745 0.03244717384466717 -0.018320693634695354 -0.12165227850887671 0.08531435216626379 -0.000758944043107563 -0.0257340523388207 0.04907231556350467 0.002596719030407294 0.0814642916935584 -0.0962302619774091 0.056772753215466175 -0.0789633786465185 -0.00688033024907639 0.12459974918520338 0.16788238317853005 -0.005530892571149402 -0.037921249973206464 0.031234473590048304 0.08931974847017195 0.024783111233235337 0.19204438743167299 0.16905015299620538 0.02751543954493609 0.03195703948516661 0.01473095823883257 0.038937284256671915 0.004947224634726074 -0.17444919053245722 -0.05571759122424628 -0.023318297996959135 0.18100854145617393 -0.05202276402170991 0.036213403393633936 0.03551260311736283 -0.07089310092516911 0.10153621591979721 0.11431029463418511 0.23979153103791137 0.0025353736006302825 0.13347436496565318 -0.03630697582136988 0.28851566124807804 0.04811625421410195 0.03982406529566526 0.05585721588479671 -0.07697954728800775 -0.08319515395735252 0.10913409820848383 0.06680833906607564 -0.04817554296403726 0.04637525376915895 0.05533981295078616 0.12760998064388332 -0.04571982799998064 -0.08139638428320008 0.004644685412987532 0.029652457451125783 -0.018866869644754616 0.08184737549241711 -0.004346129001696715 0.11612251926709491 0.004485961350846981 0.003182953448888372 -0.029688117591491266 -0.04175912144097384 0.030989551071358267 -0.017504830085200533 -0.0026919340937474573 -0.0028092837078517842 0.06522077990099819 -0.004724204308151287 -0.05632607036069952 -0.1346390297379937 -0.023321496897559704 0.031027357506480086
car 0.2281324392793671 0.18154623865647596 -0.05391637293259633 -0.14229116910990275 0.023703090682858842 0.18409277341507005 -0.1531719497525757 0.05523055814004248 -0.25068748619902353 -0.04076168926146415 -0.1457074044313258 -0.07419665488816318 -0.0016715678014913966 -0.07992829747781172 0.055027601124907004 -0.07999279756835594 0.020711056195450203 -0.021793791134863946 -0.05427997556180203 -0.054848750638832024 0.02381116525971546 -0.0549034997433348 -0.01483244056123045 0.015730083045008274 -0.14795548231466452 0.12453415009365774 -0.07796305540637277 -0.01815057494547461 -0.10118908354718484 0.09684847366684214 0.03662303021448408 0.01279892346962848 -0.05431963197422276 -0.0940193759033776 0.04897051809787905 -0.21277619460256672 0.047921965405781225 -0.0287119512183231 0.48553857528729694 0.0066699593762114375 -0.02845781319064896 0.0036556634510965134 -0.019644792478741065 -0.006916796152605609 0.012678658646661076 -0.16769708956722043 -0.07231608005251076 0.1123380952694465 0.026255522385348465 -0.15874265755375594 -0.11237488615680064 -0.033822408182336665 0.05130655296014623 -0.14125248206296062 -0.06186232372977254 0.10886461442725902 -0.10941320844388353 -0.11419351348949792 -0.06551028593424758 -0.10399356615069502 0.08721155872332316 0.03656673765054887 0.014498775104180031 0.08390848190838593 -0.12348005353066947 -0.06443520953267003 -0.04247195720713626 -0.0024891389521741756 0.03988089110949527 0.05716149032858223 0.01278909151125769 -0.08080346284449072 -0.010633808686116311 -0.1784697116373794 -0.040505465286512485 0.09247861886256192 0.021357969591634586 -0.11867124697038599 -0.10076401900950202 0.028994102151180468 0.0587377313997575 -0.004584952842914647 0.02281099620917596 0.006844821130436162 0.03606737954107277 0.037554199014272684 -0.11199014491695702 -0.09370380699093084 -0.06029400877513663 0.0770276345990583 -0.01469666191726451 0.058359020764990305 -0.029099606968164448 0.019320434755220658 -0.02116663532965102 -0.08652138410473939 0.05132218891739621 -0.07621679007537804 0.06202022214839746 -0.06945767385318073
precedent 0.20670984171338067 -0.06514301069881495 -0.24452737029033234 0.25553227901152653 0.07946460581635592 -0.10437640559453365 0.1674699759551717 0.07865196587551002 -0.08052633521996033 -0.137824270805908 0.10609404003423706 -0.0658382373644667 -0.05699697122297721 -0.017146998241168776 -0.03487828873750762 0.008881981017825337 -0.08402960314029594 0.08876580975798946 0.044448626004369725 0.016221692408081467 -0.08988330048781798 -0.09202229749043708 0.0524310270015513 0.010590511507100237 0.011393976231923548 -0.09200185300667445 0.15712691953865818 0.03171443826211238 -0.077589446302245 0.05903209623651609 -0.008839593733258697 0.0412882983487319 0.02422195420419558 -0.05214480283485396 -0.05990629991071984 -0.16764628482773847 0.36572007659702477 -0.1577082670485268 -0.13598399464616054 -0.12480595178872769 0.01861003945231028 0.3113172733907524 -0.20289854763761583 -0.05140534544130751 0.15031175742146888 -0.04962138852430616 0.061140306889068116 -0.006882744592935272 0.230422568266774 0.17867814292754602 0.005767715197193863 0.09221135391923838 0.01927785973944259 -0.07389847059812638 0.025019735229473865 0.02195352683479447 0.10975017166665511 -0.1536424296626134 -0.04537447798235809 -0.04057864043062893 0.07184951215119463 -0.02146289540517902 -0.02749356370207503 -0.014924366524676186 -0.017597556003584484 -0.046317435594557546 -0.0014139219588817635 -0.0027461012755346905 0.05880648500977312 -0.039074515329377967 -0.055168811577568394 -0.040421307873326234 -0.006781228298777686 -0.005136729146010429 0.01414352582132183 -0.028286821728901516 0.05519399731149439 -0.004297198443150285 0.07092449051693861 0.040449314356684835 -0.11311847650155224 -0.04838629402539419 0.03125673349278749 -0.08709617309046326 -0.05896596361199419 0.13323592484321486 -0.0942411033196227 -0.010178417471165884 0.057963552343473126 0.04214893526368108 0.05740426974110181 -0.00604810650671894 -0.0001127657364465128 0.059284812581710374 -0.04379996161454102 -0.05947235779020783 0.08878957045798588 -0.03156177406332501 0.015850661238570037 -0.030762194371236465
stock 0.23773876722478215 -0.14699670935233403 -0.05651788231477458 0.06518721690866733 0.05268418774751322 0.13709605571604613 0.08181259936794891 -0.18892079108554602 0.2587559249414975 -0.006825097967035774 -0.05616180363480003 0.012185263511875245 -0.18047980721896686 -0.08351142772840926 0.25563122068903404 -0.09584234072813606 -0.05788139525381041 -0.0927487348528686 -0.029000174500935512 0.18781773712128033 0.036462496237992095 0.049691194692104444 0.01850709951722823 -0.013690569964437096 0.022684125758191648 0.038410766916076367 -0.05529006445454357 0.049057151315914316 -0.02444421957784724 -0.059152276118912585 0.03205760694241918 -0.12783208965313222 -0.006474833259311187 0.02322200281505858 0.01002641682361544 0.022626244578977626 0.12002258231148691 -0.042925312981791225 -0.0794039852367261 0.003636111993569958 0.03502402508363932 0.005813741357406523 0.0024120796301775023 -0.06440156513551859 0.3931564809614009 -0.09051296654615273 -0.145568270549711 -0.025013425031934242 -0.20372379413687278 -0.17559897717486148 0.06621137540420724 0.10218122850585047 -0.2091489273860619 0.03991472485916352 -0.06384304560575302 -0.05840771590602431 -0.0189174345520484 -0.06366638999321463 -0.001232183330093867 -0.1206899762949361 -0.09923084738870688 0.0456644882250691 0.07140473635629425 -0.06384795493848387 0.0740072418316775 0.029421975941264625 -0.05708041435760624 -0.1897089087817329 0.10057193192662796 0.0302260324820268 0.049525256768034105 -0.18179499399443547 -0.02780241353626511 0.006938968585625474 -0.07722841293248307 0.009838569113304597 -0.020279160451235963 -0.09619535903492533 -0.16830672137332667 -0.050199396845658634 0.03986953604660537 0.04417454663717228 0.05717442005010309 -0.021794491285889943 0.041013726235402025 -0.012638033912297052 0.09854697956653215 0.0468444589291153 -0.022960132863354583 -0.07020873895415866 0.08064939947633597 0.05369966171574294 -0.012491934123866262 -0.031242587233749758 0.019018952484950856 -0.027420126461745548 0.051610534060565816 -0.006959126678229025 -0.10131432118819614 -0.018190142533926305
food 0.15235866351836927 0.14262033969207608 0.3474432304366236 0.21873342036426982 -0.07140724058739822 -0.09782489761076908 -0.0286396985603185 -0.026529136295209192 -0.08347847178133855 -0.04578655236722446 0.03167781010933061 0.18239755530682392 0.014171591047637435 -0.11104412457198082 -0.015444069696255586 0.002168301884654083 -0.0557591726814205 -0.04431757377968436 -0.13289198145075928 -0.012038984584304606 0.010779391667535141 -0.07467390105316869 0.06327800014427269 -0.10887661743306792 0.027988764983082975 0.07616887737705502 -0.06953705067137057 0.06583132093756097 -0.022996199384968777 0.023730122799982076 -0.024371184813997738 -0.008111955621829828 -0.0575711320199714 -0.021857852794805885 -0.0058624275804113205 0.1203993605343518 0.060664844186800806 -0.028504496511574714 -0.2091598931972254 0.03666614546681051 -0.06545234994229601 -0.14580850756690458 0.0508768522703115 -0.022187515202052834 -0.0017137057583982717 -0.03925948214836478 0.3295878135304379 0.01654178563451501 -0.1033955967398303 -0.031193042114504237 0.02578855421934565 0.11751273152358414 0.019907038573385726 -0.2022251487035332 -0.001968681815680512 0.17424615500419177 -0.06507202287596699 0.04455106435999387 -0.053053723291274106 -0.20100291517416297 -0.02628366258425188 0.13218392625577932 -0.20480723004472862 0.04601903900485554 -0.15920534957881005 0.13330127240276315 -0.07530081561206267 -0.06943363197178874 -0.1715612124348414 -0.052248832802903836 0.05516006823618564 0.11807949601413262 0.07976844758126289 -0.08756174698940779 -0.009742867096019577 -0.07856235533328389 -0.02378063116238234 -0.11822991824428117 -0.048895061303078545 -0.06832299316371038 -0.10296965877351422 -0.13957124983708533 -0.09754868043247333 -0.0481669121647985 0.04850451407185564 -0.0027719097098356225 -0.027430593455951047 -0.08773595449305441 -0.0004147117708411928 0.03644624153623719 0.09010893589803018 -0.036845365442756794 0.056102145714416345 -0.010627693241715723 0.06839674150197254 -0.030154731893223662 0.09314376210793675 -0.020501558495419223 -0.01594726881454827 -0.10402282438229712
peace 0.16783357838930035 -0.24701240704470118 -0.11079901952314536 -0.014758538773872322 -0.23276636159356007 -0.03290914370179223 -0.18532443096847473 -0.09460446634349928 -0.14224227576197376 -0.034932732017978745 0.02673911658976154 0.18706505707391516 -0.003928576991358668 0.06085436152402704 -0.0141590120305234 -0.00314903781918955 0.21120761285485543 0.07951663353817282 -0.09008208839564481 0.14583208402554007 0.078631351840552 0.202103339014467 0.05431813576564703 0.017470693387811723 0.0015949878111611228 -0.016539212311649783 0.07236105866485705 -0.07569682348724638 -0.0016078591893989322 0.026526299248219823 -0.018888343750799574 0.07293741674150259 -0.03703061017260981 -0.0020178904825445586 0.0040061696792806955 0.07105127682599377 0.36672018302785975 0.014399442723239253 0.20093584732662284 -0.004795797202683855 0.001957829938670609 -0.06648800927087942 0.062387400843612086 0.06019540895945747 0.012709272596504105 0.012120024493659043 -0.0247368540632806 -0.020463822940778108 -0.09547114145690491 0.2841220367543271 0.0852536112622679 0.023795088439982424 0.26463074230152667 0.05477238693417496 0.06114245962536763 0.18313314904770459 0.015652784603986065 -0.02041019429006422 -0.005754281953055891 0.09364897765621782 -0.055284171615457366 -0.01844157278110159 -0.05663226499995551 -0.03883817946098715 -0.09504833663957296 0.0009005159816549909 0.11691715287310858 -0.10694681698901252 0.024923793769968238 -0.04759833374869386 -0.04667461706555764 5.202242254647177e-05 0.04609400837847628 0.12339632874388966 -0.07358546215161996 -0.06032102885871108 -0.011952590176741178 0.026590998887415347 -0.0767347609107083 -0.031971657024911435 0.03964496702586206 -0.010933636972528714 -0.002639421855758937 -0.06116168179516221 -0.07441191588185002 -0.07665297276108615 -0.11283861046811815 0.0980911580771941 -0.06720232341113418 0.0021484091615818182 -0.15020181259376508 -0.07548664956351622 -0.03342888035601853 -0.07033237027332308 -0.042771176905523685 0.11006139065558056 -0.03243041111210195 0.007411589169884541 -0.05745226166110313 -0.01768711540951076
money 0.19547763233537468 0.1243665990229908 0.14089773913416861 -0.07996203600930785 -0.10589838634934927 -0.10499040742408927 0.15264710051017663 -0.09753125840941951 0.11862902662534604 0.04589751396931224 -0.09248950684001665 0.013766889241774686 0.011318378090644482 0.035682717812280815 -0.09666653622614182 0.13587678754546642 0.023536618026212743 0.15310422618116873 -0.11993818290180978 -0.10621815326024059 -0.11072714733425641 -0.010778512364034602 -0.03042075814752314 -0.1757784644021061 -0.010501833657350095 0.12580823649676526 0.1389328435329219 -0.11579789118462008 -0.06362182076233105 0.05701179534800988 -0.04787614614524874 -0.026008049016290766 0.01019159553628767 0.0031650325167606485 0.0702271812105215 -0.12412237122697622 -0.1039441808234443 0.17607649283178922 0.1869398727369706 -0.10400328177223571 -0.024987779746712693 0.1564399300405919 -0.13608656933772392 -0.11743180261946733 0.1188524259587827 0.005570097478889597 -0.07786401836350901 -0.03394480821387817 -0.17452271585797485 0.20602433523876973 0.0688048429086105 0.012669635431399097 -0.07289993978401829 0.022591549738065403 0.009513145187697783 -0.014652144954037964 -0.08898572115484503 0.27239437576314446 -0.023134834132240295 -0.08755081093772095 -0.15942054160343855 -0.0982674647028418 -0.02915904013977072 -0.04500216707159103 0.14072828554004044 -1.6018379648271887e-05 -0.012585970458546964 -0.010900722982857745 -0.22993200149540363 -0.1098032484806375 0.07777296195857772 -0.1269186681356202 0.07404222943983958 -0.002523816725410188 0.02719034969714939 -0.1038095964240585 0.20464256831910796 -0.005163474645546177 0.0348955623929604 0.06495325759855707 0.01733028452037348 -0.08352132216418823 0.12233683579827945 0.010443969193979958 -0.04543528305707941 0.036049776923532735 -0.06617936810917228 -0.029351533314025856 0.009539649451486415 -0.008298509854422102 -0.04136002892651868 0.1070365596804231 0.09258515598132473 -0.06383259996448634 0.12433456665377056 0.04230765272037834 -0.007472748578469941 -0.07983956192503082 0.03808892964590729 0.07448366284717446
drink 0.16428405842149582 -0.04923531413974524 0.007634237335531096 -0.019004380074776762 0.06515181206559477 0.17793208590826903 -0.0006272345641761451 -0.0996435546136845 -0.12066531278524123 -0.0013059054301827304 0.019747618753183267 -0.20233881411961477 -0.04445997121789582 -0.0879886559728248 0.17293924614489342 0.17911085138425267 -0.012005339623361174 -0.010276142814044053 -0.01917637172533055 0.0049300271271510016 0.09177779958892357 0.04985279933063581 -0.10018075042523177 -0.1302856975695552 0.03300325762860593 0.03508909818531172 -0.16593167167072728 0.006094621322746011 0.0038140943968676157 -0.03987800754317946 -0.031217526031557148 -0.07847493768733213 0.03710266614932202 0.03532588092755395 -0.06042694649131715 -0.31911453390128025 0.26388740798577603 -0.028453314081094496 -0.1915311691949641 -0.04427766869812382 -0.08005622385828493 -0.15063797385935193 -0.08330203152273746 0.06402699514193645 -0.35905256436124944 0.22875687697518007 -0.0688308884569225 0.017815733582923494 -0.14402454831857023 0.038947050788476906 -0.06904490859016048 -0.03654904106713574 -0.20925601893241988 -0.14188197328656416 -0.015970356397329414 0.07055399320989122 -0.009822973272789347 0.08496442201771907 0.09141601265495031 0.07315987048569979 -0.056833849875881096 -0.061416972120372004 0.06083176411436329 0.009815588014020786 0.09732402999297246 0.06533901019738386 0.06645998366053901 -0.050806100136870966 -0.03753502205288708 0.028141753275067766 -0.07273627064573215 -0.07186746562190258 -0.07468187782269585 0.07067745010332625 -0.05623426183083706 -0.03324611633046391 -0.03866404269470056 -0.08123746142487778 0.09016332658473436 -0.0606112369509129 0.02728106985479162 -0.006605234423532208 -0.06427429687128505 0.05982810761864141 -0.04230956015766267 -0.10068944917238222 0.004733800752351815 0.007891947962466443 0.07236729905541607 -0.01202036868129113 -0.1384520535869882 0.11320796907095206 -0.08028597200779299 0.0010307141836245581 0.05503527180281064 0.004989120361819953 0.0031223573659014945 0.08262869101871229 0.04127548410500784 0.05008502564525013
jaguar 0.22124676374789404 0.1971409436983962 -0.07063354956541658 -0.039606134430554024 0.084738194523404 0.050203848921464594 -0.050732520212347 -0.035581534219980504 0.11341835391273893 0.009754753567278649 -0.21603955650775797 0.1412733784882883 -0.0951503555528417 -0.06095859849132939 -0.04242159257950286 -0.0015248641371981603 -0.08282500517060729 0.06876678949080735 0.11141023367642923 -0.0626657858540873 0.0499867874836115 0.17403830527131212 -0.006109314963069878 0.11375467548226502 -0.0573932696731227 0.016347227987504424 0.04357263906669075 0.007178445761815321 -0.020864975200225584 -0.037740783034365205 -0.00992930816785647 -0.18974293486228194 0.05461511285011924 0.007797413618348172 0.06815748415994669 0.0032682534344206345 0.041231957393619706 0.2362980010165115 -0.22348703784237567 -0.06776379393923634 0.023714785286548884 -0.1716039718885481 0.05557570167117797 -0.016849839266790352 -0.15347863633625083 -0.29527941547062003 0.018039560151558016 -0.0947684249746337 0.09549230583764023 -0.00503270354776268 0.040242409248045445 -0.10767551464429519 0.06434667228524531 -0.10276296736472734 -0.006899714869582881 0.054414311205203625 0.14944213009588497 0.04947221319341958 0.014500556270846229 0.14763603323853872 0.029560528512368386 0.031752089302601226 -0.15308639245600605 -0.0226393620255735 0.11172935311277164 -0.04135323193038201 -0.036301410510487596 0.15405492358356546 0.06250712788863544 -0.20134278921023754 -0.10411697972711642 0.010613168476496954 0.09591274957207863 0.11800876864672663 -0.16475315798286586 0.009563490428557253 -0.142748037878495 0.10984247538661175 -0.0814994656885847 -0.026481735439183834 -0.04944080008493658 0.04245052655153821 0.11897640350064971 0.00738651429267912 0.021564614784126173 -0.09405398644452992 0.017846843107707136 -0.03540842507117631 -0.05821177738469946 0.13736733284114738 -0.01404859414108282 0.1307213336708605 0.1286889743368206 0.04274556571924536 0.08844207261521103 -0.027285723870078847 0.0672808897375515 0.02930427774924795 0.08659855818621347 -0.036786394231618724
news 0.13208507124679414 -0.10814268797846868 0.04467184253477395 -0.08830804318595149 0.10286188553239056 -0.0986986793295836 -0.0718092354612084 0.014737375593984976 0.11190150377836056 0.1655753333742676 0.022093963593418937 -0.12065887064537016 0.09801177012552849 -0.05036540744158075 -0.23152974884175123 0.014653666211159457 -0.054116792458474706 -0.11700950405592603 -0.08233875658746474 -0.014254388357007769 -0.01486033867461294 0.008252945638677449 0.013581223551426276 -0.015879027668870623 -0.023391751833287837 0.12414702688592832 0.09595606563116368 -0.04786662243921962 0.061974465790952976 -0.0435805821860976 0.11840284675725757 0.0670069097554489 -0.039302768020924965 0.043146260462196176 -0.06214323878231134 0.4217942082171456 0.23489265438251275 -0.03628062558905392 0.10515906640264205 -0.05863822914795099 -0.05428030470231992 0.03267819378034766 -0.07980503164875795 0.09868227761817305 -0.15639974764983824 0.07322504708445482 -0.22538196068083413 -0.014060426352914943 0.11518715980066108 -0.06804817996332196 0.07689210412166417 0.106358003223254 -0.22923063207225242 -0.16028789056055082 0.13656883800165182 -0.18497019900932601 -0.17298145337021295 0.11526054597596627 -0.04844903953988849 0.031218053941795623 0.16184267499717536 0.05930115779626923 -0.09260177170178138 0.10711316745213054 -0.03817191371401942 -0.060035977669849014 -0.09272454485171139 0.07738565475733536 -0.007631164260594277 -0.001136651969015807 -0.09191807860085371 0.06760607220960652 0.10774098627070845 0.016125795121282222 -0.06909949811509365 0.015980277591390795 0.020417039321153296 -0.07370264096860756 -0.07852975029928108 0.024906664180693882 0.03647247878598821 -0.005764514852426525 -0.036976792030960194 -0.02722551360227043 -0.051852944391726684 0.05677298190866088 0.10906032750042763 0.05759683163231118 -0.09532791324321835 0.08254676120988053 0.012006083717349049 0.04819130643570508 -0.053041529083342594 -0.07228769648114837 -0.01583016052206936 -0.01572528407385744 -0.018100763608868368 0.0036630147536303214 -0.013371720040989321 -0.06696921206993726
life 0.15039671257083193 -0.13693477849641225 0.00441390523111531 -0.06318442032304837 -0.004220929713215428 0.03618274290536185 -0.10249052399443294 0.12474587090942327 0.17154559799569666 0.1435363729548943 0.07937222070798053 0.10690834334295664 -0.037941012832246816 -0.10991141278592165 0.0548349383727975 0.12217104477766268 -0.18938115965950264 -0.06039225318611056 0.05141421831649193 0.037269574737241386 0.09358905474439656 -0.02771649083039343 -0.184401389126825 0.04873953461234688 0.038101345294786815 0.008119774743781678 -0.08273837979322968 -0.13415903476697738 -0.012447413593458367 0.04203936344937967 -0.011490653668864507 -0.0325688287406514 0.06102374558711397 -0.06431926366565319 0.059784244768494615 0.029756116067430345 -0.017640794044620947 -0.013245366155884787 0.06311016891070528 -0.00839546412289465 0.031413355173008486 0.3803884370432711 0.5801703196483943 -0.033962321026550425 0.0019593917690731307 0.043588546943971795 -0.05570171612831974 -0.00525328839802479 0.007985248571469964 0.06875715697748881 -0.00996695938727476 0.013019745378611336 0.11583875457353664 -0.19677980232304737 -0.07237199434313488 0.14232163426263997 0.09674080693120482 -0.04204194828169498 -0.013669825172301473 0.04890348069252911 -0.06677519473120107 0.05794652130600754 0.05541204942390808 -0.03765946834086245 -0.06930793227526898 0.04500597508864265 0.009913562353756667 0.026453854637673857 -0.08508346858648763 -0.02817631215847118 0.06875264385991826 -0.008149300876992963 0.03536109188656098 0.024338732159580836 0.04658736545335148 -0.08944844848769058 -0.06354286850257845 0.03370991715741872 0.05752492197072277 0.08480062380734744 0.03817419511630447 0.08973466988954347 0.038768782539327695 -0.00013300578931477175 -0.0670971691076294 -0.05348552359740013 0.021647375666964074 -0.08059289390871495 -0.024854615190770795 -0.08355061813488188 0.0011693104671154384 -0.015748520379009662 0.02142929227273516 -0.03687755754025765 -0.07023251476467039 -0.037356402697272875 -0.040652639224055515 -0.013148464032393047 -0.04792547725845402 -0.03812050542728471
street 0.1020866465773518 0.03517188480460554 0.07354805532755432 0.15196958757419834 -0.08521098704367193 0.31016194846894923 -0.08087697608970876 0.3236547341496892 0.13346134539514384 0.021763044844046543 0.018257297797652915 0.005671994143618009 0.3926705364882424 -0.07959317318634163 0.10272679461994547 -0.03386123735079899 0.12429366923820778 0.20112535076769225 -0.04406259704963452 0.07537472340052921 -0.0391680179363324 -0.08883195105125133 0.07595835836045585 -0.016612142339751865 -0.0432307940097144 0.06567670668695118 0.06390035927445296 0.16469152811157045 -0.02996953823235301 -0.09366461897835335 -0.006957009272112493 0.07170336703685141 0.1129316212768625 0.02151022760869777 -0.04240768570531106 -0.051918504518914624 0.05870517761080968 0.03786264094782309 -0.044315025047468086 0.04469845106218856 -0.006989229794714286 0.09348555532514939 0.10486423898026735 -0.12478976686636192 -0.020302051057765832 0.00902541940900984 -0.13807727657075122 0.017607946841762385 0.043350523062799795 -0.012933937791764808 0.026870193704967474 0.008289550540156008 -0.053666429166237616 0.0770416211248719 0.05751020183920471 -0.08785878430422046 0.15058113459485517 0.08165367481320614 0.01214434933730006 0.07835255771031634 -0.15250378996986416 -0.09687969362166708 -0.03374487727969005 0.010802298219950712 0.006583868094479757 -0.06549211590291137 0.1904797229642439 0.04676545318133325 -0.04428554441786511 0.0005604491038322081 0.10389798217967502 0.09731449819525353 -0.03565176846617318 -0.209812650654562 -0.0020031690371961563 0.04737135669056349 0.03635484561888508 0.07863948631202036 -0.02934339491104132 -0.09507027002197593 -0.01732840524661736 -0.042751099638523915 -0.10741422182692316 -0.053679080197158745 0.02872338008977023 -0.05129607919489368 -0.03538288316080231 -0.002418554930142774 -0.04332008298557321 -0.06963322648480774 0.07739378075555049 -0.18507756211797 0.013187833265945189 -0.12203423638548391 0.10890626994449296 -0.09772891557282429 0.01757464784687491 -0.09108734136339182 0.05621623076342157 -0.05029693205731301
media 0.13148128958232816 -0.041095005600242436 -0.07290661421536969 -0.0028944411811519972 -0.10954542780464971 -0.02579375068262381 -0.019227627025742596 0.1343012106127209 -0.2007808355004289 -0.09685901361899295 -0.026341733167028987 -0.12237677714284892 -0.10622110874270087 0.08956624173812845 -0.020353528776342097 -0.10053982811554375 -0.1412399435425297 0.015600003582718633 -0.046963428265041546 0.1076862607264538 -0.03427070096495944 -0.20234776097515197 -0.0062348929127788956 0.1132697743409175 -0.0018303653002755109 0.07367610943114829 0.07837941717965474 -0.01739553871354378 -0.02512750094318128 0.02636691355910738 -0.03251008073279998 -0.045115570505341346 0.07980313991034528 0.09013778361158035 0.09494051492503065 0.11026036765473737 -0.28410523265626064 0.04530019070567352 -0.282588919986012 0.04212019447897527 0.09051611279980992 -0.06448251159597451 0.10139365666940207 0.05981813543400184 -0.05344188644166489 0.19026571467536055 -0.2145339964233596 -0.0312728048974287 -0.13563881273478 0.20121928448145107 0.07099313902128952 0.06308218870546198 0.036111963632599844 -0.08832377333887328 0.0437304117552243 -0.09913130630764973 0.11956882856252928 0.01861033631924833 -0.13175795967328693 -0.22885280667755678 0.12606695045028138 -0.1335970913732575 0.06742762388423855 -0.04362609485033661 0.015614225866828976 -0.10720358767179598 -0.05955645563542574 -0.0725395622157588 0.13694995816557015 -0.04668270619991995 -0.09356681536584147 -0.1736077665186773 0.18668036119907086 0.03252449651003608 0.08079359465766638 0.011790245715276707 0.04461961469286555 -0.027598325174167604 -0.03909820733925921 -0.05720052834168153 0.021638013084822532 -0.07001319521687666 -0.09705523119081942 -0.0006750037319450889 -0.013927607863688882 -0.03563252782079089 -0.05996518307749433 -0.009935571824273591 -0.018731967030638126 0.07703478469231922 0.07374377273779625 -0.136396983968562 0.018128843699168767 0.06434990514566903 0.03496108019525146 0.03974821109608488 0.17096368409317808 -0.02795652262284461 -0.01411270719462548 0.015735042589953355
doctor 0.11304714703500193 -0.085645558731008 0.07651844429745046 -0.2456960208254369 -0.0687275216741481 -0.16489537672453336 0.1685379012655069 0.29712964969167877 -0.03180559725790505 0.029925380360424005 -0.04965111594910156 -0.08507098780410606 0.04605997406393102 -0.06274003020067204 0.012358591820329112 -0.12468540211844578 -0.10282862625191698 -0.13609975667746899 0.033320113405178584 0.024040731695901738 0.021194869490561135 0.16693368619988327 0.14787996005909004 -0.09610124157588153 0.12297119149347163 -0.11242063541274189 -0.05321121144907401 0.015473908131854954 0.1364608683452406 -0.0029711110972584945 -0.017245671304595242 -0.06307493598417507 -0.19893359838613234 0.05654747579821229 -0.18979942129720007 0.08411733119140632 -0.053806563779869365 0.021729306428419748 -0.05561372104972376 -0.01812321616425906 -0.025026757466552207 0.15670215107835336 0.004661030021234361 -0.13109692302333642 0.02060432057914855 0.08938845447406366 -0.12845838141020954 -0.04854927947403496 -0.10221185754626848 0.11965092739957732 0.10543245589682308 -0.13069030550668967 0.13734298837152872 -0.04661360195326076 -0.020349708142991727 0.05692564264896281 -0.017615431636363033 0.042544314165322346 -0.021894253497740598 -0.06855169324642131 0.017987539578970032 0.222236188199859 0.08226081782625898 0.07205735467257675 0.01927357490412941 -0.02277452030485816 0.01934393643787111 -0.07313624097459522 -0.11944173320668953 -0.037712530229627304 -0.06184996418111149 -0.15322012601469828 0.019526773309674374 -0.13216108401345766 0.13137722089053083 0.023531628193214218 -0.01891490881880347 -0.07827163491986618 0.07141173776571687 -0.04341993590620071 -0.03645764889352649 0.09403417544911426 0.07630446084981045 -0.007058690254489425 0.002829618390871291 -0.1917437945392478 -0.06340461166768407 -0.16733232388914202 0.23640799421016537 0.07538409150163511 -0.047859590526783416 0.054953203341054226 -0.016225905081477268 0.0009056239450397398 -0.004995137169878633 -0.08697823590503126 -0.12812286545751259 -0.01744953811811546 0.021416853582386635 -0.057603620596098686
professor 0.1061525279717324 -0.032722450483895084 0.14289177352964194 -0.2604307125981043 -0.04529512198347759 -0.1588700484042292 0.27155837612326933 0.2240982564108002 -0.034013486043639934 -0.08008828990949289 -0.020257062144350114 0.001649129604071162 0.015828038789720323 0.04901540651494561 0.1102173345603306 -0.08548649082201122 0.08031637620543434 -0.02933660724549834 0.09834591901176817 0.020906542175363963 -0.011951058101716268 0.15173321704594428 -0.01756652615028205 -0.12108942767435507 0.07826477415275229 -0.060311023067539 0.0354383632235497 0.05182266085738311 0.04487097756934491 -0.19623697626195957 -0.02394271446501187 -0.03091965871508295 0.03078213430066156 -0.027377055262896608 -0.17791995426644047 0.04498680526893654 -0.014855127962280501 0.07903530921972922 -0.03105027327849318 0.03566830022149493 -0.09533775264052717 -0.050472803713503614 0.03040999403743703 -0.10950670687288085 0.033672713214974954 -0.048371858515011905 0.06458300564031581 -0.05443530760018582 -0.025120034471157855 -0.05459537422503027 -0.1710776897281647 0.023181050803943785 -0.13009058695032313 -0.08727322113290524 0.029236055591530266 0.016155976295506136 0.046942218716404825 -0.10357699297433456 -0.04401223273104818 0.10465827636226949 0.04010016316602995 -0.3079190505727353 0.02722144435698985 -0.03561651041155004 -0.08012688260417039 0.019637141056494743 -0.05626929606279952 0.027478181307370942 0.03077624521988223 -0.012680755413373426 -0.1736117149984892 0.09293545870578415 -0.014013820952186111 0.031447369744924424 -0.06555150786110343 0.3070044694500286 -0.022332452983855177 0.03314316338518389 -0.052793307286814715 0.18378991381033896 -0.13203251623986947 0.12008299253421259 -0.11542645152659015 -0.13446035182915883 0.05233635265313054 -0.057794849879795065 -0.15270078305064022 -0.04457378368187781 -0.07039479375297047 -0.13541537828136369 -0.019502688854534798 -0.052720962608946785 -0.07010057518042201 0.07675550041086708 -0.08757872235656905 0.04061291423470909 -0.08245194446602629 0.02832468580050552 -0.06347267594014681 -0.053227787574391595
forest 0.1436254871637942 -0.043089617985897714 0.04015078593353739 -0.09846027912878774 0.09266360430254587 -0.01414073086630882 0.14768412089429486 -0.01612812524045435 0.022165453671801207 -0.002783255161381389 -0.05020885769551826 -0.06989086740591613 -8.220577576466234e-06 -0.02561482310403503 0.013959046655654584 -0.04085831297314572 0.23837704450534764 0.05777929813159812 -0.13773874372984504 -0.14192607084985623 0.07136807965105142 -0.1013690189840225 -0.10333827461293706 -0.047936046618615044 0.1446308534867397 -0.04698778016688149 -0.08993427244764902 0.03340881649741464 -0.03673513587240312 -0.04740807255676731 0.024532706226873025 0.008864132975330773 0.004565414857151819 -0.08429609110255712 0.16613759614499637 0.19296158600316074 -0.0364012563027403 -0.04673290108911411 -0.12348176996560767 0.026210295217497362 0.08268746226966213 0.37906645631923125 -0.15972203412068905 -0.06969655449786548 -0.266199580101384 -0.10074168859684648 0.07811375753865624 -0.10622217561821792 -0.05884540566356294 -0.1367077530213327 -0.031063782912689106 -0.06933429333315441 0.1526013221964988 0.11046655040898685 -0.14761027112419228 -0.025441847179002174 0.015859062930492874 -0.008679830680046022 -0.026323653655518645 -0.15461044354831263 0.08604662364492269 0.10104813393834804 -0.17794243013458833 -0.011368694932181341 -0.020153548674168967 0.08860691161807024 0.17960206181760527 0.002421339963344122 0.13751905102480955 0.06082072526982359 0.09857649809504039 -0.13486475107104365 -0.0586043616588681 0.08065312977865464 -0.06690145967018535 0.019450244366351486 -0.0064443015014651606 0.022100089312053352 -0.028791717771072693 -0.008280433839863315 0.046351779190410156 0.05949696525129796 -0.06235548225970359 -0.09128034658710969 0.018539570711822353 -0.14389986254125434 -0.027089152861636052 0.101031101134457 0.138815021995963 -0.025766910341600755 -0.042742517425936426 -0.0102365348239413 -0.1734931164749159 -0.06019648508148038 0.026649255944247587 0.023882175729469803 -0.0914548881540143 -0.07673586038662449 0.009323818213579412 0.03804553212665123
king 0.0904022075187109 0.0023232655988283833 0.1231603046651079 -0.16892851070821216 -0.02804164113718247 0.0022682891966897016 0.35064723396150466 -0.012236000750603689 0.015223517021641797 0.018644678341979422 0.017484519900450225 0.062190918403337 0.018321348407026174 0.12257006160279472 -0.08249951585330373 -0.05871217869034492 0.1232243673083847 0.27264895588482935 -0.036718573180758926 0.010256444324576407 0.14067500439229555 -0.07592040594061318 -0.22543021019614365 -0.11566744766464865 -0.18158755434566615 0.020715095929901305 -0.041161902546281916 -0.07105686948910675 -0.17912856049148984 -0.014692098386510201 0.12319190850699901 -0.013331064134137142 0.04698789520016384 0.017794320755643477 -0.048093663564294224 -0.019075874912220212 0.05943583996163571 -0.11281369927142522 -0.05024190362061286 -0.048933769471278324 0.20897965307468266 -0.23258172800880703 0.14354658059398462 0.1787597023546731 0.07593980405085048 0.03927711761176159 -0.03742545417308385 0.014009623991959912 0.13399025826200878 0.013075460858537568 -0.014357097237587478 0.04670599194759234 0.0083875953726834 -0.03520363106135106 0.013306977096086829 -0.05066919476841251 0.028977247538864548 -0.16630289003989973 0.06227495157633429 0.06243427181798065 0.014449756829888697 0.15488951846357277 0.19542182663704286 -0.025237116533332053 0.07516953285079843 -0.15332580772522697 -0.13923361962473585 -0.05910793263584408 -0.11486356723279813 -0.020738778200053886 -0.1285949766694895 0.05816601229225708 -0.05774651177989896 -0.0733083581039499 0.023477068129634293 0.010274778396442813 -0.053156307503053876 -0.10958806207899742 -0.03777828521897016 -0.014988643738638792 -0.009481495825847517 0.06587069594428158 -0.1363488980739075 -0.10255124189307432 -0.0017670261304474776 -0.050995830697315676 -0.09566005352240423 -0.011964021670968258 0.10409295069165946 -0.06558704087248889 -0.04063114373062278 0.04044830828403438 0.04821984685066789 -0.0941659195610991 0.04076294338519581 0.12057125186846952 -0.046039127972577094 -0.06290127512411513 0.007764983397306038 0.08383051400579167
football 0.04364722444802719 -0.020776979465829116 0.036227028415369324 -0.07096318169260275 -0.0287787613608335 0.3424092195405005 0.30435481867887754 -0.16648395353301235 -0.15304104227004242 0.17915548118729163 0.1990943194372715 0.1647222433812201 0.05073856103178284 0.077334837488719 -0.2603263657454258 -0.044004215137746744 -0.14138511462132208 -0.018713765155716895 0.07688526882969297 0.07068955886599325 0.043705808132374874 -0.04441721112018582 0.1637317668514263 0.23436267387678614 0.055260881042354514 -0.05750630761065036 0.005289760815155806 0.06428822501897027 0.1671228315882772 0.044521549227886356 -0.05900269029242324 0.08169164810614543 -0.06746364543101278 -0.017398894805772155 0.08178870774355469 0.0074697111336876265 0.016907161587291945 0.06503707284657248 -0.01472026430298545 0.08947761968465251 -0.23350006131216988 -0.08698318304914772 0.051038326571453435 -0.13315721605402572 0.03550069785333349 0.01057900263416149 -0.013291436995731421 -0.008976235704383361 0.04490540600753741 0.010634493565727206 -0.043966555857406345 0.037684079684581304 0.021485744232024952 0.04687143090628711 -0.02913693961144222 -0.10275538610889128 -0.011134069339173543 -0.14398009052117217 -0.04122250246278073 0.034293809570610664 0.049829044131947726 0.048868933164810675 0.07866097249842591 -0.010142479851092194 0.05658192617654436 -0.06880866557670522 0.02780662178655847 -0.039247716813784785 -0.2456090683739272 -0.0078080668916034246 -0.05106516440574016 -0.060062144092691484 -0.0790469626849527 0.008584623347663547 -0.04756133373559455 0.010253357475595073 -0.024843923797216946 -0.09689575868817533 -0.09867189933587704 0.005071890260026136 -0.10992613387754167 -0.0506569421886131 -0.07658375446453439 -0.14696066789594917 -0.01257714827666451 -0.014181832933696209 -0.05199613913337382 -0.0007831506272367349 0.024530252344174844 -0.01569185383493159 -0.04772569505500343 0.04164028493879924 -0.08798053101678925 -0.02994316699060776 0.006676767593655407 -0.07036672517968097 -0.07258329420197805 -0.08367923199872028 0.15903154927494456 0.12457843013803044
lad 0.12728388873742602 -0.031090499426108774 0.09870508959860477 -0.1071691484045644 0.18654295239212504 0.010981978892973737 -0.15412367986718906 -0.07439089212035147 0.09097891334359835 -0.11958278690107789 0.1389093109874457 -0.003282038272020954 0.017893053831033044 0.033535131607357556 0.010552419963431573 -0.027170535335406167 -0.04953295199090821 0.0062961931022305516 0.21686332767544544 -0.0029522580012058455 0.020410515255888044 -0.0684059342527882 -0.02368307228494522 0.02298657930810507 -0.06686387656545176 0.01505798748123974 0.12259731010409584 0.006024880733053464 0.044323312734187985 0.019174212207893077 0.09115033586278216 -0.012068001212399327 -0.14241992489822775 0.034902917557529306 0.03394504444603173 -0.17840540957782997 -0.12846631294291547 0.11411698693906824 0.1091150580252894 -0.026978783867283234 0.005977336670863096 -0.002537024733857579 -0.24738434597235842 -0.09236136034250397 0.07696837558486082 0.37263142243678804 -0.014017478517703515 -0.11219499947683786 0.028838840772654962 -0.19176533002112964 0.13828582632982764 -0.11059814857219466 0.10607351180599171 -0.08424343348678248 -0.0007736258219152919 0.15228681644268033 0.12453870705296144 -0.05500662164242087 0.045495087893513635 -0.05823586581913164 0.010992110109259417 0.01913508654373057 -0.2490953863571922 0.018452244028272162 -0.019235571824177084 0.01137416600620519 -0.08203924903117836 -0.027049100736160018 -0.09755059587702707 0.0415781228775227 -0.10405182797034211 0.07918176916553966 0.02651031823077088 -0.024182569723672158 -0.17688969702409674 0.09453085658250217 0.05377338332479899 0.006547682263108339 0.01528406411670255 -0.031656391925273794 0.01750732644849402 -0.1314373579946988 -0.06440826972613618 -0.19603742762560097 -0.14171934481711188 -0.07113608121817155 0.15142795050565955 0.0943976830401873 0.019492396159554684 -0.07381053762164425 0.0864979630008364 -0.09182281856234252 -0.0017294860396197267 -0.014247467336879767 -0.04318778595959942 0.0831265887905095 0.024290193587118238 -0.047028625113710365 -0.03119024266976092 0.10940901349458955
coast 0.12153660214460457 -0.050791660502346986 0.07635359492791831 -0.12045770169463194 0.18198127433166014 0.014070966396155783 -0.15582644637819237 -0.0897638255731911 0.0019340071618842514 -0.09900349375875454 0.13866828963008332 -0.11767929821652004 0.026633772977699883 0.010027364724917156 -0.05239559726109557 -0.08624914352917903 0.12512866428592118 0.0988140899432645 0.07596574348823688 -0.07330979983102173 0.013183263056226377 -0.09718864587311618 0.08868186840454995 -0.068042717089073 0.028339946210098842 -0.05513922100892076 -0.039092439366081096 0.04526987443628613 0.12683196756819057 0.11288409570413732 -0.0760829570688106 -0.04622392655440619 0.031933489332219026 0.016945709651760697 0.03940638461664031 0.3123854469374799 0.05131546435884322 0.009681808535486685 0.0509093748070942 0.01056309606087195 0.015885336673116146 -0.09869998054703542 -0.08826108777732244 -0.024341558290850294 0.11235470577551895 -0.03115618070012224 -0.15262804944918792 -0.10148265408466361 0.2783201476845642 0.06439615111507505 -0.1409104223883607 0.1265632054631035 -0.025805893442607326 -0.04781398216946639 -0.08286391944558241 0.12058985987356208 0.26849519901714747 0.13561822780453353 0.0354114615682502 -0.04690089623479924 -0.2223673506307097 -0.014427453758826203 0.1868592739834232 0.014851269061309062 0.03127388269724938 0.22848247971158286 -0.0895247773889149 0.07852209546490785 -0.053726851620854645 0.01843778615765818 0.23104535241731727 -0.0523288892831479 -0.06265855659174543 0.19625465443728282 -0.016279861753827594 0.11986650933932387 0.003025017625624014 0.008696564112458519 0.08438534605849671 -0.02667205348458399 -0.055703270480063675 -0.032281038036876306 0.0015568077468077794 0.04912110128148151 -0.037637187048919385 0.010047886460366395 -0.0501187240515866 -0.02423729433181055 0.015177560039437056 0.022379929911768952 -0.06308564585575464 -0.06177717987236703 0.11533927289216057 0.1285848028854108 0.05525202667377423 -0.00866155816628665 -0.05272248156366455 -0.002385705989618514 0.01679517074472994 -0.02173264543269201
dollar 0.13771892602391084 0.15404169373784626 0.13635732153463412 0.1210447329598894 -0.21353739413145373 0.05829223867159162 -0.001741185640739006 0.023757782558850894 0.1594226399686665 -0.08423467204152994 -0.007511312793963374 -0.14968689099411867 -0.1338768888028734 0.20429538729635124 -0.1745804603080246 0.10925257711082954 0.05962179717040563 -0.06901150585706194 0.0745947165694933 -0.1298663230396462 -0.021908446944120148 0.16941741499513913 0.00362746046331674 0.0007685435478695779 0.059764159687969644 0.029055942454023133 -0.005624846092967525 -0.1628587590034216 0.026520079021046406 0.08310055478859264 0.03405711193646292 -0.08192792792604198 -0.11617487623478905 -0.056722961317641034 0.1500560702530632 -0.028813628134781496 0.06571357347899544 -0.049898851798104264 0.0744911718704407 0.03698849601366023 -0.01334510761456041 -0.015641900100391577 -0.03179996395060992 -0.10571951521332114 0.00380403107093391 0.0314908728780225 -0.036378642000973606 0.03319998466116619 -0.09324622561313456 -0.11314646557358651 -0.08513117507830681 -0.0287457894581542 0.08628914883271874 -0.12704725437784237 0.07499830314000328 -0.22193886187734704 0.1635528301621355 0.017506277453896456 0.1357219893701405 -0.11667782182132871 0.16705026780785764 0.054949767906510114 0.23504744786572515 -0.18803068726947034 -0.07747169903818096 0.08162048881355437 0.12514783705088947 -0.20843171660217483 0.04696580169041672 -0.09878047516203287 0.038860916769956 0.25186561279265557 -0.08738384043831555 0.1048966567838532 0.14960880196117424 0.03225461166887298 0.10426128320795293 0.07933898322985453 0.09459463474198987 0.011632078096820144 -0.006920214216172412 0.07775622226682993 -0.036461550156692134 -0.052536575430675726 -0.01923940684901407 -0.017312982229433605 0.07074409024355263 0.007154852696645235 0.015986597843168388 -0.013130512899744942 0.06751034136389115 -0.0027574098940616304 0.036658504773589486 -0.013266141935297604 -0.057321421980971385 0.04461017976361813 0.056526575765748294 -0.023024081496281053 0.0338448890757078 -0.05484542008849079
psychology 0.09677206811577832 0.3105662485572556 -0.28133697769449073 -0.030091937786856975 -0.10863583004665775 -0.18112126107037418 0.029225972243445905 -0.061912880075796164 0.07085874042599995 0.09443166668715879 0.46756367228514334 -0.04281826200887544 0.16007415378713014 0.008792754197340408 0.1412505361445402 -0.07121095603962406 0.03325535428500221 -0.11843621287548858 -0.10672575575474999 -0.008426350920851818 0.0775786600243341 0.06620894656513394 -0.04998370425750394 -0.023054540355200003 -0.05255473612080193 0.017257185276519964 -0.15836150413473724 0.07834923166813956 0.09347157498982393 -0.1310819722219093 0.023442727621276256 -0.00975967763344754 -0.0721899672092015 0.06776289419957209 0.05257865390654464 -0.02366605695859072 0.031229166863327044 0.1836195883384777 0.0008010286860454281 0.41520661464559755 0.13023458801442764 0.02754004904376237 -0.020965079988483806 0.21811001052373563 0.012858017879963558 -0.02559925727041224 -0.00781714476768879 -0.006789078664256414 0.019508225534160394 0.01593122455815575 0.0926751541219449 0.00491875784669287 0.011299905692051235 -0.012301707149410418 -0.061983808572135854 -0.0070868767551299896 0.017123064307885877 -0.017473549724546074 0.05301066122048689 -0.0011801217028255926 0.00593934500934507 -0.00720518867577597 -0.014900517775077504 0.025118480473248966 -0.010762220916167851 -0.006204220027432831 -0.0071603027964024435 0.004611971943813571 0.012354242082896294 -0.08384241151153542 0.0018503556967330737 -0.0072945200745036 -0.0018781855496856797 -0.005115498470327252 -0.004432407377585998 -0.000603652710865495 0.15756855739385062 0.006366244497567566 0.020020405686817403 0.00992875642478828 -0.019617756122028387 0.009769318826384363 0.026791597195421735 0.009719655746884204 -0.012464017230382051 0.030306819739516832 -0.027817181549110417 -0.009824368094329424 0.03343482371573179 0.01075789479726963 0.011432416763443172 0.07232675160328372 -0.013828876660459037 0.030566141081211435 0.01242490904492756 0.03435423928374079 0.01588485556854312 -0.09226092577415161 -0.05369134726086462 -0.131865408700923
planet 0.09622117878619883 0.13203368805626095 -0.30388605129028007 0.15073562561604475 0.024545711265394107 -0.19990412433328944 0.15847581005882083 0.039634060991155955 -0.01144740487239868 -0.051853358507919896 0.5221958899105383 -0.04328807109525917 0.14783285121081188 -0.034284081207760185 0.11026093932052637 -0.13609311322404943 -0.04632791017301403 -0.03512487622333081 -0.09918793328721937 -0.16528263098676582 0.0557186770038208 0.16447476489404497 -0.006629242143854839 0.02759172885124557 -0.1273105441469874 0.17992201292441057 -0.01845584169152519 -0.08521487490995594 -0.08438709958283275 0.08715719828202799 0.005772814803978978 -0.07585314192436969 0.03298342388718914 -0.06579705826425597 0.1000560374189018 0.041180642192134034 -0.07206935238371343 0.010270900671804068 0.0296347160669083 -0.30359812771285344 -0.1058101380566478 -0.05692996293855805 0.04117910988266986 -0.1774298067679352 -0.01983932347001138 0.0629101571721923 0.033828799912865165 -0.0008817954827907363 -0.03032855517125533 -0.021391087313489456 -0.08577720226386984 -0.005550136973888328 -0.05391772815833517 0.011651960295130954 0.040204277553840435 0.05392734263414727 -0.037920021726864026 0.02862369891394072 -0.0427826246485508 -0.006473054517863064 0.005338986253777034 0.04529099693652304 0.07887291465620545 -0.017678973337844368 0.032872509894479165 -0.0027371265510790633 0.10802139955327926 0.023717556911468724 0.005172404500551256 0.05232494286179882 -0.023549446796440443 -0.008911960235623392 0.037295417158009644 0.032493269564471336 -0.04419608702310486 0.032399716624445594 -0.15687246438180283 0.06821991126204306 -0.06850199483455986 -0.013585537041836468 0.029507847883765582 0.05386077679715518 -0.01459757806370917 0.09125801641328452 0.011562519757920964 0.03142776782487171 0.012626864695052229 0.024834985517668082 -0.01412254933608992 -0.05779739139054086 0.03841354090958648 0.008174903589957237 0.023408377106083716 -0.0036133942980189704 0.11459605205689685 0.04217455887141417 -0.0909328290188917 -0.05468540864002904 -0.10572761411476554 0.023338920171396674
century 0.14067705606235945 -0.11054016236258195 -0.016640098083983017 -0.05786778537211325 0.054369896856111044 -0.05796360933332235 -0.059368007391561055 -0.013374757874546058 0.028925529220832406 0.05516158534707647 0.0049808911987907 -0.13188810087070618 -0.021300580359508513 -0.04680363398658888 -0.14761936542090712 -0.14964451869674567 -0.05385252396356463 0.09318977319430141 -0.1670755011463967 -0.08390898129260356 -0.042738817211187545 0.09661912679336754 0.032692540517651095 -0.011311699754180254 0.042853404994539074 -0.09972615529786587 0.02133239233512695 0.2536767246224105 0.04404608863053332 -0.02117403374732188 0.0011743158906262635 0.003567655169966878 0.02562920880373539 -0.10169547682775229 0.02341802613001585 -0.2658613950415679 -0.3138617767539414 -0.2259571539977889 0.04874133101621306 0.044897550370332086 -0.04262899528916539 -0.09574975624906537 0.050639276161246534 0.006399717788905183 -0.17657122872565234 -0.09865524787079182 0.05987580807314105 0.05846807269862233 0.06794044870745986 0.06642041601286651 0.10124153686388222 0.2618505713108952 -0.15031020459880892 -0.11005835383811452 -0.0430721686572051 0.0555350996579689 0.2531187270146386 -0.1413091581652275 0.13434411977613891 -0.07880532363135838 0.021031457319408517 -0.1650712295133617 -0.024127057090858117 -0.015414039857274449 -0.06718053031256037 -0.044788570061676164 0.061659267131573846 -0.020624114127526096 -0.04201141553406056 -0.034620914390962605 0.05422503674318747 -0.018411449589965455 -0.0688324320136668 -0.05784036183102522 0.0162751561647916 -0.11558091886996048 0.02930654921769141 -0.0028026357668972336 -0.03078370734257714 -0.01537130933795693 0.09274805845286882 -0.022606796472279138 0.036746811882294714 -0.04562433413315545 0.14186030055249976 -0.057671733282445764 0.08517963814327867 0.11558985987626588 0.030795216216505262 0.028453460202838083 0.06427140138312698 0.17602337211156419 0.004736805939074957 0.014612983334765108 -0.019046605793405055 0.03274058731212759 -0.19934034554925273 0.07269245178138756 0.0021308297237589086 -0.07358037048753822
announcement 0.131266702120237 -0.10363857939026462 -0.023194511859318093 0.002107607149737757 -0.09708035605459346 -0.11385470497862188 0.032140988191132126 -0.02161588121343597 -0.015070487377273309 0.019495984794129274 -0.08332081080047131 -0.1257885590036739 0.11917529503690483 -0.044008808359523865 -0.09829441662795732 0.07374204597200189 -0.19762991496821988 -0.0026201454469990783 -0.054991510391453786 -0.13581020778183975 -0.01628592986851266 -0.0356226358620566 0.09393584100896968 0.0002076017409100915 -0.12351854362248264 -0.09569670377647177 0.08470610141196552 0.00031199764820659186 0.029673691548981602 -0.041781009077173616 -0.012387921944760584 0.08337115628634467 -0.04205433574722556 0.2248535374925152 -0.0394459752488217 0.07414005403411124 0.27820509273517063 0.025160321369964943 0.16041295088037827 0.008293505158106894 0.06867534548096015 -0.03462996616862666 0.15561598383671826 0.0068590562152897865 -0.14217656117225794 0.1811806801825322 0.2793553857134428 0.09636141142419241 -0.11436531795047367 -0.2099459463235186 0.001685391431885955 0.014594129970499801 0.11270462274652615 0.06971488627560328 -0.13390463458933358 -0.0749860451437263 0.20871629255491275 0.04422876139701603 -0.006261437828516326 -0.03872434931635978 -0.06772183747148525 -0.1603218112203137 -0.032160778132333735 -0.08107134123401309 0.12074517068996715 -0.08360181188007217 -0.2078992227162646 0.05986188548751199 0.06689442970531616 0.1328132262497005 -0.0050197962622108 -0.1153219660176783 -0.20115892723832735 -0.023064167338708492 0.12531052311667934 0.006860817977964552 0.0400284472240922 0.08825405341431215 0.013857997329227547 -0.09916959297851288 -0.11622970295468188 -0.01135127677599994 0.02243823698787806 0.09560988189031042 0.02015851327154215 0.08366796271134065 0.09062260041038483 -0.08231098978756644 -0.02159162963664762 -0.04117549418890914 -0.00011139295266580377 0.14516644469734094 -0.029932676135081177 0.017058665928884074 0.07009313061437497 0.0009011550451932531 0.033105245493578406 0.03756707151144189 -0.07112578960713413 0.031930732945861434
phone 0.11954515266316566 -0.0034280314571464273 0.061481399346192143 0.17719289220547496 -0.14067647472864078 0.18889971275193057 0.045544704261910575 0.05242437393387026 0.18256183547979074 -0.06360043117140372 0.028218404264207533 -0.1863213300415421 -0.06029741335542348 0.06889253535415567 0.010196662689042886 -0.027467234970807008 0.08702693737216612 -0.08341703656736336 0.08653227533396456 0.005138368943179509 0.04276127889934291 0.07794613479392402 0.06350322366514453 0.024929435624516532 -0.05460938803652331 0.005178664092720697 -0.038615442240999845 0.02322755176659241 0.008294188632856017 0.0017514458225012484 0.008041916069667145 0.027319204780421723 0.032709696906526815 0.0014615671098749696 -0.12499643832980675 0.12149038650945676 -0.21318527042771102 -0.0744191599438353 0.10257262367176422 0.002559202962847736 0.03138490485365146 -0.09143619040196428 -0.027150698304835724 0.006316066358250708 -0.0782592972936679 0.008671590319931524 0.27044991675636076 0.012219066743224247 0.05982166655949475 0.06530627835186938 -0.023079842232540875 0.028925779201497703 0.32004302721239963 -0.07101444183758782 0.034468314397967895 -0.10826656282525125 -0.2052385865596428 -0.05672697372397715 0.015001768519194564 0.13758843633904144 -0.07087387346124399 -0.033286769397527935 0.049960676980469354 0.09557433756091753 0.06445774424690791 0.03256646153523675 -0.19176930235114398 0.05677426097863832 0.029733784373676728 0.06497856866295025 -0.09687976345917082 -0.20269080529416517 0.1266332449922662 0.13870907518806452 -0.10166611847379807 0.04450829530578877 0.15161067975355272 -0.22193679926163198 -0.0028617093833733925 0.020966599890491915 0.1288973372784097 -0.0738178937050906 0.12072884372016308 0.027829453176004156 -0.08664565886213187 -0.001097383863112066 -0.03677403183295153 -0.15457931925050483 0.16804527246484685 -0.028773945688169433 0.07748956143774607 -0.002880802001034933 0.008883360117938154 -2.045527373371881e-05 0.04662759804329316 -0.00824865103256551 -0.15089126448663254 0.1234346752720727 0.04629959722616177 -0.06590981787314835
lobster 0.06829938820140177 0.08476314813617991 0.30105993378540263 0.2384404786451987 -0.10027193366770022 -0.12967284337406673 -0.03529307494351307 -0.0527116218964786 -0.14904951429565888 0.11273294674511539 0.06593790733360658 0.08711026172371555 -0.07209017918389585 -0.31086104560975686 -0.026428318784116837 -0.23218035085993935 0.04906370360028528 -0.10047496137323032 0.0906776913921987 0.0480072583761423 0.09118394625265677 -0.10241467182007725 -0.11247087997562427 -0.06607356096751492 -0.015946212437552617 -0.09922194050671941 -0.03336342051075813 0.10102641805805583 -0.04594546548524605 -0.05089783371444645 -0.007789207623136518 0.06541786826117109 -0.010817396000110755 0.07850792649853151 0.013709705145159953 -0.020592463477235715 -0.03300379888531049 0.08458364022947068 0.04700586351582665 -0.23194275546457696 -0.1604895903727497 0.04548330577200505 -0.00818230161324241 0.1822998597947609 -0.003614110135862149 -0.012435736238238898 -0.12708231770835038 -0.07285903272194327 0.07158775643132574 -0.028552795320011606 -0.019962985666326878 -0.06984736951506194 -0.023113812154835996 0.17635632657975642 -0.20037124627741068 0.0874874259841553 -0.022271682328800085 -0.032667322977998965 -0.04787063327806767 0.09829528000215394 -0.027651365734488762 -0.08370077333452154 0.04126133624455426 -0.03290607300380057 0.16467764661469692 -0.03567575457867077 0.03697690129134531 0.1042836143917982 0.046877386505561454 -0.1304612515866994 -0.06260030521846804 -0.11286151071713932 0.033958032859531063 0.02857156895724345 0.10314570142007164 0.013274951721399484 0.036376326989620206 -0.16879857665242495 0.11473963407712873 0.027777732365609327 0.03564693574589802 0.021878020857237626 -0.10267376516517177 0.010109187922121622 -0.07794081461192881 -0.010722404904372724 -0.005215684669757641 0.04378312304510564 -0.11299033327422484 0.055495535267889286 0.09910604965091879 0.16951632366500471 -0.010645803093558285 -0.035944452433253386 -0.16928850338550397 -0.01278763797949099 -0.043380196181277725 -0.06861152767139395 -0.0608882721361568 0.005824105912426411
cat 0.12906870284274768 0.18109029510198427 -0.09952217426290501 -0.04374809401182479 0.047682155521966495 0.04031103988991888 -0.05929865502749619 0.02350100620659159 -0.02741847429842417 0.01533247529188718 -0.18155799858966734 0.07455313339766961 -0.04193766232082149 -0.05943992843493122 -0.06610500418965305 -0.036000613128846365 -0.014002355797924965 0.046016732143846925 0.07077165202581123 -0.05297942068392997 0.037753509497152234 0.06979987825970282 0.03778370796052721 0.10860864187652508 -0.05244827287038317 0.017352305352231815 -0.04145805720847349 0.03406155158879075 -0.08145915312315045 0.04129164605848075 0.018344555514019967 -0.04341819760090594 0.040695667240848644 -0.03436160740659615 0.01180188087822573 -0.051303327943329265 -0.04840551149204294 0.10465061350805656 -0.053137714432465254 0.02230233832842051 -0.006369282651671214 0.009093911019923288 -0.03309118082455798 0.11088086414540496 0.00968773269399722 -0.16668047953673443 -0.14881160991396672 -0.015392970556214745 -0.05281594603441855 0.0473444376427719 -0.14828456508677823 -0.06576496458235175 0.1302329067050874 -0.07122012389068437 -0.04165304587872572 -0.14350101847274457 0.1618903255095059 0.057221687628459965 0.012603555301545772 0.052938310112784256 0.016313286229881704 -0.11276950547916809 -0.12942928556168537 0.10986650856640098 0.048790493366294124 0.14616531801161978 -0.06946148103802938 -0.1386547067973023 -0.15418429491102192 0.026625691478787163 0.023829188623750903 0.08169242909625224 0.0794959672984375 0.0596265483173554 0.027362937155588206 -0.08892771332238138 -0.04355225045617026 -0.15286279340191258 -0.2332581838546561 0.17836063090731177 -0.11381555691939593 0.12483920615211715 -0.24013042987617766 0.11677202187242819 -0.073794630095488 0.3467014359273107 0.05241835142866405 0.1395443673250073 0.20020521240339706 -0.17878470315436848 -0.04297050243886852 -0.008502262060967538 -0.0017393432754000467 -0.024496815423416966 -0.073128998282762 0.04670204267230955 -0.12767735447443168 0.10531434659249424 -0.13862757985739585 -0.11070447741625208
radio 0.09858894880549585 0.059637231435206904 -0.016579142991524406 -0.15745957987952341 -0.0638472338805587 -0.005090227285392912 0.011378905970590165 0.1892391716113311 -0.21050106863683246 -0.06740444788615127 -0.123970743925535 -0.12868888514709473 -0.04616091996095392 0.009148442007513186 0.06945113191635795 -0.22524016754995596 -0.10982423909692471 -0.10797380889646604 0.027894734112288395 0.18720734269369627 -0.016450344592497813 -0.12556359615927448 0.19707869227087443 0.05467665288683367 -0.03752543070497831 0.27953842346606556 -0.15167906417580845 -0.12354913284281893 -0.009962969640803633 0.1964729224398008 0.03661187676067277 0.13434428146680133 0.05944172782655687 -0.022760018275139054 0.24684463338485335 0.06601012502978626 -0.0070552857899135735 -0.02369468849229597 -0.1382684808723901 -0.04804854232749523 0.07659658337824701 0.007209542966978819 -0.0219735547362006 0.06991091816646465 0.006508374007028838 0.11216129451007655 0.05688070292137705 0.008095231002578062 0.0007476844715819769 0.05080357298557917 0.11956530265044274 -0.0009491884290366456 -0.052521250168410125 0.0993487401704502 -0.04409402072161898 0.0016182903162443487 0.08152406546472225 -0.05809463503759904 0.13183400615801258 0.10760632664664004 -0.09334024328750036 -0.10540116802717495 -0.044787466716477965 0.0006227287628385913 -0.06414984235453279 -0.010891943662729242 -0.0247369385149412 -0.11062088056793998 -0.11081546698582824 0.048436131212852195 0.02751741243731499 0.14455942273305522 -0.008198503095117042 0.05929195816728835 -0.07261160698215098 0.06114445388670334 0.09329559220304462 -0.06060249687189617 -0.035310685413944734 -0.05685328641814627 0.014400951136627862 0.24788586209748126 -0.014027080473076381 0.07784516072674105 -0.06404670448118116 0.23377893010488957 -0.011042442507237684 -0.025988683992194964 0.042392486973592845 0.001329839261012774 -0.07911662776660568 0.13628776217317534 -0.026232319640857562 -0.0702887409459216 0.053555128187838634 0.05047827951914977 0.028349384294288925 -0.06777818997066909 -0.15922564297650726 -0.01330757018344454
cucumber 0.06642718212720942 -0.0062732824343439434 0.07664261131939394 -0.16380955021140622 -0.03894680696737777 -0.08753565951923695 0.14644602759150105 0.17379222208051678 -0.08817329111187079 -0.08899206390448892 -0.03236977873911158 -0.04116979027461818 0.00627483564469307 0.06705848453380713 0.07431986362900893 -0.15691905196847236 -0.058945761181877394 -0.0397184420722686 0.06465213947749487 0.14584635893935788 -0.01370355610174884 0.06176637353210549 0.06805181600506459 -0.028552313629076512 -0.002990342961596111 0.04489627851486655 -0.024757152098813063 -0.08416997919500163 0.03100359747612793 -0.13036541825000184 0.04655236500948045 0.07900897251277461 0.09943671572967963 0.0019735669883356624 -0.04422999794587011 -0.07252818896841845 0.09495512378486405 -0.05454590078328018 0.09637612539615509 0.04632772993468239 -0.039377186823140245 -0.03070323407636393 0.030791875900913708 0.10683309364154753 -0.016997241997025084 -0.19830235661776605 0.08536630535721054 -0.05473478931738214 0.018587810030843113 -0.07896617985081955 -0.07929502687398861 0.11144706429260848 -0.060216039912763815 0.013382522364596125 0.06848431934261708 -0.029282109016670377 -0.1548744529554145 0.07255030799893349 0.078554979819812 -0.001260674387008335 -0.02400660740730179 0.040967054816455704 -0.03271263268141664 -0.14379472698150092 0.04740910300113762 0.13374381361895538 0.04194546299675276 0.19419624167091193 0.1806525194403269 -0.09697414569319077 0.049252540347314695 -0.04617032986546445 -0.0721987600395648 0.04530397356205381 0.0270039102449084 -0.14065934868548988 -0.14634566342464098 0.08923784887933908 0.136276071690384 0.06557588028557539 0.1529560129077865 -0.20725847923838944 -0.04009515058091431 -0.07084250903360206 -0.03515651397047365 0.17274884118368372 0.1529717115805743 0.18969776369211547 -0.08449789453769462 -0.1737978850782856 0.05223669623924831 -0.21322576742561428 0.15890667789806925 -0.026275966117531857 -0.021872976576440602 0.1545541933292637 0.0017235060625187544 -0.06598019753217094 0.24160407013669175 0.15889484587957897
student 0.08940975358956617 -0.09345485380746851 0.044376224318404954 -0.16705288450475506 -0.06973711465380361 -0.11017965366871066 0.140034782033041 0.18996380014988176 -4.359972453968606e-05 0.02369675450263335 0.020041867335161594 0.06504592190508744 -0.0634572175315833 -0.07109048464969632 0.10077292501969008 0.10676269268785732 0.1427760426458987 -0.10807123099587786 0.10411923866854064 -0.09317621491565982 -0.005693008958308785 0.021855861811904697 -0.004442904369602886 0.051334791525400866 0.10220396714317283 -0.004373026139829743 0.007633171111276724 0.2014916593985593 0.04152906856932967 0.045429466741919625 -0.11558450847926585 -0.09716841067244511 -0.02169462092583828 -0.022927806721155575 -0.011715857910837055 -0.15965179479985567 0.06658466203946821 0.09140464529052993 0.03307906043929242 0.018494349096568854 -0.03886940294362918 -0.2575392215167905 -0.02544671996442537 -0.09423910715028126 0.12307107646108188 0.04818189721580555 -0.04775081401237713 0.08667347508451999 0.08136013276914515 0.09084610085747784 -0.03006581527796354 0.17538708947884696 0.015498237561222553 0.15244392156301262 0.00500091271144134 -0.07053688515392538 -0.16126998859291808 0.1991120433735106 -0.0547315615805056 -0.1959185484259572 0.01017467128216359 -0.08756711469054873 -0.027367756990130162 0.07651439305007994 0.060700236759789646 -0.07127534731250959 -0.12074948953228175 0.1559328265688658 0.05139508202441407 0.0785593692579023 -0.025350504730182206 0.036194911950224194 0.14703659153473334 0.12718714119573593 -0.04710536393992009 -0.09433496562143036 -0.028365258476579572 0.11612633679097763 0.15380420094284505 0.07573010575155664 -0.13840525945344906 0.0009384613206931205 0.002429034880870117 -0.18055071441833975 0.19060618282168681 0.1140415401199773 0.07210590617757676 0.17620827318043672 0.08373769311258664 -0.1386429778062131 -0.06366287466574153 0.05672663124655903 -0.06374733242785804 -0.10639891973483574 -0.08636111345703035 -0.10610443612693618 0.060563344487478465 -0.05365124728034225 0.001973894199263404 -0.08935234688250006
smart 0.08766735996231284 -0.0741085032229473 0.0490634887634523 -0.15196647024702717 -0.07502024096496192 -0.10493494429563964 0.15055661059980616 0.14352338384157357 0.0016716744622333342 0.019853502433914254 0.014219866235037258 0.07846059530611017 -0.06370293021123112 -0.05137268282668858 0.07952076425653191 0.129439071986286 0.19479021647222672 -0.05654988909992026 0.06753338895984727 -0.12533576833260826 -0.03215034003001014 0.0035789356248354686 -0.024824123011908422 0.033836539068000784 0.056577683126605965 0.004357763400907858 0.04675137864897266 0.19829863474589315 0.010886441030009892 0.06787024063202968 -0.09906096882002567 -0.10934286891631712 -0.013810833859208897 -0.02016388714289305 0.018574185841526165 -0.1085896318685727 0.10806628467302987 0.10937407152762514 -0.008367868533506134 -0.02209020475226499 -0.02169068663601553 -0.11352866353396483 0.2415788677285835 -0.05030339760838983 0.05665006446732099 0.07615605782536364 -0.04643605849014063 0.08734673794493455 0.19485062385726062 -0.008982029263819614 0.0010577545011546427 0.1424861165996037 0.17569066304527933 0.05027864170197838 0.021523370965093887 -0.03946912970875897 -0.029709659477287174 0.024696582488570193 -0.035203873856437334 -0.019737904699118288 0.022682064952109116 0.27294059613318067 0.0314806203370837 0.08942785986417487 0.005804114373288156 0.043963241950806094 0.054485196989014266 0.08727324653169231 0.0181471183609205 0.13334546247657333 -0.012700430556400355 0.07927469939575299 -0.10800208969087641 0.02092321816082543 -0.0046511559415789334 -0.1436303532856733 0.09799876099941106 -0.05588392717086116 -0.16430514415145944 0.032895670528769065 0.11339507366764673 -0.15991675540670147 -0.028020600787251916 0.22089663189521816 -0.13668888969954157 -0.16554259493230045 -0.01922038334829019 0.16090577624123878 0.10807109622616108 0.016926578822018267 0.11554761042857918 0.012882613631995402 -0.006129090797768167 0.08130371391631167 -0.13285906114035675 0.1265054825143387 0.02703982583189811 0.038881749246643935 -0.23635195805079254 -0.15382040048930962
sex 0.08742956956095793 -0.05210861926406129 0.020545810156484153 -0.01092453931876166 -0.01477543261690358 0.19747057778842814 0.22062468574063346 -0.1469352307575562 0.06269906799928088 0.07881367073356145 0.05856700238783104 0.014506433550049207 -0.05860700779259175 0.012528626670829976 -0.005920444471902127 -0.04656942750264563 -0.06013960455192688 0.015498175837697562 0.01297066120865598 0.1305439141384091 0.09849459633413786 -0.042474514419648134 0.040418761441057556 0.07606640406341546 -0.1142358337699868 0.04111242553589612 -0.10677421571493838 0.01533714847409029 0.06382256732725791 0.07959797144562572 -0.03056472076315186 -0.04102631955868741 0.010744273249412985 0.061542916808049006 -0.14413222035964332 -0.012957724361362374 -0.03766008323531312 -0.05725845918338167 0.03662010209693976 0.044868095955835845 -0.12986910501778479 0.17496401286972157 -0.004189797902712112 0.034705715835941904 0.05102704757531882 -0.04549102821087264 0.011341651306751228 0.025560424826616274 -0.004126131945441834 0.056902984964971655 -0.04711061998287555 -0.032470345949167555 -0.005286695439233291 -0.07195366877231305 0.06781893597588173 0.1633099566345308 0.03128168413321411 0.2769178271911803 -0.04665898562023436 -0.0002044275714672334 -0.11921472980308624 -0.0510085499825649 -0.015279034599254691 -0.005731605488884782 -0.1498671782836413 -0.06090524696253185 -0.09856429937392293 0.0923862731157482 0.32374329846414074 0.05267984435571915 -0.07080005426716691 0.3225123951298947 0.09348053071208048 -0.034729600134799206 0.19834847990724083 0.0565645583978199 0.08435443320861626 0.11312136350883356 -0.0677626584270037 -0.14524429187052268 -0.09248566446956948 0.04887046764547933 0.11183701339113883 0.12004016422941946 -0.004040142530219517 0.07306356065239916 0.03900102321222335 0.13401503161812192 0.011403118923889248 0.21426734821283888 0.19121868610348164 0.06602644333484718 0.02204168849720218 -0.04699156963185772 -0.09556121069854863 -0.03035627683421871 -0.1340938160335296 0.07394738701193958 0.06974822721497695 0.06192283466374668
chemistry 0.07780612288712396 -0.016451415195106973 -0.008378116519801334 -0.03223771777703652 -0.04343342268396926 0.25952547327077086 -0.01395028981866153 -0.0008141945236362477 -0.20602916110234454 0.055650385428984775 0.07901038307378037 0.08989047071742748 0.06829561578621675 -0.02893156254019953 0.008071592549179425 0.026737419392938413 0.03752907428422084 -0.1007911361301306 -0.06842316109098714 -0.07583720950734181 -0.19716700525073652 0.06636643628575814 0.00302255797633772 -0.07598199866389685 0.011445070331647073 0.0069824146494736955 0.08719094044731733 -0.04870859084335712 0.07320197551008725 -0.1153742407955028 0.15320710224564543 -0.08232463382059946 0.030158585392748936 -0.023640817786533957 -0.05966407084081106 0.1137261685601206 -0.16009467067443883 -0.02618373851208045 -0.026888086843995098 -0.08087787347298493 0.12208627784696055 0.0272281697291195 -0.07093922211705568 0.0013024422431512322 0.10051326000670485 -0.05121961462603348 0.10238058203203695 -0.05322206263742842 -0.016676652577554026 -0.08371168966863164 -0.0259936955442254 -0.008924870908036231 -0.022396799272720532 -0.06862126893029978 -0.11051888761625012 0.06785561552478862 0.033887695853128216 -0.10082244786926041 0.0262405750344646 -0.015181189951584989 0.15046632269126864 0.04334620878003528 0.0779434440342237 -0.08026692716057904 0.061686876458956104 0.044045562576429685 -0.34919822912535514 0.021744245964878804 -0.002078919306681239 -0.04448220053962173 0.07395768133568428 -0.11365153360845981 0.05850772334988617 -0.11533716482606639 0.02726131023832364 -0.2453852048334929 0.045043066061918366 0.30248176238172686 0.27479347709769086 0.1668069397950437 0.09919692715352657 0.1457823420441679 0.03281340656074057 0.0874101625837255 -0.056826389947235455 0.05715685611448786 0.030189871584575638 0.12721871736139267 -0.07769844011002155 0.08820656432795328 -0.009872929352335231 0.04911712367946773 0.0024283139615219815 -0.020430372838897093 -0.03136398954169172 -0.0489321159126218 0.07414149940023718 0.00460032444891881 -0.1559939941144078 -0.11309087572180009
vodka 0.06798232522618007 0.009253528801754323 0.0025354020855867846 -0.06432555025161804 0.02023949541854908 0.28403088988106234 0.015845508979202748 -0.07404327582872428 -0.25123956691768123 0.046056563982625705 0.08815890129751494 -0.03470794521263565 0.052680943793385136 -0.06561017682471335 0.030746332144124044 0.08012288487246973 -0.06351105031252098 -0.20882507273204573 0.041959827578511785 -0.15022216415506592 -0.1493877432907911 0.15132030553351836 -0.04746931555991771 -0.24081456899548667 0.1997568181327804 -0.002454974883819516 0.08589268273826194 -0.0394343768554564 -0.23427788371617345 -0.13302260414745315 -0.05085771729102073 -0.038103615802078224 0.10319431356423595 -0.015096957164657686 -0.013029508279901628 0.08974413490304009 -0.044499176918556406 -0.034176897981087334 -0.0008470633539575256 -0.09932374652619314 0.2835519596296477 0.01692210600321457 0.07328995829966604 0.15648250257585478 0.10228602572242465 -0.07502462003578499 0.021958222768202536 0.02014892764023879 0.047975598764952526 0.030386909756279248 0.07491377368816524 0.04543782889954143 0.07546496832569766 0.12180138228129536 0.08785121083629312 -0.14346795082338293 -0.029502924042833233 -0.10600166725881584 0.04906577072133109 0.017711516086634634 0.06578379293778422 0.004860196643522318 0.01354742227464249 0.040156480634369086 -0.008844278546496363 -0.06864066840508766 0.12814655975247033 -0.0018347860777078713 -0.21641766191288203 0.005842212406100208 -0.005173237806240036 -0.04315625995526079 -0.06625426088140385 0.0515363885256001 -0.004330676582187562 0.019640762816428226 -0.018481548105365654 -0.018051401729054055 -0.02991360748745789 -0.2405875001079525 -0.17131990974305764 -0.08159520646992617 0.08190390243206584 -0.1411743334217478 0.019756447708278727 0.08223323495543688 0.043015946071394764 -0.025451918424491522 -0.08410329058342139 0.05234867679347502 0.015809049412683733 0.08978151355430711 0.09460534963812589 -0.049186511689265404 -0.03224555845921075 -0.02315747867388518 -0.04705875127051111 -0.09723759225274842 0.12800461615465394 0.06432726331830649
voyage 0.09612492504304145 0.024248354891157953 0.13143305312496453 -0.13357912901542124 0.1355870225251299 0.009050031151872202 -0.06154582768161356 -0.038261192736902525 -0.023518235199825592 -0.19824880888000326 0.09305337830803428 -0.019018032110465728 0.06593080739415123 0.08029366583960089 0.10879183641704956 -0.04142714560502015 -0.02289859394213087 0.0152872414327133 0.1563290854507811 -0.0006434672374255802 -0.025741618670766204 0.057899321539562 -0.1330228051863664 0.023728052912975268 -0.13674781070151884 -0.14043420284010472 0.14721923165242629 -0.02918643851359495 -0.012658403876647984 0.034388176108306696 0.0018211049702290235 0.13393394046484008 0.004953173544585852 0.056609460259746024 0.04660861996473795 -0.04746597541671567 0.05508536849577663 -0.03736985002479268 -0.11923697737565332 0.11398570210486271 -0.1923497671480869 -0.05208506819502442 0.03430932587287698 -0.03662508895596479 -0.22575336364266088 -0.08673440396945334 0.010142799616479894 0.022891753647384244 -0.03561740413139815 0.14247166201152592 -0.016259902575214757 0.050254209834783764 -0.06575614709779362 0.10578945183412054 -0.04534468794394714 -0.10695861842353263 -0.040292539618693786 0.043635813103132706 -0.06751306500959597 0.025872230125551943 -0.1697438438164377 0.38376242977690733 0.0862645327256922 0.015097336778050925 0.1411428290144937 -0.0568234421568023 -0.05294425973339729 -0.03894465175516648 0.1610918028685765 0.02861077570946999 0.12796119184290922 -0.06463461177229719 0.06867128649959536 -0.0303783024267438 0.24038246169244631 -0.28397635846131336 0.09765900136419468 0.04092092636777148 0.0007003580063003499 0.1083364930344278 0.02990555576774317 -0.03290278207756777 -0.008806142411351612 -0.10223393178870431 0.05643946546830386 0.22128317212018422 0.056286155995209135 -0.024093599810917073 0.014553914832352403 -0.014479844649426294 0.0026343143531341903 -0.08368368528473058 -0.06886181976412784 -0.07076621067476348 -0.0037455950168081196 -0.004479821848023077 -0.031300550354454476 -0.03579967121631991 0.11236626211491031 0.03974072042558406
shore 0.10572383231449867 -0.0148605498226962 0.07758228910936335 -0.09435523779234858 0.1635787719047441 0.028984096445175415 -0.09700308277425383 -0.07351631611556148 -0.0361529130391923 -0.1086546854434166 0.06697034776259185 -0.12301688258129038 0.055603920150170426 0.011292503618186308 0.02133014486739404 -0.04397394404835627 0.09747865527147936 0.020948577576842604 -0.05289276594254076 -0.0646985816691098 0.06422062834027205 -0.04418961525142448 -0.07107807577904969 0.09174512832056632 0.04656568619734891 -0.10491563192782614 -0.04994292613688081 0.0755676501961403 0.13705328382237406 0.14248560443393476 -0.09215875460992673 0.055885346750883344 0.005334831760647535 -0.08014857860904157 -0.03179906208183128 0.14394567130448968 0.05780503432863297 0.004632372687203546 -0.08425429275385081 -0.05868013955464771 0.04345433863075934 -0.016437969356985237 0.04972850436805841 -0.061361055695183804 0.2158280827181074 0.03414317965022553 0.0731508514295757 -0.01853509235742088 0.10512001508131662 -0.0585179906446731 -0.10602190229065737 -0.2546962787450279 0.11965160181678251 -0.05453598480617175 -0.13442634267035322 -0.03169634608079163 -0.13273834614503635 0.09468110494486155 0.1222398108071131 -0.10633223470045809 0.09831969873915646 -0.21690873879937442 -0.03679167609543678 -0.04585576001816662 0.10188714132032516 -0.2337283361059976 0.08005326820718008 -0.05033042688239715 -0.03725132835859705 -0.09046098476086807 0.007721020754122833 0.1316099827795183 0.006961678211774744 -0.08672131499319581 -0.02187269842027683 -0.15372007018515982 0.10296705472418906 -0.054628416303684285 0.005591956147138565 -0.04406936696861868 0.1929789401860432 0.08420680103224784 0.100725143057451 0.24060430058331048 0.22359143082156874 -0.046635743603711394 -0.1236922853706608 0.0668573862154708 -0.11411535247814145 -0.15366694220008575 -0.01139747080626416 0.012744038059770677 0.014992830253649827 -0.11935464892910973 0.09837957444339608 0.1749107283434181 0.034103748873111496 0.04540160410450763 0.1143268683599878 0.00889189698318487
magician 0.09373832101789933 -0.00863369423544622 0.09330094150087473 -0.022784858606603575 0.21424337299783855 -0.0465557094455941 -0.06331866840472045 -0.033692777108133024 0.0190487445666426 -0.061634254801465706 0.042694137086393365 -0.01885454995654155 0.12236515385074735 0.09472457759639366 -0.0802061101245407 0.01128110058605731 0.09830230536385488 -0.15551626665419538 -0.11037246982066855 0.07156334009967273 0.005294468410523081 -0.04025114462662999 0.014961068566804023 0.22107128747449914 0.10498479618797103 -0.05251990749345518 -0.08711439584374948 0.01071276790216877 0.013890133778207846 0.031214489434885955 0.07862691346019873 0.008023094985855152 0.07762779355830043 0.16100833820082872 -0.11840443686084684 -0.09394694595645477 0.025485648925484182 0.10217670034392812 -0.08646524448843514 -0.1739835969741591 0.1402136421831126 0.11579908003544516 0.03552764868353577 0.02186715853519335 -0.2282483768216512 -0.2460315997391379 0.05218001355580876 0.10793303805429892 -0.20565016649187198 0.034581029148176026 -0.03990481077012166 0.216096517876986 0.0322503321051426 0.1623612761676317 0.16134579692363885 -0.11007326636041713 -0.06471889677503403 -0.14886888830895068 0.021214388823877 -0.06901311441635243 -0.004181529409059744 0.17268166944150007 0.04415645103181699 -0.03467200406219276 -0.018308194578757105 0.021051717870350456 -0.2040365926915733 0.031605479812918814 -0.012881671578927553 -0.045183729985405395 -0.01015110804944844 0.07285045559178868 0.09027175848550123 -0.049051861391088976 0.010939733417332845 0.075779026402584 0.052863193445357747 -0.042184320490640824 -0.07224869417952737 0.018749510299502975 -0.09284430814641555 0.13696380023168211 0.0010572532471429645 0.11026020802663135 0.17830849207737548 -0.037184135526988404 -0.1977333160696652 -0.0043812395285762655 -0.18080052032282073 -0.13070824377202725 0.04894371467706508 0.06184796603095565 0.11876685441487773 0.01837360163806322 -0.01290376386256315 -0.031836329276877594 0.07814855576776775 0.021864468963633532 -0.013751028278704657 0.07699235323910461
wizard 0.1294815282908118 0.03776367290493258 0.18184498866169224 -0.043586880801129935 0.16885639397250493 -0.021413995873034962 -0.0855525843012707 -0.0967316522852387 0.06891443207951098 -0.20841233278547522 0.08252140650059678 0.10284850848155813 0.055738867200220116 0.08678973969287458 0.09955779607247772 -0.006979972819351623 -0.08884163795161687 -0.028654575708854484 0.010978487344863999 0.07472414396396225 -0.03224314426129862 0.04831068416384004 -0.0003385670387944914 0.22057381902225698 -0.021818115512966623 -0.10715986396685392 0.02023573417285657 0.046495174947231134 0.11091423388211913 0.005984980687876342 -0.02741484362620132 -0.013731406586241135 0.03340342655953293 -0.017812142535694696 0.04501561731506028 -0.12639606673736667 -0.09709703443357605 0.08887870847218236 0.17182314871619808 -0.17194504799565874 0.2838236551456963 0.20715665419953241 0.006981228000476581 -0.02117463628567014 -0.07970638644978456 0.18834982411019807 -0.04712800679943316 0.08687106745084595 -0.18238813667301979 0.027371553522224833 0.10319412362479699 0.09010395636956986 0.021586354773056936 0.13893721932416853 -0.05931305687462548 -0.041814276192946497 -0.04637315121729625 -0.08005002842835558 -0.0006922601441985488 0.24659321646541685 0.24553398918706437 -0.07863323024233401 0.06820966406013075 0.06057513812044277 -0.12562081110048093 0.13667674358802928 0.04296076016571094 0.18434181437785974 -0.012789171371430555 -0.031080224048364247 -0.13321052233137937 0.05008623353344921 0.0036602357608680005 0.048285891371814875 -0.02874625471601989 -0.041248681409082937 -0.023430663235480063 -0.011176612676298844 0.10550324210370822 -0.04825054833314571 -0.014687087340745033 0.10351152405126063 -0.0686273926940048 -0.028745910591521723 -0.05769263276943934 -0.05178031884553623 -0.042685656444703936 0.04385479343705095 -0.06413553166902942 0.09480959383351267 0.13459924042330626 -0.06607482790952815 -0.06104792085559575 0.062112084716129425 -0.07353070890610577 -0.07279398874453821 -0.0131239798036484 -0.09797846678679231 -0.16114018805253746 0.02939307263981955
noon 0.08488411732941013 0.04605508117782846 0.20904248420664298 -0.0592058653211203 0.08178440507946168 -0.08184522019418496 0.010242326590756955 -0.017308285548557286 0.0008776512637468978 -0.21224277399973834 0.07688265928222122 0.10100762708714633 0.0895487751313315 0.11649251787803262 0.08105668085151654 0.017313682740604554 -0.08619140581404813 -0.021543601354652525 -0.04115717209157961 0.10652510769172255 -0.09657244683257718 0.09049034808212433 0.017500552716067975 0.16614807302236362 -0.006882800509414591 -0.0861653139635286 0.0006992983309566147 -0.020517325265991607 -0.005959784328116595 -0.09533652818554847 0.00950713109041384 0.07456991545677066 0.12190997425275597 -0.07414510650223756 -0.08694824698012028 0.023077546073365523 -0.02422046073761174 -0.06057977758184257 0.0035522268661341934 -0.01386720832078412 0.083431603669071 -0.07310047607537766 -0.11072397019073957 0.15240522126651607 0.041779997186607916 0.17857917379154095 -0.12333964322432571 0.09000667826361743 0.22579637282457168 -0.0010201479513940338 -0.10552411130160604 -0.22169071909867852 0.13774717011440257 -0.01436072389649556 0.016914959093346095 0.044644549773643065 0.19268045060382846 -0.0015174657567508449 -0.056035228283918825 -0.08682465035937917 -0.11272212116218658 0.19101543796412485 0.004790627249398368 -0.012698307413647879 0.1334222424309303 -0.28177847016840857 -0.08190080837058665 -0.217722975829846 -0.08061547508725071 0.06739012590502828 0.1531931026062256 0.08406215743301139 0.06439692506689836 -0.04182474654269339 -0.04696581676832725 -0.03420618459151589 -0.06389630535933265 -0.030140909884320086 -0.1736921518849429 -0.06137850351503136 -0.02103164667268242 0.04355378251690449 0.17643285860638092 -0.049150045820326935 0.13860981962588836 -0.06967467815243146 0.028454877367969353 -0.059395523922386353 -0.05338262530609394 -0.04991092872300375 -0.02832537566204079 0.18695882590303448 -0.08387975839722026 -0.06022495228910739 -0.1089508219719501 0.04629439815041381 -0.0885259394788819 0.019683727084656124 0.047606712869910126 0.042698567526703785
bird 0.10890578359785072 0.11395365091383909 0.28349886039816274 0.08943702665880217 -0.052333639523725245 -0.10970227915922247 0.012614049808568215 -0.06624733088296766 -0.003381130263134824 -0.15333610155925823 0.041710750704853014 0.1386094865241001 0.04897459917695765 0.05432109085236739 -0.025150107938813972 0.23173619924293384 -0.1477923623687029 0.028553449603856102 -0.270676112404311 0.0041634620411810565 -0.17299606145097665 0.03144850987535574 0.17656677683238872 -0.012378876184591773 0.1160462306714285 0.17785897553421634 -0.1690073436417453 -0.033713853923464494 -0.19233700139771043 0.09027770654600471 -0.062297030534106894 -0.10235551803818181 -0.08767478937228139 -0.13720984018764348 -0.03366422311288788 -0.059670779073340466 -0.036659277819612236 -0.10426444043032347 0.0989989182408335 0.22426137029858798 -0.20079042800071042 0.0983935644833612 -0.03703551175852002 0.010082148941568137 -0.05940898327765131 0.0889851084855614 -0.07785612753154983 -0.15188665428791143 -0.08194817894301808 0.04381091204486927 0.07700092989257348 0.04044463907685902 -0.02906181931796806 0.20283115951614566 0.008545278448110134 -0.0414787183921497 0.03786358026649612 -0.023478254888770967 -0.0016397246099681395 0.17392762316139476 0.04229476614744839 -0.008315811983162188 0.07838159880749195 0.012471457303061782 0.04316665003599719 0.07242335464374862 -0.065033143118987 0.18369565611297486 -0.01345030474633603 0.092978995143986 -0.010817872449040072 -0.031415778550973716 0.00800212294357382 0.10221341014064074 -0.0937645439557303 -0.0571178563189391 0.026783282043481838 -0.034098511511101055 -0.022312930546474503 -0.06130056606552637 -0.03789187622649583 0.07845611228472665 0.021343116155584176 0.08015978520011349 0.1014090691694908 -0.005416127855759178 -0.06372541386917283 0.1106662588876932 -0.08537897244545262 -0.008262009521641873 0.043848229107301295 -0.07169549726572985 0.0047885515847641905 0.08602991869662528 -0.01636645084294552 -0.08132611143361151 0.004187502795198811 0.06153245288446175 0.10131445574381312 -0.0852787923033345
crane 0.1080223299923961 0.03352827862083583 0.128339572649455 0.07128482556940721 -0.0626597974934517 -0.07306583986003368 0.036410841068643084 -0.045467517457483675 -0.063871745153888 -0.04387932124823147 0.0011286804366052998 -0.04941776952839949 0.009439013344132226 0.010816016022072904 0.0017791672510659071 0.3016632240356889 -0.12339342176597422 0.1063891492505069 -0.10024157085702921 -0.021994235580157562 -0.048499468573027206 -0.0003622094811657925 0.08406641347131483 -0.06110713842319919 0.02480619678869374 0.08656206802329473 -0.07364497000384702 0.014156534079986292 -0.03849928611640712 -0.007738708046466028 0.02712922306567767 -0.048787561581720276 -0.040131247636592905 0.16719878535628657 0.0946357533699833 0.01340890325311985 -0.07083804097960443 0.004860706779306961 -0.11961742617506534 0.07683190350525419 -0.12546315828832294 0.031136934266985338 -0.005695845935026359 -0.06255974843588692 0.04389008068979599 0.028969567925028444 -0.2033671319811677 -0.10502174085493392 0.3149790729574236 -0.065014392349617 -0.057344404754283804 -0.017492737467988646 0.08392310628605014 0.014850469098666975 -0.10784054733249554 0.09696626014405664 -0.12009213277754338 -0.23751669762309532 0.17617126628439345 0.15295110585811308 0.04749162212155391 -0.015861192572180723 -0.03829894057615762 0.012288424370585839 -0.12026032452272219 -0.1336318162201375 0.04701901094025931 -0.060687743691738294 0.35104564684327555 -0.008117298066534004 -0.026142302396391308 -0.14701625043047067 0.01048164270950609 -0.02503846846527594 -0.010285769683136407 -0.015605149143658948 0.03388311332777958 0.15986275197760785 -0.010362726814759398 -0.0784362667506716 -0.12103570643513756 -0.13297199927488443 -0.0745367764623067 0.09410021654383148 0.0342630580783051 0.09268538318057636 0.06185827497528354 -0.09423408898885074 0.05255694644214536 -0.09374595243701087 -0.20009308404276488 0.05357406776892878 -0.03721063423512871 -0.09679337396814126 0.07600220719387346 -0.04536702954617686 0.021249865467903285 0.08700684881356695 -0.10836651812491654 -0.01866812566607492
rooster 0.10843420143905934 0.10190220545418108 0.17562357691023597 -0.03511795904561101 -0.0010002309093234386 -0.06450378518854498 0.007194417966982066 -0.060437758304280914 0.055698751184261035 -0.13608240751290449 0.03234314388075317 0.07930277265852637 0.028026680507342396 0.10174863350000908 0.024971882981329654 0.1118594763729628 -0.0946714477719679 0.05623161268919689 -0.012493427697044968 0.03504184169282041 -0.10399121967747992 0.07288338326722586 -0.009114148348802085 0.003148539732835755 -0.041945143140794346 0.006361713716790312 0.11624266379790044 -0.10678681243169723 -0.060425238967199285 -0.11074586049433287 0.027688366858783873 0.0020142543979199353 0.009956316838664079 -0.0573579745444612 0.20076447611437553 0.0770390361794333 0.1068322848010948 -0.07613034742775548 -0.09470076595835285 0.02702399588629285 -0.20312546953632624 -0.15003575337369882 0.16880013128338467 -0.031705750260117425 -0.02224883157800337 -0.3000875676170492 0.09328939016664102 -0.007128155876762156 0.10284065053528783 -0.04352195991284686 0.07449211169985552 -0.05430181713113146 -0.07271243315768253 -0.14777085534518833 -0.05675399065082779 -0.02154669709513566 -0.003918943396393098 -0.01602245819692633 0.010961501516744045 -0.09885105467477374 -0.10032520892035703 -0.05681452223407042 -0.0336342195546266 0.07607171635287911 0.08517447445750653 -0.0936892646146794 0.02331649704875644 -0.0038869636102533875 0.05227333211735184 0.02190962773113899 -0.10457405236888608 -0.07122992797513164 -0.05946253358263658 -0.09311352607340126 0.0515058927847983 0.2611462108131094 0.20565202112715192 0.015677224197154088 0.16774840158983884 -0.01945595100386379 0.22496744168855687 0.11850389017362072 0.0258209355312184 -0.18577608479697094 -0.2011562575492729 -0.030830357280185346 0.03791866186806611 -0.0225156126205477 -0.016634363479425963 0.018733573495988854 0.04475933135427849 -0.04309902139464945 0.06592092805698467 0.04082001575452912 -0.08852897853458684 0.13541935813137793 -0.10048547766132061 -0.13195002612394297 -0.14691842835615 0.20348696912717645
year 0.09334019248321815 -0.11092902678901292 -0.019477802664472698 -0.06750030505548417 -0.038459015531120085 -0.05188679974647614 -0.09780708659004003 0.07920090035415217 0.029809595353710343 0.10492446690843124 0.020663634292054707 0.049068550638012666 -0.030937454010678444 -0.030102247678183747 -0.11935826036059659 -0.013053880663475969 -0.12377017704595629 -0.0017467441324940062 -0.0831198991052861 -0.07605545963683608 0.027305680954307854 0.14058169736274306 0.0170865542562012 -0.003275569189534472 -0.10178626236473556 -0.1525035109924975 -0.1637840349632515 -0.016343210021943024 -0.06117396145315913 -0.05778597795905213 -0.049941147536205516 0.18917762621128392 0.012325885883660185 0.0361845589883909 -0.07025763891920486 -0.12891876224173682 -0.03451657101173397 -0.1268543092372248 0.023385984727892356 -0.0054228276801180164 0.025010033834222182 0.052269873373239364 0.0536015902270405 -0.1175171754912826 0.02737155987759141 -0.028060541624975475 0.15606576950104398 -0.016125760145208945 0.1659092555561618 -0.18049432120610023 0.11512906269265032 -0.01700032760599296 -0.1990027584152129 0.11024212517570134 0.005941797097545681 -0.12697094642328946 -0.09805320254306876 0.0050958226958463665 0.026332399210361325 -0.009767689840249583 -0.038698422915490374 -0.08184574747708238 -0.011732190219300194 0.045252936542207134 0.014076313371419227 -0.0829931545743785 -0.03703460279030306 -0.16963210532467532 0.023043794935823324 0.05983174363394749 0.17672225552709428 0.06360648172950734 0.3541215247396294 0.1968789488067223 -0.035070381090027435 -0.08928480380951566 0.10330632045653543 -0.023829508391368128 -0.041892898224234594 -0.06645466314482548 -0.07240671260762686 0.05672367740101384 -0.07182181318805898 -0.033221292887223856 -0.085437686587209 -0.13142542325346768 -0.112959231621951 -0.018241805702063595 0.07496078526817967 0.2106800936777602 -0.20058241483484188 -0.16120167329510704 0.042319255843446583 0.1165080154371714 -0.05981640585992184 0.2139841294755002 0.11601509780648245 -0.06620551172377429 -0.009180020865518498 0.0036509769264481
profit 0.07589061682046916 -0.0014278608414928014 0.020087094153313473 0.09980976923825506 -0.13249365382422656 0.0877276021128792 -0.04374846976297605 0.12777832917476106 0.06401039408680338 -0.04771493942052311 0.044745212894645406 -0.1287910762623392 -0.16431155580761878 0.2512205220997304 -0.11241508044309616 -0.06603103964895869 -0.029237322862214192 -0.02269158376679557 0.009943597874221445 -0.08169497917957391 -0.1392372262709029 -0.01589882705527027 -0.1954316845152256 0.07220654385102357 0.07341267892010382 -0.019845045258105466 -0.09089728764128127 -0.04239578278114949 0.02230514327453269 -0.012318028379488581 -0.057205798642248305 -0.06210732455782828 -0.09517142176438405 0.03704577343903545 0.037227964534519806 -0.056013231059353685 0.0336008354070914 0.1041364189726794 0.030501821738551455 0.002126102346061594 -0.02472075007260008 0.12299417098748594 0.12305346160425229 0.10363377451108431 -0.0435938249738813 -0.04182488626607435 -0.00911111930081545 -0.012348266613492939 0.18160226796274348 0.12530600046227405 -0.10843263992294964 -0.06588594403853024 -0.19563668059069017 0.12602832285678367 0.03822684937781357 0.2734112709109822 -0.10288319119207906 -0.0334994331341968 -0.12277682470992275 -0.03843423360744651 0.1509851753884241 -0.05914151162544181 -0.2192349480656316 0.028166672709514663 0.17603806397208455 0.06322938963639262 -0.2395586246602982 -0.02956166908962685 -0.13336739560653713 -0.034362570654043065 0.03339373534419162 -0.0015368764498936015 -0.17219250697733732 0.0856596452930221 0.1464345645572007 0.013817580397665818 -0.048883433336518255 0.09568277750097987 -0.09659421168777026 -0.1794316940350646 0.02938697269405814 0.08074826607357044 0.02298749071933338 -0.02301241474935626 -0.03196826969026061 -0.03556851417596615 0.05769515946733137 -0.06864753614741768 0.10234755520068735 -0.1373843966739457 0.0466819491675203 -0.12452834558277007 -0.09006513086247626 -0.025213843320287557 0.05570264236295084 0.017819683807701287 0.10466108529078666 -0.06626742183443768 0.1483078611628227 -0.0350352396100034
water 0.10124405292381372 -0.015211259711782757 0.05775643675967166 0.1477255711575555 -0.16066924861004675 -0.03130407182835035 -0.01635294790038664 0.005343090799929357 -0.09153061362811432 -0.08940137251140086 0.018208307009317984 -0.08930190191098362 -0.0674806818771731 0.0006229831505616071 -0.09377017977124481 0.023616753660599555 0.0035497630915851497 -0.07139256654562845 -0.0017989744111347203 0.0030861450693756435 0.2384518721804108 -0.03016878024130327 0.055325937234523316 0.013766780028633708 -0.058596023048786354 -0.0952224591302558 0.20262039873619897 -0.044999899758596924 0.052046477172215826 -0.00576019937135749 0.0618217699778249 -0.02203949431344768 0.1483151952944602 -0.011645393320943439 -0.03255334261679335 0.004188800250646351 -0.13456479743825733 0.008906404905264032 0.025048525291325372 0.12863942981218038 0.16481434670860395 0.02916848571105633 -0.014869924615891072 -0.09558812300020417 0.06336288245981843 -0.13401034538367668 -0.16863717731566832 -0.044541918074141894 0.07171196881386477 -0.030362144406037034 0.09501327960278387 -0.04849151375208397 -0.2278140750913759 0.2696530323651863 0.0921701205466779 0.18042389796189048 0.03341362952014194 -0.03727015219943362 -0.0633553962312289 0.032307349428459656 0.0304622215610785 0.09999086099831817 -0.12378380195020475 -0.016131966863303638 0.06397900492597847 -0.09141995192277183 0.11837048575641053 0.04123802148979167 0.024545414342421742 0.08515286801421347 -0.16998651849214919 0.13670388644240336 0.09652499106783316 -0.05481675713014527 0.060776073023566884 -0.06813561460585028 -0.017719032324524195 -0.19384798314201135 0.13236991021500968 0.2419613653438647 -0.027322731842375086 -0.12257151435478303 -0.1407670887529576 0.09335154639410137 -0.16457500354852717 -0.11000371309429426 0.030729092434346645 -0.0502803911757275 -0.1608203245312324 -0.11101709554292168 -0.0698411891847264 0.16618176077707303 0.04747589089728218 0.07549263022427394 0.052982858174658684 -0.028962302916425587 -0.11700549437458714 -0.03133712862285413 0.04746891759937482 -0.004042908518539398
seafood 0.07103828976061748 0.07268415621507034 0.25011286462399895 0.22186076787587183 -0.13276210275731665 -0.08113011328191592 -0.027950232625916966 -0.025055249100744154 -0.10204049412460767 -0.00047079892061904484 0.05875882555975945 0.054196367331074954 -0.09081386127945527 -0.20639509920768254 -0.08724953833904008 -0.14237669152971785 0.03492010268420978 -0.18673045468744495 0.03690962743858703 0.00015355489745911543 0.2447044752846123 -0.0966303083469772 -0.013149788229439588 -0.1497038310064731 -0.0465248308599056 -0.14992163952125107 0.05762156570470265 0.09687509493372136 0.017011211067340676 0.040504935804213396 0.1678815395996343 0.03804019360163134 0.24987792056964933 -0.051027705928174585 -0.025147771396998878 -0.025916657712915767 -0.015436176153034923 0.12751677038740475 0.07859410495230824 -0.029858967005617798 -0.07096828170093018 0.01918146727148662 -0.026130562039173758 0.039635462800318016 -0.024002653503248483 0.05750127496711403 -0.012463392302951468 -0.013962776574514665 -0.0029234464583139694 0.04477838563860163 0.09237446638036466 0.0146770191050655 0.13379009139007528 -0.08443102497485724 -0.14223565030027224 -0.2230248617834553 -0.014236212137215803 -0.0036642182631874613 -0.08373015177442274 0.11627423944623608 -0.0023638241265827326 -0.0582002775131327 0.13895142506366598 0.14801736538380436 0.01120709925512703 -0.07237440400161711 -0.028843496148311623 -0.029488346013447124 0.09380135436148833 -0.0019254927634294095 0.06183809607292855 -0.11901308858427298 -0.05281544637903506 0.10211867959051607 -0.13077824474657399 0.11473798902051893 -0.15465823963793152 0.15649903906738072 -0.0326923737594966 -0.014757956981032282 0.11360199656406242 0.10202184091921922 0.23638487878234574 -0.0033981046670488466 0.018889933971593668 0.0746039997513397 0.010055381230734222 0.025920471600444535 0.19755963832765813 0.023565714614110046 -0.008670080155979443 -0.13222073164189474 0.009793179223347995 -0.038147810696691306 0.023524606899110793 0.08543727917055945 0.06533127461843478 0.004530504676207201 -0.024262108786972 0.03604464071438036
